,0,1,2,3,4,5,6,7,8,9,10
0,-0.051180606518771155,0.4983561623541134,0.031101326315476026,0.024550024347694918,0.06617715215966571,-0.24881939348122883,0.08501153497326755,0.41399746037917723,0.12766044044562233,0.03301375813439464,0.020132140890588266
1,-0.051180606518771155,0.4983561623541134,0.031101326315476026,0.024550024347694918,0.06617715215966571,-0.24881939348122883,0.08501153497326755,0.41399746037917723,0.12766044044562233,0.03301375813439464,0.020132140890588266
2,-0.051180606518771155,0.4983561623541134,0.031101326315476026,0.024550024347694918,0.06617715215966571,-0.24881939348122883,0.08501153497326755,0.41399746037917723,0.12766044044562233,0.03301375813439464,0.020132140890588266
3,-0.051180606518771155,0.4983561623541134,0.031101326315476026,0.024550024347694918,0.06617715215966571,-0.24881939348122883,0.08501153497326755,0.41399746037917723,0.12766044044562233,0.03301375813439464,0.020132140890588266
4,-0.051180606518771155,0.4983561623541134,0.031101326315476026,0.024550024347694918,0.06617715215966571,-0.24881939348122883,0.08501153497326755,0.41399746037917723,0.12766044044562233,0.03301375813439464,0.020132140890588266
5,-0.051180606518771155,0.4983561623541134,0.031101326315476026,0.024550024347694918,0.06617715215966571,-0.24881939348122883,0.08501153497326755,0.41399746037917723,0.12766044044562233,0.03301375813439464,0.020132140890588266
6,-0.051180606518771155,0.4983561623541134,0.031101326315476026,0.024550024347694918,0.06617715215966571,-0.24881939348122883,0.08501153497326755,0.41399746037917723,0.12766044044562233,0.03301375813439464,0.020132140890588266
7,-0.051180606518771155,0.4983561623541134,0.031101326315476026,0.024550024347694918,0.06617715215966571,-0.24881939348122883,0.08501153497326755,0.41399746037917723,0.12766044044562233,0.03301375813439464,0.020132140890588266
8,-0.051180606518771155,0.4983561623541134,0.031101326315476026,0.024550024347694918,0.06617715215966571,-0.24881939348122883,0.08501153497326755,0.41399746037917723,0.12766044044562233,0.03301375813439464,0.020132140890588266
9,-0.051180606518771155,0.4983561623541134,0.031101326315476026,0.024550024347694918,0.06617715215966571,-0.24881939348122883,0.08501153497326755,0.41399746037917723,0.12766044044562233,0.03301375813439464,0.020132140890588266
10,-0.051180606518771155,0.4983561623541134,0.031101326315476026,0.024550024347694918,0.06617715215966571,-0.24881939348122883,0.08501153497326755,0.41399746037917723,0.12766044044562233,0.03301375813439464,0.020132140890588266
11,-0.051180606518771155,0.4983561623541134,0.031101326315476026,0.024550024347694918,0.06617715215966571,-0.24881939348122883,0.08501153497326755,0.41399746037917723,0.12766044044562233,0.03301375813439464,0.020132140890588266
12,-0.051180606518771155,0.4983561623541134,0.031101326315476026,0.024550024347694918,0.06617715215966571,-0.24881939348122883,0.08501153497326755,0.41399746037917723,0.12766044044562233,0.03301375813439464,0.020132140890588266
13,-0.051180606518771155,0.4983561623541134,0.031101326315476026,0.024550024347694918,0.06617715215966571,-0.24881939348122883,0.08501153497326755,0.41399746037917723,0.12766044044562233,0.03301375813439464,0.020132140890588266
14,-0.051180606518771155,0.4983561623541134,0.031101326315476026,0.024550024347694918,0.06617715215966571,-0.24881939348122883,0.08501153497326755,0.41399746037917723,0.12766044044562233,0.03301375813439464,0.020132140890588266
15,-0.051180606518771155,0.4983561623541134,0.031101326315476026,0.024550024347694918,0.06617715215966571,-0.24881939348122883,0.08501153497326755,0.41399746037917723,0.12766044044562233,0.03301375813439464,0.020132140890588266
16,-0.051180606518771155,0.4983561623541134,0.031101326315476026,0.024550024347694918,0.06617715215966571,-0.24881939348122883,0.08501153497326755,0.41399746037917723,0.12766044044562233,0.03301375813439464,0.020132140890588266
17,-0.051180606518771155,0.4983561623541134,0.031101326315476026,0.024550024347694918,0.06617715215966571,-0.24881939348122883,0.08501153497326755,0.41399746037917723,0.12766044044562233,0.03301375813439464,0.020132140890588266
18,-0.051180606518771155,0.4983561623541134,0.031101326315476026,0.024550024347694918,0.06617715215966571,-0.24881939348122883,0.08501153497326755,0.41399746037917723,0.12766044044562233,0.03301375813439464,0.020132140890588266
19,-0.051180606518771155,0.4983561623541134,0.031101326315476026,0.024550024347694918,0.06617715215966571,-0.24881939348122883,0.08501153497326755,0.41399746037917723,0.12766044044562233,0.03301375813439464,0.020132140890588266
20,-0.051180606518771155,0.4983561623541134,0.031101326315476026,0.024550024347694918,0.06617715215966571,-0.24881939348122883,0.08501153497326755,0.41399746037917723,0.12766044044562233,0.03301375813439464,0.020132140890588266
21,-0.051180606518771155,0.4983561623541134,0.031101326315476026,0.024550024347694918,0.06617715215966571,-0.24881939348122883,0.08501153497326755,0.41399746037917723,0.12766044044562233,0.03301375813439464,0.020132140890588266
22,-0.051180606518771155,0.4983561623541134,0.031101326315476026,0.024550024347694918,0.06617715215966571,-0.24881939348122883,0.08501153497326755,0.41399746037917723,0.12766044044562233,0.03301375813439464,0.020132140890588266
23,-0.051180606518771155,0.4983561623541134,0.031101326315476026,0.024550024347694918,0.06617715215966571,-0.24881939348122883,0.08501153497326755,0.41399746037917723,0.12766044044562233,0.03301375813439464,0.020132140890588266
24,-0.051180606518771155,0.4983561623541134,0.031101326315476026,0.024550024347694918,0.06617715215966571,-0.24881939348122883,0.08501153497326755,0.41399746037917723,0.12766044044562233,0.03301375813439464,0.020132140890588266
25,-0.051180606518771155,0.4983561623541134,0.031101326315476026,0.024550024347694918,0.06617715215966571,-0.24881939348122883,0.08501153497326755,0.41399746037917723,0.12766044044562233,0.03301375813439464,0.020132140890588266
26,-0.051180606518771155,0.4983561623541134,0.031101326315476026,0.024550024347694918,0.06617715215966571,-0.24881939348122883,0.08501153497326755,0.41399746037917723,0.12766044044562233,0.03301375813439464,0.020132140890588266
27,-0.051180606518771155,0.4983561623541134,0.031101326315476026,0.024550024347694918,0.06617715215966571,-0.24881939348122883,0.08501153497326755,0.41399746037917723,0.12766044044562233,0.03301375813439464,0.020132140890588266
28,-0.051180606518771155,0.4983561623541134,0.031101326315476026,0.024550024347694918,0.06617715215966571,-0.24881939348122883,0.08501153497326755,0.41399746037917723,0.12766044044562233,0.03301375813439464,0.020132140890588266
29,-0.051180606518771155,0.4983561623541134,0.031101326315476026,0.024550024347694918,0.06617715215966571,-0.24881939348122883,0.08501153497326755,0.41399746037917723,0.12766044044562233,0.03301375813439464,0.020132140890588266
30,-0.051180606518771155,0.4983561623541134,0.031101326315476026,0.024550024347694918,0.06617715215966571,-0.24881939348122883,0.08501153497326755,0.41399746037917723,0.12766044044562233,0.03301375813439464,0.020132140890588266
31,-0.05908323001576946,-0.0709334114420116,0.13981361409617293,0.5918368262066319,-0.06470647549955515,0.23062330120493596,-0.10527688304266378,0.1390745510210603,0.13018902958191825,0.03847583979661212,0.029986838092668534
32,-0.05908323001576946,-0.0709334114420116,0.13981361409617293,0.5918368262066319,-0.06470647549955515,0.23062330120493596,-0.10527688304266378,0.1390745510210603,0.13018902958191825,0.03847583979661212,0.029986838092668534
33,-0.05908323001576946,-0.0709334114420116,0.13981361409617293,0.5918368262066319,-0.06470647549955515,0.23062330120493596,-0.10527688304266378,0.1390745510210603,0.13018902958191825,0.03847583979661212,0.029986838092668534
34,-0.05908323001576946,-0.0709334114420116,0.13981361409617293,0.5918368262066319,-0.06470647549955515,0.23062330120493596,-0.10527688304266378,0.1390745510210603,0.13018902958191825,0.03847583979661212,0.029986838092668534
35,-0.05908323001576946,-0.0709334114420116,0.13981361409617293,0.5918368262066319,-0.06470647549955515,0.23062330120493596,-0.10527688304266378,0.1390745510210603,0.13018902958191825,0.03847583979661212,0.029986838092668534
36,-0.05908323001576946,-0.0709334114420116,0.13981361409617293,0.5918368262066319,-0.06470647549955515,0.23062330120493596,-0.10527688304266378,0.1390745510210603,0.13018902958191825,0.03847583979661212,0.029986838092668534
37,-0.05908323001576946,-0.0709334114420116,0.13981361409617293,0.5918368262066319,-0.06470647549955515,0.23062330120493596,-0.10527688304266378,0.1390745510210603,0.13018902958191825,0.03847583979661212,0.029986838092668534
38,-0.05908323001576946,-0.0709334114420116,0.13981361409617293,0.5918368262066319,-0.06470647549955515,0.23062330120493596,-0.10527688304266378,0.1390745510210603,0.13018902958191825,0.03847583979661212,0.029986838092668534
39,-0.05908323001576946,-0.0709334114420116,0.13981361409617293,0.5918368262066319,-0.06470647549955515,0.23062330120493596,-0.10527688304266378,0.1390745510210603,0.13018902958191825,0.03847583979661212,0.029986838092668534
40,-0.05908323001576946,-0.0709334114420116,0.13981361409617293,0.5918368262066319,-0.06470647549955515,0.23062330120493596,-0.10527688304266378,0.1390745510210603,0.13018902958191825,0.03847583979661212,0.029986838092668534
41,-0.05908323001576946,-0.0709334114420116,0.13981361409617293,0.5918368262066319,-0.06470647549955515,0.23062330120493596,-0.10527688304266378,0.1390745510210603,0.13018902958191825,0.03847583979661212,0.029986838092668534
42,-0.05908323001576946,-0.0709334114420116,0.13981361409617293,0.5918368262066319,-0.06470647549955515,0.23062330120493596,-0.10527688304266378,0.1390745510210603,0.13018902958191825,0.03847583979661212,0.029986838092668534
43,-0.05908323001576946,-0.0709334114420116,0.13981361409617293,0.5918368262066319,-0.06470647549955515,0.23062330120493596,-0.10527688304266378,0.1390745510210603,0.13018902958191825,0.03847583979661212,0.029986838092668534
44,-0.05908323001576946,-0.0709334114420116,0.13981361409617293,0.5918368262066319,-0.06470647549955515,0.23062330120493596,-0.10527688304266378,0.1390745510210603,0.13018902958191825,0.03847583979661212,0.029986838092668534
45,-0.05908323001576946,-0.0709334114420116,0.13981361409617293,0.5918368262066319,-0.06470647549955515,0.23062330120493596,-0.10527688304266378,0.1390745510210603,0.13018902958191825,0.03847583979661212,0.029986838092668534
46,-0.05908323001576946,-0.0709334114420116,0.13981361409617293,0.5918368262066319,-0.06470647549955515,0.23062330120493596,-0.10527688304266378,0.1390745510210603,0.13018902958191825,0.03847583979661212,0.029986838092668534
47,-0.05908323001576946,-0.0709334114420116,0.13981361409617293,0.5918368262066319,-0.06470647549955515,0.23062330120493596,-0.10527688304266378,0.1390745510210603,0.13018902958191825,0.03847583979661212,0.029986838092668534
48,-0.05908323001576946,-0.0709334114420116,0.13981361409617293,0.5918368262066319,-0.06470647549955515,0.23062330120493596,-0.10527688304266378,0.1390745510210603,0.13018902958191825,0.03847583979661212,0.029986838092668534
49,-0.05908323001576946,-0.0709334114420116,0.13981361409617293,0.5918368262066319,-0.06470647549955515,0.23062330120493596,-0.10527688304266378,0.1390745510210603,0.13018902958191825,0.03847583979661212,0.029986838092668534
50,-0.05908323001576946,-0.0709334114420116,0.13981361409617293,0.5918368262066319,-0.06470647549955515,0.23062330120493596,-0.10527688304266378,0.1390745510210603,0.13018902958191825,0.03847583979661212,0.029986838092668534
51,-0.05908323001576946,-0.0709334114420116,0.13981361409617293,0.5918368262066319,-0.06470647549955515,0.23062330120493596,-0.10527688304266378,0.1390745510210603,0.13018902958191825,0.03847583979661212,0.029986838092668534
52,-0.05908323001576946,-0.0709334114420116,0.13981361409617293,0.5918368262066319,-0.06470647549955515,0.23062330120493596,-0.10527688304266378,0.1390745510210603,0.13018902958191825,0.03847583979661212,0.029986838092668534
53,-0.05908323001576946,-0.0709334114420116,0.13981361409617293,0.5918368262066319,-0.06470647549955515,0.23062330120493596,-0.10527688304266378,0.1390745510210603,0.13018902958191825,0.03847583979661212,0.029986838092668534
54,-0.05908323001576946,-0.0709334114420116,0.13981361409617293,0.5918368262066319,-0.06470647549955515,0.23062330120493596,-0.10527688304266378,0.1390745510210603,0.13018902958191825,0.03847583979661212,0.029986838092668534
55,-0.05908323001576946,-0.0709334114420116,0.13981361409617293,0.5918368262066319,-0.06470647549955515,0.23062330120493596,-0.10527688304266378,0.1390745510210603,0.13018902958191825,0.03847583979661212,0.029986838092668534
56,-0.05908323001576946,-0.0709334114420116,0.13981361409617293,0.5918368262066319,-0.06470647549955515,0.23062330120493596,-0.10527688304266378,0.1390745510210603,0.13018902958191825,0.03847583979661212,0.029986838092668534
57,-0.05908323001576946,-0.0709334114420116,0.13981361409617293,0.5918368262066319,-0.06470647549955515,0.23062330120493596,-0.10527688304266378,0.1390745510210603,0.13018902958191825,0.03847583979661212,0.029986838092668534
58,-0.05908323001576946,-0.0709334114420116,0.13981361409617293,0.5918368262066319,-0.06470647549955515,0.23062330120493596,-0.10527688304266378,0.1390745510210603,0.13018902958191825,0.03847583979661212,0.029986838092668534
59,-0.02533921864030147,-0.07511874905278121,0.06432904712711751,0.005772009657218606,0.024092957554634864,-0.008484113898116227,0.029809963300948462,1.163802119724519,-0.19105791840880107,0.0046199720722401695,0.007573930563321353
60,-0.02533921864030147,-0.07511874905278121,0.06432904712711751,0.005772009657218606,0.024092957554634864,-0.008484113898116227,0.029809963300948462,1.163802119724519,-0.19105791840880107,0.0046199720722401695,0.007573930563321353
61,-0.02533921864030147,-0.07511874905278121,0.06432904712711751,0.005772009657218606,0.024092957554634864,-0.008484113898116227,0.029809963300948462,1.163802119724519,-0.19105791840880107,0.0046199720722401695,0.007573930563321353
62,-0.02533921864030147,-0.07511874905278121,0.06432904712711751,0.005772009657218606,0.024092957554634864,-0.008484113898116227,0.029809963300948462,1.163802119724519,-0.19105791840880107,0.0046199720722401695,0.007573930563321353
63,-0.02533921864030147,-0.07511874905278121,0.06432904712711751,0.005772009657218606,0.024092957554634864,-0.008484113898116227,0.029809963300948462,1.163802119724519,-0.19105791840880107,0.0046199720722401695,0.007573930563321353
64,-0.02533921864030147,-0.07511874905278121,0.06432904712711751,0.005772009657218606,0.024092957554634864,-0.008484113898116227,0.029809963300948462,1.163802119724519,-0.19105791840880107,0.0046199720722401695,0.007573930563321353
65,-0.02533921864030147,-0.07511874905278121,0.06432904712711751,0.005772009657218606,0.024092957554634864,-0.008484113898116227,0.029809963300948462,1.163802119724519,-0.19105791840880107,0.0046199720722401695,0.007573930563321353
66,-0.02533921864030147,-0.07511874905278121,0.06432904712711751,0.005772009657218606,0.024092957554634864,-0.008484113898116227,0.029809963300948462,1.163802119724519,-0.19105791840880107,0.0046199720722401695,0.007573930563321353
67,-0.02533921864030147,-0.07511874905278121,0.06432904712711751,0.005772009657218606,0.024092957554634864,-0.008484113898116227,0.029809963300948462,1.163802119724519,-0.19105791840880107,0.0046199720722401695,0.007573930563321353
68,-0.02533921864030147,-0.07511874905278121,0.06432904712711751,0.005772009657218606,0.024092957554634864,-0.008484113898116227,0.029809963300948462,1.163802119724519,-0.19105791840880107,0.0046199720722401695,0.007573930563321353
69,-0.02533921864030147,-0.07511874905278121,0.06432904712711751,0.005772009657218606,0.024092957554634864,-0.008484113898116227,0.029809963300948462,1.163802119724519,-0.19105791840880107,0.0046199720722401695,0.007573930563321353
70,-0.02533921864030147,-0.07511874905278121,0.06432904712711751,0.005772009657218606,0.024092957554634864,-0.008484113898116227,0.029809963300948462,1.163802119724519,-0.19105791840880107,0.0046199720722401695,0.007573930563321353
71,-0.02533921864030147,-0.07511874905278121,0.06432904712711751,0.005772009657218606,0.024092957554634864,-0.008484113898116227,0.029809963300948462,1.163802119724519,-0.19105791840880107,0.0046199720722401695,0.007573930563321353
72,-0.02533921864030147,-0.07511874905278121,0.06432904712711751,0.005772009657218606,0.024092957554634864,-0.008484113898116227,0.029809963300948462,1.163802119724519,-0.19105791840880107,0.0046199720722401695,0.007573930563321353
73,-0.02533921864030147,-0.07511874905278121,0.06432904712711751,0.005772009657218606,0.024092957554634864,-0.008484113898116227,0.029809963300948462,1.163802119724519,-0.19105791840880107,0.0046199720722401695,0.007573930563321353
74,-0.02533921864030147,-0.07511874905278121,0.06432904712711751,0.005772009657218606,0.024092957554634864,-0.008484113898116227,0.029809963300948462,1.163802119724519,-0.19105791840880107,0.0046199720722401695,0.007573930563321353
75,-0.02533921864030147,-0.07511874905278121,0.06432904712711751,0.005772009657218606,0.024092957554634864,-0.008484113898116227,0.029809963300948462,1.163802119724519,-0.19105791840880107,0.0046199720722401695,0.007573930563321353
76,-0.02533921864030147,-0.07511874905278121,0.06432904712711751,0.005772009657218606,0.024092957554634864,-0.008484113898116227,0.029809963300948462,1.163802119724519,-0.19105791840880107,0.0046199720722401695,0.007573930563321353
77,-0.02533921864030147,-0.07511874905278121,0.06432904712711751,0.005772009657218606,0.024092957554634864,-0.008484113898116227,0.029809963300948462,1.163802119724519,-0.19105791840880107,0.0046199720722401695,0.007573930563321353
78,-0.02533921864030147,-0.07511874905278121,0.06432904712711751,0.005772009657218606,0.024092957554634864,-0.008484113898116227,0.029809963300948462,1.163802119724519,-0.19105791840880107,0.0046199720722401695,0.007573930563321353
79,-0.02533921864030147,-0.07511874905278121,0.06432904712711751,0.005772009657218606,0.024092957554634864,-0.008484113898116227,0.029809963300948462,1.163802119724519,-0.19105791840880107,0.0046199720722401695,0.007573930563321353
80,-0.02533921864030147,-0.07511874905278121,0.06432904712711751,0.005772009657218606,0.024092957554634864,-0.008484113898116227,0.029809963300948462,1.163802119724519,-0.19105791840880107,0.0046199720722401695,0.007573930563321353
81,-0.02533921864030147,-0.07511874905278121,0.06432904712711751,0.005772009657218606,0.024092957554634864,-0.008484113898116227,0.029809963300948462,1.163802119724519,-0.19105791840880107,0.0046199720722401695,0.007573930563321353
82,-0.02533921864030147,-0.07511874905278121,0.06432904712711751,0.005772009657218606,0.024092957554634864,-0.008484113898116227,0.029809963300948462,1.163802119724519,-0.19105791840880107,0.0046199720722401695,0.007573930563321353
83,-0.02533921864030147,-0.07511874905278121,0.06432904712711751,0.005772009657218606,0.024092957554634864,-0.008484113898116227,0.029809963300948462,1.163802119724519,-0.19105791840880107,0.0046199720722401695,0.007573930563321353
84,-0.02533921864030147,-0.07511874905278121,0.06432904712711751,0.005772009657218606,0.024092957554634864,-0.008484113898116227,0.029809963300948462,1.163802119724519,-0.19105791840880107,0.0046199720722401695,0.007573930563321353
85,-0.02533921864030147,-0.07511874905278121,0.06432904712711751,0.005772009657218606,0.024092957554634864,-0.008484113898116227,0.029809963300948462,1.163802119724519,-0.19105791840880107,0.0046199720722401695,0.007573930563321353
86,-0.02533921864030147,-0.07511874905278121,0.06432904712711751,0.005772009657218606,0.024092957554634864,-0.008484113898116227,0.029809963300948462,1.163802119724519,-0.19105791840880107,0.0046199720722401695,0.007573930563321353
87,-0.02533921864030147,-0.07511874905278121,0.06432904712711751,0.005772009657218606,0.024092957554634864,-0.008484113898116227,0.029809963300948462,1.163802119724519,-0.19105791840880107,0.0046199720722401695,0.007573930563321353
88,-0.02533921864030147,-0.07511874905278121,0.06432904712711751,0.005772009657218606,0.024092957554634864,-0.008484113898116227,0.029809963300948462,1.163802119724519,-0.19105791840880107,0.0046199720722401695,0.007573930563321353
89,-0.02533921864030147,-0.07511874905278121,0.06432904712711751,0.005772009657218606,0.024092957554634864,-0.008484113898116227,0.029809963300948462,1.163802119724519,-0.19105791840880107,0.0046199720722401695,0.007573930563321353
90,0.04156183438766825,0.07591747862480289,0.14060359788311116,0.10782717765469212,0.04197499115620966,0.053997836090745197,0.07404997201339003,0.050627031037547725,0.08571711836028782,0.12328769611586834,0.20443526667567685
91,0.04156183438766825,0.07591747862480289,0.14060359788311116,0.10782717765469212,0.04197499115620966,0.053997836090745197,0.07404997201339003,0.050627031037547725,0.08571711836028782,0.12328769611586834,0.20443526667567685
92,0.04156183438766825,0.07591747862480289,0.14060359788311116,0.10782717765469212,0.04197499115620966,0.053997836090745197,0.07404997201339003,0.050627031037547725,0.08571711836028782,0.12328769611586834,0.20443526667567685
93,0.04156183438766825,0.07591747862480289,0.14060359788311116,0.10782717765469212,0.04197499115620966,0.053997836090745197,0.07404997201339003,0.050627031037547725,0.08571711836028782,0.12328769611586834,0.20443526667567685
94,0.04156183438766825,0.07591747862480289,0.14060359788311116,0.10782717765469212,0.04197499115620966,0.053997836090745197,0.07404997201339003,0.050627031037547725,0.08571711836028782,0.12328769611586834,0.20443526667567685
95,0.04156183438766825,0.07591747862480289,0.14060359788311116,0.10782717765469212,0.04197499115620966,0.053997836090745197,0.07404997201339003,0.050627031037547725,0.08571711836028782,0.12328769611586834,0.20443526667567685
96,0.04156183438766825,0.07591747862480289,0.14060359788311116,0.10782717765469212,0.04197499115620966,0.053997836090745197,0.07404997201339003,0.050627031037547725,0.08571711836028782,0.12328769611586834,0.20443526667567685
97,0.04156183438766825,0.07591747862480289,0.14060359788311116,0.10782717765469212,0.04197499115620966,0.053997836090745197,0.07404997201339003,0.050627031037547725,0.08571711836028782,0.12328769611586834,0.20443526667567685
98,0.04156183438766825,0.07591747862480289,0.14060359788311116,0.10782717765469212,0.04197499115620966,0.053997836090745197,0.07404997201339003,0.050627031037547725,0.08571711836028782,0.12328769611586834,0.20443526667567685
99,0.04156183438766825,0.07591747862480289,0.14060359788311116,0.10782717765469212,0.04197499115620966,0.053997836090745197,0.07404997201339003,0.050627031037547725,0.08571711836028782,0.12328769611586834,0.20443526667567685
100,0.04156183438766825,0.07591747862480289,0.14060359788311116,0.10782717765469212,0.04197499115620966,0.053997836090745197,0.07404997201339003,0.050627031037547725,0.08571711836028782,0.12328769611586834,0.20443526667567685
101,0.04156183438766825,0.07591747862480289,0.14060359788311116,0.10782717765469212,0.04197499115620966,0.053997836090745197,0.07404997201339003,0.050627031037547725,0.08571711836028782,0.12328769611586834,0.20443526667567685
102,0.04156183438766825,0.07591747862480289,0.14060359788311116,0.10782717765469212,0.04197499115620966,0.053997836090745197,0.07404997201339003,0.050627031037547725,0.08571711836028782,0.12328769611586834,0.20443526667567685
103,0.04156183438766825,0.07591747862480289,0.14060359788311116,0.10782717765469212,0.04197499115620966,0.053997836090745197,0.07404997201339003,0.050627031037547725,0.08571711836028782,0.12328769611586834,0.20443526667567685
104,0.04156183438766825,0.07591747862480289,0.14060359788311116,0.10782717765469212,0.04197499115620966,0.053997836090745197,0.07404997201339003,0.050627031037547725,0.08571711836028782,0.12328769611586834,0.20443526667567685
105,0.04156183438766825,0.07591747862480289,0.14060359788311116,0.10782717765469212,0.04197499115620966,0.053997836090745197,0.07404997201339003,0.050627031037547725,0.08571711836028782,0.12328769611586834,0.20443526667567685
106,0.04156183438766825,0.07591747862480289,0.14060359788311116,0.10782717765469212,0.04197499115620966,0.053997836090745197,0.07404997201339003,0.050627031037547725,0.08571711836028782,0.12328769611586834,0.20443526667567685
107,0.04156183438766825,0.07591747862480289,0.14060359788311116,0.10782717765469212,0.04197499115620966,0.053997836090745197,0.07404997201339003,0.050627031037547725,0.08571711836028782,0.12328769611586834,0.20443526667567685
108,0.04156183438766825,0.07591747862480289,0.14060359788311116,0.10782717765469212,0.04197499115620966,0.053997836090745197,0.07404997201339003,0.050627031037547725,0.08571711836028782,0.12328769611586834,0.20443526667567685
109,0.04156183438766825,0.07591747862480289,0.14060359788311116,0.10782717765469212,0.04197499115620966,0.053997836090745197,0.07404997201339003,0.050627031037547725,0.08571711836028782,0.12328769611586834,0.20443526667567685
110,0.04156183438766825,0.07591747862480289,0.14060359788311116,0.10782717765469212,0.04197499115620966,0.053997836090745197,0.07404997201339003,0.050627031037547725,0.08571711836028782,0.12328769611586834,0.20443526667567685
111,0.04156183438766825,0.07591747862480289,0.14060359788311116,0.10782717765469212,0.04197499115620966,0.053997836090745197,0.07404997201339003,0.050627031037547725,0.08571711836028782,0.12328769611586834,0.20443526667567685
112,0.04156183438766825,0.07591747862480289,0.14060359788311116,0.10782717765469212,0.04197499115620966,0.053997836090745197,0.07404997201339003,0.050627031037547725,0.08571711836028782,0.12328769611586834,0.20443526667567685
113,0.04156183438766825,0.07591747862480289,0.14060359788311116,0.10782717765469212,0.04197499115620966,0.053997836090745197,0.07404997201339003,0.050627031037547725,0.08571711836028782,0.12328769611586834,0.20443526667567685
114,0.04156183438766825,0.07591747862480289,0.14060359788311116,0.10782717765469212,0.04197499115620966,0.053997836090745197,0.07404997201339003,0.050627031037547725,0.08571711836028782,0.12328769611586834,0.20443526667567685
115,0.04156183438766825,0.07591747862480289,0.14060359788311116,0.10782717765469212,0.04197499115620966,0.053997836090745197,0.07404997201339003,0.050627031037547725,0.08571711836028782,0.12328769611586834,0.20443526667567685
116,0.04156183438766825,0.07591747862480289,0.14060359788311116,0.10782717765469212,0.04197499115620966,0.053997836090745197,0.07404997201339003,0.050627031037547725,0.08571711836028782,0.12328769611586834,0.20443526667567685
117,0.04156183438766825,0.07591747862480289,0.14060359788311116,0.10782717765469212,0.04197499115620966,0.053997836090745197,0.07404997201339003,0.050627031037547725,0.08571711836028782,0.12328769611586834,0.20443526667567685
118,0.04156183438766825,0.07591747862480289,0.14060359788311116,0.10782717765469212,0.04197499115620966,0.053997836090745197,0.07404997201339003,0.050627031037547725,0.08571711836028782,0.12328769611586834,0.20443526667567685
119,0.04156183438766825,0.07591747862480289,0.14060359788311116,0.10782717765469212,0.04197499115620966,0.053997836090745197,0.07404997201339003,0.050627031037547725,0.08571711836028782,0.12328769611586834,0.20443526667567685
120,0.05073024230924084,-0.053136028183766996,0.15287793385582416,-0.033531639875311235,0.11466393448834071,0.05336977309251861,-0.21333233194092177,0.12464126078095521,0.36546563900613105,0.378555621782756,0.05969559468423355
121,0.05073024230924084,-0.053136028183766996,0.15287793385582416,-0.033531639875311235,0.11466393448834071,0.05336977309251861,-0.21333233194092177,0.12464126078095521,0.36546563900613105,0.378555621782756,0.05969559468423355
122,0.05073024230924084,-0.053136028183766996,0.15287793385582416,-0.033531639875311235,0.11466393448834071,0.05336977309251861,-0.21333233194092177,0.12464126078095521,0.36546563900613105,0.378555621782756,0.05969559468423355
123,0.05073024230924084,-0.053136028183766996,0.15287793385582416,-0.033531639875311235,0.11466393448834071,0.05336977309251861,-0.21333233194092177,0.12464126078095521,0.36546563900613105,0.378555621782756,0.05969559468423355
124,0.05073024230924084,-0.053136028183766996,0.15287793385582416,-0.033531639875311235,0.11466393448834071,0.05336977309251861,-0.21333233194092177,0.12464126078095521,0.36546563900613105,0.378555621782756,0.05969559468423355
125,0.05073024230924084,-0.053136028183766996,0.15287793385582416,-0.033531639875311235,0.11466393448834071,0.05336977309251861,-0.21333233194092177,0.12464126078095521,0.36546563900613105,0.378555621782756,0.05969559468423355
126,0.05073024230924084,-0.053136028183766996,0.15287793385582416,-0.033531639875311235,0.11466393448834071,0.05336977309251861,-0.21333233194092177,0.12464126078095521,0.36546563900613105,0.378555621782756,0.05969559468423355
127,0.05073024230924084,-0.053136028183766996,0.15287793385582416,-0.033531639875311235,0.11466393448834071,0.05336977309251861,-0.21333233194092177,0.12464126078095521,0.36546563900613105,0.378555621782756,0.05969559468423355
128,0.05073024230924084,-0.053136028183766996,0.15287793385582416,-0.033531639875311235,0.11466393448834071,0.05336977309251861,-0.21333233194092177,0.12464126078095521,0.36546563900613105,0.378555621782756,0.05969559468423355
129,0.05073024230924084,-0.053136028183766996,0.15287793385582416,-0.033531639875311235,0.11466393448834071,0.05336977309251861,-0.21333233194092177,0.12464126078095521,0.36546563900613105,0.378555621782756,0.05969559468423355
130,0.05073024230924084,-0.053136028183766996,0.15287793385582416,-0.033531639875311235,0.11466393448834071,0.05336977309251861,-0.21333233194092177,0.12464126078095521,0.36546563900613105,0.378555621782756,0.05969559468423355
131,0.05073024230924084,-0.053136028183766996,0.15287793385582416,-0.033531639875311235,0.11466393448834071,0.05336977309251861,-0.21333233194092177,0.12464126078095521,0.36546563900613105,0.378555621782756,0.05969559468423355
132,0.05073024230924084,-0.053136028183766996,0.15287793385582416,-0.033531639875311235,0.11466393448834071,0.05336977309251861,-0.21333233194092177,0.12464126078095521,0.36546563900613105,0.378555621782756,0.05969559468423355
133,0.05073024230924084,-0.053136028183766996,0.15287793385582416,-0.033531639875311235,0.11466393448834071,0.05336977309251861,-0.21333233194092177,0.12464126078095521,0.36546563900613105,0.378555621782756,0.05969559468423355
134,0.05073024230924084,-0.053136028183766996,0.15287793385582416,-0.033531639875311235,0.11466393448834071,0.05336977309251861,-0.21333233194092177,0.12464126078095521,0.36546563900613105,0.378555621782756,0.05969559468423355
135,0.05073024230924084,-0.053136028183766996,0.15287793385582416,-0.033531639875311235,0.11466393448834071,0.05336977309251861,-0.21333233194092177,0.12464126078095521,0.36546563900613105,0.378555621782756,0.05969559468423355
136,0.05073024230924084,-0.053136028183766996,0.15287793385582416,-0.033531639875311235,0.11466393448834071,0.05336977309251861,-0.21333233194092177,0.12464126078095521,0.36546563900613105,0.378555621782756,0.05969559468423355
137,0.05073024230924084,-0.053136028183766996,0.15287793385582416,-0.033531639875311235,0.11466393448834071,0.05336977309251861,-0.21333233194092177,0.12464126078095521,0.36546563900613105,0.378555621782756,0.05969559468423355
138,0.05073024230924084,-0.053136028183766996,0.15287793385582416,-0.033531639875311235,0.11466393448834071,0.05336977309251861,-0.21333233194092177,0.12464126078095521,0.36546563900613105,0.378555621782756,0.05969559468423355
139,0.05073024230924084,-0.053136028183766996,0.15287793385582416,-0.033531639875311235,0.11466393448834071,0.05336977309251861,-0.21333233194092177,0.12464126078095521,0.36546563900613105,0.378555621782756,0.05969559468423355
140,0.05073024230924084,-0.053136028183766996,0.15287793385582416,-0.033531639875311235,0.11466393448834071,0.05336977309251861,-0.21333233194092177,0.12464126078095521,0.36546563900613105,0.378555621782756,0.05969559468423355
141,0.05073024230924084,-0.053136028183766996,0.15287793385582416,-0.033531639875311235,0.11466393448834071,0.05336977309251861,-0.21333233194092177,0.12464126078095521,0.36546563900613105,0.378555621782756,0.05969559468423355
142,0.05073024230924084,-0.053136028183766996,0.15287793385582416,-0.033531639875311235,0.11466393448834071,0.05336977309251861,-0.21333233194092177,0.12464126078095521,0.36546563900613105,0.378555621782756,0.05969559468423355
143,0.05073024230924084,-0.053136028183766996,0.15287793385582416,-0.033531639875311235,0.11466393448834071,0.05336977309251861,-0.21333233194092177,0.12464126078095521,0.36546563900613105,0.378555621782756,0.05969559468423355
144,0.05073024230924084,-0.053136028183766996,0.15287793385582416,-0.033531639875311235,0.11466393448834071,0.05336977309251861,-0.21333233194092177,0.12464126078095521,0.36546563900613105,0.378555621782756,0.05969559468423355
145,0.05073024230924084,-0.053136028183766996,0.15287793385582416,-0.033531639875311235,0.11466393448834071,0.05336977309251861,-0.21333233194092177,0.12464126078095521,0.36546563900613105,0.378555621782756,0.05969559468423355
146,0.05073024230924084,-0.053136028183766996,0.15287793385582416,-0.033531639875311235,0.11466393448834071,0.05336977309251861,-0.21333233194092177,0.12464126078095521,0.36546563900613105,0.378555621782756,0.05969559468423355
147,0.05073024230924084,-0.053136028183766996,0.15287793385582416,-0.033531639875311235,0.11466393448834071,0.05336977309251861,-0.21333233194092177,0.12464126078095521,0.36546563900613105,0.378555621782756,0.05969559468423355
148,0.05073024230924084,-0.053136028183766996,0.15287793385582416,-0.033531639875311235,0.11466393448834071,0.05336977309251861,-0.21333233194092177,0.12464126078095521,0.36546563900613105,0.378555621782756,0.05969559468423355
149,0.05073024230924084,-0.053136028183766996,0.15287793385582416,-0.033531639875311235,0.11466393448834071,0.05336977309251861,-0.21333233194092177,0.12464126078095521,0.36546563900613105,0.378555621782756,0.05969559468423355
150,0.05073024230924084,-0.053136028183766996,0.15287793385582416,-0.033531639875311235,0.11466393448834071,0.05336977309251861,-0.21333233194092177,0.12464126078095521,0.36546563900613105,0.378555621782756,0.05969559468423355
151,0.08379564012344101,0.08360065599054209,0.3817539567400441,-0.04278690447993345,0.0790454844299106,0.2445057417478438,0.1028414209215797,0.07875425837236752,0.06703353783971998,0.08888600529380558,-0.16742979697932092
152,0.08379564012344101,0.08360065599054209,0.3817539567400441,-0.04278690447993345,0.0790454844299106,0.2445057417478438,0.1028414209215797,0.07875425837236752,0.06703353783971998,0.08888600529380558,-0.16742979697932092
153,0.08379564012344101,0.08360065599054209,0.3817539567400441,-0.04278690447993345,0.0790454844299106,0.2445057417478438,0.1028414209215797,0.07875425837236752,0.06703353783971998,0.08888600529380558,-0.16742979697932092
154,0.08379564012344101,0.08360065599054209,0.3817539567400441,-0.04278690447993345,0.0790454844299106,0.2445057417478438,0.1028414209215797,0.07875425837236752,0.06703353783971998,0.08888600529380558,-0.16742979697932092
155,0.08379564012344101,0.08360065599054209,0.3817539567400441,-0.04278690447993345,0.0790454844299106,0.2445057417478438,0.1028414209215797,0.07875425837236752,0.06703353783971998,0.08888600529380558,-0.16742979697932092
156,0.08379564012344101,0.08360065599054209,0.3817539567400441,-0.04278690447993345,0.0790454844299106,0.2445057417478438,0.1028414209215797,0.07875425837236752,0.06703353783971998,0.08888600529380558,-0.16742979697932092
157,0.08379564012344101,0.08360065599054209,0.3817539567400441,-0.04278690447993345,0.0790454844299106,0.2445057417478438,0.1028414209215797,0.07875425837236752,0.06703353783971998,0.08888600529380558,-0.16742979697932092
158,0.08379564012344101,0.08360065599054209,0.3817539567400441,-0.04278690447993345,0.0790454844299106,0.2445057417478438,0.1028414209215797,0.07875425837236752,0.06703353783971998,0.08888600529380558,-0.16742979697932092
159,0.08379564012344101,0.08360065599054209,0.3817539567400441,-0.04278690447993345,0.0790454844299106,0.2445057417478438,0.1028414209215797,0.07875425837236752,0.06703353783971998,0.08888600529380558,-0.16742979697932092
160,0.08379564012344101,0.08360065599054209,0.3817539567400441,-0.04278690447993345,0.0790454844299106,0.2445057417478438,0.1028414209215797,0.07875425837236752,0.06703353783971998,0.08888600529380558,-0.16742979697932092
161,0.08379564012344101,0.08360065599054209,0.3817539567400441,-0.04278690447993345,0.0790454844299106,0.2445057417478438,0.1028414209215797,0.07875425837236752,0.06703353783971998,0.08888600529380558,-0.16742979697932092
162,0.08379564012344101,0.08360065599054209,0.3817539567400441,-0.04278690447993345,0.0790454844299106,0.2445057417478438,0.1028414209215797,0.07875425837236752,0.06703353783971998,0.08888600529380558,-0.16742979697932092
163,0.08379564012344101,0.08360065599054209,0.3817539567400441,-0.04278690447993345,0.0790454844299106,0.2445057417478438,0.1028414209215797,0.07875425837236752,0.06703353783971998,0.08888600529380558,-0.16742979697932092
164,0.08379564012344101,0.08360065599054209,0.3817539567400441,-0.04278690447993345,0.0790454844299106,0.2445057417478438,0.1028414209215797,0.07875425837236752,0.06703353783971998,0.08888600529380558,-0.16742979697932092
165,0.08379564012344101,0.08360065599054209,0.3817539567400441,-0.04278690447993345,0.0790454844299106,0.2445057417478438,0.1028414209215797,0.07875425837236752,0.06703353783971998,0.08888600529380558,-0.16742979697932092
166,0.08379564012344101,0.08360065599054209,0.3817539567400441,-0.04278690447993345,0.0790454844299106,0.2445057417478438,0.1028414209215797,0.07875425837236752,0.06703353783971998,0.08888600529380558,-0.16742979697932092
167,0.08379564012344101,0.08360065599054209,0.3817539567400441,-0.04278690447993345,0.0790454844299106,0.2445057417478438,0.1028414209215797,0.07875425837236752,0.06703353783971998,0.08888600529380558,-0.16742979697932092
168,0.08379564012344101,0.08360065599054209,0.3817539567400441,-0.04278690447993345,0.0790454844299106,0.2445057417478438,0.1028414209215797,0.07875425837236752,0.06703353783971998,0.08888600529380558,-0.16742979697932092
169,0.08379564012344101,0.08360065599054209,0.3817539567400441,-0.04278690447993345,0.0790454844299106,0.2445057417478438,0.1028414209215797,0.07875425837236752,0.06703353783971998,0.08888600529380558,-0.16742979697932092
170,0.08379564012344101,0.08360065599054209,0.3817539567400441,-0.04278690447993345,0.0790454844299106,0.2445057417478438,0.1028414209215797,0.07875425837236752,0.06703353783971998,0.08888600529380558,-0.16742979697932092
171,0.08379564012344101,0.08360065599054209,0.3817539567400441,-0.04278690447993345,0.0790454844299106,0.2445057417478438,0.1028414209215797,0.07875425837236752,0.06703353783971998,0.08888600529380558,-0.16742979697932092
172,0.08379564012344101,0.08360065599054209,0.3817539567400441,-0.04278690447993345,0.0790454844299106,0.2445057417478438,0.1028414209215797,0.07875425837236752,0.06703353783971998,0.08888600529380558,-0.16742979697932092
173,0.08379564012344101,0.08360065599054209,0.3817539567400441,-0.04278690447993345,0.0790454844299106,0.2445057417478438,0.1028414209215797,0.07875425837236752,0.06703353783971998,0.08888600529380558,-0.16742979697932092
174,0.08379564012344101,0.08360065599054209,0.3817539567400441,-0.04278690447993345,0.0790454844299106,0.2445057417478438,0.1028414209215797,0.07875425837236752,0.06703353783971998,0.08888600529380558,-0.16742979697932092
175,0.08379564012344101,0.08360065599054209,0.3817539567400441,-0.04278690447993345,0.0790454844299106,0.2445057417478438,0.1028414209215797,0.07875425837236752,0.06703353783971998,0.08888600529380558,-0.16742979697932092
176,0.08379564012344101,0.08360065599054209,0.3817539567400441,-0.04278690447993345,0.0790454844299106,0.2445057417478438,0.1028414209215797,0.07875425837236752,0.06703353783971998,0.08888600529380558,-0.16742979697932092
177,0.08379564012344101,0.08360065599054209,0.3817539567400441,-0.04278690447993345,0.0790454844299106,0.2445057417478438,0.1028414209215797,0.07875425837236752,0.06703353783971998,0.08888600529380558,-0.16742979697932092
178,0.08379564012344101,0.08360065599054209,0.3817539567400441,-0.04278690447993345,0.0790454844299106,0.2445057417478438,0.1028414209215797,0.07875425837236752,0.06703353783971998,0.08888600529380558,-0.16742979697932092
179,0.08379564012344101,0.08360065599054209,0.3817539567400441,-0.04278690447993345,0.0790454844299106,0.2445057417478438,0.1028414209215797,0.07875425837236752,0.06703353783971998,0.08888600529380558,-0.16742979697932092
180,0.08379564012344101,0.08360065599054209,0.3817539567400441,-0.04278690447993345,0.0790454844299106,0.2445057417478438,0.1028414209215797,0.07875425837236752,0.06703353783971998,0.08888600529380558,-0.16742979697932092
181,0.05807148843694999,0.018085440333714946,0.0327043117219794,0.015469478821448395,0.01622729020560907,0.04018488589500551,0.10669220995174994,0.20355194318874087,0.44593702409592484,0.022902650668300554,0.040173276680576506
182,0.05807148843694999,0.018085440333714946,0.0327043117219794,0.015469478821448395,0.01622729020560907,0.04018488589500551,0.10669220995174994,0.20355194318874087,0.44593702409592484,0.022902650668300554,0.040173276680576506
183,0.05807148843694999,0.018085440333714946,0.0327043117219794,0.015469478821448395,0.01622729020560907,0.04018488589500551,0.10669220995174994,0.20355194318874087,0.44593702409592484,0.022902650668300554,0.040173276680576506
184,0.05807148843694999,0.018085440333714946,0.0327043117219794,0.015469478821448395,0.01622729020560907,0.04018488589500551,0.10669220995174994,0.20355194318874087,0.44593702409592484,0.022902650668300554,0.040173276680576506
185,0.05807148843694999,0.018085440333714946,0.0327043117219794,0.015469478821448395,0.01622729020560907,0.04018488589500551,0.10669220995174994,0.20355194318874087,0.44593702409592484,0.022902650668300554,0.040173276680576506
186,0.05807148843694999,0.018085440333714946,0.0327043117219794,0.015469478821448395,0.01622729020560907,0.04018488589500551,0.10669220995174994,0.20355194318874087,0.44593702409592484,0.022902650668300554,0.040173276680576506
187,0.05807148843694999,0.018085440333714946,0.0327043117219794,0.015469478821448395,0.01622729020560907,0.04018488589500551,0.10669220995174994,0.20355194318874087,0.44593702409592484,0.022902650668300554,0.040173276680576506
188,0.05807148843694999,0.018085440333714946,0.0327043117219794,0.015469478821448395,0.01622729020560907,0.04018488589500551,0.10669220995174994,0.20355194318874087,0.44593702409592484,0.022902650668300554,0.040173276680576506
189,0.05807148843694999,0.018085440333714946,0.0327043117219794,0.015469478821448395,0.01622729020560907,0.04018488589500551,0.10669220995174994,0.20355194318874087,0.44593702409592484,0.022902650668300554,0.040173276680576506
190,0.05807148843694999,0.018085440333714946,0.0327043117219794,0.015469478821448395,0.01622729020560907,0.04018488589500551,0.10669220995174994,0.20355194318874087,0.44593702409592484,0.022902650668300554,0.040173276680576506
191,0.05807148843694999,0.018085440333714946,0.0327043117219794,0.015469478821448395,0.01622729020560907,0.04018488589500551,0.10669220995174994,0.20355194318874087,0.44593702409592484,0.022902650668300554,0.040173276680576506
192,0.05807148843694999,0.018085440333714946,0.0327043117219794,0.015469478821448395,0.01622729020560907,0.04018488589500551,0.10669220995174994,0.20355194318874087,0.44593702409592484,0.022902650668300554,0.040173276680576506
193,0.05807148843694999,0.018085440333714946,0.0327043117219794,0.015469478821448395,0.01622729020560907,0.04018488589500551,0.10669220995174994,0.20355194318874087,0.44593702409592484,0.022902650668300554,0.040173276680576506
194,0.05807148843694999,0.018085440333714946,0.0327043117219794,0.015469478821448395,0.01622729020560907,0.04018488589500551,0.10669220995174994,0.20355194318874087,0.44593702409592484,0.022902650668300554,0.040173276680576506
195,0.05807148843694999,0.018085440333714946,0.0327043117219794,0.015469478821448395,0.01622729020560907,0.04018488589500551,0.10669220995174994,0.20355194318874087,0.44593702409592484,0.022902650668300554,0.040173276680576506
196,0.05807148843694999,0.018085440333714946,0.0327043117219794,0.015469478821448395,0.01622729020560907,0.04018488589500551,0.10669220995174994,0.20355194318874087,0.44593702409592484,0.022902650668300554,0.040173276680576506
197,0.05807148843694999,0.018085440333714946,0.0327043117219794,0.015469478821448395,0.01622729020560907,0.04018488589500551,0.10669220995174994,0.20355194318874087,0.44593702409592484,0.022902650668300554,0.040173276680576506
198,0.05807148843694999,0.018085440333714946,0.0327043117219794,0.015469478821448395,0.01622729020560907,0.04018488589500551,0.10669220995174994,0.20355194318874087,0.44593702409592484,0.022902650668300554,0.040173276680576506
199,0.05807148843694999,0.018085440333714946,0.0327043117219794,0.015469478821448395,0.01622729020560907,0.04018488589500551,0.10669220995174994,0.20355194318874087,0.44593702409592484,0.022902650668300554,0.040173276680576506
200,0.05807148843694999,0.018085440333714946,0.0327043117219794,0.015469478821448395,0.01622729020560907,0.04018488589500551,0.10669220995174994,0.20355194318874087,0.44593702409592484,0.022902650668300554,0.040173276680576506
201,0.05807148843694999,0.018085440333714946,0.0327043117219794,0.015469478821448395,0.01622729020560907,0.04018488589500551,0.10669220995174994,0.20355194318874087,0.44593702409592484,0.022902650668300554,0.040173276680576506
202,0.05807148843694999,0.018085440333714946,0.0327043117219794,0.015469478821448395,0.01622729020560907,0.04018488589500551,0.10669220995174994,0.20355194318874087,0.44593702409592484,0.022902650668300554,0.040173276680576506
203,0.05807148843694999,0.018085440333714946,0.0327043117219794,0.015469478821448395,0.01622729020560907,0.04018488589500551,0.10669220995174994,0.20355194318874087,0.44593702409592484,0.022902650668300554,0.040173276680576506
204,0.05807148843694999,0.018085440333714946,0.0327043117219794,0.015469478821448395,0.01622729020560907,0.04018488589500551,0.10669220995174994,0.20355194318874087,0.44593702409592484,0.022902650668300554,0.040173276680576506
205,0.05807148843694999,0.018085440333714946,0.0327043117219794,0.015469478821448395,0.01622729020560907,0.04018488589500551,0.10669220995174994,0.20355194318874087,0.44593702409592484,0.022902650668300554,0.040173276680576506
206,0.05807148843694999,0.018085440333714946,0.0327043117219794,0.015469478821448395,0.01622729020560907,0.04018488589500551,0.10669220995174994,0.20355194318874087,0.44593702409592484,0.022902650668300554,0.040173276680576506
207,0.05807148843694999,0.018085440333714946,0.0327043117219794,0.015469478821448395,0.01622729020560907,0.04018488589500551,0.10669220995174994,0.20355194318874087,0.44593702409592484,0.022902650668300554,0.040173276680576506
208,0.05807148843694999,0.018085440333714946,0.0327043117219794,0.015469478821448395,0.01622729020560907,0.04018488589500551,0.10669220995174994,0.20355194318874087,0.44593702409592484,0.022902650668300554,0.040173276680576506
209,0.05807148843694999,0.018085440333714946,0.0327043117219794,0.015469478821448395,0.01622729020560907,0.04018488589500551,0.10669220995174994,0.20355194318874087,0.44593702409592484,0.022902650668300554,0.040173276680576506
210,0.05807148843694999,0.018085440333714946,0.0327043117219794,0.015469478821448395,0.01622729020560907,0.04018488589500551,0.10669220995174994,0.20355194318874087,0.44593702409592484,0.022902650668300554,0.040173276680576506
211,0.05807148843694999,0.018085440333714946,0.0327043117219794,0.015469478821448395,0.01622729020560907,0.04018488589500551,0.10669220995174994,0.20355194318874087,0.44593702409592484,0.022902650668300554,0.040173276680576506
212,0.14788064807295284,0.038259686695188734,-0.053942771735323074,0.050089598115112856,-0.124638374054294,-0.093789074994274,0.5019025646763381,0.030258310460580567,0.47181847140986266,0.059790720569964186,-0.027629779216108916
213,0.14788064807295284,0.038259686695188734,-0.053942771735323074,0.050089598115112856,-0.124638374054294,-0.093789074994274,0.5019025646763381,0.030258310460580567,0.47181847140986266,0.059790720569964186,-0.027629779216108916
214,0.14788064807295284,0.038259686695188734,-0.053942771735323074,0.050089598115112856,-0.124638374054294,-0.093789074994274,0.5019025646763381,0.030258310460580567,0.47181847140986266,0.059790720569964186,-0.027629779216108916
215,0.14788064807295284,0.038259686695188734,-0.053942771735323074,0.050089598115112856,-0.124638374054294,-0.093789074994274,0.5019025646763381,0.030258310460580567,0.47181847140986266,0.059790720569964186,-0.027629779216108916
216,0.14788064807295284,0.038259686695188734,-0.053942771735323074,0.050089598115112856,-0.124638374054294,-0.093789074994274,0.5019025646763381,0.030258310460580567,0.47181847140986266,0.059790720569964186,-0.027629779216108916
217,0.14788064807295284,0.038259686695188734,-0.053942771735323074,0.050089598115112856,-0.124638374054294,-0.093789074994274,0.5019025646763381,0.030258310460580567,0.47181847140986266,0.059790720569964186,-0.027629779216108916
218,0.14788064807295284,0.038259686695188734,-0.053942771735323074,0.050089598115112856,-0.124638374054294,-0.093789074994274,0.5019025646763381,0.030258310460580567,0.47181847140986266,0.059790720569964186,-0.027629779216108916
219,0.14788064807295284,0.038259686695188734,-0.053942771735323074,0.050089598115112856,-0.124638374054294,-0.093789074994274,0.5019025646763381,0.030258310460580567,0.47181847140986266,0.059790720569964186,-0.027629779216108916
220,0.14788064807295284,0.038259686695188734,-0.053942771735323074,0.050089598115112856,-0.124638374054294,-0.093789074994274,0.5019025646763381,0.030258310460580567,0.47181847140986266,0.059790720569964186,-0.027629779216108916
221,0.14788064807295284,0.038259686695188734,-0.053942771735323074,0.050089598115112856,-0.124638374054294,-0.093789074994274,0.5019025646763381,0.030258310460580567,0.47181847140986266,0.059790720569964186,-0.027629779216108916
222,0.14788064807295284,0.038259686695188734,-0.053942771735323074,0.050089598115112856,-0.124638374054294,-0.093789074994274,0.5019025646763381,0.030258310460580567,0.47181847140986266,0.059790720569964186,-0.027629779216108916
223,0.14788064807295284,0.038259686695188734,-0.053942771735323074,0.050089598115112856,-0.124638374054294,-0.093789074994274,0.5019025646763381,0.030258310460580567,0.47181847140986266,0.059790720569964186,-0.027629779216108916
224,0.14788064807295284,0.038259686695188734,-0.053942771735323074,0.050089598115112856,-0.124638374054294,-0.093789074994274,0.5019025646763381,0.030258310460580567,0.47181847140986266,0.059790720569964186,-0.027629779216108916
225,0.14788064807295284,0.038259686695188734,-0.053942771735323074,0.050089598115112856,-0.124638374054294,-0.093789074994274,0.5019025646763381,0.030258310460580567,0.47181847140986266,0.059790720569964186,-0.027629779216108916
226,0.14788064807295284,0.038259686695188734,-0.053942771735323074,0.050089598115112856,-0.124638374054294,-0.093789074994274,0.5019025646763381,0.030258310460580567,0.47181847140986266,0.059790720569964186,-0.027629779216108916
227,0.14788064807295284,0.038259686695188734,-0.053942771735323074,0.050089598115112856,-0.124638374054294,-0.093789074994274,0.5019025646763381,0.030258310460580567,0.47181847140986266,0.059790720569964186,-0.027629779216108916
228,0.14788064807295284,0.038259686695188734,-0.053942771735323074,0.050089598115112856,-0.124638374054294,-0.093789074994274,0.5019025646763381,0.030258310460580567,0.47181847140986266,0.059790720569964186,-0.027629779216108916
229,0.14788064807295284,0.038259686695188734,-0.053942771735323074,0.050089598115112856,-0.124638374054294,-0.093789074994274,0.5019025646763381,0.030258310460580567,0.47181847140986266,0.059790720569964186,-0.027629779216108916
230,0.14788064807295284,0.038259686695188734,-0.053942771735323074,0.050089598115112856,-0.124638374054294,-0.093789074994274,0.5019025646763381,0.030258310460580567,0.47181847140986266,0.059790720569964186,-0.027629779216108916
231,0.14788064807295284,0.038259686695188734,-0.053942771735323074,0.050089598115112856,-0.124638374054294,-0.093789074994274,0.5019025646763381,0.030258310460580567,0.47181847140986266,0.059790720569964186,-0.027629779216108916
232,0.14788064807295284,0.038259686695188734,-0.053942771735323074,0.050089598115112856,-0.124638374054294,-0.093789074994274,0.5019025646763381,0.030258310460580567,0.47181847140986266,0.059790720569964186,-0.027629779216108916
233,0.14788064807295284,0.038259686695188734,-0.053942771735323074,0.050089598115112856,-0.124638374054294,-0.093789074994274,0.5019025646763381,0.030258310460580567,0.47181847140986266,0.059790720569964186,-0.027629779216108916
234,0.14788064807295284,0.038259686695188734,-0.053942771735323074,0.050089598115112856,-0.124638374054294,-0.093789074994274,0.5019025646763381,0.030258310460580567,0.47181847140986266,0.059790720569964186,-0.027629779216108916
235,0.14788064807295284,0.038259686695188734,-0.053942771735323074,0.050089598115112856,-0.124638374054294,-0.093789074994274,0.5019025646763381,0.030258310460580567,0.47181847140986266,0.059790720569964186,-0.027629779216108916
236,0.14788064807295284,0.038259686695188734,-0.053942771735323074,0.050089598115112856,-0.124638374054294,-0.093789074994274,0.5019025646763381,0.030258310460580567,0.47181847140986266,0.059790720569964186,-0.027629779216108916
237,0.14788064807295284,0.038259686695188734,-0.053942771735323074,0.050089598115112856,-0.124638374054294,-0.093789074994274,0.5019025646763381,0.030258310460580567,0.47181847140986266,0.059790720569964186,-0.027629779216108916
238,0.14788064807295284,0.038259686695188734,-0.053942771735323074,0.050089598115112856,-0.124638374054294,-0.093789074994274,0.5019025646763381,0.030258310460580567,0.47181847140986266,0.059790720569964186,-0.027629779216108916
239,0.14788064807295284,0.038259686695188734,-0.053942771735323074,0.050089598115112856,-0.124638374054294,-0.093789074994274,0.5019025646763381,0.030258310460580567,0.47181847140986266,0.059790720569964186,-0.027629779216108916
240,0.14788064807295284,0.038259686695188734,-0.053942771735323074,0.050089598115112856,-0.124638374054294,-0.093789074994274,0.5019025646763381,0.030258310460580567,0.47181847140986266,0.059790720569964186,-0.027629779216108916
241,0.14788064807295284,0.038259686695188734,-0.053942771735323074,0.050089598115112856,-0.124638374054294,-0.093789074994274,0.5019025646763381,0.030258310460580567,0.47181847140986266,0.059790720569964186,-0.027629779216108916
242,0.14788064807295284,0.038259686695188734,-0.053942771735323074,0.050089598115112856,-0.124638374054294,-0.093789074994274,0.5019025646763381,0.030258310460580567,0.47181847140986266,0.059790720569964186,-0.027629779216108916
243,0.15684647935488724,0.12335659310915305,0.03611804550088383,0.03738202687837786,-0.0289680839109047,0.16865428557013673,0.038639603581436,-0.04181076877601332,0.062018217888210374,0.40447848765582856,0.043285113148004435
244,0.15684647935488724,0.12335659310915305,0.03611804550088383,0.03738202687837786,-0.0289680839109047,0.16865428557013673,0.038639603581436,-0.04181076877601332,0.062018217888210374,0.40447848765582856,0.043285113148004435
245,0.15684647935488724,0.12335659310915305,0.03611804550088383,0.03738202687837786,-0.0289680839109047,0.16865428557013673,0.038639603581436,-0.04181076877601332,0.062018217888210374,0.40447848765582856,0.043285113148004435
246,0.15684647935488724,0.12335659310915305,0.03611804550088383,0.03738202687837786,-0.0289680839109047,0.16865428557013673,0.038639603581436,-0.04181076877601332,0.062018217888210374,0.40447848765582856,0.043285113148004435
247,0.15684647935488724,0.12335659310915305,0.03611804550088383,0.03738202687837786,-0.0289680839109047,0.16865428557013673,0.038639603581436,-0.04181076877601332,0.062018217888210374,0.40447848765582856,0.043285113148004435
248,0.15684647935488724,0.12335659310915305,0.03611804550088383,0.03738202687837786,-0.0289680839109047,0.16865428557013673,0.038639603581436,-0.04181076877601332,0.062018217888210374,0.40447848765582856,0.043285113148004435
249,0.15684647935488724,0.12335659310915305,0.03611804550088383,0.03738202687837786,-0.0289680839109047,0.16865428557013673,0.038639603581436,-0.04181076877601332,0.062018217888210374,0.40447848765582856,0.043285113148004435
250,0.15684647935488724,0.12335659310915305,0.03611804550088383,0.03738202687837786,-0.0289680839109047,0.16865428557013673,0.038639603581436,-0.04181076877601332,0.062018217888210374,0.40447848765582856,0.043285113148004435
251,0.15684647935488724,0.12335659310915305,0.03611804550088383,0.03738202687837786,-0.0289680839109047,0.16865428557013673,0.038639603581436,-0.04181076877601332,0.062018217888210374,0.40447848765582856,0.043285113148004435
252,0.15684647935488724,0.12335659310915305,0.03611804550088383,0.03738202687837786,-0.0289680839109047,0.16865428557013673,0.038639603581436,-0.04181076877601332,0.062018217888210374,0.40447848765582856,0.043285113148004435
253,0.15684647935488724,0.12335659310915305,0.03611804550088383,0.03738202687837786,-0.0289680839109047,0.16865428557013673,0.038639603581436,-0.04181076877601332,0.062018217888210374,0.40447848765582856,0.043285113148004435
254,0.15684647935488724,0.12335659310915305,0.03611804550088383,0.03738202687837786,-0.0289680839109047,0.16865428557013673,0.038639603581436,-0.04181076877601332,0.062018217888210374,0.40447848765582856,0.043285113148004435
255,0.15684647935488724,0.12335659310915305,0.03611804550088383,0.03738202687837786,-0.0289680839109047,0.16865428557013673,0.038639603581436,-0.04181076877601332,0.062018217888210374,0.40447848765582856,0.043285113148004435
256,0.15684647935488724,0.12335659310915305,0.03611804550088383,0.03738202687837786,-0.0289680839109047,0.16865428557013673,0.038639603581436,-0.04181076877601332,0.062018217888210374,0.40447848765582856,0.043285113148004435
257,0.15684647935488724,0.12335659310915305,0.03611804550088383,0.03738202687837786,-0.0289680839109047,0.16865428557013673,0.038639603581436,-0.04181076877601332,0.062018217888210374,0.40447848765582856,0.043285113148004435
258,0.15684647935488724,0.12335659310915305,0.03611804550088383,0.03738202687837786,-0.0289680839109047,0.16865428557013673,0.038639603581436,-0.04181076877601332,0.062018217888210374,0.40447848765582856,0.043285113148004435
259,0.15684647935488724,0.12335659310915305,0.03611804550088383,0.03738202687837786,-0.0289680839109047,0.16865428557013673,0.038639603581436,-0.04181076877601332,0.062018217888210374,0.40447848765582856,0.043285113148004435
260,0.15684647935488724,0.12335659310915305,0.03611804550088383,0.03738202687837786,-0.0289680839109047,0.16865428557013673,0.038639603581436,-0.04181076877601332,0.062018217888210374,0.40447848765582856,0.043285113148004435
261,0.15684647935488724,0.12335659310915305,0.03611804550088383,0.03738202687837786,-0.0289680839109047,0.16865428557013673,0.038639603581436,-0.04181076877601332,0.062018217888210374,0.40447848765582856,0.043285113148004435
262,0.15684647935488724,0.12335659310915305,0.03611804550088383,0.03738202687837786,-0.0289680839109047,0.16865428557013673,0.038639603581436,-0.04181076877601332,0.062018217888210374,0.40447848765582856,0.043285113148004435
263,0.15684647935488724,0.12335659310915305,0.03611804550088383,0.03738202687837786,-0.0289680839109047,0.16865428557013673,0.038639603581436,-0.04181076877601332,0.062018217888210374,0.40447848765582856,0.043285113148004435
264,0.15684647935488724,0.12335659310915305,0.03611804550088383,0.03738202687837786,-0.0289680839109047,0.16865428557013673,0.038639603581436,-0.04181076877601332,0.062018217888210374,0.40447848765582856,0.043285113148004435
265,0.15684647935488724,0.12335659310915305,0.03611804550088383,0.03738202687837786,-0.0289680839109047,0.16865428557013673,0.038639603581436,-0.04181076877601332,0.062018217888210374,0.40447848765582856,0.043285113148004435
266,0.15684647935488724,0.12335659310915305,0.03611804550088383,0.03738202687837786,-0.0289680839109047,0.16865428557013673,0.038639603581436,-0.04181076877601332,0.062018217888210374,0.40447848765582856,0.043285113148004435
267,0.15684647935488724,0.12335659310915305,0.03611804550088383,0.03738202687837786,-0.0289680839109047,0.16865428557013673,0.038639603581436,-0.04181076877601332,0.062018217888210374,0.40447848765582856,0.043285113148004435
268,0.15684647935488724,0.12335659310915305,0.03611804550088383,0.03738202687837786,-0.0289680839109047,0.16865428557013673,0.038639603581436,-0.04181076877601332,0.062018217888210374,0.40447848765582856,0.043285113148004435
269,0.15684647935488724,0.12335659310915305,0.03611804550088383,0.03738202687837786,-0.0289680839109047,0.16865428557013673,0.038639603581436,-0.04181076877601332,0.062018217888210374,0.40447848765582856,0.043285113148004435
270,0.15684647935488724,0.12335659310915305,0.03611804550088383,0.03738202687837786,-0.0289680839109047,0.16865428557013673,0.038639603581436,-0.04181076877601332,0.062018217888210374,0.40447848765582856,0.043285113148004435
271,0.15684647935488724,0.12335659310915305,0.03611804550088383,0.03738202687837786,-0.0289680839109047,0.16865428557013673,0.038639603581436,-0.04181076877601332,0.062018217888210374,0.40447848765582856,0.043285113148004435
272,0.15684647935488724,0.12335659310915305,0.03611804550088383,0.03738202687837786,-0.0289680839109047,0.16865428557013673,0.038639603581436,-0.04181076877601332,0.062018217888210374,0.40447848765582856,0.043285113148004435
273,-0.30000000000000027,0.23464938328319457,0.03287654320601034,0.70677531188841,0.023676037121032667,0.07514741093665679,0.02074936581221718,0.030902709916377648,0.030908006195414617,0.042179178829850006,0.10213605281083654
274,-0.30000000000000027,0.23464938328319457,0.03287654320601034,0.70677531188841,0.023676037121032667,0.07514741093665679,0.02074936581221718,0.030902709916377648,0.030908006195414617,0.042179178829850006,0.10213605281083654
275,-0.30000000000000027,0.23464938328319457,0.03287654320601034,0.70677531188841,0.023676037121032667,0.07514741093665679,0.02074936581221718,0.030902709916377648,0.030908006195414617,0.042179178829850006,0.10213605281083654
276,-0.30000000000000027,0.23464938328319457,0.03287654320601034,0.70677531188841,0.023676037121032667,0.07514741093665679,0.02074936581221718,0.030902709916377648,0.030908006195414617,0.042179178829850006,0.10213605281083654
277,-0.30000000000000027,0.23464938328319457,0.03287654320601034,0.70677531188841,0.023676037121032667,0.07514741093665679,0.02074936581221718,0.030902709916377648,0.030908006195414617,0.042179178829850006,0.10213605281083654
278,-0.30000000000000027,0.23464938328319457,0.03287654320601034,0.70677531188841,0.023676037121032667,0.07514741093665679,0.02074936581221718,0.030902709916377648,0.030908006195414617,0.042179178829850006,0.10213605281083654
279,-0.30000000000000027,0.23464938328319457,0.03287654320601034,0.70677531188841,0.023676037121032667,0.07514741093665679,0.02074936581221718,0.030902709916377648,0.030908006195414617,0.042179178829850006,0.10213605281083654
280,-0.30000000000000027,0.23464938328319457,0.03287654320601034,0.70677531188841,0.023676037121032667,0.07514741093665679,0.02074936581221718,0.030902709916377648,0.030908006195414617,0.042179178829850006,0.10213605281083654
281,-0.30000000000000027,0.23464938328319457,0.03287654320601034,0.70677531188841,0.023676037121032667,0.07514741093665679,0.02074936581221718,0.030902709916377648,0.030908006195414617,0.042179178829850006,0.10213605281083654
282,-0.30000000000000027,0.23464938328319457,0.03287654320601034,0.70677531188841,0.023676037121032667,0.07514741093665679,0.02074936581221718,0.030902709916377648,0.030908006195414617,0.042179178829850006,0.10213605281083654
283,-0.30000000000000027,0.23464938328319457,0.03287654320601034,0.70677531188841,0.023676037121032667,0.07514741093665679,0.02074936581221718,0.030902709916377648,0.030908006195414617,0.042179178829850006,0.10213605281083654
284,-0.30000000000000027,0.23464938328319457,0.03287654320601034,0.70677531188841,0.023676037121032667,0.07514741093665679,0.02074936581221718,0.030902709916377648,0.030908006195414617,0.042179178829850006,0.10213605281083654
285,-0.30000000000000027,0.23464938328319457,0.03287654320601034,0.70677531188841,0.023676037121032667,0.07514741093665679,0.02074936581221718,0.030902709916377648,0.030908006195414617,0.042179178829850006,0.10213605281083654
286,-0.30000000000000027,0.23464938328319457,0.03287654320601034,0.70677531188841,0.023676037121032667,0.07514741093665679,0.02074936581221718,0.030902709916377648,0.030908006195414617,0.042179178829850006,0.10213605281083654
287,-0.30000000000000027,0.23464938328319457,0.03287654320601034,0.70677531188841,0.023676037121032667,0.07514741093665679,0.02074936581221718,0.030902709916377648,0.030908006195414617,0.042179178829850006,0.10213605281083654
288,-0.30000000000000027,0.23464938328319457,0.03287654320601034,0.70677531188841,0.023676037121032667,0.07514741093665679,0.02074936581221718,0.030902709916377648,0.030908006195414617,0.042179178829850006,0.10213605281083654
289,-0.30000000000000027,0.23464938328319457,0.03287654320601034,0.70677531188841,0.023676037121032667,0.07514741093665679,0.02074936581221718,0.030902709916377648,0.030908006195414617,0.042179178829850006,0.10213605281083654
290,-0.30000000000000027,0.23464938328319457,0.03287654320601034,0.70677531188841,0.023676037121032667,0.07514741093665679,0.02074936581221718,0.030902709916377648,0.030908006195414617,0.042179178829850006,0.10213605281083654
291,-0.30000000000000027,0.23464938328319457,0.03287654320601034,0.70677531188841,0.023676037121032667,0.07514741093665679,0.02074936581221718,0.030902709916377648,0.030908006195414617,0.042179178829850006,0.10213605281083654
292,-0.30000000000000027,0.23464938328319457,0.03287654320601034,0.70677531188841,0.023676037121032667,0.07514741093665679,0.02074936581221718,0.030902709916377648,0.030908006195414617,0.042179178829850006,0.10213605281083654
293,-0.30000000000000027,0.23464938328319457,0.03287654320601034,0.70677531188841,0.023676037121032667,0.07514741093665679,0.02074936581221718,0.030902709916377648,0.030908006195414617,0.042179178829850006,0.10213605281083654
294,-0.30000000000000027,0.23464938328319457,0.03287654320601034,0.70677531188841,0.023676037121032667,0.07514741093665679,0.02074936581221718,0.030902709916377648,0.030908006195414617,0.042179178829850006,0.10213605281083654
295,-0.30000000000000027,0.23464938328319457,0.03287654320601034,0.70677531188841,0.023676037121032667,0.07514741093665679,0.02074936581221718,0.030902709916377648,0.030908006195414617,0.042179178829850006,0.10213605281083654
296,-0.30000000000000027,0.23464938328319457,0.03287654320601034,0.70677531188841,0.023676037121032667,0.07514741093665679,0.02074936581221718,0.030902709916377648,0.030908006195414617,0.042179178829850006,0.10213605281083654
297,-0.30000000000000027,0.23464938328319457,0.03287654320601034,0.70677531188841,0.023676037121032667,0.07514741093665679,0.02074936581221718,0.030902709916377648,0.030908006195414617,0.042179178829850006,0.10213605281083654
298,-0.30000000000000027,0.23464938328319457,0.03287654320601034,0.70677531188841,0.023676037121032667,0.07514741093665679,0.02074936581221718,0.030902709916377648,0.030908006195414617,0.042179178829850006,0.10213605281083654
299,-0.30000000000000027,0.23464938328319457,0.03287654320601034,0.70677531188841,0.023676037121032667,0.07514741093665679,0.02074936581221718,0.030902709916377648,0.030908006195414617,0.042179178829850006,0.10213605281083654
300,-0.30000000000000027,0.23464938328319457,0.03287654320601034,0.70677531188841,0.023676037121032667,0.07514741093665679,0.02074936581221718,0.030902709916377648,0.030908006195414617,0.042179178829850006,0.10213605281083654
301,-0.30000000000000027,0.23464938328319457,0.03287654320601034,0.70677531188841,0.023676037121032667,0.07514741093665679,0.02074936581221718,0.030902709916377648,0.030908006195414617,0.042179178829850006,0.10213605281083654
302,-0.30000000000000027,0.23464938328319457,0.03287654320601034,0.70677531188841,0.023676037121032667,0.07514741093665679,0.02074936581221718,0.030902709916377648,0.030908006195414617,0.042179178829850006,0.10213605281083654
303,-0.30000000000000027,0.23464938328319457,0.03287654320601034,0.70677531188841,0.023676037121032667,0.07514741093665679,0.02074936581221718,0.030902709916377648,0.030908006195414617,0.042179178829850006,0.10213605281083654
304,0.08109076034109126,0.04111718928607971,0.10487599753729729,0.13497425123890677,0.0399285116090526,0.22291469902661334,0.0671156113063686,0.23800361582910728,0.07634740605916131,-0.19085511330958885,0.18448707107591053
305,0.08109076034109126,0.04111718928607971,0.10487599753729729,0.13497425123890677,0.0399285116090526,0.22291469902661334,0.0671156113063686,0.23800361582910728,0.07634740605916131,-0.19085511330958885,0.18448707107591053
306,0.08109076034109126,0.04111718928607971,0.10487599753729729,0.13497425123890677,0.0399285116090526,0.22291469902661334,0.0671156113063686,0.23800361582910728,0.07634740605916131,-0.19085511330958885,0.18448707107591053
307,0.08109076034109126,0.04111718928607971,0.10487599753729729,0.13497425123890677,0.0399285116090526,0.22291469902661334,0.0671156113063686,0.23800361582910728,0.07634740605916131,-0.19085511330958885,0.18448707107591053
308,0.08109076034109126,0.04111718928607971,0.10487599753729729,0.13497425123890677,0.0399285116090526,0.22291469902661334,0.0671156113063686,0.23800361582910728,0.07634740605916131,-0.19085511330958885,0.18448707107591053
309,0.08109076034109126,0.04111718928607971,0.10487599753729729,0.13497425123890677,0.0399285116090526,0.22291469902661334,0.0671156113063686,0.23800361582910728,0.07634740605916131,-0.19085511330958885,0.18448707107591053
310,0.08109076034109126,0.04111718928607971,0.10487599753729729,0.13497425123890677,0.0399285116090526,0.22291469902661334,0.0671156113063686,0.23800361582910728,0.07634740605916131,-0.19085511330958885,0.18448707107591053
311,0.08109076034109126,0.04111718928607971,0.10487599753729729,0.13497425123890677,0.0399285116090526,0.22291469902661334,0.0671156113063686,0.23800361582910728,0.07634740605916131,-0.19085511330958885,0.18448707107591053
312,0.08109076034109126,0.04111718928607971,0.10487599753729729,0.13497425123890677,0.0399285116090526,0.22291469902661334,0.0671156113063686,0.23800361582910728,0.07634740605916131,-0.19085511330958885,0.18448707107591053
313,0.08109076034109126,0.04111718928607971,0.10487599753729729,0.13497425123890677,0.0399285116090526,0.22291469902661334,0.0671156113063686,0.23800361582910728,0.07634740605916131,-0.19085511330958885,0.18448707107591053
314,0.08109076034109126,0.04111718928607971,0.10487599753729729,0.13497425123890677,0.0399285116090526,0.22291469902661334,0.0671156113063686,0.23800361582910728,0.07634740605916131,-0.19085511330958885,0.18448707107591053
315,0.08109076034109126,0.04111718928607971,0.10487599753729729,0.13497425123890677,0.0399285116090526,0.22291469902661334,0.0671156113063686,0.23800361582910728,0.07634740605916131,-0.19085511330958885,0.18448707107591053
316,0.08109076034109126,0.04111718928607971,0.10487599753729729,0.13497425123890677,0.0399285116090526,0.22291469902661334,0.0671156113063686,0.23800361582910728,0.07634740605916131,-0.19085511330958885,0.18448707107591053
317,0.08109076034109126,0.04111718928607971,0.10487599753729729,0.13497425123890677,0.0399285116090526,0.22291469902661334,0.0671156113063686,0.23800361582910728,0.07634740605916131,-0.19085511330958885,0.18448707107591053
318,0.08109076034109126,0.04111718928607971,0.10487599753729729,0.13497425123890677,0.0399285116090526,0.22291469902661334,0.0671156113063686,0.23800361582910728,0.07634740605916131,-0.19085511330958885,0.18448707107591053
319,0.08109076034109126,0.04111718928607971,0.10487599753729729,0.13497425123890677,0.0399285116090526,0.22291469902661334,0.0671156113063686,0.23800361582910728,0.07634740605916131,-0.19085511330958885,0.18448707107591053
320,0.08109076034109126,0.04111718928607971,0.10487599753729729,0.13497425123890677,0.0399285116090526,0.22291469902661334,0.0671156113063686,0.23800361582910728,0.07634740605916131,-0.19085511330958885,0.18448707107591053
321,0.08109076034109126,0.04111718928607971,0.10487599753729729,0.13497425123890677,0.0399285116090526,0.22291469902661334,0.0671156113063686,0.23800361582910728,0.07634740605916131,-0.19085511330958885,0.18448707107591053
322,0.08109076034109126,0.04111718928607971,0.10487599753729729,0.13497425123890677,0.0399285116090526,0.22291469902661334,0.0671156113063686,0.23800361582910728,0.07634740605916131,-0.19085511330958885,0.18448707107591053
323,0.08109076034109126,0.04111718928607971,0.10487599753729729,0.13497425123890677,0.0399285116090526,0.22291469902661334,0.0671156113063686,0.23800361582910728,0.07634740605916131,-0.19085511330958885,0.18448707107591053
324,0.08109076034109126,0.04111718928607971,0.10487599753729729,0.13497425123890677,0.0399285116090526,0.22291469902661334,0.0671156113063686,0.23800361582910728,0.07634740605916131,-0.19085511330958885,0.18448707107591053
325,0.08109076034109126,0.04111718928607971,0.10487599753729729,0.13497425123890677,0.0399285116090526,0.22291469902661334,0.0671156113063686,0.23800361582910728,0.07634740605916131,-0.19085511330958885,0.18448707107591053
326,0.08109076034109126,0.04111718928607971,0.10487599753729729,0.13497425123890677,0.0399285116090526,0.22291469902661334,0.0671156113063686,0.23800361582910728,0.07634740605916131,-0.19085511330958885,0.18448707107591053
327,0.08109076034109126,0.04111718928607971,0.10487599753729729,0.13497425123890677,0.0399285116090526,0.22291469902661334,0.0671156113063686,0.23800361582910728,0.07634740605916131,-0.19085511330958885,0.18448707107591053
328,0.08109076034109126,0.04111718928607971,0.10487599753729729,0.13497425123890677,0.0399285116090526,0.22291469902661334,0.0671156113063686,0.23800361582910728,0.07634740605916131,-0.19085511330958885,0.18448707107591053
329,0.08109076034109126,0.04111718928607971,0.10487599753729729,0.13497425123890677,0.0399285116090526,0.22291469902661334,0.0671156113063686,0.23800361582910728,0.07634740605916131,-0.19085511330958885,0.18448707107591053
330,0.08109076034109126,0.04111718928607971,0.10487599753729729,0.13497425123890677,0.0399285116090526,0.22291469902661334,0.0671156113063686,0.23800361582910728,0.07634740605916131,-0.19085511330958885,0.18448707107591053
331,0.08109076034109126,0.04111718928607971,0.10487599753729729,0.13497425123890677,0.0399285116090526,0.22291469902661334,0.0671156113063686,0.23800361582910728,0.07634740605916131,-0.19085511330958885,0.18448707107591053
332,0.08109076034109126,0.04111718928607971,0.10487599753729729,0.13497425123890677,0.0399285116090526,0.22291469902661334,0.0671156113063686,0.23800361582910728,0.07634740605916131,-0.19085511330958885,0.18448707107591053
333,0.08109076034109126,0.04111718928607971,0.10487599753729729,0.13497425123890677,0.0399285116090526,0.22291469902661334,0.0671156113063686,0.23800361582910728,0.07634740605916131,-0.19085511330958885,0.18448707107591053
334,0.07336962422781117,0.02363852906671551,0.14356934495427356,0.005399783801418731,0.010652096946875635,-0.06257985565358268,0.27417218592105275,0.0032841188240853355,0.3714872342146278,-0.032939487928977135,0.18994642562569924
335,0.07336962422781117,0.02363852906671551,0.14356934495427356,0.005399783801418731,0.010652096946875635,-0.06257985565358268,0.27417218592105275,0.0032841188240853355,0.3714872342146278,-0.032939487928977135,0.18994642562569924
336,0.07336962422781117,0.02363852906671551,0.14356934495427356,0.005399783801418731,0.010652096946875635,-0.06257985565358268,0.27417218592105275,0.0032841188240853355,0.3714872342146278,-0.032939487928977135,0.18994642562569924
337,0.07336962422781117,0.02363852906671551,0.14356934495427356,0.005399783801418731,0.010652096946875635,-0.06257985565358268,0.27417218592105275,0.0032841188240853355,0.3714872342146278,-0.032939487928977135,0.18994642562569924
338,0.07336962422781117,0.02363852906671551,0.14356934495427356,0.005399783801418731,0.010652096946875635,-0.06257985565358268,0.27417218592105275,0.0032841188240853355,0.3714872342146278,-0.032939487928977135,0.18994642562569924
339,0.07336962422781117,0.02363852906671551,0.14356934495427356,0.005399783801418731,0.010652096946875635,-0.06257985565358268,0.27417218592105275,0.0032841188240853355,0.3714872342146278,-0.032939487928977135,0.18994642562569924
340,0.07336962422781117,0.02363852906671551,0.14356934495427356,0.005399783801418731,0.010652096946875635,-0.06257985565358268,0.27417218592105275,0.0032841188240853355,0.3714872342146278,-0.032939487928977135,0.18994642562569924
341,0.07336962422781117,0.02363852906671551,0.14356934495427356,0.005399783801418731,0.010652096946875635,-0.06257985565358268,0.27417218592105275,0.0032841188240853355,0.3714872342146278,-0.032939487928977135,0.18994642562569924
342,0.07336962422781117,0.02363852906671551,0.14356934495427356,0.005399783801418731,0.010652096946875635,-0.06257985565358268,0.27417218592105275,0.0032841188240853355,0.3714872342146278,-0.032939487928977135,0.18994642562569924
343,0.07336962422781117,0.02363852906671551,0.14356934495427356,0.005399783801418731,0.010652096946875635,-0.06257985565358268,0.27417218592105275,0.0032841188240853355,0.3714872342146278,-0.032939487928977135,0.18994642562569924
344,0.07336962422781117,0.02363852906671551,0.14356934495427356,0.005399783801418731,0.010652096946875635,-0.06257985565358268,0.27417218592105275,0.0032841188240853355,0.3714872342146278,-0.032939487928977135,0.18994642562569924
345,0.07336962422781117,0.02363852906671551,0.14356934495427356,0.005399783801418731,0.010652096946875635,-0.06257985565358268,0.27417218592105275,0.0032841188240853355,0.3714872342146278,-0.032939487928977135,0.18994642562569924
346,0.07336962422781117,0.02363852906671551,0.14356934495427356,0.005399783801418731,0.010652096946875635,-0.06257985565358268,0.27417218592105275,0.0032841188240853355,0.3714872342146278,-0.032939487928977135,0.18994642562569924
347,0.07336962422781117,0.02363852906671551,0.14356934495427356,0.005399783801418731,0.010652096946875635,-0.06257985565358268,0.27417218592105275,0.0032841188240853355,0.3714872342146278,-0.032939487928977135,0.18994642562569924
348,0.07336962422781117,0.02363852906671551,0.14356934495427356,0.005399783801418731,0.010652096946875635,-0.06257985565358268,0.27417218592105275,0.0032841188240853355,0.3714872342146278,-0.032939487928977135,0.18994642562569924
349,0.07336962422781117,0.02363852906671551,0.14356934495427356,0.005399783801418731,0.010652096946875635,-0.06257985565358268,0.27417218592105275,0.0032841188240853355,0.3714872342146278,-0.032939487928977135,0.18994642562569924
350,0.07336962422781117,0.02363852906671551,0.14356934495427356,0.005399783801418731,0.010652096946875635,-0.06257985565358268,0.27417218592105275,0.0032841188240853355,0.3714872342146278,-0.032939487928977135,0.18994642562569924
351,0.07336962422781117,0.02363852906671551,0.14356934495427356,0.005399783801418731,0.010652096946875635,-0.06257985565358268,0.27417218592105275,0.0032841188240853355,0.3714872342146278,-0.032939487928977135,0.18994642562569924
352,0.07336962422781117,0.02363852906671551,0.14356934495427356,0.005399783801418731,0.010652096946875635,-0.06257985565358268,0.27417218592105275,0.0032841188240853355,0.3714872342146278,-0.032939487928977135,0.18994642562569924
353,0.07336962422781117,0.02363852906671551,0.14356934495427356,0.005399783801418731,0.010652096946875635,-0.06257985565358268,0.27417218592105275,0.0032841188240853355,0.3714872342146278,-0.032939487928977135,0.18994642562569924
354,0.07336962422781117,0.02363852906671551,0.14356934495427356,0.005399783801418731,0.010652096946875635,-0.06257985565358268,0.27417218592105275,0.0032841188240853355,0.3714872342146278,-0.032939487928977135,0.18994642562569924
355,0.07336962422781117,0.02363852906671551,0.14356934495427356,0.005399783801418731,0.010652096946875635,-0.06257985565358268,0.27417218592105275,0.0032841188240853355,0.3714872342146278,-0.032939487928977135,0.18994642562569924
356,0.07336962422781117,0.02363852906671551,0.14356934495427356,0.005399783801418731,0.010652096946875635,-0.06257985565358268,0.27417218592105275,0.0032841188240853355,0.3714872342146278,-0.032939487928977135,0.18994642562569924
357,0.07336962422781117,0.02363852906671551,0.14356934495427356,0.005399783801418731,0.010652096946875635,-0.06257985565358268,0.27417218592105275,0.0032841188240853355,0.3714872342146278,-0.032939487928977135,0.18994642562569924
358,0.07336962422781117,0.02363852906671551,0.14356934495427356,0.005399783801418731,0.010652096946875635,-0.06257985565358268,0.27417218592105275,0.0032841188240853355,0.3714872342146278,-0.032939487928977135,0.18994642562569924
359,0.07336962422781117,0.02363852906671551,0.14356934495427356,0.005399783801418731,0.010652096946875635,-0.06257985565358268,0.27417218592105275,0.0032841188240853355,0.3714872342146278,-0.032939487928977135,0.18994642562569924
360,0.07336962422781117,0.02363852906671551,0.14356934495427356,0.005399783801418731,0.010652096946875635,-0.06257985565358268,0.27417218592105275,0.0032841188240853355,0.3714872342146278,-0.032939487928977135,0.18994642562569924
361,0.07336962422781117,0.02363852906671551,0.14356934495427356,0.005399783801418731,0.010652096946875635,-0.06257985565358268,0.27417218592105275,0.0032841188240853355,0.3714872342146278,-0.032939487928977135,0.18994642562569924
362,0.07336962422781117,0.02363852906671551,0.14356934495427356,0.005399783801418731,0.010652096946875635,-0.06257985565358268,0.27417218592105275,0.0032841188240853355,0.3714872342146278,-0.032939487928977135,0.18994642562569924
363,0.07336962422781117,0.02363852906671551,0.14356934495427356,0.005399783801418731,0.010652096946875635,-0.06257985565358268,0.27417218592105275,0.0032841188240853355,0.3714872342146278,-0.032939487928977135,0.18994642562569924
364,0.07336962422781117,0.02363852906671551,0.14356934495427356,0.005399783801418731,0.010652096946875635,-0.06257985565358268,0.27417218592105275,0.0032841188240853355,0.3714872342146278,-0.032939487928977135,0.18994642562569924
365,0.043231356702261706,0.04549947353473108,0.09043675769863917,0.012231013560427504,0.027869676169912067,0.09023186076575762,0.031559029465809185,0.03246690698302083,0.05128801853543735,0.810737649287477,-0.23555174270347343
366,0.043231356702261706,0.04549947353473108,0.09043675769863917,0.012231013560427504,0.027869676169912067,0.09023186076575762,0.031559029465809185,0.03246690698302083,0.05128801853543735,0.810737649287477,-0.23555174270347343
367,0.043231356702261706,0.04549947353473108,0.09043675769863917,0.012231013560427504,0.027869676169912067,0.09023186076575762,0.031559029465809185,0.03246690698302083,0.05128801853543735,0.810737649287477,-0.23555174270347343
368,0.043231356702261706,0.04549947353473108,0.09043675769863917,0.012231013560427504,0.027869676169912067,0.09023186076575762,0.031559029465809185,0.03246690698302083,0.05128801853543735,0.810737649287477,-0.23555174270347343
369,0.043231356702261706,0.04549947353473108,0.09043675769863917,0.012231013560427504,0.027869676169912067,0.09023186076575762,0.031559029465809185,0.03246690698302083,0.05128801853543735,0.810737649287477,-0.23555174270347343
370,0.043231356702261706,0.04549947353473108,0.09043675769863917,0.012231013560427504,0.027869676169912067,0.09023186076575762,0.031559029465809185,0.03246690698302083,0.05128801853543735,0.810737649287477,-0.23555174270347343
371,0.043231356702261706,0.04549947353473108,0.09043675769863917,0.012231013560427504,0.027869676169912067,0.09023186076575762,0.031559029465809185,0.03246690698302083,0.05128801853543735,0.810737649287477,-0.23555174270347343
372,0.043231356702261706,0.04549947353473108,0.09043675769863917,0.012231013560427504,0.027869676169912067,0.09023186076575762,0.031559029465809185,0.03246690698302083,0.05128801853543735,0.810737649287477,-0.23555174270347343
373,0.043231356702261706,0.04549947353473108,0.09043675769863917,0.012231013560427504,0.027869676169912067,0.09023186076575762,0.031559029465809185,0.03246690698302083,0.05128801853543735,0.810737649287477,-0.23555174270347343
374,0.043231356702261706,0.04549947353473108,0.09043675769863917,0.012231013560427504,0.027869676169912067,0.09023186076575762,0.031559029465809185,0.03246690698302083,0.05128801853543735,0.810737649287477,-0.23555174270347343
375,0.043231356702261706,0.04549947353473108,0.09043675769863917,0.012231013560427504,0.027869676169912067,0.09023186076575762,0.031559029465809185,0.03246690698302083,0.05128801853543735,0.810737649287477,-0.23555174270347343
376,0.043231356702261706,0.04549947353473108,0.09043675769863917,0.012231013560427504,0.027869676169912067,0.09023186076575762,0.031559029465809185,0.03246690698302083,0.05128801853543735,0.810737649287477,-0.23555174270347343
377,0.043231356702261706,0.04549947353473108,0.09043675769863917,0.012231013560427504,0.027869676169912067,0.09023186076575762,0.031559029465809185,0.03246690698302083,0.05128801853543735,0.810737649287477,-0.23555174270347343
378,0.043231356702261706,0.04549947353473108,0.09043675769863917,0.012231013560427504,0.027869676169912067,0.09023186076575762,0.031559029465809185,0.03246690698302083,0.05128801853543735,0.810737649287477,-0.23555174270347343
379,0.043231356702261706,0.04549947353473108,0.09043675769863917,0.012231013560427504,0.027869676169912067,0.09023186076575762,0.031559029465809185,0.03246690698302083,0.05128801853543735,0.810737649287477,-0.23555174270347343
380,0.043231356702261706,0.04549947353473108,0.09043675769863917,0.012231013560427504,0.027869676169912067,0.09023186076575762,0.031559029465809185,0.03246690698302083,0.05128801853543735,0.810737649287477,-0.23555174270347343
381,0.043231356702261706,0.04549947353473108,0.09043675769863917,0.012231013560427504,0.027869676169912067,0.09023186076575762,0.031559029465809185,0.03246690698302083,0.05128801853543735,0.810737649287477,-0.23555174270347343
382,0.043231356702261706,0.04549947353473108,0.09043675769863917,0.012231013560427504,0.027869676169912067,0.09023186076575762,0.031559029465809185,0.03246690698302083,0.05128801853543735,0.810737649287477,-0.23555174270347343
383,0.043231356702261706,0.04549947353473108,0.09043675769863917,0.012231013560427504,0.027869676169912067,0.09023186076575762,0.031559029465809185,0.03246690698302083,0.05128801853543735,0.810737649287477,-0.23555174270347343
384,0.043231356702261706,0.04549947353473108,0.09043675769863917,0.012231013560427504,0.027869676169912067,0.09023186076575762,0.031559029465809185,0.03246690698302083,0.05128801853543735,0.810737649287477,-0.23555174270347343
385,0.043231356702261706,0.04549947353473108,0.09043675769863917,0.012231013560427504,0.027869676169912067,0.09023186076575762,0.031559029465809185,0.03246690698302083,0.05128801853543735,0.810737649287477,-0.23555174270347343
386,0.043231356702261706,0.04549947353473108,0.09043675769863917,0.012231013560427504,0.027869676169912067,0.09023186076575762,0.031559029465809185,0.03246690698302083,0.05128801853543735,0.810737649287477,-0.23555174270347343
387,0.043231356702261706,0.04549947353473108,0.09043675769863917,0.012231013560427504,0.027869676169912067,0.09023186076575762,0.031559029465809185,0.03246690698302083,0.05128801853543735,0.810737649287477,-0.23555174270347343
388,0.043231356702261706,0.04549947353473108,0.09043675769863917,0.012231013560427504,0.027869676169912067,0.09023186076575762,0.031559029465809185,0.03246690698302083,0.05128801853543735,0.810737649287477,-0.23555174270347343
389,0.043231356702261706,0.04549947353473108,0.09043675769863917,0.012231013560427504,0.027869676169912067,0.09023186076575762,0.031559029465809185,0.03246690698302083,0.05128801853543735,0.810737649287477,-0.23555174270347343
390,0.043231356702261706,0.04549947353473108,0.09043675769863917,0.012231013560427504,0.027869676169912067,0.09023186076575762,0.031559029465809185,0.03246690698302083,0.05128801853543735,0.810737649287477,-0.23555174270347343
391,0.043231356702261706,0.04549947353473108,0.09043675769863917,0.012231013560427504,0.027869676169912067,0.09023186076575762,0.031559029465809185,0.03246690698302083,0.05128801853543735,0.810737649287477,-0.23555174270347343
392,0.043231356702261706,0.04549947353473108,0.09043675769863917,0.012231013560427504,0.027869676169912067,0.09023186076575762,0.031559029465809185,0.03246690698302083,0.05128801853543735,0.810737649287477,-0.23555174270347343
393,0.043231356702261706,0.04549947353473108,0.09043675769863917,0.012231013560427504,0.027869676169912067,0.09023186076575762,0.031559029465809185,0.03246690698302083,0.05128801853543735,0.810737649287477,-0.23555174270347343
394,0.043231356702261706,0.04549947353473108,0.09043675769863917,0.012231013560427504,0.027869676169912067,0.09023186076575762,0.031559029465809185,0.03246690698302083,0.05128801853543735,0.810737649287477,-0.23555174270347343
395,0.043231356702261706,0.04549947353473108,0.09043675769863917,0.012231013560427504,0.027869676169912067,0.09023186076575762,0.031559029465809185,0.03246690698302083,0.05128801853543735,0.810737649287477,-0.23555174270347343
396,0.010078740913395749,0.006476455647106558,-0.11662476753616015,-0.01725614546205332,0.025308892974784558,0.02495282979067924,0.026261882261333906,0.010249632176000936,0.055542694891542926,0.008235420546360922,0.9667743637970085
397,0.010078740913395749,0.006476455647106558,-0.11662476753616015,-0.01725614546205332,0.025308892974784558,0.02495282979067924,0.026261882261333906,0.010249632176000936,0.055542694891542926,0.008235420546360922,0.9667743637970085
398,0.010078740913395749,0.006476455647106558,-0.11662476753616015,-0.01725614546205332,0.025308892974784558,0.02495282979067924,0.026261882261333906,0.010249632176000936,0.055542694891542926,0.008235420546360922,0.9667743637970085
399,0.010078740913395749,0.006476455647106558,-0.11662476753616015,-0.01725614546205332,0.025308892974784558,0.02495282979067924,0.026261882261333906,0.010249632176000936,0.055542694891542926,0.008235420546360922,0.9667743637970085
400,0.010078740913395749,0.006476455647106558,-0.11662476753616015,-0.01725614546205332,0.025308892974784558,0.02495282979067924,0.026261882261333906,0.010249632176000936,0.055542694891542926,0.008235420546360922,0.9667743637970085
401,0.010078740913395749,0.006476455647106558,-0.11662476753616015,-0.01725614546205332,0.025308892974784558,0.02495282979067924,0.026261882261333906,0.010249632176000936,0.055542694891542926,0.008235420546360922,0.9667743637970085
402,0.010078740913395749,0.006476455647106558,-0.11662476753616015,-0.01725614546205332,0.025308892974784558,0.02495282979067924,0.026261882261333906,0.010249632176000936,0.055542694891542926,0.008235420546360922,0.9667743637970085
403,0.010078740913395749,0.006476455647106558,-0.11662476753616015,-0.01725614546205332,0.025308892974784558,0.02495282979067924,0.026261882261333906,0.010249632176000936,0.055542694891542926,0.008235420546360922,0.9667743637970085
404,0.010078740913395749,0.006476455647106558,-0.11662476753616015,-0.01725614546205332,0.025308892974784558,0.02495282979067924,0.026261882261333906,0.010249632176000936,0.055542694891542926,0.008235420546360922,0.9667743637970085
405,0.010078740913395749,0.006476455647106558,-0.11662476753616015,-0.01725614546205332,0.025308892974784558,0.02495282979067924,0.026261882261333906,0.010249632176000936,0.055542694891542926,0.008235420546360922,0.9667743637970085
406,0.010078740913395749,0.006476455647106558,-0.11662476753616015,-0.01725614546205332,0.025308892974784558,0.02495282979067924,0.026261882261333906,0.010249632176000936,0.055542694891542926,0.008235420546360922,0.9667743637970085
407,0.010078740913395749,0.006476455647106558,-0.11662476753616015,-0.01725614546205332,0.025308892974784558,0.02495282979067924,0.026261882261333906,0.010249632176000936,0.055542694891542926,0.008235420546360922,0.9667743637970085
408,0.010078740913395749,0.006476455647106558,-0.11662476753616015,-0.01725614546205332,0.025308892974784558,0.02495282979067924,0.026261882261333906,0.010249632176000936,0.055542694891542926,0.008235420546360922,0.9667743637970085
409,0.010078740913395749,0.006476455647106558,-0.11662476753616015,-0.01725614546205332,0.025308892974784558,0.02495282979067924,0.026261882261333906,0.010249632176000936,0.055542694891542926,0.008235420546360922,0.9667743637970085
410,0.010078740913395749,0.006476455647106558,-0.11662476753616015,-0.01725614546205332,0.025308892974784558,0.02495282979067924,0.026261882261333906,0.010249632176000936,0.055542694891542926,0.008235420546360922,0.9667743637970085
411,0.010078740913395749,0.006476455647106558,-0.11662476753616015,-0.01725614546205332,0.025308892974784558,0.02495282979067924,0.026261882261333906,0.010249632176000936,0.055542694891542926,0.008235420546360922,0.9667743637970085
412,0.010078740913395749,0.006476455647106558,-0.11662476753616015,-0.01725614546205332,0.025308892974784558,0.02495282979067924,0.026261882261333906,0.010249632176000936,0.055542694891542926,0.008235420546360922,0.9667743637970085
413,0.010078740913395749,0.006476455647106558,-0.11662476753616015,-0.01725614546205332,0.025308892974784558,0.02495282979067924,0.026261882261333906,0.010249632176000936,0.055542694891542926,0.008235420546360922,0.9667743637970085
414,0.010078740913395749,0.006476455647106558,-0.11662476753616015,-0.01725614546205332,0.025308892974784558,0.02495282979067924,0.026261882261333906,0.010249632176000936,0.055542694891542926,0.008235420546360922,0.9667743637970085
415,0.010078740913395749,0.006476455647106558,-0.11662476753616015,-0.01725614546205332,0.025308892974784558,0.02495282979067924,0.026261882261333906,0.010249632176000936,0.055542694891542926,0.008235420546360922,0.9667743637970085
416,0.010078740913395749,0.006476455647106558,-0.11662476753616015,-0.01725614546205332,0.025308892974784558,0.02495282979067924,0.026261882261333906,0.010249632176000936,0.055542694891542926,0.008235420546360922,0.9667743637970085
417,0.010078740913395749,0.006476455647106558,-0.11662476753616015,-0.01725614546205332,0.025308892974784558,0.02495282979067924,0.026261882261333906,0.010249632176000936,0.055542694891542926,0.008235420546360922,0.9667743637970085
418,0.010078740913395749,0.006476455647106558,-0.11662476753616015,-0.01725614546205332,0.025308892974784558,0.02495282979067924,0.026261882261333906,0.010249632176000936,0.055542694891542926,0.008235420546360922,0.9667743637970085
419,0.010078740913395749,0.006476455647106558,-0.11662476753616015,-0.01725614546205332,0.025308892974784558,0.02495282979067924,0.026261882261333906,0.010249632176000936,0.055542694891542926,0.008235420546360922,0.9667743637970085
420,0.010078740913395749,0.006476455647106558,-0.11662476753616015,-0.01725614546205332,0.025308892974784558,0.02495282979067924,0.026261882261333906,0.010249632176000936,0.055542694891542926,0.008235420546360922,0.9667743637970085
421,0.010078740913395749,0.006476455647106558,-0.11662476753616015,-0.01725614546205332,0.025308892974784558,0.02495282979067924,0.026261882261333906,0.010249632176000936,0.055542694891542926,0.008235420546360922,0.9667743637970085
422,0.010078740913395749,0.006476455647106558,-0.11662476753616015,-0.01725614546205332,0.025308892974784558,0.02495282979067924,0.026261882261333906,0.010249632176000936,0.055542694891542926,0.008235420546360922,0.9667743637970085
423,0.010078740913395749,0.006476455647106558,-0.11662476753616015,-0.01725614546205332,0.025308892974784558,0.02495282979067924,0.026261882261333906,0.010249632176000936,0.055542694891542926,0.008235420546360922,0.9667743637970085
424,0.0554195926178874,0.0496435675199215,0.10693436887799214,0.03323028222751711,0.03702321667216505,0.03869261615528978,0.03758944295628623,0.020729953007110776,0.0574090832577933,0.8317749008008293,-0.26844702409279253
425,0.0554195926178874,0.0496435675199215,0.10693436887799214,0.03323028222751711,0.03702321667216505,0.03869261615528978,0.03758944295628623,0.020729953007110776,0.0574090832577933,0.8317749008008293,-0.26844702409279253
426,0.0554195926178874,0.0496435675199215,0.10693436887799214,0.03323028222751711,0.03702321667216505,0.03869261615528978,0.03758944295628623,0.020729953007110776,0.0574090832577933,0.8317749008008293,-0.26844702409279253
427,0.0554195926178874,0.0496435675199215,0.10693436887799214,0.03323028222751711,0.03702321667216505,0.03869261615528978,0.03758944295628623,0.020729953007110776,0.0574090832577933,0.8317749008008293,-0.26844702409279253
428,0.0554195926178874,0.0496435675199215,0.10693436887799214,0.03323028222751711,0.03702321667216505,0.03869261615528978,0.03758944295628623,0.020729953007110776,0.0574090832577933,0.8317749008008293,-0.26844702409279253
429,0.0554195926178874,0.0496435675199215,0.10693436887799214,0.03323028222751711,0.03702321667216505,0.03869261615528978,0.03758944295628623,0.020729953007110776,0.0574090832577933,0.8317749008008293,-0.26844702409279253
430,0.0554195926178874,0.0496435675199215,0.10693436887799214,0.03323028222751711,0.03702321667216505,0.03869261615528978,0.03758944295628623,0.020729953007110776,0.0574090832577933,0.8317749008008293,-0.26844702409279253
431,0.0554195926178874,0.0496435675199215,0.10693436887799214,0.03323028222751711,0.03702321667216505,0.03869261615528978,0.03758944295628623,0.020729953007110776,0.0574090832577933,0.8317749008008293,-0.26844702409279253
432,0.0554195926178874,0.0496435675199215,0.10693436887799214,0.03323028222751711,0.03702321667216505,0.03869261615528978,0.03758944295628623,0.020729953007110776,0.0574090832577933,0.8317749008008293,-0.26844702409279253
433,0.0554195926178874,0.0496435675199215,0.10693436887799214,0.03323028222751711,0.03702321667216505,0.03869261615528978,0.03758944295628623,0.020729953007110776,0.0574090832577933,0.8317749008008293,-0.26844702409279253
434,0.0554195926178874,0.0496435675199215,0.10693436887799214,0.03323028222751711,0.03702321667216505,0.03869261615528978,0.03758944295628623,0.020729953007110776,0.0574090832577933,0.8317749008008293,-0.26844702409279253
435,0.0554195926178874,0.0496435675199215,0.10693436887799214,0.03323028222751711,0.03702321667216505,0.03869261615528978,0.03758944295628623,0.020729953007110776,0.0574090832577933,0.8317749008008293,-0.26844702409279253
436,0.0554195926178874,0.0496435675199215,0.10693436887799214,0.03323028222751711,0.03702321667216505,0.03869261615528978,0.03758944295628623,0.020729953007110776,0.0574090832577933,0.8317749008008293,-0.26844702409279253
437,0.0554195926178874,0.0496435675199215,0.10693436887799214,0.03323028222751711,0.03702321667216505,0.03869261615528978,0.03758944295628623,0.020729953007110776,0.0574090832577933,0.8317749008008293,-0.26844702409279253
438,0.0554195926178874,0.0496435675199215,0.10693436887799214,0.03323028222751711,0.03702321667216505,0.03869261615528978,0.03758944295628623,0.020729953007110776,0.0574090832577933,0.8317749008008293,-0.26844702409279253
439,0.0554195926178874,0.0496435675199215,0.10693436887799214,0.03323028222751711,0.03702321667216505,0.03869261615528978,0.03758944295628623,0.020729953007110776,0.0574090832577933,0.8317749008008293,-0.26844702409279253
