,0,1,2,3,4,5,6,7,8,9,10
0,-0.02818981649099434,0.034490497510292914,0.9199530211103044,0.04227733378511131,0.02262928700496655,0.04261919012487687,0.010328863562813376,-0.04904016776362131,0.019464032539673517,-0.046358751601539974,0.03182651021811675
1,-0.02818981649099434,0.034490497510292914,0.9199530211103044,0.04227733378511131,0.02262928700496655,0.04261919012487687,0.010328863562813376,-0.04904016776362131,0.019464032539673517,-0.046358751601539974,0.03182651021811675
2,-0.02818981649099434,0.034490497510292914,0.9199530211103044,0.04227733378511131,0.02262928700496655,0.04261919012487687,0.010328863562813376,-0.04904016776362131,0.019464032539673517,-0.046358751601539974,0.03182651021811675
3,-0.02818981649099434,0.034490497510292914,0.9199530211103044,0.04227733378511131,0.02262928700496655,0.04261919012487687,0.010328863562813376,-0.04904016776362131,0.019464032539673517,-0.046358751601539974,0.03182651021811675
4,-0.02818981649099434,0.034490497510292914,0.9199530211103044,0.04227733378511131,0.02262928700496655,0.04261919012487687,0.010328863562813376,-0.04904016776362131,0.019464032539673517,-0.046358751601539974,0.03182651021811675
5,-0.02818981649099434,0.034490497510292914,0.9199530211103044,0.04227733378511131,0.02262928700496655,0.04261919012487687,0.010328863562813376,-0.04904016776362131,0.019464032539673517,-0.046358751601539974,0.03182651021811675
6,-0.02818981649099434,0.034490497510292914,0.9199530211103044,0.04227733378511131,0.02262928700496655,0.04261919012487687,0.010328863562813376,-0.04904016776362131,0.019464032539673517,-0.046358751601539974,0.03182651021811675
7,-0.02818981649099434,0.034490497510292914,0.9199530211103044,0.04227733378511131,0.02262928700496655,0.04261919012487687,0.010328863562813376,-0.04904016776362131,0.019464032539673517,-0.046358751601539974,0.03182651021811675
8,-0.02818981649099434,0.034490497510292914,0.9199530211103044,0.04227733378511131,0.02262928700496655,0.04261919012487687,0.010328863562813376,-0.04904016776362131,0.019464032539673517,-0.046358751601539974,0.03182651021811675
9,-0.02818981649099434,0.034490497510292914,0.9199530211103044,0.04227733378511131,0.02262928700496655,0.04261919012487687,0.010328863562813376,-0.04904016776362131,0.019464032539673517,-0.046358751601539974,0.03182651021811675
10,-0.02818981649099434,0.034490497510292914,0.9199530211103044,0.04227733378511131,0.02262928700496655,0.04261919012487687,0.010328863562813376,-0.04904016776362131,0.019464032539673517,-0.046358751601539974,0.03182651021811675
11,-0.02818981649099434,0.034490497510292914,0.9199530211103044,0.04227733378511131,0.02262928700496655,0.04261919012487687,0.010328863562813376,-0.04904016776362131,0.019464032539673517,-0.046358751601539974,0.03182651021811675
12,-0.02818981649099434,0.034490497510292914,0.9199530211103044,0.04227733378511131,0.02262928700496655,0.04261919012487687,0.010328863562813376,-0.04904016776362131,0.019464032539673517,-0.046358751601539974,0.03182651021811675
13,-0.02818981649099434,0.034490497510292914,0.9199530211103044,0.04227733378511131,0.02262928700496655,0.04261919012487687,0.010328863562813376,-0.04904016776362131,0.019464032539673517,-0.046358751601539974,0.03182651021811675
14,-0.02818981649099434,0.034490497510292914,0.9199530211103044,0.04227733378511131,0.02262928700496655,0.04261919012487687,0.010328863562813376,-0.04904016776362131,0.019464032539673517,-0.046358751601539974,0.03182651021811675
15,-0.02818981649099434,0.034490497510292914,0.9199530211103044,0.04227733378511131,0.02262928700496655,0.04261919012487687,0.010328863562813376,-0.04904016776362131,0.019464032539673517,-0.046358751601539974,0.03182651021811675
16,-0.02818981649099434,0.034490497510292914,0.9199530211103044,0.04227733378511131,0.02262928700496655,0.04261919012487687,0.010328863562813376,-0.04904016776362131,0.019464032539673517,-0.046358751601539974,0.03182651021811675
17,-0.02818981649099434,0.034490497510292914,0.9199530211103044,0.04227733378511131,0.02262928700496655,0.04261919012487687,0.010328863562813376,-0.04904016776362131,0.019464032539673517,-0.046358751601539974,0.03182651021811675
18,-0.02818981649099434,0.034490497510292914,0.9199530211103044,0.04227733378511131,0.02262928700496655,0.04261919012487687,0.010328863562813376,-0.04904016776362131,0.019464032539673517,-0.046358751601539974,0.03182651021811675
19,-0.02818981649099434,0.034490497510292914,0.9199530211103044,0.04227733378511131,0.02262928700496655,0.04261919012487687,0.010328863562813376,-0.04904016776362131,0.019464032539673517,-0.046358751601539974,0.03182651021811675
20,-0.02818981649099434,0.034490497510292914,0.9199530211103044,0.04227733378511131,0.02262928700496655,0.04261919012487687,0.010328863562813376,-0.04904016776362131,0.019464032539673517,-0.046358751601539974,0.03182651021811675
21,-0.02818981649099434,0.034490497510292914,0.9199530211103044,0.04227733378511131,0.02262928700496655,0.04261919012487687,0.010328863562813376,-0.04904016776362131,0.019464032539673517,-0.046358751601539974,0.03182651021811675
22,-0.02818981649099434,0.034490497510292914,0.9199530211103044,0.04227733378511131,0.02262928700496655,0.04261919012487687,0.010328863562813376,-0.04904016776362131,0.019464032539673517,-0.046358751601539974,0.03182651021811675
23,-0.02818981649099434,0.034490497510292914,0.9199530211103044,0.04227733378511131,0.02262928700496655,0.04261919012487687,0.010328863562813376,-0.04904016776362131,0.019464032539673517,-0.046358751601539974,0.03182651021811675
24,-0.02818981649099434,0.034490497510292914,0.9199530211103044,0.04227733378511131,0.02262928700496655,0.04261919012487687,0.010328863562813376,-0.04904016776362131,0.019464032539673517,-0.046358751601539974,0.03182651021811675
25,-0.02818981649099434,0.034490497510292914,0.9199530211103044,0.04227733378511131,0.02262928700496655,0.04261919012487687,0.010328863562813376,-0.04904016776362131,0.019464032539673517,-0.046358751601539974,0.03182651021811675
26,-0.02818981649099434,0.034490497510292914,0.9199530211103044,0.04227733378511131,0.02262928700496655,0.04261919012487687,0.010328863562813376,-0.04904016776362131,0.019464032539673517,-0.046358751601539974,0.03182651021811675
27,-0.02818981649099434,0.034490497510292914,0.9199530211103044,0.04227733378511131,0.02262928700496655,0.04261919012487687,0.010328863562813376,-0.04904016776362131,0.019464032539673517,-0.046358751601539974,0.03182651021811675
28,-0.02818981649099434,0.034490497510292914,0.9199530211103044,0.04227733378511131,0.02262928700496655,0.04261919012487687,0.010328863562813376,-0.04904016776362131,0.019464032539673517,-0.046358751601539974,0.03182651021811675
29,-0.02818981649099434,0.034490497510292914,0.9199530211103044,0.04227733378511131,0.02262928700496655,0.04261919012487687,0.010328863562813376,-0.04904016776362131,0.019464032539673517,-0.046358751601539974,0.03182651021811675
30,-0.02818981649099434,0.034490497510292914,0.9199530211103044,0.04227733378511131,0.02262928700496655,0.04261919012487687,0.010328863562813376,-0.04904016776362131,0.019464032539673517,-0.046358751601539974,0.03182651021811675
31,0.16137431987281345,0.12140184805297177,-0.004847704610409631,-0.11548583337304062,-0.0819686899264339,0.09794427724596587,0.7071939265417662,0.0763127547315877,0.07212808649198271,-0.09769777209011582,0.06364478706291227
32,0.16137431987281345,0.12140184805297177,-0.004847704610409631,-0.11548583337304062,-0.0819686899264339,0.09794427724596587,0.7071939265417662,0.0763127547315877,0.07212808649198271,-0.09769777209011582,0.06364478706291227
33,0.16137431987281345,0.12140184805297177,-0.004847704610409631,-0.11548583337304062,-0.0819686899264339,0.09794427724596587,0.7071939265417662,0.0763127547315877,0.07212808649198271,-0.09769777209011582,0.06364478706291227
34,0.16137431987281345,0.12140184805297177,-0.004847704610409631,-0.11548583337304062,-0.0819686899264339,0.09794427724596587,0.7071939265417662,0.0763127547315877,0.07212808649198271,-0.09769777209011582,0.06364478706291227
35,0.16137431987281345,0.12140184805297177,-0.004847704610409631,-0.11548583337304062,-0.0819686899264339,0.09794427724596587,0.7071939265417662,0.0763127547315877,0.07212808649198271,-0.09769777209011582,0.06364478706291227
36,0.16137431987281345,0.12140184805297177,-0.004847704610409631,-0.11548583337304062,-0.0819686899264339,0.09794427724596587,0.7071939265417662,0.0763127547315877,0.07212808649198271,-0.09769777209011582,0.06364478706291227
37,0.16137431987281345,0.12140184805297177,-0.004847704610409631,-0.11548583337304062,-0.0819686899264339,0.09794427724596587,0.7071939265417662,0.0763127547315877,0.07212808649198271,-0.09769777209011582,0.06364478706291227
38,0.16137431987281345,0.12140184805297177,-0.004847704610409631,-0.11548583337304062,-0.0819686899264339,0.09794427724596587,0.7071939265417662,0.0763127547315877,0.07212808649198271,-0.09769777209011582,0.06364478706291227
39,0.16137431987281345,0.12140184805297177,-0.004847704610409631,-0.11548583337304062,-0.0819686899264339,0.09794427724596587,0.7071939265417662,0.0763127547315877,0.07212808649198271,-0.09769777209011582,0.06364478706291227
40,0.16137431987281345,0.12140184805297177,-0.004847704610409631,-0.11548583337304062,-0.0819686899264339,0.09794427724596587,0.7071939265417662,0.0763127547315877,0.07212808649198271,-0.09769777209011582,0.06364478706291227
41,0.16137431987281345,0.12140184805297177,-0.004847704610409631,-0.11548583337304062,-0.0819686899264339,0.09794427724596587,0.7071939265417662,0.0763127547315877,0.07212808649198271,-0.09769777209011582,0.06364478706291227
42,0.16137431987281345,0.12140184805297177,-0.004847704610409631,-0.11548583337304062,-0.0819686899264339,0.09794427724596587,0.7071939265417662,0.0763127547315877,0.07212808649198271,-0.09769777209011582,0.06364478706291227
43,0.16137431987281345,0.12140184805297177,-0.004847704610409631,-0.11548583337304062,-0.0819686899264339,0.09794427724596587,0.7071939265417662,0.0763127547315877,0.07212808649198271,-0.09769777209011582,0.06364478706291227
44,0.16137431987281345,0.12140184805297177,-0.004847704610409631,-0.11548583337304062,-0.0819686899264339,0.09794427724596587,0.7071939265417662,0.0763127547315877,0.07212808649198271,-0.09769777209011582,0.06364478706291227
45,0.16137431987281345,0.12140184805297177,-0.004847704610409631,-0.11548583337304062,-0.0819686899264339,0.09794427724596587,0.7071939265417662,0.0763127547315877,0.07212808649198271,-0.09769777209011582,0.06364478706291227
46,0.16137431987281345,0.12140184805297177,-0.004847704610409631,-0.11548583337304062,-0.0819686899264339,0.09794427724596587,0.7071939265417662,0.0763127547315877,0.07212808649198271,-0.09769777209011582,0.06364478706291227
47,0.16137431987281345,0.12140184805297177,-0.004847704610409631,-0.11548583337304062,-0.0819686899264339,0.09794427724596587,0.7071939265417662,0.0763127547315877,0.07212808649198271,-0.09769777209011582,0.06364478706291227
48,0.16137431987281345,0.12140184805297177,-0.004847704610409631,-0.11548583337304062,-0.0819686899264339,0.09794427724596587,0.7071939265417662,0.0763127547315877,0.07212808649198271,-0.09769777209011582,0.06364478706291227
49,0.16137431987281345,0.12140184805297177,-0.004847704610409631,-0.11548583337304062,-0.0819686899264339,0.09794427724596587,0.7071939265417662,0.0763127547315877,0.07212808649198271,-0.09769777209011582,0.06364478706291227
50,0.16137431987281345,0.12140184805297177,-0.004847704610409631,-0.11548583337304062,-0.0819686899264339,0.09794427724596587,0.7071939265417662,0.0763127547315877,0.07212808649198271,-0.09769777209011582,0.06364478706291227
51,0.16137431987281345,0.12140184805297177,-0.004847704610409631,-0.11548583337304062,-0.0819686899264339,0.09794427724596587,0.7071939265417662,0.0763127547315877,0.07212808649198271,-0.09769777209011582,0.06364478706291227
52,0.16137431987281345,0.12140184805297177,-0.004847704610409631,-0.11548583337304062,-0.0819686899264339,0.09794427724596587,0.7071939265417662,0.0763127547315877,0.07212808649198271,-0.09769777209011582,0.06364478706291227
53,0.16137431987281345,0.12140184805297177,-0.004847704610409631,-0.11548583337304062,-0.0819686899264339,0.09794427724596587,0.7071939265417662,0.0763127547315877,0.07212808649198271,-0.09769777209011582,0.06364478706291227
54,0.16137431987281345,0.12140184805297177,-0.004847704610409631,-0.11548583337304062,-0.0819686899264339,0.09794427724596587,0.7071939265417662,0.0763127547315877,0.07212808649198271,-0.09769777209011582,0.06364478706291227
55,0.16137431987281345,0.12140184805297177,-0.004847704610409631,-0.11548583337304062,-0.0819686899264339,0.09794427724596587,0.7071939265417662,0.0763127547315877,0.07212808649198271,-0.09769777209011582,0.06364478706291227
56,0.16137431987281345,0.12140184805297177,-0.004847704610409631,-0.11548583337304062,-0.0819686899264339,0.09794427724596587,0.7071939265417662,0.0763127547315877,0.07212808649198271,-0.09769777209011582,0.06364478706291227
57,0.16137431987281345,0.12140184805297177,-0.004847704610409631,-0.11548583337304062,-0.0819686899264339,0.09794427724596587,0.7071939265417662,0.0763127547315877,0.07212808649198271,-0.09769777209011582,0.06364478706291227
58,0.16137431987281345,0.12140184805297177,-0.004847704610409631,-0.11548583337304062,-0.0819686899264339,0.09794427724596587,0.7071939265417662,0.0763127547315877,0.07212808649198271,-0.09769777209011582,0.06364478706291227
59,-0.029187811871533683,0.013182708498962376,-0.014671888123546714,-0.02707002604232886,0.023622297213831567,-0.039395698991007505,0.11558646621704467,0.01575437654113205,0.18054765195265535,0.04756492703601213,0.7140669975687787
60,-0.029187811871533683,0.013182708498962376,-0.014671888123546714,-0.02707002604232886,0.023622297213831567,-0.039395698991007505,0.11558646621704467,0.01575437654113205,0.18054765195265535,0.04756492703601213,0.7140669975687787
61,-0.029187811871533683,0.013182708498962376,-0.014671888123546714,-0.02707002604232886,0.023622297213831567,-0.039395698991007505,0.11558646621704467,0.01575437654113205,0.18054765195265535,0.04756492703601213,0.7140669975687787
62,-0.029187811871533683,0.013182708498962376,-0.014671888123546714,-0.02707002604232886,0.023622297213831567,-0.039395698991007505,0.11558646621704467,0.01575437654113205,0.18054765195265535,0.04756492703601213,0.7140669975687787
63,-0.029187811871533683,0.013182708498962376,-0.014671888123546714,-0.02707002604232886,0.023622297213831567,-0.039395698991007505,0.11558646621704467,0.01575437654113205,0.18054765195265535,0.04756492703601213,0.7140669975687787
64,-0.029187811871533683,0.013182708498962376,-0.014671888123546714,-0.02707002604232886,0.023622297213831567,-0.039395698991007505,0.11558646621704467,0.01575437654113205,0.18054765195265535,0.04756492703601213,0.7140669975687787
65,-0.029187811871533683,0.013182708498962376,-0.014671888123546714,-0.02707002604232886,0.023622297213831567,-0.039395698991007505,0.11558646621704467,0.01575437654113205,0.18054765195265535,0.04756492703601213,0.7140669975687787
66,-0.029187811871533683,0.013182708498962376,-0.014671888123546714,-0.02707002604232886,0.023622297213831567,-0.039395698991007505,0.11558646621704467,0.01575437654113205,0.18054765195265535,0.04756492703601213,0.7140669975687787
67,-0.029187811871533683,0.013182708498962376,-0.014671888123546714,-0.02707002604232886,0.023622297213831567,-0.039395698991007505,0.11558646621704467,0.01575437654113205,0.18054765195265535,0.04756492703601213,0.7140669975687787
68,-0.029187811871533683,0.013182708498962376,-0.014671888123546714,-0.02707002604232886,0.023622297213831567,-0.039395698991007505,0.11558646621704467,0.01575437654113205,0.18054765195265535,0.04756492703601213,0.7140669975687787
69,-0.029187811871533683,0.013182708498962376,-0.014671888123546714,-0.02707002604232886,0.023622297213831567,-0.039395698991007505,0.11558646621704467,0.01575437654113205,0.18054765195265535,0.04756492703601213,0.7140669975687787
70,-0.029187811871533683,0.013182708498962376,-0.014671888123546714,-0.02707002604232886,0.023622297213831567,-0.039395698991007505,0.11558646621704467,0.01575437654113205,0.18054765195265535,0.04756492703601213,0.7140669975687787
71,-0.029187811871533683,0.013182708498962376,-0.014671888123546714,-0.02707002604232886,0.023622297213831567,-0.039395698991007505,0.11558646621704467,0.01575437654113205,0.18054765195265535,0.04756492703601213,0.7140669975687787
72,-0.029187811871533683,0.013182708498962376,-0.014671888123546714,-0.02707002604232886,0.023622297213831567,-0.039395698991007505,0.11558646621704467,0.01575437654113205,0.18054765195265535,0.04756492703601213,0.7140669975687787
73,-0.029187811871533683,0.013182708498962376,-0.014671888123546714,-0.02707002604232886,0.023622297213831567,-0.039395698991007505,0.11558646621704467,0.01575437654113205,0.18054765195265535,0.04756492703601213,0.7140669975687787
74,-0.029187811871533683,0.013182708498962376,-0.014671888123546714,-0.02707002604232886,0.023622297213831567,-0.039395698991007505,0.11558646621704467,0.01575437654113205,0.18054765195265535,0.04756492703601213,0.7140669975687787
75,-0.029187811871533683,0.013182708498962376,-0.014671888123546714,-0.02707002604232886,0.023622297213831567,-0.039395698991007505,0.11558646621704467,0.01575437654113205,0.18054765195265535,0.04756492703601213,0.7140669975687787
76,-0.029187811871533683,0.013182708498962376,-0.014671888123546714,-0.02707002604232886,0.023622297213831567,-0.039395698991007505,0.11558646621704467,0.01575437654113205,0.18054765195265535,0.04756492703601213,0.7140669975687787
77,-0.029187811871533683,0.013182708498962376,-0.014671888123546714,-0.02707002604232886,0.023622297213831567,-0.039395698991007505,0.11558646621704467,0.01575437654113205,0.18054765195265535,0.04756492703601213,0.7140669975687787
78,-0.029187811871533683,0.013182708498962376,-0.014671888123546714,-0.02707002604232886,0.023622297213831567,-0.039395698991007505,0.11558646621704467,0.01575437654113205,0.18054765195265535,0.04756492703601213,0.7140669975687787
79,-0.029187811871533683,0.013182708498962376,-0.014671888123546714,-0.02707002604232886,0.023622297213831567,-0.039395698991007505,0.11558646621704467,0.01575437654113205,0.18054765195265535,0.04756492703601213,0.7140669975687787
80,-0.029187811871533683,0.013182708498962376,-0.014671888123546714,-0.02707002604232886,0.023622297213831567,-0.039395698991007505,0.11558646621704467,0.01575437654113205,0.18054765195265535,0.04756492703601213,0.7140669975687787
81,-0.029187811871533683,0.013182708498962376,-0.014671888123546714,-0.02707002604232886,0.023622297213831567,-0.039395698991007505,0.11558646621704467,0.01575437654113205,0.18054765195265535,0.04756492703601213,0.7140669975687787
82,-0.029187811871533683,0.013182708498962376,-0.014671888123546714,-0.02707002604232886,0.023622297213831567,-0.039395698991007505,0.11558646621704467,0.01575437654113205,0.18054765195265535,0.04756492703601213,0.7140669975687787
83,-0.029187811871533683,0.013182708498962376,-0.014671888123546714,-0.02707002604232886,0.023622297213831567,-0.039395698991007505,0.11558646621704467,0.01575437654113205,0.18054765195265535,0.04756492703601213,0.7140669975687787
84,-0.029187811871533683,0.013182708498962376,-0.014671888123546714,-0.02707002604232886,0.023622297213831567,-0.039395698991007505,0.11558646621704467,0.01575437654113205,0.18054765195265535,0.04756492703601213,0.7140669975687787
85,-0.029187811871533683,0.013182708498962376,-0.014671888123546714,-0.02707002604232886,0.023622297213831567,-0.039395698991007505,0.11558646621704467,0.01575437654113205,0.18054765195265535,0.04756492703601213,0.7140669975687787
86,-0.029187811871533683,0.013182708498962376,-0.014671888123546714,-0.02707002604232886,0.023622297213831567,-0.039395698991007505,0.11558646621704467,0.01575437654113205,0.18054765195265535,0.04756492703601213,0.7140669975687787
87,-0.029187811871533683,0.013182708498962376,-0.014671888123546714,-0.02707002604232886,0.023622297213831567,-0.039395698991007505,0.11558646621704467,0.01575437654113205,0.18054765195265535,0.04756492703601213,0.7140669975687787
88,-0.029187811871533683,0.013182708498962376,-0.014671888123546714,-0.02707002604232886,0.023622297213831567,-0.039395698991007505,0.11558646621704467,0.01575437654113205,0.18054765195265535,0.04756492703601213,0.7140669975687787
89,-0.029187811871533683,0.013182708498962376,-0.014671888123546714,-0.02707002604232886,0.023622297213831567,-0.039395698991007505,0.11558646621704467,0.01575437654113205,0.18054765195265535,0.04756492703601213,0.7140669975687787
90,0.028028167225270424,0.03411274412637381,0.02941490926533656,0.037223397777881126,0.44584426316213055,0.21121400784423305,0.08008574275976958,0.061800825625964735,0.024626585250586797,0.021568788299425958,0.026080568663027406
91,0.028028167225270424,0.03411274412637381,0.02941490926533656,0.037223397777881126,0.44584426316213055,0.21121400784423305,0.08008574275976958,0.061800825625964735,0.024626585250586797,0.021568788299425958,0.026080568663027406
92,0.028028167225270424,0.03411274412637381,0.02941490926533656,0.037223397777881126,0.44584426316213055,0.21121400784423305,0.08008574275976958,0.061800825625964735,0.024626585250586797,0.021568788299425958,0.026080568663027406
93,0.028028167225270424,0.03411274412637381,0.02941490926533656,0.037223397777881126,0.44584426316213055,0.21121400784423305,0.08008574275976958,0.061800825625964735,0.024626585250586797,0.021568788299425958,0.026080568663027406
94,0.028028167225270424,0.03411274412637381,0.02941490926533656,0.037223397777881126,0.44584426316213055,0.21121400784423305,0.08008574275976958,0.061800825625964735,0.024626585250586797,0.021568788299425958,0.026080568663027406
95,0.028028167225270424,0.03411274412637381,0.02941490926533656,0.037223397777881126,0.44584426316213055,0.21121400784423305,0.08008574275976958,0.061800825625964735,0.024626585250586797,0.021568788299425958,0.026080568663027406
96,0.028028167225270424,0.03411274412637381,0.02941490926533656,0.037223397777881126,0.44584426316213055,0.21121400784423305,0.08008574275976958,0.061800825625964735,0.024626585250586797,0.021568788299425958,0.026080568663027406
97,0.028028167225270424,0.03411274412637381,0.02941490926533656,0.037223397777881126,0.44584426316213055,0.21121400784423305,0.08008574275976958,0.061800825625964735,0.024626585250586797,0.021568788299425958,0.026080568663027406
98,0.028028167225270424,0.03411274412637381,0.02941490926533656,0.037223397777881126,0.44584426316213055,0.21121400784423305,0.08008574275976958,0.061800825625964735,0.024626585250586797,0.021568788299425958,0.026080568663027406
99,0.028028167225270424,0.03411274412637381,0.02941490926533656,0.037223397777881126,0.44584426316213055,0.21121400784423305,0.08008574275976958,0.061800825625964735,0.024626585250586797,0.021568788299425958,0.026080568663027406
100,0.028028167225270424,0.03411274412637381,0.02941490926533656,0.037223397777881126,0.44584426316213055,0.21121400784423305,0.08008574275976958,0.061800825625964735,0.024626585250586797,0.021568788299425958,0.026080568663027406
101,0.028028167225270424,0.03411274412637381,0.02941490926533656,0.037223397777881126,0.44584426316213055,0.21121400784423305,0.08008574275976958,0.061800825625964735,0.024626585250586797,0.021568788299425958,0.026080568663027406
102,0.028028167225270424,0.03411274412637381,0.02941490926533656,0.037223397777881126,0.44584426316213055,0.21121400784423305,0.08008574275976958,0.061800825625964735,0.024626585250586797,0.021568788299425958,0.026080568663027406
103,0.028028167225270424,0.03411274412637381,0.02941490926533656,0.037223397777881126,0.44584426316213055,0.21121400784423305,0.08008574275976958,0.061800825625964735,0.024626585250586797,0.021568788299425958,0.026080568663027406
104,0.028028167225270424,0.03411274412637381,0.02941490926533656,0.037223397777881126,0.44584426316213055,0.21121400784423305,0.08008574275976958,0.061800825625964735,0.024626585250586797,0.021568788299425958,0.026080568663027406
105,0.028028167225270424,0.03411274412637381,0.02941490926533656,0.037223397777881126,0.44584426316213055,0.21121400784423305,0.08008574275976958,0.061800825625964735,0.024626585250586797,0.021568788299425958,0.026080568663027406
106,0.028028167225270424,0.03411274412637381,0.02941490926533656,0.037223397777881126,0.44584426316213055,0.21121400784423305,0.08008574275976958,0.061800825625964735,0.024626585250586797,0.021568788299425958,0.026080568663027406
107,0.028028167225270424,0.03411274412637381,0.02941490926533656,0.037223397777881126,0.44584426316213055,0.21121400784423305,0.08008574275976958,0.061800825625964735,0.024626585250586797,0.021568788299425958,0.026080568663027406
108,0.028028167225270424,0.03411274412637381,0.02941490926533656,0.037223397777881126,0.44584426316213055,0.21121400784423305,0.08008574275976958,0.061800825625964735,0.024626585250586797,0.021568788299425958,0.026080568663027406
109,0.028028167225270424,0.03411274412637381,0.02941490926533656,0.037223397777881126,0.44584426316213055,0.21121400784423305,0.08008574275976958,0.061800825625964735,0.024626585250586797,0.021568788299425958,0.026080568663027406
110,0.028028167225270424,0.03411274412637381,0.02941490926533656,0.037223397777881126,0.44584426316213055,0.21121400784423305,0.08008574275976958,0.061800825625964735,0.024626585250586797,0.021568788299425958,0.026080568663027406
111,0.028028167225270424,0.03411274412637381,0.02941490926533656,0.037223397777881126,0.44584426316213055,0.21121400784423305,0.08008574275976958,0.061800825625964735,0.024626585250586797,0.021568788299425958,0.026080568663027406
112,0.028028167225270424,0.03411274412637381,0.02941490926533656,0.037223397777881126,0.44584426316213055,0.21121400784423305,0.08008574275976958,0.061800825625964735,0.024626585250586797,0.021568788299425958,0.026080568663027406
113,0.028028167225270424,0.03411274412637381,0.02941490926533656,0.037223397777881126,0.44584426316213055,0.21121400784423305,0.08008574275976958,0.061800825625964735,0.024626585250586797,0.021568788299425958,0.026080568663027406
114,0.028028167225270424,0.03411274412637381,0.02941490926533656,0.037223397777881126,0.44584426316213055,0.21121400784423305,0.08008574275976958,0.061800825625964735,0.024626585250586797,0.021568788299425958,0.026080568663027406
115,0.028028167225270424,0.03411274412637381,0.02941490926533656,0.037223397777881126,0.44584426316213055,0.21121400784423305,0.08008574275976958,0.061800825625964735,0.024626585250586797,0.021568788299425958,0.026080568663027406
116,0.028028167225270424,0.03411274412637381,0.02941490926533656,0.037223397777881126,0.44584426316213055,0.21121400784423305,0.08008574275976958,0.061800825625964735,0.024626585250586797,0.021568788299425958,0.026080568663027406
117,0.028028167225270424,0.03411274412637381,0.02941490926533656,0.037223397777881126,0.44584426316213055,0.21121400784423305,0.08008574275976958,0.061800825625964735,0.024626585250586797,0.021568788299425958,0.026080568663027406
118,0.028028167225270424,0.03411274412637381,0.02941490926533656,0.037223397777881126,0.44584426316213055,0.21121400784423305,0.08008574275976958,0.061800825625964735,0.024626585250586797,0.021568788299425958,0.026080568663027406
119,0.028028167225270424,0.03411274412637381,0.02941490926533656,0.037223397777881126,0.44584426316213055,0.21121400784423305,0.08008574275976958,0.061800825625964735,0.024626585250586797,0.021568788299425958,0.026080568663027406
120,0.09060204251592932,-0.07212531330280243,0.16851952606461046,-0.0746945897053128,0.11766152578881932,0.10336335126665154,0.4020976982034562,0.33412747145995997,-0.07688901086468125,0.08362838470057325,-0.07629108612720348
121,0.09060204251592932,-0.07212531330280243,0.16851952606461046,-0.0746945897053128,0.11766152578881932,0.10336335126665154,0.4020976982034562,0.33412747145995997,-0.07688901086468125,0.08362838470057325,-0.07629108612720348
122,0.09060204251592932,-0.07212531330280243,0.16851952606461046,-0.0746945897053128,0.11766152578881932,0.10336335126665154,0.4020976982034562,0.33412747145995997,-0.07688901086468125,0.08362838470057325,-0.07629108612720348
123,0.09060204251592932,-0.07212531330280243,0.16851952606461046,-0.0746945897053128,0.11766152578881932,0.10336335126665154,0.4020976982034562,0.33412747145995997,-0.07688901086468125,0.08362838470057325,-0.07629108612720348
124,0.09060204251592932,-0.07212531330280243,0.16851952606461046,-0.0746945897053128,0.11766152578881932,0.10336335126665154,0.4020976982034562,0.33412747145995997,-0.07688901086468125,0.08362838470057325,-0.07629108612720348
125,0.09060204251592932,-0.07212531330280243,0.16851952606461046,-0.0746945897053128,0.11766152578881932,0.10336335126665154,0.4020976982034562,0.33412747145995997,-0.07688901086468125,0.08362838470057325,-0.07629108612720348
126,0.09060204251592932,-0.07212531330280243,0.16851952606461046,-0.0746945897053128,0.11766152578881932,0.10336335126665154,0.4020976982034562,0.33412747145995997,-0.07688901086468125,0.08362838470057325,-0.07629108612720348
127,0.09060204251592932,-0.07212531330280243,0.16851952606461046,-0.0746945897053128,0.11766152578881932,0.10336335126665154,0.4020976982034562,0.33412747145995997,-0.07688901086468125,0.08362838470057325,-0.07629108612720348
128,0.09060204251592932,-0.07212531330280243,0.16851952606461046,-0.0746945897053128,0.11766152578881932,0.10336335126665154,0.4020976982034562,0.33412747145995997,-0.07688901086468125,0.08362838470057325,-0.07629108612720348
129,0.09060204251592932,-0.07212531330280243,0.16851952606461046,-0.0746945897053128,0.11766152578881932,0.10336335126665154,0.4020976982034562,0.33412747145995997,-0.07688901086468125,0.08362838470057325,-0.07629108612720348
130,0.09060204251592932,-0.07212531330280243,0.16851952606461046,-0.0746945897053128,0.11766152578881932,0.10336335126665154,0.4020976982034562,0.33412747145995997,-0.07688901086468125,0.08362838470057325,-0.07629108612720348
131,0.09060204251592932,-0.07212531330280243,0.16851952606461046,-0.0746945897053128,0.11766152578881932,0.10336335126665154,0.4020976982034562,0.33412747145995997,-0.07688901086468125,0.08362838470057325,-0.07629108612720348
132,0.09060204251592932,-0.07212531330280243,0.16851952606461046,-0.0746945897053128,0.11766152578881932,0.10336335126665154,0.4020976982034562,0.33412747145995997,-0.07688901086468125,0.08362838470057325,-0.07629108612720348
133,0.09060204251592932,-0.07212531330280243,0.16851952606461046,-0.0746945897053128,0.11766152578881932,0.10336335126665154,0.4020976982034562,0.33412747145995997,-0.07688901086468125,0.08362838470057325,-0.07629108612720348
134,0.09060204251592932,-0.07212531330280243,0.16851952606461046,-0.0746945897053128,0.11766152578881932,0.10336335126665154,0.4020976982034562,0.33412747145995997,-0.07688901086468125,0.08362838470057325,-0.07629108612720348
135,0.09060204251592932,-0.07212531330280243,0.16851952606461046,-0.0746945897053128,0.11766152578881932,0.10336335126665154,0.4020976982034562,0.33412747145995997,-0.07688901086468125,0.08362838470057325,-0.07629108612720348
136,0.09060204251592932,-0.07212531330280243,0.16851952606461046,-0.0746945897053128,0.11766152578881932,0.10336335126665154,0.4020976982034562,0.33412747145995997,-0.07688901086468125,0.08362838470057325,-0.07629108612720348
137,0.09060204251592932,-0.07212531330280243,0.16851952606461046,-0.0746945897053128,0.11766152578881932,0.10336335126665154,0.4020976982034562,0.33412747145995997,-0.07688901086468125,0.08362838470057325,-0.07629108612720348
138,0.09060204251592932,-0.07212531330280243,0.16851952606461046,-0.0746945897053128,0.11766152578881932,0.10336335126665154,0.4020976982034562,0.33412747145995997,-0.07688901086468125,0.08362838470057325,-0.07629108612720348
139,0.09060204251592932,-0.07212531330280243,0.16851952606461046,-0.0746945897053128,0.11766152578881932,0.10336335126665154,0.4020976982034562,0.33412747145995997,-0.07688901086468125,0.08362838470057325,-0.07629108612720348
140,0.09060204251592932,-0.07212531330280243,0.16851952606461046,-0.0746945897053128,0.11766152578881932,0.10336335126665154,0.4020976982034562,0.33412747145995997,-0.07688901086468125,0.08362838470057325,-0.07629108612720348
141,0.09060204251592932,-0.07212531330280243,0.16851952606461046,-0.0746945897053128,0.11766152578881932,0.10336335126665154,0.4020976982034562,0.33412747145995997,-0.07688901086468125,0.08362838470057325,-0.07629108612720348
142,0.09060204251592932,-0.07212531330280243,0.16851952606461046,-0.0746945897053128,0.11766152578881932,0.10336335126665154,0.4020976982034562,0.33412747145995997,-0.07688901086468125,0.08362838470057325,-0.07629108612720348
143,0.09060204251592932,-0.07212531330280243,0.16851952606461046,-0.0746945897053128,0.11766152578881932,0.10336335126665154,0.4020976982034562,0.33412747145995997,-0.07688901086468125,0.08362838470057325,-0.07629108612720348
144,0.09060204251592932,-0.07212531330280243,0.16851952606461046,-0.0746945897053128,0.11766152578881932,0.10336335126665154,0.4020976982034562,0.33412747145995997,-0.07688901086468125,0.08362838470057325,-0.07629108612720348
145,0.09060204251592932,-0.07212531330280243,0.16851952606461046,-0.0746945897053128,0.11766152578881932,0.10336335126665154,0.4020976982034562,0.33412747145995997,-0.07688901086468125,0.08362838470057325,-0.07629108612720348
146,0.09060204251592932,-0.07212531330280243,0.16851952606461046,-0.0746945897053128,0.11766152578881932,0.10336335126665154,0.4020976982034562,0.33412747145995997,-0.07688901086468125,0.08362838470057325,-0.07629108612720348
147,0.09060204251592932,-0.07212531330280243,0.16851952606461046,-0.0746945897053128,0.11766152578881932,0.10336335126665154,0.4020976982034562,0.33412747145995997,-0.07688901086468125,0.08362838470057325,-0.07629108612720348
148,0.09060204251592932,-0.07212531330280243,0.16851952606461046,-0.0746945897053128,0.11766152578881932,0.10336335126665154,0.4020976982034562,0.33412747145995997,-0.07688901086468125,0.08362838470057325,-0.07629108612720348
149,0.09060204251592932,-0.07212531330280243,0.16851952606461046,-0.0746945897053128,0.11766152578881932,0.10336335126665154,0.4020976982034562,0.33412747145995997,-0.07688901086468125,0.08362838470057325,-0.07629108612720348
150,0.09060204251592932,-0.07212531330280243,0.16851952606461046,-0.0746945897053128,0.11766152578881932,0.10336335126665154,0.4020976982034562,0.33412747145995997,-0.07688901086468125,0.08362838470057325,-0.07629108612720348
151,0.8644906818059751,0.03307095947198816,0.13493259108181574,-0.018902954679613216,0.08257943454471252,0.03377261947414471,0.08968574718852523,0.03578953398062409,-0.1483764479451626,0.025678432452214538,-0.1327205973752242
152,0.8644906818059751,0.03307095947198816,0.13493259108181574,-0.018902954679613216,0.08257943454471252,0.03377261947414471,0.08968574718852523,0.03578953398062409,-0.1483764479451626,0.025678432452214538,-0.1327205973752242
153,0.8644906818059751,0.03307095947198816,0.13493259108181574,-0.018902954679613216,0.08257943454471252,0.03377261947414471,0.08968574718852523,0.03578953398062409,-0.1483764479451626,0.025678432452214538,-0.1327205973752242
154,0.8644906818059751,0.03307095947198816,0.13493259108181574,-0.018902954679613216,0.08257943454471252,0.03377261947414471,0.08968574718852523,0.03578953398062409,-0.1483764479451626,0.025678432452214538,-0.1327205973752242
155,0.8644906818059751,0.03307095947198816,0.13493259108181574,-0.018902954679613216,0.08257943454471252,0.03377261947414471,0.08968574718852523,0.03578953398062409,-0.1483764479451626,0.025678432452214538,-0.1327205973752242
156,0.8644906818059751,0.03307095947198816,0.13493259108181574,-0.018902954679613216,0.08257943454471252,0.03377261947414471,0.08968574718852523,0.03578953398062409,-0.1483764479451626,0.025678432452214538,-0.1327205973752242
157,0.8644906818059751,0.03307095947198816,0.13493259108181574,-0.018902954679613216,0.08257943454471252,0.03377261947414471,0.08968574718852523,0.03578953398062409,-0.1483764479451626,0.025678432452214538,-0.1327205973752242
158,0.8644906818059751,0.03307095947198816,0.13493259108181574,-0.018902954679613216,0.08257943454471252,0.03377261947414471,0.08968574718852523,0.03578953398062409,-0.1483764479451626,0.025678432452214538,-0.1327205973752242
159,0.8644906818059751,0.03307095947198816,0.13493259108181574,-0.018902954679613216,0.08257943454471252,0.03377261947414471,0.08968574718852523,0.03578953398062409,-0.1483764479451626,0.025678432452214538,-0.1327205973752242
160,0.8644906818059751,0.03307095947198816,0.13493259108181574,-0.018902954679613216,0.08257943454471252,0.03377261947414471,0.08968574718852523,0.03578953398062409,-0.1483764479451626,0.025678432452214538,-0.1327205973752242
161,0.8644906818059751,0.03307095947198816,0.13493259108181574,-0.018902954679613216,0.08257943454471252,0.03377261947414471,0.08968574718852523,0.03578953398062409,-0.1483764479451626,0.025678432452214538,-0.1327205973752242
162,0.8644906818059751,0.03307095947198816,0.13493259108181574,-0.018902954679613216,0.08257943454471252,0.03377261947414471,0.08968574718852523,0.03578953398062409,-0.1483764479451626,0.025678432452214538,-0.1327205973752242
163,0.8644906818059751,0.03307095947198816,0.13493259108181574,-0.018902954679613216,0.08257943454471252,0.03377261947414471,0.08968574718852523,0.03578953398062409,-0.1483764479451626,0.025678432452214538,-0.1327205973752242
164,0.8644906818059751,0.03307095947198816,0.13493259108181574,-0.018902954679613216,0.08257943454471252,0.03377261947414471,0.08968574718852523,0.03578953398062409,-0.1483764479451626,0.025678432452214538,-0.1327205973752242
165,0.8644906818059751,0.03307095947198816,0.13493259108181574,-0.018902954679613216,0.08257943454471252,0.03377261947414471,0.08968574718852523,0.03578953398062409,-0.1483764479451626,0.025678432452214538,-0.1327205973752242
166,0.8644906818059751,0.03307095947198816,0.13493259108181574,-0.018902954679613216,0.08257943454471252,0.03377261947414471,0.08968574718852523,0.03578953398062409,-0.1483764479451626,0.025678432452214538,-0.1327205973752242
167,0.8644906818059751,0.03307095947198816,0.13493259108181574,-0.018902954679613216,0.08257943454471252,0.03377261947414471,0.08968574718852523,0.03578953398062409,-0.1483764479451626,0.025678432452214538,-0.1327205973752242
168,0.8644906818059751,0.03307095947198816,0.13493259108181574,-0.018902954679613216,0.08257943454471252,0.03377261947414471,0.08968574718852523,0.03578953398062409,-0.1483764479451626,0.025678432452214538,-0.1327205973752242
169,0.8644906818059751,0.03307095947198816,0.13493259108181574,-0.018902954679613216,0.08257943454471252,0.03377261947414471,0.08968574718852523,0.03578953398062409,-0.1483764479451626,0.025678432452214538,-0.1327205973752242
170,0.8644906818059751,0.03307095947198816,0.13493259108181574,-0.018902954679613216,0.08257943454471252,0.03377261947414471,0.08968574718852523,0.03578953398062409,-0.1483764479451626,0.025678432452214538,-0.1327205973752242
171,0.8644906818059751,0.03307095947198816,0.13493259108181574,-0.018902954679613216,0.08257943454471252,0.03377261947414471,0.08968574718852523,0.03578953398062409,-0.1483764479451626,0.025678432452214538,-0.1327205973752242
172,0.8644906818059751,0.03307095947198816,0.13493259108181574,-0.018902954679613216,0.08257943454471252,0.03377261947414471,0.08968574718852523,0.03578953398062409,-0.1483764479451626,0.025678432452214538,-0.1327205973752242
173,0.8644906818059751,0.03307095947198816,0.13493259108181574,-0.018902954679613216,0.08257943454471252,0.03377261947414471,0.08968574718852523,0.03578953398062409,-0.1483764479451626,0.025678432452214538,-0.1327205973752242
174,0.8644906818059751,0.03307095947198816,0.13493259108181574,-0.018902954679613216,0.08257943454471252,0.03377261947414471,0.08968574718852523,0.03578953398062409,-0.1483764479451626,0.025678432452214538,-0.1327205973752242
175,0.8644906818059751,0.03307095947198816,0.13493259108181574,-0.018902954679613216,0.08257943454471252,0.03377261947414471,0.08968574718852523,0.03578953398062409,-0.1483764479451626,0.025678432452214538,-0.1327205973752242
176,0.8644906818059751,0.03307095947198816,0.13493259108181574,-0.018902954679613216,0.08257943454471252,0.03377261947414471,0.08968574718852523,0.03578953398062409,-0.1483764479451626,0.025678432452214538,-0.1327205973752242
177,0.8644906818059751,0.03307095947198816,0.13493259108181574,-0.018902954679613216,0.08257943454471252,0.03377261947414471,0.08968574718852523,0.03578953398062409,-0.1483764479451626,0.025678432452214538,-0.1327205973752242
178,0.8644906818059751,0.03307095947198816,0.13493259108181574,-0.018902954679613216,0.08257943454471252,0.03377261947414471,0.08968574718852523,0.03578953398062409,-0.1483764479451626,0.025678432452214538,-0.1327205973752242
179,0.8644906818059751,0.03307095947198816,0.13493259108181574,-0.018902954679613216,0.08257943454471252,0.03377261947414471,0.08968574718852523,0.03578953398062409,-0.1483764479451626,0.025678432452214538,-0.1327205973752242
180,0.8644906818059751,0.03307095947198816,0.13493259108181574,-0.018902954679613216,0.08257943454471252,0.03377261947414471,0.08968574718852523,0.03578953398062409,-0.1483764479451626,0.025678432452214538,-0.1327205973752242
181,0.011201024928726681,0.0139833847749191,-0.07024460623029914,-0.02384315120260851,0.012646232810107646,0.014996569870813162,0.016909579798195365,0.013394462098398825,1.0134195361221985,0.011485132480655136,-0.013948165451106631
182,0.011201024928726681,0.0139833847749191,-0.07024460623029914,-0.02384315120260851,0.012646232810107646,0.014996569870813162,0.016909579798195365,0.013394462098398825,1.0134195361221985,0.011485132480655136,-0.013948165451106631
183,0.011201024928726681,0.0139833847749191,-0.07024460623029914,-0.02384315120260851,0.012646232810107646,0.014996569870813162,0.016909579798195365,0.013394462098398825,1.0134195361221985,0.011485132480655136,-0.013948165451106631
184,0.011201024928726681,0.0139833847749191,-0.07024460623029914,-0.02384315120260851,0.012646232810107646,0.014996569870813162,0.016909579798195365,0.013394462098398825,1.0134195361221985,0.011485132480655136,-0.013948165451106631
185,0.011201024928726681,0.0139833847749191,-0.07024460623029914,-0.02384315120260851,0.012646232810107646,0.014996569870813162,0.016909579798195365,0.013394462098398825,1.0134195361221985,0.011485132480655136,-0.013948165451106631
186,0.011201024928726681,0.0139833847749191,-0.07024460623029914,-0.02384315120260851,0.012646232810107646,0.014996569870813162,0.016909579798195365,0.013394462098398825,1.0134195361221985,0.011485132480655136,-0.013948165451106631
187,0.011201024928726681,0.0139833847749191,-0.07024460623029914,-0.02384315120260851,0.012646232810107646,0.014996569870813162,0.016909579798195365,0.013394462098398825,1.0134195361221985,0.011485132480655136,-0.013948165451106631
188,0.011201024928726681,0.0139833847749191,-0.07024460623029914,-0.02384315120260851,0.012646232810107646,0.014996569870813162,0.016909579798195365,0.013394462098398825,1.0134195361221985,0.011485132480655136,-0.013948165451106631
189,0.011201024928726681,0.0139833847749191,-0.07024460623029914,-0.02384315120260851,0.012646232810107646,0.014996569870813162,0.016909579798195365,0.013394462098398825,1.0134195361221985,0.011485132480655136,-0.013948165451106631
190,0.011201024928726681,0.0139833847749191,-0.07024460623029914,-0.02384315120260851,0.012646232810107646,0.014996569870813162,0.016909579798195365,0.013394462098398825,1.0134195361221985,0.011485132480655136,-0.013948165451106631
191,0.011201024928726681,0.0139833847749191,-0.07024460623029914,-0.02384315120260851,0.012646232810107646,0.014996569870813162,0.016909579798195365,0.013394462098398825,1.0134195361221985,0.011485132480655136,-0.013948165451106631
192,0.011201024928726681,0.0139833847749191,-0.07024460623029914,-0.02384315120260851,0.012646232810107646,0.014996569870813162,0.016909579798195365,0.013394462098398825,1.0134195361221985,0.011485132480655136,-0.013948165451106631
193,0.011201024928726681,0.0139833847749191,-0.07024460623029914,-0.02384315120260851,0.012646232810107646,0.014996569870813162,0.016909579798195365,0.013394462098398825,1.0134195361221985,0.011485132480655136,-0.013948165451106631
194,0.011201024928726681,0.0139833847749191,-0.07024460623029914,-0.02384315120260851,0.012646232810107646,0.014996569870813162,0.016909579798195365,0.013394462098398825,1.0134195361221985,0.011485132480655136,-0.013948165451106631
195,0.011201024928726681,0.0139833847749191,-0.07024460623029914,-0.02384315120260851,0.012646232810107646,0.014996569870813162,0.016909579798195365,0.013394462098398825,1.0134195361221985,0.011485132480655136,-0.013948165451106631
196,0.011201024928726681,0.0139833847749191,-0.07024460623029914,-0.02384315120260851,0.012646232810107646,0.014996569870813162,0.016909579798195365,0.013394462098398825,1.0134195361221985,0.011485132480655136,-0.013948165451106631
197,0.011201024928726681,0.0139833847749191,-0.07024460623029914,-0.02384315120260851,0.012646232810107646,0.014996569870813162,0.016909579798195365,0.013394462098398825,1.0134195361221985,0.011485132480655136,-0.013948165451106631
198,0.011201024928726681,0.0139833847749191,-0.07024460623029914,-0.02384315120260851,0.012646232810107646,0.014996569870813162,0.016909579798195365,0.013394462098398825,1.0134195361221985,0.011485132480655136,-0.013948165451106631
199,0.011201024928726681,0.0139833847749191,-0.07024460623029914,-0.02384315120260851,0.012646232810107646,0.014996569870813162,0.016909579798195365,0.013394462098398825,1.0134195361221985,0.011485132480655136,-0.013948165451106631
200,0.011201024928726681,0.0139833847749191,-0.07024460623029914,-0.02384315120260851,0.012646232810107646,0.014996569870813162,0.016909579798195365,0.013394462098398825,1.0134195361221985,0.011485132480655136,-0.013948165451106631
201,0.011201024928726681,0.0139833847749191,-0.07024460623029914,-0.02384315120260851,0.012646232810107646,0.014996569870813162,0.016909579798195365,0.013394462098398825,1.0134195361221985,0.011485132480655136,-0.013948165451106631
202,0.011201024928726681,0.0139833847749191,-0.07024460623029914,-0.02384315120260851,0.012646232810107646,0.014996569870813162,0.016909579798195365,0.013394462098398825,1.0134195361221985,0.011485132480655136,-0.013948165451106631
203,0.011201024928726681,0.0139833847749191,-0.07024460623029914,-0.02384315120260851,0.012646232810107646,0.014996569870813162,0.016909579798195365,0.013394462098398825,1.0134195361221985,0.011485132480655136,-0.013948165451106631
204,0.011201024928726681,0.0139833847749191,-0.07024460623029914,-0.02384315120260851,0.012646232810107646,0.014996569870813162,0.016909579798195365,0.013394462098398825,1.0134195361221985,0.011485132480655136,-0.013948165451106631
205,0.011201024928726681,0.0139833847749191,-0.07024460623029914,-0.02384315120260851,0.012646232810107646,0.014996569870813162,0.016909579798195365,0.013394462098398825,1.0134195361221985,0.011485132480655136,-0.013948165451106631
206,0.011201024928726681,0.0139833847749191,-0.07024460623029914,-0.02384315120260851,0.012646232810107646,0.014996569870813162,0.016909579798195365,0.013394462098398825,1.0134195361221985,0.011485132480655136,-0.013948165451106631
207,0.011201024928726681,0.0139833847749191,-0.07024460623029914,-0.02384315120260851,0.012646232810107646,0.014996569870813162,0.016909579798195365,0.013394462098398825,1.0134195361221985,0.011485132480655136,-0.013948165451106631
208,0.011201024928726681,0.0139833847749191,-0.07024460623029914,-0.02384315120260851,0.012646232810107646,0.014996569870813162,0.016909579798195365,0.013394462098398825,1.0134195361221985,0.011485132480655136,-0.013948165451106631
209,0.011201024928726681,0.0139833847749191,-0.07024460623029914,-0.02384315120260851,0.012646232810107646,0.014996569870813162,0.016909579798195365,0.013394462098398825,1.0134195361221985,0.011485132480655136,-0.013948165451106631
210,0.011201024928726681,0.0139833847749191,-0.07024460623029914,-0.02384315120260851,0.012646232810107646,0.014996569870813162,0.016909579798195365,0.013394462098398825,1.0134195361221985,0.011485132480655136,-0.013948165451106631
211,0.011201024928726681,0.0139833847749191,-0.07024460623029914,-0.02384315120260851,0.012646232810107646,0.014996569870813162,0.016909579798195365,0.013394462098398825,1.0134195361221985,0.011485132480655136,-0.013948165451106631
212,-0.048104285000447354,0.11950556750701823,0.4095015111658682,0.03804409876896732,0.053716545730354004,0.14900449005902971,0.11327250013927136,0.05028229351599567,0.0832081067592746,-0.032136138000249156,0.06370530935491756
213,-0.048104285000447354,0.11950556750701823,0.4095015111658682,0.03804409876896732,0.053716545730354004,0.14900449005902971,0.11327250013927136,0.05028229351599567,0.0832081067592746,-0.032136138000249156,0.06370530935491756
214,-0.048104285000447354,0.11950556750701823,0.4095015111658682,0.03804409876896732,0.053716545730354004,0.14900449005902971,0.11327250013927136,0.05028229351599567,0.0832081067592746,-0.032136138000249156,0.06370530935491756
215,-0.048104285000447354,0.11950556750701823,0.4095015111658682,0.03804409876896732,0.053716545730354004,0.14900449005902971,0.11327250013927136,0.05028229351599567,0.0832081067592746,-0.032136138000249156,0.06370530935491756
216,-0.048104285000447354,0.11950556750701823,0.4095015111658682,0.03804409876896732,0.053716545730354004,0.14900449005902971,0.11327250013927136,0.05028229351599567,0.0832081067592746,-0.032136138000249156,0.06370530935491756
217,-0.048104285000447354,0.11950556750701823,0.4095015111658682,0.03804409876896732,0.053716545730354004,0.14900449005902971,0.11327250013927136,0.05028229351599567,0.0832081067592746,-0.032136138000249156,0.06370530935491756
218,-0.048104285000447354,0.11950556750701823,0.4095015111658682,0.03804409876896732,0.053716545730354004,0.14900449005902971,0.11327250013927136,0.05028229351599567,0.0832081067592746,-0.032136138000249156,0.06370530935491756
219,-0.048104285000447354,0.11950556750701823,0.4095015111658682,0.03804409876896732,0.053716545730354004,0.14900449005902971,0.11327250013927136,0.05028229351599567,0.0832081067592746,-0.032136138000249156,0.06370530935491756
220,-0.048104285000447354,0.11950556750701823,0.4095015111658682,0.03804409876896732,0.053716545730354004,0.14900449005902971,0.11327250013927136,0.05028229351599567,0.0832081067592746,-0.032136138000249156,0.06370530935491756
221,-0.048104285000447354,0.11950556750701823,0.4095015111658682,0.03804409876896732,0.053716545730354004,0.14900449005902971,0.11327250013927136,0.05028229351599567,0.0832081067592746,-0.032136138000249156,0.06370530935491756
222,-0.048104285000447354,0.11950556750701823,0.4095015111658682,0.03804409876896732,0.053716545730354004,0.14900449005902971,0.11327250013927136,0.05028229351599567,0.0832081067592746,-0.032136138000249156,0.06370530935491756
223,-0.048104285000447354,0.11950556750701823,0.4095015111658682,0.03804409876896732,0.053716545730354004,0.14900449005902971,0.11327250013927136,0.05028229351599567,0.0832081067592746,-0.032136138000249156,0.06370530935491756
224,-0.048104285000447354,0.11950556750701823,0.4095015111658682,0.03804409876896732,0.053716545730354004,0.14900449005902971,0.11327250013927136,0.05028229351599567,0.0832081067592746,-0.032136138000249156,0.06370530935491756
225,-0.048104285000447354,0.11950556750701823,0.4095015111658682,0.03804409876896732,0.053716545730354004,0.14900449005902971,0.11327250013927136,0.05028229351599567,0.0832081067592746,-0.032136138000249156,0.06370530935491756
226,-0.048104285000447354,0.11950556750701823,0.4095015111658682,0.03804409876896732,0.053716545730354004,0.14900449005902971,0.11327250013927136,0.05028229351599567,0.0832081067592746,-0.032136138000249156,0.06370530935491756
227,-0.048104285000447354,0.11950556750701823,0.4095015111658682,0.03804409876896732,0.053716545730354004,0.14900449005902971,0.11327250013927136,0.05028229351599567,0.0832081067592746,-0.032136138000249156,0.06370530935491756
228,-0.048104285000447354,0.11950556750701823,0.4095015111658682,0.03804409876896732,0.053716545730354004,0.14900449005902971,0.11327250013927136,0.05028229351599567,0.0832081067592746,-0.032136138000249156,0.06370530935491756
229,-0.048104285000447354,0.11950556750701823,0.4095015111658682,0.03804409876896732,0.053716545730354004,0.14900449005902971,0.11327250013927136,0.05028229351599567,0.0832081067592746,-0.032136138000249156,0.06370530935491756
230,-0.048104285000447354,0.11950556750701823,0.4095015111658682,0.03804409876896732,0.053716545730354004,0.14900449005902971,0.11327250013927136,0.05028229351599567,0.0832081067592746,-0.032136138000249156,0.06370530935491756
231,-0.048104285000447354,0.11950556750701823,0.4095015111658682,0.03804409876896732,0.053716545730354004,0.14900449005902971,0.11327250013927136,0.05028229351599567,0.0832081067592746,-0.032136138000249156,0.06370530935491756
232,-0.048104285000447354,0.11950556750701823,0.4095015111658682,0.03804409876896732,0.053716545730354004,0.14900449005902971,0.11327250013927136,0.05028229351599567,0.0832081067592746,-0.032136138000249156,0.06370530935491756
233,-0.048104285000447354,0.11950556750701823,0.4095015111658682,0.03804409876896732,0.053716545730354004,0.14900449005902971,0.11327250013927136,0.05028229351599567,0.0832081067592746,-0.032136138000249156,0.06370530935491756
234,-0.048104285000447354,0.11950556750701823,0.4095015111658682,0.03804409876896732,0.053716545730354004,0.14900449005902971,0.11327250013927136,0.05028229351599567,0.0832081067592746,-0.032136138000249156,0.06370530935491756
235,-0.048104285000447354,0.11950556750701823,0.4095015111658682,0.03804409876896732,0.053716545730354004,0.14900449005902971,0.11327250013927136,0.05028229351599567,0.0832081067592746,-0.032136138000249156,0.06370530935491756
236,-0.048104285000447354,0.11950556750701823,0.4095015111658682,0.03804409876896732,0.053716545730354004,0.14900449005902971,0.11327250013927136,0.05028229351599567,0.0832081067592746,-0.032136138000249156,0.06370530935491756
237,-0.048104285000447354,0.11950556750701823,0.4095015111658682,0.03804409876896732,0.053716545730354004,0.14900449005902971,0.11327250013927136,0.05028229351599567,0.0832081067592746,-0.032136138000249156,0.06370530935491756
238,-0.048104285000447354,0.11950556750701823,0.4095015111658682,0.03804409876896732,0.053716545730354004,0.14900449005902971,0.11327250013927136,0.05028229351599567,0.0832081067592746,-0.032136138000249156,0.06370530935491756
239,-0.048104285000447354,0.11950556750701823,0.4095015111658682,0.03804409876896732,0.053716545730354004,0.14900449005902971,0.11327250013927136,0.05028229351599567,0.0832081067592746,-0.032136138000249156,0.06370530935491756
240,-0.048104285000447354,0.11950556750701823,0.4095015111658682,0.03804409876896732,0.053716545730354004,0.14900449005902971,0.11327250013927136,0.05028229351599567,0.0832081067592746,-0.032136138000249156,0.06370530935491756
241,-0.048104285000447354,0.11950556750701823,0.4095015111658682,0.03804409876896732,0.053716545730354004,0.14900449005902971,0.11327250013927136,0.05028229351599567,0.0832081067592746,-0.032136138000249156,0.06370530935491756
242,-0.048104285000447354,0.11950556750701823,0.4095015111658682,0.03804409876896732,0.053716545730354004,0.14900449005902971,0.11327250013927136,0.05028229351599567,0.0832081067592746,-0.032136138000249156,0.06370530935491756
243,0.05457802472818112,0.036695521281432074,0.048487736982730664,0.37085067515166625,0.22218324449986418,0.41153993103847053,0.044747340544078,-0.07765105703193836,0.1109175257735774,-0.13439993410905496,-0.08794900885900667
244,0.05457802472818112,0.036695521281432074,0.048487736982730664,0.37085067515166625,0.22218324449986418,0.41153993103847053,0.044747340544078,-0.07765105703193836,0.1109175257735774,-0.13439993410905496,-0.08794900885900667
245,0.05457802472818112,0.036695521281432074,0.048487736982730664,0.37085067515166625,0.22218324449986418,0.41153993103847053,0.044747340544078,-0.07765105703193836,0.1109175257735774,-0.13439993410905496,-0.08794900885900667
246,0.05457802472818112,0.036695521281432074,0.048487736982730664,0.37085067515166625,0.22218324449986418,0.41153993103847053,0.044747340544078,-0.07765105703193836,0.1109175257735774,-0.13439993410905496,-0.08794900885900667
247,0.05457802472818112,0.036695521281432074,0.048487736982730664,0.37085067515166625,0.22218324449986418,0.41153993103847053,0.044747340544078,-0.07765105703193836,0.1109175257735774,-0.13439993410905496,-0.08794900885900667
248,0.05457802472818112,0.036695521281432074,0.048487736982730664,0.37085067515166625,0.22218324449986418,0.41153993103847053,0.044747340544078,-0.07765105703193836,0.1109175257735774,-0.13439993410905496,-0.08794900885900667
249,0.05457802472818112,0.036695521281432074,0.048487736982730664,0.37085067515166625,0.22218324449986418,0.41153993103847053,0.044747340544078,-0.07765105703193836,0.1109175257735774,-0.13439993410905496,-0.08794900885900667
250,0.05457802472818112,0.036695521281432074,0.048487736982730664,0.37085067515166625,0.22218324449986418,0.41153993103847053,0.044747340544078,-0.07765105703193836,0.1109175257735774,-0.13439993410905496,-0.08794900885900667
251,0.05457802472818112,0.036695521281432074,0.048487736982730664,0.37085067515166625,0.22218324449986418,0.41153993103847053,0.044747340544078,-0.07765105703193836,0.1109175257735774,-0.13439993410905496,-0.08794900885900667
252,0.05457802472818112,0.036695521281432074,0.048487736982730664,0.37085067515166625,0.22218324449986418,0.41153993103847053,0.044747340544078,-0.07765105703193836,0.1109175257735774,-0.13439993410905496,-0.08794900885900667
253,0.05457802472818112,0.036695521281432074,0.048487736982730664,0.37085067515166625,0.22218324449986418,0.41153993103847053,0.044747340544078,-0.07765105703193836,0.1109175257735774,-0.13439993410905496,-0.08794900885900667
254,0.05457802472818112,0.036695521281432074,0.048487736982730664,0.37085067515166625,0.22218324449986418,0.41153993103847053,0.044747340544078,-0.07765105703193836,0.1109175257735774,-0.13439993410905496,-0.08794900885900667
255,0.05457802472818112,0.036695521281432074,0.048487736982730664,0.37085067515166625,0.22218324449986418,0.41153993103847053,0.044747340544078,-0.07765105703193836,0.1109175257735774,-0.13439993410905496,-0.08794900885900667
256,0.05457802472818112,0.036695521281432074,0.048487736982730664,0.37085067515166625,0.22218324449986418,0.41153993103847053,0.044747340544078,-0.07765105703193836,0.1109175257735774,-0.13439993410905496,-0.08794900885900667
257,0.05457802472818112,0.036695521281432074,0.048487736982730664,0.37085067515166625,0.22218324449986418,0.41153993103847053,0.044747340544078,-0.07765105703193836,0.1109175257735774,-0.13439993410905496,-0.08794900885900667
258,0.05457802472818112,0.036695521281432074,0.048487736982730664,0.37085067515166625,0.22218324449986418,0.41153993103847053,0.044747340544078,-0.07765105703193836,0.1109175257735774,-0.13439993410905496,-0.08794900885900667
259,0.05457802472818112,0.036695521281432074,0.048487736982730664,0.37085067515166625,0.22218324449986418,0.41153993103847053,0.044747340544078,-0.07765105703193836,0.1109175257735774,-0.13439993410905496,-0.08794900885900667
260,0.05457802472818112,0.036695521281432074,0.048487736982730664,0.37085067515166625,0.22218324449986418,0.41153993103847053,0.044747340544078,-0.07765105703193836,0.1109175257735774,-0.13439993410905496,-0.08794900885900667
261,0.05457802472818112,0.036695521281432074,0.048487736982730664,0.37085067515166625,0.22218324449986418,0.41153993103847053,0.044747340544078,-0.07765105703193836,0.1109175257735774,-0.13439993410905496,-0.08794900885900667
262,0.05457802472818112,0.036695521281432074,0.048487736982730664,0.37085067515166625,0.22218324449986418,0.41153993103847053,0.044747340544078,-0.07765105703193836,0.1109175257735774,-0.13439993410905496,-0.08794900885900667
263,0.05457802472818112,0.036695521281432074,0.048487736982730664,0.37085067515166625,0.22218324449986418,0.41153993103847053,0.044747340544078,-0.07765105703193836,0.1109175257735774,-0.13439993410905496,-0.08794900885900667
264,0.05457802472818112,0.036695521281432074,0.048487736982730664,0.37085067515166625,0.22218324449986418,0.41153993103847053,0.044747340544078,-0.07765105703193836,0.1109175257735774,-0.13439993410905496,-0.08794900885900667
265,0.05457802472818112,0.036695521281432074,0.048487736982730664,0.37085067515166625,0.22218324449986418,0.41153993103847053,0.044747340544078,-0.07765105703193836,0.1109175257735774,-0.13439993410905496,-0.08794900885900667
266,0.05457802472818112,0.036695521281432074,0.048487736982730664,0.37085067515166625,0.22218324449986418,0.41153993103847053,0.044747340544078,-0.07765105703193836,0.1109175257735774,-0.13439993410905496,-0.08794900885900667
267,0.05457802472818112,0.036695521281432074,0.048487736982730664,0.37085067515166625,0.22218324449986418,0.41153993103847053,0.044747340544078,-0.07765105703193836,0.1109175257735774,-0.13439993410905496,-0.08794900885900667
268,0.05457802472818112,0.036695521281432074,0.048487736982730664,0.37085067515166625,0.22218324449986418,0.41153993103847053,0.044747340544078,-0.07765105703193836,0.1109175257735774,-0.13439993410905496,-0.08794900885900667
269,0.05457802472818112,0.036695521281432074,0.048487736982730664,0.37085067515166625,0.22218324449986418,0.41153993103847053,0.044747340544078,-0.07765105703193836,0.1109175257735774,-0.13439993410905496,-0.08794900885900667
270,0.05457802472818112,0.036695521281432074,0.048487736982730664,0.37085067515166625,0.22218324449986418,0.41153993103847053,0.044747340544078,-0.07765105703193836,0.1109175257735774,-0.13439993410905496,-0.08794900885900667
271,0.05457802472818112,0.036695521281432074,0.048487736982730664,0.37085067515166625,0.22218324449986418,0.41153993103847053,0.044747340544078,-0.07765105703193836,0.1109175257735774,-0.13439993410905496,-0.08794900885900667
272,0.05457802472818112,0.036695521281432074,0.048487736982730664,0.37085067515166625,0.22218324449986418,0.41153993103847053,0.044747340544078,-0.07765105703193836,0.1109175257735774,-0.13439993410905496,-0.08794900885900667
273,0.14371960816364626,0.07410583076285922,0.08673917952565371,0.11645994624916038,0.12003312640601717,0.10184707605077883,0.08238238393972942,0.16427482114857908,0.06711817452965939,-0.048493439958801295,0.09181329318271793
274,0.14371960816364626,0.07410583076285922,0.08673917952565371,0.11645994624916038,0.12003312640601717,0.10184707605077883,0.08238238393972942,0.16427482114857908,0.06711817452965939,-0.048493439958801295,0.09181329318271793
275,0.14371960816364626,0.07410583076285922,0.08673917952565371,0.11645994624916038,0.12003312640601717,0.10184707605077883,0.08238238393972942,0.16427482114857908,0.06711817452965939,-0.048493439958801295,0.09181329318271793
276,0.14371960816364626,0.07410583076285922,0.08673917952565371,0.11645994624916038,0.12003312640601717,0.10184707605077883,0.08238238393972942,0.16427482114857908,0.06711817452965939,-0.048493439958801295,0.09181329318271793
277,0.14371960816364626,0.07410583076285922,0.08673917952565371,0.11645994624916038,0.12003312640601717,0.10184707605077883,0.08238238393972942,0.16427482114857908,0.06711817452965939,-0.048493439958801295,0.09181329318271793
278,0.14371960816364626,0.07410583076285922,0.08673917952565371,0.11645994624916038,0.12003312640601717,0.10184707605077883,0.08238238393972942,0.16427482114857908,0.06711817452965939,-0.048493439958801295,0.09181329318271793
279,0.14371960816364626,0.07410583076285922,0.08673917952565371,0.11645994624916038,0.12003312640601717,0.10184707605077883,0.08238238393972942,0.16427482114857908,0.06711817452965939,-0.048493439958801295,0.09181329318271793
280,0.14371960816364626,0.07410583076285922,0.08673917952565371,0.11645994624916038,0.12003312640601717,0.10184707605077883,0.08238238393972942,0.16427482114857908,0.06711817452965939,-0.048493439958801295,0.09181329318271793
281,0.14371960816364626,0.07410583076285922,0.08673917952565371,0.11645994624916038,0.12003312640601717,0.10184707605077883,0.08238238393972942,0.16427482114857908,0.06711817452965939,-0.048493439958801295,0.09181329318271793
282,0.14371960816364626,0.07410583076285922,0.08673917952565371,0.11645994624916038,0.12003312640601717,0.10184707605077883,0.08238238393972942,0.16427482114857908,0.06711817452965939,-0.048493439958801295,0.09181329318271793
283,0.14371960816364626,0.07410583076285922,0.08673917952565371,0.11645994624916038,0.12003312640601717,0.10184707605077883,0.08238238393972942,0.16427482114857908,0.06711817452965939,-0.048493439958801295,0.09181329318271793
284,0.14371960816364626,0.07410583076285922,0.08673917952565371,0.11645994624916038,0.12003312640601717,0.10184707605077883,0.08238238393972942,0.16427482114857908,0.06711817452965939,-0.048493439958801295,0.09181329318271793
285,0.14371960816364626,0.07410583076285922,0.08673917952565371,0.11645994624916038,0.12003312640601717,0.10184707605077883,0.08238238393972942,0.16427482114857908,0.06711817452965939,-0.048493439958801295,0.09181329318271793
286,0.14371960816364626,0.07410583076285922,0.08673917952565371,0.11645994624916038,0.12003312640601717,0.10184707605077883,0.08238238393972942,0.16427482114857908,0.06711817452965939,-0.048493439958801295,0.09181329318271793
287,0.14371960816364626,0.07410583076285922,0.08673917952565371,0.11645994624916038,0.12003312640601717,0.10184707605077883,0.08238238393972942,0.16427482114857908,0.06711817452965939,-0.048493439958801295,0.09181329318271793
288,0.14371960816364626,0.07410583076285922,0.08673917952565371,0.11645994624916038,0.12003312640601717,0.10184707605077883,0.08238238393972942,0.16427482114857908,0.06711817452965939,-0.048493439958801295,0.09181329318271793
289,0.14371960816364626,0.07410583076285922,0.08673917952565371,0.11645994624916038,0.12003312640601717,0.10184707605077883,0.08238238393972942,0.16427482114857908,0.06711817452965939,-0.048493439958801295,0.09181329318271793
290,0.14371960816364626,0.07410583076285922,0.08673917952565371,0.11645994624916038,0.12003312640601717,0.10184707605077883,0.08238238393972942,0.16427482114857908,0.06711817452965939,-0.048493439958801295,0.09181329318271793
291,0.14371960816364626,0.07410583076285922,0.08673917952565371,0.11645994624916038,0.12003312640601717,0.10184707605077883,0.08238238393972942,0.16427482114857908,0.06711817452965939,-0.048493439958801295,0.09181329318271793
292,0.14371960816364626,0.07410583076285922,0.08673917952565371,0.11645994624916038,0.12003312640601717,0.10184707605077883,0.08238238393972942,0.16427482114857908,0.06711817452965939,-0.048493439958801295,0.09181329318271793
293,0.14371960816364626,0.07410583076285922,0.08673917952565371,0.11645994624916038,0.12003312640601717,0.10184707605077883,0.08238238393972942,0.16427482114857908,0.06711817452965939,-0.048493439958801295,0.09181329318271793
294,0.14371960816364626,0.07410583076285922,0.08673917952565371,0.11645994624916038,0.12003312640601717,0.10184707605077883,0.08238238393972942,0.16427482114857908,0.06711817452965939,-0.048493439958801295,0.09181329318271793
295,0.14371960816364626,0.07410583076285922,0.08673917952565371,0.11645994624916038,0.12003312640601717,0.10184707605077883,0.08238238393972942,0.16427482114857908,0.06711817452965939,-0.048493439958801295,0.09181329318271793
296,0.14371960816364626,0.07410583076285922,0.08673917952565371,0.11645994624916038,0.12003312640601717,0.10184707605077883,0.08238238393972942,0.16427482114857908,0.06711817452965939,-0.048493439958801295,0.09181329318271793
297,0.14371960816364626,0.07410583076285922,0.08673917952565371,0.11645994624916038,0.12003312640601717,0.10184707605077883,0.08238238393972942,0.16427482114857908,0.06711817452965939,-0.048493439958801295,0.09181329318271793
298,0.14371960816364626,0.07410583076285922,0.08673917952565371,0.11645994624916038,0.12003312640601717,0.10184707605077883,0.08238238393972942,0.16427482114857908,0.06711817452965939,-0.048493439958801295,0.09181329318271793
299,0.14371960816364626,0.07410583076285922,0.08673917952565371,0.11645994624916038,0.12003312640601717,0.10184707605077883,0.08238238393972942,0.16427482114857908,0.06711817452965939,-0.048493439958801295,0.09181329318271793
300,0.14371960816364626,0.07410583076285922,0.08673917952565371,0.11645994624916038,0.12003312640601717,0.10184707605077883,0.08238238393972942,0.16427482114857908,0.06711817452965939,-0.048493439958801295,0.09181329318271793
301,0.14371960816364626,0.07410583076285922,0.08673917952565371,0.11645994624916038,0.12003312640601717,0.10184707605077883,0.08238238393972942,0.16427482114857908,0.06711817452965939,-0.048493439958801295,0.09181329318271793
302,0.14371960816364626,0.07410583076285922,0.08673917952565371,0.11645994624916038,0.12003312640601717,0.10184707605077883,0.08238238393972942,0.16427482114857908,0.06711817452965939,-0.048493439958801295,0.09181329318271793
303,0.14371960816364626,0.07410583076285922,0.08673917952565371,0.11645994624916038,0.12003312640601717,0.10184707605077883,0.08238238393972942,0.16427482114857908,0.06711817452965939,-0.048493439958801295,0.09181329318271793
304,0.28652121214791254,0.5993071826319873,-0.04082101931646104,0.019137763224440777,-0.06106635472773098,0.04907617055795646,-0.19811262595580795,0.10773228873589719,0.21536044112142835,0.013314499288907605,0.009550442291469612
305,0.28652121214791254,0.5993071826319873,-0.04082101931646104,0.019137763224440777,-0.06106635472773098,0.04907617055795646,-0.19811262595580795,0.10773228873589719,0.21536044112142835,0.013314499288907605,0.009550442291469612
306,0.28652121214791254,0.5993071826319873,-0.04082101931646104,0.019137763224440777,-0.06106635472773098,0.04907617055795646,-0.19811262595580795,0.10773228873589719,0.21536044112142835,0.013314499288907605,0.009550442291469612
307,0.28652121214791254,0.5993071826319873,-0.04082101931646104,0.019137763224440777,-0.06106635472773098,0.04907617055795646,-0.19811262595580795,0.10773228873589719,0.21536044112142835,0.013314499288907605,0.009550442291469612
308,0.28652121214791254,0.5993071826319873,-0.04082101931646104,0.019137763224440777,-0.06106635472773098,0.04907617055795646,-0.19811262595580795,0.10773228873589719,0.21536044112142835,0.013314499288907605,0.009550442291469612
309,0.28652121214791254,0.5993071826319873,-0.04082101931646104,0.019137763224440777,-0.06106635472773098,0.04907617055795646,-0.19811262595580795,0.10773228873589719,0.21536044112142835,0.013314499288907605,0.009550442291469612
310,0.28652121214791254,0.5993071826319873,-0.04082101931646104,0.019137763224440777,-0.06106635472773098,0.04907617055795646,-0.19811262595580795,0.10773228873589719,0.21536044112142835,0.013314499288907605,0.009550442291469612
311,0.28652121214791254,0.5993071826319873,-0.04082101931646104,0.019137763224440777,-0.06106635472773098,0.04907617055795646,-0.19811262595580795,0.10773228873589719,0.21536044112142835,0.013314499288907605,0.009550442291469612
312,0.28652121214791254,0.5993071826319873,-0.04082101931646104,0.019137763224440777,-0.06106635472773098,0.04907617055795646,-0.19811262595580795,0.10773228873589719,0.21536044112142835,0.013314499288907605,0.009550442291469612
313,0.28652121214791254,0.5993071826319873,-0.04082101931646104,0.019137763224440777,-0.06106635472773098,0.04907617055795646,-0.19811262595580795,0.10773228873589719,0.21536044112142835,0.013314499288907605,0.009550442291469612
314,0.28652121214791254,0.5993071826319873,-0.04082101931646104,0.019137763224440777,-0.06106635472773098,0.04907617055795646,-0.19811262595580795,0.10773228873589719,0.21536044112142835,0.013314499288907605,0.009550442291469612
315,0.28652121214791254,0.5993071826319873,-0.04082101931646104,0.019137763224440777,-0.06106635472773098,0.04907617055795646,-0.19811262595580795,0.10773228873589719,0.21536044112142835,0.013314499288907605,0.009550442291469612
316,0.28652121214791254,0.5993071826319873,-0.04082101931646104,0.019137763224440777,-0.06106635472773098,0.04907617055795646,-0.19811262595580795,0.10773228873589719,0.21536044112142835,0.013314499288907605,0.009550442291469612
317,0.28652121214791254,0.5993071826319873,-0.04082101931646104,0.019137763224440777,-0.06106635472773098,0.04907617055795646,-0.19811262595580795,0.10773228873589719,0.21536044112142835,0.013314499288907605,0.009550442291469612
318,0.28652121214791254,0.5993071826319873,-0.04082101931646104,0.019137763224440777,-0.06106635472773098,0.04907617055795646,-0.19811262595580795,0.10773228873589719,0.21536044112142835,0.013314499288907605,0.009550442291469612
319,0.28652121214791254,0.5993071826319873,-0.04082101931646104,0.019137763224440777,-0.06106635472773098,0.04907617055795646,-0.19811262595580795,0.10773228873589719,0.21536044112142835,0.013314499288907605,0.009550442291469612
320,0.28652121214791254,0.5993071826319873,-0.04082101931646104,0.019137763224440777,-0.06106635472773098,0.04907617055795646,-0.19811262595580795,0.10773228873589719,0.21536044112142835,0.013314499288907605,0.009550442291469612
321,0.28652121214791254,0.5993071826319873,-0.04082101931646104,0.019137763224440777,-0.06106635472773098,0.04907617055795646,-0.19811262595580795,0.10773228873589719,0.21536044112142835,0.013314499288907605,0.009550442291469612
322,0.28652121214791254,0.5993071826319873,-0.04082101931646104,0.019137763224440777,-0.06106635472773098,0.04907617055795646,-0.19811262595580795,0.10773228873589719,0.21536044112142835,0.013314499288907605,0.009550442291469612
323,0.28652121214791254,0.5993071826319873,-0.04082101931646104,0.019137763224440777,-0.06106635472773098,0.04907617055795646,-0.19811262595580795,0.10773228873589719,0.21536044112142835,0.013314499288907605,0.009550442291469612
324,0.28652121214791254,0.5993071826319873,-0.04082101931646104,0.019137763224440777,-0.06106635472773098,0.04907617055795646,-0.19811262595580795,0.10773228873589719,0.21536044112142835,0.013314499288907605,0.009550442291469612
325,0.28652121214791254,0.5993071826319873,-0.04082101931646104,0.019137763224440777,-0.06106635472773098,0.04907617055795646,-0.19811262595580795,0.10773228873589719,0.21536044112142835,0.013314499288907605,0.009550442291469612
326,0.28652121214791254,0.5993071826319873,-0.04082101931646104,0.019137763224440777,-0.06106635472773098,0.04907617055795646,-0.19811262595580795,0.10773228873589719,0.21536044112142835,0.013314499288907605,0.009550442291469612
327,0.28652121214791254,0.5993071826319873,-0.04082101931646104,0.019137763224440777,-0.06106635472773098,0.04907617055795646,-0.19811262595580795,0.10773228873589719,0.21536044112142835,0.013314499288907605,0.009550442291469612
328,0.28652121214791254,0.5993071826319873,-0.04082101931646104,0.019137763224440777,-0.06106635472773098,0.04907617055795646,-0.19811262595580795,0.10773228873589719,0.21536044112142835,0.013314499288907605,0.009550442291469612
329,0.28652121214791254,0.5993071826319873,-0.04082101931646104,0.019137763224440777,-0.06106635472773098,0.04907617055795646,-0.19811262595580795,0.10773228873589719,0.21536044112142835,0.013314499288907605,0.009550442291469612
330,0.28652121214791254,0.5993071826319873,-0.04082101931646104,0.019137763224440777,-0.06106635472773098,0.04907617055795646,-0.19811262595580795,0.10773228873589719,0.21536044112142835,0.013314499288907605,0.009550442291469612
331,0.28652121214791254,0.5993071826319873,-0.04082101931646104,0.019137763224440777,-0.06106635472773098,0.04907617055795646,-0.19811262595580795,0.10773228873589719,0.21536044112142835,0.013314499288907605,0.009550442291469612
332,0.28652121214791254,0.5993071826319873,-0.04082101931646104,0.019137763224440777,-0.06106635472773098,0.04907617055795646,-0.19811262595580795,0.10773228873589719,0.21536044112142835,0.013314499288907605,0.009550442291469612
333,0.28652121214791254,0.5993071826319873,-0.04082101931646104,0.019137763224440777,-0.06106635472773098,0.04907617055795646,-0.19811262595580795,0.10773228873589719,0.21536044112142835,0.013314499288907605,0.009550442291469612
334,0.12474303846986469,0.035483841803817244,0.2914740400929892,0.39503012819801203,-0.2045757429805696,0.08371983140120592,0.0795451890361735,0.0808020019173171,0.04927589468034677,0.15992603440027342,-0.09542425701943037
335,0.12474303846986469,0.035483841803817244,0.2914740400929892,0.39503012819801203,-0.2045757429805696,0.08371983140120592,0.0795451890361735,0.0808020019173171,0.04927589468034677,0.15992603440027342,-0.09542425701943037
336,0.12474303846986469,0.035483841803817244,0.2914740400929892,0.39503012819801203,-0.2045757429805696,0.08371983140120592,0.0795451890361735,0.0808020019173171,0.04927589468034677,0.15992603440027342,-0.09542425701943037
337,0.12474303846986469,0.035483841803817244,0.2914740400929892,0.39503012819801203,-0.2045757429805696,0.08371983140120592,0.0795451890361735,0.0808020019173171,0.04927589468034677,0.15992603440027342,-0.09542425701943037
338,0.12474303846986469,0.035483841803817244,0.2914740400929892,0.39503012819801203,-0.2045757429805696,0.08371983140120592,0.0795451890361735,0.0808020019173171,0.04927589468034677,0.15992603440027342,-0.09542425701943037
339,0.12474303846986469,0.035483841803817244,0.2914740400929892,0.39503012819801203,-0.2045757429805696,0.08371983140120592,0.0795451890361735,0.0808020019173171,0.04927589468034677,0.15992603440027342,-0.09542425701943037
340,0.12474303846986469,0.035483841803817244,0.2914740400929892,0.39503012819801203,-0.2045757429805696,0.08371983140120592,0.0795451890361735,0.0808020019173171,0.04927589468034677,0.15992603440027342,-0.09542425701943037
341,0.12474303846986469,0.035483841803817244,0.2914740400929892,0.39503012819801203,-0.2045757429805696,0.08371983140120592,0.0795451890361735,0.0808020019173171,0.04927589468034677,0.15992603440027342,-0.09542425701943037
342,0.12474303846986469,0.035483841803817244,0.2914740400929892,0.39503012819801203,-0.2045757429805696,0.08371983140120592,0.0795451890361735,0.0808020019173171,0.04927589468034677,0.15992603440027342,-0.09542425701943037
343,0.12474303846986469,0.035483841803817244,0.2914740400929892,0.39503012819801203,-0.2045757429805696,0.08371983140120592,0.0795451890361735,0.0808020019173171,0.04927589468034677,0.15992603440027342,-0.09542425701943037
344,0.12474303846986469,0.035483841803817244,0.2914740400929892,0.39503012819801203,-0.2045757429805696,0.08371983140120592,0.0795451890361735,0.0808020019173171,0.04927589468034677,0.15992603440027342,-0.09542425701943037
345,0.12474303846986469,0.035483841803817244,0.2914740400929892,0.39503012819801203,-0.2045757429805696,0.08371983140120592,0.0795451890361735,0.0808020019173171,0.04927589468034677,0.15992603440027342,-0.09542425701943037
346,0.12474303846986469,0.035483841803817244,0.2914740400929892,0.39503012819801203,-0.2045757429805696,0.08371983140120592,0.0795451890361735,0.0808020019173171,0.04927589468034677,0.15992603440027342,-0.09542425701943037
347,0.12474303846986469,0.035483841803817244,0.2914740400929892,0.39503012819801203,-0.2045757429805696,0.08371983140120592,0.0795451890361735,0.0808020019173171,0.04927589468034677,0.15992603440027342,-0.09542425701943037
348,0.12474303846986469,0.035483841803817244,0.2914740400929892,0.39503012819801203,-0.2045757429805696,0.08371983140120592,0.0795451890361735,0.0808020019173171,0.04927589468034677,0.15992603440027342,-0.09542425701943037
349,0.12474303846986469,0.035483841803817244,0.2914740400929892,0.39503012819801203,-0.2045757429805696,0.08371983140120592,0.0795451890361735,0.0808020019173171,0.04927589468034677,0.15992603440027342,-0.09542425701943037
350,0.12474303846986469,0.035483841803817244,0.2914740400929892,0.39503012819801203,-0.2045757429805696,0.08371983140120592,0.0795451890361735,0.0808020019173171,0.04927589468034677,0.15992603440027342,-0.09542425701943037
351,0.12474303846986469,0.035483841803817244,0.2914740400929892,0.39503012819801203,-0.2045757429805696,0.08371983140120592,0.0795451890361735,0.0808020019173171,0.04927589468034677,0.15992603440027342,-0.09542425701943037
352,0.12474303846986469,0.035483841803817244,0.2914740400929892,0.39503012819801203,-0.2045757429805696,0.08371983140120592,0.0795451890361735,0.0808020019173171,0.04927589468034677,0.15992603440027342,-0.09542425701943037
353,0.12474303846986469,0.035483841803817244,0.2914740400929892,0.39503012819801203,-0.2045757429805696,0.08371983140120592,0.0795451890361735,0.0808020019173171,0.04927589468034677,0.15992603440027342,-0.09542425701943037
354,0.12474303846986469,0.035483841803817244,0.2914740400929892,0.39503012819801203,-0.2045757429805696,0.08371983140120592,0.0795451890361735,0.0808020019173171,0.04927589468034677,0.15992603440027342,-0.09542425701943037
355,0.12474303846986469,0.035483841803817244,0.2914740400929892,0.39503012819801203,-0.2045757429805696,0.08371983140120592,0.0795451890361735,0.0808020019173171,0.04927589468034677,0.15992603440027342,-0.09542425701943037
356,0.12474303846986469,0.035483841803817244,0.2914740400929892,0.39503012819801203,-0.2045757429805696,0.08371983140120592,0.0795451890361735,0.0808020019173171,0.04927589468034677,0.15992603440027342,-0.09542425701943037
357,0.12474303846986469,0.035483841803817244,0.2914740400929892,0.39503012819801203,-0.2045757429805696,0.08371983140120592,0.0795451890361735,0.0808020019173171,0.04927589468034677,0.15992603440027342,-0.09542425701943037
358,0.12474303846986469,0.035483841803817244,0.2914740400929892,0.39503012819801203,-0.2045757429805696,0.08371983140120592,0.0795451890361735,0.0808020019173171,0.04927589468034677,0.15992603440027342,-0.09542425701943037
359,0.12474303846986469,0.035483841803817244,0.2914740400929892,0.39503012819801203,-0.2045757429805696,0.08371983140120592,0.0795451890361735,0.0808020019173171,0.04927589468034677,0.15992603440027342,-0.09542425701943037
360,0.12474303846986469,0.035483841803817244,0.2914740400929892,0.39503012819801203,-0.2045757429805696,0.08371983140120592,0.0795451890361735,0.0808020019173171,0.04927589468034677,0.15992603440027342,-0.09542425701943037
361,0.12474303846986469,0.035483841803817244,0.2914740400929892,0.39503012819801203,-0.2045757429805696,0.08371983140120592,0.0795451890361735,0.0808020019173171,0.04927589468034677,0.15992603440027342,-0.09542425701943037
362,0.12474303846986469,0.035483841803817244,0.2914740400929892,0.39503012819801203,-0.2045757429805696,0.08371983140120592,0.0795451890361735,0.0808020019173171,0.04927589468034677,0.15992603440027342,-0.09542425701943037
363,0.12474303846986469,0.035483841803817244,0.2914740400929892,0.39503012819801203,-0.2045757429805696,0.08371983140120592,0.0795451890361735,0.0808020019173171,0.04927589468034677,0.15992603440027342,-0.09542425701943037
364,0.12474303846986469,0.035483841803817244,0.2914740400929892,0.39503012819801203,-0.2045757429805696,0.08371983140120592,0.0795451890361735,0.0808020019173171,0.04927589468034677,0.15992603440027342,-0.09542425701943037
365,0.06355936337464392,0.023067104491074415,0.09725017621588893,0.036358770377409685,-0.01722442452444151,-0.0458648062925109,0.13305022680529843,0.6095207366063601,0.05196648649053808,0.021314173080145153,0.027002193375593717
366,0.06355936337464392,0.023067104491074415,0.09725017621588893,0.036358770377409685,-0.01722442452444151,-0.0458648062925109,0.13305022680529843,0.6095207366063601,0.05196648649053808,0.021314173080145153,0.027002193375593717
367,0.06355936337464392,0.023067104491074415,0.09725017621588893,0.036358770377409685,-0.01722442452444151,-0.0458648062925109,0.13305022680529843,0.6095207366063601,0.05196648649053808,0.021314173080145153,0.027002193375593717
368,0.06355936337464392,0.023067104491074415,0.09725017621588893,0.036358770377409685,-0.01722442452444151,-0.0458648062925109,0.13305022680529843,0.6095207366063601,0.05196648649053808,0.021314173080145153,0.027002193375593717
369,0.06355936337464392,0.023067104491074415,0.09725017621588893,0.036358770377409685,-0.01722442452444151,-0.0458648062925109,0.13305022680529843,0.6095207366063601,0.05196648649053808,0.021314173080145153,0.027002193375593717
370,0.06355936337464392,0.023067104491074415,0.09725017621588893,0.036358770377409685,-0.01722442452444151,-0.0458648062925109,0.13305022680529843,0.6095207366063601,0.05196648649053808,0.021314173080145153,0.027002193375593717
371,0.06355936337464392,0.023067104491074415,0.09725017621588893,0.036358770377409685,-0.01722442452444151,-0.0458648062925109,0.13305022680529843,0.6095207366063601,0.05196648649053808,0.021314173080145153,0.027002193375593717
372,0.06355936337464392,0.023067104491074415,0.09725017621588893,0.036358770377409685,-0.01722442452444151,-0.0458648062925109,0.13305022680529843,0.6095207366063601,0.05196648649053808,0.021314173080145153,0.027002193375593717
373,0.06355936337464392,0.023067104491074415,0.09725017621588893,0.036358770377409685,-0.01722442452444151,-0.0458648062925109,0.13305022680529843,0.6095207366063601,0.05196648649053808,0.021314173080145153,0.027002193375593717
374,0.06355936337464392,0.023067104491074415,0.09725017621588893,0.036358770377409685,-0.01722442452444151,-0.0458648062925109,0.13305022680529843,0.6095207366063601,0.05196648649053808,0.021314173080145153,0.027002193375593717
375,0.06355936337464392,0.023067104491074415,0.09725017621588893,0.036358770377409685,-0.01722442452444151,-0.0458648062925109,0.13305022680529843,0.6095207366063601,0.05196648649053808,0.021314173080145153,0.027002193375593717
376,0.06355936337464392,0.023067104491074415,0.09725017621588893,0.036358770377409685,-0.01722442452444151,-0.0458648062925109,0.13305022680529843,0.6095207366063601,0.05196648649053808,0.021314173080145153,0.027002193375593717
377,0.06355936337464392,0.023067104491074415,0.09725017621588893,0.036358770377409685,-0.01722442452444151,-0.0458648062925109,0.13305022680529843,0.6095207366063601,0.05196648649053808,0.021314173080145153,0.027002193375593717
378,0.06355936337464392,0.023067104491074415,0.09725017621588893,0.036358770377409685,-0.01722442452444151,-0.0458648062925109,0.13305022680529843,0.6095207366063601,0.05196648649053808,0.021314173080145153,0.027002193375593717
379,0.06355936337464392,0.023067104491074415,0.09725017621588893,0.036358770377409685,-0.01722442452444151,-0.0458648062925109,0.13305022680529843,0.6095207366063601,0.05196648649053808,0.021314173080145153,0.027002193375593717
380,0.06355936337464392,0.023067104491074415,0.09725017621588893,0.036358770377409685,-0.01722442452444151,-0.0458648062925109,0.13305022680529843,0.6095207366063601,0.05196648649053808,0.021314173080145153,0.027002193375593717
381,0.06355936337464392,0.023067104491074415,0.09725017621588893,0.036358770377409685,-0.01722442452444151,-0.0458648062925109,0.13305022680529843,0.6095207366063601,0.05196648649053808,0.021314173080145153,0.027002193375593717
382,0.06355936337464392,0.023067104491074415,0.09725017621588893,0.036358770377409685,-0.01722442452444151,-0.0458648062925109,0.13305022680529843,0.6095207366063601,0.05196648649053808,0.021314173080145153,0.027002193375593717
383,0.06355936337464392,0.023067104491074415,0.09725017621588893,0.036358770377409685,-0.01722442452444151,-0.0458648062925109,0.13305022680529843,0.6095207366063601,0.05196648649053808,0.021314173080145153,0.027002193375593717
384,0.06355936337464392,0.023067104491074415,0.09725017621588893,0.036358770377409685,-0.01722442452444151,-0.0458648062925109,0.13305022680529843,0.6095207366063601,0.05196648649053808,0.021314173080145153,0.027002193375593717
385,0.06355936337464392,0.023067104491074415,0.09725017621588893,0.036358770377409685,-0.01722442452444151,-0.0458648062925109,0.13305022680529843,0.6095207366063601,0.05196648649053808,0.021314173080145153,0.027002193375593717
386,0.06355936337464392,0.023067104491074415,0.09725017621588893,0.036358770377409685,-0.01722442452444151,-0.0458648062925109,0.13305022680529843,0.6095207366063601,0.05196648649053808,0.021314173080145153,0.027002193375593717
387,0.06355936337464392,0.023067104491074415,0.09725017621588893,0.036358770377409685,-0.01722442452444151,-0.0458648062925109,0.13305022680529843,0.6095207366063601,0.05196648649053808,0.021314173080145153,0.027002193375593717
388,0.06355936337464392,0.023067104491074415,0.09725017621588893,0.036358770377409685,-0.01722442452444151,-0.0458648062925109,0.13305022680529843,0.6095207366063601,0.05196648649053808,0.021314173080145153,0.027002193375593717
389,0.06355936337464392,0.023067104491074415,0.09725017621588893,0.036358770377409685,-0.01722442452444151,-0.0458648062925109,0.13305022680529843,0.6095207366063601,0.05196648649053808,0.021314173080145153,0.027002193375593717
390,0.06355936337464392,0.023067104491074415,0.09725017621588893,0.036358770377409685,-0.01722442452444151,-0.0458648062925109,0.13305022680529843,0.6095207366063601,0.05196648649053808,0.021314173080145153,0.027002193375593717
391,0.06355936337464392,0.023067104491074415,0.09725017621588893,0.036358770377409685,-0.01722442452444151,-0.0458648062925109,0.13305022680529843,0.6095207366063601,0.05196648649053808,0.021314173080145153,0.027002193375593717
392,0.06355936337464392,0.023067104491074415,0.09725017621588893,0.036358770377409685,-0.01722442452444151,-0.0458648062925109,0.13305022680529843,0.6095207366063601,0.05196648649053808,0.021314173080145153,0.027002193375593717
393,0.06355936337464392,0.023067104491074415,0.09725017621588893,0.036358770377409685,-0.01722442452444151,-0.0458648062925109,0.13305022680529843,0.6095207366063601,0.05196648649053808,0.021314173080145153,0.027002193375593717
394,0.06355936337464392,0.023067104491074415,0.09725017621588893,0.036358770377409685,-0.01722442452444151,-0.0458648062925109,0.13305022680529843,0.6095207366063601,0.05196648649053808,0.021314173080145153,0.027002193375593717
395,0.06355936337464392,0.023067104491074415,0.09725017621588893,0.036358770377409685,-0.01722442452444151,-0.0458648062925109,0.13305022680529843,0.6095207366063601,0.05196648649053808,0.021314173080145153,0.027002193375593717
396,0.012092412818071965,0.01503622904141625,0.02317581024980741,0.06479053699289171,0.014062192383326162,0.016896243803064332,0.01474821217322943,0.011441738141772097,0.016814873219751624,0.053544674272221746,0.7573970769044472
397,0.012092412818071965,0.01503622904141625,0.02317581024980741,0.06479053699289171,0.014062192383326162,0.016896243803064332,0.01474821217322943,0.011441738141772097,0.016814873219751624,0.053544674272221746,0.7573970769044472
398,0.012092412818071965,0.01503622904141625,0.02317581024980741,0.06479053699289171,0.014062192383326162,0.016896243803064332,0.01474821217322943,0.011441738141772097,0.016814873219751624,0.053544674272221746,0.7573970769044472
399,0.012092412818071965,0.01503622904141625,0.02317581024980741,0.06479053699289171,0.014062192383326162,0.016896243803064332,0.01474821217322943,0.011441738141772097,0.016814873219751624,0.053544674272221746,0.7573970769044472
400,0.012092412818071965,0.01503622904141625,0.02317581024980741,0.06479053699289171,0.014062192383326162,0.016896243803064332,0.01474821217322943,0.011441738141772097,0.016814873219751624,0.053544674272221746,0.7573970769044472
401,0.012092412818071965,0.01503622904141625,0.02317581024980741,0.06479053699289171,0.014062192383326162,0.016896243803064332,0.01474821217322943,0.011441738141772097,0.016814873219751624,0.053544674272221746,0.7573970769044472
402,0.012092412818071965,0.01503622904141625,0.02317581024980741,0.06479053699289171,0.014062192383326162,0.016896243803064332,0.01474821217322943,0.011441738141772097,0.016814873219751624,0.053544674272221746,0.7573970769044472
403,0.012092412818071965,0.01503622904141625,0.02317581024980741,0.06479053699289171,0.014062192383326162,0.016896243803064332,0.01474821217322943,0.011441738141772097,0.016814873219751624,0.053544674272221746,0.7573970769044472
404,0.012092412818071965,0.01503622904141625,0.02317581024980741,0.06479053699289171,0.014062192383326162,0.016896243803064332,0.01474821217322943,0.011441738141772097,0.016814873219751624,0.053544674272221746,0.7573970769044472
405,0.012092412818071965,0.01503622904141625,0.02317581024980741,0.06479053699289171,0.014062192383326162,0.016896243803064332,0.01474821217322943,0.011441738141772097,0.016814873219751624,0.053544674272221746,0.7573970769044472
406,0.012092412818071965,0.01503622904141625,0.02317581024980741,0.06479053699289171,0.014062192383326162,0.016896243803064332,0.01474821217322943,0.011441738141772097,0.016814873219751624,0.053544674272221746,0.7573970769044472
407,0.012092412818071965,0.01503622904141625,0.02317581024980741,0.06479053699289171,0.014062192383326162,0.016896243803064332,0.01474821217322943,0.011441738141772097,0.016814873219751624,0.053544674272221746,0.7573970769044472
408,0.012092412818071965,0.01503622904141625,0.02317581024980741,0.06479053699289171,0.014062192383326162,0.016896243803064332,0.01474821217322943,0.011441738141772097,0.016814873219751624,0.053544674272221746,0.7573970769044472
409,0.012092412818071965,0.01503622904141625,0.02317581024980741,0.06479053699289171,0.014062192383326162,0.016896243803064332,0.01474821217322943,0.011441738141772097,0.016814873219751624,0.053544674272221746,0.7573970769044472
410,0.012092412818071965,0.01503622904141625,0.02317581024980741,0.06479053699289171,0.014062192383326162,0.016896243803064332,0.01474821217322943,0.011441738141772097,0.016814873219751624,0.053544674272221746,0.7573970769044472
411,0.012092412818071965,0.01503622904141625,0.02317581024980741,0.06479053699289171,0.014062192383326162,0.016896243803064332,0.01474821217322943,0.011441738141772097,0.016814873219751624,0.053544674272221746,0.7573970769044472
412,0.012092412818071965,0.01503622904141625,0.02317581024980741,0.06479053699289171,0.014062192383326162,0.016896243803064332,0.01474821217322943,0.011441738141772097,0.016814873219751624,0.053544674272221746,0.7573970769044472
413,0.012092412818071965,0.01503622904141625,0.02317581024980741,0.06479053699289171,0.014062192383326162,0.016896243803064332,0.01474821217322943,0.011441738141772097,0.016814873219751624,0.053544674272221746,0.7573970769044472
414,0.012092412818071965,0.01503622904141625,0.02317581024980741,0.06479053699289171,0.014062192383326162,0.016896243803064332,0.01474821217322943,0.011441738141772097,0.016814873219751624,0.053544674272221746,0.7573970769044472
415,0.012092412818071965,0.01503622904141625,0.02317581024980741,0.06479053699289171,0.014062192383326162,0.016896243803064332,0.01474821217322943,0.011441738141772097,0.016814873219751624,0.053544674272221746,0.7573970769044472
416,0.012092412818071965,0.01503622904141625,0.02317581024980741,0.06479053699289171,0.014062192383326162,0.016896243803064332,0.01474821217322943,0.011441738141772097,0.016814873219751624,0.053544674272221746,0.7573970769044472
417,0.012092412818071965,0.01503622904141625,0.02317581024980741,0.06479053699289171,0.014062192383326162,0.016896243803064332,0.01474821217322943,0.011441738141772097,0.016814873219751624,0.053544674272221746,0.7573970769044472
418,0.012092412818071965,0.01503622904141625,0.02317581024980741,0.06479053699289171,0.014062192383326162,0.016896243803064332,0.01474821217322943,0.011441738141772097,0.016814873219751624,0.053544674272221746,0.7573970769044472
419,0.012092412818071965,0.01503622904141625,0.02317581024980741,0.06479053699289171,0.014062192383326162,0.016896243803064332,0.01474821217322943,0.011441738141772097,0.016814873219751624,0.053544674272221746,0.7573970769044472
420,0.012092412818071965,0.01503622904141625,0.02317581024980741,0.06479053699289171,0.014062192383326162,0.016896243803064332,0.01474821217322943,0.011441738141772097,0.016814873219751624,0.053544674272221746,0.7573970769044472
421,0.012092412818071965,0.01503622904141625,0.02317581024980741,0.06479053699289171,0.014062192383326162,0.016896243803064332,0.01474821217322943,0.011441738141772097,0.016814873219751624,0.053544674272221746,0.7573970769044472
422,0.012092412818071965,0.01503622904141625,0.02317581024980741,0.06479053699289171,0.014062192383326162,0.016896243803064332,0.01474821217322943,0.011441738141772097,0.016814873219751624,0.053544674272221746,0.7573970769044472
423,0.012092412818071965,0.01503622904141625,0.02317581024980741,0.06479053699289171,0.014062192383326162,0.016896243803064332,0.01474821217322943,0.011441738141772097,0.016814873219751624,0.053544674272221746,0.7573970769044472
424,0.049559216560247775,0.06768710705116211,0.08695680723234091,-0.0811492077631031,0.5560400289533806,0.22285380119110235,-0.15678699917743175,0.07068541207372449,-0.06206379305946517,0.17725609382712923,0.06896153311091262
425,0.049559216560247775,0.06768710705116211,0.08695680723234091,-0.0811492077631031,0.5560400289533806,0.22285380119110235,-0.15678699917743175,0.07068541207372449,-0.06206379305946517,0.17725609382712923,0.06896153311091262
426,0.049559216560247775,0.06768710705116211,0.08695680723234091,-0.0811492077631031,0.5560400289533806,0.22285380119110235,-0.15678699917743175,0.07068541207372449,-0.06206379305946517,0.17725609382712923,0.06896153311091262
427,0.049559216560247775,0.06768710705116211,0.08695680723234091,-0.0811492077631031,0.5560400289533806,0.22285380119110235,-0.15678699917743175,0.07068541207372449,-0.06206379305946517,0.17725609382712923,0.06896153311091262
428,0.049559216560247775,0.06768710705116211,0.08695680723234091,-0.0811492077631031,0.5560400289533806,0.22285380119110235,-0.15678699917743175,0.07068541207372449,-0.06206379305946517,0.17725609382712923,0.06896153311091262
429,0.049559216560247775,0.06768710705116211,0.08695680723234091,-0.0811492077631031,0.5560400289533806,0.22285380119110235,-0.15678699917743175,0.07068541207372449,-0.06206379305946517,0.17725609382712923,0.06896153311091262
430,0.049559216560247775,0.06768710705116211,0.08695680723234091,-0.0811492077631031,0.5560400289533806,0.22285380119110235,-0.15678699917743175,0.07068541207372449,-0.06206379305946517,0.17725609382712923,0.06896153311091262
431,0.049559216560247775,0.06768710705116211,0.08695680723234091,-0.0811492077631031,0.5560400289533806,0.22285380119110235,-0.15678699917743175,0.07068541207372449,-0.06206379305946517,0.17725609382712923,0.06896153311091262
432,0.049559216560247775,0.06768710705116211,0.08695680723234091,-0.0811492077631031,0.5560400289533806,0.22285380119110235,-0.15678699917743175,0.07068541207372449,-0.06206379305946517,0.17725609382712923,0.06896153311091262
433,0.049559216560247775,0.06768710705116211,0.08695680723234091,-0.0811492077631031,0.5560400289533806,0.22285380119110235,-0.15678699917743175,0.07068541207372449,-0.06206379305946517,0.17725609382712923,0.06896153311091262
434,0.049559216560247775,0.06768710705116211,0.08695680723234091,-0.0811492077631031,0.5560400289533806,0.22285380119110235,-0.15678699917743175,0.07068541207372449,-0.06206379305946517,0.17725609382712923,0.06896153311091262
435,0.049559216560247775,0.06768710705116211,0.08695680723234091,-0.0811492077631031,0.5560400289533806,0.22285380119110235,-0.15678699917743175,0.07068541207372449,-0.06206379305946517,0.17725609382712923,0.06896153311091262
436,0.049559216560247775,0.06768710705116211,0.08695680723234091,-0.0811492077631031,0.5560400289533806,0.22285380119110235,-0.15678699917743175,0.07068541207372449,-0.06206379305946517,0.17725609382712923,0.06896153311091262
437,0.049559216560247775,0.06768710705116211,0.08695680723234091,-0.0811492077631031,0.5560400289533806,0.22285380119110235,-0.15678699917743175,0.07068541207372449,-0.06206379305946517,0.17725609382712923,0.06896153311091262
438,0.049559216560247775,0.06768710705116211,0.08695680723234091,-0.0811492077631031,0.5560400289533806,0.22285380119110235,-0.15678699917743175,0.07068541207372449,-0.06206379305946517,0.17725609382712923,0.06896153311091262
