,0,1,2,3,4,5,6,7,8,9,10
0,0.09745137411004083,0.19022478234319148,-0.07899169683109238,0.10752838637208399,-0.08558180200981771,0.6312687165402147,-0.052253788876998476,0.030580553668761484,-0.0831727122820914,0.07011077335612585,0.17283541360958166
1,0.09745137411004083,0.19022478234319148,-0.07899169683109238,0.10752838637208399,-0.08558180200981771,0.6312687165402147,-0.052253788876998476,0.030580553668761484,-0.0831727122820914,0.07011077335612585,0.17283541360958166
2,0.09745137411004083,0.19022478234319148,-0.07899169683109238,0.10752838637208399,-0.08558180200981771,0.6312687165402147,-0.052253788876998476,0.030580553668761484,-0.0831727122820914,0.07011077335612585,0.17283541360958166
3,0.09745137411004083,0.19022478234319148,-0.07899169683109238,0.10752838637208399,-0.08558180200981771,0.6312687165402147,-0.052253788876998476,0.030580553668761484,-0.0831727122820914,0.07011077335612585,0.17283541360958166
4,0.09745137411004083,0.19022478234319148,-0.07899169683109238,0.10752838637208399,-0.08558180200981771,0.6312687165402147,-0.052253788876998476,0.030580553668761484,-0.0831727122820914,0.07011077335612585,0.17283541360958166
5,0.09745137411004083,0.19022478234319148,-0.07899169683109238,0.10752838637208399,-0.08558180200981771,0.6312687165402147,-0.052253788876998476,0.030580553668761484,-0.0831727122820914,0.07011077335612585,0.17283541360958166
6,0.09745137411004083,0.19022478234319148,-0.07899169683109238,0.10752838637208399,-0.08558180200981771,0.6312687165402147,-0.052253788876998476,0.030580553668761484,-0.0831727122820914,0.07011077335612585,0.17283541360958166
7,0.09745137411004083,0.19022478234319148,-0.07899169683109238,0.10752838637208399,-0.08558180200981771,0.6312687165402147,-0.052253788876998476,0.030580553668761484,-0.0831727122820914,0.07011077335612585,0.17283541360958166
8,0.09745137411004083,0.19022478234319148,-0.07899169683109238,0.10752838637208399,-0.08558180200981771,0.6312687165402147,-0.052253788876998476,0.030580553668761484,-0.0831727122820914,0.07011077335612585,0.17283541360958166
9,0.09745137411004083,0.19022478234319148,-0.07899169683109238,0.10752838637208399,-0.08558180200981771,0.6312687165402147,-0.052253788876998476,0.030580553668761484,-0.0831727122820914,0.07011077335612585,0.17283541360958166
10,0.09745137411004083,0.19022478234319148,-0.07899169683109238,0.10752838637208399,-0.08558180200981771,0.6312687165402147,-0.052253788876998476,0.030580553668761484,-0.0831727122820914,0.07011077335612585,0.17283541360958166
11,0.09745137411004083,0.19022478234319148,-0.07899169683109238,0.10752838637208399,-0.08558180200981771,0.6312687165402147,-0.052253788876998476,0.030580553668761484,-0.0831727122820914,0.07011077335612585,0.17283541360958166
12,0.09745137411004083,0.19022478234319148,-0.07899169683109238,0.10752838637208399,-0.08558180200981771,0.6312687165402147,-0.052253788876998476,0.030580553668761484,-0.0831727122820914,0.07011077335612585,0.17283541360958166
13,0.09745137411004083,0.19022478234319148,-0.07899169683109238,0.10752838637208399,-0.08558180200981771,0.6312687165402147,-0.052253788876998476,0.030580553668761484,-0.0831727122820914,0.07011077335612585,0.17283541360958166
14,0.09745137411004083,0.19022478234319148,-0.07899169683109238,0.10752838637208399,-0.08558180200981771,0.6312687165402147,-0.052253788876998476,0.030580553668761484,-0.0831727122820914,0.07011077335612585,0.17283541360958166
15,0.09745137411004083,0.19022478234319148,-0.07899169683109238,0.10752838637208399,-0.08558180200981771,0.6312687165402147,-0.052253788876998476,0.030580553668761484,-0.0831727122820914,0.07011077335612585,0.17283541360958166
16,0.09745137411004083,0.19022478234319148,-0.07899169683109238,0.10752838637208399,-0.08558180200981771,0.6312687165402147,-0.052253788876998476,0.030580553668761484,-0.0831727122820914,0.07011077335612585,0.17283541360958166
17,0.09745137411004083,0.19022478234319148,-0.07899169683109238,0.10752838637208399,-0.08558180200981771,0.6312687165402147,-0.052253788876998476,0.030580553668761484,-0.0831727122820914,0.07011077335612585,0.17283541360958166
18,0.09745137411004083,0.19022478234319148,-0.07899169683109238,0.10752838637208399,-0.08558180200981771,0.6312687165402147,-0.052253788876998476,0.030580553668761484,-0.0831727122820914,0.07011077335612585,0.17283541360958166
19,0.09745137411004083,0.19022478234319148,-0.07899169683109238,0.10752838637208399,-0.08558180200981771,0.6312687165402147,-0.052253788876998476,0.030580553668761484,-0.0831727122820914,0.07011077335612585,0.17283541360958166
20,0.09745137411004083,0.19022478234319148,-0.07899169683109238,0.10752838637208399,-0.08558180200981771,0.6312687165402147,-0.052253788876998476,0.030580553668761484,-0.0831727122820914,0.07011077335612585,0.17283541360958166
21,0.09745137411004083,0.19022478234319148,-0.07899169683109238,0.10752838637208399,-0.08558180200981771,0.6312687165402147,-0.052253788876998476,0.030580553668761484,-0.0831727122820914,0.07011077335612585,0.17283541360958166
22,0.09745137411004083,0.19022478234319148,-0.07899169683109238,0.10752838637208399,-0.08558180200981771,0.6312687165402147,-0.052253788876998476,0.030580553668761484,-0.0831727122820914,0.07011077335612585,0.17283541360958166
23,0.09745137411004083,0.19022478234319148,-0.07899169683109238,0.10752838637208399,-0.08558180200981771,0.6312687165402147,-0.052253788876998476,0.030580553668761484,-0.0831727122820914,0.07011077335612585,0.17283541360958166
24,0.09745137411004083,0.19022478234319148,-0.07899169683109238,0.10752838637208399,-0.08558180200981771,0.6312687165402147,-0.052253788876998476,0.030580553668761484,-0.0831727122820914,0.07011077335612585,0.17283541360958166
25,0.09745137411004083,0.19022478234319148,-0.07899169683109238,0.10752838637208399,-0.08558180200981771,0.6312687165402147,-0.052253788876998476,0.030580553668761484,-0.0831727122820914,0.07011077335612585,0.17283541360958166
26,0.09745137411004083,0.19022478234319148,-0.07899169683109238,0.10752838637208399,-0.08558180200981771,0.6312687165402147,-0.052253788876998476,0.030580553668761484,-0.0831727122820914,0.07011077335612585,0.17283541360958166
27,0.09745137411004083,0.19022478234319148,-0.07899169683109238,0.10752838637208399,-0.08558180200981771,0.6312687165402147,-0.052253788876998476,0.030580553668761484,-0.0831727122820914,0.07011077335612585,0.17283541360958166
28,0.09745137411004083,0.19022478234319148,-0.07899169683109238,0.10752838637208399,-0.08558180200981771,0.6312687165402147,-0.052253788876998476,0.030580553668761484,-0.0831727122820914,0.07011077335612585,0.17283541360958166
29,0.09745137411004083,0.19022478234319148,-0.07899169683109238,0.10752838637208399,-0.08558180200981771,0.6312687165402147,-0.052253788876998476,0.030580553668761484,-0.0831727122820914,0.07011077335612585,0.17283541360958166
30,0.09745137411004083,0.19022478234319148,-0.07899169683109238,0.10752838637208399,-0.08558180200981771,0.6312687165402147,-0.052253788876998476,0.030580553668761484,-0.0831727122820914,0.07011077335612585,0.17283541360958166
31,0.051509164688191354,0.048617290865587234,-0.29999999999999993,0.7137567254752238,0.12862329305875297,0.08322932515053402,0.08369649996879691,0.06648265905317698,0.05295449269000569,0.042480586825299795,0.02864996222443122
32,0.051509164688191354,0.048617290865587234,-0.29999999999999993,0.7137567254752238,0.12862329305875297,0.08322932515053402,0.08369649996879691,0.06648265905317698,0.05295449269000569,0.042480586825299795,0.02864996222443122
33,0.051509164688191354,0.048617290865587234,-0.29999999999999993,0.7137567254752238,0.12862329305875297,0.08322932515053402,0.08369649996879691,0.06648265905317698,0.05295449269000569,0.042480586825299795,0.02864996222443122
34,0.051509164688191354,0.048617290865587234,-0.29999999999999993,0.7137567254752238,0.12862329305875297,0.08322932515053402,0.08369649996879691,0.06648265905317698,0.05295449269000569,0.042480586825299795,0.02864996222443122
35,0.051509164688191354,0.048617290865587234,-0.29999999999999993,0.7137567254752238,0.12862329305875297,0.08322932515053402,0.08369649996879691,0.06648265905317698,0.05295449269000569,0.042480586825299795,0.02864996222443122
36,0.051509164688191354,0.048617290865587234,-0.29999999999999993,0.7137567254752238,0.12862329305875297,0.08322932515053402,0.08369649996879691,0.06648265905317698,0.05295449269000569,0.042480586825299795,0.02864996222443122
37,0.051509164688191354,0.048617290865587234,-0.29999999999999993,0.7137567254752238,0.12862329305875297,0.08322932515053402,0.08369649996879691,0.06648265905317698,0.05295449269000569,0.042480586825299795,0.02864996222443122
38,0.051509164688191354,0.048617290865587234,-0.29999999999999993,0.7137567254752238,0.12862329305875297,0.08322932515053402,0.08369649996879691,0.06648265905317698,0.05295449269000569,0.042480586825299795,0.02864996222443122
39,0.051509164688191354,0.048617290865587234,-0.29999999999999993,0.7137567254752238,0.12862329305875297,0.08322932515053402,0.08369649996879691,0.06648265905317698,0.05295449269000569,0.042480586825299795,0.02864996222443122
40,0.051509164688191354,0.048617290865587234,-0.29999999999999993,0.7137567254752238,0.12862329305875297,0.08322932515053402,0.08369649996879691,0.06648265905317698,0.05295449269000569,0.042480586825299795,0.02864996222443122
41,0.051509164688191354,0.048617290865587234,-0.29999999999999993,0.7137567254752238,0.12862329305875297,0.08322932515053402,0.08369649996879691,0.06648265905317698,0.05295449269000569,0.042480586825299795,0.02864996222443122
42,0.051509164688191354,0.048617290865587234,-0.29999999999999993,0.7137567254752238,0.12862329305875297,0.08322932515053402,0.08369649996879691,0.06648265905317698,0.05295449269000569,0.042480586825299795,0.02864996222443122
43,0.051509164688191354,0.048617290865587234,-0.29999999999999993,0.7137567254752238,0.12862329305875297,0.08322932515053402,0.08369649996879691,0.06648265905317698,0.05295449269000569,0.042480586825299795,0.02864996222443122
44,0.051509164688191354,0.048617290865587234,-0.29999999999999993,0.7137567254752238,0.12862329305875297,0.08322932515053402,0.08369649996879691,0.06648265905317698,0.05295449269000569,0.042480586825299795,0.02864996222443122
45,0.051509164688191354,0.048617290865587234,-0.29999999999999993,0.7137567254752238,0.12862329305875297,0.08322932515053402,0.08369649996879691,0.06648265905317698,0.05295449269000569,0.042480586825299795,0.02864996222443122
46,0.051509164688191354,0.048617290865587234,-0.29999999999999993,0.7137567254752238,0.12862329305875297,0.08322932515053402,0.08369649996879691,0.06648265905317698,0.05295449269000569,0.042480586825299795,0.02864996222443122
47,0.051509164688191354,0.048617290865587234,-0.29999999999999993,0.7137567254752238,0.12862329305875297,0.08322932515053402,0.08369649996879691,0.06648265905317698,0.05295449269000569,0.042480586825299795,0.02864996222443122
48,0.051509164688191354,0.048617290865587234,-0.29999999999999993,0.7137567254752238,0.12862329305875297,0.08322932515053402,0.08369649996879691,0.06648265905317698,0.05295449269000569,0.042480586825299795,0.02864996222443122
49,0.051509164688191354,0.048617290865587234,-0.29999999999999993,0.7137567254752238,0.12862329305875297,0.08322932515053402,0.08369649996879691,0.06648265905317698,0.05295449269000569,0.042480586825299795,0.02864996222443122
50,0.051509164688191354,0.048617290865587234,-0.29999999999999993,0.7137567254752238,0.12862329305875297,0.08322932515053402,0.08369649996879691,0.06648265905317698,0.05295449269000569,0.042480586825299795,0.02864996222443122
51,0.051509164688191354,0.048617290865587234,-0.29999999999999993,0.7137567254752238,0.12862329305875297,0.08322932515053402,0.08369649996879691,0.06648265905317698,0.05295449269000569,0.042480586825299795,0.02864996222443122
52,0.051509164688191354,0.048617290865587234,-0.29999999999999993,0.7137567254752238,0.12862329305875297,0.08322932515053402,0.08369649996879691,0.06648265905317698,0.05295449269000569,0.042480586825299795,0.02864996222443122
53,0.051509164688191354,0.048617290865587234,-0.29999999999999993,0.7137567254752238,0.12862329305875297,0.08322932515053402,0.08369649996879691,0.06648265905317698,0.05295449269000569,0.042480586825299795,0.02864996222443122
54,0.051509164688191354,0.048617290865587234,-0.29999999999999993,0.7137567254752238,0.12862329305875297,0.08322932515053402,0.08369649996879691,0.06648265905317698,0.05295449269000569,0.042480586825299795,0.02864996222443122
55,0.051509164688191354,0.048617290865587234,-0.29999999999999993,0.7137567254752238,0.12862329305875297,0.08322932515053402,0.08369649996879691,0.06648265905317698,0.05295449269000569,0.042480586825299795,0.02864996222443122
56,0.051509164688191354,0.048617290865587234,-0.29999999999999993,0.7137567254752238,0.12862329305875297,0.08322932515053402,0.08369649996879691,0.06648265905317698,0.05295449269000569,0.042480586825299795,0.02864996222443122
57,0.051509164688191354,0.048617290865587234,-0.29999999999999993,0.7137567254752238,0.12862329305875297,0.08322932515053402,0.08369649996879691,0.06648265905317698,0.05295449269000569,0.042480586825299795,0.02864996222443122
58,0.051509164688191354,0.048617290865587234,-0.29999999999999993,0.7137567254752238,0.12862329305875297,0.08322932515053402,0.08369649996879691,0.06648265905317698,0.05295449269000569,0.042480586825299795,0.02864996222443122
59,-0.028489239139494152,0.04540564438221654,1.1744921664134926,-0.011725511025516987,-0.018668320398347333,-0.018348978502313325,-0.0561614448374944,-0.017802077708872703,-0.14880442838796096,0.04772614025147999,0.032376048952810814
60,-0.028489239139494152,0.04540564438221654,1.1744921664134926,-0.011725511025516987,-0.018668320398347333,-0.018348978502313325,-0.0561614448374944,-0.017802077708872703,-0.14880442838796096,0.04772614025147999,0.032376048952810814
61,-0.028489239139494152,0.04540564438221654,1.1744921664134926,-0.011725511025516987,-0.018668320398347333,-0.018348978502313325,-0.0561614448374944,-0.017802077708872703,-0.14880442838796096,0.04772614025147999,0.032376048952810814
62,-0.028489239139494152,0.04540564438221654,1.1744921664134926,-0.011725511025516987,-0.018668320398347333,-0.018348978502313325,-0.0561614448374944,-0.017802077708872703,-0.14880442838796096,0.04772614025147999,0.032376048952810814
63,-0.028489239139494152,0.04540564438221654,1.1744921664134926,-0.011725511025516987,-0.018668320398347333,-0.018348978502313325,-0.0561614448374944,-0.017802077708872703,-0.14880442838796096,0.04772614025147999,0.032376048952810814
64,-0.028489239139494152,0.04540564438221654,1.1744921664134926,-0.011725511025516987,-0.018668320398347333,-0.018348978502313325,-0.0561614448374944,-0.017802077708872703,-0.14880442838796096,0.04772614025147999,0.032376048952810814
65,-0.028489239139494152,0.04540564438221654,1.1744921664134926,-0.011725511025516987,-0.018668320398347333,-0.018348978502313325,-0.0561614448374944,-0.017802077708872703,-0.14880442838796096,0.04772614025147999,0.032376048952810814
66,-0.028489239139494152,0.04540564438221654,1.1744921664134926,-0.011725511025516987,-0.018668320398347333,-0.018348978502313325,-0.0561614448374944,-0.017802077708872703,-0.14880442838796096,0.04772614025147999,0.032376048952810814
67,-0.028489239139494152,0.04540564438221654,1.1744921664134926,-0.011725511025516987,-0.018668320398347333,-0.018348978502313325,-0.0561614448374944,-0.017802077708872703,-0.14880442838796096,0.04772614025147999,0.032376048952810814
68,-0.028489239139494152,0.04540564438221654,1.1744921664134926,-0.011725511025516987,-0.018668320398347333,-0.018348978502313325,-0.0561614448374944,-0.017802077708872703,-0.14880442838796096,0.04772614025147999,0.032376048952810814
69,-0.028489239139494152,0.04540564438221654,1.1744921664134926,-0.011725511025516987,-0.018668320398347333,-0.018348978502313325,-0.0561614448374944,-0.017802077708872703,-0.14880442838796096,0.04772614025147999,0.032376048952810814
70,-0.028489239139494152,0.04540564438221654,1.1744921664134926,-0.011725511025516987,-0.018668320398347333,-0.018348978502313325,-0.0561614448374944,-0.017802077708872703,-0.14880442838796096,0.04772614025147999,0.032376048952810814
71,-0.028489239139494152,0.04540564438221654,1.1744921664134926,-0.011725511025516987,-0.018668320398347333,-0.018348978502313325,-0.0561614448374944,-0.017802077708872703,-0.14880442838796096,0.04772614025147999,0.032376048952810814
72,-0.028489239139494152,0.04540564438221654,1.1744921664134926,-0.011725511025516987,-0.018668320398347333,-0.018348978502313325,-0.0561614448374944,-0.017802077708872703,-0.14880442838796096,0.04772614025147999,0.032376048952810814
73,-0.028489239139494152,0.04540564438221654,1.1744921664134926,-0.011725511025516987,-0.018668320398347333,-0.018348978502313325,-0.0561614448374944,-0.017802077708872703,-0.14880442838796096,0.04772614025147999,0.032376048952810814
74,-0.028489239139494152,0.04540564438221654,1.1744921664134926,-0.011725511025516987,-0.018668320398347333,-0.018348978502313325,-0.0561614448374944,-0.017802077708872703,-0.14880442838796096,0.04772614025147999,0.032376048952810814
75,-0.028489239139494152,0.04540564438221654,1.1744921664134926,-0.011725511025516987,-0.018668320398347333,-0.018348978502313325,-0.0561614448374944,-0.017802077708872703,-0.14880442838796096,0.04772614025147999,0.032376048952810814
76,-0.028489239139494152,0.04540564438221654,1.1744921664134926,-0.011725511025516987,-0.018668320398347333,-0.018348978502313325,-0.0561614448374944,-0.017802077708872703,-0.14880442838796096,0.04772614025147999,0.032376048952810814
77,-0.028489239139494152,0.04540564438221654,1.1744921664134926,-0.011725511025516987,-0.018668320398347333,-0.018348978502313325,-0.0561614448374944,-0.017802077708872703,-0.14880442838796096,0.04772614025147999,0.032376048952810814
78,-0.028489239139494152,0.04540564438221654,1.1744921664134926,-0.011725511025516987,-0.018668320398347333,-0.018348978502313325,-0.0561614448374944,-0.017802077708872703,-0.14880442838796096,0.04772614025147999,0.032376048952810814
79,-0.028489239139494152,0.04540564438221654,1.1744921664134926,-0.011725511025516987,-0.018668320398347333,-0.018348978502313325,-0.0561614448374944,-0.017802077708872703,-0.14880442838796096,0.04772614025147999,0.032376048952810814
80,-0.028489239139494152,0.04540564438221654,1.1744921664134926,-0.011725511025516987,-0.018668320398347333,-0.018348978502313325,-0.0561614448374944,-0.017802077708872703,-0.14880442838796096,0.04772614025147999,0.032376048952810814
81,-0.028489239139494152,0.04540564438221654,1.1744921664134926,-0.011725511025516987,-0.018668320398347333,-0.018348978502313325,-0.0561614448374944,-0.017802077708872703,-0.14880442838796096,0.04772614025147999,0.032376048952810814
82,-0.028489239139494152,0.04540564438221654,1.1744921664134926,-0.011725511025516987,-0.018668320398347333,-0.018348978502313325,-0.0561614448374944,-0.017802077708872703,-0.14880442838796096,0.04772614025147999,0.032376048952810814
83,-0.028489239139494152,0.04540564438221654,1.1744921664134926,-0.011725511025516987,-0.018668320398347333,-0.018348978502313325,-0.0561614448374944,-0.017802077708872703,-0.14880442838796096,0.04772614025147999,0.032376048952810814
84,-0.028489239139494152,0.04540564438221654,1.1744921664134926,-0.011725511025516987,-0.018668320398347333,-0.018348978502313325,-0.0561614448374944,-0.017802077708872703,-0.14880442838796096,0.04772614025147999,0.032376048952810814
85,-0.028489239139494152,0.04540564438221654,1.1744921664134926,-0.011725511025516987,-0.018668320398347333,-0.018348978502313325,-0.0561614448374944,-0.017802077708872703,-0.14880442838796096,0.04772614025147999,0.032376048952810814
86,-0.028489239139494152,0.04540564438221654,1.1744921664134926,-0.011725511025516987,-0.018668320398347333,-0.018348978502313325,-0.0561614448374944,-0.017802077708872703,-0.14880442838796096,0.04772614025147999,0.032376048952810814
87,-0.028489239139494152,0.04540564438221654,1.1744921664134926,-0.011725511025516987,-0.018668320398347333,-0.018348978502313325,-0.0561614448374944,-0.017802077708872703,-0.14880442838796096,0.04772614025147999,0.032376048952810814
88,-0.028489239139494152,0.04540564438221654,1.1744921664134926,-0.011725511025516987,-0.018668320398347333,-0.018348978502313325,-0.0561614448374944,-0.017802077708872703,-0.14880442838796096,0.04772614025147999,0.032376048952810814
89,-0.028489239139494152,0.04540564438221654,1.1744921664134926,-0.011725511025516987,-0.018668320398347333,-0.018348978502313325,-0.0561614448374944,-0.017802077708872703,-0.14880442838796096,0.04772614025147999,0.032376048952810814
90,0.056624632206992945,0.10793492628497647,0.07109621221319871,0.20679734070912975,0.059827486642744315,0.06260885060218353,0.06867819510122497,0.06803495229058919,0.16835963349840757,0.06659380469379636,0.06344396575675629
91,0.056624632206992945,0.10793492628497647,0.07109621221319871,0.20679734070912975,0.059827486642744315,0.06260885060218353,0.06867819510122497,0.06803495229058919,0.16835963349840757,0.06659380469379636,0.06344396575675629
92,0.056624632206992945,0.10793492628497647,0.07109621221319871,0.20679734070912975,0.059827486642744315,0.06260885060218353,0.06867819510122497,0.06803495229058919,0.16835963349840757,0.06659380469379636,0.06344396575675629
93,0.056624632206992945,0.10793492628497647,0.07109621221319871,0.20679734070912975,0.059827486642744315,0.06260885060218353,0.06867819510122497,0.06803495229058919,0.16835963349840757,0.06659380469379636,0.06344396575675629
94,0.056624632206992945,0.10793492628497647,0.07109621221319871,0.20679734070912975,0.059827486642744315,0.06260885060218353,0.06867819510122497,0.06803495229058919,0.16835963349840757,0.06659380469379636,0.06344396575675629
95,0.056624632206992945,0.10793492628497647,0.07109621221319871,0.20679734070912975,0.059827486642744315,0.06260885060218353,0.06867819510122497,0.06803495229058919,0.16835963349840757,0.06659380469379636,0.06344396575675629
96,0.056624632206992945,0.10793492628497647,0.07109621221319871,0.20679734070912975,0.059827486642744315,0.06260885060218353,0.06867819510122497,0.06803495229058919,0.16835963349840757,0.06659380469379636,0.06344396575675629
97,0.056624632206992945,0.10793492628497647,0.07109621221319871,0.20679734070912975,0.059827486642744315,0.06260885060218353,0.06867819510122497,0.06803495229058919,0.16835963349840757,0.06659380469379636,0.06344396575675629
98,0.056624632206992945,0.10793492628497647,0.07109621221319871,0.20679734070912975,0.059827486642744315,0.06260885060218353,0.06867819510122497,0.06803495229058919,0.16835963349840757,0.06659380469379636,0.06344396575675629
99,0.056624632206992945,0.10793492628497647,0.07109621221319871,0.20679734070912975,0.059827486642744315,0.06260885060218353,0.06867819510122497,0.06803495229058919,0.16835963349840757,0.06659380469379636,0.06344396575675629
100,0.056624632206992945,0.10793492628497647,0.07109621221319871,0.20679734070912975,0.059827486642744315,0.06260885060218353,0.06867819510122497,0.06803495229058919,0.16835963349840757,0.06659380469379636,0.06344396575675629
101,0.056624632206992945,0.10793492628497647,0.07109621221319871,0.20679734070912975,0.059827486642744315,0.06260885060218353,0.06867819510122497,0.06803495229058919,0.16835963349840757,0.06659380469379636,0.06344396575675629
102,0.056624632206992945,0.10793492628497647,0.07109621221319871,0.20679734070912975,0.059827486642744315,0.06260885060218353,0.06867819510122497,0.06803495229058919,0.16835963349840757,0.06659380469379636,0.06344396575675629
103,0.056624632206992945,0.10793492628497647,0.07109621221319871,0.20679734070912975,0.059827486642744315,0.06260885060218353,0.06867819510122497,0.06803495229058919,0.16835963349840757,0.06659380469379636,0.06344396575675629
104,0.056624632206992945,0.10793492628497647,0.07109621221319871,0.20679734070912975,0.059827486642744315,0.06260885060218353,0.06867819510122497,0.06803495229058919,0.16835963349840757,0.06659380469379636,0.06344396575675629
105,0.056624632206992945,0.10793492628497647,0.07109621221319871,0.20679734070912975,0.059827486642744315,0.06260885060218353,0.06867819510122497,0.06803495229058919,0.16835963349840757,0.06659380469379636,0.06344396575675629
106,0.056624632206992945,0.10793492628497647,0.07109621221319871,0.20679734070912975,0.059827486642744315,0.06260885060218353,0.06867819510122497,0.06803495229058919,0.16835963349840757,0.06659380469379636,0.06344396575675629
107,0.056624632206992945,0.10793492628497647,0.07109621221319871,0.20679734070912975,0.059827486642744315,0.06260885060218353,0.06867819510122497,0.06803495229058919,0.16835963349840757,0.06659380469379636,0.06344396575675629
108,0.056624632206992945,0.10793492628497647,0.07109621221319871,0.20679734070912975,0.059827486642744315,0.06260885060218353,0.06867819510122497,0.06803495229058919,0.16835963349840757,0.06659380469379636,0.06344396575675629
109,0.056624632206992945,0.10793492628497647,0.07109621221319871,0.20679734070912975,0.059827486642744315,0.06260885060218353,0.06867819510122497,0.06803495229058919,0.16835963349840757,0.06659380469379636,0.06344396575675629
110,0.056624632206992945,0.10793492628497647,0.07109621221319871,0.20679734070912975,0.059827486642744315,0.06260885060218353,0.06867819510122497,0.06803495229058919,0.16835963349840757,0.06659380469379636,0.06344396575675629
111,0.056624632206992945,0.10793492628497647,0.07109621221319871,0.20679734070912975,0.059827486642744315,0.06260885060218353,0.06867819510122497,0.06803495229058919,0.16835963349840757,0.06659380469379636,0.06344396575675629
112,0.056624632206992945,0.10793492628497647,0.07109621221319871,0.20679734070912975,0.059827486642744315,0.06260885060218353,0.06867819510122497,0.06803495229058919,0.16835963349840757,0.06659380469379636,0.06344396575675629
113,0.056624632206992945,0.10793492628497647,0.07109621221319871,0.20679734070912975,0.059827486642744315,0.06260885060218353,0.06867819510122497,0.06803495229058919,0.16835963349840757,0.06659380469379636,0.06344396575675629
114,0.056624632206992945,0.10793492628497647,0.07109621221319871,0.20679734070912975,0.059827486642744315,0.06260885060218353,0.06867819510122497,0.06803495229058919,0.16835963349840757,0.06659380469379636,0.06344396575675629
115,0.056624632206992945,0.10793492628497647,0.07109621221319871,0.20679734070912975,0.059827486642744315,0.06260885060218353,0.06867819510122497,0.06803495229058919,0.16835963349840757,0.06659380469379636,0.06344396575675629
116,0.056624632206992945,0.10793492628497647,0.07109621221319871,0.20679734070912975,0.059827486642744315,0.06260885060218353,0.06867819510122497,0.06803495229058919,0.16835963349840757,0.06659380469379636,0.06344396575675629
117,0.056624632206992945,0.10793492628497647,0.07109621221319871,0.20679734070912975,0.059827486642744315,0.06260885060218353,0.06867819510122497,0.06803495229058919,0.16835963349840757,0.06659380469379636,0.06344396575675629
118,0.056624632206992945,0.10793492628497647,0.07109621221319871,0.20679734070912975,0.059827486642744315,0.06260885060218353,0.06867819510122497,0.06803495229058919,0.16835963349840757,0.06659380469379636,0.06344396575675629
119,0.056624632206992945,0.10793492628497647,0.07109621221319871,0.20679734070912975,0.059827486642744315,0.06260885060218353,0.06867819510122497,0.06803495229058919,0.16835963349840757,0.06659380469379636,0.06344396575675629
120,0.1602594489092525,0.15305600302996647,-0.05703449285068194,0.09630205110320225,0.14937078441833573,0.31780790776926526,0.1556988019630965,0.13777318060444993,0.12973182220243146,-0.1994806129788474,-0.04348489417047067
121,0.1602594489092525,0.15305600302996647,-0.05703449285068194,0.09630205110320225,0.14937078441833573,0.31780790776926526,0.1556988019630965,0.13777318060444993,0.12973182220243146,-0.1994806129788474,-0.04348489417047067
122,0.1602594489092525,0.15305600302996647,-0.05703449285068194,0.09630205110320225,0.14937078441833573,0.31780790776926526,0.1556988019630965,0.13777318060444993,0.12973182220243146,-0.1994806129788474,-0.04348489417047067
123,0.1602594489092525,0.15305600302996647,-0.05703449285068194,0.09630205110320225,0.14937078441833573,0.31780790776926526,0.1556988019630965,0.13777318060444993,0.12973182220243146,-0.1994806129788474,-0.04348489417047067
124,0.1602594489092525,0.15305600302996647,-0.05703449285068194,0.09630205110320225,0.14937078441833573,0.31780790776926526,0.1556988019630965,0.13777318060444993,0.12973182220243146,-0.1994806129788474,-0.04348489417047067
125,0.1602594489092525,0.15305600302996647,-0.05703449285068194,0.09630205110320225,0.14937078441833573,0.31780790776926526,0.1556988019630965,0.13777318060444993,0.12973182220243146,-0.1994806129788474,-0.04348489417047067
126,0.1602594489092525,0.15305600302996647,-0.05703449285068194,0.09630205110320225,0.14937078441833573,0.31780790776926526,0.1556988019630965,0.13777318060444993,0.12973182220243146,-0.1994806129788474,-0.04348489417047067
127,0.1602594489092525,0.15305600302996647,-0.05703449285068194,0.09630205110320225,0.14937078441833573,0.31780790776926526,0.1556988019630965,0.13777318060444993,0.12973182220243146,-0.1994806129788474,-0.04348489417047067
128,0.1602594489092525,0.15305600302996647,-0.05703449285068194,0.09630205110320225,0.14937078441833573,0.31780790776926526,0.1556988019630965,0.13777318060444993,0.12973182220243146,-0.1994806129788474,-0.04348489417047067
129,0.1602594489092525,0.15305600302996647,-0.05703449285068194,0.09630205110320225,0.14937078441833573,0.31780790776926526,0.1556988019630965,0.13777318060444993,0.12973182220243146,-0.1994806129788474,-0.04348489417047067
130,0.1602594489092525,0.15305600302996647,-0.05703449285068194,0.09630205110320225,0.14937078441833573,0.31780790776926526,0.1556988019630965,0.13777318060444993,0.12973182220243146,-0.1994806129788474,-0.04348489417047067
131,0.1602594489092525,0.15305600302996647,-0.05703449285068194,0.09630205110320225,0.14937078441833573,0.31780790776926526,0.1556988019630965,0.13777318060444993,0.12973182220243146,-0.1994806129788474,-0.04348489417047067
132,0.1602594489092525,0.15305600302996647,-0.05703449285068194,0.09630205110320225,0.14937078441833573,0.31780790776926526,0.1556988019630965,0.13777318060444993,0.12973182220243146,-0.1994806129788474,-0.04348489417047067
133,0.1602594489092525,0.15305600302996647,-0.05703449285068194,0.09630205110320225,0.14937078441833573,0.31780790776926526,0.1556988019630965,0.13777318060444993,0.12973182220243146,-0.1994806129788474,-0.04348489417047067
134,0.1602594489092525,0.15305600302996647,-0.05703449285068194,0.09630205110320225,0.14937078441833573,0.31780790776926526,0.1556988019630965,0.13777318060444993,0.12973182220243146,-0.1994806129788474,-0.04348489417047067
135,0.1602594489092525,0.15305600302996647,-0.05703449285068194,0.09630205110320225,0.14937078441833573,0.31780790776926526,0.1556988019630965,0.13777318060444993,0.12973182220243146,-0.1994806129788474,-0.04348489417047067
136,0.1602594489092525,0.15305600302996647,-0.05703449285068194,0.09630205110320225,0.14937078441833573,0.31780790776926526,0.1556988019630965,0.13777318060444993,0.12973182220243146,-0.1994806129788474,-0.04348489417047067
137,0.1602594489092525,0.15305600302996647,-0.05703449285068194,0.09630205110320225,0.14937078441833573,0.31780790776926526,0.1556988019630965,0.13777318060444993,0.12973182220243146,-0.1994806129788474,-0.04348489417047067
138,0.1602594489092525,0.15305600302996647,-0.05703449285068194,0.09630205110320225,0.14937078441833573,0.31780790776926526,0.1556988019630965,0.13777318060444993,0.12973182220243146,-0.1994806129788474,-0.04348489417047067
139,0.1602594489092525,0.15305600302996647,-0.05703449285068194,0.09630205110320225,0.14937078441833573,0.31780790776926526,0.1556988019630965,0.13777318060444993,0.12973182220243146,-0.1994806129788474,-0.04348489417047067
140,0.1602594489092525,0.15305600302996647,-0.05703449285068194,0.09630205110320225,0.14937078441833573,0.31780790776926526,0.1556988019630965,0.13777318060444993,0.12973182220243146,-0.1994806129788474,-0.04348489417047067
141,0.1602594489092525,0.15305600302996647,-0.05703449285068194,0.09630205110320225,0.14937078441833573,0.31780790776926526,0.1556988019630965,0.13777318060444993,0.12973182220243146,-0.1994806129788474,-0.04348489417047067
142,0.1602594489092525,0.15305600302996647,-0.05703449285068194,0.09630205110320225,0.14937078441833573,0.31780790776926526,0.1556988019630965,0.13777318060444993,0.12973182220243146,-0.1994806129788474,-0.04348489417047067
143,0.1602594489092525,0.15305600302996647,-0.05703449285068194,0.09630205110320225,0.14937078441833573,0.31780790776926526,0.1556988019630965,0.13777318060444993,0.12973182220243146,-0.1994806129788474,-0.04348489417047067
144,0.1602594489092525,0.15305600302996647,-0.05703449285068194,0.09630205110320225,0.14937078441833573,0.31780790776926526,0.1556988019630965,0.13777318060444993,0.12973182220243146,-0.1994806129788474,-0.04348489417047067
145,0.1602594489092525,0.15305600302996647,-0.05703449285068194,0.09630205110320225,0.14937078441833573,0.31780790776926526,0.1556988019630965,0.13777318060444993,0.12973182220243146,-0.1994806129788474,-0.04348489417047067
146,0.1602594489092525,0.15305600302996647,-0.05703449285068194,0.09630205110320225,0.14937078441833573,0.31780790776926526,0.1556988019630965,0.13777318060444993,0.12973182220243146,-0.1994806129788474,-0.04348489417047067
147,0.1602594489092525,0.15305600302996647,-0.05703449285068194,0.09630205110320225,0.14937078441833573,0.31780790776926526,0.1556988019630965,0.13777318060444993,0.12973182220243146,-0.1994806129788474,-0.04348489417047067
148,0.1602594489092525,0.15305600302996647,-0.05703449285068194,0.09630205110320225,0.14937078441833573,0.31780790776926526,0.1556988019630965,0.13777318060444993,0.12973182220243146,-0.1994806129788474,-0.04348489417047067
149,0.1602594489092525,0.15305600302996647,-0.05703449285068194,0.09630205110320225,0.14937078441833573,0.31780790776926526,0.1556988019630965,0.13777318060444993,0.12973182220243146,-0.1994806129788474,-0.04348489417047067
150,0.1602594489092525,0.15305600302996647,-0.05703449285068194,0.09630205110320225,0.14937078441833573,0.31780790776926526,0.1556988019630965,0.13777318060444993,0.12973182220243146,-0.1994806129788474,-0.04348489417047067
151,0.14830730976008993,-0.08715834518972539,0.06329123966686415,0.054150024804300506,-0.03026954938044965,-0.18257210542982497,0.17383247698676285,0.23445785874975764,0.14558423144784718,0.19971945181459616,0.28065740676978157
152,0.14830730976008993,-0.08715834518972539,0.06329123966686415,0.054150024804300506,-0.03026954938044965,-0.18257210542982497,0.17383247698676285,0.23445785874975764,0.14558423144784718,0.19971945181459616,0.28065740676978157
153,0.14830730976008993,-0.08715834518972539,0.06329123966686415,0.054150024804300506,-0.03026954938044965,-0.18257210542982497,0.17383247698676285,0.23445785874975764,0.14558423144784718,0.19971945181459616,0.28065740676978157
154,0.14830730976008993,-0.08715834518972539,0.06329123966686415,0.054150024804300506,-0.03026954938044965,-0.18257210542982497,0.17383247698676285,0.23445785874975764,0.14558423144784718,0.19971945181459616,0.28065740676978157
155,0.14830730976008993,-0.08715834518972539,0.06329123966686415,0.054150024804300506,-0.03026954938044965,-0.18257210542982497,0.17383247698676285,0.23445785874975764,0.14558423144784718,0.19971945181459616,0.28065740676978157
156,0.14830730976008993,-0.08715834518972539,0.06329123966686415,0.054150024804300506,-0.03026954938044965,-0.18257210542982497,0.17383247698676285,0.23445785874975764,0.14558423144784718,0.19971945181459616,0.28065740676978157
157,0.14830730976008993,-0.08715834518972539,0.06329123966686415,0.054150024804300506,-0.03026954938044965,-0.18257210542982497,0.17383247698676285,0.23445785874975764,0.14558423144784718,0.19971945181459616,0.28065740676978157
158,0.14830730976008993,-0.08715834518972539,0.06329123966686415,0.054150024804300506,-0.03026954938044965,-0.18257210542982497,0.17383247698676285,0.23445785874975764,0.14558423144784718,0.19971945181459616,0.28065740676978157
159,0.14830730976008993,-0.08715834518972539,0.06329123966686415,0.054150024804300506,-0.03026954938044965,-0.18257210542982497,0.17383247698676285,0.23445785874975764,0.14558423144784718,0.19971945181459616,0.28065740676978157
160,0.14830730976008993,-0.08715834518972539,0.06329123966686415,0.054150024804300506,-0.03026954938044965,-0.18257210542982497,0.17383247698676285,0.23445785874975764,0.14558423144784718,0.19971945181459616,0.28065740676978157
161,0.14830730976008993,-0.08715834518972539,0.06329123966686415,0.054150024804300506,-0.03026954938044965,-0.18257210542982497,0.17383247698676285,0.23445785874975764,0.14558423144784718,0.19971945181459616,0.28065740676978157
162,0.14830730976008993,-0.08715834518972539,0.06329123966686415,0.054150024804300506,-0.03026954938044965,-0.18257210542982497,0.17383247698676285,0.23445785874975764,0.14558423144784718,0.19971945181459616,0.28065740676978157
163,0.14830730976008993,-0.08715834518972539,0.06329123966686415,0.054150024804300506,-0.03026954938044965,-0.18257210542982497,0.17383247698676285,0.23445785874975764,0.14558423144784718,0.19971945181459616,0.28065740676978157
164,0.14830730976008993,-0.08715834518972539,0.06329123966686415,0.054150024804300506,-0.03026954938044965,-0.18257210542982497,0.17383247698676285,0.23445785874975764,0.14558423144784718,0.19971945181459616,0.28065740676978157
165,0.14830730976008993,-0.08715834518972539,0.06329123966686415,0.054150024804300506,-0.03026954938044965,-0.18257210542982497,0.17383247698676285,0.23445785874975764,0.14558423144784718,0.19971945181459616,0.28065740676978157
166,0.14830730976008993,-0.08715834518972539,0.06329123966686415,0.054150024804300506,-0.03026954938044965,-0.18257210542982497,0.17383247698676285,0.23445785874975764,0.14558423144784718,0.19971945181459616,0.28065740676978157
167,0.14830730976008993,-0.08715834518972539,0.06329123966686415,0.054150024804300506,-0.03026954938044965,-0.18257210542982497,0.17383247698676285,0.23445785874975764,0.14558423144784718,0.19971945181459616,0.28065740676978157
168,0.14830730976008993,-0.08715834518972539,0.06329123966686415,0.054150024804300506,-0.03026954938044965,-0.18257210542982497,0.17383247698676285,0.23445785874975764,0.14558423144784718,0.19971945181459616,0.28065740676978157
169,0.14830730976008993,-0.08715834518972539,0.06329123966686415,0.054150024804300506,-0.03026954938044965,-0.18257210542982497,0.17383247698676285,0.23445785874975764,0.14558423144784718,0.19971945181459616,0.28065740676978157
170,0.14830730976008993,-0.08715834518972539,0.06329123966686415,0.054150024804300506,-0.03026954938044965,-0.18257210542982497,0.17383247698676285,0.23445785874975764,0.14558423144784718,0.19971945181459616,0.28065740676978157
171,0.14830730976008993,-0.08715834518972539,0.06329123966686415,0.054150024804300506,-0.03026954938044965,-0.18257210542982497,0.17383247698676285,0.23445785874975764,0.14558423144784718,0.19971945181459616,0.28065740676978157
172,0.14830730976008993,-0.08715834518972539,0.06329123966686415,0.054150024804300506,-0.03026954938044965,-0.18257210542982497,0.17383247698676285,0.23445785874975764,0.14558423144784718,0.19971945181459616,0.28065740676978157
173,0.14830730976008993,-0.08715834518972539,0.06329123966686415,0.054150024804300506,-0.03026954938044965,-0.18257210542982497,0.17383247698676285,0.23445785874975764,0.14558423144784718,0.19971945181459616,0.28065740676978157
174,0.14830730976008993,-0.08715834518972539,0.06329123966686415,0.054150024804300506,-0.03026954938044965,-0.18257210542982497,0.17383247698676285,0.23445785874975764,0.14558423144784718,0.19971945181459616,0.28065740676978157
175,0.14830730976008993,-0.08715834518972539,0.06329123966686415,0.054150024804300506,-0.03026954938044965,-0.18257210542982497,0.17383247698676285,0.23445785874975764,0.14558423144784718,0.19971945181459616,0.28065740676978157
176,0.14830730976008993,-0.08715834518972539,0.06329123966686415,0.054150024804300506,-0.03026954938044965,-0.18257210542982497,0.17383247698676285,0.23445785874975764,0.14558423144784718,0.19971945181459616,0.28065740676978157
177,0.14830730976008993,-0.08715834518972539,0.06329123966686415,0.054150024804300506,-0.03026954938044965,-0.18257210542982497,0.17383247698676285,0.23445785874975764,0.14558423144784718,0.19971945181459616,0.28065740676978157
178,0.14830730976008993,-0.08715834518972539,0.06329123966686415,0.054150024804300506,-0.03026954938044965,-0.18257210542982497,0.17383247698676285,0.23445785874975764,0.14558423144784718,0.19971945181459616,0.28065740676978157
179,0.14830730976008993,-0.08715834518972539,0.06329123966686415,0.054150024804300506,-0.03026954938044965,-0.18257210542982497,0.17383247698676285,0.23445785874975764,0.14558423144784718,0.19971945181459616,0.28065740676978157
180,0.14830730976008993,-0.08715834518972539,0.06329123966686415,0.054150024804300506,-0.03026954938044965,-0.18257210542982497,0.17383247698676285,0.23445785874975764,0.14558423144784718,0.19971945181459616,0.28065740676978157
181,0.04044121391917637,0.02378467190346766,0.05977986303486558,0.17949515775984712,0.09881812469549531,0.018423434714200354,0.023737656235353136,0.01801929987598362,0.037856092615679474,0.02863447325261676,0.47101001199331466
182,0.04044121391917637,0.02378467190346766,0.05977986303486558,0.17949515775984712,0.09881812469549531,0.018423434714200354,0.023737656235353136,0.01801929987598362,0.037856092615679474,0.02863447325261676,0.47101001199331466
183,0.04044121391917637,0.02378467190346766,0.05977986303486558,0.17949515775984712,0.09881812469549531,0.018423434714200354,0.023737656235353136,0.01801929987598362,0.037856092615679474,0.02863447325261676,0.47101001199331466
184,0.04044121391917637,0.02378467190346766,0.05977986303486558,0.17949515775984712,0.09881812469549531,0.018423434714200354,0.023737656235353136,0.01801929987598362,0.037856092615679474,0.02863447325261676,0.47101001199331466
185,0.04044121391917637,0.02378467190346766,0.05977986303486558,0.17949515775984712,0.09881812469549531,0.018423434714200354,0.023737656235353136,0.01801929987598362,0.037856092615679474,0.02863447325261676,0.47101001199331466
186,0.04044121391917637,0.02378467190346766,0.05977986303486558,0.17949515775984712,0.09881812469549531,0.018423434714200354,0.023737656235353136,0.01801929987598362,0.037856092615679474,0.02863447325261676,0.47101001199331466
187,0.04044121391917637,0.02378467190346766,0.05977986303486558,0.17949515775984712,0.09881812469549531,0.018423434714200354,0.023737656235353136,0.01801929987598362,0.037856092615679474,0.02863447325261676,0.47101001199331466
188,0.04044121391917637,0.02378467190346766,0.05977986303486558,0.17949515775984712,0.09881812469549531,0.018423434714200354,0.023737656235353136,0.01801929987598362,0.037856092615679474,0.02863447325261676,0.47101001199331466
189,0.04044121391917637,0.02378467190346766,0.05977986303486558,0.17949515775984712,0.09881812469549531,0.018423434714200354,0.023737656235353136,0.01801929987598362,0.037856092615679474,0.02863447325261676,0.47101001199331466
190,0.04044121391917637,0.02378467190346766,0.05977986303486558,0.17949515775984712,0.09881812469549531,0.018423434714200354,0.023737656235353136,0.01801929987598362,0.037856092615679474,0.02863447325261676,0.47101001199331466
191,0.04044121391917637,0.02378467190346766,0.05977986303486558,0.17949515775984712,0.09881812469549531,0.018423434714200354,0.023737656235353136,0.01801929987598362,0.037856092615679474,0.02863447325261676,0.47101001199331466
192,0.04044121391917637,0.02378467190346766,0.05977986303486558,0.17949515775984712,0.09881812469549531,0.018423434714200354,0.023737656235353136,0.01801929987598362,0.037856092615679474,0.02863447325261676,0.47101001199331466
193,0.04044121391917637,0.02378467190346766,0.05977986303486558,0.17949515775984712,0.09881812469549531,0.018423434714200354,0.023737656235353136,0.01801929987598362,0.037856092615679474,0.02863447325261676,0.47101001199331466
194,0.04044121391917637,0.02378467190346766,0.05977986303486558,0.17949515775984712,0.09881812469549531,0.018423434714200354,0.023737656235353136,0.01801929987598362,0.037856092615679474,0.02863447325261676,0.47101001199331466
195,0.04044121391917637,0.02378467190346766,0.05977986303486558,0.17949515775984712,0.09881812469549531,0.018423434714200354,0.023737656235353136,0.01801929987598362,0.037856092615679474,0.02863447325261676,0.47101001199331466
196,0.04044121391917637,0.02378467190346766,0.05977986303486558,0.17949515775984712,0.09881812469549531,0.018423434714200354,0.023737656235353136,0.01801929987598362,0.037856092615679474,0.02863447325261676,0.47101001199331466
197,0.04044121391917637,0.02378467190346766,0.05977986303486558,0.17949515775984712,0.09881812469549531,0.018423434714200354,0.023737656235353136,0.01801929987598362,0.037856092615679474,0.02863447325261676,0.47101001199331466
198,0.04044121391917637,0.02378467190346766,0.05977986303486558,0.17949515775984712,0.09881812469549531,0.018423434714200354,0.023737656235353136,0.01801929987598362,0.037856092615679474,0.02863447325261676,0.47101001199331466
199,0.04044121391917637,0.02378467190346766,0.05977986303486558,0.17949515775984712,0.09881812469549531,0.018423434714200354,0.023737656235353136,0.01801929987598362,0.037856092615679474,0.02863447325261676,0.47101001199331466
200,0.04044121391917637,0.02378467190346766,0.05977986303486558,0.17949515775984712,0.09881812469549531,0.018423434714200354,0.023737656235353136,0.01801929987598362,0.037856092615679474,0.02863447325261676,0.47101001199331466
201,0.04044121391917637,0.02378467190346766,0.05977986303486558,0.17949515775984712,0.09881812469549531,0.018423434714200354,0.023737656235353136,0.01801929987598362,0.037856092615679474,0.02863447325261676,0.47101001199331466
202,0.04044121391917637,0.02378467190346766,0.05977986303486558,0.17949515775984712,0.09881812469549531,0.018423434714200354,0.023737656235353136,0.01801929987598362,0.037856092615679474,0.02863447325261676,0.47101001199331466
203,0.04044121391917637,0.02378467190346766,0.05977986303486558,0.17949515775984712,0.09881812469549531,0.018423434714200354,0.023737656235353136,0.01801929987598362,0.037856092615679474,0.02863447325261676,0.47101001199331466
204,0.04044121391917637,0.02378467190346766,0.05977986303486558,0.17949515775984712,0.09881812469549531,0.018423434714200354,0.023737656235353136,0.01801929987598362,0.037856092615679474,0.02863447325261676,0.47101001199331466
205,0.04044121391917637,0.02378467190346766,0.05977986303486558,0.17949515775984712,0.09881812469549531,0.018423434714200354,0.023737656235353136,0.01801929987598362,0.037856092615679474,0.02863447325261676,0.47101001199331466
206,0.04044121391917637,0.02378467190346766,0.05977986303486558,0.17949515775984712,0.09881812469549531,0.018423434714200354,0.023737656235353136,0.01801929987598362,0.037856092615679474,0.02863447325261676,0.47101001199331466
207,0.04044121391917637,0.02378467190346766,0.05977986303486558,0.17949515775984712,0.09881812469549531,0.018423434714200354,0.023737656235353136,0.01801929987598362,0.037856092615679474,0.02863447325261676,0.47101001199331466
208,0.04044121391917637,0.02378467190346766,0.05977986303486558,0.17949515775984712,0.09881812469549531,0.018423434714200354,0.023737656235353136,0.01801929987598362,0.037856092615679474,0.02863447325261676,0.47101001199331466
209,0.04044121391917637,0.02378467190346766,0.05977986303486558,0.17949515775984712,0.09881812469549531,0.018423434714200354,0.023737656235353136,0.01801929987598362,0.037856092615679474,0.02863447325261676,0.47101001199331466
210,0.04044121391917637,0.02378467190346766,0.05977986303486558,0.17949515775984712,0.09881812469549531,0.018423434714200354,0.023737656235353136,0.01801929987598362,0.037856092615679474,0.02863447325261676,0.47101001199331466
211,0.04044121391917637,0.02378467190346766,0.05977986303486558,0.17949515775984712,0.09881812469549531,0.018423434714200354,0.023737656235353136,0.01801929987598362,0.037856092615679474,0.02863447325261676,0.47101001199331466
212,-0.07339551581030561,-0.07914827423708957,0.4692065688995049,0.04241531692260641,-0.07735302480311976,0.4775285623785003,0.11048626408795896,-0.07010318335943118,0.07269934635283125,-1.685777494050182e-09,0.12766394125432196
213,-0.07339551581030561,-0.07914827423708957,0.4692065688995049,0.04241531692260641,-0.07735302480311976,0.4775285623785003,0.11048626408795896,-0.07010318335943118,0.07269934635283125,-1.685777494050182e-09,0.12766394125432196
214,-0.07339551581030561,-0.07914827423708957,0.4692065688995049,0.04241531692260641,-0.07735302480311976,0.4775285623785003,0.11048626408795896,-0.07010318335943118,0.07269934635283125,-1.685777494050182e-09,0.12766394125432196
215,-0.07339551581030561,-0.07914827423708957,0.4692065688995049,0.04241531692260641,-0.07735302480311976,0.4775285623785003,0.11048626408795896,-0.07010318335943118,0.07269934635283125,-1.685777494050182e-09,0.12766394125432196
216,-0.07339551581030561,-0.07914827423708957,0.4692065688995049,0.04241531692260641,-0.07735302480311976,0.4775285623785003,0.11048626408795896,-0.07010318335943118,0.07269934635283125,-1.685777494050182e-09,0.12766394125432196
217,-0.07339551581030561,-0.07914827423708957,0.4692065688995049,0.04241531692260641,-0.07735302480311976,0.4775285623785003,0.11048626408795896,-0.07010318335943118,0.07269934635283125,-1.685777494050182e-09,0.12766394125432196
218,-0.07339551581030561,-0.07914827423708957,0.4692065688995049,0.04241531692260641,-0.07735302480311976,0.4775285623785003,0.11048626408795896,-0.07010318335943118,0.07269934635283125,-1.685777494050182e-09,0.12766394125432196
219,-0.07339551581030561,-0.07914827423708957,0.4692065688995049,0.04241531692260641,-0.07735302480311976,0.4775285623785003,0.11048626408795896,-0.07010318335943118,0.07269934635283125,-1.685777494050182e-09,0.12766394125432196
220,-0.07339551581030561,-0.07914827423708957,0.4692065688995049,0.04241531692260641,-0.07735302480311976,0.4775285623785003,0.11048626408795896,-0.07010318335943118,0.07269934635283125,-1.685777494050182e-09,0.12766394125432196
221,-0.07339551581030561,-0.07914827423708957,0.4692065688995049,0.04241531692260641,-0.07735302480311976,0.4775285623785003,0.11048626408795896,-0.07010318335943118,0.07269934635283125,-1.685777494050182e-09,0.12766394125432196
222,-0.07339551581030561,-0.07914827423708957,0.4692065688995049,0.04241531692260641,-0.07735302480311976,0.4775285623785003,0.11048626408795896,-0.07010318335943118,0.07269934635283125,-1.685777494050182e-09,0.12766394125432196
223,-0.07339551581030561,-0.07914827423708957,0.4692065688995049,0.04241531692260641,-0.07735302480311976,0.4775285623785003,0.11048626408795896,-0.07010318335943118,0.07269934635283125,-1.685777494050182e-09,0.12766394125432196
224,-0.07339551581030561,-0.07914827423708957,0.4692065688995049,0.04241531692260641,-0.07735302480311976,0.4775285623785003,0.11048626408795896,-0.07010318335943118,0.07269934635283125,-1.685777494050182e-09,0.12766394125432196
225,-0.07339551581030561,-0.07914827423708957,0.4692065688995049,0.04241531692260641,-0.07735302480311976,0.4775285623785003,0.11048626408795896,-0.07010318335943118,0.07269934635283125,-1.685777494050182e-09,0.12766394125432196
226,-0.07339551581030561,-0.07914827423708957,0.4692065688995049,0.04241531692260641,-0.07735302480311976,0.4775285623785003,0.11048626408795896,-0.07010318335943118,0.07269934635283125,-1.685777494050182e-09,0.12766394125432196
227,-0.07339551581030561,-0.07914827423708957,0.4692065688995049,0.04241531692260641,-0.07735302480311976,0.4775285623785003,0.11048626408795896,-0.07010318335943118,0.07269934635283125,-1.685777494050182e-09,0.12766394125432196
228,-0.07339551581030561,-0.07914827423708957,0.4692065688995049,0.04241531692260641,-0.07735302480311976,0.4775285623785003,0.11048626408795896,-0.07010318335943118,0.07269934635283125,-1.685777494050182e-09,0.12766394125432196
229,-0.07339551581030561,-0.07914827423708957,0.4692065688995049,0.04241531692260641,-0.07735302480311976,0.4775285623785003,0.11048626408795896,-0.07010318335943118,0.07269934635283125,-1.685777494050182e-09,0.12766394125432196
230,-0.07339551581030561,-0.07914827423708957,0.4692065688995049,0.04241531692260641,-0.07735302480311976,0.4775285623785003,0.11048626408795896,-0.07010318335943118,0.07269934635283125,-1.685777494050182e-09,0.12766394125432196
231,-0.07339551581030561,-0.07914827423708957,0.4692065688995049,0.04241531692260641,-0.07735302480311976,0.4775285623785003,0.11048626408795896,-0.07010318335943118,0.07269934635283125,-1.685777494050182e-09,0.12766394125432196
232,-0.07339551581030561,-0.07914827423708957,0.4692065688995049,0.04241531692260641,-0.07735302480311976,0.4775285623785003,0.11048626408795896,-0.07010318335943118,0.07269934635283125,-1.685777494050182e-09,0.12766394125432196
233,-0.07339551581030561,-0.07914827423708957,0.4692065688995049,0.04241531692260641,-0.07735302480311976,0.4775285623785003,0.11048626408795896,-0.07010318335943118,0.07269934635283125,-1.685777494050182e-09,0.12766394125432196
234,-0.07339551581030561,-0.07914827423708957,0.4692065688995049,0.04241531692260641,-0.07735302480311976,0.4775285623785003,0.11048626408795896,-0.07010318335943118,0.07269934635283125,-1.685777494050182e-09,0.12766394125432196
235,-0.07339551581030561,-0.07914827423708957,0.4692065688995049,0.04241531692260641,-0.07735302480311976,0.4775285623785003,0.11048626408795896,-0.07010318335943118,0.07269934635283125,-1.685777494050182e-09,0.12766394125432196
236,-0.07339551581030561,-0.07914827423708957,0.4692065688995049,0.04241531692260641,-0.07735302480311976,0.4775285623785003,0.11048626408795896,-0.07010318335943118,0.07269934635283125,-1.685777494050182e-09,0.12766394125432196
237,-0.07339551581030561,-0.07914827423708957,0.4692065688995049,0.04241531692260641,-0.07735302480311976,0.4775285623785003,0.11048626408795896,-0.07010318335943118,0.07269934635283125,-1.685777494050182e-09,0.12766394125432196
238,-0.07339551581030561,-0.07914827423708957,0.4692065688995049,0.04241531692260641,-0.07735302480311976,0.4775285623785003,0.11048626408795896,-0.07010318335943118,0.07269934635283125,-1.685777494050182e-09,0.12766394125432196
239,-0.07339551581030561,-0.07914827423708957,0.4692065688995049,0.04241531692260641,-0.07735302480311976,0.4775285623785003,0.11048626408795896,-0.07010318335943118,0.07269934635283125,-1.685777494050182e-09,0.12766394125432196
240,-0.07339551581030561,-0.07914827423708957,0.4692065688995049,0.04241531692260641,-0.07735302480311976,0.4775285623785003,0.11048626408795896,-0.07010318335943118,0.07269934635283125,-1.685777494050182e-09,0.12766394125432196
241,-0.07339551581030561,-0.07914827423708957,0.4692065688995049,0.04241531692260641,-0.07735302480311976,0.4775285623785003,0.11048626408795896,-0.07010318335943118,0.07269934635283125,-1.685777494050182e-09,0.12766394125432196
242,-0.07339551581030561,-0.07914827423708957,0.4692065688995049,0.04241531692260641,-0.07735302480311976,0.4775285623785003,0.11048626408795896,-0.07010318335943118,0.07269934635283125,-1.685777494050182e-09,0.12766394125432196
243,0.33251344441852826,0.5117009669860825,-0.08601323150131103,0.07390820222773443,8.822721816561432e-06,0.07523648313764915,0.052591999629532836,0.06808164537268753,0.13086806234374732,0.05509037316222159,-0.21398676849868895
244,0.33251344441852826,0.5117009669860825,-0.08601323150131103,0.07390820222773443,8.822721816561432e-06,0.07523648313764915,0.052591999629532836,0.06808164537268753,0.13086806234374732,0.05509037316222159,-0.21398676849868895
245,0.33251344441852826,0.5117009669860825,-0.08601323150131103,0.07390820222773443,8.822721816561432e-06,0.07523648313764915,0.052591999629532836,0.06808164537268753,0.13086806234374732,0.05509037316222159,-0.21398676849868895
246,0.33251344441852826,0.5117009669860825,-0.08601323150131103,0.07390820222773443,8.822721816561432e-06,0.07523648313764915,0.052591999629532836,0.06808164537268753,0.13086806234374732,0.05509037316222159,-0.21398676849868895
247,0.33251344441852826,0.5117009669860825,-0.08601323150131103,0.07390820222773443,8.822721816561432e-06,0.07523648313764915,0.052591999629532836,0.06808164537268753,0.13086806234374732,0.05509037316222159,-0.21398676849868895
248,0.33251344441852826,0.5117009669860825,-0.08601323150131103,0.07390820222773443,8.822721816561432e-06,0.07523648313764915,0.052591999629532836,0.06808164537268753,0.13086806234374732,0.05509037316222159,-0.21398676849868895
249,0.33251344441852826,0.5117009669860825,-0.08601323150131103,0.07390820222773443,8.822721816561432e-06,0.07523648313764915,0.052591999629532836,0.06808164537268753,0.13086806234374732,0.05509037316222159,-0.21398676849868895
250,0.33251344441852826,0.5117009669860825,-0.08601323150131103,0.07390820222773443,8.822721816561432e-06,0.07523648313764915,0.052591999629532836,0.06808164537268753,0.13086806234374732,0.05509037316222159,-0.21398676849868895
251,0.33251344441852826,0.5117009669860825,-0.08601323150131103,0.07390820222773443,8.822721816561432e-06,0.07523648313764915,0.052591999629532836,0.06808164537268753,0.13086806234374732,0.05509037316222159,-0.21398676849868895
252,0.33251344441852826,0.5117009669860825,-0.08601323150131103,0.07390820222773443,8.822721816561432e-06,0.07523648313764915,0.052591999629532836,0.06808164537268753,0.13086806234374732,0.05509037316222159,-0.21398676849868895
253,0.33251344441852826,0.5117009669860825,-0.08601323150131103,0.07390820222773443,8.822721816561432e-06,0.07523648313764915,0.052591999629532836,0.06808164537268753,0.13086806234374732,0.05509037316222159,-0.21398676849868895
254,0.33251344441852826,0.5117009669860825,-0.08601323150131103,0.07390820222773443,8.822721816561432e-06,0.07523648313764915,0.052591999629532836,0.06808164537268753,0.13086806234374732,0.05509037316222159,-0.21398676849868895
255,0.33251344441852826,0.5117009669860825,-0.08601323150131103,0.07390820222773443,8.822721816561432e-06,0.07523648313764915,0.052591999629532836,0.06808164537268753,0.13086806234374732,0.05509037316222159,-0.21398676849868895
256,0.33251344441852826,0.5117009669860825,-0.08601323150131103,0.07390820222773443,8.822721816561432e-06,0.07523648313764915,0.052591999629532836,0.06808164537268753,0.13086806234374732,0.05509037316222159,-0.21398676849868895
257,0.33251344441852826,0.5117009669860825,-0.08601323150131103,0.07390820222773443,8.822721816561432e-06,0.07523648313764915,0.052591999629532836,0.06808164537268753,0.13086806234374732,0.05509037316222159,-0.21398676849868895
258,0.33251344441852826,0.5117009669860825,-0.08601323150131103,0.07390820222773443,8.822721816561432e-06,0.07523648313764915,0.052591999629532836,0.06808164537268753,0.13086806234374732,0.05509037316222159,-0.21398676849868895
259,0.33251344441852826,0.5117009669860825,-0.08601323150131103,0.07390820222773443,8.822721816561432e-06,0.07523648313764915,0.052591999629532836,0.06808164537268753,0.13086806234374732,0.05509037316222159,-0.21398676849868895
260,0.33251344441852826,0.5117009669860825,-0.08601323150131103,0.07390820222773443,8.822721816561432e-06,0.07523648313764915,0.052591999629532836,0.06808164537268753,0.13086806234374732,0.05509037316222159,-0.21398676849868895
261,0.33251344441852826,0.5117009669860825,-0.08601323150131103,0.07390820222773443,8.822721816561432e-06,0.07523648313764915,0.052591999629532836,0.06808164537268753,0.13086806234374732,0.05509037316222159,-0.21398676849868895
262,0.33251344441852826,0.5117009669860825,-0.08601323150131103,0.07390820222773443,8.822721816561432e-06,0.07523648313764915,0.052591999629532836,0.06808164537268753,0.13086806234374732,0.05509037316222159,-0.21398676849868895
263,0.33251344441852826,0.5117009669860825,-0.08601323150131103,0.07390820222773443,8.822721816561432e-06,0.07523648313764915,0.052591999629532836,0.06808164537268753,0.13086806234374732,0.05509037316222159,-0.21398676849868895
264,0.33251344441852826,0.5117009669860825,-0.08601323150131103,0.07390820222773443,8.822721816561432e-06,0.07523648313764915,0.052591999629532836,0.06808164537268753,0.13086806234374732,0.05509037316222159,-0.21398676849868895
265,0.33251344441852826,0.5117009669860825,-0.08601323150131103,0.07390820222773443,8.822721816561432e-06,0.07523648313764915,0.052591999629532836,0.06808164537268753,0.13086806234374732,0.05509037316222159,-0.21398676849868895
266,0.33251344441852826,0.5117009669860825,-0.08601323150131103,0.07390820222773443,8.822721816561432e-06,0.07523648313764915,0.052591999629532836,0.06808164537268753,0.13086806234374732,0.05509037316222159,-0.21398676849868895
267,0.33251344441852826,0.5117009669860825,-0.08601323150131103,0.07390820222773443,8.822721816561432e-06,0.07523648313764915,0.052591999629532836,0.06808164537268753,0.13086806234374732,0.05509037316222159,-0.21398676849868895
268,0.33251344441852826,0.5117009669860825,-0.08601323150131103,0.07390820222773443,8.822721816561432e-06,0.07523648313764915,0.052591999629532836,0.06808164537268753,0.13086806234374732,0.05509037316222159,-0.21398676849868895
269,0.33251344441852826,0.5117009669860825,-0.08601323150131103,0.07390820222773443,8.822721816561432e-06,0.07523648313764915,0.052591999629532836,0.06808164537268753,0.13086806234374732,0.05509037316222159,-0.21398676849868895
270,0.33251344441852826,0.5117009669860825,-0.08601323150131103,0.07390820222773443,8.822721816561432e-06,0.07523648313764915,0.052591999629532836,0.06808164537268753,0.13086806234374732,0.05509037316222159,-0.21398676849868895
271,0.33251344441852826,0.5117009669860825,-0.08601323150131103,0.07390820222773443,8.822721816561432e-06,0.07523648313764915,0.052591999629532836,0.06808164537268753,0.13086806234374732,0.05509037316222159,-0.21398676849868895
272,0.33251344441852826,0.5117009669860825,-0.08601323150131103,0.07390820222773443,8.822721816561432e-06,0.07523648313764915,0.052591999629532836,0.06808164537268753,0.13086806234374732,0.05509037316222159,-0.21398676849868895
273,0.3173768421290787,0.06377608012235317,0.14426608955247852,-0.3,0.12567627452847707,0.1373961870776591,0.06282124123298674,0.06521103749435207,0.04764304236491623,0.2470713884270352,0.08876181707066333
274,0.3173768421290787,0.06377608012235317,0.14426608955247852,-0.3,0.12567627452847707,0.1373961870776591,0.06282124123298674,0.06521103749435207,0.04764304236491623,0.2470713884270352,0.08876181707066333
275,0.3173768421290787,0.06377608012235317,0.14426608955247852,-0.3,0.12567627452847707,0.1373961870776591,0.06282124123298674,0.06521103749435207,0.04764304236491623,0.2470713884270352,0.08876181707066333
276,0.3173768421290787,0.06377608012235317,0.14426608955247852,-0.3,0.12567627452847707,0.1373961870776591,0.06282124123298674,0.06521103749435207,0.04764304236491623,0.2470713884270352,0.08876181707066333
277,0.3173768421290787,0.06377608012235317,0.14426608955247852,-0.3,0.12567627452847707,0.1373961870776591,0.06282124123298674,0.06521103749435207,0.04764304236491623,0.2470713884270352,0.08876181707066333
278,0.3173768421290787,0.06377608012235317,0.14426608955247852,-0.3,0.12567627452847707,0.1373961870776591,0.06282124123298674,0.06521103749435207,0.04764304236491623,0.2470713884270352,0.08876181707066333
279,0.3173768421290787,0.06377608012235317,0.14426608955247852,-0.3,0.12567627452847707,0.1373961870776591,0.06282124123298674,0.06521103749435207,0.04764304236491623,0.2470713884270352,0.08876181707066333
280,0.3173768421290787,0.06377608012235317,0.14426608955247852,-0.3,0.12567627452847707,0.1373961870776591,0.06282124123298674,0.06521103749435207,0.04764304236491623,0.2470713884270352,0.08876181707066333
281,0.3173768421290787,0.06377608012235317,0.14426608955247852,-0.3,0.12567627452847707,0.1373961870776591,0.06282124123298674,0.06521103749435207,0.04764304236491623,0.2470713884270352,0.08876181707066333
282,0.3173768421290787,0.06377608012235317,0.14426608955247852,-0.3,0.12567627452847707,0.1373961870776591,0.06282124123298674,0.06521103749435207,0.04764304236491623,0.2470713884270352,0.08876181707066333
283,0.3173768421290787,0.06377608012235317,0.14426608955247852,-0.3,0.12567627452847707,0.1373961870776591,0.06282124123298674,0.06521103749435207,0.04764304236491623,0.2470713884270352,0.08876181707066333
284,0.3173768421290787,0.06377608012235317,0.14426608955247852,-0.3,0.12567627452847707,0.1373961870776591,0.06282124123298674,0.06521103749435207,0.04764304236491623,0.2470713884270352,0.08876181707066333
285,0.3173768421290787,0.06377608012235317,0.14426608955247852,-0.3,0.12567627452847707,0.1373961870776591,0.06282124123298674,0.06521103749435207,0.04764304236491623,0.2470713884270352,0.08876181707066333
286,0.3173768421290787,0.06377608012235317,0.14426608955247852,-0.3,0.12567627452847707,0.1373961870776591,0.06282124123298674,0.06521103749435207,0.04764304236491623,0.2470713884270352,0.08876181707066333
287,0.3173768421290787,0.06377608012235317,0.14426608955247852,-0.3,0.12567627452847707,0.1373961870776591,0.06282124123298674,0.06521103749435207,0.04764304236491623,0.2470713884270352,0.08876181707066333
288,0.3173768421290787,0.06377608012235317,0.14426608955247852,-0.3,0.12567627452847707,0.1373961870776591,0.06282124123298674,0.06521103749435207,0.04764304236491623,0.2470713884270352,0.08876181707066333
289,0.3173768421290787,0.06377608012235317,0.14426608955247852,-0.3,0.12567627452847707,0.1373961870776591,0.06282124123298674,0.06521103749435207,0.04764304236491623,0.2470713884270352,0.08876181707066333
290,0.3173768421290787,0.06377608012235317,0.14426608955247852,-0.3,0.12567627452847707,0.1373961870776591,0.06282124123298674,0.06521103749435207,0.04764304236491623,0.2470713884270352,0.08876181707066333
291,0.3173768421290787,0.06377608012235317,0.14426608955247852,-0.3,0.12567627452847707,0.1373961870776591,0.06282124123298674,0.06521103749435207,0.04764304236491623,0.2470713884270352,0.08876181707066333
292,0.3173768421290787,0.06377608012235317,0.14426608955247852,-0.3,0.12567627452847707,0.1373961870776591,0.06282124123298674,0.06521103749435207,0.04764304236491623,0.2470713884270352,0.08876181707066333
293,0.3173768421290787,0.06377608012235317,0.14426608955247852,-0.3,0.12567627452847707,0.1373961870776591,0.06282124123298674,0.06521103749435207,0.04764304236491623,0.2470713884270352,0.08876181707066333
294,0.3173768421290787,0.06377608012235317,0.14426608955247852,-0.3,0.12567627452847707,0.1373961870776591,0.06282124123298674,0.06521103749435207,0.04764304236491623,0.2470713884270352,0.08876181707066333
295,0.3173768421290787,0.06377608012235317,0.14426608955247852,-0.3,0.12567627452847707,0.1373961870776591,0.06282124123298674,0.06521103749435207,0.04764304236491623,0.2470713884270352,0.08876181707066333
296,0.3173768421290787,0.06377608012235317,0.14426608955247852,-0.3,0.12567627452847707,0.1373961870776591,0.06282124123298674,0.06521103749435207,0.04764304236491623,0.2470713884270352,0.08876181707066333
297,0.3173768421290787,0.06377608012235317,0.14426608955247852,-0.3,0.12567627452847707,0.1373961870776591,0.06282124123298674,0.06521103749435207,0.04764304236491623,0.2470713884270352,0.08876181707066333
298,0.3173768421290787,0.06377608012235317,0.14426608955247852,-0.3,0.12567627452847707,0.1373961870776591,0.06282124123298674,0.06521103749435207,0.04764304236491623,0.2470713884270352,0.08876181707066333
299,0.3173768421290787,0.06377608012235317,0.14426608955247852,-0.3,0.12567627452847707,0.1373961870776591,0.06282124123298674,0.06521103749435207,0.04764304236491623,0.2470713884270352,0.08876181707066333
300,0.3173768421290787,0.06377608012235317,0.14426608955247852,-0.3,0.12567627452847707,0.1373961870776591,0.06282124123298674,0.06521103749435207,0.04764304236491623,0.2470713884270352,0.08876181707066333
301,0.3173768421290787,0.06377608012235317,0.14426608955247852,-0.3,0.12567627452847707,0.1373961870776591,0.06282124123298674,0.06521103749435207,0.04764304236491623,0.2470713884270352,0.08876181707066333
302,0.3173768421290787,0.06377608012235317,0.14426608955247852,-0.3,0.12567627452847707,0.1373961870776591,0.06282124123298674,0.06521103749435207,0.04764304236491623,0.2470713884270352,0.08876181707066333
303,0.3173768421290787,0.06377608012235317,0.14426608955247852,-0.3,0.12567627452847707,0.1373961870776591,0.06282124123298674,0.06521103749435207,0.04764304236491623,0.2470713884270352,0.08876181707066333
304,0.1632653123745758,-0.09499083170759268,-0.08807179130379472,0.7522562288738995,-0.05256803971833418,0.15641352869363195,0.12184717068298663,0.045128748343430565,-0.06436933727027844,0.038814318199449395,0.022274692832026037
305,0.1632653123745758,-0.09499083170759268,-0.08807179130379472,0.7522562288738995,-0.05256803971833418,0.15641352869363195,0.12184717068298663,0.045128748343430565,-0.06436933727027844,0.038814318199449395,0.022274692832026037
306,0.1632653123745758,-0.09499083170759268,-0.08807179130379472,0.7522562288738995,-0.05256803971833418,0.15641352869363195,0.12184717068298663,0.045128748343430565,-0.06436933727027844,0.038814318199449395,0.022274692832026037
307,0.1632653123745758,-0.09499083170759268,-0.08807179130379472,0.7522562288738995,-0.05256803971833418,0.15641352869363195,0.12184717068298663,0.045128748343430565,-0.06436933727027844,0.038814318199449395,0.022274692832026037
308,0.1632653123745758,-0.09499083170759268,-0.08807179130379472,0.7522562288738995,-0.05256803971833418,0.15641352869363195,0.12184717068298663,0.045128748343430565,-0.06436933727027844,0.038814318199449395,0.022274692832026037
309,0.1632653123745758,-0.09499083170759268,-0.08807179130379472,0.7522562288738995,-0.05256803971833418,0.15641352869363195,0.12184717068298663,0.045128748343430565,-0.06436933727027844,0.038814318199449395,0.022274692832026037
310,0.1632653123745758,-0.09499083170759268,-0.08807179130379472,0.7522562288738995,-0.05256803971833418,0.15641352869363195,0.12184717068298663,0.045128748343430565,-0.06436933727027844,0.038814318199449395,0.022274692832026037
311,0.1632653123745758,-0.09499083170759268,-0.08807179130379472,0.7522562288738995,-0.05256803971833418,0.15641352869363195,0.12184717068298663,0.045128748343430565,-0.06436933727027844,0.038814318199449395,0.022274692832026037
312,0.1632653123745758,-0.09499083170759268,-0.08807179130379472,0.7522562288738995,-0.05256803971833418,0.15641352869363195,0.12184717068298663,0.045128748343430565,-0.06436933727027844,0.038814318199449395,0.022274692832026037
313,0.1632653123745758,-0.09499083170759268,-0.08807179130379472,0.7522562288738995,-0.05256803971833418,0.15641352869363195,0.12184717068298663,0.045128748343430565,-0.06436933727027844,0.038814318199449395,0.022274692832026037
314,0.1632653123745758,-0.09499083170759268,-0.08807179130379472,0.7522562288738995,-0.05256803971833418,0.15641352869363195,0.12184717068298663,0.045128748343430565,-0.06436933727027844,0.038814318199449395,0.022274692832026037
315,0.1632653123745758,-0.09499083170759268,-0.08807179130379472,0.7522562288738995,-0.05256803971833418,0.15641352869363195,0.12184717068298663,0.045128748343430565,-0.06436933727027844,0.038814318199449395,0.022274692832026037
316,0.1632653123745758,-0.09499083170759268,-0.08807179130379472,0.7522562288738995,-0.05256803971833418,0.15641352869363195,0.12184717068298663,0.045128748343430565,-0.06436933727027844,0.038814318199449395,0.022274692832026037
317,0.1632653123745758,-0.09499083170759268,-0.08807179130379472,0.7522562288738995,-0.05256803971833418,0.15641352869363195,0.12184717068298663,0.045128748343430565,-0.06436933727027844,0.038814318199449395,0.022274692832026037
318,0.1632653123745758,-0.09499083170759268,-0.08807179130379472,0.7522562288738995,-0.05256803971833418,0.15641352869363195,0.12184717068298663,0.045128748343430565,-0.06436933727027844,0.038814318199449395,0.022274692832026037
319,0.1632653123745758,-0.09499083170759268,-0.08807179130379472,0.7522562288738995,-0.05256803971833418,0.15641352869363195,0.12184717068298663,0.045128748343430565,-0.06436933727027844,0.038814318199449395,0.022274692832026037
320,0.1632653123745758,-0.09499083170759268,-0.08807179130379472,0.7522562288738995,-0.05256803971833418,0.15641352869363195,0.12184717068298663,0.045128748343430565,-0.06436933727027844,0.038814318199449395,0.022274692832026037
321,0.1632653123745758,-0.09499083170759268,-0.08807179130379472,0.7522562288738995,-0.05256803971833418,0.15641352869363195,0.12184717068298663,0.045128748343430565,-0.06436933727027844,0.038814318199449395,0.022274692832026037
322,0.1632653123745758,-0.09499083170759268,-0.08807179130379472,0.7522562288738995,-0.05256803971833418,0.15641352869363195,0.12184717068298663,0.045128748343430565,-0.06436933727027844,0.038814318199449395,0.022274692832026037
323,0.1632653123745758,-0.09499083170759268,-0.08807179130379472,0.7522562288738995,-0.05256803971833418,0.15641352869363195,0.12184717068298663,0.045128748343430565,-0.06436933727027844,0.038814318199449395,0.022274692832026037
324,0.1632653123745758,-0.09499083170759268,-0.08807179130379472,0.7522562288738995,-0.05256803971833418,0.15641352869363195,0.12184717068298663,0.045128748343430565,-0.06436933727027844,0.038814318199449395,0.022274692832026037
325,0.1632653123745758,-0.09499083170759268,-0.08807179130379472,0.7522562288738995,-0.05256803971833418,0.15641352869363195,0.12184717068298663,0.045128748343430565,-0.06436933727027844,0.038814318199449395,0.022274692832026037
326,0.1632653123745758,-0.09499083170759268,-0.08807179130379472,0.7522562288738995,-0.05256803971833418,0.15641352869363195,0.12184717068298663,0.045128748343430565,-0.06436933727027844,0.038814318199449395,0.022274692832026037
327,0.1632653123745758,-0.09499083170759268,-0.08807179130379472,0.7522562288738995,-0.05256803971833418,0.15641352869363195,0.12184717068298663,0.045128748343430565,-0.06436933727027844,0.038814318199449395,0.022274692832026037
328,0.1632653123745758,-0.09499083170759268,-0.08807179130379472,0.7522562288738995,-0.05256803971833418,0.15641352869363195,0.12184717068298663,0.045128748343430565,-0.06436933727027844,0.038814318199449395,0.022274692832026037
329,0.1632653123745758,-0.09499083170759268,-0.08807179130379472,0.7522562288738995,-0.05256803971833418,0.15641352869363195,0.12184717068298663,0.045128748343430565,-0.06436933727027844,0.038814318199449395,0.022274692832026037
330,0.1632653123745758,-0.09499083170759268,-0.08807179130379472,0.7522562288738995,-0.05256803971833418,0.15641352869363195,0.12184717068298663,0.045128748343430565,-0.06436933727027844,0.038814318199449395,0.022274692832026037
331,0.1632653123745758,-0.09499083170759268,-0.08807179130379472,0.7522562288738995,-0.05256803971833418,0.15641352869363195,0.12184717068298663,0.045128748343430565,-0.06436933727027844,0.038814318199449395,0.022274692832026037
332,0.1632653123745758,-0.09499083170759268,-0.08807179130379472,0.7522562288738995,-0.05256803971833418,0.15641352869363195,0.12184717068298663,0.045128748343430565,-0.06436933727027844,0.038814318199449395,0.022274692832026037
333,0.1632653123745758,-0.09499083170759268,-0.08807179130379472,0.7522562288738995,-0.05256803971833418,0.15641352869363195,0.12184717068298663,0.045128748343430565,-0.06436933727027844,0.038814318199449395,0.022274692832026037
334,0.08926849805600237,-0.29999999999999993,0.055149955144333705,0.1042952777166444,0.10944896521741034,0.22211765886524187,0.18014576067187726,0.2904193182799332,0.09968482009100636,0.07413548697754585,0.07533425898000462
335,0.08926849805600237,-0.29999999999999993,0.055149955144333705,0.1042952777166444,0.10944896521741034,0.22211765886524187,0.18014576067187726,0.2904193182799332,0.09968482009100636,0.07413548697754585,0.07533425898000462
336,0.08926849805600237,-0.29999999999999993,0.055149955144333705,0.1042952777166444,0.10944896521741034,0.22211765886524187,0.18014576067187726,0.2904193182799332,0.09968482009100636,0.07413548697754585,0.07533425898000462
337,0.08926849805600237,-0.29999999999999993,0.055149955144333705,0.1042952777166444,0.10944896521741034,0.22211765886524187,0.18014576067187726,0.2904193182799332,0.09968482009100636,0.07413548697754585,0.07533425898000462
338,0.08926849805600237,-0.29999999999999993,0.055149955144333705,0.1042952777166444,0.10944896521741034,0.22211765886524187,0.18014576067187726,0.2904193182799332,0.09968482009100636,0.07413548697754585,0.07533425898000462
339,0.08926849805600237,-0.29999999999999993,0.055149955144333705,0.1042952777166444,0.10944896521741034,0.22211765886524187,0.18014576067187726,0.2904193182799332,0.09968482009100636,0.07413548697754585,0.07533425898000462
340,0.08926849805600237,-0.29999999999999993,0.055149955144333705,0.1042952777166444,0.10944896521741034,0.22211765886524187,0.18014576067187726,0.2904193182799332,0.09968482009100636,0.07413548697754585,0.07533425898000462
341,0.08926849805600237,-0.29999999999999993,0.055149955144333705,0.1042952777166444,0.10944896521741034,0.22211765886524187,0.18014576067187726,0.2904193182799332,0.09968482009100636,0.07413548697754585,0.07533425898000462
342,0.08926849805600237,-0.29999999999999993,0.055149955144333705,0.1042952777166444,0.10944896521741034,0.22211765886524187,0.18014576067187726,0.2904193182799332,0.09968482009100636,0.07413548697754585,0.07533425898000462
343,0.08926849805600237,-0.29999999999999993,0.055149955144333705,0.1042952777166444,0.10944896521741034,0.22211765886524187,0.18014576067187726,0.2904193182799332,0.09968482009100636,0.07413548697754585,0.07533425898000462
344,0.08926849805600237,-0.29999999999999993,0.055149955144333705,0.1042952777166444,0.10944896521741034,0.22211765886524187,0.18014576067187726,0.2904193182799332,0.09968482009100636,0.07413548697754585,0.07533425898000462
345,0.08926849805600237,-0.29999999999999993,0.055149955144333705,0.1042952777166444,0.10944896521741034,0.22211765886524187,0.18014576067187726,0.2904193182799332,0.09968482009100636,0.07413548697754585,0.07533425898000462
346,0.08926849805600237,-0.29999999999999993,0.055149955144333705,0.1042952777166444,0.10944896521741034,0.22211765886524187,0.18014576067187726,0.2904193182799332,0.09968482009100636,0.07413548697754585,0.07533425898000462
347,0.08926849805600237,-0.29999999999999993,0.055149955144333705,0.1042952777166444,0.10944896521741034,0.22211765886524187,0.18014576067187726,0.2904193182799332,0.09968482009100636,0.07413548697754585,0.07533425898000462
348,0.08926849805600237,-0.29999999999999993,0.055149955144333705,0.1042952777166444,0.10944896521741034,0.22211765886524187,0.18014576067187726,0.2904193182799332,0.09968482009100636,0.07413548697754585,0.07533425898000462
349,0.08926849805600237,-0.29999999999999993,0.055149955144333705,0.1042952777166444,0.10944896521741034,0.22211765886524187,0.18014576067187726,0.2904193182799332,0.09968482009100636,0.07413548697754585,0.07533425898000462
350,0.08926849805600237,-0.29999999999999993,0.055149955144333705,0.1042952777166444,0.10944896521741034,0.22211765886524187,0.18014576067187726,0.2904193182799332,0.09968482009100636,0.07413548697754585,0.07533425898000462
351,0.08926849805600237,-0.29999999999999993,0.055149955144333705,0.1042952777166444,0.10944896521741034,0.22211765886524187,0.18014576067187726,0.2904193182799332,0.09968482009100636,0.07413548697754585,0.07533425898000462
352,0.08926849805600237,-0.29999999999999993,0.055149955144333705,0.1042952777166444,0.10944896521741034,0.22211765886524187,0.18014576067187726,0.2904193182799332,0.09968482009100636,0.07413548697754585,0.07533425898000462
353,0.08926849805600237,-0.29999999999999993,0.055149955144333705,0.1042952777166444,0.10944896521741034,0.22211765886524187,0.18014576067187726,0.2904193182799332,0.09968482009100636,0.07413548697754585,0.07533425898000462
354,0.08926849805600237,-0.29999999999999993,0.055149955144333705,0.1042952777166444,0.10944896521741034,0.22211765886524187,0.18014576067187726,0.2904193182799332,0.09968482009100636,0.07413548697754585,0.07533425898000462
355,0.08926849805600237,-0.29999999999999993,0.055149955144333705,0.1042952777166444,0.10944896521741034,0.22211765886524187,0.18014576067187726,0.2904193182799332,0.09968482009100636,0.07413548697754585,0.07533425898000462
356,0.08926849805600237,-0.29999999999999993,0.055149955144333705,0.1042952777166444,0.10944896521741034,0.22211765886524187,0.18014576067187726,0.2904193182799332,0.09968482009100636,0.07413548697754585,0.07533425898000462
357,0.08926849805600237,-0.29999999999999993,0.055149955144333705,0.1042952777166444,0.10944896521741034,0.22211765886524187,0.18014576067187726,0.2904193182799332,0.09968482009100636,0.07413548697754585,0.07533425898000462
358,0.08926849805600237,-0.29999999999999993,0.055149955144333705,0.1042952777166444,0.10944896521741034,0.22211765886524187,0.18014576067187726,0.2904193182799332,0.09968482009100636,0.07413548697754585,0.07533425898000462
359,0.08926849805600237,-0.29999999999999993,0.055149955144333705,0.1042952777166444,0.10944896521741034,0.22211765886524187,0.18014576067187726,0.2904193182799332,0.09968482009100636,0.07413548697754585,0.07533425898000462
360,0.08926849805600237,-0.29999999999999993,0.055149955144333705,0.1042952777166444,0.10944896521741034,0.22211765886524187,0.18014576067187726,0.2904193182799332,0.09968482009100636,0.07413548697754585,0.07533425898000462
361,0.08926849805600237,-0.29999999999999993,0.055149955144333705,0.1042952777166444,0.10944896521741034,0.22211765886524187,0.18014576067187726,0.2904193182799332,0.09968482009100636,0.07413548697754585,0.07533425898000462
362,0.08926849805600237,-0.29999999999999993,0.055149955144333705,0.1042952777166444,0.10944896521741034,0.22211765886524187,0.18014576067187726,0.2904193182799332,0.09968482009100636,0.07413548697754585,0.07533425898000462
363,0.08926849805600237,-0.29999999999999993,0.055149955144333705,0.1042952777166444,0.10944896521741034,0.22211765886524187,0.18014576067187726,0.2904193182799332,0.09968482009100636,0.07413548697754585,0.07533425898000462
364,0.08926849805600237,-0.29999999999999993,0.055149955144333705,0.1042952777166444,0.10944896521741034,0.22211765886524187,0.18014576067187726,0.2904193182799332,0.09968482009100636,0.07413548697754585,0.07533425898000462
365,0.06957735115257134,0.026101230126182796,0.9948161432722844,-0.022198357731439466,0.052278660162380725,0.025697743146493767,0.11034893205986887,0.021179926927254084,1.3152964058540797e-08,-0.10346770653261274,-0.17433393573594771
366,0.06957735115257134,0.026101230126182796,0.9948161432722844,-0.022198357731439466,0.052278660162380725,0.025697743146493767,0.11034893205986887,0.021179926927254084,1.3152964058540797e-08,-0.10346770653261274,-0.17433393573594771
367,0.06957735115257134,0.026101230126182796,0.9948161432722844,-0.022198357731439466,0.052278660162380725,0.025697743146493767,0.11034893205986887,0.021179926927254084,1.3152964058540797e-08,-0.10346770653261274,-0.17433393573594771
368,0.06957735115257134,0.026101230126182796,0.9948161432722844,-0.022198357731439466,0.052278660162380725,0.025697743146493767,0.11034893205986887,0.021179926927254084,1.3152964058540797e-08,-0.10346770653261274,-0.17433393573594771
369,0.06957735115257134,0.026101230126182796,0.9948161432722844,-0.022198357731439466,0.052278660162380725,0.025697743146493767,0.11034893205986887,0.021179926927254084,1.3152964058540797e-08,-0.10346770653261274,-0.17433393573594771
370,0.06957735115257134,0.026101230126182796,0.9948161432722844,-0.022198357731439466,0.052278660162380725,0.025697743146493767,0.11034893205986887,0.021179926927254084,1.3152964058540797e-08,-0.10346770653261274,-0.17433393573594771
371,0.06957735115257134,0.026101230126182796,0.9948161432722844,-0.022198357731439466,0.052278660162380725,0.025697743146493767,0.11034893205986887,0.021179926927254084,1.3152964058540797e-08,-0.10346770653261274,-0.17433393573594771
372,0.06957735115257134,0.026101230126182796,0.9948161432722844,-0.022198357731439466,0.052278660162380725,0.025697743146493767,0.11034893205986887,0.021179926927254084,1.3152964058540797e-08,-0.10346770653261274,-0.17433393573594771
373,0.06957735115257134,0.026101230126182796,0.9948161432722844,-0.022198357731439466,0.052278660162380725,0.025697743146493767,0.11034893205986887,0.021179926927254084,1.3152964058540797e-08,-0.10346770653261274,-0.17433393573594771
374,0.06957735115257134,0.026101230126182796,0.9948161432722844,-0.022198357731439466,0.052278660162380725,0.025697743146493767,0.11034893205986887,0.021179926927254084,1.3152964058540797e-08,-0.10346770653261274,-0.17433393573594771
375,0.06957735115257134,0.026101230126182796,0.9948161432722844,-0.022198357731439466,0.052278660162380725,0.025697743146493767,0.11034893205986887,0.021179926927254084,1.3152964058540797e-08,-0.10346770653261274,-0.17433393573594771
376,0.06957735115257134,0.026101230126182796,0.9948161432722844,-0.022198357731439466,0.052278660162380725,0.025697743146493767,0.11034893205986887,0.021179926927254084,1.3152964058540797e-08,-0.10346770653261274,-0.17433393573594771
377,0.06957735115257134,0.026101230126182796,0.9948161432722844,-0.022198357731439466,0.052278660162380725,0.025697743146493767,0.11034893205986887,0.021179926927254084,1.3152964058540797e-08,-0.10346770653261274,-0.17433393573594771
378,0.06957735115257134,0.026101230126182796,0.9948161432722844,-0.022198357731439466,0.052278660162380725,0.025697743146493767,0.11034893205986887,0.021179926927254084,1.3152964058540797e-08,-0.10346770653261274,-0.17433393573594771
379,0.06957735115257134,0.026101230126182796,0.9948161432722844,-0.022198357731439466,0.052278660162380725,0.025697743146493767,0.11034893205986887,0.021179926927254084,1.3152964058540797e-08,-0.10346770653261274,-0.17433393573594771
380,0.06957735115257134,0.026101230126182796,0.9948161432722844,-0.022198357731439466,0.052278660162380725,0.025697743146493767,0.11034893205986887,0.021179926927254084,1.3152964058540797e-08,-0.10346770653261274,-0.17433393573594771
381,0.06957735115257134,0.026101230126182796,0.9948161432722844,-0.022198357731439466,0.052278660162380725,0.025697743146493767,0.11034893205986887,0.021179926927254084,1.3152964058540797e-08,-0.10346770653261274,-0.17433393573594771
382,0.06957735115257134,0.026101230126182796,0.9948161432722844,-0.022198357731439466,0.052278660162380725,0.025697743146493767,0.11034893205986887,0.021179926927254084,1.3152964058540797e-08,-0.10346770653261274,-0.17433393573594771
383,0.06957735115257134,0.026101230126182796,0.9948161432722844,-0.022198357731439466,0.052278660162380725,0.025697743146493767,0.11034893205986887,0.021179926927254084,1.3152964058540797e-08,-0.10346770653261274,-0.17433393573594771
384,0.06957735115257134,0.026101230126182796,0.9948161432722844,-0.022198357731439466,0.052278660162380725,0.025697743146493767,0.11034893205986887,0.021179926927254084,1.3152964058540797e-08,-0.10346770653261274,-0.17433393573594771
385,0.06957735115257134,0.026101230126182796,0.9948161432722844,-0.022198357731439466,0.052278660162380725,0.025697743146493767,0.11034893205986887,0.021179926927254084,1.3152964058540797e-08,-0.10346770653261274,-0.17433393573594771
386,0.06957735115257134,0.026101230126182796,0.9948161432722844,-0.022198357731439466,0.052278660162380725,0.025697743146493767,0.11034893205986887,0.021179926927254084,1.3152964058540797e-08,-0.10346770653261274,-0.17433393573594771
387,0.06957735115257134,0.026101230126182796,0.9948161432722844,-0.022198357731439466,0.052278660162380725,0.025697743146493767,0.11034893205986887,0.021179926927254084,1.3152964058540797e-08,-0.10346770653261274,-0.17433393573594771
388,0.06957735115257134,0.026101230126182796,0.9948161432722844,-0.022198357731439466,0.052278660162380725,0.025697743146493767,0.11034893205986887,0.021179926927254084,1.3152964058540797e-08,-0.10346770653261274,-0.17433393573594771
389,0.06957735115257134,0.026101230126182796,0.9948161432722844,-0.022198357731439466,0.052278660162380725,0.025697743146493767,0.11034893205986887,0.021179926927254084,1.3152964058540797e-08,-0.10346770653261274,-0.17433393573594771
390,0.06957735115257134,0.026101230126182796,0.9948161432722844,-0.022198357731439466,0.052278660162380725,0.025697743146493767,0.11034893205986887,0.021179926927254084,1.3152964058540797e-08,-0.10346770653261274,-0.17433393573594771
391,0.06957735115257134,0.026101230126182796,0.9948161432722844,-0.022198357731439466,0.052278660162380725,0.025697743146493767,0.11034893205986887,0.021179926927254084,1.3152964058540797e-08,-0.10346770653261274,-0.17433393573594771
392,0.06957735115257134,0.026101230126182796,0.9948161432722844,-0.022198357731439466,0.052278660162380725,0.025697743146493767,0.11034893205986887,0.021179926927254084,1.3152964058540797e-08,-0.10346770653261274,-0.17433393573594771
393,0.06957735115257134,0.026101230126182796,0.9948161432722844,-0.022198357731439466,0.052278660162380725,0.025697743146493767,0.11034893205986887,0.021179926927254084,1.3152964058540797e-08,-0.10346770653261274,-0.17433393573594771
394,0.06957735115257134,0.026101230126182796,0.9948161432722844,-0.022198357731439466,0.052278660162380725,0.025697743146493767,0.11034893205986887,0.021179926927254084,1.3152964058540797e-08,-0.10346770653261274,-0.17433393573594771
395,0.06957735115257134,0.026101230126182796,0.9948161432722844,-0.022198357731439466,0.052278660162380725,0.025697743146493767,0.11034893205986887,0.021179926927254084,1.3152964058540797e-08,-0.10346770653261274,-0.17433393573594771
396,0.023325933461269457,0.00903542866266394,-0.12243639564707386,0.5816815013664789,-0.14275888307228854,0.15944016702145178,0.03202247268778861,0.015051786952450864,0.4794427098478965,-0.025174194393132503,-0.009630526887505092
397,0.023325933461269457,0.00903542866266394,-0.12243639564707386,0.5816815013664789,-0.14275888307228854,0.15944016702145178,0.03202247268778861,0.015051786952450864,0.4794427098478965,-0.025174194393132503,-0.009630526887505092
398,0.023325933461269457,0.00903542866266394,-0.12243639564707386,0.5816815013664789,-0.14275888307228854,0.15944016702145178,0.03202247268778861,0.015051786952450864,0.4794427098478965,-0.025174194393132503,-0.009630526887505092
399,0.023325933461269457,0.00903542866266394,-0.12243639564707386,0.5816815013664789,-0.14275888307228854,0.15944016702145178,0.03202247268778861,0.015051786952450864,0.4794427098478965,-0.025174194393132503,-0.009630526887505092
400,0.023325933461269457,0.00903542866266394,-0.12243639564707386,0.5816815013664789,-0.14275888307228854,0.15944016702145178,0.03202247268778861,0.015051786952450864,0.4794427098478965,-0.025174194393132503,-0.009630526887505092
401,0.023325933461269457,0.00903542866266394,-0.12243639564707386,0.5816815013664789,-0.14275888307228854,0.15944016702145178,0.03202247268778861,0.015051786952450864,0.4794427098478965,-0.025174194393132503,-0.009630526887505092
402,0.023325933461269457,0.00903542866266394,-0.12243639564707386,0.5816815013664789,-0.14275888307228854,0.15944016702145178,0.03202247268778861,0.015051786952450864,0.4794427098478965,-0.025174194393132503,-0.009630526887505092
403,0.023325933461269457,0.00903542866266394,-0.12243639564707386,0.5816815013664789,-0.14275888307228854,0.15944016702145178,0.03202247268778861,0.015051786952450864,0.4794427098478965,-0.025174194393132503,-0.009630526887505092
404,0.023325933461269457,0.00903542866266394,-0.12243639564707386,0.5816815013664789,-0.14275888307228854,0.15944016702145178,0.03202247268778861,0.015051786952450864,0.4794427098478965,-0.025174194393132503,-0.009630526887505092
405,0.023325933461269457,0.00903542866266394,-0.12243639564707386,0.5816815013664789,-0.14275888307228854,0.15944016702145178,0.03202247268778861,0.015051786952450864,0.4794427098478965,-0.025174194393132503,-0.009630526887505092
406,0.023325933461269457,0.00903542866266394,-0.12243639564707386,0.5816815013664789,-0.14275888307228854,0.15944016702145178,0.03202247268778861,0.015051786952450864,0.4794427098478965,-0.025174194393132503,-0.009630526887505092
407,0.023325933461269457,0.00903542866266394,-0.12243639564707386,0.5816815013664789,-0.14275888307228854,0.15944016702145178,0.03202247268778861,0.015051786952450864,0.4794427098478965,-0.025174194393132503,-0.009630526887505092
408,0.023325933461269457,0.00903542866266394,-0.12243639564707386,0.5816815013664789,-0.14275888307228854,0.15944016702145178,0.03202247268778861,0.015051786952450864,0.4794427098478965,-0.025174194393132503,-0.009630526887505092
409,0.023325933461269457,0.00903542866266394,-0.12243639564707386,0.5816815013664789,-0.14275888307228854,0.15944016702145178,0.03202247268778861,0.015051786952450864,0.4794427098478965,-0.025174194393132503,-0.009630526887505092
410,0.023325933461269457,0.00903542866266394,-0.12243639564707386,0.5816815013664789,-0.14275888307228854,0.15944016702145178,0.03202247268778861,0.015051786952450864,0.4794427098478965,-0.025174194393132503,-0.009630526887505092
411,0.023325933461269457,0.00903542866266394,-0.12243639564707386,0.5816815013664789,-0.14275888307228854,0.15944016702145178,0.03202247268778861,0.015051786952450864,0.4794427098478965,-0.025174194393132503,-0.009630526887505092
412,0.023325933461269457,0.00903542866266394,-0.12243639564707386,0.5816815013664789,-0.14275888307228854,0.15944016702145178,0.03202247268778861,0.015051786952450864,0.4794427098478965,-0.025174194393132503,-0.009630526887505092
413,0.023325933461269457,0.00903542866266394,-0.12243639564707386,0.5816815013664789,-0.14275888307228854,0.15944016702145178,0.03202247268778861,0.015051786952450864,0.4794427098478965,-0.025174194393132503,-0.009630526887505092
414,0.023325933461269457,0.00903542866266394,-0.12243639564707386,0.5816815013664789,-0.14275888307228854,0.15944016702145178,0.03202247268778861,0.015051786952450864,0.4794427098478965,-0.025174194393132503,-0.009630526887505092
415,0.023325933461269457,0.00903542866266394,-0.12243639564707386,0.5816815013664789,-0.14275888307228854,0.15944016702145178,0.03202247268778861,0.015051786952450864,0.4794427098478965,-0.025174194393132503,-0.009630526887505092
416,0.023325933461269457,0.00903542866266394,-0.12243639564707386,0.5816815013664789,-0.14275888307228854,0.15944016702145178,0.03202247268778861,0.015051786952450864,0.4794427098478965,-0.025174194393132503,-0.009630526887505092
417,0.023325933461269457,0.00903542866266394,-0.12243639564707386,0.5816815013664789,-0.14275888307228854,0.15944016702145178,0.03202247268778861,0.015051786952450864,0.4794427098478965,-0.025174194393132503,-0.009630526887505092
418,0.023325933461269457,0.00903542866266394,-0.12243639564707386,0.5816815013664789,-0.14275888307228854,0.15944016702145178,0.03202247268778861,0.015051786952450864,0.4794427098478965,-0.025174194393132503,-0.009630526887505092
419,0.023325933461269457,0.00903542866266394,-0.12243639564707386,0.5816815013664789,-0.14275888307228854,0.15944016702145178,0.03202247268778861,0.015051786952450864,0.4794427098478965,-0.025174194393132503,-0.009630526887505092
420,0.023325933461269457,0.00903542866266394,-0.12243639564707386,0.5816815013664789,-0.14275888307228854,0.15944016702145178,0.03202247268778861,0.015051786952450864,0.4794427098478965,-0.025174194393132503,-0.009630526887505092
421,0.023325933461269457,0.00903542866266394,-0.12243639564707386,0.5816815013664789,-0.14275888307228854,0.15944016702145178,0.03202247268778861,0.015051786952450864,0.4794427098478965,-0.025174194393132503,-0.009630526887505092
422,0.023325933461269457,0.00903542866266394,-0.12243639564707386,0.5816815013664789,-0.14275888307228854,0.15944016702145178,0.03202247268778861,0.015051786952450864,0.4794427098478965,-0.025174194393132503,-0.009630526887505092
423,0.023325933461269457,0.00903542866266394,-0.12243639564707386,0.5816815013664789,-0.14275888307228854,0.15944016702145178,0.03202247268778861,0.015051786952450864,0.4794427098478965,-0.025174194393132503,-0.009630526887505092
424,0.07054808371790197,0.040669172073017915,0.07509389835432995,0.05794285732411035,0.07604547932204796,0.0408944845836965,0.04631172950571237,0.04684750514478561,0.08124051558287551,0.19534161696950134,0.26906465742202057
425,0.07054808371790197,0.040669172073017915,0.07509389835432995,0.05794285732411035,0.07604547932204796,0.0408944845836965,0.04631172950571237,0.04684750514478561,0.08124051558287551,0.19534161696950134,0.26906465742202057
426,0.07054808371790197,0.040669172073017915,0.07509389835432995,0.05794285732411035,0.07604547932204796,0.0408944845836965,0.04631172950571237,0.04684750514478561,0.08124051558287551,0.19534161696950134,0.26906465742202057
427,0.07054808371790197,0.040669172073017915,0.07509389835432995,0.05794285732411035,0.07604547932204796,0.0408944845836965,0.04631172950571237,0.04684750514478561,0.08124051558287551,0.19534161696950134,0.26906465742202057
428,0.07054808371790197,0.040669172073017915,0.07509389835432995,0.05794285732411035,0.07604547932204796,0.0408944845836965,0.04631172950571237,0.04684750514478561,0.08124051558287551,0.19534161696950134,0.26906465742202057
429,0.07054808371790197,0.040669172073017915,0.07509389835432995,0.05794285732411035,0.07604547932204796,0.0408944845836965,0.04631172950571237,0.04684750514478561,0.08124051558287551,0.19534161696950134,0.26906465742202057
430,0.07054808371790197,0.040669172073017915,0.07509389835432995,0.05794285732411035,0.07604547932204796,0.0408944845836965,0.04631172950571237,0.04684750514478561,0.08124051558287551,0.19534161696950134,0.26906465742202057
431,0.07054808371790197,0.040669172073017915,0.07509389835432995,0.05794285732411035,0.07604547932204796,0.0408944845836965,0.04631172950571237,0.04684750514478561,0.08124051558287551,0.19534161696950134,0.26906465742202057
432,0.07054808371790197,0.040669172073017915,0.07509389835432995,0.05794285732411035,0.07604547932204796,0.0408944845836965,0.04631172950571237,0.04684750514478561,0.08124051558287551,0.19534161696950134,0.26906465742202057
433,0.07054808371790197,0.040669172073017915,0.07509389835432995,0.05794285732411035,0.07604547932204796,0.0408944845836965,0.04631172950571237,0.04684750514478561,0.08124051558287551,0.19534161696950134,0.26906465742202057
434,0.07054808371790197,0.040669172073017915,0.07509389835432995,0.05794285732411035,0.07604547932204796,0.0408944845836965,0.04631172950571237,0.04684750514478561,0.08124051558287551,0.19534161696950134,0.26906465742202057
435,0.07054808371790197,0.040669172073017915,0.07509389835432995,0.05794285732411035,0.07604547932204796,0.0408944845836965,0.04631172950571237,0.04684750514478561,0.08124051558287551,0.19534161696950134,0.26906465742202057
436,0.07054808371790197,0.040669172073017915,0.07509389835432995,0.05794285732411035,0.07604547932204796,0.0408944845836965,0.04631172950571237,0.04684750514478561,0.08124051558287551,0.19534161696950134,0.26906465742202057
437,0.07054808371790197,0.040669172073017915,0.07509389835432995,0.05794285732411035,0.07604547932204796,0.0408944845836965,0.04631172950571237,0.04684750514478561,0.08124051558287551,0.19534161696950134,0.26906465742202057
438,0.07054808371790197,0.040669172073017915,0.07509389835432995,0.05794285732411035,0.07604547932204796,0.0408944845836965,0.04631172950571237,0.04684750514478561,0.08124051558287551,0.19534161696950134,0.26906465742202057
439,0.07054808371790197,0.040669172073017915,0.07509389835432995,0.05794285732411035,0.07604547932204796,0.0408944845836965,0.04631172950571237,0.04684750514478561,0.08124051558287551,0.19534161696950134,0.26906465742202057
440,0.07054808371790197,0.040669172073017915,0.07509389835432995,0.05794285732411035,0.07604547932204796,0.0408944845836965,0.04631172950571237,0.04684750514478561,0.08124051558287551,0.19534161696950134,0.26906465742202057
