,0,1,2,3,4,5,6,7,8,9,10
0,-0.056475505272217244,0.6980717629440584,0.2081009512028519,0.00011660910652470297,0.06724836043470733,0.07916316395619577,0.07400831012728383,-0.04464032967176418,0.1732908422283779,-0.11596342081339427,-0.08292074424262431
1,-0.056475505272217244,0.6980717629440584,0.2081009512028519,0.00011660910652470297,0.06724836043470733,0.07916316395619577,0.07400831012728383,-0.04464032967176418,0.1732908422283779,-0.11596342081339427,-0.08292074424262431
2,-0.056475505272217244,0.6980717629440584,0.2081009512028519,0.00011660910652470297,0.06724836043470733,0.07916316395619577,0.07400831012728383,-0.04464032967176418,0.1732908422283779,-0.11596342081339427,-0.08292074424262431
3,-0.056475505272217244,0.6980717629440584,0.2081009512028519,0.00011660910652470297,0.06724836043470733,0.07916316395619577,0.07400831012728383,-0.04464032967176418,0.1732908422283779,-0.11596342081339427,-0.08292074424262431
4,-0.056475505272217244,0.6980717629440584,0.2081009512028519,0.00011660910652470297,0.06724836043470733,0.07916316395619577,0.07400831012728383,-0.04464032967176418,0.1732908422283779,-0.11596342081339427,-0.08292074424262431
5,-0.056475505272217244,0.6980717629440584,0.2081009512028519,0.00011660910652470297,0.06724836043470733,0.07916316395619577,0.07400831012728383,-0.04464032967176418,0.1732908422283779,-0.11596342081339427,-0.08292074424262431
6,-0.056475505272217244,0.6980717629440584,0.2081009512028519,0.00011660910652470297,0.06724836043470733,0.07916316395619577,0.07400831012728383,-0.04464032967176418,0.1732908422283779,-0.11596342081339427,-0.08292074424262431
7,-0.056475505272217244,0.6980717629440584,0.2081009512028519,0.00011660910652470297,0.06724836043470733,0.07916316395619577,0.07400831012728383,-0.04464032967176418,0.1732908422283779,-0.11596342081339427,-0.08292074424262431
8,-0.056475505272217244,0.6980717629440584,0.2081009512028519,0.00011660910652470297,0.06724836043470733,0.07916316395619577,0.07400831012728383,-0.04464032967176418,0.1732908422283779,-0.11596342081339427,-0.08292074424262431
9,-0.056475505272217244,0.6980717629440584,0.2081009512028519,0.00011660910652470297,0.06724836043470733,0.07916316395619577,0.07400831012728383,-0.04464032967176418,0.1732908422283779,-0.11596342081339427,-0.08292074424262431
10,-0.056475505272217244,0.6980717629440584,0.2081009512028519,0.00011660910652470297,0.06724836043470733,0.07916316395619577,0.07400831012728383,-0.04464032967176418,0.1732908422283779,-0.11596342081339427,-0.08292074424262431
11,-0.056475505272217244,0.6980717629440584,0.2081009512028519,0.00011660910652470297,0.06724836043470733,0.07916316395619577,0.07400831012728383,-0.04464032967176418,0.1732908422283779,-0.11596342081339427,-0.08292074424262431
12,-0.056475505272217244,0.6980717629440584,0.2081009512028519,0.00011660910652470297,0.06724836043470733,0.07916316395619577,0.07400831012728383,-0.04464032967176418,0.1732908422283779,-0.11596342081339427,-0.08292074424262431
13,-0.056475505272217244,0.6980717629440584,0.2081009512028519,0.00011660910652470297,0.06724836043470733,0.07916316395619577,0.07400831012728383,-0.04464032967176418,0.1732908422283779,-0.11596342081339427,-0.08292074424262431
14,-0.056475505272217244,0.6980717629440584,0.2081009512028519,0.00011660910652470297,0.06724836043470733,0.07916316395619577,0.07400831012728383,-0.04464032967176418,0.1732908422283779,-0.11596342081339427,-0.08292074424262431
15,-0.056475505272217244,0.6980717629440584,0.2081009512028519,0.00011660910652470297,0.06724836043470733,0.07916316395619577,0.07400831012728383,-0.04464032967176418,0.1732908422283779,-0.11596342081339427,-0.08292074424262431
16,-0.056475505272217244,0.6980717629440584,0.2081009512028519,0.00011660910652470297,0.06724836043470733,0.07916316395619577,0.07400831012728383,-0.04464032967176418,0.1732908422283779,-0.11596342081339427,-0.08292074424262431
17,-0.056475505272217244,0.6980717629440584,0.2081009512028519,0.00011660910652470297,0.06724836043470733,0.07916316395619577,0.07400831012728383,-0.04464032967176418,0.1732908422283779,-0.11596342081339427,-0.08292074424262431
18,-0.056475505272217244,0.6980717629440584,0.2081009512028519,0.00011660910652470297,0.06724836043470733,0.07916316395619577,0.07400831012728383,-0.04464032967176418,0.1732908422283779,-0.11596342081339427,-0.08292074424262431
19,-0.056475505272217244,0.6980717629440584,0.2081009512028519,0.00011660910652470297,0.06724836043470733,0.07916316395619577,0.07400831012728383,-0.04464032967176418,0.1732908422283779,-0.11596342081339427,-0.08292074424262431
20,-0.056475505272217244,0.6980717629440584,0.2081009512028519,0.00011660910652470297,0.06724836043470733,0.07916316395619577,0.07400831012728383,-0.04464032967176418,0.1732908422283779,-0.11596342081339427,-0.08292074424262431
21,-0.056475505272217244,0.6980717629440584,0.2081009512028519,0.00011660910652470297,0.06724836043470733,0.07916316395619577,0.07400831012728383,-0.04464032967176418,0.1732908422283779,-0.11596342081339427,-0.08292074424262431
22,-0.056475505272217244,0.6980717629440584,0.2081009512028519,0.00011660910652470297,0.06724836043470733,0.07916316395619577,0.07400831012728383,-0.04464032967176418,0.1732908422283779,-0.11596342081339427,-0.08292074424262431
23,-0.056475505272217244,0.6980717629440584,0.2081009512028519,0.00011660910652470297,0.06724836043470733,0.07916316395619577,0.07400831012728383,-0.04464032967176418,0.1732908422283779,-0.11596342081339427,-0.08292074424262431
24,-0.056475505272217244,0.6980717629440584,0.2081009512028519,0.00011660910652470297,0.06724836043470733,0.07916316395619577,0.07400831012728383,-0.04464032967176418,0.1732908422283779,-0.11596342081339427,-0.08292074424262431
25,-0.056475505272217244,0.6980717629440584,0.2081009512028519,0.00011660910652470297,0.06724836043470733,0.07916316395619577,0.07400831012728383,-0.04464032967176418,0.1732908422283779,-0.11596342081339427,-0.08292074424262431
26,-0.056475505272217244,0.6980717629440584,0.2081009512028519,0.00011660910652470297,0.06724836043470733,0.07916316395619577,0.07400831012728383,-0.04464032967176418,0.1732908422283779,-0.11596342081339427,-0.08292074424262431
27,-0.056475505272217244,0.6980717629440584,0.2081009512028519,0.00011660910652470297,0.06724836043470733,0.07916316395619577,0.07400831012728383,-0.04464032967176418,0.1732908422283779,-0.11596342081339427,-0.08292074424262431
28,-0.056475505272217244,0.6980717629440584,0.2081009512028519,0.00011660910652470297,0.06724836043470733,0.07916316395619577,0.07400831012728383,-0.04464032967176418,0.1732908422283779,-0.11596342081339427,-0.08292074424262431
29,-0.056475505272217244,0.6980717629440584,0.2081009512028519,0.00011660910652470297,0.06724836043470733,0.07916316395619577,0.07400831012728383,-0.04464032967176418,0.1732908422283779,-0.11596342081339427,-0.08292074424262431
30,-0.056475505272217244,0.6980717629440584,0.2081009512028519,0.00011660910652470297,0.06724836043470733,0.07916316395619577,0.07400831012728383,-0.04464032967176418,0.1732908422283779,-0.11596342081339427,-0.08292074424262431
31,0.17038717550904514,0.08274788306976648,-0.07541707365711929,0.1968823775373318,-0.22458292634288074,0.13701026038894126,0.21420145255965958,0.05932180373002136,0.12748413168619882,0.266238695068823,0.04572622045021269
32,0.17038717550904514,0.08274788306976648,-0.07541707365711929,0.1968823775373318,-0.22458292634288074,0.13701026038894126,0.21420145255965958,0.05932180373002136,0.12748413168619882,0.266238695068823,0.04572622045021269
33,0.17038717550904514,0.08274788306976648,-0.07541707365711929,0.1968823775373318,-0.22458292634288074,0.13701026038894126,0.21420145255965958,0.05932180373002136,0.12748413168619882,0.266238695068823,0.04572622045021269
34,0.17038717550904514,0.08274788306976648,-0.07541707365711929,0.1968823775373318,-0.22458292634288074,0.13701026038894126,0.21420145255965958,0.05932180373002136,0.12748413168619882,0.266238695068823,0.04572622045021269
35,0.17038717550904514,0.08274788306976648,-0.07541707365711929,0.1968823775373318,-0.22458292634288074,0.13701026038894126,0.21420145255965958,0.05932180373002136,0.12748413168619882,0.266238695068823,0.04572622045021269
36,0.17038717550904514,0.08274788306976648,-0.07541707365711929,0.1968823775373318,-0.22458292634288074,0.13701026038894126,0.21420145255965958,0.05932180373002136,0.12748413168619882,0.266238695068823,0.04572622045021269
37,0.17038717550904514,0.08274788306976648,-0.07541707365711929,0.1968823775373318,-0.22458292634288074,0.13701026038894126,0.21420145255965958,0.05932180373002136,0.12748413168619882,0.266238695068823,0.04572622045021269
38,0.17038717550904514,0.08274788306976648,-0.07541707365711929,0.1968823775373318,-0.22458292634288074,0.13701026038894126,0.21420145255965958,0.05932180373002136,0.12748413168619882,0.266238695068823,0.04572622045021269
39,0.17038717550904514,0.08274788306976648,-0.07541707365711929,0.1968823775373318,-0.22458292634288074,0.13701026038894126,0.21420145255965958,0.05932180373002136,0.12748413168619882,0.266238695068823,0.04572622045021269
40,0.17038717550904514,0.08274788306976648,-0.07541707365711929,0.1968823775373318,-0.22458292634288074,0.13701026038894126,0.21420145255965958,0.05932180373002136,0.12748413168619882,0.266238695068823,0.04572622045021269
41,0.17038717550904514,0.08274788306976648,-0.07541707365711929,0.1968823775373318,-0.22458292634288074,0.13701026038894126,0.21420145255965958,0.05932180373002136,0.12748413168619882,0.266238695068823,0.04572622045021269
42,0.17038717550904514,0.08274788306976648,-0.07541707365711929,0.1968823775373318,-0.22458292634288074,0.13701026038894126,0.21420145255965958,0.05932180373002136,0.12748413168619882,0.266238695068823,0.04572622045021269
43,0.17038717550904514,0.08274788306976648,-0.07541707365711929,0.1968823775373318,-0.22458292634288074,0.13701026038894126,0.21420145255965958,0.05932180373002136,0.12748413168619882,0.266238695068823,0.04572622045021269
44,0.17038717550904514,0.08274788306976648,-0.07541707365711929,0.1968823775373318,-0.22458292634288074,0.13701026038894126,0.21420145255965958,0.05932180373002136,0.12748413168619882,0.266238695068823,0.04572622045021269
45,0.17038717550904514,0.08274788306976648,-0.07541707365711929,0.1968823775373318,-0.22458292634288074,0.13701026038894126,0.21420145255965958,0.05932180373002136,0.12748413168619882,0.266238695068823,0.04572622045021269
46,0.17038717550904514,0.08274788306976648,-0.07541707365711929,0.1968823775373318,-0.22458292634288074,0.13701026038894126,0.21420145255965958,0.05932180373002136,0.12748413168619882,0.266238695068823,0.04572622045021269
47,0.17038717550904514,0.08274788306976648,-0.07541707365711929,0.1968823775373318,-0.22458292634288074,0.13701026038894126,0.21420145255965958,0.05932180373002136,0.12748413168619882,0.266238695068823,0.04572622045021269
48,0.17038717550904514,0.08274788306976648,-0.07541707365711929,0.1968823775373318,-0.22458292634288074,0.13701026038894126,0.21420145255965958,0.05932180373002136,0.12748413168619882,0.266238695068823,0.04572622045021269
49,0.17038717550904514,0.08274788306976648,-0.07541707365711929,0.1968823775373318,-0.22458292634288074,0.13701026038894126,0.21420145255965958,0.05932180373002136,0.12748413168619882,0.266238695068823,0.04572622045021269
50,0.17038717550904514,0.08274788306976648,-0.07541707365711929,0.1968823775373318,-0.22458292634288074,0.13701026038894126,0.21420145255965958,0.05932180373002136,0.12748413168619882,0.266238695068823,0.04572622045021269
51,0.17038717550904514,0.08274788306976648,-0.07541707365711929,0.1968823775373318,-0.22458292634288074,0.13701026038894126,0.21420145255965958,0.05932180373002136,0.12748413168619882,0.266238695068823,0.04572622045021269
52,0.17038717550904514,0.08274788306976648,-0.07541707365711929,0.1968823775373318,-0.22458292634288074,0.13701026038894126,0.21420145255965958,0.05932180373002136,0.12748413168619882,0.266238695068823,0.04572622045021269
53,0.17038717550904514,0.08274788306976648,-0.07541707365711929,0.1968823775373318,-0.22458292634288074,0.13701026038894126,0.21420145255965958,0.05932180373002136,0.12748413168619882,0.266238695068823,0.04572622045021269
54,0.17038717550904514,0.08274788306976648,-0.07541707365711929,0.1968823775373318,-0.22458292634288074,0.13701026038894126,0.21420145255965958,0.05932180373002136,0.12748413168619882,0.266238695068823,0.04572622045021269
55,0.17038717550904514,0.08274788306976648,-0.07541707365711929,0.1968823775373318,-0.22458292634288074,0.13701026038894126,0.21420145255965958,0.05932180373002136,0.12748413168619882,0.266238695068823,0.04572622045021269
56,0.17038717550904514,0.08274788306976648,-0.07541707365711929,0.1968823775373318,-0.22458292634288074,0.13701026038894126,0.21420145255965958,0.05932180373002136,0.12748413168619882,0.266238695068823,0.04572622045021269
57,0.17038717550904514,0.08274788306976648,-0.07541707365711929,0.1968823775373318,-0.22458292634288074,0.13701026038894126,0.21420145255965958,0.05932180373002136,0.12748413168619882,0.266238695068823,0.04572622045021269
58,0.17038717550904514,0.08274788306976648,-0.07541707365711929,0.1968823775373318,-0.22458292634288074,0.13701026038894126,0.21420145255965958,0.05932180373002136,0.12748413168619882,0.266238695068823,0.04572622045021269
59,0.0631422792226657,0.46109519927734677,0.3416349979285539,0.1474993757943498,0.0666103349463632,0.06854083761376145,0.0944411563937672,0.05703581882319181,-0.1838908281522461,-0.06978303285952488,-0.04632613898822887
60,0.0631422792226657,0.46109519927734677,0.3416349979285539,0.1474993757943498,0.0666103349463632,0.06854083761376145,0.0944411563937672,0.05703581882319181,-0.1838908281522461,-0.06978303285952488,-0.04632613898822887
61,0.0631422792226657,0.46109519927734677,0.3416349979285539,0.1474993757943498,0.0666103349463632,0.06854083761376145,0.0944411563937672,0.05703581882319181,-0.1838908281522461,-0.06978303285952488,-0.04632613898822887
62,0.0631422792226657,0.46109519927734677,0.3416349979285539,0.1474993757943498,0.0666103349463632,0.06854083761376145,0.0944411563937672,0.05703581882319181,-0.1838908281522461,-0.06978303285952488,-0.04632613898822887
63,0.0631422792226657,0.46109519927734677,0.3416349979285539,0.1474993757943498,0.0666103349463632,0.06854083761376145,0.0944411563937672,0.05703581882319181,-0.1838908281522461,-0.06978303285952488,-0.04632613898822887
64,0.0631422792226657,0.46109519927734677,0.3416349979285539,0.1474993757943498,0.0666103349463632,0.06854083761376145,0.0944411563937672,0.05703581882319181,-0.1838908281522461,-0.06978303285952488,-0.04632613898822887
65,0.0631422792226657,0.46109519927734677,0.3416349979285539,0.1474993757943498,0.0666103349463632,0.06854083761376145,0.0944411563937672,0.05703581882319181,-0.1838908281522461,-0.06978303285952488,-0.04632613898822887
66,0.0631422792226657,0.46109519927734677,0.3416349979285539,0.1474993757943498,0.0666103349463632,0.06854083761376145,0.0944411563937672,0.05703581882319181,-0.1838908281522461,-0.06978303285952488,-0.04632613898822887
67,0.0631422792226657,0.46109519927734677,0.3416349979285539,0.1474993757943498,0.0666103349463632,0.06854083761376145,0.0944411563937672,0.05703581882319181,-0.1838908281522461,-0.06978303285952488,-0.04632613898822887
68,0.0631422792226657,0.46109519927734677,0.3416349979285539,0.1474993757943498,0.0666103349463632,0.06854083761376145,0.0944411563937672,0.05703581882319181,-0.1838908281522461,-0.06978303285952488,-0.04632613898822887
69,0.0631422792226657,0.46109519927734677,0.3416349979285539,0.1474993757943498,0.0666103349463632,0.06854083761376145,0.0944411563937672,0.05703581882319181,-0.1838908281522461,-0.06978303285952488,-0.04632613898822887
70,0.0631422792226657,0.46109519927734677,0.3416349979285539,0.1474993757943498,0.0666103349463632,0.06854083761376145,0.0944411563937672,0.05703581882319181,-0.1838908281522461,-0.06978303285952488,-0.04632613898822887
71,0.0631422792226657,0.46109519927734677,0.3416349979285539,0.1474993757943498,0.0666103349463632,0.06854083761376145,0.0944411563937672,0.05703581882319181,-0.1838908281522461,-0.06978303285952488,-0.04632613898822887
72,0.0631422792226657,0.46109519927734677,0.3416349979285539,0.1474993757943498,0.0666103349463632,0.06854083761376145,0.0944411563937672,0.05703581882319181,-0.1838908281522461,-0.06978303285952488,-0.04632613898822887
73,0.0631422792226657,0.46109519927734677,0.3416349979285539,0.1474993757943498,0.0666103349463632,0.06854083761376145,0.0944411563937672,0.05703581882319181,-0.1838908281522461,-0.06978303285952488,-0.04632613898822887
74,0.0631422792226657,0.46109519927734677,0.3416349979285539,0.1474993757943498,0.0666103349463632,0.06854083761376145,0.0944411563937672,0.05703581882319181,-0.1838908281522461,-0.06978303285952488,-0.04632613898822887
75,0.0631422792226657,0.46109519927734677,0.3416349979285539,0.1474993757943498,0.0666103349463632,0.06854083761376145,0.0944411563937672,0.05703581882319181,-0.1838908281522461,-0.06978303285952488,-0.04632613898822887
76,0.0631422792226657,0.46109519927734677,0.3416349979285539,0.1474993757943498,0.0666103349463632,0.06854083761376145,0.0944411563937672,0.05703581882319181,-0.1838908281522461,-0.06978303285952488,-0.04632613898822887
77,0.0631422792226657,0.46109519927734677,0.3416349979285539,0.1474993757943498,0.0666103349463632,0.06854083761376145,0.0944411563937672,0.05703581882319181,-0.1838908281522461,-0.06978303285952488,-0.04632613898822887
78,0.0631422792226657,0.46109519927734677,0.3416349979285539,0.1474993757943498,0.0666103349463632,0.06854083761376145,0.0944411563937672,0.05703581882319181,-0.1838908281522461,-0.06978303285952488,-0.04632613898822887
79,0.0631422792226657,0.46109519927734677,0.3416349979285539,0.1474993757943498,0.0666103349463632,0.06854083761376145,0.0944411563937672,0.05703581882319181,-0.1838908281522461,-0.06978303285952488,-0.04632613898822887
80,0.0631422792226657,0.46109519927734677,0.3416349979285539,0.1474993757943498,0.0666103349463632,0.06854083761376145,0.0944411563937672,0.05703581882319181,-0.1838908281522461,-0.06978303285952488,-0.04632613898822887
81,0.0631422792226657,0.46109519927734677,0.3416349979285539,0.1474993757943498,0.0666103349463632,0.06854083761376145,0.0944411563937672,0.05703581882319181,-0.1838908281522461,-0.06978303285952488,-0.04632613898822887
82,0.0631422792226657,0.46109519927734677,0.3416349979285539,0.1474993757943498,0.0666103349463632,0.06854083761376145,0.0944411563937672,0.05703581882319181,-0.1838908281522461,-0.06978303285952488,-0.04632613898822887
83,0.0631422792226657,0.46109519927734677,0.3416349979285539,0.1474993757943498,0.0666103349463632,0.06854083761376145,0.0944411563937672,0.05703581882319181,-0.1838908281522461,-0.06978303285952488,-0.04632613898822887
84,0.0631422792226657,0.46109519927734677,0.3416349979285539,0.1474993757943498,0.0666103349463632,0.06854083761376145,0.0944411563937672,0.05703581882319181,-0.1838908281522461,-0.06978303285952488,-0.04632613898822887
85,0.0631422792226657,0.46109519927734677,0.3416349979285539,0.1474993757943498,0.0666103349463632,0.06854083761376145,0.0944411563937672,0.05703581882319181,-0.1838908281522461,-0.06978303285952488,-0.04632613898822887
86,0.0631422792226657,0.46109519927734677,0.3416349979285539,0.1474993757943498,0.0666103349463632,0.06854083761376145,0.0944411563937672,0.05703581882319181,-0.1838908281522461,-0.06978303285952488,-0.04632613898822887
87,0.0631422792226657,0.46109519927734677,0.3416349979285539,0.1474993757943498,0.0666103349463632,0.06854083761376145,0.0944411563937672,0.05703581882319181,-0.1838908281522461,-0.06978303285952488,-0.04632613898822887
88,0.0631422792226657,0.46109519927734677,0.3416349979285539,0.1474993757943498,0.0666103349463632,0.06854083761376145,0.0944411563937672,0.05703581882319181,-0.1838908281522461,-0.06978303285952488,-0.04632613898822887
89,0.0631422792226657,0.46109519927734677,0.3416349979285539,0.1474993757943498,0.0666103349463632,0.06854083761376145,0.0944411563937672,0.05703581882319181,-0.1838908281522461,-0.06978303285952488,-0.04632613898822887
90,0.044813748830591575,0.07921910046961714,0.11347940081865573,0.4055847449714446,0.0259355841615262,0.04683868194143408,0.045609475810832266,0.028668088812865523,0.042183623176254674,0.4676675510068062,-0.3000000000000279
91,0.044813748830591575,0.07921910046961714,0.11347940081865573,0.4055847449714446,0.0259355841615262,0.04683868194143408,0.045609475810832266,0.028668088812865523,0.042183623176254674,0.4676675510068062,-0.3000000000000279
92,0.044813748830591575,0.07921910046961714,0.11347940081865573,0.4055847449714446,0.0259355841615262,0.04683868194143408,0.045609475810832266,0.028668088812865523,0.042183623176254674,0.4676675510068062,-0.3000000000000279
93,0.044813748830591575,0.07921910046961714,0.11347940081865573,0.4055847449714446,0.0259355841615262,0.04683868194143408,0.045609475810832266,0.028668088812865523,0.042183623176254674,0.4676675510068062,-0.3000000000000279
94,0.044813748830591575,0.07921910046961714,0.11347940081865573,0.4055847449714446,0.0259355841615262,0.04683868194143408,0.045609475810832266,0.028668088812865523,0.042183623176254674,0.4676675510068062,-0.3000000000000279
95,0.044813748830591575,0.07921910046961714,0.11347940081865573,0.4055847449714446,0.0259355841615262,0.04683868194143408,0.045609475810832266,0.028668088812865523,0.042183623176254674,0.4676675510068062,-0.3000000000000279
96,0.044813748830591575,0.07921910046961714,0.11347940081865573,0.4055847449714446,0.0259355841615262,0.04683868194143408,0.045609475810832266,0.028668088812865523,0.042183623176254674,0.4676675510068062,-0.3000000000000279
97,0.044813748830591575,0.07921910046961714,0.11347940081865573,0.4055847449714446,0.0259355841615262,0.04683868194143408,0.045609475810832266,0.028668088812865523,0.042183623176254674,0.4676675510068062,-0.3000000000000279
98,0.044813748830591575,0.07921910046961714,0.11347940081865573,0.4055847449714446,0.0259355841615262,0.04683868194143408,0.045609475810832266,0.028668088812865523,0.042183623176254674,0.4676675510068062,-0.3000000000000279
99,0.044813748830591575,0.07921910046961714,0.11347940081865573,0.4055847449714446,0.0259355841615262,0.04683868194143408,0.045609475810832266,0.028668088812865523,0.042183623176254674,0.4676675510068062,-0.3000000000000279
100,0.044813748830591575,0.07921910046961714,0.11347940081865573,0.4055847449714446,0.0259355841615262,0.04683868194143408,0.045609475810832266,0.028668088812865523,0.042183623176254674,0.4676675510068062,-0.3000000000000279
101,0.044813748830591575,0.07921910046961714,0.11347940081865573,0.4055847449714446,0.0259355841615262,0.04683868194143408,0.045609475810832266,0.028668088812865523,0.042183623176254674,0.4676675510068062,-0.3000000000000279
102,0.044813748830591575,0.07921910046961714,0.11347940081865573,0.4055847449714446,0.0259355841615262,0.04683868194143408,0.045609475810832266,0.028668088812865523,0.042183623176254674,0.4676675510068062,-0.3000000000000279
103,0.044813748830591575,0.07921910046961714,0.11347940081865573,0.4055847449714446,0.0259355841615262,0.04683868194143408,0.045609475810832266,0.028668088812865523,0.042183623176254674,0.4676675510068062,-0.3000000000000279
104,0.044813748830591575,0.07921910046961714,0.11347940081865573,0.4055847449714446,0.0259355841615262,0.04683868194143408,0.045609475810832266,0.028668088812865523,0.042183623176254674,0.4676675510068062,-0.3000000000000279
105,0.044813748830591575,0.07921910046961714,0.11347940081865573,0.4055847449714446,0.0259355841615262,0.04683868194143408,0.045609475810832266,0.028668088812865523,0.042183623176254674,0.4676675510068062,-0.3000000000000279
106,0.044813748830591575,0.07921910046961714,0.11347940081865573,0.4055847449714446,0.0259355841615262,0.04683868194143408,0.045609475810832266,0.028668088812865523,0.042183623176254674,0.4676675510068062,-0.3000000000000279
107,0.044813748830591575,0.07921910046961714,0.11347940081865573,0.4055847449714446,0.0259355841615262,0.04683868194143408,0.045609475810832266,0.028668088812865523,0.042183623176254674,0.4676675510068062,-0.3000000000000279
108,0.044813748830591575,0.07921910046961714,0.11347940081865573,0.4055847449714446,0.0259355841615262,0.04683868194143408,0.045609475810832266,0.028668088812865523,0.042183623176254674,0.4676675510068062,-0.3000000000000279
109,0.044813748830591575,0.07921910046961714,0.11347940081865573,0.4055847449714446,0.0259355841615262,0.04683868194143408,0.045609475810832266,0.028668088812865523,0.042183623176254674,0.4676675510068062,-0.3000000000000279
110,0.044813748830591575,0.07921910046961714,0.11347940081865573,0.4055847449714446,0.0259355841615262,0.04683868194143408,0.045609475810832266,0.028668088812865523,0.042183623176254674,0.4676675510068062,-0.3000000000000279
111,0.044813748830591575,0.07921910046961714,0.11347940081865573,0.4055847449714446,0.0259355841615262,0.04683868194143408,0.045609475810832266,0.028668088812865523,0.042183623176254674,0.4676675510068062,-0.3000000000000279
112,0.044813748830591575,0.07921910046961714,0.11347940081865573,0.4055847449714446,0.0259355841615262,0.04683868194143408,0.045609475810832266,0.028668088812865523,0.042183623176254674,0.4676675510068062,-0.3000000000000279
113,0.044813748830591575,0.07921910046961714,0.11347940081865573,0.4055847449714446,0.0259355841615262,0.04683868194143408,0.045609475810832266,0.028668088812865523,0.042183623176254674,0.4676675510068062,-0.3000000000000279
114,0.044813748830591575,0.07921910046961714,0.11347940081865573,0.4055847449714446,0.0259355841615262,0.04683868194143408,0.045609475810832266,0.028668088812865523,0.042183623176254674,0.4676675510068062,-0.3000000000000279
115,0.044813748830591575,0.07921910046961714,0.11347940081865573,0.4055847449714446,0.0259355841615262,0.04683868194143408,0.045609475810832266,0.028668088812865523,0.042183623176254674,0.4676675510068062,-0.3000000000000279
116,0.044813748830591575,0.07921910046961714,0.11347940081865573,0.4055847449714446,0.0259355841615262,0.04683868194143408,0.045609475810832266,0.028668088812865523,0.042183623176254674,0.4676675510068062,-0.3000000000000279
117,0.044813748830591575,0.07921910046961714,0.11347940081865573,0.4055847449714446,0.0259355841615262,0.04683868194143408,0.045609475810832266,0.028668088812865523,0.042183623176254674,0.4676675510068062,-0.3000000000000279
118,0.044813748830591575,0.07921910046961714,0.11347940081865573,0.4055847449714446,0.0259355841615262,0.04683868194143408,0.045609475810832266,0.028668088812865523,0.042183623176254674,0.4676675510068062,-0.3000000000000279
119,0.044813748830591575,0.07921910046961714,0.11347940081865573,0.4055847449714446,0.0259355841615262,0.04683868194143408,0.045609475810832266,0.028668088812865523,0.042183623176254674,0.4676675510068062,-0.3000000000000279
120,0.06461334001582357,0.4519769277998451,-0.0722255487744665,0.05999253777458304,-0.03268013602683502,-0.07567364904810951,0.5553100177941533,0.07533823536302917,0.0927689412525657,-0.05398092778153572,-0.06543973836905326
121,0.06461334001582357,0.4519769277998451,-0.0722255487744665,0.05999253777458304,-0.03268013602683502,-0.07567364904810951,0.5553100177941533,0.07533823536302917,0.0927689412525657,-0.05398092778153572,-0.06543973836905326
122,0.06461334001582357,0.4519769277998451,-0.0722255487744665,0.05999253777458304,-0.03268013602683502,-0.07567364904810951,0.5553100177941533,0.07533823536302917,0.0927689412525657,-0.05398092778153572,-0.06543973836905326
123,0.06461334001582357,0.4519769277998451,-0.0722255487744665,0.05999253777458304,-0.03268013602683502,-0.07567364904810951,0.5553100177941533,0.07533823536302917,0.0927689412525657,-0.05398092778153572,-0.06543973836905326
124,0.06461334001582357,0.4519769277998451,-0.0722255487744665,0.05999253777458304,-0.03268013602683502,-0.07567364904810951,0.5553100177941533,0.07533823536302917,0.0927689412525657,-0.05398092778153572,-0.06543973836905326
125,0.06461334001582357,0.4519769277998451,-0.0722255487744665,0.05999253777458304,-0.03268013602683502,-0.07567364904810951,0.5553100177941533,0.07533823536302917,0.0927689412525657,-0.05398092778153572,-0.06543973836905326
126,0.06461334001582357,0.4519769277998451,-0.0722255487744665,0.05999253777458304,-0.03268013602683502,-0.07567364904810951,0.5553100177941533,0.07533823536302917,0.0927689412525657,-0.05398092778153572,-0.06543973836905326
127,0.06461334001582357,0.4519769277998451,-0.0722255487744665,0.05999253777458304,-0.03268013602683502,-0.07567364904810951,0.5553100177941533,0.07533823536302917,0.0927689412525657,-0.05398092778153572,-0.06543973836905326
128,0.06461334001582357,0.4519769277998451,-0.0722255487744665,0.05999253777458304,-0.03268013602683502,-0.07567364904810951,0.5553100177941533,0.07533823536302917,0.0927689412525657,-0.05398092778153572,-0.06543973836905326
129,0.06461334001582357,0.4519769277998451,-0.0722255487744665,0.05999253777458304,-0.03268013602683502,-0.07567364904810951,0.5553100177941533,0.07533823536302917,0.0927689412525657,-0.05398092778153572,-0.06543973836905326
130,0.06461334001582357,0.4519769277998451,-0.0722255487744665,0.05999253777458304,-0.03268013602683502,-0.07567364904810951,0.5553100177941533,0.07533823536302917,0.0927689412525657,-0.05398092778153572,-0.06543973836905326
131,0.06461334001582357,0.4519769277998451,-0.0722255487744665,0.05999253777458304,-0.03268013602683502,-0.07567364904810951,0.5553100177941533,0.07533823536302917,0.0927689412525657,-0.05398092778153572,-0.06543973836905326
132,0.06461334001582357,0.4519769277998451,-0.0722255487744665,0.05999253777458304,-0.03268013602683502,-0.07567364904810951,0.5553100177941533,0.07533823536302917,0.0927689412525657,-0.05398092778153572,-0.06543973836905326
133,0.06461334001582357,0.4519769277998451,-0.0722255487744665,0.05999253777458304,-0.03268013602683502,-0.07567364904810951,0.5553100177941533,0.07533823536302917,0.0927689412525657,-0.05398092778153572,-0.06543973836905326
134,0.06461334001582357,0.4519769277998451,-0.0722255487744665,0.05999253777458304,-0.03268013602683502,-0.07567364904810951,0.5553100177941533,0.07533823536302917,0.0927689412525657,-0.05398092778153572,-0.06543973836905326
135,0.06461334001582357,0.4519769277998451,-0.0722255487744665,0.05999253777458304,-0.03268013602683502,-0.07567364904810951,0.5553100177941533,0.07533823536302917,0.0927689412525657,-0.05398092778153572,-0.06543973836905326
136,0.06461334001582357,0.4519769277998451,-0.0722255487744665,0.05999253777458304,-0.03268013602683502,-0.07567364904810951,0.5553100177941533,0.07533823536302917,0.0927689412525657,-0.05398092778153572,-0.06543973836905326
137,0.06461334001582357,0.4519769277998451,-0.0722255487744665,0.05999253777458304,-0.03268013602683502,-0.07567364904810951,0.5553100177941533,0.07533823536302917,0.0927689412525657,-0.05398092778153572,-0.06543973836905326
138,0.06461334001582357,0.4519769277998451,-0.0722255487744665,0.05999253777458304,-0.03268013602683502,-0.07567364904810951,0.5553100177941533,0.07533823536302917,0.0927689412525657,-0.05398092778153572,-0.06543973836905326
139,0.06461334001582357,0.4519769277998451,-0.0722255487744665,0.05999253777458304,-0.03268013602683502,-0.07567364904810951,0.5553100177941533,0.07533823536302917,0.0927689412525657,-0.05398092778153572,-0.06543973836905326
140,0.06461334001582357,0.4519769277998451,-0.0722255487744665,0.05999253777458304,-0.03268013602683502,-0.07567364904810951,0.5553100177941533,0.07533823536302917,0.0927689412525657,-0.05398092778153572,-0.06543973836905326
141,0.06461334001582357,0.4519769277998451,-0.0722255487744665,0.05999253777458304,-0.03268013602683502,-0.07567364904810951,0.5553100177941533,0.07533823536302917,0.0927689412525657,-0.05398092778153572,-0.06543973836905326
142,0.06461334001582357,0.4519769277998451,-0.0722255487744665,0.05999253777458304,-0.03268013602683502,-0.07567364904810951,0.5553100177941533,0.07533823536302917,0.0927689412525657,-0.05398092778153572,-0.06543973836905326
143,0.06461334001582357,0.4519769277998451,-0.0722255487744665,0.05999253777458304,-0.03268013602683502,-0.07567364904810951,0.5553100177941533,0.07533823536302917,0.0927689412525657,-0.05398092778153572,-0.06543973836905326
144,0.06461334001582357,0.4519769277998451,-0.0722255487744665,0.05999253777458304,-0.03268013602683502,-0.07567364904810951,0.5553100177941533,0.07533823536302917,0.0927689412525657,-0.05398092778153572,-0.06543973836905326
145,0.06461334001582357,0.4519769277998451,-0.0722255487744665,0.05999253777458304,-0.03268013602683502,-0.07567364904810951,0.5553100177941533,0.07533823536302917,0.0927689412525657,-0.05398092778153572,-0.06543973836905326
146,0.06461334001582357,0.4519769277998451,-0.0722255487744665,0.05999253777458304,-0.03268013602683502,-0.07567364904810951,0.5553100177941533,0.07533823536302917,0.0927689412525657,-0.05398092778153572,-0.06543973836905326
147,0.06461334001582357,0.4519769277998451,-0.0722255487744665,0.05999253777458304,-0.03268013602683502,-0.07567364904810951,0.5553100177941533,0.07533823536302917,0.0927689412525657,-0.05398092778153572,-0.06543973836905326
148,0.06461334001582357,0.4519769277998451,-0.0722255487744665,0.05999253777458304,-0.03268013602683502,-0.07567364904810951,0.5553100177941533,0.07533823536302917,0.0927689412525657,-0.05398092778153572,-0.06543973836905326
149,0.06461334001582357,0.4519769277998451,-0.0722255487744665,0.05999253777458304,-0.03268013602683502,-0.07567364904810951,0.5553100177941533,0.07533823536302917,0.0927689412525657,-0.05398092778153572,-0.06543973836905326
150,0.06461334001582357,0.4519769277998451,-0.0722255487744665,0.05999253777458304,-0.03268013602683502,-0.07567364904810951,0.5553100177941533,0.07533823536302917,0.0927689412525657,-0.05398092778153572,-0.06543973836905326
151,0.042321828904964484,0.0519872320515989,0.08027292428991255,0.26006645732495487,0.05028213973155546,0.08820113110239068,0.12471822932018044,0.037463406359025384,0.03532342390779705,0.09414410285415298,0.13521912415346726
152,0.042321828904964484,0.0519872320515989,0.08027292428991255,0.26006645732495487,0.05028213973155546,0.08820113110239068,0.12471822932018044,0.037463406359025384,0.03532342390779705,0.09414410285415298,0.13521912415346726
153,0.042321828904964484,0.0519872320515989,0.08027292428991255,0.26006645732495487,0.05028213973155546,0.08820113110239068,0.12471822932018044,0.037463406359025384,0.03532342390779705,0.09414410285415298,0.13521912415346726
154,0.042321828904964484,0.0519872320515989,0.08027292428991255,0.26006645732495487,0.05028213973155546,0.08820113110239068,0.12471822932018044,0.037463406359025384,0.03532342390779705,0.09414410285415298,0.13521912415346726
155,0.042321828904964484,0.0519872320515989,0.08027292428991255,0.26006645732495487,0.05028213973155546,0.08820113110239068,0.12471822932018044,0.037463406359025384,0.03532342390779705,0.09414410285415298,0.13521912415346726
156,0.042321828904964484,0.0519872320515989,0.08027292428991255,0.26006645732495487,0.05028213973155546,0.08820113110239068,0.12471822932018044,0.037463406359025384,0.03532342390779705,0.09414410285415298,0.13521912415346726
157,0.042321828904964484,0.0519872320515989,0.08027292428991255,0.26006645732495487,0.05028213973155546,0.08820113110239068,0.12471822932018044,0.037463406359025384,0.03532342390779705,0.09414410285415298,0.13521912415346726
158,0.042321828904964484,0.0519872320515989,0.08027292428991255,0.26006645732495487,0.05028213973155546,0.08820113110239068,0.12471822932018044,0.037463406359025384,0.03532342390779705,0.09414410285415298,0.13521912415346726
159,0.042321828904964484,0.0519872320515989,0.08027292428991255,0.26006645732495487,0.05028213973155546,0.08820113110239068,0.12471822932018044,0.037463406359025384,0.03532342390779705,0.09414410285415298,0.13521912415346726
160,0.042321828904964484,0.0519872320515989,0.08027292428991255,0.26006645732495487,0.05028213973155546,0.08820113110239068,0.12471822932018044,0.037463406359025384,0.03532342390779705,0.09414410285415298,0.13521912415346726
161,0.042321828904964484,0.0519872320515989,0.08027292428991255,0.26006645732495487,0.05028213973155546,0.08820113110239068,0.12471822932018044,0.037463406359025384,0.03532342390779705,0.09414410285415298,0.13521912415346726
162,0.042321828904964484,0.0519872320515989,0.08027292428991255,0.26006645732495487,0.05028213973155546,0.08820113110239068,0.12471822932018044,0.037463406359025384,0.03532342390779705,0.09414410285415298,0.13521912415346726
163,0.042321828904964484,0.0519872320515989,0.08027292428991255,0.26006645732495487,0.05028213973155546,0.08820113110239068,0.12471822932018044,0.037463406359025384,0.03532342390779705,0.09414410285415298,0.13521912415346726
164,0.042321828904964484,0.0519872320515989,0.08027292428991255,0.26006645732495487,0.05028213973155546,0.08820113110239068,0.12471822932018044,0.037463406359025384,0.03532342390779705,0.09414410285415298,0.13521912415346726
165,0.042321828904964484,0.0519872320515989,0.08027292428991255,0.26006645732495487,0.05028213973155546,0.08820113110239068,0.12471822932018044,0.037463406359025384,0.03532342390779705,0.09414410285415298,0.13521912415346726
166,0.042321828904964484,0.0519872320515989,0.08027292428991255,0.26006645732495487,0.05028213973155546,0.08820113110239068,0.12471822932018044,0.037463406359025384,0.03532342390779705,0.09414410285415298,0.13521912415346726
167,0.042321828904964484,0.0519872320515989,0.08027292428991255,0.26006645732495487,0.05028213973155546,0.08820113110239068,0.12471822932018044,0.037463406359025384,0.03532342390779705,0.09414410285415298,0.13521912415346726
168,0.042321828904964484,0.0519872320515989,0.08027292428991255,0.26006645732495487,0.05028213973155546,0.08820113110239068,0.12471822932018044,0.037463406359025384,0.03532342390779705,0.09414410285415298,0.13521912415346726
169,0.042321828904964484,0.0519872320515989,0.08027292428991255,0.26006645732495487,0.05028213973155546,0.08820113110239068,0.12471822932018044,0.037463406359025384,0.03532342390779705,0.09414410285415298,0.13521912415346726
170,0.042321828904964484,0.0519872320515989,0.08027292428991255,0.26006645732495487,0.05028213973155546,0.08820113110239068,0.12471822932018044,0.037463406359025384,0.03532342390779705,0.09414410285415298,0.13521912415346726
171,0.042321828904964484,0.0519872320515989,0.08027292428991255,0.26006645732495487,0.05028213973155546,0.08820113110239068,0.12471822932018044,0.037463406359025384,0.03532342390779705,0.09414410285415298,0.13521912415346726
172,0.042321828904964484,0.0519872320515989,0.08027292428991255,0.26006645732495487,0.05028213973155546,0.08820113110239068,0.12471822932018044,0.037463406359025384,0.03532342390779705,0.09414410285415298,0.13521912415346726
173,0.042321828904964484,0.0519872320515989,0.08027292428991255,0.26006645732495487,0.05028213973155546,0.08820113110239068,0.12471822932018044,0.037463406359025384,0.03532342390779705,0.09414410285415298,0.13521912415346726
174,0.042321828904964484,0.0519872320515989,0.08027292428991255,0.26006645732495487,0.05028213973155546,0.08820113110239068,0.12471822932018044,0.037463406359025384,0.03532342390779705,0.09414410285415298,0.13521912415346726
175,0.042321828904964484,0.0519872320515989,0.08027292428991255,0.26006645732495487,0.05028213973155546,0.08820113110239068,0.12471822932018044,0.037463406359025384,0.03532342390779705,0.09414410285415298,0.13521912415346726
176,0.042321828904964484,0.0519872320515989,0.08027292428991255,0.26006645732495487,0.05028213973155546,0.08820113110239068,0.12471822932018044,0.037463406359025384,0.03532342390779705,0.09414410285415298,0.13521912415346726
177,0.042321828904964484,0.0519872320515989,0.08027292428991255,0.26006645732495487,0.05028213973155546,0.08820113110239068,0.12471822932018044,0.037463406359025384,0.03532342390779705,0.09414410285415298,0.13521912415346726
178,0.042321828904964484,0.0519872320515989,0.08027292428991255,0.26006645732495487,0.05028213973155546,0.08820113110239068,0.12471822932018044,0.037463406359025384,0.03532342390779705,0.09414410285415298,0.13521912415346726
179,0.042321828904964484,0.0519872320515989,0.08027292428991255,0.26006645732495487,0.05028213973155546,0.08820113110239068,0.12471822932018044,0.037463406359025384,0.03532342390779705,0.09414410285415298,0.13521912415346726
180,0.042321828904964484,0.0519872320515989,0.08027292428991255,0.26006645732495487,0.05028213973155546,0.08820113110239068,0.12471822932018044,0.037463406359025384,0.03532342390779705,0.09414410285415298,0.13521912415346726
181,0.09196880307071477,0.12280910013853832,0.08372577337576086,0.20594316537365429,0.13675875837728946,0.0844368168541753,0.07070032782788778,0.060461637401009384,0.10691923698889844,0.1292979096025936,-0.09302152901052213
182,0.09196880307071477,0.12280910013853832,0.08372577337576086,0.20594316537365429,0.13675875837728946,0.0844368168541753,0.07070032782788778,0.060461637401009384,0.10691923698889844,0.1292979096025936,-0.09302152901052213
183,0.09196880307071477,0.12280910013853832,0.08372577337576086,0.20594316537365429,0.13675875837728946,0.0844368168541753,0.07070032782788778,0.060461637401009384,0.10691923698889844,0.1292979096025936,-0.09302152901052213
184,0.09196880307071477,0.12280910013853832,0.08372577337576086,0.20594316537365429,0.13675875837728946,0.0844368168541753,0.07070032782788778,0.060461637401009384,0.10691923698889844,0.1292979096025936,-0.09302152901052213
185,0.09196880307071477,0.12280910013853832,0.08372577337576086,0.20594316537365429,0.13675875837728946,0.0844368168541753,0.07070032782788778,0.060461637401009384,0.10691923698889844,0.1292979096025936,-0.09302152901052213
186,0.09196880307071477,0.12280910013853832,0.08372577337576086,0.20594316537365429,0.13675875837728946,0.0844368168541753,0.07070032782788778,0.060461637401009384,0.10691923698889844,0.1292979096025936,-0.09302152901052213
187,0.09196880307071477,0.12280910013853832,0.08372577337576086,0.20594316537365429,0.13675875837728946,0.0844368168541753,0.07070032782788778,0.060461637401009384,0.10691923698889844,0.1292979096025936,-0.09302152901052213
188,0.09196880307071477,0.12280910013853832,0.08372577337576086,0.20594316537365429,0.13675875837728946,0.0844368168541753,0.07070032782788778,0.060461637401009384,0.10691923698889844,0.1292979096025936,-0.09302152901052213
189,0.09196880307071477,0.12280910013853832,0.08372577337576086,0.20594316537365429,0.13675875837728946,0.0844368168541753,0.07070032782788778,0.060461637401009384,0.10691923698889844,0.1292979096025936,-0.09302152901052213
190,0.09196880307071477,0.12280910013853832,0.08372577337576086,0.20594316537365429,0.13675875837728946,0.0844368168541753,0.07070032782788778,0.060461637401009384,0.10691923698889844,0.1292979096025936,-0.09302152901052213
191,0.09196880307071477,0.12280910013853832,0.08372577337576086,0.20594316537365429,0.13675875837728946,0.0844368168541753,0.07070032782788778,0.060461637401009384,0.10691923698889844,0.1292979096025936,-0.09302152901052213
192,0.09196880307071477,0.12280910013853832,0.08372577337576086,0.20594316537365429,0.13675875837728946,0.0844368168541753,0.07070032782788778,0.060461637401009384,0.10691923698889844,0.1292979096025936,-0.09302152901052213
193,0.09196880307071477,0.12280910013853832,0.08372577337576086,0.20594316537365429,0.13675875837728946,0.0844368168541753,0.07070032782788778,0.060461637401009384,0.10691923698889844,0.1292979096025936,-0.09302152901052213
194,0.09196880307071477,0.12280910013853832,0.08372577337576086,0.20594316537365429,0.13675875837728946,0.0844368168541753,0.07070032782788778,0.060461637401009384,0.10691923698889844,0.1292979096025936,-0.09302152901052213
195,0.09196880307071477,0.12280910013853832,0.08372577337576086,0.20594316537365429,0.13675875837728946,0.0844368168541753,0.07070032782788778,0.060461637401009384,0.10691923698889844,0.1292979096025936,-0.09302152901052213
196,0.09196880307071477,0.12280910013853832,0.08372577337576086,0.20594316537365429,0.13675875837728946,0.0844368168541753,0.07070032782788778,0.060461637401009384,0.10691923698889844,0.1292979096025936,-0.09302152901052213
197,0.09196880307071477,0.12280910013853832,0.08372577337576086,0.20594316537365429,0.13675875837728946,0.0844368168541753,0.07070032782788778,0.060461637401009384,0.10691923698889844,0.1292979096025936,-0.09302152901052213
198,0.09196880307071477,0.12280910013853832,0.08372577337576086,0.20594316537365429,0.13675875837728946,0.0844368168541753,0.07070032782788778,0.060461637401009384,0.10691923698889844,0.1292979096025936,-0.09302152901052213
199,0.09196880307071477,0.12280910013853832,0.08372577337576086,0.20594316537365429,0.13675875837728946,0.0844368168541753,0.07070032782788778,0.060461637401009384,0.10691923698889844,0.1292979096025936,-0.09302152901052213
200,0.09196880307071477,0.12280910013853832,0.08372577337576086,0.20594316537365429,0.13675875837728946,0.0844368168541753,0.07070032782788778,0.060461637401009384,0.10691923698889844,0.1292979096025936,-0.09302152901052213
201,0.09196880307071477,0.12280910013853832,0.08372577337576086,0.20594316537365429,0.13675875837728946,0.0844368168541753,0.07070032782788778,0.060461637401009384,0.10691923698889844,0.1292979096025936,-0.09302152901052213
202,0.09196880307071477,0.12280910013853832,0.08372577337576086,0.20594316537365429,0.13675875837728946,0.0844368168541753,0.07070032782788778,0.060461637401009384,0.10691923698889844,0.1292979096025936,-0.09302152901052213
203,0.09196880307071477,0.12280910013853832,0.08372577337576086,0.20594316537365429,0.13675875837728946,0.0844368168541753,0.07070032782788778,0.060461637401009384,0.10691923698889844,0.1292979096025936,-0.09302152901052213
204,0.09196880307071477,0.12280910013853832,0.08372577337576086,0.20594316537365429,0.13675875837728946,0.0844368168541753,0.07070032782788778,0.060461637401009384,0.10691923698889844,0.1292979096025936,-0.09302152901052213
205,0.09196880307071477,0.12280910013853832,0.08372577337576086,0.20594316537365429,0.13675875837728946,0.0844368168541753,0.07070032782788778,0.060461637401009384,0.10691923698889844,0.1292979096025936,-0.09302152901052213
206,0.09196880307071477,0.12280910013853832,0.08372577337576086,0.20594316537365429,0.13675875837728946,0.0844368168541753,0.07070032782788778,0.060461637401009384,0.10691923698889844,0.1292979096025936,-0.09302152901052213
207,0.09196880307071477,0.12280910013853832,0.08372577337576086,0.20594316537365429,0.13675875837728946,0.0844368168541753,0.07070032782788778,0.060461637401009384,0.10691923698889844,0.1292979096025936,-0.09302152901052213
208,0.09196880307071477,0.12280910013853832,0.08372577337576086,0.20594316537365429,0.13675875837728946,0.0844368168541753,0.07070032782788778,0.060461637401009384,0.10691923698889844,0.1292979096025936,-0.09302152901052213
209,0.09196880307071477,0.12280910013853832,0.08372577337576086,0.20594316537365429,0.13675875837728946,0.0844368168541753,0.07070032782788778,0.060461637401009384,0.10691923698889844,0.1292979096025936,-0.09302152901052213
210,0.09196880307071477,0.12280910013853832,0.08372577337576086,0.20594316537365429,0.13675875837728946,0.0844368168541753,0.07070032782788778,0.060461637401009384,0.10691923698889844,0.1292979096025936,-0.09302152901052213
211,0.09196880307071477,0.12280910013853832,0.08372577337576086,0.20594316537365429,0.13675875837728946,0.0844368168541753,0.07070032782788778,0.060461637401009384,0.10691923698889844,0.1292979096025936,-0.09302152901052213
212,0.1273374817945764,0.08480031718334179,0.06832189435497574,-0.029882132285260928,-0.04848379374410367,0.15143735920120815,0.2513828956028243,0.09461599558026726,0.0778970328038027,0.04116747353298463,0.18140547597538373
213,0.1273374817945764,0.08480031718334179,0.06832189435497574,-0.029882132285260928,-0.04848379374410367,0.15143735920120815,0.2513828956028243,0.09461599558026726,0.0778970328038027,0.04116747353298463,0.18140547597538373
214,0.1273374817945764,0.08480031718334179,0.06832189435497574,-0.029882132285260928,-0.04848379374410367,0.15143735920120815,0.2513828956028243,0.09461599558026726,0.0778970328038027,0.04116747353298463,0.18140547597538373
215,0.1273374817945764,0.08480031718334179,0.06832189435497574,-0.029882132285260928,-0.04848379374410367,0.15143735920120815,0.2513828956028243,0.09461599558026726,0.0778970328038027,0.04116747353298463,0.18140547597538373
216,0.1273374817945764,0.08480031718334179,0.06832189435497574,-0.029882132285260928,-0.04848379374410367,0.15143735920120815,0.2513828956028243,0.09461599558026726,0.0778970328038027,0.04116747353298463,0.18140547597538373
217,0.1273374817945764,0.08480031718334179,0.06832189435497574,-0.029882132285260928,-0.04848379374410367,0.15143735920120815,0.2513828956028243,0.09461599558026726,0.0778970328038027,0.04116747353298463,0.18140547597538373
218,0.1273374817945764,0.08480031718334179,0.06832189435497574,-0.029882132285260928,-0.04848379374410367,0.15143735920120815,0.2513828956028243,0.09461599558026726,0.0778970328038027,0.04116747353298463,0.18140547597538373
219,0.1273374817945764,0.08480031718334179,0.06832189435497574,-0.029882132285260928,-0.04848379374410367,0.15143735920120815,0.2513828956028243,0.09461599558026726,0.0778970328038027,0.04116747353298463,0.18140547597538373
220,0.1273374817945764,0.08480031718334179,0.06832189435497574,-0.029882132285260928,-0.04848379374410367,0.15143735920120815,0.2513828956028243,0.09461599558026726,0.0778970328038027,0.04116747353298463,0.18140547597538373
221,0.1273374817945764,0.08480031718334179,0.06832189435497574,-0.029882132285260928,-0.04848379374410367,0.15143735920120815,0.2513828956028243,0.09461599558026726,0.0778970328038027,0.04116747353298463,0.18140547597538373
222,0.1273374817945764,0.08480031718334179,0.06832189435497574,-0.029882132285260928,-0.04848379374410367,0.15143735920120815,0.2513828956028243,0.09461599558026726,0.0778970328038027,0.04116747353298463,0.18140547597538373
223,0.1273374817945764,0.08480031718334179,0.06832189435497574,-0.029882132285260928,-0.04848379374410367,0.15143735920120815,0.2513828956028243,0.09461599558026726,0.0778970328038027,0.04116747353298463,0.18140547597538373
224,0.1273374817945764,0.08480031718334179,0.06832189435497574,-0.029882132285260928,-0.04848379374410367,0.15143735920120815,0.2513828956028243,0.09461599558026726,0.0778970328038027,0.04116747353298463,0.18140547597538373
225,0.1273374817945764,0.08480031718334179,0.06832189435497574,-0.029882132285260928,-0.04848379374410367,0.15143735920120815,0.2513828956028243,0.09461599558026726,0.0778970328038027,0.04116747353298463,0.18140547597538373
226,0.1273374817945764,0.08480031718334179,0.06832189435497574,-0.029882132285260928,-0.04848379374410367,0.15143735920120815,0.2513828956028243,0.09461599558026726,0.0778970328038027,0.04116747353298463,0.18140547597538373
227,0.1273374817945764,0.08480031718334179,0.06832189435497574,-0.029882132285260928,-0.04848379374410367,0.15143735920120815,0.2513828956028243,0.09461599558026726,0.0778970328038027,0.04116747353298463,0.18140547597538373
228,0.1273374817945764,0.08480031718334179,0.06832189435497574,-0.029882132285260928,-0.04848379374410367,0.15143735920120815,0.2513828956028243,0.09461599558026726,0.0778970328038027,0.04116747353298463,0.18140547597538373
229,0.1273374817945764,0.08480031718334179,0.06832189435497574,-0.029882132285260928,-0.04848379374410367,0.15143735920120815,0.2513828956028243,0.09461599558026726,0.0778970328038027,0.04116747353298463,0.18140547597538373
230,0.1273374817945764,0.08480031718334179,0.06832189435497574,-0.029882132285260928,-0.04848379374410367,0.15143735920120815,0.2513828956028243,0.09461599558026726,0.0778970328038027,0.04116747353298463,0.18140547597538373
231,0.1273374817945764,0.08480031718334179,0.06832189435497574,-0.029882132285260928,-0.04848379374410367,0.15143735920120815,0.2513828956028243,0.09461599558026726,0.0778970328038027,0.04116747353298463,0.18140547597538373
232,0.1273374817945764,0.08480031718334179,0.06832189435497574,-0.029882132285260928,-0.04848379374410367,0.15143735920120815,0.2513828956028243,0.09461599558026726,0.0778970328038027,0.04116747353298463,0.18140547597538373
233,0.1273374817945764,0.08480031718334179,0.06832189435497574,-0.029882132285260928,-0.04848379374410367,0.15143735920120815,0.2513828956028243,0.09461599558026726,0.0778970328038027,0.04116747353298463,0.18140547597538373
234,0.1273374817945764,0.08480031718334179,0.06832189435497574,-0.029882132285260928,-0.04848379374410367,0.15143735920120815,0.2513828956028243,0.09461599558026726,0.0778970328038027,0.04116747353298463,0.18140547597538373
235,0.1273374817945764,0.08480031718334179,0.06832189435497574,-0.029882132285260928,-0.04848379374410367,0.15143735920120815,0.2513828956028243,0.09461599558026726,0.0778970328038027,0.04116747353298463,0.18140547597538373
236,0.1273374817945764,0.08480031718334179,0.06832189435497574,-0.029882132285260928,-0.04848379374410367,0.15143735920120815,0.2513828956028243,0.09461599558026726,0.0778970328038027,0.04116747353298463,0.18140547597538373
237,0.1273374817945764,0.08480031718334179,0.06832189435497574,-0.029882132285260928,-0.04848379374410367,0.15143735920120815,0.2513828956028243,0.09461599558026726,0.0778970328038027,0.04116747353298463,0.18140547597538373
238,0.1273374817945764,0.08480031718334179,0.06832189435497574,-0.029882132285260928,-0.04848379374410367,0.15143735920120815,0.2513828956028243,0.09461599558026726,0.0778970328038027,0.04116747353298463,0.18140547597538373
239,0.1273374817945764,0.08480031718334179,0.06832189435497574,-0.029882132285260928,-0.04848379374410367,0.15143735920120815,0.2513828956028243,0.09461599558026726,0.0778970328038027,0.04116747353298463,0.18140547597538373
240,0.1273374817945764,0.08480031718334179,0.06832189435497574,-0.029882132285260928,-0.04848379374410367,0.15143735920120815,0.2513828956028243,0.09461599558026726,0.0778970328038027,0.04116747353298463,0.18140547597538373
241,0.1273374817945764,0.08480031718334179,0.06832189435497574,-0.029882132285260928,-0.04848379374410367,0.15143735920120815,0.2513828956028243,0.09461599558026726,0.0778970328038027,0.04116747353298463,0.18140547597538373
242,0.1273374817945764,0.08480031718334179,0.06832189435497574,-0.029882132285260928,-0.04848379374410367,0.15143735920120815,0.2513828956028243,0.09461599558026726,0.0778970328038027,0.04116747353298463,0.18140547597538373
243,0.06408753212291338,0.08157735853571031,0.06267917212185324,0.02884799686348016,0.06660874483547406,0.28916898054468415,0.2866709948367031,-0.2370258295586946,0.09490130138532106,-0.06297417044130539,0.32545791875386054
244,0.06408753212291338,0.08157735853571031,0.06267917212185324,0.02884799686348016,0.06660874483547406,0.28916898054468415,0.2866709948367031,-0.2370258295586946,0.09490130138532106,-0.06297417044130539,0.32545791875386054
245,0.06408753212291338,0.08157735853571031,0.06267917212185324,0.02884799686348016,0.06660874483547406,0.28916898054468415,0.2866709948367031,-0.2370258295586946,0.09490130138532106,-0.06297417044130539,0.32545791875386054
246,0.06408753212291338,0.08157735853571031,0.06267917212185324,0.02884799686348016,0.06660874483547406,0.28916898054468415,0.2866709948367031,-0.2370258295586946,0.09490130138532106,-0.06297417044130539,0.32545791875386054
247,0.06408753212291338,0.08157735853571031,0.06267917212185324,0.02884799686348016,0.06660874483547406,0.28916898054468415,0.2866709948367031,-0.2370258295586946,0.09490130138532106,-0.06297417044130539,0.32545791875386054
248,0.06408753212291338,0.08157735853571031,0.06267917212185324,0.02884799686348016,0.06660874483547406,0.28916898054468415,0.2866709948367031,-0.2370258295586946,0.09490130138532106,-0.06297417044130539,0.32545791875386054
249,0.06408753212291338,0.08157735853571031,0.06267917212185324,0.02884799686348016,0.06660874483547406,0.28916898054468415,0.2866709948367031,-0.2370258295586946,0.09490130138532106,-0.06297417044130539,0.32545791875386054
250,0.06408753212291338,0.08157735853571031,0.06267917212185324,0.02884799686348016,0.06660874483547406,0.28916898054468415,0.2866709948367031,-0.2370258295586946,0.09490130138532106,-0.06297417044130539,0.32545791875386054
251,0.06408753212291338,0.08157735853571031,0.06267917212185324,0.02884799686348016,0.06660874483547406,0.28916898054468415,0.2866709948367031,-0.2370258295586946,0.09490130138532106,-0.06297417044130539,0.32545791875386054
252,0.06408753212291338,0.08157735853571031,0.06267917212185324,0.02884799686348016,0.06660874483547406,0.28916898054468415,0.2866709948367031,-0.2370258295586946,0.09490130138532106,-0.06297417044130539,0.32545791875386054
253,0.06408753212291338,0.08157735853571031,0.06267917212185324,0.02884799686348016,0.06660874483547406,0.28916898054468415,0.2866709948367031,-0.2370258295586946,0.09490130138532106,-0.06297417044130539,0.32545791875386054
254,0.06408753212291338,0.08157735853571031,0.06267917212185324,0.02884799686348016,0.06660874483547406,0.28916898054468415,0.2866709948367031,-0.2370258295586946,0.09490130138532106,-0.06297417044130539,0.32545791875386054
255,0.06408753212291338,0.08157735853571031,0.06267917212185324,0.02884799686348016,0.06660874483547406,0.28916898054468415,0.2866709948367031,-0.2370258295586946,0.09490130138532106,-0.06297417044130539,0.32545791875386054
256,0.06408753212291338,0.08157735853571031,0.06267917212185324,0.02884799686348016,0.06660874483547406,0.28916898054468415,0.2866709948367031,-0.2370258295586946,0.09490130138532106,-0.06297417044130539,0.32545791875386054
257,0.06408753212291338,0.08157735853571031,0.06267917212185324,0.02884799686348016,0.06660874483547406,0.28916898054468415,0.2866709948367031,-0.2370258295586946,0.09490130138532106,-0.06297417044130539,0.32545791875386054
258,0.06408753212291338,0.08157735853571031,0.06267917212185324,0.02884799686348016,0.06660874483547406,0.28916898054468415,0.2866709948367031,-0.2370258295586946,0.09490130138532106,-0.06297417044130539,0.32545791875386054
259,0.06408753212291338,0.08157735853571031,0.06267917212185324,0.02884799686348016,0.06660874483547406,0.28916898054468415,0.2866709948367031,-0.2370258295586946,0.09490130138532106,-0.06297417044130539,0.32545791875386054
260,0.06408753212291338,0.08157735853571031,0.06267917212185324,0.02884799686348016,0.06660874483547406,0.28916898054468415,0.2866709948367031,-0.2370258295586946,0.09490130138532106,-0.06297417044130539,0.32545791875386054
261,0.06408753212291338,0.08157735853571031,0.06267917212185324,0.02884799686348016,0.06660874483547406,0.28916898054468415,0.2866709948367031,-0.2370258295586946,0.09490130138532106,-0.06297417044130539,0.32545791875386054
262,0.06408753212291338,0.08157735853571031,0.06267917212185324,0.02884799686348016,0.06660874483547406,0.28916898054468415,0.2866709948367031,-0.2370258295586946,0.09490130138532106,-0.06297417044130539,0.32545791875386054
263,0.06408753212291338,0.08157735853571031,0.06267917212185324,0.02884799686348016,0.06660874483547406,0.28916898054468415,0.2866709948367031,-0.2370258295586946,0.09490130138532106,-0.06297417044130539,0.32545791875386054
264,0.06408753212291338,0.08157735853571031,0.06267917212185324,0.02884799686348016,0.06660874483547406,0.28916898054468415,0.2866709948367031,-0.2370258295586946,0.09490130138532106,-0.06297417044130539,0.32545791875386054
265,0.06408753212291338,0.08157735853571031,0.06267917212185324,0.02884799686348016,0.06660874483547406,0.28916898054468415,0.2866709948367031,-0.2370258295586946,0.09490130138532106,-0.06297417044130539,0.32545791875386054
266,0.06408753212291338,0.08157735853571031,0.06267917212185324,0.02884799686348016,0.06660874483547406,0.28916898054468415,0.2866709948367031,-0.2370258295586946,0.09490130138532106,-0.06297417044130539,0.32545791875386054
267,0.06408753212291338,0.08157735853571031,0.06267917212185324,0.02884799686348016,0.06660874483547406,0.28916898054468415,0.2866709948367031,-0.2370258295586946,0.09490130138532106,-0.06297417044130539,0.32545791875386054
268,0.06408753212291338,0.08157735853571031,0.06267917212185324,0.02884799686348016,0.06660874483547406,0.28916898054468415,0.2866709948367031,-0.2370258295586946,0.09490130138532106,-0.06297417044130539,0.32545791875386054
269,0.06408753212291338,0.08157735853571031,0.06267917212185324,0.02884799686348016,0.06660874483547406,0.28916898054468415,0.2866709948367031,-0.2370258295586946,0.09490130138532106,-0.06297417044130539,0.32545791875386054
270,0.06408753212291338,0.08157735853571031,0.06267917212185324,0.02884799686348016,0.06660874483547406,0.28916898054468415,0.2866709948367031,-0.2370258295586946,0.09490130138532106,-0.06297417044130539,0.32545791875386054
271,0.06408753212291338,0.08157735853571031,0.06267917212185324,0.02884799686348016,0.06660874483547406,0.28916898054468415,0.2866709948367031,-0.2370258295586946,0.09490130138532106,-0.06297417044130539,0.32545791875386054
272,0.06408753212291338,0.08157735853571031,0.06267917212185324,0.02884799686348016,0.06660874483547406,0.28916898054468415,0.2866709948367031,-0.2370258295586946,0.09490130138532106,-0.06297417044130539,0.32545791875386054
273,0.07601317210405525,0.04605350112879222,0.034415331186724185,-0.033790801596283074,0.24507489938978375,0.08889946942240805,0.03046468358634457,0.035165040111377804,0.04458299131924808,0.036226515656517945,0.3968951976910312
274,0.07601317210405525,0.04605350112879222,0.034415331186724185,-0.033790801596283074,0.24507489938978375,0.08889946942240805,0.03046468358634457,0.035165040111377804,0.04458299131924808,0.036226515656517945,0.3968951976910312
275,0.07601317210405525,0.04605350112879222,0.034415331186724185,-0.033790801596283074,0.24507489938978375,0.08889946942240805,0.03046468358634457,0.035165040111377804,0.04458299131924808,0.036226515656517945,0.3968951976910312
276,0.07601317210405525,0.04605350112879222,0.034415331186724185,-0.033790801596283074,0.24507489938978375,0.08889946942240805,0.03046468358634457,0.035165040111377804,0.04458299131924808,0.036226515656517945,0.3968951976910312
277,0.07601317210405525,0.04605350112879222,0.034415331186724185,-0.033790801596283074,0.24507489938978375,0.08889946942240805,0.03046468358634457,0.035165040111377804,0.04458299131924808,0.036226515656517945,0.3968951976910312
278,0.07601317210405525,0.04605350112879222,0.034415331186724185,-0.033790801596283074,0.24507489938978375,0.08889946942240805,0.03046468358634457,0.035165040111377804,0.04458299131924808,0.036226515656517945,0.3968951976910312
279,0.07601317210405525,0.04605350112879222,0.034415331186724185,-0.033790801596283074,0.24507489938978375,0.08889946942240805,0.03046468358634457,0.035165040111377804,0.04458299131924808,0.036226515656517945,0.3968951976910312
280,0.07601317210405525,0.04605350112879222,0.034415331186724185,-0.033790801596283074,0.24507489938978375,0.08889946942240805,0.03046468358634457,0.035165040111377804,0.04458299131924808,0.036226515656517945,0.3968951976910312
281,0.07601317210405525,0.04605350112879222,0.034415331186724185,-0.033790801596283074,0.24507489938978375,0.08889946942240805,0.03046468358634457,0.035165040111377804,0.04458299131924808,0.036226515656517945,0.3968951976910312
282,0.07601317210405525,0.04605350112879222,0.034415331186724185,-0.033790801596283074,0.24507489938978375,0.08889946942240805,0.03046468358634457,0.035165040111377804,0.04458299131924808,0.036226515656517945,0.3968951976910312
283,0.07601317210405525,0.04605350112879222,0.034415331186724185,-0.033790801596283074,0.24507489938978375,0.08889946942240805,0.03046468358634457,0.035165040111377804,0.04458299131924808,0.036226515656517945,0.3968951976910312
284,0.07601317210405525,0.04605350112879222,0.034415331186724185,-0.033790801596283074,0.24507489938978375,0.08889946942240805,0.03046468358634457,0.035165040111377804,0.04458299131924808,0.036226515656517945,0.3968951976910312
285,0.07601317210405525,0.04605350112879222,0.034415331186724185,-0.033790801596283074,0.24507489938978375,0.08889946942240805,0.03046468358634457,0.035165040111377804,0.04458299131924808,0.036226515656517945,0.3968951976910312
286,0.07601317210405525,0.04605350112879222,0.034415331186724185,-0.033790801596283074,0.24507489938978375,0.08889946942240805,0.03046468358634457,0.035165040111377804,0.04458299131924808,0.036226515656517945,0.3968951976910312
287,0.07601317210405525,0.04605350112879222,0.034415331186724185,-0.033790801596283074,0.24507489938978375,0.08889946942240805,0.03046468358634457,0.035165040111377804,0.04458299131924808,0.036226515656517945,0.3968951976910312
288,0.07601317210405525,0.04605350112879222,0.034415331186724185,-0.033790801596283074,0.24507489938978375,0.08889946942240805,0.03046468358634457,0.035165040111377804,0.04458299131924808,0.036226515656517945,0.3968951976910312
289,0.07601317210405525,0.04605350112879222,0.034415331186724185,-0.033790801596283074,0.24507489938978375,0.08889946942240805,0.03046468358634457,0.035165040111377804,0.04458299131924808,0.036226515656517945,0.3968951976910312
290,0.07601317210405525,0.04605350112879222,0.034415331186724185,-0.033790801596283074,0.24507489938978375,0.08889946942240805,0.03046468358634457,0.035165040111377804,0.04458299131924808,0.036226515656517945,0.3968951976910312
291,0.07601317210405525,0.04605350112879222,0.034415331186724185,-0.033790801596283074,0.24507489938978375,0.08889946942240805,0.03046468358634457,0.035165040111377804,0.04458299131924808,0.036226515656517945,0.3968951976910312
292,0.07601317210405525,0.04605350112879222,0.034415331186724185,-0.033790801596283074,0.24507489938978375,0.08889946942240805,0.03046468358634457,0.035165040111377804,0.04458299131924808,0.036226515656517945,0.3968951976910312
293,0.07601317210405525,0.04605350112879222,0.034415331186724185,-0.033790801596283074,0.24507489938978375,0.08889946942240805,0.03046468358634457,0.035165040111377804,0.04458299131924808,0.036226515656517945,0.3968951976910312
294,0.07601317210405525,0.04605350112879222,0.034415331186724185,-0.033790801596283074,0.24507489938978375,0.08889946942240805,0.03046468358634457,0.035165040111377804,0.04458299131924808,0.036226515656517945,0.3968951976910312
295,0.07601317210405525,0.04605350112879222,0.034415331186724185,-0.033790801596283074,0.24507489938978375,0.08889946942240805,0.03046468358634457,0.035165040111377804,0.04458299131924808,0.036226515656517945,0.3968951976910312
296,0.07601317210405525,0.04605350112879222,0.034415331186724185,-0.033790801596283074,0.24507489938978375,0.08889946942240805,0.03046468358634457,0.035165040111377804,0.04458299131924808,0.036226515656517945,0.3968951976910312
297,0.07601317210405525,0.04605350112879222,0.034415331186724185,-0.033790801596283074,0.24507489938978375,0.08889946942240805,0.03046468358634457,0.035165040111377804,0.04458299131924808,0.036226515656517945,0.3968951976910312
298,0.07601317210405525,0.04605350112879222,0.034415331186724185,-0.033790801596283074,0.24507489938978375,0.08889946942240805,0.03046468358634457,0.035165040111377804,0.04458299131924808,0.036226515656517945,0.3968951976910312
299,0.07601317210405525,0.04605350112879222,0.034415331186724185,-0.033790801596283074,0.24507489938978375,0.08889946942240805,0.03046468358634457,0.035165040111377804,0.04458299131924808,0.036226515656517945,0.3968951976910312
300,0.07601317210405525,0.04605350112879222,0.034415331186724185,-0.033790801596283074,0.24507489938978375,0.08889946942240805,0.03046468358634457,0.035165040111377804,0.04458299131924808,0.036226515656517945,0.3968951976910312
301,0.07601317210405525,0.04605350112879222,0.034415331186724185,-0.033790801596283074,0.24507489938978375,0.08889946942240805,0.03046468358634457,0.035165040111377804,0.04458299131924808,0.036226515656517945,0.3968951976910312
302,0.07601317210405525,0.04605350112879222,0.034415331186724185,-0.033790801596283074,0.24507489938978375,0.08889946942240805,0.03046468358634457,0.035165040111377804,0.04458299131924808,0.036226515656517945,0.3968951976910312
303,0.07601317210405525,0.04605350112879222,0.034415331186724185,-0.033790801596283074,0.24507489938978375,0.08889946942240805,0.03046468358634457,0.035165040111377804,0.04458299131924808,0.036226515656517945,0.3968951976910312
304,0.05396335779560031,0.027785270582793634,0.022154296141311352,0.02529822667205016,0.5394388001333396,0.014133163874696809,0.02374732176723718,0.012641807188883181,0.20026195313279924,0.06937067464764897,0.011205128063639576
305,0.05396335779560031,0.027785270582793634,0.022154296141311352,0.02529822667205016,0.5394388001333396,0.014133163874696809,0.02374732176723718,0.012641807188883181,0.20026195313279924,0.06937067464764897,0.011205128063639576
306,0.05396335779560031,0.027785270582793634,0.022154296141311352,0.02529822667205016,0.5394388001333396,0.014133163874696809,0.02374732176723718,0.012641807188883181,0.20026195313279924,0.06937067464764897,0.011205128063639576
307,0.05396335779560031,0.027785270582793634,0.022154296141311352,0.02529822667205016,0.5394388001333396,0.014133163874696809,0.02374732176723718,0.012641807188883181,0.20026195313279924,0.06937067464764897,0.011205128063639576
308,0.05396335779560031,0.027785270582793634,0.022154296141311352,0.02529822667205016,0.5394388001333396,0.014133163874696809,0.02374732176723718,0.012641807188883181,0.20026195313279924,0.06937067464764897,0.011205128063639576
309,0.05396335779560031,0.027785270582793634,0.022154296141311352,0.02529822667205016,0.5394388001333396,0.014133163874696809,0.02374732176723718,0.012641807188883181,0.20026195313279924,0.06937067464764897,0.011205128063639576
310,0.05396335779560031,0.027785270582793634,0.022154296141311352,0.02529822667205016,0.5394388001333396,0.014133163874696809,0.02374732176723718,0.012641807188883181,0.20026195313279924,0.06937067464764897,0.011205128063639576
311,0.05396335779560031,0.027785270582793634,0.022154296141311352,0.02529822667205016,0.5394388001333396,0.014133163874696809,0.02374732176723718,0.012641807188883181,0.20026195313279924,0.06937067464764897,0.011205128063639576
312,0.05396335779560031,0.027785270582793634,0.022154296141311352,0.02529822667205016,0.5394388001333396,0.014133163874696809,0.02374732176723718,0.012641807188883181,0.20026195313279924,0.06937067464764897,0.011205128063639576
313,0.05396335779560031,0.027785270582793634,0.022154296141311352,0.02529822667205016,0.5394388001333396,0.014133163874696809,0.02374732176723718,0.012641807188883181,0.20026195313279924,0.06937067464764897,0.011205128063639576
314,0.05396335779560031,0.027785270582793634,0.022154296141311352,0.02529822667205016,0.5394388001333396,0.014133163874696809,0.02374732176723718,0.012641807188883181,0.20026195313279924,0.06937067464764897,0.011205128063639576
315,0.05396335779560031,0.027785270582793634,0.022154296141311352,0.02529822667205016,0.5394388001333396,0.014133163874696809,0.02374732176723718,0.012641807188883181,0.20026195313279924,0.06937067464764897,0.011205128063639576
316,0.05396335779560031,0.027785270582793634,0.022154296141311352,0.02529822667205016,0.5394388001333396,0.014133163874696809,0.02374732176723718,0.012641807188883181,0.20026195313279924,0.06937067464764897,0.011205128063639576
317,0.05396335779560031,0.027785270582793634,0.022154296141311352,0.02529822667205016,0.5394388001333396,0.014133163874696809,0.02374732176723718,0.012641807188883181,0.20026195313279924,0.06937067464764897,0.011205128063639576
318,0.05396335779560031,0.027785270582793634,0.022154296141311352,0.02529822667205016,0.5394388001333396,0.014133163874696809,0.02374732176723718,0.012641807188883181,0.20026195313279924,0.06937067464764897,0.011205128063639576
319,0.05396335779560031,0.027785270582793634,0.022154296141311352,0.02529822667205016,0.5394388001333396,0.014133163874696809,0.02374732176723718,0.012641807188883181,0.20026195313279924,0.06937067464764897,0.011205128063639576
320,0.05396335779560031,0.027785270582793634,0.022154296141311352,0.02529822667205016,0.5394388001333396,0.014133163874696809,0.02374732176723718,0.012641807188883181,0.20026195313279924,0.06937067464764897,0.011205128063639576
321,0.05396335779560031,0.027785270582793634,0.022154296141311352,0.02529822667205016,0.5394388001333396,0.014133163874696809,0.02374732176723718,0.012641807188883181,0.20026195313279924,0.06937067464764897,0.011205128063639576
322,0.05396335779560031,0.027785270582793634,0.022154296141311352,0.02529822667205016,0.5394388001333396,0.014133163874696809,0.02374732176723718,0.012641807188883181,0.20026195313279924,0.06937067464764897,0.011205128063639576
323,0.05396335779560031,0.027785270582793634,0.022154296141311352,0.02529822667205016,0.5394388001333396,0.014133163874696809,0.02374732176723718,0.012641807188883181,0.20026195313279924,0.06937067464764897,0.011205128063639576
324,0.05396335779560031,0.027785270582793634,0.022154296141311352,0.02529822667205016,0.5394388001333396,0.014133163874696809,0.02374732176723718,0.012641807188883181,0.20026195313279924,0.06937067464764897,0.011205128063639576
325,0.05396335779560031,0.027785270582793634,0.022154296141311352,0.02529822667205016,0.5394388001333396,0.014133163874696809,0.02374732176723718,0.012641807188883181,0.20026195313279924,0.06937067464764897,0.011205128063639576
326,0.05396335779560031,0.027785270582793634,0.022154296141311352,0.02529822667205016,0.5394388001333396,0.014133163874696809,0.02374732176723718,0.012641807188883181,0.20026195313279924,0.06937067464764897,0.011205128063639576
327,0.05396335779560031,0.027785270582793634,0.022154296141311352,0.02529822667205016,0.5394388001333396,0.014133163874696809,0.02374732176723718,0.012641807188883181,0.20026195313279924,0.06937067464764897,0.011205128063639576
328,0.05396335779560031,0.027785270582793634,0.022154296141311352,0.02529822667205016,0.5394388001333396,0.014133163874696809,0.02374732176723718,0.012641807188883181,0.20026195313279924,0.06937067464764897,0.011205128063639576
329,0.05396335779560031,0.027785270582793634,0.022154296141311352,0.02529822667205016,0.5394388001333396,0.014133163874696809,0.02374732176723718,0.012641807188883181,0.20026195313279924,0.06937067464764897,0.011205128063639576
330,0.05396335779560031,0.027785270582793634,0.022154296141311352,0.02529822667205016,0.5394388001333396,0.014133163874696809,0.02374732176723718,0.012641807188883181,0.20026195313279924,0.06937067464764897,0.011205128063639576
331,0.05396335779560031,0.027785270582793634,0.022154296141311352,0.02529822667205016,0.5394388001333396,0.014133163874696809,0.02374732176723718,0.012641807188883181,0.20026195313279924,0.06937067464764897,0.011205128063639576
332,0.05396335779560031,0.027785270582793634,0.022154296141311352,0.02529822667205016,0.5394388001333396,0.014133163874696809,0.02374732176723718,0.012641807188883181,0.20026195313279924,0.06937067464764897,0.011205128063639576
333,0.05396335779560031,0.027785270582793634,0.022154296141311352,0.02529822667205016,0.5394388001333396,0.014133163874696809,0.02374732176723718,0.012641807188883181,0.20026195313279924,0.06937067464764897,0.011205128063639576
334,0.07826685428233092,0.2522652800620894,0.45576770360865587,0.02014840680711026,-0.1554641185916133,0.28110935087503475,-0.10248989714195361,0.0503729083549951,0.0974065256448222,-0.04204598426643306,0.0646629703649615
335,0.07826685428233092,0.2522652800620894,0.45576770360865587,0.02014840680711026,-0.1554641185916133,0.28110935087503475,-0.10248989714195361,0.0503729083549951,0.0974065256448222,-0.04204598426643306,0.0646629703649615
336,0.07826685428233092,0.2522652800620894,0.45576770360865587,0.02014840680711026,-0.1554641185916133,0.28110935087503475,-0.10248989714195361,0.0503729083549951,0.0974065256448222,-0.04204598426643306,0.0646629703649615
337,0.07826685428233092,0.2522652800620894,0.45576770360865587,0.02014840680711026,-0.1554641185916133,0.28110935087503475,-0.10248989714195361,0.0503729083549951,0.0974065256448222,-0.04204598426643306,0.0646629703649615
338,0.07826685428233092,0.2522652800620894,0.45576770360865587,0.02014840680711026,-0.1554641185916133,0.28110935087503475,-0.10248989714195361,0.0503729083549951,0.0974065256448222,-0.04204598426643306,0.0646629703649615
339,0.07826685428233092,0.2522652800620894,0.45576770360865587,0.02014840680711026,-0.1554641185916133,0.28110935087503475,-0.10248989714195361,0.0503729083549951,0.0974065256448222,-0.04204598426643306,0.0646629703649615
340,0.07826685428233092,0.2522652800620894,0.45576770360865587,0.02014840680711026,-0.1554641185916133,0.28110935087503475,-0.10248989714195361,0.0503729083549951,0.0974065256448222,-0.04204598426643306,0.0646629703649615
341,0.07826685428233092,0.2522652800620894,0.45576770360865587,0.02014840680711026,-0.1554641185916133,0.28110935087503475,-0.10248989714195361,0.0503729083549951,0.0974065256448222,-0.04204598426643306,0.0646629703649615
342,0.07826685428233092,0.2522652800620894,0.45576770360865587,0.02014840680711026,-0.1554641185916133,0.28110935087503475,-0.10248989714195361,0.0503729083549951,0.0974065256448222,-0.04204598426643306,0.0646629703649615
343,0.07826685428233092,0.2522652800620894,0.45576770360865587,0.02014840680711026,-0.1554641185916133,0.28110935087503475,-0.10248989714195361,0.0503729083549951,0.0974065256448222,-0.04204598426643306,0.0646629703649615
344,0.07826685428233092,0.2522652800620894,0.45576770360865587,0.02014840680711026,-0.1554641185916133,0.28110935087503475,-0.10248989714195361,0.0503729083549951,0.0974065256448222,-0.04204598426643306,0.0646629703649615
345,0.07826685428233092,0.2522652800620894,0.45576770360865587,0.02014840680711026,-0.1554641185916133,0.28110935087503475,-0.10248989714195361,0.0503729083549951,0.0974065256448222,-0.04204598426643306,0.0646629703649615
346,0.07826685428233092,0.2522652800620894,0.45576770360865587,0.02014840680711026,-0.1554641185916133,0.28110935087503475,-0.10248989714195361,0.0503729083549951,0.0974065256448222,-0.04204598426643306,0.0646629703649615
347,0.07826685428233092,0.2522652800620894,0.45576770360865587,0.02014840680711026,-0.1554641185916133,0.28110935087503475,-0.10248989714195361,0.0503729083549951,0.0974065256448222,-0.04204598426643306,0.0646629703649615
348,0.07826685428233092,0.2522652800620894,0.45576770360865587,0.02014840680711026,-0.1554641185916133,0.28110935087503475,-0.10248989714195361,0.0503729083549951,0.0974065256448222,-0.04204598426643306,0.0646629703649615
349,0.07826685428233092,0.2522652800620894,0.45576770360865587,0.02014840680711026,-0.1554641185916133,0.28110935087503475,-0.10248989714195361,0.0503729083549951,0.0974065256448222,-0.04204598426643306,0.0646629703649615
350,0.07826685428233092,0.2522652800620894,0.45576770360865587,0.02014840680711026,-0.1554641185916133,0.28110935087503475,-0.10248989714195361,0.0503729083549951,0.0974065256448222,-0.04204598426643306,0.0646629703649615
351,0.07826685428233092,0.2522652800620894,0.45576770360865587,0.02014840680711026,-0.1554641185916133,0.28110935087503475,-0.10248989714195361,0.0503729083549951,0.0974065256448222,-0.04204598426643306,0.0646629703649615
352,0.07826685428233092,0.2522652800620894,0.45576770360865587,0.02014840680711026,-0.1554641185916133,0.28110935087503475,-0.10248989714195361,0.0503729083549951,0.0974065256448222,-0.04204598426643306,0.0646629703649615
353,0.07826685428233092,0.2522652800620894,0.45576770360865587,0.02014840680711026,-0.1554641185916133,0.28110935087503475,-0.10248989714195361,0.0503729083549951,0.0974065256448222,-0.04204598426643306,0.0646629703649615
354,0.07826685428233092,0.2522652800620894,0.45576770360865587,0.02014840680711026,-0.1554641185916133,0.28110935087503475,-0.10248989714195361,0.0503729083549951,0.0974065256448222,-0.04204598426643306,0.0646629703649615
355,0.07826685428233092,0.2522652800620894,0.45576770360865587,0.02014840680711026,-0.1554641185916133,0.28110935087503475,-0.10248989714195361,0.0503729083549951,0.0974065256448222,-0.04204598426643306,0.0646629703649615
356,0.07826685428233092,0.2522652800620894,0.45576770360865587,0.02014840680711026,-0.1554641185916133,0.28110935087503475,-0.10248989714195361,0.0503729083549951,0.0974065256448222,-0.04204598426643306,0.0646629703649615
357,0.07826685428233092,0.2522652800620894,0.45576770360865587,0.02014840680711026,-0.1554641185916133,0.28110935087503475,-0.10248989714195361,0.0503729083549951,0.0974065256448222,-0.04204598426643306,0.0646629703649615
358,0.07826685428233092,0.2522652800620894,0.45576770360865587,0.02014840680711026,-0.1554641185916133,0.28110935087503475,-0.10248989714195361,0.0503729083549951,0.0974065256448222,-0.04204598426643306,0.0646629703649615
359,0.07826685428233092,0.2522652800620894,0.45576770360865587,0.02014840680711026,-0.1554641185916133,0.28110935087503475,-0.10248989714195361,0.0503729083549951,0.0974065256448222,-0.04204598426643306,0.0646629703649615
360,0.07826685428233092,0.2522652800620894,0.45576770360865587,0.02014840680711026,-0.1554641185916133,0.28110935087503475,-0.10248989714195361,0.0503729083549951,0.0974065256448222,-0.04204598426643306,0.0646629703649615
361,0.07826685428233092,0.2522652800620894,0.45576770360865587,0.02014840680711026,-0.1554641185916133,0.28110935087503475,-0.10248989714195361,0.0503729083549951,0.0974065256448222,-0.04204598426643306,0.0646629703649615
362,0.07826685428233092,0.2522652800620894,0.45576770360865587,0.02014840680711026,-0.1554641185916133,0.28110935087503475,-0.10248989714195361,0.0503729083549951,0.0974065256448222,-0.04204598426643306,0.0646629703649615
363,0.07826685428233092,0.2522652800620894,0.45576770360865587,0.02014840680711026,-0.1554641185916133,0.28110935087503475,-0.10248989714195361,0.0503729083549951,0.0974065256448222,-0.04204598426643306,0.0646629703649615
364,0.07826685428233092,0.2522652800620894,0.45576770360865587,0.02014840680711026,-0.1554641185916133,0.28110935087503475,-0.10248989714195361,0.0503729083549951,0.0974065256448222,-0.04204598426643306,0.0646629703649615
365,0.10896656510341847,1.8349273572685772e-07,0.1111523240107366,0.03340959535878496,0.18877473443089485,-0.08768544877987051,-0.0810279432138839,0.7661243578185367,-0.050599101452797834,0.0915722397848927,-0.08068750655344772
366,0.10896656510341847,1.8349273572685772e-07,0.1111523240107366,0.03340959535878496,0.18877473443089485,-0.08768544877987051,-0.0810279432138839,0.7661243578185367,-0.050599101452797834,0.0915722397848927,-0.08068750655344772
367,0.10896656510341847,1.8349273572685772e-07,0.1111523240107366,0.03340959535878496,0.18877473443089485,-0.08768544877987051,-0.0810279432138839,0.7661243578185367,-0.050599101452797834,0.0915722397848927,-0.08068750655344772
368,0.10896656510341847,1.8349273572685772e-07,0.1111523240107366,0.03340959535878496,0.18877473443089485,-0.08768544877987051,-0.0810279432138839,0.7661243578185367,-0.050599101452797834,0.0915722397848927,-0.08068750655344772
369,0.10896656510341847,1.8349273572685772e-07,0.1111523240107366,0.03340959535878496,0.18877473443089485,-0.08768544877987051,-0.0810279432138839,0.7661243578185367,-0.050599101452797834,0.0915722397848927,-0.08068750655344772
370,0.10896656510341847,1.8349273572685772e-07,0.1111523240107366,0.03340959535878496,0.18877473443089485,-0.08768544877987051,-0.0810279432138839,0.7661243578185367,-0.050599101452797834,0.0915722397848927,-0.08068750655344772
371,0.10896656510341847,1.8349273572685772e-07,0.1111523240107366,0.03340959535878496,0.18877473443089485,-0.08768544877987051,-0.0810279432138839,0.7661243578185367,-0.050599101452797834,0.0915722397848927,-0.08068750655344772
372,0.10896656510341847,1.8349273572685772e-07,0.1111523240107366,0.03340959535878496,0.18877473443089485,-0.08768544877987051,-0.0810279432138839,0.7661243578185367,-0.050599101452797834,0.0915722397848927,-0.08068750655344772
373,0.10896656510341847,1.8349273572685772e-07,0.1111523240107366,0.03340959535878496,0.18877473443089485,-0.08768544877987051,-0.0810279432138839,0.7661243578185367,-0.050599101452797834,0.0915722397848927,-0.08068750655344772
374,0.10896656510341847,1.8349273572685772e-07,0.1111523240107366,0.03340959535878496,0.18877473443089485,-0.08768544877987051,-0.0810279432138839,0.7661243578185367,-0.050599101452797834,0.0915722397848927,-0.08068750655344772
375,0.10896656510341847,1.8349273572685772e-07,0.1111523240107366,0.03340959535878496,0.18877473443089485,-0.08768544877987051,-0.0810279432138839,0.7661243578185367,-0.050599101452797834,0.0915722397848927,-0.08068750655344772
376,0.10896656510341847,1.8349273572685772e-07,0.1111523240107366,0.03340959535878496,0.18877473443089485,-0.08768544877987051,-0.0810279432138839,0.7661243578185367,-0.050599101452797834,0.0915722397848927,-0.08068750655344772
377,0.10896656510341847,1.8349273572685772e-07,0.1111523240107366,0.03340959535878496,0.18877473443089485,-0.08768544877987051,-0.0810279432138839,0.7661243578185367,-0.050599101452797834,0.0915722397848927,-0.08068750655344772
378,0.10896656510341847,1.8349273572685772e-07,0.1111523240107366,0.03340959535878496,0.18877473443089485,-0.08768544877987051,-0.0810279432138839,0.7661243578185367,-0.050599101452797834,0.0915722397848927,-0.08068750655344772
379,0.10896656510341847,1.8349273572685772e-07,0.1111523240107366,0.03340959535878496,0.18877473443089485,-0.08768544877987051,-0.0810279432138839,0.7661243578185367,-0.050599101452797834,0.0915722397848927,-0.08068750655344772
380,0.10896656510341847,1.8349273572685772e-07,0.1111523240107366,0.03340959535878496,0.18877473443089485,-0.08768544877987051,-0.0810279432138839,0.7661243578185367,-0.050599101452797834,0.0915722397848927,-0.08068750655344772
381,0.10896656510341847,1.8349273572685772e-07,0.1111523240107366,0.03340959535878496,0.18877473443089485,-0.08768544877987051,-0.0810279432138839,0.7661243578185367,-0.050599101452797834,0.0915722397848927,-0.08068750655344772
382,0.10896656510341847,1.8349273572685772e-07,0.1111523240107366,0.03340959535878496,0.18877473443089485,-0.08768544877987051,-0.0810279432138839,0.7661243578185367,-0.050599101452797834,0.0915722397848927,-0.08068750655344772
383,0.10896656510341847,1.8349273572685772e-07,0.1111523240107366,0.03340959535878496,0.18877473443089485,-0.08768544877987051,-0.0810279432138839,0.7661243578185367,-0.050599101452797834,0.0915722397848927,-0.08068750655344772
384,0.10896656510341847,1.8349273572685772e-07,0.1111523240107366,0.03340959535878496,0.18877473443089485,-0.08768544877987051,-0.0810279432138839,0.7661243578185367,-0.050599101452797834,0.0915722397848927,-0.08068750655344772
385,0.10896656510341847,1.8349273572685772e-07,0.1111523240107366,0.03340959535878496,0.18877473443089485,-0.08768544877987051,-0.0810279432138839,0.7661243578185367,-0.050599101452797834,0.0915722397848927,-0.08068750655344772
386,0.10896656510341847,1.8349273572685772e-07,0.1111523240107366,0.03340959535878496,0.18877473443089485,-0.08768544877987051,-0.0810279432138839,0.7661243578185367,-0.050599101452797834,0.0915722397848927,-0.08068750655344772
387,0.10896656510341847,1.8349273572685772e-07,0.1111523240107366,0.03340959535878496,0.18877473443089485,-0.08768544877987051,-0.0810279432138839,0.7661243578185367,-0.050599101452797834,0.0915722397848927,-0.08068750655344772
388,0.10896656510341847,1.8349273572685772e-07,0.1111523240107366,0.03340959535878496,0.18877473443089485,-0.08768544877987051,-0.0810279432138839,0.7661243578185367,-0.050599101452797834,0.0915722397848927,-0.08068750655344772
389,0.10896656510341847,1.8349273572685772e-07,0.1111523240107366,0.03340959535878496,0.18877473443089485,-0.08768544877987051,-0.0810279432138839,0.7661243578185367,-0.050599101452797834,0.0915722397848927,-0.08068750655344772
390,0.10896656510341847,1.8349273572685772e-07,0.1111523240107366,0.03340959535878496,0.18877473443089485,-0.08768544877987051,-0.0810279432138839,0.7661243578185367,-0.050599101452797834,0.0915722397848927,-0.08068750655344772
391,0.10896656510341847,1.8349273572685772e-07,0.1111523240107366,0.03340959535878496,0.18877473443089485,-0.08768544877987051,-0.0810279432138839,0.7661243578185367,-0.050599101452797834,0.0915722397848927,-0.08068750655344772
392,0.10896656510341847,1.8349273572685772e-07,0.1111523240107366,0.03340959535878496,0.18877473443089485,-0.08768544877987051,-0.0810279432138839,0.7661243578185367,-0.050599101452797834,0.0915722397848927,-0.08068750655344772
393,0.10896656510341847,1.8349273572685772e-07,0.1111523240107366,0.03340959535878496,0.18877473443089485,-0.08768544877987051,-0.0810279432138839,0.7661243578185367,-0.050599101452797834,0.0915722397848927,-0.08068750655344772
394,0.10896656510341847,1.8349273572685772e-07,0.1111523240107366,0.03340959535878496,0.18877473443089485,-0.08768544877987051,-0.0810279432138839,0.7661243578185367,-0.050599101452797834,0.0915722397848927,-0.08068750655344772
395,0.10896656510341847,1.8349273572685772e-07,0.1111523240107366,0.03340959535878496,0.18877473443089485,-0.08768544877987051,-0.0810279432138839,0.7661243578185367,-0.050599101452797834,0.0915722397848927,-0.08068750655344772
396,0.02269860043468545,0.017352952829368322,0.18432653467181956,0.16021639609442442,0.03344919190090407,0.03712341738263847,0.025164579753980218,0.021488715167831282,0.17680974350301903,0.04061354228550307,0.28075632597582617
397,0.02269860043468545,0.017352952829368322,0.18432653467181956,0.16021639609442442,0.03344919190090407,0.03712341738263847,0.025164579753980218,0.021488715167831282,0.17680974350301903,0.04061354228550307,0.28075632597582617
398,0.02269860043468545,0.017352952829368322,0.18432653467181956,0.16021639609442442,0.03344919190090407,0.03712341738263847,0.025164579753980218,0.021488715167831282,0.17680974350301903,0.04061354228550307,0.28075632597582617
399,0.02269860043468545,0.017352952829368322,0.18432653467181956,0.16021639609442442,0.03344919190090407,0.03712341738263847,0.025164579753980218,0.021488715167831282,0.17680974350301903,0.04061354228550307,0.28075632597582617
400,0.02269860043468545,0.017352952829368322,0.18432653467181956,0.16021639609442442,0.03344919190090407,0.03712341738263847,0.025164579753980218,0.021488715167831282,0.17680974350301903,0.04061354228550307,0.28075632597582617
401,0.02269860043468545,0.017352952829368322,0.18432653467181956,0.16021639609442442,0.03344919190090407,0.03712341738263847,0.025164579753980218,0.021488715167831282,0.17680974350301903,0.04061354228550307,0.28075632597582617
402,0.02269860043468545,0.017352952829368322,0.18432653467181956,0.16021639609442442,0.03344919190090407,0.03712341738263847,0.025164579753980218,0.021488715167831282,0.17680974350301903,0.04061354228550307,0.28075632597582617
403,0.02269860043468545,0.017352952829368322,0.18432653467181956,0.16021639609442442,0.03344919190090407,0.03712341738263847,0.025164579753980218,0.021488715167831282,0.17680974350301903,0.04061354228550307,0.28075632597582617
404,0.02269860043468545,0.017352952829368322,0.18432653467181956,0.16021639609442442,0.03344919190090407,0.03712341738263847,0.025164579753980218,0.021488715167831282,0.17680974350301903,0.04061354228550307,0.28075632597582617
405,0.02269860043468545,0.017352952829368322,0.18432653467181956,0.16021639609442442,0.03344919190090407,0.03712341738263847,0.025164579753980218,0.021488715167831282,0.17680974350301903,0.04061354228550307,0.28075632597582617
406,0.02269860043468545,0.017352952829368322,0.18432653467181956,0.16021639609442442,0.03344919190090407,0.03712341738263847,0.025164579753980218,0.021488715167831282,0.17680974350301903,0.04061354228550307,0.28075632597582617
407,0.02269860043468545,0.017352952829368322,0.18432653467181956,0.16021639609442442,0.03344919190090407,0.03712341738263847,0.025164579753980218,0.021488715167831282,0.17680974350301903,0.04061354228550307,0.28075632597582617
408,0.02269860043468545,0.017352952829368322,0.18432653467181956,0.16021639609442442,0.03344919190090407,0.03712341738263847,0.025164579753980218,0.021488715167831282,0.17680974350301903,0.04061354228550307,0.28075632597582617
409,0.02269860043468545,0.017352952829368322,0.18432653467181956,0.16021639609442442,0.03344919190090407,0.03712341738263847,0.025164579753980218,0.021488715167831282,0.17680974350301903,0.04061354228550307,0.28075632597582617
410,0.02269860043468545,0.017352952829368322,0.18432653467181956,0.16021639609442442,0.03344919190090407,0.03712341738263847,0.025164579753980218,0.021488715167831282,0.17680974350301903,0.04061354228550307,0.28075632597582617
411,0.02269860043468545,0.017352952829368322,0.18432653467181956,0.16021639609442442,0.03344919190090407,0.03712341738263847,0.025164579753980218,0.021488715167831282,0.17680974350301903,0.04061354228550307,0.28075632597582617
412,0.02269860043468545,0.017352952829368322,0.18432653467181956,0.16021639609442442,0.03344919190090407,0.03712341738263847,0.025164579753980218,0.021488715167831282,0.17680974350301903,0.04061354228550307,0.28075632597582617
413,0.02269860043468545,0.017352952829368322,0.18432653467181956,0.16021639609442442,0.03344919190090407,0.03712341738263847,0.025164579753980218,0.021488715167831282,0.17680974350301903,0.04061354228550307,0.28075632597582617
414,0.02269860043468545,0.017352952829368322,0.18432653467181956,0.16021639609442442,0.03344919190090407,0.03712341738263847,0.025164579753980218,0.021488715167831282,0.17680974350301903,0.04061354228550307,0.28075632597582617
415,0.02269860043468545,0.017352952829368322,0.18432653467181956,0.16021639609442442,0.03344919190090407,0.03712341738263847,0.025164579753980218,0.021488715167831282,0.17680974350301903,0.04061354228550307,0.28075632597582617
416,0.02269860043468545,0.017352952829368322,0.18432653467181956,0.16021639609442442,0.03344919190090407,0.03712341738263847,0.025164579753980218,0.021488715167831282,0.17680974350301903,0.04061354228550307,0.28075632597582617
417,0.02269860043468545,0.017352952829368322,0.18432653467181956,0.16021639609442442,0.03344919190090407,0.03712341738263847,0.025164579753980218,0.021488715167831282,0.17680974350301903,0.04061354228550307,0.28075632597582617
418,0.02269860043468545,0.017352952829368322,0.18432653467181956,0.16021639609442442,0.03344919190090407,0.03712341738263847,0.025164579753980218,0.021488715167831282,0.17680974350301903,0.04061354228550307,0.28075632597582617
419,0.02269860043468545,0.017352952829368322,0.18432653467181956,0.16021639609442442,0.03344919190090407,0.03712341738263847,0.025164579753980218,0.021488715167831282,0.17680974350301903,0.04061354228550307,0.28075632597582617
420,0.02269860043468545,0.017352952829368322,0.18432653467181956,0.16021639609442442,0.03344919190090407,0.03712341738263847,0.025164579753980218,0.021488715167831282,0.17680974350301903,0.04061354228550307,0.28075632597582617
421,0.02269860043468545,0.017352952829368322,0.18432653467181956,0.16021639609442442,0.03344919190090407,0.03712341738263847,0.025164579753980218,0.021488715167831282,0.17680974350301903,0.04061354228550307,0.28075632597582617
422,0.02269860043468545,0.017352952829368322,0.18432653467181956,0.16021639609442442,0.03344919190090407,0.03712341738263847,0.025164579753980218,0.021488715167831282,0.17680974350301903,0.04061354228550307,0.28075632597582617
423,0.02269860043468545,0.017352952829368322,0.18432653467181956,0.16021639609442442,0.03344919190090407,0.03712341738263847,0.025164579753980218,0.021488715167831282,0.17680974350301903,0.04061354228550307,0.28075632597582617
424,0.014766998746482962,0.011420603456771261,-0.12823241315301984,0.12147698586636088,0.0229780146616482,-0.024554429794957998,0.04925178499114016,0.021007915973479657,1.0122129957146875,0.04688470058942943,-0.14721315705202212
425,0.014766998746482962,0.011420603456771261,-0.12823241315301984,0.12147698586636088,0.0229780146616482,-0.024554429794957998,0.04925178499114016,0.021007915973479657,1.0122129957146875,0.04688470058942943,-0.14721315705202212
426,0.014766998746482962,0.011420603456771261,-0.12823241315301984,0.12147698586636088,0.0229780146616482,-0.024554429794957998,0.04925178499114016,0.021007915973479657,1.0122129957146875,0.04688470058942943,-0.14721315705202212
427,0.014766998746482962,0.011420603456771261,-0.12823241315301984,0.12147698586636088,0.0229780146616482,-0.024554429794957998,0.04925178499114016,0.021007915973479657,1.0122129957146875,0.04688470058942943,-0.14721315705202212
428,0.014766998746482962,0.011420603456771261,-0.12823241315301984,0.12147698586636088,0.0229780146616482,-0.024554429794957998,0.04925178499114016,0.021007915973479657,1.0122129957146875,0.04688470058942943,-0.14721315705202212
429,0.014766998746482962,0.011420603456771261,-0.12823241315301984,0.12147698586636088,0.0229780146616482,-0.024554429794957998,0.04925178499114016,0.021007915973479657,1.0122129957146875,0.04688470058942943,-0.14721315705202212
430,0.014766998746482962,0.011420603456771261,-0.12823241315301984,0.12147698586636088,0.0229780146616482,-0.024554429794957998,0.04925178499114016,0.021007915973479657,1.0122129957146875,0.04688470058942943,-0.14721315705202212
431,0.014766998746482962,0.011420603456771261,-0.12823241315301984,0.12147698586636088,0.0229780146616482,-0.024554429794957998,0.04925178499114016,0.021007915973479657,1.0122129957146875,0.04688470058942943,-0.14721315705202212
432,0.014766998746482962,0.011420603456771261,-0.12823241315301984,0.12147698586636088,0.0229780146616482,-0.024554429794957998,0.04925178499114016,0.021007915973479657,1.0122129957146875,0.04688470058942943,-0.14721315705202212
433,0.014766998746482962,0.011420603456771261,-0.12823241315301984,0.12147698586636088,0.0229780146616482,-0.024554429794957998,0.04925178499114016,0.021007915973479657,1.0122129957146875,0.04688470058942943,-0.14721315705202212
434,0.014766998746482962,0.011420603456771261,-0.12823241315301984,0.12147698586636088,0.0229780146616482,-0.024554429794957998,0.04925178499114016,0.021007915973479657,1.0122129957146875,0.04688470058942943,-0.14721315705202212
435,0.014766998746482962,0.011420603456771261,-0.12823241315301984,0.12147698586636088,0.0229780146616482,-0.024554429794957998,0.04925178499114016,0.021007915973479657,1.0122129957146875,0.04688470058942943,-0.14721315705202212
436,0.014766998746482962,0.011420603456771261,-0.12823241315301984,0.12147698586636088,0.0229780146616482,-0.024554429794957998,0.04925178499114016,0.021007915973479657,1.0122129957146875,0.04688470058942943,-0.14721315705202212
437,0.014766998746482962,0.011420603456771261,-0.12823241315301984,0.12147698586636088,0.0229780146616482,-0.024554429794957998,0.04925178499114016,0.021007915973479657,1.0122129957146875,0.04688470058942943,-0.14721315705202212
438,0.014766998746482962,0.011420603456771261,-0.12823241315301984,0.12147698586636088,0.0229780146616482,-0.024554429794957998,0.04925178499114016,0.021007915973479657,1.0122129957146875,0.04688470058942943,-0.14721315705202212
439,0.014766998746482962,0.011420603456771261,-0.12823241315301984,0.12147698586636088,0.0229780146616482,-0.024554429794957998,0.04925178499114016,0.021007915973479657,1.0122129957146875,0.04688470058942943,-0.14721315705202212
440,0.014766998746482962,0.011420603456771261,-0.12823241315301984,0.12147698586636088,0.0229780146616482,-0.024554429794957998,0.04925178499114016,0.021007915973479657,1.0122129957146875,0.04688470058942943,-0.14721315705202212
441,0.014766998746482962,0.011420603456771261,-0.12823241315301984,0.12147698586636088,0.0229780146616482,-0.024554429794957998,0.04925178499114016,0.021007915973479657,1.0122129957146875,0.04688470058942943,-0.14721315705202212
442,0.014766998746482962,0.011420603456771261,-0.12823241315301984,0.12147698586636088,0.0229780146616482,-0.024554429794957998,0.04925178499114016,0.021007915973479657,1.0122129957146875,0.04688470058942943,-0.14721315705202212
443,0.014766998746482962,0.011420603456771261,-0.12823241315301984,0.12147698586636088,0.0229780146616482,-0.024554429794957998,0.04925178499114016,0.021007915973479657,1.0122129957146875,0.04688470058942943,-0.14721315705202212
