,0,1,2,3,4,5,6,7,8,9,10
0,0.10533732640529608,0.058946952050307415,0.19189376744326275,0.321043342918563,0.051554729717200216,0.09672001498436064,-0.22163907883632097,0.07343998989490459,0.2997897766009146,0.10127409998519074,-0.07836092116367904
1,0.10533732640529608,0.058946952050307415,0.19189376744326275,0.321043342918563,0.051554729717200216,0.09672001498436064,-0.22163907883632097,0.07343998989490459,0.2997897766009146,0.10127409998519074,-0.07836092116367904
2,0.10533732640529608,0.058946952050307415,0.19189376744326275,0.321043342918563,0.051554729717200216,0.09672001498436064,-0.22163907883632097,0.07343998989490459,0.2997897766009146,0.10127409998519074,-0.07836092116367904
3,0.10533732640529608,0.058946952050307415,0.19189376744326275,0.321043342918563,0.051554729717200216,0.09672001498436064,-0.22163907883632097,0.07343998989490459,0.2997897766009146,0.10127409998519074,-0.07836092116367904
4,0.10533732640529608,0.058946952050307415,0.19189376744326275,0.321043342918563,0.051554729717200216,0.09672001498436064,-0.22163907883632097,0.07343998989490459,0.2997897766009146,0.10127409998519074,-0.07836092116367904
5,0.10533732640529608,0.058946952050307415,0.19189376744326275,0.321043342918563,0.051554729717200216,0.09672001498436064,-0.22163907883632097,0.07343998989490459,0.2997897766009146,0.10127409998519074,-0.07836092116367904
6,0.10533732640529608,0.058946952050307415,0.19189376744326275,0.321043342918563,0.051554729717200216,0.09672001498436064,-0.22163907883632097,0.07343998989490459,0.2997897766009146,0.10127409998519074,-0.07836092116367904
7,0.10533732640529608,0.058946952050307415,0.19189376744326275,0.321043342918563,0.051554729717200216,0.09672001498436064,-0.22163907883632097,0.07343998989490459,0.2997897766009146,0.10127409998519074,-0.07836092116367904
8,0.10533732640529608,0.058946952050307415,0.19189376744326275,0.321043342918563,0.051554729717200216,0.09672001498436064,-0.22163907883632097,0.07343998989490459,0.2997897766009146,0.10127409998519074,-0.07836092116367904
9,0.10533732640529608,0.058946952050307415,0.19189376744326275,0.321043342918563,0.051554729717200216,0.09672001498436064,-0.22163907883632097,0.07343998989490459,0.2997897766009146,0.10127409998519074,-0.07836092116367904
10,0.10533732640529608,0.058946952050307415,0.19189376744326275,0.321043342918563,0.051554729717200216,0.09672001498436064,-0.22163907883632097,0.07343998989490459,0.2997897766009146,0.10127409998519074,-0.07836092116367904
11,0.10533732640529608,0.058946952050307415,0.19189376744326275,0.321043342918563,0.051554729717200216,0.09672001498436064,-0.22163907883632097,0.07343998989490459,0.2997897766009146,0.10127409998519074,-0.07836092116367904
12,0.10533732640529608,0.058946952050307415,0.19189376744326275,0.321043342918563,0.051554729717200216,0.09672001498436064,-0.22163907883632097,0.07343998989490459,0.2997897766009146,0.10127409998519074,-0.07836092116367904
13,0.10533732640529608,0.058946952050307415,0.19189376744326275,0.321043342918563,0.051554729717200216,0.09672001498436064,-0.22163907883632097,0.07343998989490459,0.2997897766009146,0.10127409998519074,-0.07836092116367904
14,0.10533732640529608,0.058946952050307415,0.19189376744326275,0.321043342918563,0.051554729717200216,0.09672001498436064,-0.22163907883632097,0.07343998989490459,0.2997897766009146,0.10127409998519074,-0.07836092116367904
15,0.10533732640529608,0.058946952050307415,0.19189376744326275,0.321043342918563,0.051554729717200216,0.09672001498436064,-0.22163907883632097,0.07343998989490459,0.2997897766009146,0.10127409998519074,-0.07836092116367904
16,0.10533732640529608,0.058946952050307415,0.19189376744326275,0.321043342918563,0.051554729717200216,0.09672001498436064,-0.22163907883632097,0.07343998989490459,0.2997897766009146,0.10127409998519074,-0.07836092116367904
17,0.10533732640529608,0.058946952050307415,0.19189376744326275,0.321043342918563,0.051554729717200216,0.09672001498436064,-0.22163907883632097,0.07343998989490459,0.2997897766009146,0.10127409998519074,-0.07836092116367904
18,0.10533732640529608,0.058946952050307415,0.19189376744326275,0.321043342918563,0.051554729717200216,0.09672001498436064,-0.22163907883632097,0.07343998989490459,0.2997897766009146,0.10127409998519074,-0.07836092116367904
19,0.10533732640529608,0.058946952050307415,0.19189376744326275,0.321043342918563,0.051554729717200216,0.09672001498436064,-0.22163907883632097,0.07343998989490459,0.2997897766009146,0.10127409998519074,-0.07836092116367904
20,0.10533732640529608,0.058946952050307415,0.19189376744326275,0.321043342918563,0.051554729717200216,0.09672001498436064,-0.22163907883632097,0.07343998989490459,0.2997897766009146,0.10127409998519074,-0.07836092116367904
21,0.10533732640529608,0.058946952050307415,0.19189376744326275,0.321043342918563,0.051554729717200216,0.09672001498436064,-0.22163907883632097,0.07343998989490459,0.2997897766009146,0.10127409998519074,-0.07836092116367904
22,0.10533732640529608,0.058946952050307415,0.19189376744326275,0.321043342918563,0.051554729717200216,0.09672001498436064,-0.22163907883632097,0.07343998989490459,0.2997897766009146,0.10127409998519074,-0.07836092116367904
23,0.10533732640529608,0.058946952050307415,0.19189376744326275,0.321043342918563,0.051554729717200216,0.09672001498436064,-0.22163907883632097,0.07343998989490459,0.2997897766009146,0.10127409998519074,-0.07836092116367904
24,0.10533732640529608,0.058946952050307415,0.19189376744326275,0.321043342918563,0.051554729717200216,0.09672001498436064,-0.22163907883632097,0.07343998989490459,0.2997897766009146,0.10127409998519074,-0.07836092116367904
25,0.10533732640529608,0.058946952050307415,0.19189376744326275,0.321043342918563,0.051554729717200216,0.09672001498436064,-0.22163907883632097,0.07343998989490459,0.2997897766009146,0.10127409998519074,-0.07836092116367904
26,0.10533732640529608,0.058946952050307415,0.19189376744326275,0.321043342918563,0.051554729717200216,0.09672001498436064,-0.22163907883632097,0.07343998989490459,0.2997897766009146,0.10127409998519074,-0.07836092116367904
27,0.10533732640529608,0.058946952050307415,0.19189376744326275,0.321043342918563,0.051554729717200216,0.09672001498436064,-0.22163907883632097,0.07343998989490459,0.2997897766009146,0.10127409998519074,-0.07836092116367904
28,0.10533732640529608,0.058946952050307415,0.19189376744326275,0.321043342918563,0.051554729717200216,0.09672001498436064,-0.22163907883632097,0.07343998989490459,0.2997897766009146,0.10127409998519074,-0.07836092116367904
29,0.10533732640529608,0.058946952050307415,0.19189376744326275,0.321043342918563,0.051554729717200216,0.09672001498436064,-0.22163907883632097,0.07343998989490459,0.2997897766009146,0.10127409998519074,-0.07836092116367904
30,0.10533732640529608,0.058946952050307415,0.19189376744326275,0.321043342918563,0.051554729717200216,0.09672001498436064,-0.22163907883632097,0.07343998989490459,0.2997897766009146,0.10127409998519074,-0.07836092116367904
31,0.013116446592001646,0.009891765140401805,-0.09453328286843606,0.0060307391955000894,0.020976971615808315,0.017191176176244317,0.015624064712418726,0.8439005794098593,0.006561055665755912,0.02653095091432621,0.13470953344611983
32,0.013116446592001646,0.009891765140401805,-0.09453328286843606,0.0060307391955000894,0.020976971615808315,0.017191176176244317,0.015624064712418726,0.8439005794098593,0.006561055665755912,0.02653095091432621,0.13470953344611983
33,0.013116446592001646,0.009891765140401805,-0.09453328286843606,0.0060307391955000894,0.020976971615808315,0.017191176176244317,0.015624064712418726,0.8439005794098593,0.006561055665755912,0.02653095091432621,0.13470953344611983
34,0.013116446592001646,0.009891765140401805,-0.09453328286843606,0.0060307391955000894,0.020976971615808315,0.017191176176244317,0.015624064712418726,0.8439005794098593,0.006561055665755912,0.02653095091432621,0.13470953344611983
35,0.013116446592001646,0.009891765140401805,-0.09453328286843606,0.0060307391955000894,0.020976971615808315,0.017191176176244317,0.015624064712418726,0.8439005794098593,0.006561055665755912,0.02653095091432621,0.13470953344611983
36,0.013116446592001646,0.009891765140401805,-0.09453328286843606,0.0060307391955000894,0.020976971615808315,0.017191176176244317,0.015624064712418726,0.8439005794098593,0.006561055665755912,0.02653095091432621,0.13470953344611983
37,0.013116446592001646,0.009891765140401805,-0.09453328286843606,0.0060307391955000894,0.020976971615808315,0.017191176176244317,0.015624064712418726,0.8439005794098593,0.006561055665755912,0.02653095091432621,0.13470953344611983
38,0.013116446592001646,0.009891765140401805,-0.09453328286843606,0.0060307391955000894,0.020976971615808315,0.017191176176244317,0.015624064712418726,0.8439005794098593,0.006561055665755912,0.02653095091432621,0.13470953344611983
39,0.013116446592001646,0.009891765140401805,-0.09453328286843606,0.0060307391955000894,0.020976971615808315,0.017191176176244317,0.015624064712418726,0.8439005794098593,0.006561055665755912,0.02653095091432621,0.13470953344611983
40,0.013116446592001646,0.009891765140401805,-0.09453328286843606,0.0060307391955000894,0.020976971615808315,0.017191176176244317,0.015624064712418726,0.8439005794098593,0.006561055665755912,0.02653095091432621,0.13470953344611983
41,0.013116446592001646,0.009891765140401805,-0.09453328286843606,0.0060307391955000894,0.020976971615808315,0.017191176176244317,0.015624064712418726,0.8439005794098593,0.006561055665755912,0.02653095091432621,0.13470953344611983
42,0.013116446592001646,0.009891765140401805,-0.09453328286843606,0.0060307391955000894,0.020976971615808315,0.017191176176244317,0.015624064712418726,0.8439005794098593,0.006561055665755912,0.02653095091432621,0.13470953344611983
43,0.013116446592001646,0.009891765140401805,-0.09453328286843606,0.0060307391955000894,0.020976971615808315,0.017191176176244317,0.015624064712418726,0.8439005794098593,0.006561055665755912,0.02653095091432621,0.13470953344611983
44,0.013116446592001646,0.009891765140401805,-0.09453328286843606,0.0060307391955000894,0.020976971615808315,0.017191176176244317,0.015624064712418726,0.8439005794098593,0.006561055665755912,0.02653095091432621,0.13470953344611983
45,0.013116446592001646,0.009891765140401805,-0.09453328286843606,0.0060307391955000894,0.020976971615808315,0.017191176176244317,0.015624064712418726,0.8439005794098593,0.006561055665755912,0.02653095091432621,0.13470953344611983
46,0.013116446592001646,0.009891765140401805,-0.09453328286843606,0.0060307391955000894,0.020976971615808315,0.017191176176244317,0.015624064712418726,0.8439005794098593,0.006561055665755912,0.02653095091432621,0.13470953344611983
47,0.013116446592001646,0.009891765140401805,-0.09453328286843606,0.0060307391955000894,0.020976971615808315,0.017191176176244317,0.015624064712418726,0.8439005794098593,0.006561055665755912,0.02653095091432621,0.13470953344611983
48,0.013116446592001646,0.009891765140401805,-0.09453328286843606,0.0060307391955000894,0.020976971615808315,0.017191176176244317,0.015624064712418726,0.8439005794098593,0.006561055665755912,0.02653095091432621,0.13470953344611983
49,0.013116446592001646,0.009891765140401805,-0.09453328286843606,0.0060307391955000894,0.020976971615808315,0.017191176176244317,0.015624064712418726,0.8439005794098593,0.006561055665755912,0.02653095091432621,0.13470953344611983
50,0.013116446592001646,0.009891765140401805,-0.09453328286843606,0.0060307391955000894,0.020976971615808315,0.017191176176244317,0.015624064712418726,0.8439005794098593,0.006561055665755912,0.02653095091432621,0.13470953344611983
51,0.013116446592001646,0.009891765140401805,-0.09453328286843606,0.0060307391955000894,0.020976971615808315,0.017191176176244317,0.015624064712418726,0.8439005794098593,0.006561055665755912,0.02653095091432621,0.13470953344611983
52,0.013116446592001646,0.009891765140401805,-0.09453328286843606,0.0060307391955000894,0.020976971615808315,0.017191176176244317,0.015624064712418726,0.8439005794098593,0.006561055665755912,0.02653095091432621,0.13470953344611983
53,0.013116446592001646,0.009891765140401805,-0.09453328286843606,0.0060307391955000894,0.020976971615808315,0.017191176176244317,0.015624064712418726,0.8439005794098593,0.006561055665755912,0.02653095091432621,0.13470953344611983
54,0.013116446592001646,0.009891765140401805,-0.09453328286843606,0.0060307391955000894,0.020976971615808315,0.017191176176244317,0.015624064712418726,0.8439005794098593,0.006561055665755912,0.02653095091432621,0.13470953344611983
55,0.013116446592001646,0.009891765140401805,-0.09453328286843606,0.0060307391955000894,0.020976971615808315,0.017191176176244317,0.015624064712418726,0.8439005794098593,0.006561055665755912,0.02653095091432621,0.13470953344611983
56,0.013116446592001646,0.009891765140401805,-0.09453328286843606,0.0060307391955000894,0.020976971615808315,0.017191176176244317,0.015624064712418726,0.8439005794098593,0.006561055665755912,0.02653095091432621,0.13470953344611983
57,0.013116446592001646,0.009891765140401805,-0.09453328286843606,0.0060307391955000894,0.020976971615808315,0.017191176176244317,0.015624064712418726,0.8439005794098593,0.006561055665755912,0.02653095091432621,0.13470953344611983
58,0.013116446592001646,0.009891765140401805,-0.09453328286843606,0.0060307391955000894,0.020976971615808315,0.017191176176244317,0.015624064712418726,0.8439005794098593,0.006561055665755912,0.02653095091432621,0.13470953344611983
59,-0.013340312113914768,-0.05430329269556947,-0.04638924580901336,0.12312869776386273,-0.026319320900432996,0.982453091752105,-0.03440063527172807,-0.06899304721128015,0.1781593799339696,0.016258830550062383,-0.05625414599806113
60,-0.013340312113914768,-0.05430329269556947,-0.04638924580901336,0.12312869776386273,-0.026319320900432996,0.982453091752105,-0.03440063527172807,-0.06899304721128015,0.1781593799339696,0.016258830550062383,-0.05625414599806113
61,-0.013340312113914768,-0.05430329269556947,-0.04638924580901336,0.12312869776386273,-0.026319320900432996,0.982453091752105,-0.03440063527172807,-0.06899304721128015,0.1781593799339696,0.016258830550062383,-0.05625414599806113
62,-0.013340312113914768,-0.05430329269556947,-0.04638924580901336,0.12312869776386273,-0.026319320900432996,0.982453091752105,-0.03440063527172807,-0.06899304721128015,0.1781593799339696,0.016258830550062383,-0.05625414599806113
63,-0.013340312113914768,-0.05430329269556947,-0.04638924580901336,0.12312869776386273,-0.026319320900432996,0.982453091752105,-0.03440063527172807,-0.06899304721128015,0.1781593799339696,0.016258830550062383,-0.05625414599806113
64,-0.013340312113914768,-0.05430329269556947,-0.04638924580901336,0.12312869776386273,-0.026319320900432996,0.982453091752105,-0.03440063527172807,-0.06899304721128015,0.1781593799339696,0.016258830550062383,-0.05625414599806113
65,-0.013340312113914768,-0.05430329269556947,-0.04638924580901336,0.12312869776386273,-0.026319320900432996,0.982453091752105,-0.03440063527172807,-0.06899304721128015,0.1781593799339696,0.016258830550062383,-0.05625414599806113
66,-0.013340312113914768,-0.05430329269556947,-0.04638924580901336,0.12312869776386273,-0.026319320900432996,0.982453091752105,-0.03440063527172807,-0.06899304721128015,0.1781593799339696,0.016258830550062383,-0.05625414599806113
67,-0.013340312113914768,-0.05430329269556947,-0.04638924580901336,0.12312869776386273,-0.026319320900432996,0.982453091752105,-0.03440063527172807,-0.06899304721128015,0.1781593799339696,0.016258830550062383,-0.05625414599806113
68,-0.013340312113914768,-0.05430329269556947,-0.04638924580901336,0.12312869776386273,-0.026319320900432996,0.982453091752105,-0.03440063527172807,-0.06899304721128015,0.1781593799339696,0.016258830550062383,-0.05625414599806113
69,-0.013340312113914768,-0.05430329269556947,-0.04638924580901336,0.12312869776386273,-0.026319320900432996,0.982453091752105,-0.03440063527172807,-0.06899304721128015,0.1781593799339696,0.016258830550062383,-0.05625414599806113
70,-0.013340312113914768,-0.05430329269556947,-0.04638924580901336,0.12312869776386273,-0.026319320900432996,0.982453091752105,-0.03440063527172807,-0.06899304721128015,0.1781593799339696,0.016258830550062383,-0.05625414599806113
71,-0.013340312113914768,-0.05430329269556947,-0.04638924580901336,0.12312869776386273,-0.026319320900432996,0.982453091752105,-0.03440063527172807,-0.06899304721128015,0.1781593799339696,0.016258830550062383,-0.05625414599806113
72,-0.013340312113914768,-0.05430329269556947,-0.04638924580901336,0.12312869776386273,-0.026319320900432996,0.982453091752105,-0.03440063527172807,-0.06899304721128015,0.1781593799339696,0.016258830550062383,-0.05625414599806113
73,-0.013340312113914768,-0.05430329269556947,-0.04638924580901336,0.12312869776386273,-0.026319320900432996,0.982453091752105,-0.03440063527172807,-0.06899304721128015,0.1781593799339696,0.016258830550062383,-0.05625414599806113
74,-0.013340312113914768,-0.05430329269556947,-0.04638924580901336,0.12312869776386273,-0.026319320900432996,0.982453091752105,-0.03440063527172807,-0.06899304721128015,0.1781593799339696,0.016258830550062383,-0.05625414599806113
75,-0.013340312113914768,-0.05430329269556947,-0.04638924580901336,0.12312869776386273,-0.026319320900432996,0.982453091752105,-0.03440063527172807,-0.06899304721128015,0.1781593799339696,0.016258830550062383,-0.05625414599806113
76,-0.013340312113914768,-0.05430329269556947,-0.04638924580901336,0.12312869776386273,-0.026319320900432996,0.982453091752105,-0.03440063527172807,-0.06899304721128015,0.1781593799339696,0.016258830550062383,-0.05625414599806113
77,-0.013340312113914768,-0.05430329269556947,-0.04638924580901336,0.12312869776386273,-0.026319320900432996,0.982453091752105,-0.03440063527172807,-0.06899304721128015,0.1781593799339696,0.016258830550062383,-0.05625414599806113
78,-0.013340312113914768,-0.05430329269556947,-0.04638924580901336,0.12312869776386273,-0.026319320900432996,0.982453091752105,-0.03440063527172807,-0.06899304721128015,0.1781593799339696,0.016258830550062383,-0.05625414599806113
79,-0.013340312113914768,-0.05430329269556947,-0.04638924580901336,0.12312869776386273,-0.026319320900432996,0.982453091752105,-0.03440063527172807,-0.06899304721128015,0.1781593799339696,0.016258830550062383,-0.05625414599806113
80,-0.013340312113914768,-0.05430329269556947,-0.04638924580901336,0.12312869776386273,-0.026319320900432996,0.982453091752105,-0.03440063527172807,-0.06899304721128015,0.1781593799339696,0.016258830550062383,-0.05625414599806113
81,-0.013340312113914768,-0.05430329269556947,-0.04638924580901336,0.12312869776386273,-0.026319320900432996,0.982453091752105,-0.03440063527172807,-0.06899304721128015,0.1781593799339696,0.016258830550062383,-0.05625414599806113
82,-0.013340312113914768,-0.05430329269556947,-0.04638924580901336,0.12312869776386273,-0.026319320900432996,0.982453091752105,-0.03440063527172807,-0.06899304721128015,0.1781593799339696,0.016258830550062383,-0.05625414599806113
83,-0.013340312113914768,-0.05430329269556947,-0.04638924580901336,0.12312869776386273,-0.026319320900432996,0.982453091752105,-0.03440063527172807,-0.06899304721128015,0.1781593799339696,0.016258830550062383,-0.05625414599806113
84,-0.013340312113914768,-0.05430329269556947,-0.04638924580901336,0.12312869776386273,-0.026319320900432996,0.982453091752105,-0.03440063527172807,-0.06899304721128015,0.1781593799339696,0.016258830550062383,-0.05625414599806113
85,-0.013340312113914768,-0.05430329269556947,-0.04638924580901336,0.12312869776386273,-0.026319320900432996,0.982453091752105,-0.03440063527172807,-0.06899304721128015,0.1781593799339696,0.016258830550062383,-0.05625414599806113
86,-0.013340312113914768,-0.05430329269556947,-0.04638924580901336,0.12312869776386273,-0.026319320900432996,0.982453091752105,-0.03440063527172807,-0.06899304721128015,0.1781593799339696,0.016258830550062383,-0.05625414599806113
87,-0.013340312113914768,-0.05430329269556947,-0.04638924580901336,0.12312869776386273,-0.026319320900432996,0.982453091752105,-0.03440063527172807,-0.06899304721128015,0.1781593799339696,0.016258830550062383,-0.05625414599806113
88,-0.013340312113914768,-0.05430329269556947,-0.04638924580901336,0.12312869776386273,-0.026319320900432996,0.982453091752105,-0.03440063527172807,-0.06899304721128015,0.1781593799339696,0.016258830550062383,-0.05625414599806113
89,-0.013340312113914768,-0.05430329269556947,-0.04638924580901336,0.12312869776386273,-0.026319320900432996,0.982453091752105,-0.03440063527172807,-0.06899304721128015,0.1781593799339696,0.016258830550062383,-0.05625414599806113
90,0.030784660956229375,0.04986414331397817,0.1735927471001338,0.08629497840656848,0.03135989328403005,0.05107791484959841,0.05066300220378807,0.03717455820381338,0.04899081298911214,0.504565168429201,-0.06436787973645297
91,0.030784660956229375,0.04986414331397817,0.1735927471001338,0.08629497840656848,0.03135989328403005,0.05107791484959841,0.05066300220378807,0.03717455820381338,0.04899081298911214,0.504565168429201,-0.06436787973645297
92,0.030784660956229375,0.04986414331397817,0.1735927471001338,0.08629497840656848,0.03135989328403005,0.05107791484959841,0.05066300220378807,0.03717455820381338,0.04899081298911214,0.504565168429201,-0.06436787973645297
93,0.030784660956229375,0.04986414331397817,0.1735927471001338,0.08629497840656848,0.03135989328403005,0.05107791484959841,0.05066300220378807,0.03717455820381338,0.04899081298911214,0.504565168429201,-0.06436787973645297
94,0.030784660956229375,0.04986414331397817,0.1735927471001338,0.08629497840656848,0.03135989328403005,0.05107791484959841,0.05066300220378807,0.03717455820381338,0.04899081298911214,0.504565168429201,-0.06436787973645297
95,0.030784660956229375,0.04986414331397817,0.1735927471001338,0.08629497840656848,0.03135989328403005,0.05107791484959841,0.05066300220378807,0.03717455820381338,0.04899081298911214,0.504565168429201,-0.06436787973645297
96,0.030784660956229375,0.04986414331397817,0.1735927471001338,0.08629497840656848,0.03135989328403005,0.05107791484959841,0.05066300220378807,0.03717455820381338,0.04899081298911214,0.504565168429201,-0.06436787973645297
97,0.030784660956229375,0.04986414331397817,0.1735927471001338,0.08629497840656848,0.03135989328403005,0.05107791484959841,0.05066300220378807,0.03717455820381338,0.04899081298911214,0.504565168429201,-0.06436787973645297
98,0.030784660956229375,0.04986414331397817,0.1735927471001338,0.08629497840656848,0.03135989328403005,0.05107791484959841,0.05066300220378807,0.03717455820381338,0.04899081298911214,0.504565168429201,-0.06436787973645297
99,0.030784660956229375,0.04986414331397817,0.1735927471001338,0.08629497840656848,0.03135989328403005,0.05107791484959841,0.05066300220378807,0.03717455820381338,0.04899081298911214,0.504565168429201,-0.06436787973645297
100,0.030784660956229375,0.04986414331397817,0.1735927471001338,0.08629497840656848,0.03135989328403005,0.05107791484959841,0.05066300220378807,0.03717455820381338,0.04899081298911214,0.504565168429201,-0.06436787973645297
101,0.030784660956229375,0.04986414331397817,0.1735927471001338,0.08629497840656848,0.03135989328403005,0.05107791484959841,0.05066300220378807,0.03717455820381338,0.04899081298911214,0.504565168429201,-0.06436787973645297
102,0.030784660956229375,0.04986414331397817,0.1735927471001338,0.08629497840656848,0.03135989328403005,0.05107791484959841,0.05066300220378807,0.03717455820381338,0.04899081298911214,0.504565168429201,-0.06436787973645297
103,0.030784660956229375,0.04986414331397817,0.1735927471001338,0.08629497840656848,0.03135989328403005,0.05107791484959841,0.05066300220378807,0.03717455820381338,0.04899081298911214,0.504565168429201,-0.06436787973645297
104,0.030784660956229375,0.04986414331397817,0.1735927471001338,0.08629497840656848,0.03135989328403005,0.05107791484959841,0.05066300220378807,0.03717455820381338,0.04899081298911214,0.504565168429201,-0.06436787973645297
105,0.030784660956229375,0.04986414331397817,0.1735927471001338,0.08629497840656848,0.03135989328403005,0.05107791484959841,0.05066300220378807,0.03717455820381338,0.04899081298911214,0.504565168429201,-0.06436787973645297
106,0.030784660956229375,0.04986414331397817,0.1735927471001338,0.08629497840656848,0.03135989328403005,0.05107791484959841,0.05066300220378807,0.03717455820381338,0.04899081298911214,0.504565168429201,-0.06436787973645297
107,0.030784660956229375,0.04986414331397817,0.1735927471001338,0.08629497840656848,0.03135989328403005,0.05107791484959841,0.05066300220378807,0.03717455820381338,0.04899081298911214,0.504565168429201,-0.06436787973645297
108,0.030784660956229375,0.04986414331397817,0.1735927471001338,0.08629497840656848,0.03135989328403005,0.05107791484959841,0.05066300220378807,0.03717455820381338,0.04899081298911214,0.504565168429201,-0.06436787973645297
109,0.030784660956229375,0.04986414331397817,0.1735927471001338,0.08629497840656848,0.03135989328403005,0.05107791484959841,0.05066300220378807,0.03717455820381338,0.04899081298911214,0.504565168429201,-0.06436787973645297
110,0.030784660956229375,0.04986414331397817,0.1735927471001338,0.08629497840656848,0.03135989328403005,0.05107791484959841,0.05066300220378807,0.03717455820381338,0.04899081298911214,0.504565168429201,-0.06436787973645297
111,0.030784660956229375,0.04986414331397817,0.1735927471001338,0.08629497840656848,0.03135989328403005,0.05107791484959841,0.05066300220378807,0.03717455820381338,0.04899081298911214,0.504565168429201,-0.06436787973645297
112,0.030784660956229375,0.04986414331397817,0.1735927471001338,0.08629497840656848,0.03135989328403005,0.05107791484959841,0.05066300220378807,0.03717455820381338,0.04899081298911214,0.504565168429201,-0.06436787973645297
113,0.030784660956229375,0.04986414331397817,0.1735927471001338,0.08629497840656848,0.03135989328403005,0.05107791484959841,0.05066300220378807,0.03717455820381338,0.04899081298911214,0.504565168429201,-0.06436787973645297
114,0.030784660956229375,0.04986414331397817,0.1735927471001338,0.08629497840656848,0.03135989328403005,0.05107791484959841,0.05066300220378807,0.03717455820381338,0.04899081298911214,0.504565168429201,-0.06436787973645297
115,0.030784660956229375,0.04986414331397817,0.1735927471001338,0.08629497840656848,0.03135989328403005,0.05107791484959841,0.05066300220378807,0.03717455820381338,0.04899081298911214,0.504565168429201,-0.06436787973645297
116,0.030784660956229375,0.04986414331397817,0.1735927471001338,0.08629497840656848,0.03135989328403005,0.05107791484959841,0.05066300220378807,0.03717455820381338,0.04899081298911214,0.504565168429201,-0.06436787973645297
117,0.030784660956229375,0.04986414331397817,0.1735927471001338,0.08629497840656848,0.03135989328403005,0.05107791484959841,0.05066300220378807,0.03717455820381338,0.04899081298911214,0.504565168429201,-0.06436787973645297
118,0.030784660956229375,0.04986414331397817,0.1735927471001338,0.08629497840656848,0.03135989328403005,0.05107791484959841,0.05066300220378807,0.03717455820381338,0.04899081298911214,0.504565168429201,-0.06436787973645297
119,0.030784660956229375,0.04986414331397817,0.1735927471001338,0.08629497840656848,0.03135989328403005,0.05107791484959841,0.05066300220378807,0.03717455820381338,0.04899081298911214,0.504565168429201,-0.06436787973645297
120,0.03822654011478948,0.05574217988185399,0.8841597059971328,0.052402682297315796,0.041920137414670725,0.06110709222926666,0.05672229657691171,0.04025056783285275,0.06946879765520639,-0.22600671327857466,-0.07399328672142534
121,0.03822654011478948,0.05574217988185399,0.8841597059971328,0.052402682297315796,0.041920137414670725,0.06110709222926666,0.05672229657691171,0.04025056783285275,0.06946879765520639,-0.22600671327857466,-0.07399328672142534
122,0.03822654011478948,0.05574217988185399,0.8841597059971328,0.052402682297315796,0.041920137414670725,0.06110709222926666,0.05672229657691171,0.04025056783285275,0.06946879765520639,-0.22600671327857466,-0.07399328672142534
123,0.03822654011478948,0.05574217988185399,0.8841597059971328,0.052402682297315796,0.041920137414670725,0.06110709222926666,0.05672229657691171,0.04025056783285275,0.06946879765520639,-0.22600671327857466,-0.07399328672142534
124,0.03822654011478948,0.05574217988185399,0.8841597059971328,0.052402682297315796,0.041920137414670725,0.06110709222926666,0.05672229657691171,0.04025056783285275,0.06946879765520639,-0.22600671327857466,-0.07399328672142534
125,0.03822654011478948,0.05574217988185399,0.8841597059971328,0.052402682297315796,0.041920137414670725,0.06110709222926666,0.05672229657691171,0.04025056783285275,0.06946879765520639,-0.22600671327857466,-0.07399328672142534
126,0.03822654011478948,0.05574217988185399,0.8841597059971328,0.052402682297315796,0.041920137414670725,0.06110709222926666,0.05672229657691171,0.04025056783285275,0.06946879765520639,-0.22600671327857466,-0.07399328672142534
127,0.03822654011478948,0.05574217988185399,0.8841597059971328,0.052402682297315796,0.041920137414670725,0.06110709222926666,0.05672229657691171,0.04025056783285275,0.06946879765520639,-0.22600671327857466,-0.07399328672142534
128,0.03822654011478948,0.05574217988185399,0.8841597059971328,0.052402682297315796,0.041920137414670725,0.06110709222926666,0.05672229657691171,0.04025056783285275,0.06946879765520639,-0.22600671327857466,-0.07399328672142534
129,0.03822654011478948,0.05574217988185399,0.8841597059971328,0.052402682297315796,0.041920137414670725,0.06110709222926666,0.05672229657691171,0.04025056783285275,0.06946879765520639,-0.22600671327857466,-0.07399328672142534
130,0.03822654011478948,0.05574217988185399,0.8841597059971328,0.052402682297315796,0.041920137414670725,0.06110709222926666,0.05672229657691171,0.04025056783285275,0.06946879765520639,-0.22600671327857466,-0.07399328672142534
131,0.03822654011478948,0.05574217988185399,0.8841597059971328,0.052402682297315796,0.041920137414670725,0.06110709222926666,0.05672229657691171,0.04025056783285275,0.06946879765520639,-0.22600671327857466,-0.07399328672142534
132,0.03822654011478948,0.05574217988185399,0.8841597059971328,0.052402682297315796,0.041920137414670725,0.06110709222926666,0.05672229657691171,0.04025056783285275,0.06946879765520639,-0.22600671327857466,-0.07399328672142534
133,0.03822654011478948,0.05574217988185399,0.8841597059971328,0.052402682297315796,0.041920137414670725,0.06110709222926666,0.05672229657691171,0.04025056783285275,0.06946879765520639,-0.22600671327857466,-0.07399328672142534
134,0.03822654011478948,0.05574217988185399,0.8841597059971328,0.052402682297315796,0.041920137414670725,0.06110709222926666,0.05672229657691171,0.04025056783285275,0.06946879765520639,-0.22600671327857466,-0.07399328672142534
135,0.03822654011478948,0.05574217988185399,0.8841597059971328,0.052402682297315796,0.041920137414670725,0.06110709222926666,0.05672229657691171,0.04025056783285275,0.06946879765520639,-0.22600671327857466,-0.07399328672142534
136,0.03822654011478948,0.05574217988185399,0.8841597059971328,0.052402682297315796,0.041920137414670725,0.06110709222926666,0.05672229657691171,0.04025056783285275,0.06946879765520639,-0.22600671327857466,-0.07399328672142534
137,0.03822654011478948,0.05574217988185399,0.8841597059971328,0.052402682297315796,0.041920137414670725,0.06110709222926666,0.05672229657691171,0.04025056783285275,0.06946879765520639,-0.22600671327857466,-0.07399328672142534
138,0.03822654011478948,0.05574217988185399,0.8841597059971328,0.052402682297315796,0.041920137414670725,0.06110709222926666,0.05672229657691171,0.04025056783285275,0.06946879765520639,-0.22600671327857466,-0.07399328672142534
139,0.03822654011478948,0.05574217988185399,0.8841597059971328,0.052402682297315796,0.041920137414670725,0.06110709222926666,0.05672229657691171,0.04025056783285275,0.06946879765520639,-0.22600671327857466,-0.07399328672142534
140,0.03822654011478948,0.05574217988185399,0.8841597059971328,0.052402682297315796,0.041920137414670725,0.06110709222926666,0.05672229657691171,0.04025056783285275,0.06946879765520639,-0.22600671327857466,-0.07399328672142534
141,0.03822654011478948,0.05574217988185399,0.8841597059971328,0.052402682297315796,0.041920137414670725,0.06110709222926666,0.05672229657691171,0.04025056783285275,0.06946879765520639,-0.22600671327857466,-0.07399328672142534
142,0.03822654011478948,0.05574217988185399,0.8841597059971328,0.052402682297315796,0.041920137414670725,0.06110709222926666,0.05672229657691171,0.04025056783285275,0.06946879765520639,-0.22600671327857466,-0.07399328672142534
143,0.03822654011478948,0.05574217988185399,0.8841597059971328,0.052402682297315796,0.041920137414670725,0.06110709222926666,0.05672229657691171,0.04025056783285275,0.06946879765520639,-0.22600671327857466,-0.07399328672142534
144,0.03822654011478948,0.05574217988185399,0.8841597059971328,0.052402682297315796,0.041920137414670725,0.06110709222926666,0.05672229657691171,0.04025056783285275,0.06946879765520639,-0.22600671327857466,-0.07399328672142534
145,0.03822654011478948,0.05574217988185399,0.8841597059971328,0.052402682297315796,0.041920137414670725,0.06110709222926666,0.05672229657691171,0.04025056783285275,0.06946879765520639,-0.22600671327857466,-0.07399328672142534
146,0.03822654011478948,0.05574217988185399,0.8841597059971328,0.052402682297315796,0.041920137414670725,0.06110709222926666,0.05672229657691171,0.04025056783285275,0.06946879765520639,-0.22600671327857466,-0.07399328672142534
147,0.03822654011478948,0.05574217988185399,0.8841597059971328,0.052402682297315796,0.041920137414670725,0.06110709222926666,0.05672229657691171,0.04025056783285275,0.06946879765520639,-0.22600671327857466,-0.07399328672142534
148,0.03822654011478948,0.05574217988185399,0.8841597059971328,0.052402682297315796,0.041920137414670725,0.06110709222926666,0.05672229657691171,0.04025056783285275,0.06946879765520639,-0.22600671327857466,-0.07399328672142534
149,0.03822654011478948,0.05574217988185399,0.8841597059971328,0.052402682297315796,0.041920137414670725,0.06110709222926666,0.05672229657691171,0.04025056783285275,0.06946879765520639,-0.22600671327857466,-0.07399328672142534
150,0.03822654011478948,0.05574217988185399,0.8841597059971328,0.052402682297315796,0.041920137414670725,0.06110709222926666,0.05672229657691171,0.04025056783285275,0.06946879765520639,-0.22600671327857466,-0.07399328672142534
151,0.03935131503807077,0.0543484333687513,-0.1630909159778569,0.6690233811702934,0.05124425545113591,0.052166550227118885,0.20677440735793604,0.03220302357644015,0.08260915322757903,0.09455181703872571,-0.11918142047819423
152,0.03935131503807077,0.0543484333687513,-0.1630909159778569,0.6690233811702934,0.05124425545113591,0.052166550227118885,0.20677440735793604,0.03220302357644015,0.08260915322757903,0.09455181703872571,-0.11918142047819423
153,0.03935131503807077,0.0543484333687513,-0.1630909159778569,0.6690233811702934,0.05124425545113591,0.052166550227118885,0.20677440735793604,0.03220302357644015,0.08260915322757903,0.09455181703872571,-0.11918142047819423
154,0.03935131503807077,0.0543484333687513,-0.1630909159778569,0.6690233811702934,0.05124425545113591,0.052166550227118885,0.20677440735793604,0.03220302357644015,0.08260915322757903,0.09455181703872571,-0.11918142047819423
155,0.03935131503807077,0.0543484333687513,-0.1630909159778569,0.6690233811702934,0.05124425545113591,0.052166550227118885,0.20677440735793604,0.03220302357644015,0.08260915322757903,0.09455181703872571,-0.11918142047819423
156,0.03935131503807077,0.0543484333687513,-0.1630909159778569,0.6690233811702934,0.05124425545113591,0.052166550227118885,0.20677440735793604,0.03220302357644015,0.08260915322757903,0.09455181703872571,-0.11918142047819423
157,0.03935131503807077,0.0543484333687513,-0.1630909159778569,0.6690233811702934,0.05124425545113591,0.052166550227118885,0.20677440735793604,0.03220302357644015,0.08260915322757903,0.09455181703872571,-0.11918142047819423
158,0.03935131503807077,0.0543484333687513,-0.1630909159778569,0.6690233811702934,0.05124425545113591,0.052166550227118885,0.20677440735793604,0.03220302357644015,0.08260915322757903,0.09455181703872571,-0.11918142047819423
159,0.03935131503807077,0.0543484333687513,-0.1630909159778569,0.6690233811702934,0.05124425545113591,0.052166550227118885,0.20677440735793604,0.03220302357644015,0.08260915322757903,0.09455181703872571,-0.11918142047819423
160,0.03935131503807077,0.0543484333687513,-0.1630909159778569,0.6690233811702934,0.05124425545113591,0.052166550227118885,0.20677440735793604,0.03220302357644015,0.08260915322757903,0.09455181703872571,-0.11918142047819423
161,0.03935131503807077,0.0543484333687513,-0.1630909159778569,0.6690233811702934,0.05124425545113591,0.052166550227118885,0.20677440735793604,0.03220302357644015,0.08260915322757903,0.09455181703872571,-0.11918142047819423
162,0.03935131503807077,0.0543484333687513,-0.1630909159778569,0.6690233811702934,0.05124425545113591,0.052166550227118885,0.20677440735793604,0.03220302357644015,0.08260915322757903,0.09455181703872571,-0.11918142047819423
163,0.03935131503807077,0.0543484333687513,-0.1630909159778569,0.6690233811702934,0.05124425545113591,0.052166550227118885,0.20677440735793604,0.03220302357644015,0.08260915322757903,0.09455181703872571,-0.11918142047819423
164,0.03935131503807077,0.0543484333687513,-0.1630909159778569,0.6690233811702934,0.05124425545113591,0.052166550227118885,0.20677440735793604,0.03220302357644015,0.08260915322757903,0.09455181703872571,-0.11918142047819423
165,0.03935131503807077,0.0543484333687513,-0.1630909159778569,0.6690233811702934,0.05124425545113591,0.052166550227118885,0.20677440735793604,0.03220302357644015,0.08260915322757903,0.09455181703872571,-0.11918142047819423
166,0.03935131503807077,0.0543484333687513,-0.1630909159778569,0.6690233811702934,0.05124425545113591,0.052166550227118885,0.20677440735793604,0.03220302357644015,0.08260915322757903,0.09455181703872571,-0.11918142047819423
167,0.03935131503807077,0.0543484333687513,-0.1630909159778569,0.6690233811702934,0.05124425545113591,0.052166550227118885,0.20677440735793604,0.03220302357644015,0.08260915322757903,0.09455181703872571,-0.11918142047819423
168,0.03935131503807077,0.0543484333687513,-0.1630909159778569,0.6690233811702934,0.05124425545113591,0.052166550227118885,0.20677440735793604,0.03220302357644015,0.08260915322757903,0.09455181703872571,-0.11918142047819423
169,0.03935131503807077,0.0543484333687513,-0.1630909159778569,0.6690233811702934,0.05124425545113591,0.052166550227118885,0.20677440735793604,0.03220302357644015,0.08260915322757903,0.09455181703872571,-0.11918142047819423
170,0.03935131503807077,0.0543484333687513,-0.1630909159778569,0.6690233811702934,0.05124425545113591,0.052166550227118885,0.20677440735793604,0.03220302357644015,0.08260915322757903,0.09455181703872571,-0.11918142047819423
171,0.03935131503807077,0.0543484333687513,-0.1630909159778569,0.6690233811702934,0.05124425545113591,0.052166550227118885,0.20677440735793604,0.03220302357644015,0.08260915322757903,0.09455181703872571,-0.11918142047819423
172,0.03935131503807077,0.0543484333687513,-0.1630909159778569,0.6690233811702934,0.05124425545113591,0.052166550227118885,0.20677440735793604,0.03220302357644015,0.08260915322757903,0.09455181703872571,-0.11918142047819423
173,0.03935131503807077,0.0543484333687513,-0.1630909159778569,0.6690233811702934,0.05124425545113591,0.052166550227118885,0.20677440735793604,0.03220302357644015,0.08260915322757903,0.09455181703872571,-0.11918142047819423
174,0.03935131503807077,0.0543484333687513,-0.1630909159778569,0.6690233811702934,0.05124425545113591,0.052166550227118885,0.20677440735793604,0.03220302357644015,0.08260915322757903,0.09455181703872571,-0.11918142047819423
175,0.03935131503807077,0.0543484333687513,-0.1630909159778569,0.6690233811702934,0.05124425545113591,0.052166550227118885,0.20677440735793604,0.03220302357644015,0.08260915322757903,0.09455181703872571,-0.11918142047819423
176,0.03935131503807077,0.0543484333687513,-0.1630909159778569,0.6690233811702934,0.05124425545113591,0.052166550227118885,0.20677440735793604,0.03220302357644015,0.08260915322757903,0.09455181703872571,-0.11918142047819423
177,0.03935131503807077,0.0543484333687513,-0.1630909159778569,0.6690233811702934,0.05124425545113591,0.052166550227118885,0.20677440735793604,0.03220302357644015,0.08260915322757903,0.09455181703872571,-0.11918142047819423
178,0.03935131503807077,0.0543484333687513,-0.1630909159778569,0.6690233811702934,0.05124425545113591,0.052166550227118885,0.20677440735793604,0.03220302357644015,0.08260915322757903,0.09455181703872571,-0.11918142047819423
179,0.03935131503807077,0.0543484333687513,-0.1630909159778569,0.6690233811702934,0.05124425545113591,0.052166550227118885,0.20677440735793604,0.03220302357644015,0.08260915322757903,0.09455181703872571,-0.11918142047819423
180,0.03935131503807077,0.0543484333687513,-0.1630909159778569,0.6690233811702934,0.05124425545113591,0.052166550227118885,0.20677440735793604,0.03220302357644015,0.08260915322757903,0.09455181703872571,-0.11918142047819423
181,-0.032320406082973374,-0.1223292541004759,1.0008934767410664,0.16334180534158432,0.027237199427267465,-0.03324196478604819,-0.029846059023798072,-0.029950476707813076,-0.0523118392988913,0.0913169157266932,0.017210602763388434
182,-0.032320406082973374,-0.1223292541004759,1.0008934767410664,0.16334180534158432,0.027237199427267465,-0.03324196478604819,-0.029846059023798072,-0.029950476707813076,-0.0523118392988913,0.0913169157266932,0.017210602763388434
183,-0.032320406082973374,-0.1223292541004759,1.0008934767410664,0.16334180534158432,0.027237199427267465,-0.03324196478604819,-0.029846059023798072,-0.029950476707813076,-0.0523118392988913,0.0913169157266932,0.017210602763388434
184,-0.032320406082973374,-0.1223292541004759,1.0008934767410664,0.16334180534158432,0.027237199427267465,-0.03324196478604819,-0.029846059023798072,-0.029950476707813076,-0.0523118392988913,0.0913169157266932,0.017210602763388434
185,-0.032320406082973374,-0.1223292541004759,1.0008934767410664,0.16334180534158432,0.027237199427267465,-0.03324196478604819,-0.029846059023798072,-0.029950476707813076,-0.0523118392988913,0.0913169157266932,0.017210602763388434
186,-0.032320406082973374,-0.1223292541004759,1.0008934767410664,0.16334180534158432,0.027237199427267465,-0.03324196478604819,-0.029846059023798072,-0.029950476707813076,-0.0523118392988913,0.0913169157266932,0.017210602763388434
187,-0.032320406082973374,-0.1223292541004759,1.0008934767410664,0.16334180534158432,0.027237199427267465,-0.03324196478604819,-0.029846059023798072,-0.029950476707813076,-0.0523118392988913,0.0913169157266932,0.017210602763388434
188,-0.032320406082973374,-0.1223292541004759,1.0008934767410664,0.16334180534158432,0.027237199427267465,-0.03324196478604819,-0.029846059023798072,-0.029950476707813076,-0.0523118392988913,0.0913169157266932,0.017210602763388434
189,-0.032320406082973374,-0.1223292541004759,1.0008934767410664,0.16334180534158432,0.027237199427267465,-0.03324196478604819,-0.029846059023798072,-0.029950476707813076,-0.0523118392988913,0.0913169157266932,0.017210602763388434
190,-0.032320406082973374,-0.1223292541004759,1.0008934767410664,0.16334180534158432,0.027237199427267465,-0.03324196478604819,-0.029846059023798072,-0.029950476707813076,-0.0523118392988913,0.0913169157266932,0.017210602763388434
191,-0.032320406082973374,-0.1223292541004759,1.0008934767410664,0.16334180534158432,0.027237199427267465,-0.03324196478604819,-0.029846059023798072,-0.029950476707813076,-0.0523118392988913,0.0913169157266932,0.017210602763388434
192,-0.032320406082973374,-0.1223292541004759,1.0008934767410664,0.16334180534158432,0.027237199427267465,-0.03324196478604819,-0.029846059023798072,-0.029950476707813076,-0.0523118392988913,0.0913169157266932,0.017210602763388434
193,-0.032320406082973374,-0.1223292541004759,1.0008934767410664,0.16334180534158432,0.027237199427267465,-0.03324196478604819,-0.029846059023798072,-0.029950476707813076,-0.0523118392988913,0.0913169157266932,0.017210602763388434
194,-0.032320406082973374,-0.1223292541004759,1.0008934767410664,0.16334180534158432,0.027237199427267465,-0.03324196478604819,-0.029846059023798072,-0.029950476707813076,-0.0523118392988913,0.0913169157266932,0.017210602763388434
195,-0.032320406082973374,-0.1223292541004759,1.0008934767410664,0.16334180534158432,0.027237199427267465,-0.03324196478604819,-0.029846059023798072,-0.029950476707813076,-0.0523118392988913,0.0913169157266932,0.017210602763388434
196,-0.032320406082973374,-0.1223292541004759,1.0008934767410664,0.16334180534158432,0.027237199427267465,-0.03324196478604819,-0.029846059023798072,-0.029950476707813076,-0.0523118392988913,0.0913169157266932,0.017210602763388434
197,-0.032320406082973374,-0.1223292541004759,1.0008934767410664,0.16334180534158432,0.027237199427267465,-0.03324196478604819,-0.029846059023798072,-0.029950476707813076,-0.0523118392988913,0.0913169157266932,0.017210602763388434
198,-0.032320406082973374,-0.1223292541004759,1.0008934767410664,0.16334180534158432,0.027237199427267465,-0.03324196478604819,-0.029846059023798072,-0.029950476707813076,-0.0523118392988913,0.0913169157266932,0.017210602763388434
199,-0.032320406082973374,-0.1223292541004759,1.0008934767410664,0.16334180534158432,0.027237199427267465,-0.03324196478604819,-0.029846059023798072,-0.029950476707813076,-0.0523118392988913,0.0913169157266932,0.017210602763388434
200,-0.032320406082973374,-0.1223292541004759,1.0008934767410664,0.16334180534158432,0.027237199427267465,-0.03324196478604819,-0.029846059023798072,-0.029950476707813076,-0.0523118392988913,0.0913169157266932,0.017210602763388434
201,-0.032320406082973374,-0.1223292541004759,1.0008934767410664,0.16334180534158432,0.027237199427267465,-0.03324196478604819,-0.029846059023798072,-0.029950476707813076,-0.0523118392988913,0.0913169157266932,0.017210602763388434
202,-0.032320406082973374,-0.1223292541004759,1.0008934767410664,0.16334180534158432,0.027237199427267465,-0.03324196478604819,-0.029846059023798072,-0.029950476707813076,-0.0523118392988913,0.0913169157266932,0.017210602763388434
203,-0.032320406082973374,-0.1223292541004759,1.0008934767410664,0.16334180534158432,0.027237199427267465,-0.03324196478604819,-0.029846059023798072,-0.029950476707813076,-0.0523118392988913,0.0913169157266932,0.017210602763388434
204,-0.032320406082973374,-0.1223292541004759,1.0008934767410664,0.16334180534158432,0.027237199427267465,-0.03324196478604819,-0.029846059023798072,-0.029950476707813076,-0.0523118392988913,0.0913169157266932,0.017210602763388434
205,-0.032320406082973374,-0.1223292541004759,1.0008934767410664,0.16334180534158432,0.027237199427267465,-0.03324196478604819,-0.029846059023798072,-0.029950476707813076,-0.0523118392988913,0.0913169157266932,0.017210602763388434
206,-0.032320406082973374,-0.1223292541004759,1.0008934767410664,0.16334180534158432,0.027237199427267465,-0.03324196478604819,-0.029846059023798072,-0.029950476707813076,-0.0523118392988913,0.0913169157266932,0.017210602763388434
207,-0.032320406082973374,-0.1223292541004759,1.0008934767410664,0.16334180534158432,0.027237199427267465,-0.03324196478604819,-0.029846059023798072,-0.029950476707813076,-0.0523118392988913,0.0913169157266932,0.017210602763388434
208,-0.032320406082973374,-0.1223292541004759,1.0008934767410664,0.16334180534158432,0.027237199427267465,-0.03324196478604819,-0.029846059023798072,-0.029950476707813076,-0.0523118392988913,0.0913169157266932,0.017210602763388434
209,-0.032320406082973374,-0.1223292541004759,1.0008934767410664,0.16334180534158432,0.027237199427267465,-0.03324196478604819,-0.029846059023798072,-0.029950476707813076,-0.0523118392988913,0.0913169157266932,0.017210602763388434
210,-0.032320406082973374,-0.1223292541004759,1.0008934767410664,0.16334180534158432,0.027237199427267465,-0.03324196478604819,-0.029846059023798072,-0.029950476707813076,-0.0523118392988913,0.0913169157266932,0.017210602763388434
211,-0.032320406082973374,-0.1223292541004759,1.0008934767410664,0.16334180534158432,0.027237199427267465,-0.03324196478604819,-0.029846059023798072,-0.029950476707813076,-0.0523118392988913,0.0913169157266932,0.017210602763388434
212,0.18227189774755265,0.11115321065853322,-0.15893517535023446,-0.07160177894046836,0.07057739007469377,0.7174826204617679,0.032399416201018494,0.07062748340293884,0.05514731698228902,0.060340664471206076,-0.06946304570929719
213,0.18227189774755265,0.11115321065853322,-0.15893517535023446,-0.07160177894046836,0.07057739007469377,0.7174826204617679,0.032399416201018494,0.07062748340293884,0.05514731698228902,0.060340664471206076,-0.06946304570929719
214,0.18227189774755265,0.11115321065853322,-0.15893517535023446,-0.07160177894046836,0.07057739007469377,0.7174826204617679,0.032399416201018494,0.07062748340293884,0.05514731698228902,0.060340664471206076,-0.06946304570929719
215,0.18227189774755265,0.11115321065853322,-0.15893517535023446,-0.07160177894046836,0.07057739007469377,0.7174826204617679,0.032399416201018494,0.07062748340293884,0.05514731698228902,0.060340664471206076,-0.06946304570929719
216,0.18227189774755265,0.11115321065853322,-0.15893517535023446,-0.07160177894046836,0.07057739007469377,0.7174826204617679,0.032399416201018494,0.07062748340293884,0.05514731698228902,0.060340664471206076,-0.06946304570929719
217,0.18227189774755265,0.11115321065853322,-0.15893517535023446,-0.07160177894046836,0.07057739007469377,0.7174826204617679,0.032399416201018494,0.07062748340293884,0.05514731698228902,0.060340664471206076,-0.06946304570929719
218,0.18227189774755265,0.11115321065853322,-0.15893517535023446,-0.07160177894046836,0.07057739007469377,0.7174826204617679,0.032399416201018494,0.07062748340293884,0.05514731698228902,0.060340664471206076,-0.06946304570929719
219,0.18227189774755265,0.11115321065853322,-0.15893517535023446,-0.07160177894046836,0.07057739007469377,0.7174826204617679,0.032399416201018494,0.07062748340293884,0.05514731698228902,0.060340664471206076,-0.06946304570929719
220,0.18227189774755265,0.11115321065853322,-0.15893517535023446,-0.07160177894046836,0.07057739007469377,0.7174826204617679,0.032399416201018494,0.07062748340293884,0.05514731698228902,0.060340664471206076,-0.06946304570929719
221,0.18227189774755265,0.11115321065853322,-0.15893517535023446,-0.07160177894046836,0.07057739007469377,0.7174826204617679,0.032399416201018494,0.07062748340293884,0.05514731698228902,0.060340664471206076,-0.06946304570929719
222,0.18227189774755265,0.11115321065853322,-0.15893517535023446,-0.07160177894046836,0.07057739007469377,0.7174826204617679,0.032399416201018494,0.07062748340293884,0.05514731698228902,0.060340664471206076,-0.06946304570929719
223,0.18227189774755265,0.11115321065853322,-0.15893517535023446,-0.07160177894046836,0.07057739007469377,0.7174826204617679,0.032399416201018494,0.07062748340293884,0.05514731698228902,0.060340664471206076,-0.06946304570929719
224,0.18227189774755265,0.11115321065853322,-0.15893517535023446,-0.07160177894046836,0.07057739007469377,0.7174826204617679,0.032399416201018494,0.07062748340293884,0.05514731698228902,0.060340664471206076,-0.06946304570929719
225,0.18227189774755265,0.11115321065853322,-0.15893517535023446,-0.07160177894046836,0.07057739007469377,0.7174826204617679,0.032399416201018494,0.07062748340293884,0.05514731698228902,0.060340664471206076,-0.06946304570929719
226,0.18227189774755265,0.11115321065853322,-0.15893517535023446,-0.07160177894046836,0.07057739007469377,0.7174826204617679,0.032399416201018494,0.07062748340293884,0.05514731698228902,0.060340664471206076,-0.06946304570929719
227,0.18227189774755265,0.11115321065853322,-0.15893517535023446,-0.07160177894046836,0.07057739007469377,0.7174826204617679,0.032399416201018494,0.07062748340293884,0.05514731698228902,0.060340664471206076,-0.06946304570929719
228,0.18227189774755265,0.11115321065853322,-0.15893517535023446,-0.07160177894046836,0.07057739007469377,0.7174826204617679,0.032399416201018494,0.07062748340293884,0.05514731698228902,0.060340664471206076,-0.06946304570929719
229,0.18227189774755265,0.11115321065853322,-0.15893517535023446,-0.07160177894046836,0.07057739007469377,0.7174826204617679,0.032399416201018494,0.07062748340293884,0.05514731698228902,0.060340664471206076,-0.06946304570929719
230,0.18227189774755265,0.11115321065853322,-0.15893517535023446,-0.07160177894046836,0.07057739007469377,0.7174826204617679,0.032399416201018494,0.07062748340293884,0.05514731698228902,0.060340664471206076,-0.06946304570929719
231,0.18227189774755265,0.11115321065853322,-0.15893517535023446,-0.07160177894046836,0.07057739007469377,0.7174826204617679,0.032399416201018494,0.07062748340293884,0.05514731698228902,0.060340664471206076,-0.06946304570929719
232,0.18227189774755265,0.11115321065853322,-0.15893517535023446,-0.07160177894046836,0.07057739007469377,0.7174826204617679,0.032399416201018494,0.07062748340293884,0.05514731698228902,0.060340664471206076,-0.06946304570929719
233,0.18227189774755265,0.11115321065853322,-0.15893517535023446,-0.07160177894046836,0.07057739007469377,0.7174826204617679,0.032399416201018494,0.07062748340293884,0.05514731698228902,0.060340664471206076,-0.06946304570929719
234,0.18227189774755265,0.11115321065853322,-0.15893517535023446,-0.07160177894046836,0.07057739007469377,0.7174826204617679,0.032399416201018494,0.07062748340293884,0.05514731698228902,0.060340664471206076,-0.06946304570929719
235,0.18227189774755265,0.11115321065853322,-0.15893517535023446,-0.07160177894046836,0.07057739007469377,0.7174826204617679,0.032399416201018494,0.07062748340293884,0.05514731698228902,0.060340664471206076,-0.06946304570929719
236,0.18227189774755265,0.11115321065853322,-0.15893517535023446,-0.07160177894046836,0.07057739007469377,0.7174826204617679,0.032399416201018494,0.07062748340293884,0.05514731698228902,0.060340664471206076,-0.06946304570929719
237,0.18227189774755265,0.11115321065853322,-0.15893517535023446,-0.07160177894046836,0.07057739007469377,0.7174826204617679,0.032399416201018494,0.07062748340293884,0.05514731698228902,0.060340664471206076,-0.06946304570929719
238,0.18227189774755265,0.11115321065853322,-0.15893517535023446,-0.07160177894046836,0.07057739007469377,0.7174826204617679,0.032399416201018494,0.07062748340293884,0.05514731698228902,0.060340664471206076,-0.06946304570929719
239,0.18227189774755265,0.11115321065853322,-0.15893517535023446,-0.07160177894046836,0.07057739007469377,0.7174826204617679,0.032399416201018494,0.07062748340293884,0.05514731698228902,0.060340664471206076,-0.06946304570929719
240,0.18227189774755265,0.11115321065853322,-0.15893517535023446,-0.07160177894046836,0.07057739007469377,0.7174826204617679,0.032399416201018494,0.07062748340293884,0.05514731698228902,0.060340664471206076,-0.06946304570929719
241,0.18227189774755265,0.11115321065853322,-0.15893517535023446,-0.07160177894046836,0.07057739007469377,0.7174826204617679,0.032399416201018494,0.07062748340293884,0.05514731698228902,0.060340664471206076,-0.06946304570929719
242,0.18227189774755265,0.11115321065853322,-0.15893517535023446,-0.07160177894046836,0.07057739007469377,0.7174826204617679,0.032399416201018494,0.07062748340293884,0.05514731698228902,0.060340664471206076,-0.06946304570929719
243,0.27523025023183517,0.08595279669992775,0.12432431579739517,0.17786787903594134,-0.1159992383964422,0.10464116981602348,0.13057111401338695,0.030891977737077417,0.07382675789696702,0.039708251594562524,0.07298472557332542
244,0.27523025023183517,0.08595279669992775,0.12432431579739517,0.17786787903594134,-0.1159992383964422,0.10464116981602348,0.13057111401338695,0.030891977737077417,0.07382675789696702,0.039708251594562524,0.07298472557332542
245,0.27523025023183517,0.08595279669992775,0.12432431579739517,0.17786787903594134,-0.1159992383964422,0.10464116981602348,0.13057111401338695,0.030891977737077417,0.07382675789696702,0.039708251594562524,0.07298472557332542
246,0.27523025023183517,0.08595279669992775,0.12432431579739517,0.17786787903594134,-0.1159992383964422,0.10464116981602348,0.13057111401338695,0.030891977737077417,0.07382675789696702,0.039708251594562524,0.07298472557332542
247,0.27523025023183517,0.08595279669992775,0.12432431579739517,0.17786787903594134,-0.1159992383964422,0.10464116981602348,0.13057111401338695,0.030891977737077417,0.07382675789696702,0.039708251594562524,0.07298472557332542
248,0.27523025023183517,0.08595279669992775,0.12432431579739517,0.17786787903594134,-0.1159992383964422,0.10464116981602348,0.13057111401338695,0.030891977737077417,0.07382675789696702,0.039708251594562524,0.07298472557332542
249,0.27523025023183517,0.08595279669992775,0.12432431579739517,0.17786787903594134,-0.1159992383964422,0.10464116981602348,0.13057111401338695,0.030891977737077417,0.07382675789696702,0.039708251594562524,0.07298472557332542
250,0.27523025023183517,0.08595279669992775,0.12432431579739517,0.17786787903594134,-0.1159992383964422,0.10464116981602348,0.13057111401338695,0.030891977737077417,0.07382675789696702,0.039708251594562524,0.07298472557332542
251,0.27523025023183517,0.08595279669992775,0.12432431579739517,0.17786787903594134,-0.1159992383964422,0.10464116981602348,0.13057111401338695,0.030891977737077417,0.07382675789696702,0.039708251594562524,0.07298472557332542
252,0.27523025023183517,0.08595279669992775,0.12432431579739517,0.17786787903594134,-0.1159992383964422,0.10464116981602348,0.13057111401338695,0.030891977737077417,0.07382675789696702,0.039708251594562524,0.07298472557332542
253,0.27523025023183517,0.08595279669992775,0.12432431579739517,0.17786787903594134,-0.1159992383964422,0.10464116981602348,0.13057111401338695,0.030891977737077417,0.07382675789696702,0.039708251594562524,0.07298472557332542
254,0.27523025023183517,0.08595279669992775,0.12432431579739517,0.17786787903594134,-0.1159992383964422,0.10464116981602348,0.13057111401338695,0.030891977737077417,0.07382675789696702,0.039708251594562524,0.07298472557332542
255,0.27523025023183517,0.08595279669992775,0.12432431579739517,0.17786787903594134,-0.1159992383964422,0.10464116981602348,0.13057111401338695,0.030891977737077417,0.07382675789696702,0.039708251594562524,0.07298472557332542
256,0.27523025023183517,0.08595279669992775,0.12432431579739517,0.17786787903594134,-0.1159992383964422,0.10464116981602348,0.13057111401338695,0.030891977737077417,0.07382675789696702,0.039708251594562524,0.07298472557332542
257,0.27523025023183517,0.08595279669992775,0.12432431579739517,0.17786787903594134,-0.1159992383964422,0.10464116981602348,0.13057111401338695,0.030891977737077417,0.07382675789696702,0.039708251594562524,0.07298472557332542
258,0.27523025023183517,0.08595279669992775,0.12432431579739517,0.17786787903594134,-0.1159992383964422,0.10464116981602348,0.13057111401338695,0.030891977737077417,0.07382675789696702,0.039708251594562524,0.07298472557332542
259,0.27523025023183517,0.08595279669992775,0.12432431579739517,0.17786787903594134,-0.1159992383964422,0.10464116981602348,0.13057111401338695,0.030891977737077417,0.07382675789696702,0.039708251594562524,0.07298472557332542
260,0.27523025023183517,0.08595279669992775,0.12432431579739517,0.17786787903594134,-0.1159992383964422,0.10464116981602348,0.13057111401338695,0.030891977737077417,0.07382675789696702,0.039708251594562524,0.07298472557332542
261,0.27523025023183517,0.08595279669992775,0.12432431579739517,0.17786787903594134,-0.1159992383964422,0.10464116981602348,0.13057111401338695,0.030891977737077417,0.07382675789696702,0.039708251594562524,0.07298472557332542
262,0.27523025023183517,0.08595279669992775,0.12432431579739517,0.17786787903594134,-0.1159992383964422,0.10464116981602348,0.13057111401338695,0.030891977737077417,0.07382675789696702,0.039708251594562524,0.07298472557332542
263,0.27523025023183517,0.08595279669992775,0.12432431579739517,0.17786787903594134,-0.1159992383964422,0.10464116981602348,0.13057111401338695,0.030891977737077417,0.07382675789696702,0.039708251594562524,0.07298472557332542
264,0.27523025023183517,0.08595279669992775,0.12432431579739517,0.17786787903594134,-0.1159992383964422,0.10464116981602348,0.13057111401338695,0.030891977737077417,0.07382675789696702,0.039708251594562524,0.07298472557332542
265,0.27523025023183517,0.08595279669992775,0.12432431579739517,0.17786787903594134,-0.1159992383964422,0.10464116981602348,0.13057111401338695,0.030891977737077417,0.07382675789696702,0.039708251594562524,0.07298472557332542
266,0.27523025023183517,0.08595279669992775,0.12432431579739517,0.17786787903594134,-0.1159992383964422,0.10464116981602348,0.13057111401338695,0.030891977737077417,0.07382675789696702,0.039708251594562524,0.07298472557332542
267,0.27523025023183517,0.08595279669992775,0.12432431579739517,0.17786787903594134,-0.1159992383964422,0.10464116981602348,0.13057111401338695,0.030891977737077417,0.07382675789696702,0.039708251594562524,0.07298472557332542
268,0.27523025023183517,0.08595279669992775,0.12432431579739517,0.17786787903594134,-0.1159992383964422,0.10464116981602348,0.13057111401338695,0.030891977737077417,0.07382675789696702,0.039708251594562524,0.07298472557332542
269,0.27523025023183517,0.08595279669992775,0.12432431579739517,0.17786787903594134,-0.1159992383964422,0.10464116981602348,0.13057111401338695,0.030891977737077417,0.07382675789696702,0.039708251594562524,0.07298472557332542
270,0.27523025023183517,0.08595279669992775,0.12432431579739517,0.17786787903594134,-0.1159992383964422,0.10464116981602348,0.13057111401338695,0.030891977737077417,0.07382675789696702,0.039708251594562524,0.07298472557332542
271,0.27523025023183517,0.08595279669992775,0.12432431579739517,0.17786787903594134,-0.1159992383964422,0.10464116981602348,0.13057111401338695,0.030891977737077417,0.07382675789696702,0.039708251594562524,0.07298472557332542
272,0.27523025023183517,0.08595279669992775,0.12432431579739517,0.17786787903594134,-0.1159992383964422,0.10464116981602348,0.13057111401338695,0.030891977737077417,0.07382675789696702,0.039708251594562524,0.07298472557332542
273,0.04588320816850774,0.5208786062234804,-0.0306754751970599,-0.012696190842442204,0.02477860026289968,-0.023531164183108647,0.021123614381653312,-0.019553022802807688,0.06546196169870085,0.3955511468088643,0.01277871548131226
274,0.04588320816850774,0.5208786062234804,-0.0306754751970599,-0.012696190842442204,0.02477860026289968,-0.023531164183108647,0.021123614381653312,-0.019553022802807688,0.06546196169870085,0.3955511468088643,0.01277871548131226
275,0.04588320816850774,0.5208786062234804,-0.0306754751970599,-0.012696190842442204,0.02477860026289968,-0.023531164183108647,0.021123614381653312,-0.019553022802807688,0.06546196169870085,0.3955511468088643,0.01277871548131226
276,0.04588320816850774,0.5208786062234804,-0.0306754751970599,-0.012696190842442204,0.02477860026289968,-0.023531164183108647,0.021123614381653312,-0.019553022802807688,0.06546196169870085,0.3955511468088643,0.01277871548131226
277,0.04588320816850774,0.5208786062234804,-0.0306754751970599,-0.012696190842442204,0.02477860026289968,-0.023531164183108647,0.021123614381653312,-0.019553022802807688,0.06546196169870085,0.3955511468088643,0.01277871548131226
278,0.04588320816850774,0.5208786062234804,-0.0306754751970599,-0.012696190842442204,0.02477860026289968,-0.023531164183108647,0.021123614381653312,-0.019553022802807688,0.06546196169870085,0.3955511468088643,0.01277871548131226
279,0.04588320816850774,0.5208786062234804,-0.0306754751970599,-0.012696190842442204,0.02477860026289968,-0.023531164183108647,0.021123614381653312,-0.019553022802807688,0.06546196169870085,0.3955511468088643,0.01277871548131226
280,0.04588320816850774,0.5208786062234804,-0.0306754751970599,-0.012696190842442204,0.02477860026289968,-0.023531164183108647,0.021123614381653312,-0.019553022802807688,0.06546196169870085,0.3955511468088643,0.01277871548131226
281,0.04588320816850774,0.5208786062234804,-0.0306754751970599,-0.012696190842442204,0.02477860026289968,-0.023531164183108647,0.021123614381653312,-0.019553022802807688,0.06546196169870085,0.3955511468088643,0.01277871548131226
282,0.04588320816850774,0.5208786062234804,-0.0306754751970599,-0.012696190842442204,0.02477860026289968,-0.023531164183108647,0.021123614381653312,-0.019553022802807688,0.06546196169870085,0.3955511468088643,0.01277871548131226
283,0.04588320816850774,0.5208786062234804,-0.0306754751970599,-0.012696190842442204,0.02477860026289968,-0.023531164183108647,0.021123614381653312,-0.019553022802807688,0.06546196169870085,0.3955511468088643,0.01277871548131226
284,0.04588320816850774,0.5208786062234804,-0.0306754751970599,-0.012696190842442204,0.02477860026289968,-0.023531164183108647,0.021123614381653312,-0.019553022802807688,0.06546196169870085,0.3955511468088643,0.01277871548131226
285,0.04588320816850774,0.5208786062234804,-0.0306754751970599,-0.012696190842442204,0.02477860026289968,-0.023531164183108647,0.021123614381653312,-0.019553022802807688,0.06546196169870085,0.3955511468088643,0.01277871548131226
286,0.04588320816850774,0.5208786062234804,-0.0306754751970599,-0.012696190842442204,0.02477860026289968,-0.023531164183108647,0.021123614381653312,-0.019553022802807688,0.06546196169870085,0.3955511468088643,0.01277871548131226
287,0.04588320816850774,0.5208786062234804,-0.0306754751970599,-0.012696190842442204,0.02477860026289968,-0.023531164183108647,0.021123614381653312,-0.019553022802807688,0.06546196169870085,0.3955511468088643,0.01277871548131226
288,0.04588320816850774,0.5208786062234804,-0.0306754751970599,-0.012696190842442204,0.02477860026289968,-0.023531164183108647,0.021123614381653312,-0.019553022802807688,0.06546196169870085,0.3955511468088643,0.01277871548131226
289,0.04588320816850774,0.5208786062234804,-0.0306754751970599,-0.012696190842442204,0.02477860026289968,-0.023531164183108647,0.021123614381653312,-0.019553022802807688,0.06546196169870085,0.3955511468088643,0.01277871548131226
290,0.04588320816850774,0.5208786062234804,-0.0306754751970599,-0.012696190842442204,0.02477860026289968,-0.023531164183108647,0.021123614381653312,-0.019553022802807688,0.06546196169870085,0.3955511468088643,0.01277871548131226
291,0.04588320816850774,0.5208786062234804,-0.0306754751970599,-0.012696190842442204,0.02477860026289968,-0.023531164183108647,0.021123614381653312,-0.019553022802807688,0.06546196169870085,0.3955511468088643,0.01277871548131226
292,0.04588320816850774,0.5208786062234804,-0.0306754751970599,-0.012696190842442204,0.02477860026289968,-0.023531164183108647,0.021123614381653312,-0.019553022802807688,0.06546196169870085,0.3955511468088643,0.01277871548131226
293,0.04588320816850774,0.5208786062234804,-0.0306754751970599,-0.012696190842442204,0.02477860026289968,-0.023531164183108647,0.021123614381653312,-0.019553022802807688,0.06546196169870085,0.3955511468088643,0.01277871548131226
294,0.04588320816850774,0.5208786062234804,-0.0306754751970599,-0.012696190842442204,0.02477860026289968,-0.023531164183108647,0.021123614381653312,-0.019553022802807688,0.06546196169870085,0.3955511468088643,0.01277871548131226
295,0.04588320816850774,0.5208786062234804,-0.0306754751970599,-0.012696190842442204,0.02477860026289968,-0.023531164183108647,0.021123614381653312,-0.019553022802807688,0.06546196169870085,0.3955511468088643,0.01277871548131226
296,0.04588320816850774,0.5208786062234804,-0.0306754751970599,-0.012696190842442204,0.02477860026289968,-0.023531164183108647,0.021123614381653312,-0.019553022802807688,0.06546196169870085,0.3955511468088643,0.01277871548131226
297,0.04588320816850774,0.5208786062234804,-0.0306754751970599,-0.012696190842442204,0.02477860026289968,-0.023531164183108647,0.021123614381653312,-0.019553022802807688,0.06546196169870085,0.3955511468088643,0.01277871548131226
298,0.04588320816850774,0.5208786062234804,-0.0306754751970599,-0.012696190842442204,0.02477860026289968,-0.023531164183108647,0.021123614381653312,-0.019553022802807688,0.06546196169870085,0.3955511468088643,0.01277871548131226
299,0.04588320816850774,0.5208786062234804,-0.0306754751970599,-0.012696190842442204,0.02477860026289968,-0.023531164183108647,0.021123614381653312,-0.019553022802807688,0.06546196169870085,0.3955511468088643,0.01277871548131226
300,0.04588320816850774,0.5208786062234804,-0.0306754751970599,-0.012696190842442204,0.02477860026289968,-0.023531164183108647,0.021123614381653312,-0.019553022802807688,0.06546196169870085,0.3955511468088643,0.01277871548131226
301,0.04588320816850774,0.5208786062234804,-0.0306754751970599,-0.012696190842442204,0.02477860026289968,-0.023531164183108647,0.021123614381653312,-0.019553022802807688,0.06546196169870085,0.3955511468088643,0.01277871548131226
302,0.04588320816850774,0.5208786062234804,-0.0306754751970599,-0.012696190842442204,0.02477860026289968,-0.023531164183108647,0.021123614381653312,-0.019553022802807688,0.06546196169870085,0.3955511468088643,0.01277871548131226
303,0.04588320816850774,0.5208786062234804,-0.0306754751970599,-0.012696190842442204,0.02477860026289968,-0.023531164183108647,0.021123614381653312,-0.019553022802807688,0.06546196169870085,0.3955511468088643,0.01277871548131226
304,-0.023225805291895222,-0.04054766017430044,1.1567515188396897,-0.03940489322926246,-0.015474127948485869,-0.06709202237837439,0.14324848116031016,-0.031191430458667627,-0.03471979151136871,-0.0133870173880104,-0.03495725161963488
305,-0.023225805291895222,-0.04054766017430044,1.1567515188396897,-0.03940489322926246,-0.015474127948485869,-0.06709202237837439,0.14324848116031016,-0.031191430458667627,-0.03471979151136871,-0.0133870173880104,-0.03495725161963488
306,-0.023225805291895222,-0.04054766017430044,1.1567515188396897,-0.03940489322926246,-0.015474127948485869,-0.06709202237837439,0.14324848116031016,-0.031191430458667627,-0.03471979151136871,-0.0133870173880104,-0.03495725161963488
307,-0.023225805291895222,-0.04054766017430044,1.1567515188396897,-0.03940489322926246,-0.015474127948485869,-0.06709202237837439,0.14324848116031016,-0.031191430458667627,-0.03471979151136871,-0.0133870173880104,-0.03495725161963488
308,-0.023225805291895222,-0.04054766017430044,1.1567515188396897,-0.03940489322926246,-0.015474127948485869,-0.06709202237837439,0.14324848116031016,-0.031191430458667627,-0.03471979151136871,-0.0133870173880104,-0.03495725161963488
309,-0.023225805291895222,-0.04054766017430044,1.1567515188396897,-0.03940489322926246,-0.015474127948485869,-0.06709202237837439,0.14324848116031016,-0.031191430458667627,-0.03471979151136871,-0.0133870173880104,-0.03495725161963488
310,-0.023225805291895222,-0.04054766017430044,1.1567515188396897,-0.03940489322926246,-0.015474127948485869,-0.06709202237837439,0.14324848116031016,-0.031191430458667627,-0.03471979151136871,-0.0133870173880104,-0.03495725161963488
311,-0.023225805291895222,-0.04054766017430044,1.1567515188396897,-0.03940489322926246,-0.015474127948485869,-0.06709202237837439,0.14324848116031016,-0.031191430458667627,-0.03471979151136871,-0.0133870173880104,-0.03495725161963488
312,-0.023225805291895222,-0.04054766017430044,1.1567515188396897,-0.03940489322926246,-0.015474127948485869,-0.06709202237837439,0.14324848116031016,-0.031191430458667627,-0.03471979151136871,-0.0133870173880104,-0.03495725161963488
313,-0.023225805291895222,-0.04054766017430044,1.1567515188396897,-0.03940489322926246,-0.015474127948485869,-0.06709202237837439,0.14324848116031016,-0.031191430458667627,-0.03471979151136871,-0.0133870173880104,-0.03495725161963488
314,-0.023225805291895222,-0.04054766017430044,1.1567515188396897,-0.03940489322926246,-0.015474127948485869,-0.06709202237837439,0.14324848116031016,-0.031191430458667627,-0.03471979151136871,-0.0133870173880104,-0.03495725161963488
315,-0.023225805291895222,-0.04054766017430044,1.1567515188396897,-0.03940489322926246,-0.015474127948485869,-0.06709202237837439,0.14324848116031016,-0.031191430458667627,-0.03471979151136871,-0.0133870173880104,-0.03495725161963488
316,-0.023225805291895222,-0.04054766017430044,1.1567515188396897,-0.03940489322926246,-0.015474127948485869,-0.06709202237837439,0.14324848116031016,-0.031191430458667627,-0.03471979151136871,-0.0133870173880104,-0.03495725161963488
317,-0.023225805291895222,-0.04054766017430044,1.1567515188396897,-0.03940489322926246,-0.015474127948485869,-0.06709202237837439,0.14324848116031016,-0.031191430458667627,-0.03471979151136871,-0.0133870173880104,-0.03495725161963488
318,-0.023225805291895222,-0.04054766017430044,1.1567515188396897,-0.03940489322926246,-0.015474127948485869,-0.06709202237837439,0.14324848116031016,-0.031191430458667627,-0.03471979151136871,-0.0133870173880104,-0.03495725161963488
319,-0.023225805291895222,-0.04054766017430044,1.1567515188396897,-0.03940489322926246,-0.015474127948485869,-0.06709202237837439,0.14324848116031016,-0.031191430458667627,-0.03471979151136871,-0.0133870173880104,-0.03495725161963488
320,-0.023225805291895222,-0.04054766017430044,1.1567515188396897,-0.03940489322926246,-0.015474127948485869,-0.06709202237837439,0.14324848116031016,-0.031191430458667627,-0.03471979151136871,-0.0133870173880104,-0.03495725161963488
321,-0.023225805291895222,-0.04054766017430044,1.1567515188396897,-0.03940489322926246,-0.015474127948485869,-0.06709202237837439,0.14324848116031016,-0.031191430458667627,-0.03471979151136871,-0.0133870173880104,-0.03495725161963488
322,-0.023225805291895222,-0.04054766017430044,1.1567515188396897,-0.03940489322926246,-0.015474127948485869,-0.06709202237837439,0.14324848116031016,-0.031191430458667627,-0.03471979151136871,-0.0133870173880104,-0.03495725161963488
323,-0.023225805291895222,-0.04054766017430044,1.1567515188396897,-0.03940489322926246,-0.015474127948485869,-0.06709202237837439,0.14324848116031016,-0.031191430458667627,-0.03471979151136871,-0.0133870173880104,-0.03495725161963488
324,-0.023225805291895222,-0.04054766017430044,1.1567515188396897,-0.03940489322926246,-0.015474127948485869,-0.06709202237837439,0.14324848116031016,-0.031191430458667627,-0.03471979151136871,-0.0133870173880104,-0.03495725161963488
325,-0.023225805291895222,-0.04054766017430044,1.1567515188396897,-0.03940489322926246,-0.015474127948485869,-0.06709202237837439,0.14324848116031016,-0.031191430458667627,-0.03471979151136871,-0.0133870173880104,-0.03495725161963488
326,-0.023225805291895222,-0.04054766017430044,1.1567515188396897,-0.03940489322926246,-0.015474127948485869,-0.06709202237837439,0.14324848116031016,-0.031191430458667627,-0.03471979151136871,-0.0133870173880104,-0.03495725161963488
327,-0.023225805291895222,-0.04054766017430044,1.1567515188396897,-0.03940489322926246,-0.015474127948485869,-0.06709202237837439,0.14324848116031016,-0.031191430458667627,-0.03471979151136871,-0.0133870173880104,-0.03495725161963488
328,-0.023225805291895222,-0.04054766017430044,1.1567515188396897,-0.03940489322926246,-0.015474127948485869,-0.06709202237837439,0.14324848116031016,-0.031191430458667627,-0.03471979151136871,-0.0133870173880104,-0.03495725161963488
329,-0.023225805291895222,-0.04054766017430044,1.1567515188396897,-0.03940489322926246,-0.015474127948485869,-0.06709202237837439,0.14324848116031016,-0.031191430458667627,-0.03471979151136871,-0.0133870173880104,-0.03495725161963488
330,-0.023225805291895222,-0.04054766017430044,1.1567515188396897,-0.03940489322926246,-0.015474127948485869,-0.06709202237837439,0.14324848116031016,-0.031191430458667627,-0.03471979151136871,-0.0133870173880104,-0.03495725161963488
331,-0.023225805291895222,-0.04054766017430044,1.1567515188396897,-0.03940489322926246,-0.015474127948485869,-0.06709202237837439,0.14324848116031016,-0.031191430458667627,-0.03471979151136871,-0.0133870173880104,-0.03495725161963488
332,-0.023225805291895222,-0.04054766017430044,1.1567515188396897,-0.03940489322926246,-0.015474127948485869,-0.06709202237837439,0.14324848116031016,-0.031191430458667627,-0.03471979151136871,-0.0133870173880104,-0.03495725161963488
333,-0.023225805291895222,-0.04054766017430044,1.1567515188396897,-0.03940489322926246,-0.015474127948485869,-0.06709202237837439,0.14324848116031016,-0.031191430458667627,-0.03471979151136871,-0.0133870173880104,-0.03495725161963488
334,0.009227380281141813,-0.050533733763382147,0.021303532140158198,0.03283165262454446,0.009676180519830832,0.4960586323484355,0.02396785785046997,0.036924669060763436,0.3199781264299449,0.04122787895009479,0.05933782355799823
335,0.009227380281141813,-0.050533733763382147,0.021303532140158198,0.03283165262454446,0.009676180519830832,0.4960586323484355,0.02396785785046997,0.036924669060763436,0.3199781264299449,0.04122787895009479,0.05933782355799823
336,0.009227380281141813,-0.050533733763382147,0.021303532140158198,0.03283165262454446,0.009676180519830832,0.4960586323484355,0.02396785785046997,0.036924669060763436,0.3199781264299449,0.04122787895009479,0.05933782355799823
337,0.009227380281141813,-0.050533733763382147,0.021303532140158198,0.03283165262454446,0.009676180519830832,0.4960586323484355,0.02396785785046997,0.036924669060763436,0.3199781264299449,0.04122787895009479,0.05933782355799823
338,0.009227380281141813,-0.050533733763382147,0.021303532140158198,0.03283165262454446,0.009676180519830832,0.4960586323484355,0.02396785785046997,0.036924669060763436,0.3199781264299449,0.04122787895009479,0.05933782355799823
339,0.009227380281141813,-0.050533733763382147,0.021303532140158198,0.03283165262454446,0.009676180519830832,0.4960586323484355,0.02396785785046997,0.036924669060763436,0.3199781264299449,0.04122787895009479,0.05933782355799823
340,0.009227380281141813,-0.050533733763382147,0.021303532140158198,0.03283165262454446,0.009676180519830832,0.4960586323484355,0.02396785785046997,0.036924669060763436,0.3199781264299449,0.04122787895009479,0.05933782355799823
341,0.009227380281141813,-0.050533733763382147,0.021303532140158198,0.03283165262454446,0.009676180519830832,0.4960586323484355,0.02396785785046997,0.036924669060763436,0.3199781264299449,0.04122787895009479,0.05933782355799823
342,0.009227380281141813,-0.050533733763382147,0.021303532140158198,0.03283165262454446,0.009676180519830832,0.4960586323484355,0.02396785785046997,0.036924669060763436,0.3199781264299449,0.04122787895009479,0.05933782355799823
343,0.009227380281141813,-0.050533733763382147,0.021303532140158198,0.03283165262454446,0.009676180519830832,0.4960586323484355,0.02396785785046997,0.036924669060763436,0.3199781264299449,0.04122787895009479,0.05933782355799823
344,0.009227380281141813,-0.050533733763382147,0.021303532140158198,0.03283165262454446,0.009676180519830832,0.4960586323484355,0.02396785785046997,0.036924669060763436,0.3199781264299449,0.04122787895009479,0.05933782355799823
345,0.009227380281141813,-0.050533733763382147,0.021303532140158198,0.03283165262454446,0.009676180519830832,0.4960586323484355,0.02396785785046997,0.036924669060763436,0.3199781264299449,0.04122787895009479,0.05933782355799823
346,0.009227380281141813,-0.050533733763382147,0.021303532140158198,0.03283165262454446,0.009676180519830832,0.4960586323484355,0.02396785785046997,0.036924669060763436,0.3199781264299449,0.04122787895009479,0.05933782355799823
347,0.009227380281141813,-0.050533733763382147,0.021303532140158198,0.03283165262454446,0.009676180519830832,0.4960586323484355,0.02396785785046997,0.036924669060763436,0.3199781264299449,0.04122787895009479,0.05933782355799823
348,0.009227380281141813,-0.050533733763382147,0.021303532140158198,0.03283165262454446,0.009676180519830832,0.4960586323484355,0.02396785785046997,0.036924669060763436,0.3199781264299449,0.04122787895009479,0.05933782355799823
349,0.009227380281141813,-0.050533733763382147,0.021303532140158198,0.03283165262454446,0.009676180519830832,0.4960586323484355,0.02396785785046997,0.036924669060763436,0.3199781264299449,0.04122787895009479,0.05933782355799823
350,0.009227380281141813,-0.050533733763382147,0.021303532140158198,0.03283165262454446,0.009676180519830832,0.4960586323484355,0.02396785785046997,0.036924669060763436,0.3199781264299449,0.04122787895009479,0.05933782355799823
351,0.009227380281141813,-0.050533733763382147,0.021303532140158198,0.03283165262454446,0.009676180519830832,0.4960586323484355,0.02396785785046997,0.036924669060763436,0.3199781264299449,0.04122787895009479,0.05933782355799823
352,0.009227380281141813,-0.050533733763382147,0.021303532140158198,0.03283165262454446,0.009676180519830832,0.4960586323484355,0.02396785785046997,0.036924669060763436,0.3199781264299449,0.04122787895009479,0.05933782355799823
353,0.009227380281141813,-0.050533733763382147,0.021303532140158198,0.03283165262454446,0.009676180519830832,0.4960586323484355,0.02396785785046997,0.036924669060763436,0.3199781264299449,0.04122787895009479,0.05933782355799823
354,0.009227380281141813,-0.050533733763382147,0.021303532140158198,0.03283165262454446,0.009676180519830832,0.4960586323484355,0.02396785785046997,0.036924669060763436,0.3199781264299449,0.04122787895009479,0.05933782355799823
355,0.009227380281141813,-0.050533733763382147,0.021303532140158198,0.03283165262454446,0.009676180519830832,0.4960586323484355,0.02396785785046997,0.036924669060763436,0.3199781264299449,0.04122787895009479,0.05933782355799823
356,0.009227380281141813,-0.050533733763382147,0.021303532140158198,0.03283165262454446,0.009676180519830832,0.4960586323484355,0.02396785785046997,0.036924669060763436,0.3199781264299449,0.04122787895009479,0.05933782355799823
357,0.009227380281141813,-0.050533733763382147,0.021303532140158198,0.03283165262454446,0.009676180519830832,0.4960586323484355,0.02396785785046997,0.036924669060763436,0.3199781264299449,0.04122787895009479,0.05933782355799823
358,0.009227380281141813,-0.050533733763382147,0.021303532140158198,0.03283165262454446,0.009676180519830832,0.4960586323484355,0.02396785785046997,0.036924669060763436,0.3199781264299449,0.04122787895009479,0.05933782355799823
359,0.009227380281141813,-0.050533733763382147,0.021303532140158198,0.03283165262454446,0.009676180519830832,0.4960586323484355,0.02396785785046997,0.036924669060763436,0.3199781264299449,0.04122787895009479,0.05933782355799823
360,0.009227380281141813,-0.050533733763382147,0.021303532140158198,0.03283165262454446,0.009676180519830832,0.4960586323484355,0.02396785785046997,0.036924669060763436,0.3199781264299449,0.04122787895009479,0.05933782355799823
361,0.009227380281141813,-0.050533733763382147,0.021303532140158198,0.03283165262454446,0.009676180519830832,0.4960586323484355,0.02396785785046997,0.036924669060763436,0.3199781264299449,0.04122787895009479,0.05933782355799823
362,0.009227380281141813,-0.050533733763382147,0.021303532140158198,0.03283165262454446,0.009676180519830832,0.4960586323484355,0.02396785785046997,0.036924669060763436,0.3199781264299449,0.04122787895009479,0.05933782355799823
363,0.009227380281141813,-0.050533733763382147,0.021303532140158198,0.03283165262454446,0.009676180519830832,0.4960586323484355,0.02396785785046997,0.036924669060763436,0.3199781264299449,0.04122787895009479,0.05933782355799823
364,0.009227380281141813,-0.050533733763382147,0.021303532140158198,0.03283165262454446,0.009676180519830832,0.4960586323484355,0.02396785785046997,0.036924669060763436,0.3199781264299449,0.04122787895009479,0.05933782355799823
365,0.1713106182008344,0.042778006846091766,0.0754815881953383,0.07918481223760178,0.052111245569785615,0.08454922205800788,0.04573763722252579,0.03798093693988127,0.09745994728564354,0.0942595941590497,0.21914639128524
366,0.1713106182008344,0.042778006846091766,0.0754815881953383,0.07918481223760178,0.052111245569785615,0.08454922205800788,0.04573763722252579,0.03798093693988127,0.09745994728564354,0.0942595941590497,0.21914639128524
367,0.1713106182008344,0.042778006846091766,0.0754815881953383,0.07918481223760178,0.052111245569785615,0.08454922205800788,0.04573763722252579,0.03798093693988127,0.09745994728564354,0.0942595941590497,0.21914639128524
368,0.1713106182008344,0.042778006846091766,0.0754815881953383,0.07918481223760178,0.052111245569785615,0.08454922205800788,0.04573763722252579,0.03798093693988127,0.09745994728564354,0.0942595941590497,0.21914639128524
369,0.1713106182008344,0.042778006846091766,0.0754815881953383,0.07918481223760178,0.052111245569785615,0.08454922205800788,0.04573763722252579,0.03798093693988127,0.09745994728564354,0.0942595941590497,0.21914639128524
370,0.1713106182008344,0.042778006846091766,0.0754815881953383,0.07918481223760178,0.052111245569785615,0.08454922205800788,0.04573763722252579,0.03798093693988127,0.09745994728564354,0.0942595941590497,0.21914639128524
371,0.1713106182008344,0.042778006846091766,0.0754815881953383,0.07918481223760178,0.052111245569785615,0.08454922205800788,0.04573763722252579,0.03798093693988127,0.09745994728564354,0.0942595941590497,0.21914639128524
372,0.1713106182008344,0.042778006846091766,0.0754815881953383,0.07918481223760178,0.052111245569785615,0.08454922205800788,0.04573763722252579,0.03798093693988127,0.09745994728564354,0.0942595941590497,0.21914639128524
373,0.1713106182008344,0.042778006846091766,0.0754815881953383,0.07918481223760178,0.052111245569785615,0.08454922205800788,0.04573763722252579,0.03798093693988127,0.09745994728564354,0.0942595941590497,0.21914639128524
374,0.1713106182008344,0.042778006846091766,0.0754815881953383,0.07918481223760178,0.052111245569785615,0.08454922205800788,0.04573763722252579,0.03798093693988127,0.09745994728564354,0.0942595941590497,0.21914639128524
375,0.1713106182008344,0.042778006846091766,0.0754815881953383,0.07918481223760178,0.052111245569785615,0.08454922205800788,0.04573763722252579,0.03798093693988127,0.09745994728564354,0.0942595941590497,0.21914639128524
376,0.1713106182008344,0.042778006846091766,0.0754815881953383,0.07918481223760178,0.052111245569785615,0.08454922205800788,0.04573763722252579,0.03798093693988127,0.09745994728564354,0.0942595941590497,0.21914639128524
377,0.1713106182008344,0.042778006846091766,0.0754815881953383,0.07918481223760178,0.052111245569785615,0.08454922205800788,0.04573763722252579,0.03798093693988127,0.09745994728564354,0.0942595941590497,0.21914639128524
378,0.1713106182008344,0.042778006846091766,0.0754815881953383,0.07918481223760178,0.052111245569785615,0.08454922205800788,0.04573763722252579,0.03798093693988127,0.09745994728564354,0.0942595941590497,0.21914639128524
379,0.1713106182008344,0.042778006846091766,0.0754815881953383,0.07918481223760178,0.052111245569785615,0.08454922205800788,0.04573763722252579,0.03798093693988127,0.09745994728564354,0.0942595941590497,0.21914639128524
380,0.1713106182008344,0.042778006846091766,0.0754815881953383,0.07918481223760178,0.052111245569785615,0.08454922205800788,0.04573763722252579,0.03798093693988127,0.09745994728564354,0.0942595941590497,0.21914639128524
381,0.1713106182008344,0.042778006846091766,0.0754815881953383,0.07918481223760178,0.052111245569785615,0.08454922205800788,0.04573763722252579,0.03798093693988127,0.09745994728564354,0.0942595941590497,0.21914639128524
382,0.1713106182008344,0.042778006846091766,0.0754815881953383,0.07918481223760178,0.052111245569785615,0.08454922205800788,0.04573763722252579,0.03798093693988127,0.09745994728564354,0.0942595941590497,0.21914639128524
383,0.1713106182008344,0.042778006846091766,0.0754815881953383,0.07918481223760178,0.052111245569785615,0.08454922205800788,0.04573763722252579,0.03798093693988127,0.09745994728564354,0.0942595941590497,0.21914639128524
384,0.1713106182008344,0.042778006846091766,0.0754815881953383,0.07918481223760178,0.052111245569785615,0.08454922205800788,0.04573763722252579,0.03798093693988127,0.09745994728564354,0.0942595941590497,0.21914639128524
385,0.1713106182008344,0.042778006846091766,0.0754815881953383,0.07918481223760178,0.052111245569785615,0.08454922205800788,0.04573763722252579,0.03798093693988127,0.09745994728564354,0.0942595941590497,0.21914639128524
386,0.1713106182008344,0.042778006846091766,0.0754815881953383,0.07918481223760178,0.052111245569785615,0.08454922205800788,0.04573763722252579,0.03798093693988127,0.09745994728564354,0.0942595941590497,0.21914639128524
387,0.1713106182008344,0.042778006846091766,0.0754815881953383,0.07918481223760178,0.052111245569785615,0.08454922205800788,0.04573763722252579,0.03798093693988127,0.09745994728564354,0.0942595941590497,0.21914639128524
388,0.1713106182008344,0.042778006846091766,0.0754815881953383,0.07918481223760178,0.052111245569785615,0.08454922205800788,0.04573763722252579,0.03798093693988127,0.09745994728564354,0.0942595941590497,0.21914639128524
389,0.1713106182008344,0.042778006846091766,0.0754815881953383,0.07918481223760178,0.052111245569785615,0.08454922205800788,0.04573763722252579,0.03798093693988127,0.09745994728564354,0.0942595941590497,0.21914639128524
390,0.1713106182008344,0.042778006846091766,0.0754815881953383,0.07918481223760178,0.052111245569785615,0.08454922205800788,0.04573763722252579,0.03798093693988127,0.09745994728564354,0.0942595941590497,0.21914639128524
391,0.1713106182008344,0.042778006846091766,0.0754815881953383,0.07918481223760178,0.052111245569785615,0.08454922205800788,0.04573763722252579,0.03798093693988127,0.09745994728564354,0.0942595941590497,0.21914639128524
392,0.1713106182008344,0.042778006846091766,0.0754815881953383,0.07918481223760178,0.052111245569785615,0.08454922205800788,0.04573763722252579,0.03798093693988127,0.09745994728564354,0.0942595941590497,0.21914639128524
393,0.1713106182008344,0.042778006846091766,0.0754815881953383,0.07918481223760178,0.052111245569785615,0.08454922205800788,0.04573763722252579,0.03798093693988127,0.09745994728564354,0.0942595941590497,0.21914639128524
394,0.1713106182008344,0.042778006846091766,0.0754815881953383,0.07918481223760178,0.052111245569785615,0.08454922205800788,0.04573763722252579,0.03798093693988127,0.09745994728564354,0.0942595941590497,0.21914639128524
395,0.1713106182008344,0.042778006846091766,0.0754815881953383,0.07918481223760178,0.052111245569785615,0.08454922205800788,0.04573763722252579,0.03798093693988127,0.09745994728564354,0.0942595941590497,0.21914639128524
396,0.021173601316961874,0.01637232704874439,0.020203176075975913,0.015037516754127954,0.14511904981478221,0.6697413630637697,0.07382815928772743,0.009869889315673789,0.02591530972508996,0.06538580334987017,-0.06264619575272333
397,0.021173601316961874,0.01637232704874439,0.020203176075975913,0.015037516754127954,0.14511904981478221,0.6697413630637697,0.07382815928772743,0.009869889315673789,0.02591530972508996,0.06538580334987017,-0.06264619575272333
398,0.021173601316961874,0.01637232704874439,0.020203176075975913,0.015037516754127954,0.14511904981478221,0.6697413630637697,0.07382815928772743,0.009869889315673789,0.02591530972508996,0.06538580334987017,-0.06264619575272333
399,0.021173601316961874,0.01637232704874439,0.020203176075975913,0.015037516754127954,0.14511904981478221,0.6697413630637697,0.07382815928772743,0.009869889315673789,0.02591530972508996,0.06538580334987017,-0.06264619575272333
400,0.021173601316961874,0.01637232704874439,0.020203176075975913,0.015037516754127954,0.14511904981478221,0.6697413630637697,0.07382815928772743,0.009869889315673789,0.02591530972508996,0.06538580334987017,-0.06264619575272333
401,0.021173601316961874,0.01637232704874439,0.020203176075975913,0.015037516754127954,0.14511904981478221,0.6697413630637697,0.07382815928772743,0.009869889315673789,0.02591530972508996,0.06538580334987017,-0.06264619575272333
402,0.021173601316961874,0.01637232704874439,0.020203176075975913,0.015037516754127954,0.14511904981478221,0.6697413630637697,0.07382815928772743,0.009869889315673789,0.02591530972508996,0.06538580334987017,-0.06264619575272333
403,0.021173601316961874,0.01637232704874439,0.020203176075975913,0.015037516754127954,0.14511904981478221,0.6697413630637697,0.07382815928772743,0.009869889315673789,0.02591530972508996,0.06538580334987017,-0.06264619575272333
404,0.021173601316961874,0.01637232704874439,0.020203176075975913,0.015037516754127954,0.14511904981478221,0.6697413630637697,0.07382815928772743,0.009869889315673789,0.02591530972508996,0.06538580334987017,-0.06264619575272333
405,0.021173601316961874,0.01637232704874439,0.020203176075975913,0.015037516754127954,0.14511904981478221,0.6697413630637697,0.07382815928772743,0.009869889315673789,0.02591530972508996,0.06538580334987017,-0.06264619575272333
406,0.021173601316961874,0.01637232704874439,0.020203176075975913,0.015037516754127954,0.14511904981478221,0.6697413630637697,0.07382815928772743,0.009869889315673789,0.02591530972508996,0.06538580334987017,-0.06264619575272333
407,0.021173601316961874,0.01637232704874439,0.020203176075975913,0.015037516754127954,0.14511904981478221,0.6697413630637697,0.07382815928772743,0.009869889315673789,0.02591530972508996,0.06538580334987017,-0.06264619575272333
408,0.021173601316961874,0.01637232704874439,0.020203176075975913,0.015037516754127954,0.14511904981478221,0.6697413630637697,0.07382815928772743,0.009869889315673789,0.02591530972508996,0.06538580334987017,-0.06264619575272333
409,0.021173601316961874,0.01637232704874439,0.020203176075975913,0.015037516754127954,0.14511904981478221,0.6697413630637697,0.07382815928772743,0.009869889315673789,0.02591530972508996,0.06538580334987017,-0.06264619575272333
410,0.021173601316961874,0.01637232704874439,0.020203176075975913,0.015037516754127954,0.14511904981478221,0.6697413630637697,0.07382815928772743,0.009869889315673789,0.02591530972508996,0.06538580334987017,-0.06264619575272333
411,0.021173601316961874,0.01637232704874439,0.020203176075975913,0.015037516754127954,0.14511904981478221,0.6697413630637697,0.07382815928772743,0.009869889315673789,0.02591530972508996,0.06538580334987017,-0.06264619575272333
412,0.021173601316961874,0.01637232704874439,0.020203176075975913,0.015037516754127954,0.14511904981478221,0.6697413630637697,0.07382815928772743,0.009869889315673789,0.02591530972508996,0.06538580334987017,-0.06264619575272333
413,0.021173601316961874,0.01637232704874439,0.020203176075975913,0.015037516754127954,0.14511904981478221,0.6697413630637697,0.07382815928772743,0.009869889315673789,0.02591530972508996,0.06538580334987017,-0.06264619575272333
414,0.021173601316961874,0.01637232704874439,0.020203176075975913,0.015037516754127954,0.14511904981478221,0.6697413630637697,0.07382815928772743,0.009869889315673789,0.02591530972508996,0.06538580334987017,-0.06264619575272333
415,0.021173601316961874,0.01637232704874439,0.020203176075975913,0.015037516754127954,0.14511904981478221,0.6697413630637697,0.07382815928772743,0.009869889315673789,0.02591530972508996,0.06538580334987017,-0.06264619575272333
416,0.021173601316961874,0.01637232704874439,0.020203176075975913,0.015037516754127954,0.14511904981478221,0.6697413630637697,0.07382815928772743,0.009869889315673789,0.02591530972508996,0.06538580334987017,-0.06264619575272333
417,0.021173601316961874,0.01637232704874439,0.020203176075975913,0.015037516754127954,0.14511904981478221,0.6697413630637697,0.07382815928772743,0.009869889315673789,0.02591530972508996,0.06538580334987017,-0.06264619575272333
418,0.021173601316961874,0.01637232704874439,0.020203176075975913,0.015037516754127954,0.14511904981478221,0.6697413630637697,0.07382815928772743,0.009869889315673789,0.02591530972508996,0.06538580334987017,-0.06264619575272333
419,0.021173601316961874,0.01637232704874439,0.020203176075975913,0.015037516754127954,0.14511904981478221,0.6697413630637697,0.07382815928772743,0.009869889315673789,0.02591530972508996,0.06538580334987017,-0.06264619575272333
420,0.021173601316961874,0.01637232704874439,0.020203176075975913,0.015037516754127954,0.14511904981478221,0.6697413630637697,0.07382815928772743,0.009869889315673789,0.02591530972508996,0.06538580334987017,-0.06264619575272333
421,0.021173601316961874,0.01637232704874439,0.020203176075975913,0.015037516754127954,0.14511904981478221,0.6697413630637697,0.07382815928772743,0.009869889315673789,0.02591530972508996,0.06538580334987017,-0.06264619575272333
422,0.021173601316961874,0.01637232704874439,0.020203176075975913,0.015037516754127954,0.14511904981478221,0.6697413630637697,0.07382815928772743,0.009869889315673789,0.02591530972508996,0.06538580334987017,-0.06264619575272333
423,0.021173601316961874,0.01637232704874439,0.020203176075975913,0.015037516754127954,0.14511904981478221,0.6697413630637697,0.07382815928772743,0.009869889315673789,0.02591530972508996,0.06538580334987017,-0.06264619575272333
424,-0.060663486334795874,-0.06595958270316472,-0.059645677230710153,0.06339975893156738,0.19731299096511895,0.3506336517759315,0.3220219740713953,0.24078861624939257,0.12584300800659431,-0.05987725122923718,-0.05385400250209202
425,-0.060663486334795874,-0.06595958270316472,-0.059645677230710153,0.06339975893156738,0.19731299096511895,0.3506336517759315,0.3220219740713953,0.24078861624939257,0.12584300800659431,-0.05987725122923718,-0.05385400250209202
426,-0.060663486334795874,-0.06595958270316472,-0.059645677230710153,0.06339975893156738,0.19731299096511895,0.3506336517759315,0.3220219740713953,0.24078861624939257,0.12584300800659431,-0.05987725122923718,-0.05385400250209202
427,-0.060663486334795874,-0.06595958270316472,-0.059645677230710153,0.06339975893156738,0.19731299096511895,0.3506336517759315,0.3220219740713953,0.24078861624939257,0.12584300800659431,-0.05987725122923718,-0.05385400250209202
428,-0.060663486334795874,-0.06595958270316472,-0.059645677230710153,0.06339975893156738,0.19731299096511895,0.3506336517759315,0.3220219740713953,0.24078861624939257,0.12584300800659431,-0.05987725122923718,-0.05385400250209202
429,-0.060663486334795874,-0.06595958270316472,-0.059645677230710153,0.06339975893156738,0.19731299096511895,0.3506336517759315,0.3220219740713953,0.24078861624939257,0.12584300800659431,-0.05987725122923718,-0.05385400250209202
430,-0.060663486334795874,-0.06595958270316472,-0.059645677230710153,0.06339975893156738,0.19731299096511895,0.3506336517759315,0.3220219740713953,0.24078861624939257,0.12584300800659431,-0.05987725122923718,-0.05385400250209202
431,-0.060663486334795874,-0.06595958270316472,-0.059645677230710153,0.06339975893156738,0.19731299096511895,0.3506336517759315,0.3220219740713953,0.24078861624939257,0.12584300800659431,-0.05987725122923718,-0.05385400250209202
432,-0.060663486334795874,-0.06595958270316472,-0.059645677230710153,0.06339975893156738,0.19731299096511895,0.3506336517759315,0.3220219740713953,0.24078861624939257,0.12584300800659431,-0.05987725122923718,-0.05385400250209202
433,-0.060663486334795874,-0.06595958270316472,-0.059645677230710153,0.06339975893156738,0.19731299096511895,0.3506336517759315,0.3220219740713953,0.24078861624939257,0.12584300800659431,-0.05987725122923718,-0.05385400250209202
434,-0.060663486334795874,-0.06595958270316472,-0.059645677230710153,0.06339975893156738,0.19731299096511895,0.3506336517759315,0.3220219740713953,0.24078861624939257,0.12584300800659431,-0.05987725122923718,-0.05385400250209202
435,-0.060663486334795874,-0.06595958270316472,-0.059645677230710153,0.06339975893156738,0.19731299096511895,0.3506336517759315,0.3220219740713953,0.24078861624939257,0.12584300800659431,-0.05987725122923718,-0.05385400250209202
436,-0.060663486334795874,-0.06595958270316472,-0.059645677230710153,0.06339975893156738,0.19731299096511895,0.3506336517759315,0.3220219740713953,0.24078861624939257,0.12584300800659431,-0.05987725122923718,-0.05385400250209202
437,-0.060663486334795874,-0.06595958270316472,-0.059645677230710153,0.06339975893156738,0.19731299096511895,0.3506336517759315,0.3220219740713953,0.24078861624939257,0.12584300800659431,-0.05987725122923718,-0.05385400250209202
438,-0.060663486334795874,-0.06595958270316472,-0.059645677230710153,0.06339975893156738,0.19731299096511895,0.3506336517759315,0.3220219740713953,0.24078861624939257,0.12584300800659431,-0.05987725122923718,-0.05385400250209202
