,0,1,2,3,4,5,6,7,8,9,10
0,0.030387169587190798,0.25866546448389754,0.5907703186976712,0.012668277602336749,0.012288839890494578,0.029794597276348832,-0.023669315111843,0.017606885739547037,0.054236978881414356,0.04896980419520915,-0.03171902124226726
1,0.030387169587190798,0.25866546448389754,0.5907703186976712,0.012668277602336749,0.012288839890494578,0.029794597276348832,-0.023669315111843,0.017606885739547037,0.054236978881414356,0.04896980419520915,-0.03171902124226726
2,0.030387169587190798,0.25866546448389754,0.5907703186976712,0.012668277602336749,0.012288839890494578,0.029794597276348832,-0.023669315111843,0.017606885739547037,0.054236978881414356,0.04896980419520915,-0.03171902124226726
3,0.030387169587190798,0.25866546448389754,0.5907703186976712,0.012668277602336749,0.012288839890494578,0.029794597276348832,-0.023669315111843,0.017606885739547037,0.054236978881414356,0.04896980419520915,-0.03171902124226726
4,0.030387169587190798,0.25866546448389754,0.5907703186976712,0.012668277602336749,0.012288839890494578,0.029794597276348832,-0.023669315111843,0.017606885739547037,0.054236978881414356,0.04896980419520915,-0.03171902124226726
5,0.030387169587190798,0.25866546448389754,0.5907703186976712,0.012668277602336749,0.012288839890494578,0.029794597276348832,-0.023669315111843,0.017606885739547037,0.054236978881414356,0.04896980419520915,-0.03171902124226726
6,0.030387169587190798,0.25866546448389754,0.5907703186976712,0.012668277602336749,0.012288839890494578,0.029794597276348832,-0.023669315111843,0.017606885739547037,0.054236978881414356,0.04896980419520915,-0.03171902124226726
7,0.030387169587190798,0.25866546448389754,0.5907703186976712,0.012668277602336749,0.012288839890494578,0.029794597276348832,-0.023669315111843,0.017606885739547037,0.054236978881414356,0.04896980419520915,-0.03171902124226726
8,0.030387169587190798,0.25866546448389754,0.5907703186976712,0.012668277602336749,0.012288839890494578,0.029794597276348832,-0.023669315111843,0.017606885739547037,0.054236978881414356,0.04896980419520915,-0.03171902124226726
9,0.030387169587190798,0.25866546448389754,0.5907703186976712,0.012668277602336749,0.012288839890494578,0.029794597276348832,-0.023669315111843,0.017606885739547037,0.054236978881414356,0.04896980419520915,-0.03171902124226726
10,0.030387169587190798,0.25866546448389754,0.5907703186976712,0.012668277602336749,0.012288839890494578,0.029794597276348832,-0.023669315111843,0.017606885739547037,0.054236978881414356,0.04896980419520915,-0.03171902124226726
11,0.030387169587190798,0.25866546448389754,0.5907703186976712,0.012668277602336749,0.012288839890494578,0.029794597276348832,-0.023669315111843,0.017606885739547037,0.054236978881414356,0.04896980419520915,-0.03171902124226726
12,0.030387169587190798,0.25866546448389754,0.5907703186976712,0.012668277602336749,0.012288839890494578,0.029794597276348832,-0.023669315111843,0.017606885739547037,0.054236978881414356,0.04896980419520915,-0.03171902124226726
13,0.030387169587190798,0.25866546448389754,0.5907703186976712,0.012668277602336749,0.012288839890494578,0.029794597276348832,-0.023669315111843,0.017606885739547037,0.054236978881414356,0.04896980419520915,-0.03171902124226726
14,0.030387169587190798,0.25866546448389754,0.5907703186976712,0.012668277602336749,0.012288839890494578,0.029794597276348832,-0.023669315111843,0.017606885739547037,0.054236978881414356,0.04896980419520915,-0.03171902124226726
15,0.030387169587190798,0.25866546448389754,0.5907703186976712,0.012668277602336749,0.012288839890494578,0.029794597276348832,-0.023669315111843,0.017606885739547037,0.054236978881414356,0.04896980419520915,-0.03171902124226726
16,0.030387169587190798,0.25866546448389754,0.5907703186976712,0.012668277602336749,0.012288839890494578,0.029794597276348832,-0.023669315111843,0.017606885739547037,0.054236978881414356,0.04896980419520915,-0.03171902124226726
17,0.030387169587190798,0.25866546448389754,0.5907703186976712,0.012668277602336749,0.012288839890494578,0.029794597276348832,-0.023669315111843,0.017606885739547037,0.054236978881414356,0.04896980419520915,-0.03171902124226726
18,0.030387169587190798,0.25866546448389754,0.5907703186976712,0.012668277602336749,0.012288839890494578,0.029794597276348832,-0.023669315111843,0.017606885739547037,0.054236978881414356,0.04896980419520915,-0.03171902124226726
19,0.030387169587190798,0.25866546448389754,0.5907703186976712,0.012668277602336749,0.012288839890494578,0.029794597276348832,-0.023669315111843,0.017606885739547037,0.054236978881414356,0.04896980419520915,-0.03171902124226726
20,0.030387169587190798,0.25866546448389754,0.5907703186976712,0.012668277602336749,0.012288839890494578,0.029794597276348832,-0.023669315111843,0.017606885739547037,0.054236978881414356,0.04896980419520915,-0.03171902124226726
21,0.030387169587190798,0.25866546448389754,0.5907703186976712,0.012668277602336749,0.012288839890494578,0.029794597276348832,-0.023669315111843,0.017606885739547037,0.054236978881414356,0.04896980419520915,-0.03171902124226726
22,0.030387169587190798,0.25866546448389754,0.5907703186976712,0.012668277602336749,0.012288839890494578,0.029794597276348832,-0.023669315111843,0.017606885739547037,0.054236978881414356,0.04896980419520915,-0.03171902124226726
23,0.030387169587190798,0.25866546448389754,0.5907703186976712,0.012668277602336749,0.012288839890494578,0.029794597276348832,-0.023669315111843,0.017606885739547037,0.054236978881414356,0.04896980419520915,-0.03171902124226726
24,0.030387169587190798,0.25866546448389754,0.5907703186976712,0.012668277602336749,0.012288839890494578,0.029794597276348832,-0.023669315111843,0.017606885739547037,0.054236978881414356,0.04896980419520915,-0.03171902124226726
25,0.030387169587190798,0.25866546448389754,0.5907703186976712,0.012668277602336749,0.012288839890494578,0.029794597276348832,-0.023669315111843,0.017606885739547037,0.054236978881414356,0.04896980419520915,-0.03171902124226726
26,0.030387169587190798,0.25866546448389754,0.5907703186976712,0.012668277602336749,0.012288839890494578,0.029794597276348832,-0.023669315111843,0.017606885739547037,0.054236978881414356,0.04896980419520915,-0.03171902124226726
27,0.030387169587190798,0.25866546448389754,0.5907703186976712,0.012668277602336749,0.012288839890494578,0.029794597276348832,-0.023669315111843,0.017606885739547037,0.054236978881414356,0.04896980419520915,-0.03171902124226726
28,0.030387169587190798,0.25866546448389754,0.5907703186976712,0.012668277602336749,0.012288839890494578,0.029794597276348832,-0.023669315111843,0.017606885739547037,0.054236978881414356,0.04896980419520915,-0.03171902124226726
29,0.030387169587190798,0.25866546448389754,0.5907703186976712,0.012668277602336749,0.012288839890494578,0.029794597276348832,-0.023669315111843,0.017606885739547037,0.054236978881414356,0.04896980419520915,-0.03171902124226726
30,0.030387169587190798,0.25866546448389754,0.5907703186976712,0.012668277602336749,0.012288839890494578,0.029794597276348832,-0.023669315111843,0.017606885739547037,0.054236978881414356,0.04896980419520915,-0.03171902124226726
31,0.024818807712021572,0.034963379655524665,0.45632409015803643,0.1642234524858709,0.034540854046533315,0.044571263858681806,0.03377844059521224,0.024433195831601247,0.029675536172015106,0.05572203061835781,0.09694894886614495
32,0.024818807712021572,0.034963379655524665,0.45632409015803643,0.1642234524858709,0.034540854046533315,0.044571263858681806,0.03377844059521224,0.024433195831601247,0.029675536172015106,0.05572203061835781,0.09694894886614495
33,0.024818807712021572,0.034963379655524665,0.45632409015803643,0.1642234524858709,0.034540854046533315,0.044571263858681806,0.03377844059521224,0.024433195831601247,0.029675536172015106,0.05572203061835781,0.09694894886614495
34,0.024818807712021572,0.034963379655524665,0.45632409015803643,0.1642234524858709,0.034540854046533315,0.044571263858681806,0.03377844059521224,0.024433195831601247,0.029675536172015106,0.05572203061835781,0.09694894886614495
35,0.024818807712021572,0.034963379655524665,0.45632409015803643,0.1642234524858709,0.034540854046533315,0.044571263858681806,0.03377844059521224,0.024433195831601247,0.029675536172015106,0.05572203061835781,0.09694894886614495
36,0.024818807712021572,0.034963379655524665,0.45632409015803643,0.1642234524858709,0.034540854046533315,0.044571263858681806,0.03377844059521224,0.024433195831601247,0.029675536172015106,0.05572203061835781,0.09694894886614495
37,0.024818807712021572,0.034963379655524665,0.45632409015803643,0.1642234524858709,0.034540854046533315,0.044571263858681806,0.03377844059521224,0.024433195831601247,0.029675536172015106,0.05572203061835781,0.09694894886614495
38,0.024818807712021572,0.034963379655524665,0.45632409015803643,0.1642234524858709,0.034540854046533315,0.044571263858681806,0.03377844059521224,0.024433195831601247,0.029675536172015106,0.05572203061835781,0.09694894886614495
39,0.024818807712021572,0.034963379655524665,0.45632409015803643,0.1642234524858709,0.034540854046533315,0.044571263858681806,0.03377844059521224,0.024433195831601247,0.029675536172015106,0.05572203061835781,0.09694894886614495
40,0.024818807712021572,0.034963379655524665,0.45632409015803643,0.1642234524858709,0.034540854046533315,0.044571263858681806,0.03377844059521224,0.024433195831601247,0.029675536172015106,0.05572203061835781,0.09694894886614495
41,0.024818807712021572,0.034963379655524665,0.45632409015803643,0.1642234524858709,0.034540854046533315,0.044571263858681806,0.03377844059521224,0.024433195831601247,0.029675536172015106,0.05572203061835781,0.09694894886614495
42,0.024818807712021572,0.034963379655524665,0.45632409015803643,0.1642234524858709,0.034540854046533315,0.044571263858681806,0.03377844059521224,0.024433195831601247,0.029675536172015106,0.05572203061835781,0.09694894886614495
43,0.024818807712021572,0.034963379655524665,0.45632409015803643,0.1642234524858709,0.034540854046533315,0.044571263858681806,0.03377844059521224,0.024433195831601247,0.029675536172015106,0.05572203061835781,0.09694894886614495
44,0.024818807712021572,0.034963379655524665,0.45632409015803643,0.1642234524858709,0.034540854046533315,0.044571263858681806,0.03377844059521224,0.024433195831601247,0.029675536172015106,0.05572203061835781,0.09694894886614495
45,0.024818807712021572,0.034963379655524665,0.45632409015803643,0.1642234524858709,0.034540854046533315,0.044571263858681806,0.03377844059521224,0.024433195831601247,0.029675536172015106,0.05572203061835781,0.09694894886614495
46,0.024818807712021572,0.034963379655524665,0.45632409015803643,0.1642234524858709,0.034540854046533315,0.044571263858681806,0.03377844059521224,0.024433195831601247,0.029675536172015106,0.05572203061835781,0.09694894886614495
47,0.024818807712021572,0.034963379655524665,0.45632409015803643,0.1642234524858709,0.034540854046533315,0.044571263858681806,0.03377844059521224,0.024433195831601247,0.029675536172015106,0.05572203061835781,0.09694894886614495
48,0.024818807712021572,0.034963379655524665,0.45632409015803643,0.1642234524858709,0.034540854046533315,0.044571263858681806,0.03377844059521224,0.024433195831601247,0.029675536172015106,0.05572203061835781,0.09694894886614495
49,0.024818807712021572,0.034963379655524665,0.45632409015803643,0.1642234524858709,0.034540854046533315,0.044571263858681806,0.03377844059521224,0.024433195831601247,0.029675536172015106,0.05572203061835781,0.09694894886614495
50,0.024818807712021572,0.034963379655524665,0.45632409015803643,0.1642234524858709,0.034540854046533315,0.044571263858681806,0.03377844059521224,0.024433195831601247,0.029675536172015106,0.05572203061835781,0.09694894886614495
51,0.024818807712021572,0.034963379655524665,0.45632409015803643,0.1642234524858709,0.034540854046533315,0.044571263858681806,0.03377844059521224,0.024433195831601247,0.029675536172015106,0.05572203061835781,0.09694894886614495
52,0.024818807712021572,0.034963379655524665,0.45632409015803643,0.1642234524858709,0.034540854046533315,0.044571263858681806,0.03377844059521224,0.024433195831601247,0.029675536172015106,0.05572203061835781,0.09694894886614495
53,0.024818807712021572,0.034963379655524665,0.45632409015803643,0.1642234524858709,0.034540854046533315,0.044571263858681806,0.03377844059521224,0.024433195831601247,0.029675536172015106,0.05572203061835781,0.09694894886614495
54,0.024818807712021572,0.034963379655524665,0.45632409015803643,0.1642234524858709,0.034540854046533315,0.044571263858681806,0.03377844059521224,0.024433195831601247,0.029675536172015106,0.05572203061835781,0.09694894886614495
55,0.024818807712021572,0.034963379655524665,0.45632409015803643,0.1642234524858709,0.034540854046533315,0.044571263858681806,0.03377844059521224,0.024433195831601247,0.029675536172015106,0.05572203061835781,0.09694894886614495
56,0.024818807712021572,0.034963379655524665,0.45632409015803643,0.1642234524858709,0.034540854046533315,0.044571263858681806,0.03377844059521224,0.024433195831601247,0.029675536172015106,0.05572203061835781,0.09694894886614495
57,0.024818807712021572,0.034963379655524665,0.45632409015803643,0.1642234524858709,0.034540854046533315,0.044571263858681806,0.03377844059521224,0.024433195831601247,0.029675536172015106,0.05572203061835781,0.09694894886614495
58,0.024818807712021572,0.034963379655524665,0.45632409015803643,0.1642234524858709,0.034540854046533315,0.044571263858681806,0.03377844059521224,0.024433195831601247,0.029675536172015106,0.05572203061835781,0.09694894886614495
59,-0.08112945530573165,7.2843898435944526e-09,0.654726809868274,0.12275518054115306,-0.01554558426688395,-0.115098051406014,0.15870778187824744,-0.08822690902137043,0.188330953893236,0.09211643826591692,0.08336282826878284
60,-0.08112945530573165,7.2843898435944526e-09,0.654726809868274,0.12275518054115306,-0.01554558426688395,-0.115098051406014,0.15870778187824744,-0.08822690902137043,0.188330953893236,0.09211643826591692,0.08336282826878284
61,-0.08112945530573165,7.2843898435944526e-09,0.654726809868274,0.12275518054115306,-0.01554558426688395,-0.115098051406014,0.15870778187824744,-0.08822690902137043,0.188330953893236,0.09211643826591692,0.08336282826878284
62,-0.08112945530573165,7.2843898435944526e-09,0.654726809868274,0.12275518054115306,-0.01554558426688395,-0.115098051406014,0.15870778187824744,-0.08822690902137043,0.188330953893236,0.09211643826591692,0.08336282826878284
63,-0.08112945530573165,7.2843898435944526e-09,0.654726809868274,0.12275518054115306,-0.01554558426688395,-0.115098051406014,0.15870778187824744,-0.08822690902137043,0.188330953893236,0.09211643826591692,0.08336282826878284
64,-0.08112945530573165,7.2843898435944526e-09,0.654726809868274,0.12275518054115306,-0.01554558426688395,-0.115098051406014,0.15870778187824744,-0.08822690902137043,0.188330953893236,0.09211643826591692,0.08336282826878284
65,-0.08112945530573165,7.2843898435944526e-09,0.654726809868274,0.12275518054115306,-0.01554558426688395,-0.115098051406014,0.15870778187824744,-0.08822690902137043,0.188330953893236,0.09211643826591692,0.08336282826878284
66,-0.08112945530573165,7.2843898435944526e-09,0.654726809868274,0.12275518054115306,-0.01554558426688395,-0.115098051406014,0.15870778187824744,-0.08822690902137043,0.188330953893236,0.09211643826591692,0.08336282826878284
67,-0.08112945530573165,7.2843898435944526e-09,0.654726809868274,0.12275518054115306,-0.01554558426688395,-0.115098051406014,0.15870778187824744,-0.08822690902137043,0.188330953893236,0.09211643826591692,0.08336282826878284
68,-0.08112945530573165,7.2843898435944526e-09,0.654726809868274,0.12275518054115306,-0.01554558426688395,-0.115098051406014,0.15870778187824744,-0.08822690902137043,0.188330953893236,0.09211643826591692,0.08336282826878284
69,-0.08112945530573165,7.2843898435944526e-09,0.654726809868274,0.12275518054115306,-0.01554558426688395,-0.115098051406014,0.15870778187824744,-0.08822690902137043,0.188330953893236,0.09211643826591692,0.08336282826878284
70,-0.08112945530573165,7.2843898435944526e-09,0.654726809868274,0.12275518054115306,-0.01554558426688395,-0.115098051406014,0.15870778187824744,-0.08822690902137043,0.188330953893236,0.09211643826591692,0.08336282826878284
71,-0.08112945530573165,7.2843898435944526e-09,0.654726809868274,0.12275518054115306,-0.01554558426688395,-0.115098051406014,0.15870778187824744,-0.08822690902137043,0.188330953893236,0.09211643826591692,0.08336282826878284
72,-0.08112945530573165,7.2843898435944526e-09,0.654726809868274,0.12275518054115306,-0.01554558426688395,-0.115098051406014,0.15870778187824744,-0.08822690902137043,0.188330953893236,0.09211643826591692,0.08336282826878284
73,-0.08112945530573165,7.2843898435944526e-09,0.654726809868274,0.12275518054115306,-0.01554558426688395,-0.115098051406014,0.15870778187824744,-0.08822690902137043,0.188330953893236,0.09211643826591692,0.08336282826878284
74,-0.08112945530573165,7.2843898435944526e-09,0.654726809868274,0.12275518054115306,-0.01554558426688395,-0.115098051406014,0.15870778187824744,-0.08822690902137043,0.188330953893236,0.09211643826591692,0.08336282826878284
75,-0.08112945530573165,7.2843898435944526e-09,0.654726809868274,0.12275518054115306,-0.01554558426688395,-0.115098051406014,0.15870778187824744,-0.08822690902137043,0.188330953893236,0.09211643826591692,0.08336282826878284
76,-0.08112945530573165,7.2843898435944526e-09,0.654726809868274,0.12275518054115306,-0.01554558426688395,-0.115098051406014,0.15870778187824744,-0.08822690902137043,0.188330953893236,0.09211643826591692,0.08336282826878284
77,-0.08112945530573165,7.2843898435944526e-09,0.654726809868274,0.12275518054115306,-0.01554558426688395,-0.115098051406014,0.15870778187824744,-0.08822690902137043,0.188330953893236,0.09211643826591692,0.08336282826878284
78,-0.08112945530573165,7.2843898435944526e-09,0.654726809868274,0.12275518054115306,-0.01554558426688395,-0.115098051406014,0.15870778187824744,-0.08822690902137043,0.188330953893236,0.09211643826591692,0.08336282826878284
79,-0.08112945530573165,7.2843898435944526e-09,0.654726809868274,0.12275518054115306,-0.01554558426688395,-0.115098051406014,0.15870778187824744,-0.08822690902137043,0.188330953893236,0.09211643826591692,0.08336282826878284
80,-0.08112945530573165,7.2843898435944526e-09,0.654726809868274,0.12275518054115306,-0.01554558426688395,-0.115098051406014,0.15870778187824744,-0.08822690902137043,0.188330953893236,0.09211643826591692,0.08336282826878284
81,-0.08112945530573165,7.2843898435944526e-09,0.654726809868274,0.12275518054115306,-0.01554558426688395,-0.115098051406014,0.15870778187824744,-0.08822690902137043,0.188330953893236,0.09211643826591692,0.08336282826878284
82,-0.08112945530573165,7.2843898435944526e-09,0.654726809868274,0.12275518054115306,-0.01554558426688395,-0.115098051406014,0.15870778187824744,-0.08822690902137043,0.188330953893236,0.09211643826591692,0.08336282826878284
83,-0.08112945530573165,7.2843898435944526e-09,0.654726809868274,0.12275518054115306,-0.01554558426688395,-0.115098051406014,0.15870778187824744,-0.08822690902137043,0.188330953893236,0.09211643826591692,0.08336282826878284
84,-0.08112945530573165,7.2843898435944526e-09,0.654726809868274,0.12275518054115306,-0.01554558426688395,-0.115098051406014,0.15870778187824744,-0.08822690902137043,0.188330953893236,0.09211643826591692,0.08336282826878284
85,-0.08112945530573165,7.2843898435944526e-09,0.654726809868274,0.12275518054115306,-0.01554558426688395,-0.115098051406014,0.15870778187824744,-0.08822690902137043,0.188330953893236,0.09211643826591692,0.08336282826878284
86,-0.08112945530573165,7.2843898435944526e-09,0.654726809868274,0.12275518054115306,-0.01554558426688395,-0.115098051406014,0.15870778187824744,-0.08822690902137043,0.188330953893236,0.09211643826591692,0.08336282826878284
87,-0.08112945530573165,7.2843898435944526e-09,0.654726809868274,0.12275518054115306,-0.01554558426688395,-0.115098051406014,0.15870778187824744,-0.08822690902137043,0.188330953893236,0.09211643826591692,0.08336282826878284
88,-0.08112945530573165,7.2843898435944526e-09,0.654726809868274,0.12275518054115306,-0.01554558426688395,-0.115098051406014,0.15870778187824744,-0.08822690902137043,0.188330953893236,0.09211643826591692,0.08336282826878284
89,-0.08112945530573165,7.2843898435944526e-09,0.654726809868274,0.12275518054115306,-0.01554558426688395,-0.115098051406014,0.15870778187824744,-0.08822690902137043,0.188330953893236,0.09211643826591692,0.08336282826878284
90,0.04932421948033745,0.041125864840163014,0.1474505507569885,0.2771237598545191,0.0350280543053737,0.0440051609884246,0.038004182620929756,0.04270223505925254,0.07401043927331985,0.32538019007953994,-0.07415465725884857
91,0.04932421948033745,0.041125864840163014,0.1474505507569885,0.2771237598545191,0.0350280543053737,0.0440051609884246,0.038004182620929756,0.04270223505925254,0.07401043927331985,0.32538019007953994,-0.07415465725884857
92,0.04932421948033745,0.041125864840163014,0.1474505507569885,0.2771237598545191,0.0350280543053737,0.0440051609884246,0.038004182620929756,0.04270223505925254,0.07401043927331985,0.32538019007953994,-0.07415465725884857
93,0.04932421948033745,0.041125864840163014,0.1474505507569885,0.2771237598545191,0.0350280543053737,0.0440051609884246,0.038004182620929756,0.04270223505925254,0.07401043927331985,0.32538019007953994,-0.07415465725884857
94,0.04932421948033745,0.041125864840163014,0.1474505507569885,0.2771237598545191,0.0350280543053737,0.0440051609884246,0.038004182620929756,0.04270223505925254,0.07401043927331985,0.32538019007953994,-0.07415465725884857
95,0.04932421948033745,0.041125864840163014,0.1474505507569885,0.2771237598545191,0.0350280543053737,0.0440051609884246,0.038004182620929756,0.04270223505925254,0.07401043927331985,0.32538019007953994,-0.07415465725884857
96,0.04932421948033745,0.041125864840163014,0.1474505507569885,0.2771237598545191,0.0350280543053737,0.0440051609884246,0.038004182620929756,0.04270223505925254,0.07401043927331985,0.32538019007953994,-0.07415465725884857
97,0.04932421948033745,0.041125864840163014,0.1474505507569885,0.2771237598545191,0.0350280543053737,0.0440051609884246,0.038004182620929756,0.04270223505925254,0.07401043927331985,0.32538019007953994,-0.07415465725884857
98,0.04932421948033745,0.041125864840163014,0.1474505507569885,0.2771237598545191,0.0350280543053737,0.0440051609884246,0.038004182620929756,0.04270223505925254,0.07401043927331985,0.32538019007953994,-0.07415465725884857
99,0.04932421948033745,0.041125864840163014,0.1474505507569885,0.2771237598545191,0.0350280543053737,0.0440051609884246,0.038004182620929756,0.04270223505925254,0.07401043927331985,0.32538019007953994,-0.07415465725884857
100,0.04932421948033745,0.041125864840163014,0.1474505507569885,0.2771237598545191,0.0350280543053737,0.0440051609884246,0.038004182620929756,0.04270223505925254,0.07401043927331985,0.32538019007953994,-0.07415465725884857
101,0.04932421948033745,0.041125864840163014,0.1474505507569885,0.2771237598545191,0.0350280543053737,0.0440051609884246,0.038004182620929756,0.04270223505925254,0.07401043927331985,0.32538019007953994,-0.07415465725884857
102,0.04932421948033745,0.041125864840163014,0.1474505507569885,0.2771237598545191,0.0350280543053737,0.0440051609884246,0.038004182620929756,0.04270223505925254,0.07401043927331985,0.32538019007953994,-0.07415465725884857
103,0.04932421948033745,0.041125864840163014,0.1474505507569885,0.2771237598545191,0.0350280543053737,0.0440051609884246,0.038004182620929756,0.04270223505925254,0.07401043927331985,0.32538019007953994,-0.07415465725884857
104,0.04932421948033745,0.041125864840163014,0.1474505507569885,0.2771237598545191,0.0350280543053737,0.0440051609884246,0.038004182620929756,0.04270223505925254,0.07401043927331985,0.32538019007953994,-0.07415465725884857
105,0.04932421948033745,0.041125864840163014,0.1474505507569885,0.2771237598545191,0.0350280543053737,0.0440051609884246,0.038004182620929756,0.04270223505925254,0.07401043927331985,0.32538019007953994,-0.07415465725884857
106,0.04932421948033745,0.041125864840163014,0.1474505507569885,0.2771237598545191,0.0350280543053737,0.0440051609884246,0.038004182620929756,0.04270223505925254,0.07401043927331985,0.32538019007953994,-0.07415465725884857
107,0.04932421948033745,0.041125864840163014,0.1474505507569885,0.2771237598545191,0.0350280543053737,0.0440051609884246,0.038004182620929756,0.04270223505925254,0.07401043927331985,0.32538019007953994,-0.07415465725884857
108,0.04932421948033745,0.041125864840163014,0.1474505507569885,0.2771237598545191,0.0350280543053737,0.0440051609884246,0.038004182620929756,0.04270223505925254,0.07401043927331985,0.32538019007953994,-0.07415465725884857
109,0.04932421948033745,0.041125864840163014,0.1474505507569885,0.2771237598545191,0.0350280543053737,0.0440051609884246,0.038004182620929756,0.04270223505925254,0.07401043927331985,0.32538019007953994,-0.07415465725884857
110,0.04932421948033745,0.041125864840163014,0.1474505507569885,0.2771237598545191,0.0350280543053737,0.0440051609884246,0.038004182620929756,0.04270223505925254,0.07401043927331985,0.32538019007953994,-0.07415465725884857
111,0.04932421948033745,0.041125864840163014,0.1474505507569885,0.2771237598545191,0.0350280543053737,0.0440051609884246,0.038004182620929756,0.04270223505925254,0.07401043927331985,0.32538019007953994,-0.07415465725884857
112,0.04932421948033745,0.041125864840163014,0.1474505507569885,0.2771237598545191,0.0350280543053737,0.0440051609884246,0.038004182620929756,0.04270223505925254,0.07401043927331985,0.32538019007953994,-0.07415465725884857
113,0.04932421948033745,0.041125864840163014,0.1474505507569885,0.2771237598545191,0.0350280543053737,0.0440051609884246,0.038004182620929756,0.04270223505925254,0.07401043927331985,0.32538019007953994,-0.07415465725884857
114,0.04932421948033745,0.041125864840163014,0.1474505507569885,0.2771237598545191,0.0350280543053737,0.0440051609884246,0.038004182620929756,0.04270223505925254,0.07401043927331985,0.32538019007953994,-0.07415465725884857
115,0.04932421948033745,0.041125864840163014,0.1474505507569885,0.2771237598545191,0.0350280543053737,0.0440051609884246,0.038004182620929756,0.04270223505925254,0.07401043927331985,0.32538019007953994,-0.07415465725884857
116,0.04932421948033745,0.041125864840163014,0.1474505507569885,0.2771237598545191,0.0350280543053737,0.0440051609884246,0.038004182620929756,0.04270223505925254,0.07401043927331985,0.32538019007953994,-0.07415465725884857
117,0.04932421948033745,0.041125864840163014,0.1474505507569885,0.2771237598545191,0.0350280543053737,0.0440051609884246,0.038004182620929756,0.04270223505925254,0.07401043927331985,0.32538019007953994,-0.07415465725884857
118,0.04932421948033745,0.041125864840163014,0.1474505507569885,0.2771237598545191,0.0350280543053737,0.0440051609884246,0.038004182620929756,0.04270223505925254,0.07401043927331985,0.32538019007953994,-0.07415465725884857
119,0.04932421948033745,0.041125864840163014,0.1474505507569885,0.2771237598545191,0.0350280543053737,0.0440051609884246,0.038004182620929756,0.04270223505925254,0.07401043927331985,0.32538019007953994,-0.07415465725884857
120,-0.028603155014713135,-0.051503124043072515,-8.116820149069363e-09,0.1268021669872148,0.3832527043530433,-8.145834549645654e-09,4.17619341196008e-08,-0.07569497981649694,0.48131249452223307,0.3086325923755746,-0.14419872486306265
121,-0.028603155014713135,-0.051503124043072515,-8.116820149069363e-09,0.1268021669872148,0.3832527043530433,-8.145834549645654e-09,4.17619341196008e-08,-0.07569497981649694,0.48131249452223307,0.3086325923755746,-0.14419872486306265
122,-0.028603155014713135,-0.051503124043072515,-8.116820149069363e-09,0.1268021669872148,0.3832527043530433,-8.145834549645654e-09,4.17619341196008e-08,-0.07569497981649694,0.48131249452223307,0.3086325923755746,-0.14419872486306265
123,-0.028603155014713135,-0.051503124043072515,-8.116820149069363e-09,0.1268021669872148,0.3832527043530433,-8.145834549645654e-09,4.17619341196008e-08,-0.07569497981649694,0.48131249452223307,0.3086325923755746,-0.14419872486306265
124,-0.028603155014713135,-0.051503124043072515,-8.116820149069363e-09,0.1268021669872148,0.3832527043530433,-8.145834549645654e-09,4.17619341196008e-08,-0.07569497981649694,0.48131249452223307,0.3086325923755746,-0.14419872486306265
125,-0.028603155014713135,-0.051503124043072515,-8.116820149069363e-09,0.1268021669872148,0.3832527043530433,-8.145834549645654e-09,4.17619341196008e-08,-0.07569497981649694,0.48131249452223307,0.3086325923755746,-0.14419872486306265
126,-0.028603155014713135,-0.051503124043072515,-8.116820149069363e-09,0.1268021669872148,0.3832527043530433,-8.145834549645654e-09,4.17619341196008e-08,-0.07569497981649694,0.48131249452223307,0.3086325923755746,-0.14419872486306265
127,-0.028603155014713135,-0.051503124043072515,-8.116820149069363e-09,0.1268021669872148,0.3832527043530433,-8.145834549645654e-09,4.17619341196008e-08,-0.07569497981649694,0.48131249452223307,0.3086325923755746,-0.14419872486306265
128,-0.028603155014713135,-0.051503124043072515,-8.116820149069363e-09,0.1268021669872148,0.3832527043530433,-8.145834549645654e-09,4.17619341196008e-08,-0.07569497981649694,0.48131249452223307,0.3086325923755746,-0.14419872486306265
129,-0.028603155014713135,-0.051503124043072515,-8.116820149069363e-09,0.1268021669872148,0.3832527043530433,-8.145834549645654e-09,4.17619341196008e-08,-0.07569497981649694,0.48131249452223307,0.3086325923755746,-0.14419872486306265
130,-0.028603155014713135,-0.051503124043072515,-8.116820149069363e-09,0.1268021669872148,0.3832527043530433,-8.145834549645654e-09,4.17619341196008e-08,-0.07569497981649694,0.48131249452223307,0.3086325923755746,-0.14419872486306265
131,-0.028603155014713135,-0.051503124043072515,-8.116820149069363e-09,0.1268021669872148,0.3832527043530433,-8.145834549645654e-09,4.17619341196008e-08,-0.07569497981649694,0.48131249452223307,0.3086325923755746,-0.14419872486306265
132,-0.028603155014713135,-0.051503124043072515,-8.116820149069363e-09,0.1268021669872148,0.3832527043530433,-8.145834549645654e-09,4.17619341196008e-08,-0.07569497981649694,0.48131249452223307,0.3086325923755746,-0.14419872486306265
133,-0.028603155014713135,-0.051503124043072515,-8.116820149069363e-09,0.1268021669872148,0.3832527043530433,-8.145834549645654e-09,4.17619341196008e-08,-0.07569497981649694,0.48131249452223307,0.3086325923755746,-0.14419872486306265
134,-0.028603155014713135,-0.051503124043072515,-8.116820149069363e-09,0.1268021669872148,0.3832527043530433,-8.145834549645654e-09,4.17619341196008e-08,-0.07569497981649694,0.48131249452223307,0.3086325923755746,-0.14419872486306265
135,-0.028603155014713135,-0.051503124043072515,-8.116820149069363e-09,0.1268021669872148,0.3832527043530433,-8.145834549645654e-09,4.17619341196008e-08,-0.07569497981649694,0.48131249452223307,0.3086325923755746,-0.14419872486306265
136,-0.028603155014713135,-0.051503124043072515,-8.116820149069363e-09,0.1268021669872148,0.3832527043530433,-8.145834549645654e-09,4.17619341196008e-08,-0.07569497981649694,0.48131249452223307,0.3086325923755746,-0.14419872486306265
137,-0.028603155014713135,-0.051503124043072515,-8.116820149069363e-09,0.1268021669872148,0.3832527043530433,-8.145834549645654e-09,4.17619341196008e-08,-0.07569497981649694,0.48131249452223307,0.3086325923755746,-0.14419872486306265
138,-0.028603155014713135,-0.051503124043072515,-8.116820149069363e-09,0.1268021669872148,0.3832527043530433,-8.145834549645654e-09,4.17619341196008e-08,-0.07569497981649694,0.48131249452223307,0.3086325923755746,-0.14419872486306265
139,-0.028603155014713135,-0.051503124043072515,-8.116820149069363e-09,0.1268021669872148,0.3832527043530433,-8.145834549645654e-09,4.17619341196008e-08,-0.07569497981649694,0.48131249452223307,0.3086325923755746,-0.14419872486306265
140,-0.028603155014713135,-0.051503124043072515,-8.116820149069363e-09,0.1268021669872148,0.3832527043530433,-8.145834549645654e-09,4.17619341196008e-08,-0.07569497981649694,0.48131249452223307,0.3086325923755746,-0.14419872486306265
141,-0.028603155014713135,-0.051503124043072515,-8.116820149069363e-09,0.1268021669872148,0.3832527043530433,-8.145834549645654e-09,4.17619341196008e-08,-0.07569497981649694,0.48131249452223307,0.3086325923755746,-0.14419872486306265
142,-0.028603155014713135,-0.051503124043072515,-8.116820149069363e-09,0.1268021669872148,0.3832527043530433,-8.145834549645654e-09,4.17619341196008e-08,-0.07569497981649694,0.48131249452223307,0.3086325923755746,-0.14419872486306265
143,-0.028603155014713135,-0.051503124043072515,-8.116820149069363e-09,0.1268021669872148,0.3832527043530433,-8.145834549645654e-09,4.17619341196008e-08,-0.07569497981649694,0.48131249452223307,0.3086325923755746,-0.14419872486306265
144,-0.028603155014713135,-0.051503124043072515,-8.116820149069363e-09,0.1268021669872148,0.3832527043530433,-8.145834549645654e-09,4.17619341196008e-08,-0.07569497981649694,0.48131249452223307,0.3086325923755746,-0.14419872486306265
145,-0.028603155014713135,-0.051503124043072515,-8.116820149069363e-09,0.1268021669872148,0.3832527043530433,-8.145834549645654e-09,4.17619341196008e-08,-0.07569497981649694,0.48131249452223307,0.3086325923755746,-0.14419872486306265
146,-0.028603155014713135,-0.051503124043072515,-8.116820149069363e-09,0.1268021669872148,0.3832527043530433,-8.145834549645654e-09,4.17619341196008e-08,-0.07569497981649694,0.48131249452223307,0.3086325923755746,-0.14419872486306265
147,-0.028603155014713135,-0.051503124043072515,-8.116820149069363e-09,0.1268021669872148,0.3832527043530433,-8.145834549645654e-09,4.17619341196008e-08,-0.07569497981649694,0.48131249452223307,0.3086325923755746,-0.14419872486306265
148,-0.028603155014713135,-0.051503124043072515,-8.116820149069363e-09,0.1268021669872148,0.3832527043530433,-8.145834549645654e-09,4.17619341196008e-08,-0.07569497981649694,0.48131249452223307,0.3086325923755746,-0.14419872486306265
149,-0.028603155014713135,-0.051503124043072515,-8.116820149069363e-09,0.1268021669872148,0.3832527043530433,-8.145834549645654e-09,4.17619341196008e-08,-0.07569497981649694,0.48131249452223307,0.3086325923755746,-0.14419872486306265
150,-0.028603155014713135,-0.051503124043072515,-8.116820149069363e-09,0.1268021669872148,0.3832527043530433,-8.145834549645654e-09,4.17619341196008e-08,-0.07569497981649694,0.48131249452223307,0.3086325923755746,-0.14419872486306265
151,-0.05076427043568485,-0.08704238090382514,0.10492800205424466,0.4023215811079843,0.12985966127138607,0.11999738856943062,-0.12544809459175707,-0.03674525406873294,0.41187071065158076,0.06568863311163452,0.06533402323373907
152,-0.05076427043568485,-0.08704238090382514,0.10492800205424466,0.4023215811079843,0.12985966127138607,0.11999738856943062,-0.12544809459175707,-0.03674525406873294,0.41187071065158076,0.06568863311163452,0.06533402323373907
153,-0.05076427043568485,-0.08704238090382514,0.10492800205424466,0.4023215811079843,0.12985966127138607,0.11999738856943062,-0.12544809459175707,-0.03674525406873294,0.41187071065158076,0.06568863311163452,0.06533402323373907
154,-0.05076427043568485,-0.08704238090382514,0.10492800205424466,0.4023215811079843,0.12985966127138607,0.11999738856943062,-0.12544809459175707,-0.03674525406873294,0.41187071065158076,0.06568863311163452,0.06533402323373907
155,-0.05076427043568485,-0.08704238090382514,0.10492800205424466,0.4023215811079843,0.12985966127138607,0.11999738856943062,-0.12544809459175707,-0.03674525406873294,0.41187071065158076,0.06568863311163452,0.06533402323373907
156,-0.05076427043568485,-0.08704238090382514,0.10492800205424466,0.4023215811079843,0.12985966127138607,0.11999738856943062,-0.12544809459175707,-0.03674525406873294,0.41187071065158076,0.06568863311163452,0.06533402323373907
157,-0.05076427043568485,-0.08704238090382514,0.10492800205424466,0.4023215811079843,0.12985966127138607,0.11999738856943062,-0.12544809459175707,-0.03674525406873294,0.41187071065158076,0.06568863311163452,0.06533402323373907
158,-0.05076427043568485,-0.08704238090382514,0.10492800205424466,0.4023215811079843,0.12985966127138607,0.11999738856943062,-0.12544809459175707,-0.03674525406873294,0.41187071065158076,0.06568863311163452,0.06533402323373907
159,-0.05076427043568485,-0.08704238090382514,0.10492800205424466,0.4023215811079843,0.12985966127138607,0.11999738856943062,-0.12544809459175707,-0.03674525406873294,0.41187071065158076,0.06568863311163452,0.06533402323373907
160,-0.05076427043568485,-0.08704238090382514,0.10492800205424466,0.4023215811079843,0.12985966127138607,0.11999738856943062,-0.12544809459175707,-0.03674525406873294,0.41187071065158076,0.06568863311163452,0.06533402323373907
161,-0.05076427043568485,-0.08704238090382514,0.10492800205424466,0.4023215811079843,0.12985966127138607,0.11999738856943062,-0.12544809459175707,-0.03674525406873294,0.41187071065158076,0.06568863311163452,0.06533402323373907
162,-0.05076427043568485,-0.08704238090382514,0.10492800205424466,0.4023215811079843,0.12985966127138607,0.11999738856943062,-0.12544809459175707,-0.03674525406873294,0.41187071065158076,0.06568863311163452,0.06533402323373907
163,-0.05076427043568485,-0.08704238090382514,0.10492800205424466,0.4023215811079843,0.12985966127138607,0.11999738856943062,-0.12544809459175707,-0.03674525406873294,0.41187071065158076,0.06568863311163452,0.06533402323373907
164,-0.05076427043568485,-0.08704238090382514,0.10492800205424466,0.4023215811079843,0.12985966127138607,0.11999738856943062,-0.12544809459175707,-0.03674525406873294,0.41187071065158076,0.06568863311163452,0.06533402323373907
165,-0.05076427043568485,-0.08704238090382514,0.10492800205424466,0.4023215811079843,0.12985966127138607,0.11999738856943062,-0.12544809459175707,-0.03674525406873294,0.41187071065158076,0.06568863311163452,0.06533402323373907
166,-0.05076427043568485,-0.08704238090382514,0.10492800205424466,0.4023215811079843,0.12985966127138607,0.11999738856943062,-0.12544809459175707,-0.03674525406873294,0.41187071065158076,0.06568863311163452,0.06533402323373907
167,-0.05076427043568485,-0.08704238090382514,0.10492800205424466,0.4023215811079843,0.12985966127138607,0.11999738856943062,-0.12544809459175707,-0.03674525406873294,0.41187071065158076,0.06568863311163452,0.06533402323373907
168,-0.05076427043568485,-0.08704238090382514,0.10492800205424466,0.4023215811079843,0.12985966127138607,0.11999738856943062,-0.12544809459175707,-0.03674525406873294,0.41187071065158076,0.06568863311163452,0.06533402323373907
169,-0.05076427043568485,-0.08704238090382514,0.10492800205424466,0.4023215811079843,0.12985966127138607,0.11999738856943062,-0.12544809459175707,-0.03674525406873294,0.41187071065158076,0.06568863311163452,0.06533402323373907
170,-0.05076427043568485,-0.08704238090382514,0.10492800205424466,0.4023215811079843,0.12985966127138607,0.11999738856943062,-0.12544809459175707,-0.03674525406873294,0.41187071065158076,0.06568863311163452,0.06533402323373907
171,-0.05076427043568485,-0.08704238090382514,0.10492800205424466,0.4023215811079843,0.12985966127138607,0.11999738856943062,-0.12544809459175707,-0.03674525406873294,0.41187071065158076,0.06568863311163452,0.06533402323373907
172,-0.05076427043568485,-0.08704238090382514,0.10492800205424466,0.4023215811079843,0.12985966127138607,0.11999738856943062,-0.12544809459175707,-0.03674525406873294,0.41187071065158076,0.06568863311163452,0.06533402323373907
173,-0.05076427043568485,-0.08704238090382514,0.10492800205424466,0.4023215811079843,0.12985966127138607,0.11999738856943062,-0.12544809459175707,-0.03674525406873294,0.41187071065158076,0.06568863311163452,0.06533402323373907
174,-0.05076427043568485,-0.08704238090382514,0.10492800205424466,0.4023215811079843,0.12985966127138607,0.11999738856943062,-0.12544809459175707,-0.03674525406873294,0.41187071065158076,0.06568863311163452,0.06533402323373907
175,-0.05076427043568485,-0.08704238090382514,0.10492800205424466,0.4023215811079843,0.12985966127138607,0.11999738856943062,-0.12544809459175707,-0.03674525406873294,0.41187071065158076,0.06568863311163452,0.06533402323373907
176,-0.05076427043568485,-0.08704238090382514,0.10492800205424466,0.4023215811079843,0.12985966127138607,0.11999738856943062,-0.12544809459175707,-0.03674525406873294,0.41187071065158076,0.06568863311163452,0.06533402323373907
177,-0.05076427043568485,-0.08704238090382514,0.10492800205424466,0.4023215811079843,0.12985966127138607,0.11999738856943062,-0.12544809459175707,-0.03674525406873294,0.41187071065158076,0.06568863311163452,0.06533402323373907
178,-0.05076427043568485,-0.08704238090382514,0.10492800205424466,0.4023215811079843,0.12985966127138607,0.11999738856943062,-0.12544809459175707,-0.03674525406873294,0.41187071065158076,0.06568863311163452,0.06533402323373907
179,-0.05076427043568485,-0.08704238090382514,0.10492800205424466,0.4023215811079843,0.12985966127138607,0.11999738856943062,-0.12544809459175707,-0.03674525406873294,0.41187071065158076,0.06568863311163452,0.06533402323373907
180,-0.05076427043568485,-0.08704238090382514,0.10492800205424466,0.4023215811079843,0.12985966127138607,0.11999738856943062,-0.12544809459175707,-0.03674525406873294,0.41187071065158076,0.06568863311163452,0.06533402323373907
181,-0.05367591382026757,0.0724049814080298,0.1854599013176452,0.014957000446642972,0.03197545719442895,0.5548415335292023,0.3216773525562578,-0.20750042699786633,0.03531158898880223,0.0833721845589909,-0.03882365918186612
182,-0.05367591382026757,0.0724049814080298,0.1854599013176452,0.014957000446642972,0.03197545719442895,0.5548415335292023,0.3216773525562578,-0.20750042699786633,0.03531158898880223,0.0833721845589909,-0.03882365918186612
183,-0.05367591382026757,0.0724049814080298,0.1854599013176452,0.014957000446642972,0.03197545719442895,0.5548415335292023,0.3216773525562578,-0.20750042699786633,0.03531158898880223,0.0833721845589909,-0.03882365918186612
184,-0.05367591382026757,0.0724049814080298,0.1854599013176452,0.014957000446642972,0.03197545719442895,0.5548415335292023,0.3216773525562578,-0.20750042699786633,0.03531158898880223,0.0833721845589909,-0.03882365918186612
185,-0.05367591382026757,0.0724049814080298,0.1854599013176452,0.014957000446642972,0.03197545719442895,0.5548415335292023,0.3216773525562578,-0.20750042699786633,0.03531158898880223,0.0833721845589909,-0.03882365918186612
186,-0.05367591382026757,0.0724049814080298,0.1854599013176452,0.014957000446642972,0.03197545719442895,0.5548415335292023,0.3216773525562578,-0.20750042699786633,0.03531158898880223,0.0833721845589909,-0.03882365918186612
187,-0.05367591382026757,0.0724049814080298,0.1854599013176452,0.014957000446642972,0.03197545719442895,0.5548415335292023,0.3216773525562578,-0.20750042699786633,0.03531158898880223,0.0833721845589909,-0.03882365918186612
188,-0.05367591382026757,0.0724049814080298,0.1854599013176452,0.014957000446642972,0.03197545719442895,0.5548415335292023,0.3216773525562578,-0.20750042699786633,0.03531158898880223,0.0833721845589909,-0.03882365918186612
189,-0.05367591382026757,0.0724049814080298,0.1854599013176452,0.014957000446642972,0.03197545719442895,0.5548415335292023,0.3216773525562578,-0.20750042699786633,0.03531158898880223,0.0833721845589909,-0.03882365918186612
190,-0.05367591382026757,0.0724049814080298,0.1854599013176452,0.014957000446642972,0.03197545719442895,0.5548415335292023,0.3216773525562578,-0.20750042699786633,0.03531158898880223,0.0833721845589909,-0.03882365918186612
191,-0.05367591382026757,0.0724049814080298,0.1854599013176452,0.014957000446642972,0.03197545719442895,0.5548415335292023,0.3216773525562578,-0.20750042699786633,0.03531158898880223,0.0833721845589909,-0.03882365918186612
192,-0.05367591382026757,0.0724049814080298,0.1854599013176452,0.014957000446642972,0.03197545719442895,0.5548415335292023,0.3216773525562578,-0.20750042699786633,0.03531158898880223,0.0833721845589909,-0.03882365918186612
193,-0.05367591382026757,0.0724049814080298,0.1854599013176452,0.014957000446642972,0.03197545719442895,0.5548415335292023,0.3216773525562578,-0.20750042699786633,0.03531158898880223,0.0833721845589909,-0.03882365918186612
194,-0.05367591382026757,0.0724049814080298,0.1854599013176452,0.014957000446642972,0.03197545719442895,0.5548415335292023,0.3216773525562578,-0.20750042699786633,0.03531158898880223,0.0833721845589909,-0.03882365918186612
195,-0.05367591382026757,0.0724049814080298,0.1854599013176452,0.014957000446642972,0.03197545719442895,0.5548415335292023,0.3216773525562578,-0.20750042699786633,0.03531158898880223,0.0833721845589909,-0.03882365918186612
196,-0.05367591382026757,0.0724049814080298,0.1854599013176452,0.014957000446642972,0.03197545719442895,0.5548415335292023,0.3216773525562578,-0.20750042699786633,0.03531158898880223,0.0833721845589909,-0.03882365918186612
197,-0.05367591382026757,0.0724049814080298,0.1854599013176452,0.014957000446642972,0.03197545719442895,0.5548415335292023,0.3216773525562578,-0.20750042699786633,0.03531158898880223,0.0833721845589909,-0.03882365918186612
198,-0.05367591382026757,0.0724049814080298,0.1854599013176452,0.014957000446642972,0.03197545719442895,0.5548415335292023,0.3216773525562578,-0.20750042699786633,0.03531158898880223,0.0833721845589909,-0.03882365918186612
199,-0.05367591382026757,0.0724049814080298,0.1854599013176452,0.014957000446642972,0.03197545719442895,0.5548415335292023,0.3216773525562578,-0.20750042699786633,0.03531158898880223,0.0833721845589909,-0.03882365918186612
200,-0.05367591382026757,0.0724049814080298,0.1854599013176452,0.014957000446642972,0.03197545719442895,0.5548415335292023,0.3216773525562578,-0.20750042699786633,0.03531158898880223,0.0833721845589909,-0.03882365918186612
201,-0.05367591382026757,0.0724049814080298,0.1854599013176452,0.014957000446642972,0.03197545719442895,0.5548415335292023,0.3216773525562578,-0.20750042699786633,0.03531158898880223,0.0833721845589909,-0.03882365918186612
202,-0.05367591382026757,0.0724049814080298,0.1854599013176452,0.014957000446642972,0.03197545719442895,0.5548415335292023,0.3216773525562578,-0.20750042699786633,0.03531158898880223,0.0833721845589909,-0.03882365918186612
203,-0.05367591382026757,0.0724049814080298,0.1854599013176452,0.014957000446642972,0.03197545719442895,0.5548415335292023,0.3216773525562578,-0.20750042699786633,0.03531158898880223,0.0833721845589909,-0.03882365918186612
204,-0.05367591382026757,0.0724049814080298,0.1854599013176452,0.014957000446642972,0.03197545719442895,0.5548415335292023,0.3216773525562578,-0.20750042699786633,0.03531158898880223,0.0833721845589909,-0.03882365918186612
205,-0.05367591382026757,0.0724049814080298,0.1854599013176452,0.014957000446642972,0.03197545719442895,0.5548415335292023,0.3216773525562578,-0.20750042699786633,0.03531158898880223,0.0833721845589909,-0.03882365918186612
206,-0.05367591382026757,0.0724049814080298,0.1854599013176452,0.014957000446642972,0.03197545719442895,0.5548415335292023,0.3216773525562578,-0.20750042699786633,0.03531158898880223,0.0833721845589909,-0.03882365918186612
207,-0.05367591382026757,0.0724049814080298,0.1854599013176452,0.014957000446642972,0.03197545719442895,0.5548415335292023,0.3216773525562578,-0.20750042699786633,0.03531158898880223,0.0833721845589909,-0.03882365918186612
208,-0.05367591382026757,0.0724049814080298,0.1854599013176452,0.014957000446642972,0.03197545719442895,0.5548415335292023,0.3216773525562578,-0.20750042699786633,0.03531158898880223,0.0833721845589909,-0.03882365918186612
209,-0.05367591382026757,0.0724049814080298,0.1854599013176452,0.014957000446642972,0.03197545719442895,0.5548415335292023,0.3216773525562578,-0.20750042699786633,0.03531158898880223,0.0833721845589909,-0.03882365918186612
210,-0.05367591382026757,0.0724049814080298,0.1854599013176452,0.014957000446642972,0.03197545719442895,0.5548415335292023,0.3216773525562578,-0.20750042699786633,0.03531158898880223,0.0833721845589909,-0.03882365918186612
211,-0.05367591382026757,0.0724049814080298,0.1854599013176452,0.014957000446642972,0.03197545719442895,0.5548415335292023,0.3216773525562578,-0.20750042699786633,0.03531158898880223,0.0833721845589909,-0.03882365918186612
212,0.09202359749928529,0.05153771090725132,0.046979619298955125,0.10154678728098686,0.07947064759372256,0.060785926438637755,0.04796300526160438,0.03965888576829194,0.13659329205604653,0.0487986393650106,0.2946418885302077
213,0.09202359749928529,0.05153771090725132,0.046979619298955125,0.10154678728098686,0.07947064759372256,0.060785926438637755,0.04796300526160438,0.03965888576829194,0.13659329205604653,0.0487986393650106,0.2946418885302077
214,0.09202359749928529,0.05153771090725132,0.046979619298955125,0.10154678728098686,0.07947064759372256,0.060785926438637755,0.04796300526160438,0.03965888576829194,0.13659329205604653,0.0487986393650106,0.2946418885302077
215,0.09202359749928529,0.05153771090725132,0.046979619298955125,0.10154678728098686,0.07947064759372256,0.060785926438637755,0.04796300526160438,0.03965888576829194,0.13659329205604653,0.0487986393650106,0.2946418885302077
216,0.09202359749928529,0.05153771090725132,0.046979619298955125,0.10154678728098686,0.07947064759372256,0.060785926438637755,0.04796300526160438,0.03965888576829194,0.13659329205604653,0.0487986393650106,0.2946418885302077
217,0.09202359749928529,0.05153771090725132,0.046979619298955125,0.10154678728098686,0.07947064759372256,0.060785926438637755,0.04796300526160438,0.03965888576829194,0.13659329205604653,0.0487986393650106,0.2946418885302077
218,0.09202359749928529,0.05153771090725132,0.046979619298955125,0.10154678728098686,0.07947064759372256,0.060785926438637755,0.04796300526160438,0.03965888576829194,0.13659329205604653,0.0487986393650106,0.2946418885302077
219,0.09202359749928529,0.05153771090725132,0.046979619298955125,0.10154678728098686,0.07947064759372256,0.060785926438637755,0.04796300526160438,0.03965888576829194,0.13659329205604653,0.0487986393650106,0.2946418885302077
220,0.09202359749928529,0.05153771090725132,0.046979619298955125,0.10154678728098686,0.07947064759372256,0.060785926438637755,0.04796300526160438,0.03965888576829194,0.13659329205604653,0.0487986393650106,0.2946418885302077
221,0.09202359749928529,0.05153771090725132,0.046979619298955125,0.10154678728098686,0.07947064759372256,0.060785926438637755,0.04796300526160438,0.03965888576829194,0.13659329205604653,0.0487986393650106,0.2946418885302077
222,0.09202359749928529,0.05153771090725132,0.046979619298955125,0.10154678728098686,0.07947064759372256,0.060785926438637755,0.04796300526160438,0.03965888576829194,0.13659329205604653,0.0487986393650106,0.2946418885302077
223,0.09202359749928529,0.05153771090725132,0.046979619298955125,0.10154678728098686,0.07947064759372256,0.060785926438637755,0.04796300526160438,0.03965888576829194,0.13659329205604653,0.0487986393650106,0.2946418885302077
224,0.09202359749928529,0.05153771090725132,0.046979619298955125,0.10154678728098686,0.07947064759372256,0.060785926438637755,0.04796300526160438,0.03965888576829194,0.13659329205604653,0.0487986393650106,0.2946418885302077
225,0.09202359749928529,0.05153771090725132,0.046979619298955125,0.10154678728098686,0.07947064759372256,0.060785926438637755,0.04796300526160438,0.03965888576829194,0.13659329205604653,0.0487986393650106,0.2946418885302077
226,0.09202359749928529,0.05153771090725132,0.046979619298955125,0.10154678728098686,0.07947064759372256,0.060785926438637755,0.04796300526160438,0.03965888576829194,0.13659329205604653,0.0487986393650106,0.2946418885302077
227,0.09202359749928529,0.05153771090725132,0.046979619298955125,0.10154678728098686,0.07947064759372256,0.060785926438637755,0.04796300526160438,0.03965888576829194,0.13659329205604653,0.0487986393650106,0.2946418885302077
228,0.09202359749928529,0.05153771090725132,0.046979619298955125,0.10154678728098686,0.07947064759372256,0.060785926438637755,0.04796300526160438,0.03965888576829194,0.13659329205604653,0.0487986393650106,0.2946418885302077
229,0.09202359749928529,0.05153771090725132,0.046979619298955125,0.10154678728098686,0.07947064759372256,0.060785926438637755,0.04796300526160438,0.03965888576829194,0.13659329205604653,0.0487986393650106,0.2946418885302077
230,0.09202359749928529,0.05153771090725132,0.046979619298955125,0.10154678728098686,0.07947064759372256,0.060785926438637755,0.04796300526160438,0.03965888576829194,0.13659329205604653,0.0487986393650106,0.2946418885302077
231,0.09202359749928529,0.05153771090725132,0.046979619298955125,0.10154678728098686,0.07947064759372256,0.060785926438637755,0.04796300526160438,0.03965888576829194,0.13659329205604653,0.0487986393650106,0.2946418885302077
232,0.09202359749928529,0.05153771090725132,0.046979619298955125,0.10154678728098686,0.07947064759372256,0.060785926438637755,0.04796300526160438,0.03965888576829194,0.13659329205604653,0.0487986393650106,0.2946418885302077
233,0.09202359749928529,0.05153771090725132,0.046979619298955125,0.10154678728098686,0.07947064759372256,0.060785926438637755,0.04796300526160438,0.03965888576829194,0.13659329205604653,0.0487986393650106,0.2946418885302077
234,0.09202359749928529,0.05153771090725132,0.046979619298955125,0.10154678728098686,0.07947064759372256,0.060785926438637755,0.04796300526160438,0.03965888576829194,0.13659329205604653,0.0487986393650106,0.2946418885302077
235,0.09202359749928529,0.05153771090725132,0.046979619298955125,0.10154678728098686,0.07947064759372256,0.060785926438637755,0.04796300526160438,0.03965888576829194,0.13659329205604653,0.0487986393650106,0.2946418885302077
236,0.09202359749928529,0.05153771090725132,0.046979619298955125,0.10154678728098686,0.07947064759372256,0.060785926438637755,0.04796300526160438,0.03965888576829194,0.13659329205604653,0.0487986393650106,0.2946418885302077
237,0.09202359749928529,0.05153771090725132,0.046979619298955125,0.10154678728098686,0.07947064759372256,0.060785926438637755,0.04796300526160438,0.03965888576829194,0.13659329205604653,0.0487986393650106,0.2946418885302077
238,0.09202359749928529,0.05153771090725132,0.046979619298955125,0.10154678728098686,0.07947064759372256,0.060785926438637755,0.04796300526160438,0.03965888576829194,0.13659329205604653,0.0487986393650106,0.2946418885302077
239,0.09202359749928529,0.05153771090725132,0.046979619298955125,0.10154678728098686,0.07947064759372256,0.060785926438637755,0.04796300526160438,0.03965888576829194,0.13659329205604653,0.0487986393650106,0.2946418885302077
240,0.09202359749928529,0.05153771090725132,0.046979619298955125,0.10154678728098686,0.07947064759372256,0.060785926438637755,0.04796300526160438,0.03965888576829194,0.13659329205604653,0.0487986393650106,0.2946418885302077
241,0.09202359749928529,0.05153771090725132,0.046979619298955125,0.10154678728098686,0.07947064759372256,0.060785926438637755,0.04796300526160438,0.03965888576829194,0.13659329205604653,0.0487986393650106,0.2946418885302077
242,0.09202359749928529,0.05153771090725132,0.046979619298955125,0.10154678728098686,0.07947064759372256,0.060785926438637755,0.04796300526160438,0.03965888576829194,0.13659329205604653,0.0487986393650106,0.2946418885302077
243,0.37195717507357656,0.4883540530731578,-0.08176728105244821,0.06297224373255776,0.024092056447654272,0.07052002643355745,0.055815025411797704,0.07282898759304363,0.03868778752759517,-0.07546289381989663,-0.027997180420595853
244,0.37195717507357656,0.4883540530731578,-0.08176728105244821,0.06297224373255776,0.024092056447654272,0.07052002643355745,0.055815025411797704,0.07282898759304363,0.03868778752759517,-0.07546289381989663,-0.027997180420595853
245,0.37195717507357656,0.4883540530731578,-0.08176728105244821,0.06297224373255776,0.024092056447654272,0.07052002643355745,0.055815025411797704,0.07282898759304363,0.03868778752759517,-0.07546289381989663,-0.027997180420595853
246,0.37195717507357656,0.4883540530731578,-0.08176728105244821,0.06297224373255776,0.024092056447654272,0.07052002643355745,0.055815025411797704,0.07282898759304363,0.03868778752759517,-0.07546289381989663,-0.027997180420595853
247,0.37195717507357656,0.4883540530731578,-0.08176728105244821,0.06297224373255776,0.024092056447654272,0.07052002643355745,0.055815025411797704,0.07282898759304363,0.03868778752759517,-0.07546289381989663,-0.027997180420595853
248,0.37195717507357656,0.4883540530731578,-0.08176728105244821,0.06297224373255776,0.024092056447654272,0.07052002643355745,0.055815025411797704,0.07282898759304363,0.03868778752759517,-0.07546289381989663,-0.027997180420595853
249,0.37195717507357656,0.4883540530731578,-0.08176728105244821,0.06297224373255776,0.024092056447654272,0.07052002643355745,0.055815025411797704,0.07282898759304363,0.03868778752759517,-0.07546289381989663,-0.027997180420595853
250,0.37195717507357656,0.4883540530731578,-0.08176728105244821,0.06297224373255776,0.024092056447654272,0.07052002643355745,0.055815025411797704,0.07282898759304363,0.03868778752759517,-0.07546289381989663,-0.027997180420595853
251,0.37195717507357656,0.4883540530731578,-0.08176728105244821,0.06297224373255776,0.024092056447654272,0.07052002643355745,0.055815025411797704,0.07282898759304363,0.03868778752759517,-0.07546289381989663,-0.027997180420595853
252,0.37195717507357656,0.4883540530731578,-0.08176728105244821,0.06297224373255776,0.024092056447654272,0.07052002643355745,0.055815025411797704,0.07282898759304363,0.03868778752759517,-0.07546289381989663,-0.027997180420595853
253,0.37195717507357656,0.4883540530731578,-0.08176728105244821,0.06297224373255776,0.024092056447654272,0.07052002643355745,0.055815025411797704,0.07282898759304363,0.03868778752759517,-0.07546289381989663,-0.027997180420595853
254,0.37195717507357656,0.4883540530731578,-0.08176728105244821,0.06297224373255776,0.024092056447654272,0.07052002643355745,0.055815025411797704,0.07282898759304363,0.03868778752759517,-0.07546289381989663,-0.027997180420595853
255,0.37195717507357656,0.4883540530731578,-0.08176728105244821,0.06297224373255776,0.024092056447654272,0.07052002643355745,0.055815025411797704,0.07282898759304363,0.03868778752759517,-0.07546289381989663,-0.027997180420595853
256,0.37195717507357656,0.4883540530731578,-0.08176728105244821,0.06297224373255776,0.024092056447654272,0.07052002643355745,0.055815025411797704,0.07282898759304363,0.03868778752759517,-0.07546289381989663,-0.027997180420595853
257,0.37195717507357656,0.4883540530731578,-0.08176728105244821,0.06297224373255776,0.024092056447654272,0.07052002643355745,0.055815025411797704,0.07282898759304363,0.03868778752759517,-0.07546289381989663,-0.027997180420595853
258,0.37195717507357656,0.4883540530731578,-0.08176728105244821,0.06297224373255776,0.024092056447654272,0.07052002643355745,0.055815025411797704,0.07282898759304363,0.03868778752759517,-0.07546289381989663,-0.027997180420595853
259,0.37195717507357656,0.4883540530731578,-0.08176728105244821,0.06297224373255776,0.024092056447654272,0.07052002643355745,0.055815025411797704,0.07282898759304363,0.03868778752759517,-0.07546289381989663,-0.027997180420595853
260,0.37195717507357656,0.4883540530731578,-0.08176728105244821,0.06297224373255776,0.024092056447654272,0.07052002643355745,0.055815025411797704,0.07282898759304363,0.03868778752759517,-0.07546289381989663,-0.027997180420595853
261,0.37195717507357656,0.4883540530731578,-0.08176728105244821,0.06297224373255776,0.024092056447654272,0.07052002643355745,0.055815025411797704,0.07282898759304363,0.03868778752759517,-0.07546289381989663,-0.027997180420595853
262,0.37195717507357656,0.4883540530731578,-0.08176728105244821,0.06297224373255776,0.024092056447654272,0.07052002643355745,0.055815025411797704,0.07282898759304363,0.03868778752759517,-0.07546289381989663,-0.027997180420595853
263,0.37195717507357656,0.4883540530731578,-0.08176728105244821,0.06297224373255776,0.024092056447654272,0.07052002643355745,0.055815025411797704,0.07282898759304363,0.03868778752759517,-0.07546289381989663,-0.027997180420595853
264,0.37195717507357656,0.4883540530731578,-0.08176728105244821,0.06297224373255776,0.024092056447654272,0.07052002643355745,0.055815025411797704,0.07282898759304363,0.03868778752759517,-0.07546289381989663,-0.027997180420595853
265,0.37195717507357656,0.4883540530731578,-0.08176728105244821,0.06297224373255776,0.024092056447654272,0.07052002643355745,0.055815025411797704,0.07282898759304363,0.03868778752759517,-0.07546289381989663,-0.027997180420595853
266,0.37195717507357656,0.4883540530731578,-0.08176728105244821,0.06297224373255776,0.024092056447654272,0.07052002643355745,0.055815025411797704,0.07282898759304363,0.03868778752759517,-0.07546289381989663,-0.027997180420595853
267,0.37195717507357656,0.4883540530731578,-0.08176728105244821,0.06297224373255776,0.024092056447654272,0.07052002643355745,0.055815025411797704,0.07282898759304363,0.03868778752759517,-0.07546289381989663,-0.027997180420595853
268,0.37195717507357656,0.4883540530731578,-0.08176728105244821,0.06297224373255776,0.024092056447654272,0.07052002643355745,0.055815025411797704,0.07282898759304363,0.03868778752759517,-0.07546289381989663,-0.027997180420595853
269,0.37195717507357656,0.4883540530731578,-0.08176728105244821,0.06297224373255776,0.024092056447654272,0.07052002643355745,0.055815025411797704,0.07282898759304363,0.03868778752759517,-0.07546289381989663,-0.027997180420595853
270,0.37195717507357656,0.4883540530731578,-0.08176728105244821,0.06297224373255776,0.024092056447654272,0.07052002643355745,0.055815025411797704,0.07282898759304363,0.03868778752759517,-0.07546289381989663,-0.027997180420595853
271,0.37195717507357656,0.4883540530731578,-0.08176728105244821,0.06297224373255776,0.024092056447654272,0.07052002643355745,0.055815025411797704,0.07282898759304363,0.03868778752759517,-0.07546289381989663,-0.027997180420595853
272,0.37195717507357656,0.4883540530731578,-0.08176728105244821,0.06297224373255776,0.024092056447654272,0.07052002643355745,0.055815025411797704,0.07282898759304363,0.03868778752759517,-0.07546289381989663,-0.027997180420595853
273,-0.1182988176046793,0.08555028807069999,0.2314966650582753,0.06481318677605662,0.11193692507970068,0.03928159501729439,0.02343289814351609,0.1933540879093802,0.02965434231030823,0.03828911783321355,0.3004897114062342
274,-0.1182988176046793,0.08555028807069999,0.2314966650582753,0.06481318677605662,0.11193692507970068,0.03928159501729439,0.02343289814351609,0.1933540879093802,0.02965434231030823,0.03828911783321355,0.3004897114062342
275,-0.1182988176046793,0.08555028807069999,0.2314966650582753,0.06481318677605662,0.11193692507970068,0.03928159501729439,0.02343289814351609,0.1933540879093802,0.02965434231030823,0.03828911783321355,0.3004897114062342
276,-0.1182988176046793,0.08555028807069999,0.2314966650582753,0.06481318677605662,0.11193692507970068,0.03928159501729439,0.02343289814351609,0.1933540879093802,0.02965434231030823,0.03828911783321355,0.3004897114062342
277,-0.1182988176046793,0.08555028807069999,0.2314966650582753,0.06481318677605662,0.11193692507970068,0.03928159501729439,0.02343289814351609,0.1933540879093802,0.02965434231030823,0.03828911783321355,0.3004897114062342
278,-0.1182988176046793,0.08555028807069999,0.2314966650582753,0.06481318677605662,0.11193692507970068,0.03928159501729439,0.02343289814351609,0.1933540879093802,0.02965434231030823,0.03828911783321355,0.3004897114062342
279,-0.1182988176046793,0.08555028807069999,0.2314966650582753,0.06481318677605662,0.11193692507970068,0.03928159501729439,0.02343289814351609,0.1933540879093802,0.02965434231030823,0.03828911783321355,0.3004897114062342
280,-0.1182988176046793,0.08555028807069999,0.2314966650582753,0.06481318677605662,0.11193692507970068,0.03928159501729439,0.02343289814351609,0.1933540879093802,0.02965434231030823,0.03828911783321355,0.3004897114062342
281,-0.1182988176046793,0.08555028807069999,0.2314966650582753,0.06481318677605662,0.11193692507970068,0.03928159501729439,0.02343289814351609,0.1933540879093802,0.02965434231030823,0.03828911783321355,0.3004897114062342
282,-0.1182988176046793,0.08555028807069999,0.2314966650582753,0.06481318677605662,0.11193692507970068,0.03928159501729439,0.02343289814351609,0.1933540879093802,0.02965434231030823,0.03828911783321355,0.3004897114062342
283,-0.1182988176046793,0.08555028807069999,0.2314966650582753,0.06481318677605662,0.11193692507970068,0.03928159501729439,0.02343289814351609,0.1933540879093802,0.02965434231030823,0.03828911783321355,0.3004897114062342
284,-0.1182988176046793,0.08555028807069999,0.2314966650582753,0.06481318677605662,0.11193692507970068,0.03928159501729439,0.02343289814351609,0.1933540879093802,0.02965434231030823,0.03828911783321355,0.3004897114062342
285,-0.1182988176046793,0.08555028807069999,0.2314966650582753,0.06481318677605662,0.11193692507970068,0.03928159501729439,0.02343289814351609,0.1933540879093802,0.02965434231030823,0.03828911783321355,0.3004897114062342
286,-0.1182988176046793,0.08555028807069999,0.2314966650582753,0.06481318677605662,0.11193692507970068,0.03928159501729439,0.02343289814351609,0.1933540879093802,0.02965434231030823,0.03828911783321355,0.3004897114062342
287,-0.1182988176046793,0.08555028807069999,0.2314966650582753,0.06481318677605662,0.11193692507970068,0.03928159501729439,0.02343289814351609,0.1933540879093802,0.02965434231030823,0.03828911783321355,0.3004897114062342
288,-0.1182988176046793,0.08555028807069999,0.2314966650582753,0.06481318677605662,0.11193692507970068,0.03928159501729439,0.02343289814351609,0.1933540879093802,0.02965434231030823,0.03828911783321355,0.3004897114062342
289,-0.1182988176046793,0.08555028807069999,0.2314966650582753,0.06481318677605662,0.11193692507970068,0.03928159501729439,0.02343289814351609,0.1933540879093802,0.02965434231030823,0.03828911783321355,0.3004897114062342
290,-0.1182988176046793,0.08555028807069999,0.2314966650582753,0.06481318677605662,0.11193692507970068,0.03928159501729439,0.02343289814351609,0.1933540879093802,0.02965434231030823,0.03828911783321355,0.3004897114062342
291,-0.1182988176046793,0.08555028807069999,0.2314966650582753,0.06481318677605662,0.11193692507970068,0.03928159501729439,0.02343289814351609,0.1933540879093802,0.02965434231030823,0.03828911783321355,0.3004897114062342
292,-0.1182988176046793,0.08555028807069999,0.2314966650582753,0.06481318677605662,0.11193692507970068,0.03928159501729439,0.02343289814351609,0.1933540879093802,0.02965434231030823,0.03828911783321355,0.3004897114062342
293,-0.1182988176046793,0.08555028807069999,0.2314966650582753,0.06481318677605662,0.11193692507970068,0.03928159501729439,0.02343289814351609,0.1933540879093802,0.02965434231030823,0.03828911783321355,0.3004897114062342
294,-0.1182988176046793,0.08555028807069999,0.2314966650582753,0.06481318677605662,0.11193692507970068,0.03928159501729439,0.02343289814351609,0.1933540879093802,0.02965434231030823,0.03828911783321355,0.3004897114062342
295,-0.1182988176046793,0.08555028807069999,0.2314966650582753,0.06481318677605662,0.11193692507970068,0.03928159501729439,0.02343289814351609,0.1933540879093802,0.02965434231030823,0.03828911783321355,0.3004897114062342
296,-0.1182988176046793,0.08555028807069999,0.2314966650582753,0.06481318677605662,0.11193692507970068,0.03928159501729439,0.02343289814351609,0.1933540879093802,0.02965434231030823,0.03828911783321355,0.3004897114062342
297,-0.1182988176046793,0.08555028807069999,0.2314966650582753,0.06481318677605662,0.11193692507970068,0.03928159501729439,0.02343289814351609,0.1933540879093802,0.02965434231030823,0.03828911783321355,0.3004897114062342
298,-0.1182988176046793,0.08555028807069999,0.2314966650582753,0.06481318677605662,0.11193692507970068,0.03928159501729439,0.02343289814351609,0.1933540879093802,0.02965434231030823,0.03828911783321355,0.3004897114062342
299,-0.1182988176046793,0.08555028807069999,0.2314966650582753,0.06481318677605662,0.11193692507970068,0.03928159501729439,0.02343289814351609,0.1933540879093802,0.02965434231030823,0.03828911783321355,0.3004897114062342
300,-0.1182988176046793,0.08555028807069999,0.2314966650582753,0.06481318677605662,0.11193692507970068,0.03928159501729439,0.02343289814351609,0.1933540879093802,0.02965434231030823,0.03828911783321355,0.3004897114062342
301,-0.1182988176046793,0.08555028807069999,0.2314966650582753,0.06481318677605662,0.11193692507970068,0.03928159501729439,0.02343289814351609,0.1933540879093802,0.02965434231030823,0.03828911783321355,0.3004897114062342
302,-0.1182988176046793,0.08555028807069999,0.2314966650582753,0.06481318677605662,0.11193692507970068,0.03928159501729439,0.02343289814351609,0.1933540879093802,0.02965434231030823,0.03828911783321355,0.3004897114062342
303,-0.1182988176046793,0.08555028807069999,0.2314966650582753,0.06481318677605662,0.11193692507970068,0.03928159501729439,0.02343289814351609,0.1933540879093802,0.02965434231030823,0.03828911783321355,0.3004897114062342
304,-0.012108386218936744,0.5379788373976929,0.04928637224766884,0.05592758752974054,-0.018751506473730993,0.04006131938400767,0.29548931083186275,-0.09636921458977755,0.1266512492002489,0.009266448803994761,0.012567981887228942
305,-0.012108386218936744,0.5379788373976929,0.04928637224766884,0.05592758752974054,-0.018751506473730993,0.04006131938400767,0.29548931083186275,-0.09636921458977755,0.1266512492002489,0.009266448803994761,0.012567981887228942
306,-0.012108386218936744,0.5379788373976929,0.04928637224766884,0.05592758752974054,-0.018751506473730993,0.04006131938400767,0.29548931083186275,-0.09636921458977755,0.1266512492002489,0.009266448803994761,0.012567981887228942
307,-0.012108386218936744,0.5379788373976929,0.04928637224766884,0.05592758752974054,-0.018751506473730993,0.04006131938400767,0.29548931083186275,-0.09636921458977755,0.1266512492002489,0.009266448803994761,0.012567981887228942
308,-0.012108386218936744,0.5379788373976929,0.04928637224766884,0.05592758752974054,-0.018751506473730993,0.04006131938400767,0.29548931083186275,-0.09636921458977755,0.1266512492002489,0.009266448803994761,0.012567981887228942
309,-0.012108386218936744,0.5379788373976929,0.04928637224766884,0.05592758752974054,-0.018751506473730993,0.04006131938400767,0.29548931083186275,-0.09636921458977755,0.1266512492002489,0.009266448803994761,0.012567981887228942
310,-0.012108386218936744,0.5379788373976929,0.04928637224766884,0.05592758752974054,-0.018751506473730993,0.04006131938400767,0.29548931083186275,-0.09636921458977755,0.1266512492002489,0.009266448803994761,0.012567981887228942
311,-0.012108386218936744,0.5379788373976929,0.04928637224766884,0.05592758752974054,-0.018751506473730993,0.04006131938400767,0.29548931083186275,-0.09636921458977755,0.1266512492002489,0.009266448803994761,0.012567981887228942
312,-0.012108386218936744,0.5379788373976929,0.04928637224766884,0.05592758752974054,-0.018751506473730993,0.04006131938400767,0.29548931083186275,-0.09636921458977755,0.1266512492002489,0.009266448803994761,0.012567981887228942
313,-0.012108386218936744,0.5379788373976929,0.04928637224766884,0.05592758752974054,-0.018751506473730993,0.04006131938400767,0.29548931083186275,-0.09636921458977755,0.1266512492002489,0.009266448803994761,0.012567981887228942
314,-0.012108386218936744,0.5379788373976929,0.04928637224766884,0.05592758752974054,-0.018751506473730993,0.04006131938400767,0.29548931083186275,-0.09636921458977755,0.1266512492002489,0.009266448803994761,0.012567981887228942
315,-0.012108386218936744,0.5379788373976929,0.04928637224766884,0.05592758752974054,-0.018751506473730993,0.04006131938400767,0.29548931083186275,-0.09636921458977755,0.1266512492002489,0.009266448803994761,0.012567981887228942
316,-0.012108386218936744,0.5379788373976929,0.04928637224766884,0.05592758752974054,-0.018751506473730993,0.04006131938400767,0.29548931083186275,-0.09636921458977755,0.1266512492002489,0.009266448803994761,0.012567981887228942
317,-0.012108386218936744,0.5379788373976929,0.04928637224766884,0.05592758752974054,-0.018751506473730993,0.04006131938400767,0.29548931083186275,-0.09636921458977755,0.1266512492002489,0.009266448803994761,0.012567981887228942
318,-0.012108386218936744,0.5379788373976929,0.04928637224766884,0.05592758752974054,-0.018751506473730993,0.04006131938400767,0.29548931083186275,-0.09636921458977755,0.1266512492002489,0.009266448803994761,0.012567981887228942
319,-0.012108386218936744,0.5379788373976929,0.04928637224766884,0.05592758752974054,-0.018751506473730993,0.04006131938400767,0.29548931083186275,-0.09636921458977755,0.1266512492002489,0.009266448803994761,0.012567981887228942
320,-0.012108386218936744,0.5379788373976929,0.04928637224766884,0.05592758752974054,-0.018751506473730993,0.04006131938400767,0.29548931083186275,-0.09636921458977755,0.1266512492002489,0.009266448803994761,0.012567981887228942
321,-0.012108386218936744,0.5379788373976929,0.04928637224766884,0.05592758752974054,-0.018751506473730993,0.04006131938400767,0.29548931083186275,-0.09636921458977755,0.1266512492002489,0.009266448803994761,0.012567981887228942
322,-0.012108386218936744,0.5379788373976929,0.04928637224766884,0.05592758752974054,-0.018751506473730993,0.04006131938400767,0.29548931083186275,-0.09636921458977755,0.1266512492002489,0.009266448803994761,0.012567981887228942
323,-0.012108386218936744,0.5379788373976929,0.04928637224766884,0.05592758752974054,-0.018751506473730993,0.04006131938400767,0.29548931083186275,-0.09636921458977755,0.1266512492002489,0.009266448803994761,0.012567981887228942
324,-0.012108386218936744,0.5379788373976929,0.04928637224766884,0.05592758752974054,-0.018751506473730993,0.04006131938400767,0.29548931083186275,-0.09636921458977755,0.1266512492002489,0.009266448803994761,0.012567981887228942
325,-0.012108386218936744,0.5379788373976929,0.04928637224766884,0.05592758752974054,-0.018751506473730993,0.04006131938400767,0.29548931083186275,-0.09636921458977755,0.1266512492002489,0.009266448803994761,0.012567981887228942
326,-0.012108386218936744,0.5379788373976929,0.04928637224766884,0.05592758752974054,-0.018751506473730993,0.04006131938400767,0.29548931083186275,-0.09636921458977755,0.1266512492002489,0.009266448803994761,0.012567981887228942
327,-0.012108386218936744,0.5379788373976929,0.04928637224766884,0.05592758752974054,-0.018751506473730993,0.04006131938400767,0.29548931083186275,-0.09636921458977755,0.1266512492002489,0.009266448803994761,0.012567981887228942
328,-0.012108386218936744,0.5379788373976929,0.04928637224766884,0.05592758752974054,-0.018751506473730993,0.04006131938400767,0.29548931083186275,-0.09636921458977755,0.1266512492002489,0.009266448803994761,0.012567981887228942
329,-0.012108386218936744,0.5379788373976929,0.04928637224766884,0.05592758752974054,-0.018751506473730993,0.04006131938400767,0.29548931083186275,-0.09636921458977755,0.1266512492002489,0.009266448803994761,0.012567981887228942
330,-0.012108386218936744,0.5379788373976929,0.04928637224766884,0.05592758752974054,-0.018751506473730993,0.04006131938400767,0.29548931083186275,-0.09636921458977755,0.1266512492002489,0.009266448803994761,0.012567981887228942
331,-0.012108386218936744,0.5379788373976929,0.04928637224766884,0.05592758752974054,-0.018751506473730993,0.04006131938400767,0.29548931083186275,-0.09636921458977755,0.1266512492002489,0.009266448803994761,0.012567981887228942
332,-0.012108386218936744,0.5379788373976929,0.04928637224766884,0.05592758752974054,-0.018751506473730993,0.04006131938400767,0.29548931083186275,-0.09636921458977755,0.1266512492002489,0.009266448803994761,0.012567981887228942
333,-0.012108386218936744,0.5379788373976929,0.04928637224766884,0.05592758752974054,-0.018751506473730993,0.04006131938400767,0.29548931083186275,-0.09636921458977755,0.1266512492002489,0.009266448803994761,0.012567981887228942
334,-0.15885722735587568,0.10622782298693768,0.007084686610183725,1.1359488186704011e-07,-0.14114277264412428,0.26412360009769914,0.3215523094202972,0.16524025015592983,0.19678004615669187,0.23383200800254614,0.005159162974832373
335,-0.15885722735587568,0.10622782298693768,0.007084686610183725,1.1359488186704011e-07,-0.14114277264412428,0.26412360009769914,0.3215523094202972,0.16524025015592983,0.19678004615669187,0.23383200800254614,0.005159162974832373
336,-0.15885722735587568,0.10622782298693768,0.007084686610183725,1.1359488186704011e-07,-0.14114277264412428,0.26412360009769914,0.3215523094202972,0.16524025015592983,0.19678004615669187,0.23383200800254614,0.005159162974832373
337,-0.15885722735587568,0.10622782298693768,0.007084686610183725,1.1359488186704011e-07,-0.14114277264412428,0.26412360009769914,0.3215523094202972,0.16524025015592983,0.19678004615669187,0.23383200800254614,0.005159162974832373
338,-0.15885722735587568,0.10622782298693768,0.007084686610183725,1.1359488186704011e-07,-0.14114277264412428,0.26412360009769914,0.3215523094202972,0.16524025015592983,0.19678004615669187,0.23383200800254614,0.005159162974832373
339,-0.15885722735587568,0.10622782298693768,0.007084686610183725,1.1359488186704011e-07,-0.14114277264412428,0.26412360009769914,0.3215523094202972,0.16524025015592983,0.19678004615669187,0.23383200800254614,0.005159162974832373
340,-0.15885722735587568,0.10622782298693768,0.007084686610183725,1.1359488186704011e-07,-0.14114277264412428,0.26412360009769914,0.3215523094202972,0.16524025015592983,0.19678004615669187,0.23383200800254614,0.005159162974832373
341,-0.15885722735587568,0.10622782298693768,0.007084686610183725,1.1359488186704011e-07,-0.14114277264412428,0.26412360009769914,0.3215523094202972,0.16524025015592983,0.19678004615669187,0.23383200800254614,0.005159162974832373
342,-0.15885722735587568,0.10622782298693768,0.007084686610183725,1.1359488186704011e-07,-0.14114277264412428,0.26412360009769914,0.3215523094202972,0.16524025015592983,0.19678004615669187,0.23383200800254614,0.005159162974832373
343,-0.15885722735587568,0.10622782298693768,0.007084686610183725,1.1359488186704011e-07,-0.14114277264412428,0.26412360009769914,0.3215523094202972,0.16524025015592983,0.19678004615669187,0.23383200800254614,0.005159162974832373
344,-0.15885722735587568,0.10622782298693768,0.007084686610183725,1.1359488186704011e-07,-0.14114277264412428,0.26412360009769914,0.3215523094202972,0.16524025015592983,0.19678004615669187,0.23383200800254614,0.005159162974832373
345,-0.15885722735587568,0.10622782298693768,0.007084686610183725,1.1359488186704011e-07,-0.14114277264412428,0.26412360009769914,0.3215523094202972,0.16524025015592983,0.19678004615669187,0.23383200800254614,0.005159162974832373
346,-0.15885722735587568,0.10622782298693768,0.007084686610183725,1.1359488186704011e-07,-0.14114277264412428,0.26412360009769914,0.3215523094202972,0.16524025015592983,0.19678004615669187,0.23383200800254614,0.005159162974832373
347,-0.15885722735587568,0.10622782298693768,0.007084686610183725,1.1359488186704011e-07,-0.14114277264412428,0.26412360009769914,0.3215523094202972,0.16524025015592983,0.19678004615669187,0.23383200800254614,0.005159162974832373
348,-0.15885722735587568,0.10622782298693768,0.007084686610183725,1.1359488186704011e-07,-0.14114277264412428,0.26412360009769914,0.3215523094202972,0.16524025015592983,0.19678004615669187,0.23383200800254614,0.005159162974832373
349,-0.15885722735587568,0.10622782298693768,0.007084686610183725,1.1359488186704011e-07,-0.14114277264412428,0.26412360009769914,0.3215523094202972,0.16524025015592983,0.19678004615669187,0.23383200800254614,0.005159162974832373
350,-0.15885722735587568,0.10622782298693768,0.007084686610183725,1.1359488186704011e-07,-0.14114277264412428,0.26412360009769914,0.3215523094202972,0.16524025015592983,0.19678004615669187,0.23383200800254614,0.005159162974832373
351,-0.15885722735587568,0.10622782298693768,0.007084686610183725,1.1359488186704011e-07,-0.14114277264412428,0.26412360009769914,0.3215523094202972,0.16524025015592983,0.19678004615669187,0.23383200800254614,0.005159162974832373
352,-0.15885722735587568,0.10622782298693768,0.007084686610183725,1.1359488186704011e-07,-0.14114277264412428,0.26412360009769914,0.3215523094202972,0.16524025015592983,0.19678004615669187,0.23383200800254614,0.005159162974832373
353,-0.15885722735587568,0.10622782298693768,0.007084686610183725,1.1359488186704011e-07,-0.14114277264412428,0.26412360009769914,0.3215523094202972,0.16524025015592983,0.19678004615669187,0.23383200800254614,0.005159162974832373
354,-0.15885722735587568,0.10622782298693768,0.007084686610183725,1.1359488186704011e-07,-0.14114277264412428,0.26412360009769914,0.3215523094202972,0.16524025015592983,0.19678004615669187,0.23383200800254614,0.005159162974832373
355,-0.15885722735587568,0.10622782298693768,0.007084686610183725,1.1359488186704011e-07,-0.14114277264412428,0.26412360009769914,0.3215523094202972,0.16524025015592983,0.19678004615669187,0.23383200800254614,0.005159162974832373
356,-0.15885722735587568,0.10622782298693768,0.007084686610183725,1.1359488186704011e-07,-0.14114277264412428,0.26412360009769914,0.3215523094202972,0.16524025015592983,0.19678004615669187,0.23383200800254614,0.005159162974832373
357,-0.15885722735587568,0.10622782298693768,0.007084686610183725,1.1359488186704011e-07,-0.14114277264412428,0.26412360009769914,0.3215523094202972,0.16524025015592983,0.19678004615669187,0.23383200800254614,0.005159162974832373
358,-0.15885722735587568,0.10622782298693768,0.007084686610183725,1.1359488186704011e-07,-0.14114277264412428,0.26412360009769914,0.3215523094202972,0.16524025015592983,0.19678004615669187,0.23383200800254614,0.005159162974832373
359,-0.15885722735587568,0.10622782298693768,0.007084686610183725,1.1359488186704011e-07,-0.14114277264412428,0.26412360009769914,0.3215523094202972,0.16524025015592983,0.19678004615669187,0.23383200800254614,0.005159162974832373
360,-0.15885722735587568,0.10622782298693768,0.007084686610183725,1.1359488186704011e-07,-0.14114277264412428,0.26412360009769914,0.3215523094202972,0.16524025015592983,0.19678004615669187,0.23383200800254614,0.005159162974832373
361,-0.15885722735587568,0.10622782298693768,0.007084686610183725,1.1359488186704011e-07,-0.14114277264412428,0.26412360009769914,0.3215523094202972,0.16524025015592983,0.19678004615669187,0.23383200800254614,0.005159162974832373
362,-0.15885722735587568,0.10622782298693768,0.007084686610183725,1.1359488186704011e-07,-0.14114277264412428,0.26412360009769914,0.3215523094202972,0.16524025015592983,0.19678004615669187,0.23383200800254614,0.005159162974832373
363,-0.15885722735587568,0.10622782298693768,0.007084686610183725,1.1359488186704011e-07,-0.14114277264412428,0.26412360009769914,0.3215523094202972,0.16524025015592983,0.19678004615669187,0.23383200800254614,0.005159162974832373
364,-0.15885722735587568,0.10622782298693768,0.007084686610183725,1.1359488186704011e-07,-0.14114277264412428,0.26412360009769914,0.3215523094202972,0.16524025015592983,0.19678004615669187,0.23383200800254614,0.005159162974832373
365,0.03342084060145256,0.13568495719031842,0.616209671809326,0.0271083046488773,0.06110757410712142,0.13533930195346053,0.053690048725356924,0.12054446772218796,0.03913987840633862,0.07775495483556051,-0.29999999999999993
366,0.03342084060145256,0.13568495719031842,0.616209671809326,0.0271083046488773,0.06110757410712142,0.13533930195346053,0.053690048725356924,0.12054446772218796,0.03913987840633862,0.07775495483556051,-0.29999999999999993
367,0.03342084060145256,0.13568495719031842,0.616209671809326,0.0271083046488773,0.06110757410712142,0.13533930195346053,0.053690048725356924,0.12054446772218796,0.03913987840633862,0.07775495483556051,-0.29999999999999993
368,0.03342084060145256,0.13568495719031842,0.616209671809326,0.0271083046488773,0.06110757410712142,0.13533930195346053,0.053690048725356924,0.12054446772218796,0.03913987840633862,0.07775495483556051,-0.29999999999999993
369,0.03342084060145256,0.13568495719031842,0.616209671809326,0.0271083046488773,0.06110757410712142,0.13533930195346053,0.053690048725356924,0.12054446772218796,0.03913987840633862,0.07775495483556051,-0.29999999999999993
370,0.03342084060145256,0.13568495719031842,0.616209671809326,0.0271083046488773,0.06110757410712142,0.13533930195346053,0.053690048725356924,0.12054446772218796,0.03913987840633862,0.07775495483556051,-0.29999999999999993
371,0.03342084060145256,0.13568495719031842,0.616209671809326,0.0271083046488773,0.06110757410712142,0.13533930195346053,0.053690048725356924,0.12054446772218796,0.03913987840633862,0.07775495483556051,-0.29999999999999993
372,0.03342084060145256,0.13568495719031842,0.616209671809326,0.0271083046488773,0.06110757410712142,0.13533930195346053,0.053690048725356924,0.12054446772218796,0.03913987840633862,0.07775495483556051,-0.29999999999999993
373,0.03342084060145256,0.13568495719031842,0.616209671809326,0.0271083046488773,0.06110757410712142,0.13533930195346053,0.053690048725356924,0.12054446772218796,0.03913987840633862,0.07775495483556051,-0.29999999999999993
374,0.03342084060145256,0.13568495719031842,0.616209671809326,0.0271083046488773,0.06110757410712142,0.13533930195346053,0.053690048725356924,0.12054446772218796,0.03913987840633862,0.07775495483556051,-0.29999999999999993
375,0.03342084060145256,0.13568495719031842,0.616209671809326,0.0271083046488773,0.06110757410712142,0.13533930195346053,0.053690048725356924,0.12054446772218796,0.03913987840633862,0.07775495483556051,-0.29999999999999993
376,0.03342084060145256,0.13568495719031842,0.616209671809326,0.0271083046488773,0.06110757410712142,0.13533930195346053,0.053690048725356924,0.12054446772218796,0.03913987840633862,0.07775495483556051,-0.29999999999999993
377,0.03342084060145256,0.13568495719031842,0.616209671809326,0.0271083046488773,0.06110757410712142,0.13533930195346053,0.053690048725356924,0.12054446772218796,0.03913987840633862,0.07775495483556051,-0.29999999999999993
378,0.03342084060145256,0.13568495719031842,0.616209671809326,0.0271083046488773,0.06110757410712142,0.13533930195346053,0.053690048725356924,0.12054446772218796,0.03913987840633862,0.07775495483556051,-0.29999999999999993
379,0.03342084060145256,0.13568495719031842,0.616209671809326,0.0271083046488773,0.06110757410712142,0.13533930195346053,0.053690048725356924,0.12054446772218796,0.03913987840633862,0.07775495483556051,-0.29999999999999993
380,0.03342084060145256,0.13568495719031842,0.616209671809326,0.0271083046488773,0.06110757410712142,0.13533930195346053,0.053690048725356924,0.12054446772218796,0.03913987840633862,0.07775495483556051,-0.29999999999999993
381,0.03342084060145256,0.13568495719031842,0.616209671809326,0.0271083046488773,0.06110757410712142,0.13533930195346053,0.053690048725356924,0.12054446772218796,0.03913987840633862,0.07775495483556051,-0.29999999999999993
382,0.03342084060145256,0.13568495719031842,0.616209671809326,0.0271083046488773,0.06110757410712142,0.13533930195346053,0.053690048725356924,0.12054446772218796,0.03913987840633862,0.07775495483556051,-0.29999999999999993
383,0.03342084060145256,0.13568495719031842,0.616209671809326,0.0271083046488773,0.06110757410712142,0.13533930195346053,0.053690048725356924,0.12054446772218796,0.03913987840633862,0.07775495483556051,-0.29999999999999993
384,0.03342084060145256,0.13568495719031842,0.616209671809326,0.0271083046488773,0.06110757410712142,0.13533930195346053,0.053690048725356924,0.12054446772218796,0.03913987840633862,0.07775495483556051,-0.29999999999999993
385,0.03342084060145256,0.13568495719031842,0.616209671809326,0.0271083046488773,0.06110757410712142,0.13533930195346053,0.053690048725356924,0.12054446772218796,0.03913987840633862,0.07775495483556051,-0.29999999999999993
386,0.03342084060145256,0.13568495719031842,0.616209671809326,0.0271083046488773,0.06110757410712142,0.13533930195346053,0.053690048725356924,0.12054446772218796,0.03913987840633862,0.07775495483556051,-0.29999999999999993
387,0.03342084060145256,0.13568495719031842,0.616209671809326,0.0271083046488773,0.06110757410712142,0.13533930195346053,0.053690048725356924,0.12054446772218796,0.03913987840633862,0.07775495483556051,-0.29999999999999993
388,0.03342084060145256,0.13568495719031842,0.616209671809326,0.0271083046488773,0.06110757410712142,0.13533930195346053,0.053690048725356924,0.12054446772218796,0.03913987840633862,0.07775495483556051,-0.29999999999999993
389,0.03342084060145256,0.13568495719031842,0.616209671809326,0.0271083046488773,0.06110757410712142,0.13533930195346053,0.053690048725356924,0.12054446772218796,0.03913987840633862,0.07775495483556051,-0.29999999999999993
390,0.03342084060145256,0.13568495719031842,0.616209671809326,0.0271083046488773,0.06110757410712142,0.13533930195346053,0.053690048725356924,0.12054446772218796,0.03913987840633862,0.07775495483556051,-0.29999999999999993
391,0.03342084060145256,0.13568495719031842,0.616209671809326,0.0271083046488773,0.06110757410712142,0.13533930195346053,0.053690048725356924,0.12054446772218796,0.03913987840633862,0.07775495483556051,-0.29999999999999993
392,0.03342084060145256,0.13568495719031842,0.616209671809326,0.0271083046488773,0.06110757410712142,0.13533930195346053,0.053690048725356924,0.12054446772218796,0.03913987840633862,0.07775495483556051,-0.29999999999999993
393,0.03342084060145256,0.13568495719031842,0.616209671809326,0.0271083046488773,0.06110757410712142,0.13533930195346053,0.053690048725356924,0.12054446772218796,0.03913987840633862,0.07775495483556051,-0.29999999999999993
394,0.03342084060145256,0.13568495719031842,0.616209671809326,0.0271083046488773,0.06110757410712142,0.13533930195346053,0.053690048725356924,0.12054446772218796,0.03913987840633862,0.07775495483556051,-0.29999999999999993
395,0.03342084060145256,0.13568495719031842,0.616209671809326,0.0271083046488773,0.06110757410712142,0.13533930195346053,0.053690048725356924,0.12054446772218796,0.03913987840633862,0.07775495483556051,-0.29999999999999993
396,0.06709165913952105,0.08196134534584784,0.06684961963121346,-0.3,0.19810456734484533,0.09267214107316364,0.18807031792766504,0.0703223214366692,0.22477545705272697,0.11738134133624274,0.19277122971210486
397,0.06709165913952105,0.08196134534584784,0.06684961963121346,-0.3,0.19810456734484533,0.09267214107316364,0.18807031792766504,0.0703223214366692,0.22477545705272697,0.11738134133624274,0.19277122971210486
398,0.06709165913952105,0.08196134534584784,0.06684961963121346,-0.3,0.19810456734484533,0.09267214107316364,0.18807031792766504,0.0703223214366692,0.22477545705272697,0.11738134133624274,0.19277122971210486
399,0.06709165913952105,0.08196134534584784,0.06684961963121346,-0.3,0.19810456734484533,0.09267214107316364,0.18807031792766504,0.0703223214366692,0.22477545705272697,0.11738134133624274,0.19277122971210486
400,0.06709165913952105,0.08196134534584784,0.06684961963121346,-0.3,0.19810456734484533,0.09267214107316364,0.18807031792766504,0.0703223214366692,0.22477545705272697,0.11738134133624274,0.19277122971210486
401,0.06709165913952105,0.08196134534584784,0.06684961963121346,-0.3,0.19810456734484533,0.09267214107316364,0.18807031792766504,0.0703223214366692,0.22477545705272697,0.11738134133624274,0.19277122971210486
402,0.06709165913952105,0.08196134534584784,0.06684961963121346,-0.3,0.19810456734484533,0.09267214107316364,0.18807031792766504,0.0703223214366692,0.22477545705272697,0.11738134133624274,0.19277122971210486
403,0.06709165913952105,0.08196134534584784,0.06684961963121346,-0.3,0.19810456734484533,0.09267214107316364,0.18807031792766504,0.0703223214366692,0.22477545705272697,0.11738134133624274,0.19277122971210486
404,0.06709165913952105,0.08196134534584784,0.06684961963121346,-0.3,0.19810456734484533,0.09267214107316364,0.18807031792766504,0.0703223214366692,0.22477545705272697,0.11738134133624274,0.19277122971210486
405,0.06709165913952105,0.08196134534584784,0.06684961963121346,-0.3,0.19810456734484533,0.09267214107316364,0.18807031792766504,0.0703223214366692,0.22477545705272697,0.11738134133624274,0.19277122971210486
406,0.06709165913952105,0.08196134534584784,0.06684961963121346,-0.3,0.19810456734484533,0.09267214107316364,0.18807031792766504,0.0703223214366692,0.22477545705272697,0.11738134133624274,0.19277122971210486
407,0.06709165913952105,0.08196134534584784,0.06684961963121346,-0.3,0.19810456734484533,0.09267214107316364,0.18807031792766504,0.0703223214366692,0.22477545705272697,0.11738134133624274,0.19277122971210486
408,0.06709165913952105,0.08196134534584784,0.06684961963121346,-0.3,0.19810456734484533,0.09267214107316364,0.18807031792766504,0.0703223214366692,0.22477545705272697,0.11738134133624274,0.19277122971210486
409,0.06709165913952105,0.08196134534584784,0.06684961963121346,-0.3,0.19810456734484533,0.09267214107316364,0.18807031792766504,0.0703223214366692,0.22477545705272697,0.11738134133624274,0.19277122971210486
410,0.06709165913952105,0.08196134534584784,0.06684961963121346,-0.3,0.19810456734484533,0.09267214107316364,0.18807031792766504,0.0703223214366692,0.22477545705272697,0.11738134133624274,0.19277122971210486
411,0.06709165913952105,0.08196134534584784,0.06684961963121346,-0.3,0.19810456734484533,0.09267214107316364,0.18807031792766504,0.0703223214366692,0.22477545705272697,0.11738134133624274,0.19277122971210486
412,0.06709165913952105,0.08196134534584784,0.06684961963121346,-0.3,0.19810456734484533,0.09267214107316364,0.18807031792766504,0.0703223214366692,0.22477545705272697,0.11738134133624274,0.19277122971210486
413,0.06709165913952105,0.08196134534584784,0.06684961963121346,-0.3,0.19810456734484533,0.09267214107316364,0.18807031792766504,0.0703223214366692,0.22477545705272697,0.11738134133624274,0.19277122971210486
414,0.06709165913952105,0.08196134534584784,0.06684961963121346,-0.3,0.19810456734484533,0.09267214107316364,0.18807031792766504,0.0703223214366692,0.22477545705272697,0.11738134133624274,0.19277122971210486
415,0.06709165913952105,0.08196134534584784,0.06684961963121346,-0.3,0.19810456734484533,0.09267214107316364,0.18807031792766504,0.0703223214366692,0.22477545705272697,0.11738134133624274,0.19277122971210486
416,0.06709165913952105,0.08196134534584784,0.06684961963121346,-0.3,0.19810456734484533,0.09267214107316364,0.18807031792766504,0.0703223214366692,0.22477545705272697,0.11738134133624274,0.19277122971210486
417,0.06709165913952105,0.08196134534584784,0.06684961963121346,-0.3,0.19810456734484533,0.09267214107316364,0.18807031792766504,0.0703223214366692,0.22477545705272697,0.11738134133624274,0.19277122971210486
418,0.06709165913952105,0.08196134534584784,0.06684961963121346,-0.3,0.19810456734484533,0.09267214107316364,0.18807031792766504,0.0703223214366692,0.22477545705272697,0.11738134133624274,0.19277122971210486
419,0.06709165913952105,0.08196134534584784,0.06684961963121346,-0.3,0.19810456734484533,0.09267214107316364,0.18807031792766504,0.0703223214366692,0.22477545705272697,0.11738134133624274,0.19277122971210486
420,0.06709165913952105,0.08196134534584784,0.06684961963121346,-0.3,0.19810456734484533,0.09267214107316364,0.18807031792766504,0.0703223214366692,0.22477545705272697,0.11738134133624274,0.19277122971210486
421,0.06709165913952105,0.08196134534584784,0.06684961963121346,-0.3,0.19810456734484533,0.09267214107316364,0.18807031792766504,0.0703223214366692,0.22477545705272697,0.11738134133624274,0.19277122971210486
422,0.06709165913952105,0.08196134534584784,0.06684961963121346,-0.3,0.19810456734484533,0.09267214107316364,0.18807031792766504,0.0703223214366692,0.22477545705272697,0.11738134133624274,0.19277122971210486
423,0.06709165913952105,0.08196134534584784,0.06684961963121346,-0.3,0.19810456734484533,0.09267214107316364,0.18807031792766504,0.0703223214366692,0.22477545705272697,0.11738134133624274,0.19277122971210486
424,0.10089598616406865,-0.1809978600624124,-0.11900213993758753,0.07377642611523817,0.0625200817761166,0.07156801354082198,0.09963083588208473,0.10271041321910813,0.11883203782853118,0.4711411651830665,0.198925040290964
425,0.10089598616406865,-0.1809978600624124,-0.11900213993758753,0.07377642611523817,0.0625200817761166,0.07156801354082198,0.09963083588208473,0.10271041321910813,0.11883203782853118,0.4711411651830665,0.198925040290964
426,0.10089598616406865,-0.1809978600624124,-0.11900213993758753,0.07377642611523817,0.0625200817761166,0.07156801354082198,0.09963083588208473,0.10271041321910813,0.11883203782853118,0.4711411651830665,0.198925040290964
427,0.10089598616406865,-0.1809978600624124,-0.11900213993758753,0.07377642611523817,0.0625200817761166,0.07156801354082198,0.09963083588208473,0.10271041321910813,0.11883203782853118,0.4711411651830665,0.198925040290964
428,0.10089598616406865,-0.1809978600624124,-0.11900213993758753,0.07377642611523817,0.0625200817761166,0.07156801354082198,0.09963083588208473,0.10271041321910813,0.11883203782853118,0.4711411651830665,0.198925040290964
429,0.10089598616406865,-0.1809978600624124,-0.11900213993758753,0.07377642611523817,0.0625200817761166,0.07156801354082198,0.09963083588208473,0.10271041321910813,0.11883203782853118,0.4711411651830665,0.198925040290964
430,0.10089598616406865,-0.1809978600624124,-0.11900213993758753,0.07377642611523817,0.0625200817761166,0.07156801354082198,0.09963083588208473,0.10271041321910813,0.11883203782853118,0.4711411651830665,0.198925040290964
431,0.10089598616406865,-0.1809978600624124,-0.11900213993758753,0.07377642611523817,0.0625200817761166,0.07156801354082198,0.09963083588208473,0.10271041321910813,0.11883203782853118,0.4711411651830665,0.198925040290964
432,0.10089598616406865,-0.1809978600624124,-0.11900213993758753,0.07377642611523817,0.0625200817761166,0.07156801354082198,0.09963083588208473,0.10271041321910813,0.11883203782853118,0.4711411651830665,0.198925040290964
433,0.10089598616406865,-0.1809978600624124,-0.11900213993758753,0.07377642611523817,0.0625200817761166,0.07156801354082198,0.09963083588208473,0.10271041321910813,0.11883203782853118,0.4711411651830665,0.198925040290964
434,0.10089598616406865,-0.1809978600624124,-0.11900213993758753,0.07377642611523817,0.0625200817761166,0.07156801354082198,0.09963083588208473,0.10271041321910813,0.11883203782853118,0.4711411651830665,0.198925040290964
435,0.10089598616406865,-0.1809978600624124,-0.11900213993758753,0.07377642611523817,0.0625200817761166,0.07156801354082198,0.09963083588208473,0.10271041321910813,0.11883203782853118,0.4711411651830665,0.198925040290964
436,0.10089598616406865,-0.1809978600624124,-0.11900213993758753,0.07377642611523817,0.0625200817761166,0.07156801354082198,0.09963083588208473,0.10271041321910813,0.11883203782853118,0.4711411651830665,0.198925040290964
437,0.10089598616406865,-0.1809978600624124,-0.11900213993758753,0.07377642611523817,0.0625200817761166,0.07156801354082198,0.09963083588208473,0.10271041321910813,0.11883203782853118,0.4711411651830665,0.198925040290964
438,0.10089598616406865,-0.1809978600624124,-0.11900213993758753,0.07377642611523817,0.0625200817761166,0.07156801354082198,0.09963083588208473,0.10271041321910813,0.11883203782853118,0.4711411651830665,0.198925040290964
439,0.10089598616406865,-0.1809978600624124,-0.11900213993758753,0.07377642611523817,0.0625200817761166,0.07156801354082198,0.09963083588208473,0.10271041321910813,0.11883203782853118,0.4711411651830665,0.198925040290964
440,0.10089598616406865,-0.1809978600624124,-0.11900213993758753,0.07377642611523817,0.0625200817761166,0.07156801354082198,0.09963083588208473,0.10271041321910813,0.11883203782853118,0.4711411651830665,0.198925040290964
441,0.10089598616406865,-0.1809978600624124,-0.11900213993758753,0.07377642611523817,0.0625200817761166,0.07156801354082198,0.09963083588208473,0.10271041321910813,0.11883203782853118,0.4711411651830665,0.198925040290964
442,0.10089598616406865,-0.1809978600624124,-0.11900213993758753,0.07377642611523817,0.0625200817761166,0.07156801354082198,0.09963083588208473,0.10271041321910813,0.11883203782853118,0.4711411651830665,0.198925040290964
443,0.10089598616406865,-0.1809978600624124,-0.11900213993758753,0.07377642611523817,0.0625200817761166,0.07156801354082198,0.09963083588208473,0.10271041321910813,0.11883203782853118,0.4711411651830665,0.198925040290964
