,0,1,2,3,4,5,6,7,8,9,10
0,0.057483535745270015,0.07317987208837215,0.7365399589456075,0.13028775109233137,-0.038524779303972585,0.0910796383341348,-0.026799632082781653,0.01823414631034887,-0.23467558861324572,0.0356186881737662,0.15757640931016909
1,0.057483535745270015,0.07317987208837215,0.7365399589456075,0.13028775109233137,-0.038524779303972585,0.0910796383341348,-0.026799632082781653,0.01823414631034887,-0.23467558861324572,0.0356186881737662,0.15757640931016909
2,0.057483535745270015,0.07317987208837215,0.7365399589456075,0.13028775109233137,-0.038524779303972585,0.0910796383341348,-0.026799632082781653,0.01823414631034887,-0.23467558861324572,0.0356186881737662,0.15757640931016909
3,0.057483535745270015,0.07317987208837215,0.7365399589456075,0.13028775109233137,-0.038524779303972585,0.0910796383341348,-0.026799632082781653,0.01823414631034887,-0.23467558861324572,0.0356186881737662,0.15757640931016909
4,0.057483535745270015,0.07317987208837215,0.7365399589456075,0.13028775109233137,-0.038524779303972585,0.0910796383341348,-0.026799632082781653,0.01823414631034887,-0.23467558861324572,0.0356186881737662,0.15757640931016909
5,0.057483535745270015,0.07317987208837215,0.7365399589456075,0.13028775109233137,-0.038524779303972585,0.0910796383341348,-0.026799632082781653,0.01823414631034887,-0.23467558861324572,0.0356186881737662,0.15757640931016909
6,0.057483535745270015,0.07317987208837215,0.7365399589456075,0.13028775109233137,-0.038524779303972585,0.0910796383341348,-0.026799632082781653,0.01823414631034887,-0.23467558861324572,0.0356186881737662,0.15757640931016909
7,0.057483535745270015,0.07317987208837215,0.7365399589456075,0.13028775109233137,-0.038524779303972585,0.0910796383341348,-0.026799632082781653,0.01823414631034887,-0.23467558861324572,0.0356186881737662,0.15757640931016909
8,0.057483535745270015,0.07317987208837215,0.7365399589456075,0.13028775109233137,-0.038524779303972585,0.0910796383341348,-0.026799632082781653,0.01823414631034887,-0.23467558861324572,0.0356186881737662,0.15757640931016909
9,0.057483535745270015,0.07317987208837215,0.7365399589456075,0.13028775109233137,-0.038524779303972585,0.0910796383341348,-0.026799632082781653,0.01823414631034887,-0.23467558861324572,0.0356186881737662,0.15757640931016909
10,0.057483535745270015,0.07317987208837215,0.7365399589456075,0.13028775109233137,-0.038524779303972585,0.0910796383341348,-0.026799632082781653,0.01823414631034887,-0.23467558861324572,0.0356186881737662,0.15757640931016909
11,0.057483535745270015,0.07317987208837215,0.7365399589456075,0.13028775109233137,-0.038524779303972585,0.0910796383341348,-0.026799632082781653,0.01823414631034887,-0.23467558861324572,0.0356186881737662,0.15757640931016909
12,0.057483535745270015,0.07317987208837215,0.7365399589456075,0.13028775109233137,-0.038524779303972585,0.0910796383341348,-0.026799632082781653,0.01823414631034887,-0.23467558861324572,0.0356186881737662,0.15757640931016909
13,0.057483535745270015,0.07317987208837215,0.7365399589456075,0.13028775109233137,-0.038524779303972585,0.0910796383341348,-0.026799632082781653,0.01823414631034887,-0.23467558861324572,0.0356186881737662,0.15757640931016909
14,0.057483535745270015,0.07317987208837215,0.7365399589456075,0.13028775109233137,-0.038524779303972585,0.0910796383341348,-0.026799632082781653,0.01823414631034887,-0.23467558861324572,0.0356186881737662,0.15757640931016909
15,0.057483535745270015,0.07317987208837215,0.7365399589456075,0.13028775109233137,-0.038524779303972585,0.0910796383341348,-0.026799632082781653,0.01823414631034887,-0.23467558861324572,0.0356186881737662,0.15757640931016909
16,0.057483535745270015,0.07317987208837215,0.7365399589456075,0.13028775109233137,-0.038524779303972585,0.0910796383341348,-0.026799632082781653,0.01823414631034887,-0.23467558861324572,0.0356186881737662,0.15757640931016909
17,0.057483535745270015,0.07317987208837215,0.7365399589456075,0.13028775109233137,-0.038524779303972585,0.0910796383341348,-0.026799632082781653,0.01823414631034887,-0.23467558861324572,0.0356186881737662,0.15757640931016909
18,0.057483535745270015,0.07317987208837215,0.7365399589456075,0.13028775109233137,-0.038524779303972585,0.0910796383341348,-0.026799632082781653,0.01823414631034887,-0.23467558861324572,0.0356186881737662,0.15757640931016909
19,0.057483535745270015,0.07317987208837215,0.7365399589456075,0.13028775109233137,-0.038524779303972585,0.0910796383341348,-0.026799632082781653,0.01823414631034887,-0.23467558861324572,0.0356186881737662,0.15757640931016909
20,0.057483535745270015,0.07317987208837215,0.7365399589456075,0.13028775109233137,-0.038524779303972585,0.0910796383341348,-0.026799632082781653,0.01823414631034887,-0.23467558861324572,0.0356186881737662,0.15757640931016909
21,0.057483535745270015,0.07317987208837215,0.7365399589456075,0.13028775109233137,-0.038524779303972585,0.0910796383341348,-0.026799632082781653,0.01823414631034887,-0.23467558861324572,0.0356186881737662,0.15757640931016909
22,0.057483535745270015,0.07317987208837215,0.7365399589456075,0.13028775109233137,-0.038524779303972585,0.0910796383341348,-0.026799632082781653,0.01823414631034887,-0.23467558861324572,0.0356186881737662,0.15757640931016909
23,0.057483535745270015,0.07317987208837215,0.7365399589456075,0.13028775109233137,-0.038524779303972585,0.0910796383341348,-0.026799632082781653,0.01823414631034887,-0.23467558861324572,0.0356186881737662,0.15757640931016909
24,0.057483535745270015,0.07317987208837215,0.7365399589456075,0.13028775109233137,-0.038524779303972585,0.0910796383341348,-0.026799632082781653,0.01823414631034887,-0.23467558861324572,0.0356186881737662,0.15757640931016909
25,0.057483535745270015,0.07317987208837215,0.7365399589456075,0.13028775109233137,-0.038524779303972585,0.0910796383341348,-0.026799632082781653,0.01823414631034887,-0.23467558861324572,0.0356186881737662,0.15757640931016909
26,0.057483535745270015,0.07317987208837215,0.7365399589456075,0.13028775109233137,-0.038524779303972585,0.0910796383341348,-0.026799632082781653,0.01823414631034887,-0.23467558861324572,0.0356186881737662,0.15757640931016909
27,0.057483535745270015,0.07317987208837215,0.7365399589456075,0.13028775109233137,-0.038524779303972585,0.0910796383341348,-0.026799632082781653,0.01823414631034887,-0.23467558861324572,0.0356186881737662,0.15757640931016909
28,0.057483535745270015,0.07317987208837215,0.7365399589456075,0.13028775109233137,-0.038524779303972585,0.0910796383341348,-0.026799632082781653,0.01823414631034887,-0.23467558861324572,0.0356186881737662,0.15757640931016909
29,0.057483535745270015,0.07317987208837215,0.7365399589456075,0.13028775109233137,-0.038524779303972585,0.0910796383341348,-0.026799632082781653,0.01823414631034887,-0.23467558861324572,0.0356186881737662,0.15757640931016909
30,0.057483535745270015,0.07317987208837215,0.7365399589456075,0.13028775109233137,-0.038524779303972585,0.0910796383341348,-0.026799632082781653,0.01823414631034887,-0.23467558861324572,0.0356186881737662,0.15757640931016909
31,-0.0667628538418589,0.055536365584676596,0.04585812194352663,0.10165332960389295,-0.04623181147575306,0.5631076488934239,0.09822029009813496,0.11733392476858175,0.08130111228136991,0.03112233858092355,0.018861533563081748
32,-0.0667628538418589,0.055536365584676596,0.04585812194352663,0.10165332960389295,-0.04623181147575306,0.5631076488934239,0.09822029009813496,0.11733392476858175,0.08130111228136991,0.03112233858092355,0.018861533563081748
33,-0.0667628538418589,0.055536365584676596,0.04585812194352663,0.10165332960389295,-0.04623181147575306,0.5631076488934239,0.09822029009813496,0.11733392476858175,0.08130111228136991,0.03112233858092355,0.018861533563081748
34,-0.0667628538418589,0.055536365584676596,0.04585812194352663,0.10165332960389295,-0.04623181147575306,0.5631076488934239,0.09822029009813496,0.11733392476858175,0.08130111228136991,0.03112233858092355,0.018861533563081748
35,-0.0667628538418589,0.055536365584676596,0.04585812194352663,0.10165332960389295,-0.04623181147575306,0.5631076488934239,0.09822029009813496,0.11733392476858175,0.08130111228136991,0.03112233858092355,0.018861533563081748
36,-0.0667628538418589,0.055536365584676596,0.04585812194352663,0.10165332960389295,-0.04623181147575306,0.5631076488934239,0.09822029009813496,0.11733392476858175,0.08130111228136991,0.03112233858092355,0.018861533563081748
37,-0.0667628538418589,0.055536365584676596,0.04585812194352663,0.10165332960389295,-0.04623181147575306,0.5631076488934239,0.09822029009813496,0.11733392476858175,0.08130111228136991,0.03112233858092355,0.018861533563081748
38,-0.0667628538418589,0.055536365584676596,0.04585812194352663,0.10165332960389295,-0.04623181147575306,0.5631076488934239,0.09822029009813496,0.11733392476858175,0.08130111228136991,0.03112233858092355,0.018861533563081748
39,-0.0667628538418589,0.055536365584676596,0.04585812194352663,0.10165332960389295,-0.04623181147575306,0.5631076488934239,0.09822029009813496,0.11733392476858175,0.08130111228136991,0.03112233858092355,0.018861533563081748
40,-0.0667628538418589,0.055536365584676596,0.04585812194352663,0.10165332960389295,-0.04623181147575306,0.5631076488934239,0.09822029009813496,0.11733392476858175,0.08130111228136991,0.03112233858092355,0.018861533563081748
41,-0.0667628538418589,0.055536365584676596,0.04585812194352663,0.10165332960389295,-0.04623181147575306,0.5631076488934239,0.09822029009813496,0.11733392476858175,0.08130111228136991,0.03112233858092355,0.018861533563081748
42,-0.0667628538418589,0.055536365584676596,0.04585812194352663,0.10165332960389295,-0.04623181147575306,0.5631076488934239,0.09822029009813496,0.11733392476858175,0.08130111228136991,0.03112233858092355,0.018861533563081748
43,-0.0667628538418589,0.055536365584676596,0.04585812194352663,0.10165332960389295,-0.04623181147575306,0.5631076488934239,0.09822029009813496,0.11733392476858175,0.08130111228136991,0.03112233858092355,0.018861533563081748
44,-0.0667628538418589,0.055536365584676596,0.04585812194352663,0.10165332960389295,-0.04623181147575306,0.5631076488934239,0.09822029009813496,0.11733392476858175,0.08130111228136991,0.03112233858092355,0.018861533563081748
45,-0.0667628538418589,0.055536365584676596,0.04585812194352663,0.10165332960389295,-0.04623181147575306,0.5631076488934239,0.09822029009813496,0.11733392476858175,0.08130111228136991,0.03112233858092355,0.018861533563081748
46,-0.0667628538418589,0.055536365584676596,0.04585812194352663,0.10165332960389295,-0.04623181147575306,0.5631076488934239,0.09822029009813496,0.11733392476858175,0.08130111228136991,0.03112233858092355,0.018861533563081748
47,-0.0667628538418589,0.055536365584676596,0.04585812194352663,0.10165332960389295,-0.04623181147575306,0.5631076488934239,0.09822029009813496,0.11733392476858175,0.08130111228136991,0.03112233858092355,0.018861533563081748
48,-0.0667628538418589,0.055536365584676596,0.04585812194352663,0.10165332960389295,-0.04623181147575306,0.5631076488934239,0.09822029009813496,0.11733392476858175,0.08130111228136991,0.03112233858092355,0.018861533563081748
49,-0.0667628538418589,0.055536365584676596,0.04585812194352663,0.10165332960389295,-0.04623181147575306,0.5631076488934239,0.09822029009813496,0.11733392476858175,0.08130111228136991,0.03112233858092355,0.018861533563081748
50,-0.0667628538418589,0.055536365584676596,0.04585812194352663,0.10165332960389295,-0.04623181147575306,0.5631076488934239,0.09822029009813496,0.11733392476858175,0.08130111228136991,0.03112233858092355,0.018861533563081748
51,-0.0667628538418589,0.055536365584676596,0.04585812194352663,0.10165332960389295,-0.04623181147575306,0.5631076488934239,0.09822029009813496,0.11733392476858175,0.08130111228136991,0.03112233858092355,0.018861533563081748
52,-0.0667628538418589,0.055536365584676596,0.04585812194352663,0.10165332960389295,-0.04623181147575306,0.5631076488934239,0.09822029009813496,0.11733392476858175,0.08130111228136991,0.03112233858092355,0.018861533563081748
53,-0.0667628538418589,0.055536365584676596,0.04585812194352663,0.10165332960389295,-0.04623181147575306,0.5631076488934239,0.09822029009813496,0.11733392476858175,0.08130111228136991,0.03112233858092355,0.018861533563081748
54,-0.0667628538418589,0.055536365584676596,0.04585812194352663,0.10165332960389295,-0.04623181147575306,0.5631076488934239,0.09822029009813496,0.11733392476858175,0.08130111228136991,0.03112233858092355,0.018861533563081748
55,-0.0667628538418589,0.055536365584676596,0.04585812194352663,0.10165332960389295,-0.04623181147575306,0.5631076488934239,0.09822029009813496,0.11733392476858175,0.08130111228136991,0.03112233858092355,0.018861533563081748
56,-0.0667628538418589,0.055536365584676596,0.04585812194352663,0.10165332960389295,-0.04623181147575306,0.5631076488934239,0.09822029009813496,0.11733392476858175,0.08130111228136991,0.03112233858092355,0.018861533563081748
57,-0.0667628538418589,0.055536365584676596,0.04585812194352663,0.10165332960389295,-0.04623181147575306,0.5631076488934239,0.09822029009813496,0.11733392476858175,0.08130111228136991,0.03112233858092355,0.018861533563081748
58,-0.0667628538418589,0.055536365584676596,0.04585812194352663,0.10165332960389295,-0.04623181147575306,0.5631076488934239,0.09822029009813496,0.11733392476858175,0.08130111228136991,0.03112233858092355,0.018861533563081748
59,0.16923439774583945,-5.357118223417666e-09,-3.46525016613534e-06,0.08509246053802375,0.11465391166400231,0.10744151312513998,0.6364303738852989,0.18714734304169545,-0.10858543794911124,-0.11041949915914354,-0.08099159228446087
60,0.16923439774583945,-5.357118223417666e-09,-3.46525016613534e-06,0.08509246053802375,0.11465391166400231,0.10744151312513998,0.6364303738852989,0.18714734304169545,-0.10858543794911124,-0.11041949915914354,-0.08099159228446087
61,0.16923439774583945,-5.357118223417666e-09,-3.46525016613534e-06,0.08509246053802375,0.11465391166400231,0.10744151312513998,0.6364303738852989,0.18714734304169545,-0.10858543794911124,-0.11041949915914354,-0.08099159228446087
62,0.16923439774583945,-5.357118223417666e-09,-3.46525016613534e-06,0.08509246053802375,0.11465391166400231,0.10744151312513998,0.6364303738852989,0.18714734304169545,-0.10858543794911124,-0.11041949915914354,-0.08099159228446087
63,0.16923439774583945,-5.357118223417666e-09,-3.46525016613534e-06,0.08509246053802375,0.11465391166400231,0.10744151312513998,0.6364303738852989,0.18714734304169545,-0.10858543794911124,-0.11041949915914354,-0.08099159228446087
64,0.16923439774583945,-5.357118223417666e-09,-3.46525016613534e-06,0.08509246053802375,0.11465391166400231,0.10744151312513998,0.6364303738852989,0.18714734304169545,-0.10858543794911124,-0.11041949915914354,-0.08099159228446087
65,0.16923439774583945,-5.357118223417666e-09,-3.46525016613534e-06,0.08509246053802375,0.11465391166400231,0.10744151312513998,0.6364303738852989,0.18714734304169545,-0.10858543794911124,-0.11041949915914354,-0.08099159228446087
66,0.16923439774583945,-5.357118223417666e-09,-3.46525016613534e-06,0.08509246053802375,0.11465391166400231,0.10744151312513998,0.6364303738852989,0.18714734304169545,-0.10858543794911124,-0.11041949915914354,-0.08099159228446087
67,0.16923439774583945,-5.357118223417666e-09,-3.46525016613534e-06,0.08509246053802375,0.11465391166400231,0.10744151312513998,0.6364303738852989,0.18714734304169545,-0.10858543794911124,-0.11041949915914354,-0.08099159228446087
68,0.16923439774583945,-5.357118223417666e-09,-3.46525016613534e-06,0.08509246053802375,0.11465391166400231,0.10744151312513998,0.6364303738852989,0.18714734304169545,-0.10858543794911124,-0.11041949915914354,-0.08099159228446087
69,0.16923439774583945,-5.357118223417666e-09,-3.46525016613534e-06,0.08509246053802375,0.11465391166400231,0.10744151312513998,0.6364303738852989,0.18714734304169545,-0.10858543794911124,-0.11041949915914354,-0.08099159228446087
70,0.16923439774583945,-5.357118223417666e-09,-3.46525016613534e-06,0.08509246053802375,0.11465391166400231,0.10744151312513998,0.6364303738852989,0.18714734304169545,-0.10858543794911124,-0.11041949915914354,-0.08099159228446087
71,0.16923439774583945,-5.357118223417666e-09,-3.46525016613534e-06,0.08509246053802375,0.11465391166400231,0.10744151312513998,0.6364303738852989,0.18714734304169545,-0.10858543794911124,-0.11041949915914354,-0.08099159228446087
72,0.16923439774583945,-5.357118223417666e-09,-3.46525016613534e-06,0.08509246053802375,0.11465391166400231,0.10744151312513998,0.6364303738852989,0.18714734304169545,-0.10858543794911124,-0.11041949915914354,-0.08099159228446087
73,0.16923439774583945,-5.357118223417666e-09,-3.46525016613534e-06,0.08509246053802375,0.11465391166400231,0.10744151312513998,0.6364303738852989,0.18714734304169545,-0.10858543794911124,-0.11041949915914354,-0.08099159228446087
74,0.16923439774583945,-5.357118223417666e-09,-3.46525016613534e-06,0.08509246053802375,0.11465391166400231,0.10744151312513998,0.6364303738852989,0.18714734304169545,-0.10858543794911124,-0.11041949915914354,-0.08099159228446087
75,0.16923439774583945,-5.357118223417666e-09,-3.46525016613534e-06,0.08509246053802375,0.11465391166400231,0.10744151312513998,0.6364303738852989,0.18714734304169545,-0.10858543794911124,-0.11041949915914354,-0.08099159228446087
76,0.16923439774583945,-5.357118223417666e-09,-3.46525016613534e-06,0.08509246053802375,0.11465391166400231,0.10744151312513998,0.6364303738852989,0.18714734304169545,-0.10858543794911124,-0.11041949915914354,-0.08099159228446087
77,0.16923439774583945,-5.357118223417666e-09,-3.46525016613534e-06,0.08509246053802375,0.11465391166400231,0.10744151312513998,0.6364303738852989,0.18714734304169545,-0.10858543794911124,-0.11041949915914354,-0.08099159228446087
78,0.16923439774583945,-5.357118223417666e-09,-3.46525016613534e-06,0.08509246053802375,0.11465391166400231,0.10744151312513998,0.6364303738852989,0.18714734304169545,-0.10858543794911124,-0.11041949915914354,-0.08099159228446087
79,0.16923439774583945,-5.357118223417666e-09,-3.46525016613534e-06,0.08509246053802375,0.11465391166400231,0.10744151312513998,0.6364303738852989,0.18714734304169545,-0.10858543794911124,-0.11041949915914354,-0.08099159228446087
80,0.16923439774583945,-5.357118223417666e-09,-3.46525016613534e-06,0.08509246053802375,0.11465391166400231,0.10744151312513998,0.6364303738852989,0.18714734304169545,-0.10858543794911124,-0.11041949915914354,-0.08099159228446087
81,0.16923439774583945,-5.357118223417666e-09,-3.46525016613534e-06,0.08509246053802375,0.11465391166400231,0.10744151312513998,0.6364303738852989,0.18714734304169545,-0.10858543794911124,-0.11041949915914354,-0.08099159228446087
82,0.16923439774583945,-5.357118223417666e-09,-3.46525016613534e-06,0.08509246053802375,0.11465391166400231,0.10744151312513998,0.6364303738852989,0.18714734304169545,-0.10858543794911124,-0.11041949915914354,-0.08099159228446087
83,0.16923439774583945,-5.357118223417666e-09,-3.46525016613534e-06,0.08509246053802375,0.11465391166400231,0.10744151312513998,0.6364303738852989,0.18714734304169545,-0.10858543794911124,-0.11041949915914354,-0.08099159228446087
84,0.16923439774583945,-5.357118223417666e-09,-3.46525016613534e-06,0.08509246053802375,0.11465391166400231,0.10744151312513998,0.6364303738852989,0.18714734304169545,-0.10858543794911124,-0.11041949915914354,-0.08099159228446087
85,0.16923439774583945,-5.357118223417666e-09,-3.46525016613534e-06,0.08509246053802375,0.11465391166400231,0.10744151312513998,0.6364303738852989,0.18714734304169545,-0.10858543794911124,-0.11041949915914354,-0.08099159228446087
86,0.16923439774583945,-5.357118223417666e-09,-3.46525016613534e-06,0.08509246053802375,0.11465391166400231,0.10744151312513998,0.6364303738852989,0.18714734304169545,-0.10858543794911124,-0.11041949915914354,-0.08099159228446087
87,0.16923439774583945,-5.357118223417666e-09,-3.46525016613534e-06,0.08509246053802375,0.11465391166400231,0.10744151312513998,0.6364303738852989,0.18714734304169545,-0.10858543794911124,-0.11041949915914354,-0.08099159228446087
88,0.16923439774583945,-5.357118223417666e-09,-3.46525016613534e-06,0.08509246053802375,0.11465391166400231,0.10744151312513998,0.6364303738852989,0.18714734304169545,-0.10858543794911124,-0.11041949915914354,-0.08099159228446087
89,0.16923439774583945,-5.357118223417666e-09,-3.46525016613534e-06,0.08509246053802375,0.11465391166400231,0.10744151312513998,0.6364303738852989,0.18714734304169545,-0.10858543794911124,-0.11041949915914354,-0.08099159228446087
90,0.09050046815829722,0.06359111034778342,0.19253686013589824,0.024314044187251527,0.03298748410090296,0.4735044343579536,-0.11865028052664474,-0.07815305095929607,-0.10319666851405918,0.10789506191716895,0.31467053679474405
91,0.09050046815829722,0.06359111034778342,0.19253686013589824,0.024314044187251527,0.03298748410090296,0.4735044343579536,-0.11865028052664474,-0.07815305095929607,-0.10319666851405918,0.10789506191716895,0.31467053679474405
92,0.09050046815829722,0.06359111034778342,0.19253686013589824,0.024314044187251527,0.03298748410090296,0.4735044343579536,-0.11865028052664474,-0.07815305095929607,-0.10319666851405918,0.10789506191716895,0.31467053679474405
93,0.09050046815829722,0.06359111034778342,0.19253686013589824,0.024314044187251527,0.03298748410090296,0.4735044343579536,-0.11865028052664474,-0.07815305095929607,-0.10319666851405918,0.10789506191716895,0.31467053679474405
94,0.09050046815829722,0.06359111034778342,0.19253686013589824,0.024314044187251527,0.03298748410090296,0.4735044343579536,-0.11865028052664474,-0.07815305095929607,-0.10319666851405918,0.10789506191716895,0.31467053679474405
95,0.09050046815829722,0.06359111034778342,0.19253686013589824,0.024314044187251527,0.03298748410090296,0.4735044343579536,-0.11865028052664474,-0.07815305095929607,-0.10319666851405918,0.10789506191716895,0.31467053679474405
96,0.09050046815829722,0.06359111034778342,0.19253686013589824,0.024314044187251527,0.03298748410090296,0.4735044343579536,-0.11865028052664474,-0.07815305095929607,-0.10319666851405918,0.10789506191716895,0.31467053679474405
97,0.09050046815829722,0.06359111034778342,0.19253686013589824,0.024314044187251527,0.03298748410090296,0.4735044343579536,-0.11865028052664474,-0.07815305095929607,-0.10319666851405918,0.10789506191716895,0.31467053679474405
98,0.09050046815829722,0.06359111034778342,0.19253686013589824,0.024314044187251527,0.03298748410090296,0.4735044343579536,-0.11865028052664474,-0.07815305095929607,-0.10319666851405918,0.10789506191716895,0.31467053679474405
99,0.09050046815829722,0.06359111034778342,0.19253686013589824,0.024314044187251527,0.03298748410090296,0.4735044343579536,-0.11865028052664474,-0.07815305095929607,-0.10319666851405918,0.10789506191716895,0.31467053679474405
100,0.09050046815829722,0.06359111034778342,0.19253686013589824,0.024314044187251527,0.03298748410090296,0.4735044343579536,-0.11865028052664474,-0.07815305095929607,-0.10319666851405918,0.10789506191716895,0.31467053679474405
101,0.09050046815829722,0.06359111034778342,0.19253686013589824,0.024314044187251527,0.03298748410090296,0.4735044343579536,-0.11865028052664474,-0.07815305095929607,-0.10319666851405918,0.10789506191716895,0.31467053679474405
102,0.09050046815829722,0.06359111034778342,0.19253686013589824,0.024314044187251527,0.03298748410090296,0.4735044343579536,-0.11865028052664474,-0.07815305095929607,-0.10319666851405918,0.10789506191716895,0.31467053679474405
103,0.09050046815829722,0.06359111034778342,0.19253686013589824,0.024314044187251527,0.03298748410090296,0.4735044343579536,-0.11865028052664474,-0.07815305095929607,-0.10319666851405918,0.10789506191716895,0.31467053679474405
104,0.09050046815829722,0.06359111034778342,0.19253686013589824,0.024314044187251527,0.03298748410090296,0.4735044343579536,-0.11865028052664474,-0.07815305095929607,-0.10319666851405918,0.10789506191716895,0.31467053679474405
105,0.09050046815829722,0.06359111034778342,0.19253686013589824,0.024314044187251527,0.03298748410090296,0.4735044343579536,-0.11865028052664474,-0.07815305095929607,-0.10319666851405918,0.10789506191716895,0.31467053679474405
106,0.09050046815829722,0.06359111034778342,0.19253686013589824,0.024314044187251527,0.03298748410090296,0.4735044343579536,-0.11865028052664474,-0.07815305095929607,-0.10319666851405918,0.10789506191716895,0.31467053679474405
107,0.09050046815829722,0.06359111034778342,0.19253686013589824,0.024314044187251527,0.03298748410090296,0.4735044343579536,-0.11865028052664474,-0.07815305095929607,-0.10319666851405918,0.10789506191716895,0.31467053679474405
108,0.09050046815829722,0.06359111034778342,0.19253686013589824,0.024314044187251527,0.03298748410090296,0.4735044343579536,-0.11865028052664474,-0.07815305095929607,-0.10319666851405918,0.10789506191716895,0.31467053679474405
109,0.09050046815829722,0.06359111034778342,0.19253686013589824,0.024314044187251527,0.03298748410090296,0.4735044343579536,-0.11865028052664474,-0.07815305095929607,-0.10319666851405918,0.10789506191716895,0.31467053679474405
110,0.09050046815829722,0.06359111034778342,0.19253686013589824,0.024314044187251527,0.03298748410090296,0.4735044343579536,-0.11865028052664474,-0.07815305095929607,-0.10319666851405918,0.10789506191716895,0.31467053679474405
111,0.09050046815829722,0.06359111034778342,0.19253686013589824,0.024314044187251527,0.03298748410090296,0.4735044343579536,-0.11865028052664474,-0.07815305095929607,-0.10319666851405918,0.10789506191716895,0.31467053679474405
112,0.09050046815829722,0.06359111034778342,0.19253686013589824,0.024314044187251527,0.03298748410090296,0.4735044343579536,-0.11865028052664474,-0.07815305095929607,-0.10319666851405918,0.10789506191716895,0.31467053679474405
113,0.09050046815829722,0.06359111034778342,0.19253686013589824,0.024314044187251527,0.03298748410090296,0.4735044343579536,-0.11865028052664474,-0.07815305095929607,-0.10319666851405918,0.10789506191716895,0.31467053679474405
114,0.09050046815829722,0.06359111034778342,0.19253686013589824,0.024314044187251527,0.03298748410090296,0.4735044343579536,-0.11865028052664474,-0.07815305095929607,-0.10319666851405918,0.10789506191716895,0.31467053679474405
115,0.09050046815829722,0.06359111034778342,0.19253686013589824,0.024314044187251527,0.03298748410090296,0.4735044343579536,-0.11865028052664474,-0.07815305095929607,-0.10319666851405918,0.10789506191716895,0.31467053679474405
116,0.09050046815829722,0.06359111034778342,0.19253686013589824,0.024314044187251527,0.03298748410090296,0.4735044343579536,-0.11865028052664474,-0.07815305095929607,-0.10319666851405918,0.10789506191716895,0.31467053679474405
117,0.09050046815829722,0.06359111034778342,0.19253686013589824,0.024314044187251527,0.03298748410090296,0.4735044343579536,-0.11865028052664474,-0.07815305095929607,-0.10319666851405918,0.10789506191716895,0.31467053679474405
118,0.09050046815829722,0.06359111034778342,0.19253686013589824,0.024314044187251527,0.03298748410090296,0.4735044343579536,-0.11865028052664474,-0.07815305095929607,-0.10319666851405918,0.10789506191716895,0.31467053679474405
119,0.09050046815829722,0.06359111034778342,0.19253686013589824,0.024314044187251527,0.03298748410090296,0.4735044343579536,-0.11865028052664474,-0.07815305095929607,-0.10319666851405918,0.10789506191716895,0.31467053679474405
120,7.36418993173327e-09,0.08898636514985873,0.11039568162972704,-0.030348575300781354,0.08121408989870567,1.5233436171548774e-05,-0.1395043810591571,0.07352917248576651,0.9076138191111779,0.03824563189253021,-0.130147044608189
121,7.36418993173327e-09,0.08898636514985873,0.11039568162972704,-0.030348575300781354,0.08121408989870567,1.5233436171548774e-05,-0.1395043810591571,0.07352917248576651,0.9076138191111779,0.03824563189253021,-0.130147044608189
122,7.36418993173327e-09,0.08898636514985873,0.11039568162972704,-0.030348575300781354,0.08121408989870567,1.5233436171548774e-05,-0.1395043810591571,0.07352917248576651,0.9076138191111779,0.03824563189253021,-0.130147044608189
123,7.36418993173327e-09,0.08898636514985873,0.11039568162972704,-0.030348575300781354,0.08121408989870567,1.5233436171548774e-05,-0.1395043810591571,0.07352917248576651,0.9076138191111779,0.03824563189253021,-0.130147044608189
124,7.36418993173327e-09,0.08898636514985873,0.11039568162972704,-0.030348575300781354,0.08121408989870567,1.5233436171548774e-05,-0.1395043810591571,0.07352917248576651,0.9076138191111779,0.03824563189253021,-0.130147044608189
125,7.36418993173327e-09,0.08898636514985873,0.11039568162972704,-0.030348575300781354,0.08121408989870567,1.5233436171548774e-05,-0.1395043810591571,0.07352917248576651,0.9076138191111779,0.03824563189253021,-0.130147044608189
126,7.36418993173327e-09,0.08898636514985873,0.11039568162972704,-0.030348575300781354,0.08121408989870567,1.5233436171548774e-05,-0.1395043810591571,0.07352917248576651,0.9076138191111779,0.03824563189253021,-0.130147044608189
127,7.36418993173327e-09,0.08898636514985873,0.11039568162972704,-0.030348575300781354,0.08121408989870567,1.5233436171548774e-05,-0.1395043810591571,0.07352917248576651,0.9076138191111779,0.03824563189253021,-0.130147044608189
128,7.36418993173327e-09,0.08898636514985873,0.11039568162972704,-0.030348575300781354,0.08121408989870567,1.5233436171548774e-05,-0.1395043810591571,0.07352917248576651,0.9076138191111779,0.03824563189253021,-0.130147044608189
129,7.36418993173327e-09,0.08898636514985873,0.11039568162972704,-0.030348575300781354,0.08121408989870567,1.5233436171548774e-05,-0.1395043810591571,0.07352917248576651,0.9076138191111779,0.03824563189253021,-0.130147044608189
130,7.36418993173327e-09,0.08898636514985873,0.11039568162972704,-0.030348575300781354,0.08121408989870567,1.5233436171548774e-05,-0.1395043810591571,0.07352917248576651,0.9076138191111779,0.03824563189253021,-0.130147044608189
131,7.36418993173327e-09,0.08898636514985873,0.11039568162972704,-0.030348575300781354,0.08121408989870567,1.5233436171548774e-05,-0.1395043810591571,0.07352917248576651,0.9076138191111779,0.03824563189253021,-0.130147044608189
132,7.36418993173327e-09,0.08898636514985873,0.11039568162972704,-0.030348575300781354,0.08121408989870567,1.5233436171548774e-05,-0.1395043810591571,0.07352917248576651,0.9076138191111779,0.03824563189253021,-0.130147044608189
133,7.36418993173327e-09,0.08898636514985873,0.11039568162972704,-0.030348575300781354,0.08121408989870567,1.5233436171548774e-05,-0.1395043810591571,0.07352917248576651,0.9076138191111779,0.03824563189253021,-0.130147044608189
134,7.36418993173327e-09,0.08898636514985873,0.11039568162972704,-0.030348575300781354,0.08121408989870567,1.5233436171548774e-05,-0.1395043810591571,0.07352917248576651,0.9076138191111779,0.03824563189253021,-0.130147044608189
135,7.36418993173327e-09,0.08898636514985873,0.11039568162972704,-0.030348575300781354,0.08121408989870567,1.5233436171548774e-05,-0.1395043810591571,0.07352917248576651,0.9076138191111779,0.03824563189253021,-0.130147044608189
136,7.36418993173327e-09,0.08898636514985873,0.11039568162972704,-0.030348575300781354,0.08121408989870567,1.5233436171548774e-05,-0.1395043810591571,0.07352917248576651,0.9076138191111779,0.03824563189253021,-0.130147044608189
137,7.36418993173327e-09,0.08898636514985873,0.11039568162972704,-0.030348575300781354,0.08121408989870567,1.5233436171548774e-05,-0.1395043810591571,0.07352917248576651,0.9076138191111779,0.03824563189253021,-0.130147044608189
138,7.36418993173327e-09,0.08898636514985873,0.11039568162972704,-0.030348575300781354,0.08121408989870567,1.5233436171548774e-05,-0.1395043810591571,0.07352917248576651,0.9076138191111779,0.03824563189253021,-0.130147044608189
139,7.36418993173327e-09,0.08898636514985873,0.11039568162972704,-0.030348575300781354,0.08121408989870567,1.5233436171548774e-05,-0.1395043810591571,0.07352917248576651,0.9076138191111779,0.03824563189253021,-0.130147044608189
140,7.36418993173327e-09,0.08898636514985873,0.11039568162972704,-0.030348575300781354,0.08121408989870567,1.5233436171548774e-05,-0.1395043810591571,0.07352917248576651,0.9076138191111779,0.03824563189253021,-0.130147044608189
141,7.36418993173327e-09,0.08898636514985873,0.11039568162972704,-0.030348575300781354,0.08121408989870567,1.5233436171548774e-05,-0.1395043810591571,0.07352917248576651,0.9076138191111779,0.03824563189253021,-0.130147044608189
142,7.36418993173327e-09,0.08898636514985873,0.11039568162972704,-0.030348575300781354,0.08121408989870567,1.5233436171548774e-05,-0.1395043810591571,0.07352917248576651,0.9076138191111779,0.03824563189253021,-0.130147044608189
143,7.36418993173327e-09,0.08898636514985873,0.11039568162972704,-0.030348575300781354,0.08121408989870567,1.5233436171548774e-05,-0.1395043810591571,0.07352917248576651,0.9076138191111779,0.03824563189253021,-0.130147044608189
144,7.36418993173327e-09,0.08898636514985873,0.11039568162972704,-0.030348575300781354,0.08121408989870567,1.5233436171548774e-05,-0.1395043810591571,0.07352917248576651,0.9076138191111779,0.03824563189253021,-0.130147044608189
145,7.36418993173327e-09,0.08898636514985873,0.11039568162972704,-0.030348575300781354,0.08121408989870567,1.5233436171548774e-05,-0.1395043810591571,0.07352917248576651,0.9076138191111779,0.03824563189253021,-0.130147044608189
146,7.36418993173327e-09,0.08898636514985873,0.11039568162972704,-0.030348575300781354,0.08121408989870567,1.5233436171548774e-05,-0.1395043810591571,0.07352917248576651,0.9076138191111779,0.03824563189253021,-0.130147044608189
147,7.36418993173327e-09,0.08898636514985873,0.11039568162972704,-0.030348575300781354,0.08121408989870567,1.5233436171548774e-05,-0.1395043810591571,0.07352917248576651,0.9076138191111779,0.03824563189253021,-0.130147044608189
148,7.36418993173327e-09,0.08898636514985873,0.11039568162972704,-0.030348575300781354,0.08121408989870567,1.5233436171548774e-05,-0.1395043810591571,0.07352917248576651,0.9076138191111779,0.03824563189253021,-0.130147044608189
149,7.36418993173327e-09,0.08898636514985873,0.11039568162972704,-0.030348575300781354,0.08121408989870567,1.5233436171548774e-05,-0.1395043810591571,0.07352917248576651,0.9076138191111779,0.03824563189253021,-0.130147044608189
150,7.36418993173327e-09,0.08898636514985873,0.11039568162972704,-0.030348575300781354,0.08121408989870567,1.5233436171548774e-05,-0.1395043810591571,0.07352917248576651,0.9076138191111779,0.03824563189253021,-0.130147044608189
151,0.1569724058518463,0.12103062135262135,0.08720703556120964,0.060176888364506194,-0.05578742583947983,0.14075276482350763,-0.24421257416052017,0.08761656153646032,0.11210856464560243,0.05804693125584188,0.47608822660840416
152,0.1569724058518463,0.12103062135262135,0.08720703556120964,0.060176888364506194,-0.05578742583947983,0.14075276482350763,-0.24421257416052017,0.08761656153646032,0.11210856464560243,0.05804693125584188,0.47608822660840416
153,0.1569724058518463,0.12103062135262135,0.08720703556120964,0.060176888364506194,-0.05578742583947983,0.14075276482350763,-0.24421257416052017,0.08761656153646032,0.11210856464560243,0.05804693125584188,0.47608822660840416
154,0.1569724058518463,0.12103062135262135,0.08720703556120964,0.060176888364506194,-0.05578742583947983,0.14075276482350763,-0.24421257416052017,0.08761656153646032,0.11210856464560243,0.05804693125584188,0.47608822660840416
155,0.1569724058518463,0.12103062135262135,0.08720703556120964,0.060176888364506194,-0.05578742583947983,0.14075276482350763,-0.24421257416052017,0.08761656153646032,0.11210856464560243,0.05804693125584188,0.47608822660840416
156,0.1569724058518463,0.12103062135262135,0.08720703556120964,0.060176888364506194,-0.05578742583947983,0.14075276482350763,-0.24421257416052017,0.08761656153646032,0.11210856464560243,0.05804693125584188,0.47608822660840416
157,0.1569724058518463,0.12103062135262135,0.08720703556120964,0.060176888364506194,-0.05578742583947983,0.14075276482350763,-0.24421257416052017,0.08761656153646032,0.11210856464560243,0.05804693125584188,0.47608822660840416
158,0.1569724058518463,0.12103062135262135,0.08720703556120964,0.060176888364506194,-0.05578742583947983,0.14075276482350763,-0.24421257416052017,0.08761656153646032,0.11210856464560243,0.05804693125584188,0.47608822660840416
159,0.1569724058518463,0.12103062135262135,0.08720703556120964,0.060176888364506194,-0.05578742583947983,0.14075276482350763,-0.24421257416052017,0.08761656153646032,0.11210856464560243,0.05804693125584188,0.47608822660840416
160,0.1569724058518463,0.12103062135262135,0.08720703556120964,0.060176888364506194,-0.05578742583947983,0.14075276482350763,-0.24421257416052017,0.08761656153646032,0.11210856464560243,0.05804693125584188,0.47608822660840416
161,0.1569724058518463,0.12103062135262135,0.08720703556120964,0.060176888364506194,-0.05578742583947983,0.14075276482350763,-0.24421257416052017,0.08761656153646032,0.11210856464560243,0.05804693125584188,0.47608822660840416
162,0.1569724058518463,0.12103062135262135,0.08720703556120964,0.060176888364506194,-0.05578742583947983,0.14075276482350763,-0.24421257416052017,0.08761656153646032,0.11210856464560243,0.05804693125584188,0.47608822660840416
163,0.1569724058518463,0.12103062135262135,0.08720703556120964,0.060176888364506194,-0.05578742583947983,0.14075276482350763,-0.24421257416052017,0.08761656153646032,0.11210856464560243,0.05804693125584188,0.47608822660840416
164,0.1569724058518463,0.12103062135262135,0.08720703556120964,0.060176888364506194,-0.05578742583947983,0.14075276482350763,-0.24421257416052017,0.08761656153646032,0.11210856464560243,0.05804693125584188,0.47608822660840416
165,0.1569724058518463,0.12103062135262135,0.08720703556120964,0.060176888364506194,-0.05578742583947983,0.14075276482350763,-0.24421257416052017,0.08761656153646032,0.11210856464560243,0.05804693125584188,0.47608822660840416
166,0.1569724058518463,0.12103062135262135,0.08720703556120964,0.060176888364506194,-0.05578742583947983,0.14075276482350763,-0.24421257416052017,0.08761656153646032,0.11210856464560243,0.05804693125584188,0.47608822660840416
167,0.1569724058518463,0.12103062135262135,0.08720703556120964,0.060176888364506194,-0.05578742583947983,0.14075276482350763,-0.24421257416052017,0.08761656153646032,0.11210856464560243,0.05804693125584188,0.47608822660840416
168,0.1569724058518463,0.12103062135262135,0.08720703556120964,0.060176888364506194,-0.05578742583947983,0.14075276482350763,-0.24421257416052017,0.08761656153646032,0.11210856464560243,0.05804693125584188,0.47608822660840416
169,0.1569724058518463,0.12103062135262135,0.08720703556120964,0.060176888364506194,-0.05578742583947983,0.14075276482350763,-0.24421257416052017,0.08761656153646032,0.11210856464560243,0.05804693125584188,0.47608822660840416
170,0.1569724058518463,0.12103062135262135,0.08720703556120964,0.060176888364506194,-0.05578742583947983,0.14075276482350763,-0.24421257416052017,0.08761656153646032,0.11210856464560243,0.05804693125584188,0.47608822660840416
171,0.1569724058518463,0.12103062135262135,0.08720703556120964,0.060176888364506194,-0.05578742583947983,0.14075276482350763,-0.24421257416052017,0.08761656153646032,0.11210856464560243,0.05804693125584188,0.47608822660840416
172,0.1569724058518463,0.12103062135262135,0.08720703556120964,0.060176888364506194,-0.05578742583947983,0.14075276482350763,-0.24421257416052017,0.08761656153646032,0.11210856464560243,0.05804693125584188,0.47608822660840416
173,0.1569724058518463,0.12103062135262135,0.08720703556120964,0.060176888364506194,-0.05578742583947983,0.14075276482350763,-0.24421257416052017,0.08761656153646032,0.11210856464560243,0.05804693125584188,0.47608822660840416
174,0.1569724058518463,0.12103062135262135,0.08720703556120964,0.060176888364506194,-0.05578742583947983,0.14075276482350763,-0.24421257416052017,0.08761656153646032,0.11210856464560243,0.05804693125584188,0.47608822660840416
175,0.1569724058518463,0.12103062135262135,0.08720703556120964,0.060176888364506194,-0.05578742583947983,0.14075276482350763,-0.24421257416052017,0.08761656153646032,0.11210856464560243,0.05804693125584188,0.47608822660840416
176,0.1569724058518463,0.12103062135262135,0.08720703556120964,0.060176888364506194,-0.05578742583947983,0.14075276482350763,-0.24421257416052017,0.08761656153646032,0.11210856464560243,0.05804693125584188,0.47608822660840416
177,0.1569724058518463,0.12103062135262135,0.08720703556120964,0.060176888364506194,-0.05578742583947983,0.14075276482350763,-0.24421257416052017,0.08761656153646032,0.11210856464560243,0.05804693125584188,0.47608822660840416
178,0.1569724058518463,0.12103062135262135,0.08720703556120964,0.060176888364506194,-0.05578742583947983,0.14075276482350763,-0.24421257416052017,0.08761656153646032,0.11210856464560243,0.05804693125584188,0.47608822660840416
179,0.1569724058518463,0.12103062135262135,0.08720703556120964,0.060176888364506194,-0.05578742583947983,0.14075276482350763,-0.24421257416052017,0.08761656153646032,0.11210856464560243,0.05804693125584188,0.47608822660840416
180,0.1569724058518463,0.12103062135262135,0.08720703556120964,0.060176888364506194,-0.05578742583947983,0.14075276482350763,-0.24421257416052017,0.08761656153646032,0.11210856464560243,0.05804693125584188,0.47608822660840416
181,0.192879900986587,-0.08146155853365633,-0.020861865284076637,0.04019436122227235,-0.05865348648128829,0.9228099453693345,0.04775189613225588,0.0470480272741486,0.049315869015401685,-0.0950663831454496,-0.04395670655552913
182,0.192879900986587,-0.08146155853365633,-0.020861865284076637,0.04019436122227235,-0.05865348648128829,0.9228099453693345,0.04775189613225588,0.0470480272741486,0.049315869015401685,-0.0950663831454496,-0.04395670655552913
183,0.192879900986587,-0.08146155853365633,-0.020861865284076637,0.04019436122227235,-0.05865348648128829,0.9228099453693345,0.04775189613225588,0.0470480272741486,0.049315869015401685,-0.0950663831454496,-0.04395670655552913
184,0.192879900986587,-0.08146155853365633,-0.020861865284076637,0.04019436122227235,-0.05865348648128829,0.9228099453693345,0.04775189613225588,0.0470480272741486,0.049315869015401685,-0.0950663831454496,-0.04395670655552913
185,0.192879900986587,-0.08146155853365633,-0.020861865284076637,0.04019436122227235,-0.05865348648128829,0.9228099453693345,0.04775189613225588,0.0470480272741486,0.049315869015401685,-0.0950663831454496,-0.04395670655552913
186,0.192879900986587,-0.08146155853365633,-0.020861865284076637,0.04019436122227235,-0.05865348648128829,0.9228099453693345,0.04775189613225588,0.0470480272741486,0.049315869015401685,-0.0950663831454496,-0.04395670655552913
187,0.192879900986587,-0.08146155853365633,-0.020861865284076637,0.04019436122227235,-0.05865348648128829,0.9228099453693345,0.04775189613225588,0.0470480272741486,0.049315869015401685,-0.0950663831454496,-0.04395670655552913
188,0.192879900986587,-0.08146155853365633,-0.020861865284076637,0.04019436122227235,-0.05865348648128829,0.9228099453693345,0.04775189613225588,0.0470480272741486,0.049315869015401685,-0.0950663831454496,-0.04395670655552913
189,0.192879900986587,-0.08146155853365633,-0.020861865284076637,0.04019436122227235,-0.05865348648128829,0.9228099453693345,0.04775189613225588,0.0470480272741486,0.049315869015401685,-0.0950663831454496,-0.04395670655552913
190,0.192879900986587,-0.08146155853365633,-0.020861865284076637,0.04019436122227235,-0.05865348648128829,0.9228099453693345,0.04775189613225588,0.0470480272741486,0.049315869015401685,-0.0950663831454496,-0.04395670655552913
191,0.192879900986587,-0.08146155853365633,-0.020861865284076637,0.04019436122227235,-0.05865348648128829,0.9228099453693345,0.04775189613225588,0.0470480272741486,0.049315869015401685,-0.0950663831454496,-0.04395670655552913
192,0.192879900986587,-0.08146155853365633,-0.020861865284076637,0.04019436122227235,-0.05865348648128829,0.9228099453693345,0.04775189613225588,0.0470480272741486,0.049315869015401685,-0.0950663831454496,-0.04395670655552913
193,0.192879900986587,-0.08146155853365633,-0.020861865284076637,0.04019436122227235,-0.05865348648128829,0.9228099453693345,0.04775189613225588,0.0470480272741486,0.049315869015401685,-0.0950663831454496,-0.04395670655552913
194,0.192879900986587,-0.08146155853365633,-0.020861865284076637,0.04019436122227235,-0.05865348648128829,0.9228099453693345,0.04775189613225588,0.0470480272741486,0.049315869015401685,-0.0950663831454496,-0.04395670655552913
195,0.192879900986587,-0.08146155853365633,-0.020861865284076637,0.04019436122227235,-0.05865348648128829,0.9228099453693345,0.04775189613225588,0.0470480272741486,0.049315869015401685,-0.0950663831454496,-0.04395670655552913
196,0.192879900986587,-0.08146155853365633,-0.020861865284076637,0.04019436122227235,-0.05865348648128829,0.9228099453693345,0.04775189613225588,0.0470480272741486,0.049315869015401685,-0.0950663831454496,-0.04395670655552913
197,0.192879900986587,-0.08146155853365633,-0.020861865284076637,0.04019436122227235,-0.05865348648128829,0.9228099453693345,0.04775189613225588,0.0470480272741486,0.049315869015401685,-0.0950663831454496,-0.04395670655552913
198,0.192879900986587,-0.08146155853365633,-0.020861865284076637,0.04019436122227235,-0.05865348648128829,0.9228099453693345,0.04775189613225588,0.0470480272741486,0.049315869015401685,-0.0950663831454496,-0.04395670655552913
199,0.192879900986587,-0.08146155853365633,-0.020861865284076637,0.04019436122227235,-0.05865348648128829,0.9228099453693345,0.04775189613225588,0.0470480272741486,0.049315869015401685,-0.0950663831454496,-0.04395670655552913
200,0.192879900986587,-0.08146155853365633,-0.020861865284076637,0.04019436122227235,-0.05865348648128829,0.9228099453693345,0.04775189613225588,0.0470480272741486,0.049315869015401685,-0.0950663831454496,-0.04395670655552913
201,0.192879900986587,-0.08146155853365633,-0.020861865284076637,0.04019436122227235,-0.05865348648128829,0.9228099453693345,0.04775189613225588,0.0470480272741486,0.049315869015401685,-0.0950663831454496,-0.04395670655552913
202,0.192879900986587,-0.08146155853365633,-0.020861865284076637,0.04019436122227235,-0.05865348648128829,0.9228099453693345,0.04775189613225588,0.0470480272741486,0.049315869015401685,-0.0950663831454496,-0.04395670655552913
203,0.192879900986587,-0.08146155853365633,-0.020861865284076637,0.04019436122227235,-0.05865348648128829,0.9228099453693345,0.04775189613225588,0.0470480272741486,0.049315869015401685,-0.0950663831454496,-0.04395670655552913
204,0.192879900986587,-0.08146155853365633,-0.020861865284076637,0.04019436122227235,-0.05865348648128829,0.9228099453693345,0.04775189613225588,0.0470480272741486,0.049315869015401685,-0.0950663831454496,-0.04395670655552913
205,0.192879900986587,-0.08146155853365633,-0.020861865284076637,0.04019436122227235,-0.05865348648128829,0.9228099453693345,0.04775189613225588,0.0470480272741486,0.049315869015401685,-0.0950663831454496,-0.04395670655552913
206,0.192879900986587,-0.08146155853365633,-0.020861865284076637,0.04019436122227235,-0.05865348648128829,0.9228099453693345,0.04775189613225588,0.0470480272741486,0.049315869015401685,-0.0950663831454496,-0.04395670655552913
207,0.192879900986587,-0.08146155853365633,-0.020861865284076637,0.04019436122227235,-0.05865348648128829,0.9228099453693345,0.04775189613225588,0.0470480272741486,0.049315869015401685,-0.0950663831454496,-0.04395670655552913
208,0.192879900986587,-0.08146155853365633,-0.020861865284076637,0.04019436122227235,-0.05865348648128829,0.9228099453693345,0.04775189613225588,0.0470480272741486,0.049315869015401685,-0.0950663831454496,-0.04395670655552913
209,0.192879900986587,-0.08146155853365633,-0.020861865284076637,0.04019436122227235,-0.05865348648128829,0.9228099453693345,0.04775189613225588,0.0470480272741486,0.049315869015401685,-0.0950663831454496,-0.04395670655552913
210,0.192879900986587,-0.08146155853365633,-0.020861865284076637,0.04019436122227235,-0.05865348648128829,0.9228099453693345,0.04775189613225588,0.0470480272741486,0.049315869015401685,-0.0950663831454496,-0.04395670655552913
211,0.192879900986587,-0.08146155853365633,-0.020861865284076637,0.04019436122227235,-0.05865348648128829,0.9228099453693345,0.04775189613225588,0.0470480272741486,0.049315869015401685,-0.0950663831454496,-0.04395670655552913
212,0.13225283106829833,0.10224909653306041,0.19648266764894676,0.12650293180559316,0.1436789810420792,0.1409216654535186,0.09696074808003505,0.1030601541066143,0.10488444958211536,0.15300647467973827,-0.2999999999999999
213,0.13225283106829833,0.10224909653306041,0.19648266764894676,0.12650293180559316,0.1436789810420792,0.1409216654535186,0.09696074808003505,0.1030601541066143,0.10488444958211536,0.15300647467973827,-0.2999999999999999
214,0.13225283106829833,0.10224909653306041,0.19648266764894676,0.12650293180559316,0.1436789810420792,0.1409216654535186,0.09696074808003505,0.1030601541066143,0.10488444958211536,0.15300647467973827,-0.2999999999999999
215,0.13225283106829833,0.10224909653306041,0.19648266764894676,0.12650293180559316,0.1436789810420792,0.1409216654535186,0.09696074808003505,0.1030601541066143,0.10488444958211536,0.15300647467973827,-0.2999999999999999
216,0.13225283106829833,0.10224909653306041,0.19648266764894676,0.12650293180559316,0.1436789810420792,0.1409216654535186,0.09696074808003505,0.1030601541066143,0.10488444958211536,0.15300647467973827,-0.2999999999999999
217,0.13225283106829833,0.10224909653306041,0.19648266764894676,0.12650293180559316,0.1436789810420792,0.1409216654535186,0.09696074808003505,0.1030601541066143,0.10488444958211536,0.15300647467973827,-0.2999999999999999
218,0.13225283106829833,0.10224909653306041,0.19648266764894676,0.12650293180559316,0.1436789810420792,0.1409216654535186,0.09696074808003505,0.1030601541066143,0.10488444958211536,0.15300647467973827,-0.2999999999999999
219,0.13225283106829833,0.10224909653306041,0.19648266764894676,0.12650293180559316,0.1436789810420792,0.1409216654535186,0.09696074808003505,0.1030601541066143,0.10488444958211536,0.15300647467973827,-0.2999999999999999
220,0.13225283106829833,0.10224909653306041,0.19648266764894676,0.12650293180559316,0.1436789810420792,0.1409216654535186,0.09696074808003505,0.1030601541066143,0.10488444958211536,0.15300647467973827,-0.2999999999999999
221,0.13225283106829833,0.10224909653306041,0.19648266764894676,0.12650293180559316,0.1436789810420792,0.1409216654535186,0.09696074808003505,0.1030601541066143,0.10488444958211536,0.15300647467973827,-0.2999999999999999
222,0.13225283106829833,0.10224909653306041,0.19648266764894676,0.12650293180559316,0.1436789810420792,0.1409216654535186,0.09696074808003505,0.1030601541066143,0.10488444958211536,0.15300647467973827,-0.2999999999999999
223,0.13225283106829833,0.10224909653306041,0.19648266764894676,0.12650293180559316,0.1436789810420792,0.1409216654535186,0.09696074808003505,0.1030601541066143,0.10488444958211536,0.15300647467973827,-0.2999999999999999
224,0.13225283106829833,0.10224909653306041,0.19648266764894676,0.12650293180559316,0.1436789810420792,0.1409216654535186,0.09696074808003505,0.1030601541066143,0.10488444958211536,0.15300647467973827,-0.2999999999999999
225,0.13225283106829833,0.10224909653306041,0.19648266764894676,0.12650293180559316,0.1436789810420792,0.1409216654535186,0.09696074808003505,0.1030601541066143,0.10488444958211536,0.15300647467973827,-0.2999999999999999
226,0.13225283106829833,0.10224909653306041,0.19648266764894676,0.12650293180559316,0.1436789810420792,0.1409216654535186,0.09696074808003505,0.1030601541066143,0.10488444958211536,0.15300647467973827,-0.2999999999999999
227,0.13225283106829833,0.10224909653306041,0.19648266764894676,0.12650293180559316,0.1436789810420792,0.1409216654535186,0.09696074808003505,0.1030601541066143,0.10488444958211536,0.15300647467973827,-0.2999999999999999
228,0.13225283106829833,0.10224909653306041,0.19648266764894676,0.12650293180559316,0.1436789810420792,0.1409216654535186,0.09696074808003505,0.1030601541066143,0.10488444958211536,0.15300647467973827,-0.2999999999999999
229,0.13225283106829833,0.10224909653306041,0.19648266764894676,0.12650293180559316,0.1436789810420792,0.1409216654535186,0.09696074808003505,0.1030601541066143,0.10488444958211536,0.15300647467973827,-0.2999999999999999
230,0.13225283106829833,0.10224909653306041,0.19648266764894676,0.12650293180559316,0.1436789810420792,0.1409216654535186,0.09696074808003505,0.1030601541066143,0.10488444958211536,0.15300647467973827,-0.2999999999999999
231,0.13225283106829833,0.10224909653306041,0.19648266764894676,0.12650293180559316,0.1436789810420792,0.1409216654535186,0.09696074808003505,0.1030601541066143,0.10488444958211536,0.15300647467973827,-0.2999999999999999
232,0.13225283106829833,0.10224909653306041,0.19648266764894676,0.12650293180559316,0.1436789810420792,0.1409216654535186,0.09696074808003505,0.1030601541066143,0.10488444958211536,0.15300647467973827,-0.2999999999999999
233,0.13225283106829833,0.10224909653306041,0.19648266764894676,0.12650293180559316,0.1436789810420792,0.1409216654535186,0.09696074808003505,0.1030601541066143,0.10488444958211536,0.15300647467973827,-0.2999999999999999
234,0.13225283106829833,0.10224909653306041,0.19648266764894676,0.12650293180559316,0.1436789810420792,0.1409216654535186,0.09696074808003505,0.1030601541066143,0.10488444958211536,0.15300647467973827,-0.2999999999999999
235,0.13225283106829833,0.10224909653306041,0.19648266764894676,0.12650293180559316,0.1436789810420792,0.1409216654535186,0.09696074808003505,0.1030601541066143,0.10488444958211536,0.15300647467973827,-0.2999999999999999
236,0.13225283106829833,0.10224909653306041,0.19648266764894676,0.12650293180559316,0.1436789810420792,0.1409216654535186,0.09696074808003505,0.1030601541066143,0.10488444958211536,0.15300647467973827,-0.2999999999999999
237,0.13225283106829833,0.10224909653306041,0.19648266764894676,0.12650293180559316,0.1436789810420792,0.1409216654535186,0.09696074808003505,0.1030601541066143,0.10488444958211536,0.15300647467973827,-0.2999999999999999
238,0.13225283106829833,0.10224909653306041,0.19648266764894676,0.12650293180559316,0.1436789810420792,0.1409216654535186,0.09696074808003505,0.1030601541066143,0.10488444958211536,0.15300647467973827,-0.2999999999999999
239,0.13225283106829833,0.10224909653306041,0.19648266764894676,0.12650293180559316,0.1436789810420792,0.1409216654535186,0.09696074808003505,0.1030601541066143,0.10488444958211536,0.15300647467973827,-0.2999999999999999
240,0.13225283106829833,0.10224909653306041,0.19648266764894676,0.12650293180559316,0.1436789810420792,0.1409216654535186,0.09696074808003505,0.1030601541066143,0.10488444958211536,0.15300647467973827,-0.2999999999999999
241,0.13225283106829833,0.10224909653306041,0.19648266764894676,0.12650293180559316,0.1436789810420792,0.1409216654535186,0.09696074808003505,0.1030601541066143,0.10488444958211536,0.15300647467973827,-0.2999999999999999
242,0.13225283106829833,0.10224909653306041,0.19648266764894676,0.12650293180559316,0.1436789810420792,0.1409216654535186,0.09696074808003505,0.1030601541066143,0.10488444958211536,0.15300647467973827,-0.2999999999999999
243,0.12960394787521645,0.10106002789007808,0.05236413770204948,0.10402373232122836,0.09164928821946791,0.13422667201623137,0.038227419165432874,0.30224611298322795,0.07096190088181828,-0.16400841669364072,0.13964517763888998
244,0.12960394787521645,0.10106002789007808,0.05236413770204948,0.10402373232122836,0.09164928821946791,0.13422667201623137,0.038227419165432874,0.30224611298322795,0.07096190088181828,-0.16400841669364072,0.13964517763888998
245,0.12960394787521645,0.10106002789007808,0.05236413770204948,0.10402373232122836,0.09164928821946791,0.13422667201623137,0.038227419165432874,0.30224611298322795,0.07096190088181828,-0.16400841669364072,0.13964517763888998
246,0.12960394787521645,0.10106002789007808,0.05236413770204948,0.10402373232122836,0.09164928821946791,0.13422667201623137,0.038227419165432874,0.30224611298322795,0.07096190088181828,-0.16400841669364072,0.13964517763888998
247,0.12960394787521645,0.10106002789007808,0.05236413770204948,0.10402373232122836,0.09164928821946791,0.13422667201623137,0.038227419165432874,0.30224611298322795,0.07096190088181828,-0.16400841669364072,0.13964517763888998
248,0.12960394787521645,0.10106002789007808,0.05236413770204948,0.10402373232122836,0.09164928821946791,0.13422667201623137,0.038227419165432874,0.30224611298322795,0.07096190088181828,-0.16400841669364072,0.13964517763888998
249,0.12960394787521645,0.10106002789007808,0.05236413770204948,0.10402373232122836,0.09164928821946791,0.13422667201623137,0.038227419165432874,0.30224611298322795,0.07096190088181828,-0.16400841669364072,0.13964517763888998
250,0.12960394787521645,0.10106002789007808,0.05236413770204948,0.10402373232122836,0.09164928821946791,0.13422667201623137,0.038227419165432874,0.30224611298322795,0.07096190088181828,-0.16400841669364072,0.13964517763888998
251,0.12960394787521645,0.10106002789007808,0.05236413770204948,0.10402373232122836,0.09164928821946791,0.13422667201623137,0.038227419165432874,0.30224611298322795,0.07096190088181828,-0.16400841669364072,0.13964517763888998
252,0.12960394787521645,0.10106002789007808,0.05236413770204948,0.10402373232122836,0.09164928821946791,0.13422667201623137,0.038227419165432874,0.30224611298322795,0.07096190088181828,-0.16400841669364072,0.13964517763888998
253,0.12960394787521645,0.10106002789007808,0.05236413770204948,0.10402373232122836,0.09164928821946791,0.13422667201623137,0.038227419165432874,0.30224611298322795,0.07096190088181828,-0.16400841669364072,0.13964517763888998
254,0.12960394787521645,0.10106002789007808,0.05236413770204948,0.10402373232122836,0.09164928821946791,0.13422667201623137,0.038227419165432874,0.30224611298322795,0.07096190088181828,-0.16400841669364072,0.13964517763888998
255,0.12960394787521645,0.10106002789007808,0.05236413770204948,0.10402373232122836,0.09164928821946791,0.13422667201623137,0.038227419165432874,0.30224611298322795,0.07096190088181828,-0.16400841669364072,0.13964517763888998
256,0.12960394787521645,0.10106002789007808,0.05236413770204948,0.10402373232122836,0.09164928821946791,0.13422667201623137,0.038227419165432874,0.30224611298322795,0.07096190088181828,-0.16400841669364072,0.13964517763888998
257,0.12960394787521645,0.10106002789007808,0.05236413770204948,0.10402373232122836,0.09164928821946791,0.13422667201623137,0.038227419165432874,0.30224611298322795,0.07096190088181828,-0.16400841669364072,0.13964517763888998
258,0.12960394787521645,0.10106002789007808,0.05236413770204948,0.10402373232122836,0.09164928821946791,0.13422667201623137,0.038227419165432874,0.30224611298322795,0.07096190088181828,-0.16400841669364072,0.13964517763888998
259,0.12960394787521645,0.10106002789007808,0.05236413770204948,0.10402373232122836,0.09164928821946791,0.13422667201623137,0.038227419165432874,0.30224611298322795,0.07096190088181828,-0.16400841669364072,0.13964517763888998
260,0.12960394787521645,0.10106002789007808,0.05236413770204948,0.10402373232122836,0.09164928821946791,0.13422667201623137,0.038227419165432874,0.30224611298322795,0.07096190088181828,-0.16400841669364072,0.13964517763888998
261,0.12960394787521645,0.10106002789007808,0.05236413770204948,0.10402373232122836,0.09164928821946791,0.13422667201623137,0.038227419165432874,0.30224611298322795,0.07096190088181828,-0.16400841669364072,0.13964517763888998
262,0.12960394787521645,0.10106002789007808,0.05236413770204948,0.10402373232122836,0.09164928821946791,0.13422667201623137,0.038227419165432874,0.30224611298322795,0.07096190088181828,-0.16400841669364072,0.13964517763888998
263,0.12960394787521645,0.10106002789007808,0.05236413770204948,0.10402373232122836,0.09164928821946791,0.13422667201623137,0.038227419165432874,0.30224611298322795,0.07096190088181828,-0.16400841669364072,0.13964517763888998
264,0.12960394787521645,0.10106002789007808,0.05236413770204948,0.10402373232122836,0.09164928821946791,0.13422667201623137,0.038227419165432874,0.30224611298322795,0.07096190088181828,-0.16400841669364072,0.13964517763888998
265,0.12960394787521645,0.10106002789007808,0.05236413770204948,0.10402373232122836,0.09164928821946791,0.13422667201623137,0.038227419165432874,0.30224611298322795,0.07096190088181828,-0.16400841669364072,0.13964517763888998
266,0.12960394787521645,0.10106002789007808,0.05236413770204948,0.10402373232122836,0.09164928821946791,0.13422667201623137,0.038227419165432874,0.30224611298322795,0.07096190088181828,-0.16400841669364072,0.13964517763888998
267,0.12960394787521645,0.10106002789007808,0.05236413770204948,0.10402373232122836,0.09164928821946791,0.13422667201623137,0.038227419165432874,0.30224611298322795,0.07096190088181828,-0.16400841669364072,0.13964517763888998
268,0.12960394787521645,0.10106002789007808,0.05236413770204948,0.10402373232122836,0.09164928821946791,0.13422667201623137,0.038227419165432874,0.30224611298322795,0.07096190088181828,-0.16400841669364072,0.13964517763888998
269,0.12960394787521645,0.10106002789007808,0.05236413770204948,0.10402373232122836,0.09164928821946791,0.13422667201623137,0.038227419165432874,0.30224611298322795,0.07096190088181828,-0.16400841669364072,0.13964517763888998
270,0.12960394787521645,0.10106002789007808,0.05236413770204948,0.10402373232122836,0.09164928821946791,0.13422667201623137,0.038227419165432874,0.30224611298322795,0.07096190088181828,-0.16400841669364072,0.13964517763888998
271,0.12960394787521645,0.10106002789007808,0.05236413770204948,0.10402373232122836,0.09164928821946791,0.13422667201623137,0.038227419165432874,0.30224611298322795,0.07096190088181828,-0.16400841669364072,0.13964517763888998
272,0.12960394787521645,0.10106002789007808,0.05236413770204948,0.10402373232122836,0.09164928821946791,0.13422667201623137,0.038227419165432874,0.30224611298322795,0.07096190088181828,-0.16400841669364072,0.13964517763888998
273,0.3072932999701271,0.03482867861655793,0.03212267932782644,0.27927331217657336,0.017736106265673245,0.06758522087350814,0.01619196624197811,0.03297909805939264,0.02225431907657819,0.16739830174526232,0.022337017646522465
274,0.3072932999701271,0.03482867861655793,0.03212267932782644,0.27927331217657336,0.017736106265673245,0.06758522087350814,0.01619196624197811,0.03297909805939264,0.02225431907657819,0.16739830174526232,0.022337017646522465
275,0.3072932999701271,0.03482867861655793,0.03212267932782644,0.27927331217657336,0.017736106265673245,0.06758522087350814,0.01619196624197811,0.03297909805939264,0.02225431907657819,0.16739830174526232,0.022337017646522465
276,0.3072932999701271,0.03482867861655793,0.03212267932782644,0.27927331217657336,0.017736106265673245,0.06758522087350814,0.01619196624197811,0.03297909805939264,0.02225431907657819,0.16739830174526232,0.022337017646522465
277,0.3072932999701271,0.03482867861655793,0.03212267932782644,0.27927331217657336,0.017736106265673245,0.06758522087350814,0.01619196624197811,0.03297909805939264,0.02225431907657819,0.16739830174526232,0.022337017646522465
278,0.3072932999701271,0.03482867861655793,0.03212267932782644,0.27927331217657336,0.017736106265673245,0.06758522087350814,0.01619196624197811,0.03297909805939264,0.02225431907657819,0.16739830174526232,0.022337017646522465
279,0.3072932999701271,0.03482867861655793,0.03212267932782644,0.27927331217657336,0.017736106265673245,0.06758522087350814,0.01619196624197811,0.03297909805939264,0.02225431907657819,0.16739830174526232,0.022337017646522465
280,0.3072932999701271,0.03482867861655793,0.03212267932782644,0.27927331217657336,0.017736106265673245,0.06758522087350814,0.01619196624197811,0.03297909805939264,0.02225431907657819,0.16739830174526232,0.022337017646522465
281,0.3072932999701271,0.03482867861655793,0.03212267932782644,0.27927331217657336,0.017736106265673245,0.06758522087350814,0.01619196624197811,0.03297909805939264,0.02225431907657819,0.16739830174526232,0.022337017646522465
282,0.3072932999701271,0.03482867861655793,0.03212267932782644,0.27927331217657336,0.017736106265673245,0.06758522087350814,0.01619196624197811,0.03297909805939264,0.02225431907657819,0.16739830174526232,0.022337017646522465
283,0.3072932999701271,0.03482867861655793,0.03212267932782644,0.27927331217657336,0.017736106265673245,0.06758522087350814,0.01619196624197811,0.03297909805939264,0.02225431907657819,0.16739830174526232,0.022337017646522465
284,0.3072932999701271,0.03482867861655793,0.03212267932782644,0.27927331217657336,0.017736106265673245,0.06758522087350814,0.01619196624197811,0.03297909805939264,0.02225431907657819,0.16739830174526232,0.022337017646522465
285,0.3072932999701271,0.03482867861655793,0.03212267932782644,0.27927331217657336,0.017736106265673245,0.06758522087350814,0.01619196624197811,0.03297909805939264,0.02225431907657819,0.16739830174526232,0.022337017646522465
286,0.3072932999701271,0.03482867861655793,0.03212267932782644,0.27927331217657336,0.017736106265673245,0.06758522087350814,0.01619196624197811,0.03297909805939264,0.02225431907657819,0.16739830174526232,0.022337017646522465
287,0.3072932999701271,0.03482867861655793,0.03212267932782644,0.27927331217657336,0.017736106265673245,0.06758522087350814,0.01619196624197811,0.03297909805939264,0.02225431907657819,0.16739830174526232,0.022337017646522465
288,0.3072932999701271,0.03482867861655793,0.03212267932782644,0.27927331217657336,0.017736106265673245,0.06758522087350814,0.01619196624197811,0.03297909805939264,0.02225431907657819,0.16739830174526232,0.022337017646522465
289,0.3072932999701271,0.03482867861655793,0.03212267932782644,0.27927331217657336,0.017736106265673245,0.06758522087350814,0.01619196624197811,0.03297909805939264,0.02225431907657819,0.16739830174526232,0.022337017646522465
290,0.3072932999701271,0.03482867861655793,0.03212267932782644,0.27927331217657336,0.017736106265673245,0.06758522087350814,0.01619196624197811,0.03297909805939264,0.02225431907657819,0.16739830174526232,0.022337017646522465
291,0.3072932999701271,0.03482867861655793,0.03212267932782644,0.27927331217657336,0.017736106265673245,0.06758522087350814,0.01619196624197811,0.03297909805939264,0.02225431907657819,0.16739830174526232,0.022337017646522465
292,0.3072932999701271,0.03482867861655793,0.03212267932782644,0.27927331217657336,0.017736106265673245,0.06758522087350814,0.01619196624197811,0.03297909805939264,0.02225431907657819,0.16739830174526232,0.022337017646522465
293,0.3072932999701271,0.03482867861655793,0.03212267932782644,0.27927331217657336,0.017736106265673245,0.06758522087350814,0.01619196624197811,0.03297909805939264,0.02225431907657819,0.16739830174526232,0.022337017646522465
294,0.3072932999701271,0.03482867861655793,0.03212267932782644,0.27927331217657336,0.017736106265673245,0.06758522087350814,0.01619196624197811,0.03297909805939264,0.02225431907657819,0.16739830174526232,0.022337017646522465
295,0.3072932999701271,0.03482867861655793,0.03212267932782644,0.27927331217657336,0.017736106265673245,0.06758522087350814,0.01619196624197811,0.03297909805939264,0.02225431907657819,0.16739830174526232,0.022337017646522465
296,0.3072932999701271,0.03482867861655793,0.03212267932782644,0.27927331217657336,0.017736106265673245,0.06758522087350814,0.01619196624197811,0.03297909805939264,0.02225431907657819,0.16739830174526232,0.022337017646522465
297,0.3072932999701271,0.03482867861655793,0.03212267932782644,0.27927331217657336,0.017736106265673245,0.06758522087350814,0.01619196624197811,0.03297909805939264,0.02225431907657819,0.16739830174526232,0.022337017646522465
298,0.3072932999701271,0.03482867861655793,0.03212267932782644,0.27927331217657336,0.017736106265673245,0.06758522087350814,0.01619196624197811,0.03297909805939264,0.02225431907657819,0.16739830174526232,0.022337017646522465
299,0.3072932999701271,0.03482867861655793,0.03212267932782644,0.27927331217657336,0.017736106265673245,0.06758522087350814,0.01619196624197811,0.03297909805939264,0.02225431907657819,0.16739830174526232,0.022337017646522465
300,0.3072932999701271,0.03482867861655793,0.03212267932782644,0.27927331217657336,0.017736106265673245,0.06758522087350814,0.01619196624197811,0.03297909805939264,0.02225431907657819,0.16739830174526232,0.022337017646522465
301,0.3072932999701271,0.03482867861655793,0.03212267932782644,0.27927331217657336,0.017736106265673245,0.06758522087350814,0.01619196624197811,0.03297909805939264,0.02225431907657819,0.16739830174526232,0.022337017646522465
302,0.3072932999701271,0.03482867861655793,0.03212267932782644,0.27927331217657336,0.017736106265673245,0.06758522087350814,0.01619196624197811,0.03297909805939264,0.02225431907657819,0.16739830174526232,0.022337017646522465
303,0.3072932999701271,0.03482867861655793,0.03212267932782644,0.27927331217657336,0.017736106265673245,0.06758522087350814,0.01619196624197811,0.03297909805939264,0.02225431907657819,0.16739830174526232,0.022337017646522465
304,0.0202034657525912,0.037739911852657154,-0.01360815344025062,0.013917034351226156,0.028043026256151512,0.020951646111965153,0.21016193444267442,0.011952853703653893,0.653616270026023,0.010944443041425672,0.006077567901882365
305,0.0202034657525912,0.037739911852657154,-0.01360815344025062,0.013917034351226156,0.028043026256151512,0.020951646111965153,0.21016193444267442,0.011952853703653893,0.653616270026023,0.010944443041425672,0.006077567901882365
306,0.0202034657525912,0.037739911852657154,-0.01360815344025062,0.013917034351226156,0.028043026256151512,0.020951646111965153,0.21016193444267442,0.011952853703653893,0.653616270026023,0.010944443041425672,0.006077567901882365
307,0.0202034657525912,0.037739911852657154,-0.01360815344025062,0.013917034351226156,0.028043026256151512,0.020951646111965153,0.21016193444267442,0.011952853703653893,0.653616270026023,0.010944443041425672,0.006077567901882365
308,0.0202034657525912,0.037739911852657154,-0.01360815344025062,0.013917034351226156,0.028043026256151512,0.020951646111965153,0.21016193444267442,0.011952853703653893,0.653616270026023,0.010944443041425672,0.006077567901882365
309,0.0202034657525912,0.037739911852657154,-0.01360815344025062,0.013917034351226156,0.028043026256151512,0.020951646111965153,0.21016193444267442,0.011952853703653893,0.653616270026023,0.010944443041425672,0.006077567901882365
310,0.0202034657525912,0.037739911852657154,-0.01360815344025062,0.013917034351226156,0.028043026256151512,0.020951646111965153,0.21016193444267442,0.011952853703653893,0.653616270026023,0.010944443041425672,0.006077567901882365
311,0.0202034657525912,0.037739911852657154,-0.01360815344025062,0.013917034351226156,0.028043026256151512,0.020951646111965153,0.21016193444267442,0.011952853703653893,0.653616270026023,0.010944443041425672,0.006077567901882365
312,0.0202034657525912,0.037739911852657154,-0.01360815344025062,0.013917034351226156,0.028043026256151512,0.020951646111965153,0.21016193444267442,0.011952853703653893,0.653616270026023,0.010944443041425672,0.006077567901882365
313,0.0202034657525912,0.037739911852657154,-0.01360815344025062,0.013917034351226156,0.028043026256151512,0.020951646111965153,0.21016193444267442,0.011952853703653893,0.653616270026023,0.010944443041425672,0.006077567901882365
314,0.0202034657525912,0.037739911852657154,-0.01360815344025062,0.013917034351226156,0.028043026256151512,0.020951646111965153,0.21016193444267442,0.011952853703653893,0.653616270026023,0.010944443041425672,0.006077567901882365
315,0.0202034657525912,0.037739911852657154,-0.01360815344025062,0.013917034351226156,0.028043026256151512,0.020951646111965153,0.21016193444267442,0.011952853703653893,0.653616270026023,0.010944443041425672,0.006077567901882365
316,0.0202034657525912,0.037739911852657154,-0.01360815344025062,0.013917034351226156,0.028043026256151512,0.020951646111965153,0.21016193444267442,0.011952853703653893,0.653616270026023,0.010944443041425672,0.006077567901882365
317,0.0202034657525912,0.037739911852657154,-0.01360815344025062,0.013917034351226156,0.028043026256151512,0.020951646111965153,0.21016193444267442,0.011952853703653893,0.653616270026023,0.010944443041425672,0.006077567901882365
318,0.0202034657525912,0.037739911852657154,-0.01360815344025062,0.013917034351226156,0.028043026256151512,0.020951646111965153,0.21016193444267442,0.011952853703653893,0.653616270026023,0.010944443041425672,0.006077567901882365
319,0.0202034657525912,0.037739911852657154,-0.01360815344025062,0.013917034351226156,0.028043026256151512,0.020951646111965153,0.21016193444267442,0.011952853703653893,0.653616270026023,0.010944443041425672,0.006077567901882365
320,0.0202034657525912,0.037739911852657154,-0.01360815344025062,0.013917034351226156,0.028043026256151512,0.020951646111965153,0.21016193444267442,0.011952853703653893,0.653616270026023,0.010944443041425672,0.006077567901882365
321,0.0202034657525912,0.037739911852657154,-0.01360815344025062,0.013917034351226156,0.028043026256151512,0.020951646111965153,0.21016193444267442,0.011952853703653893,0.653616270026023,0.010944443041425672,0.006077567901882365
322,0.0202034657525912,0.037739911852657154,-0.01360815344025062,0.013917034351226156,0.028043026256151512,0.020951646111965153,0.21016193444267442,0.011952853703653893,0.653616270026023,0.010944443041425672,0.006077567901882365
323,0.0202034657525912,0.037739911852657154,-0.01360815344025062,0.013917034351226156,0.028043026256151512,0.020951646111965153,0.21016193444267442,0.011952853703653893,0.653616270026023,0.010944443041425672,0.006077567901882365
324,0.0202034657525912,0.037739911852657154,-0.01360815344025062,0.013917034351226156,0.028043026256151512,0.020951646111965153,0.21016193444267442,0.011952853703653893,0.653616270026023,0.010944443041425672,0.006077567901882365
325,0.0202034657525912,0.037739911852657154,-0.01360815344025062,0.013917034351226156,0.028043026256151512,0.020951646111965153,0.21016193444267442,0.011952853703653893,0.653616270026023,0.010944443041425672,0.006077567901882365
326,0.0202034657525912,0.037739911852657154,-0.01360815344025062,0.013917034351226156,0.028043026256151512,0.020951646111965153,0.21016193444267442,0.011952853703653893,0.653616270026023,0.010944443041425672,0.006077567901882365
327,0.0202034657525912,0.037739911852657154,-0.01360815344025062,0.013917034351226156,0.028043026256151512,0.020951646111965153,0.21016193444267442,0.011952853703653893,0.653616270026023,0.010944443041425672,0.006077567901882365
328,0.0202034657525912,0.037739911852657154,-0.01360815344025062,0.013917034351226156,0.028043026256151512,0.020951646111965153,0.21016193444267442,0.011952853703653893,0.653616270026023,0.010944443041425672,0.006077567901882365
329,0.0202034657525912,0.037739911852657154,-0.01360815344025062,0.013917034351226156,0.028043026256151512,0.020951646111965153,0.21016193444267442,0.011952853703653893,0.653616270026023,0.010944443041425672,0.006077567901882365
330,0.0202034657525912,0.037739911852657154,-0.01360815344025062,0.013917034351226156,0.028043026256151512,0.020951646111965153,0.21016193444267442,0.011952853703653893,0.653616270026023,0.010944443041425672,0.006077567901882365
331,0.0202034657525912,0.037739911852657154,-0.01360815344025062,0.013917034351226156,0.028043026256151512,0.020951646111965153,0.21016193444267442,0.011952853703653893,0.653616270026023,0.010944443041425672,0.006077567901882365
332,0.0202034657525912,0.037739911852657154,-0.01360815344025062,0.013917034351226156,0.028043026256151512,0.020951646111965153,0.21016193444267442,0.011952853703653893,0.653616270026023,0.010944443041425672,0.006077567901882365
333,0.0202034657525912,0.037739911852657154,-0.01360815344025062,0.013917034351226156,0.028043026256151512,0.020951646111965153,0.21016193444267442,0.011952853703653893,0.653616270026023,0.010944443041425672,0.006077567901882365
334,0.14356035313509244,0.03508153624559802,0.1196808773311707,-0.042948147057406225,0.11099938905683612,0.18599096037524435,-0.15738700856938298,0.5109241492836819,0.14556514809039905,0.048197586481977445,-0.09966484437321077
335,0.14356035313509244,0.03508153624559802,0.1196808773311707,-0.042948147057406225,0.11099938905683612,0.18599096037524435,-0.15738700856938298,0.5109241492836819,0.14556514809039905,0.048197586481977445,-0.09966484437321077
336,0.14356035313509244,0.03508153624559802,0.1196808773311707,-0.042948147057406225,0.11099938905683612,0.18599096037524435,-0.15738700856938298,0.5109241492836819,0.14556514809039905,0.048197586481977445,-0.09966484437321077
337,0.14356035313509244,0.03508153624559802,0.1196808773311707,-0.042948147057406225,0.11099938905683612,0.18599096037524435,-0.15738700856938298,0.5109241492836819,0.14556514809039905,0.048197586481977445,-0.09966484437321077
338,0.14356035313509244,0.03508153624559802,0.1196808773311707,-0.042948147057406225,0.11099938905683612,0.18599096037524435,-0.15738700856938298,0.5109241492836819,0.14556514809039905,0.048197586481977445,-0.09966484437321077
339,0.14356035313509244,0.03508153624559802,0.1196808773311707,-0.042948147057406225,0.11099938905683612,0.18599096037524435,-0.15738700856938298,0.5109241492836819,0.14556514809039905,0.048197586481977445,-0.09966484437321077
340,0.14356035313509244,0.03508153624559802,0.1196808773311707,-0.042948147057406225,0.11099938905683612,0.18599096037524435,-0.15738700856938298,0.5109241492836819,0.14556514809039905,0.048197586481977445,-0.09966484437321077
341,0.14356035313509244,0.03508153624559802,0.1196808773311707,-0.042948147057406225,0.11099938905683612,0.18599096037524435,-0.15738700856938298,0.5109241492836819,0.14556514809039905,0.048197586481977445,-0.09966484437321077
342,0.14356035313509244,0.03508153624559802,0.1196808773311707,-0.042948147057406225,0.11099938905683612,0.18599096037524435,-0.15738700856938298,0.5109241492836819,0.14556514809039905,0.048197586481977445,-0.09966484437321077
343,0.14356035313509244,0.03508153624559802,0.1196808773311707,-0.042948147057406225,0.11099938905683612,0.18599096037524435,-0.15738700856938298,0.5109241492836819,0.14556514809039905,0.048197586481977445,-0.09966484437321077
344,0.14356035313509244,0.03508153624559802,0.1196808773311707,-0.042948147057406225,0.11099938905683612,0.18599096037524435,-0.15738700856938298,0.5109241492836819,0.14556514809039905,0.048197586481977445,-0.09966484437321077
345,0.14356035313509244,0.03508153624559802,0.1196808773311707,-0.042948147057406225,0.11099938905683612,0.18599096037524435,-0.15738700856938298,0.5109241492836819,0.14556514809039905,0.048197586481977445,-0.09966484437321077
346,0.14356035313509244,0.03508153624559802,0.1196808773311707,-0.042948147057406225,0.11099938905683612,0.18599096037524435,-0.15738700856938298,0.5109241492836819,0.14556514809039905,0.048197586481977445,-0.09966484437321077
347,0.14356035313509244,0.03508153624559802,0.1196808773311707,-0.042948147057406225,0.11099938905683612,0.18599096037524435,-0.15738700856938298,0.5109241492836819,0.14556514809039905,0.048197586481977445,-0.09966484437321077
348,0.14356035313509244,0.03508153624559802,0.1196808773311707,-0.042948147057406225,0.11099938905683612,0.18599096037524435,-0.15738700856938298,0.5109241492836819,0.14556514809039905,0.048197586481977445,-0.09966484437321077
349,0.14356035313509244,0.03508153624559802,0.1196808773311707,-0.042948147057406225,0.11099938905683612,0.18599096037524435,-0.15738700856938298,0.5109241492836819,0.14556514809039905,0.048197586481977445,-0.09966484437321077
350,0.14356035313509244,0.03508153624559802,0.1196808773311707,-0.042948147057406225,0.11099938905683612,0.18599096037524435,-0.15738700856938298,0.5109241492836819,0.14556514809039905,0.048197586481977445,-0.09966484437321077
351,0.14356035313509244,0.03508153624559802,0.1196808773311707,-0.042948147057406225,0.11099938905683612,0.18599096037524435,-0.15738700856938298,0.5109241492836819,0.14556514809039905,0.048197586481977445,-0.09966484437321077
352,0.14356035313509244,0.03508153624559802,0.1196808773311707,-0.042948147057406225,0.11099938905683612,0.18599096037524435,-0.15738700856938298,0.5109241492836819,0.14556514809039905,0.048197586481977445,-0.09966484437321077
353,0.14356035313509244,0.03508153624559802,0.1196808773311707,-0.042948147057406225,0.11099938905683612,0.18599096037524435,-0.15738700856938298,0.5109241492836819,0.14556514809039905,0.048197586481977445,-0.09966484437321077
354,0.14356035313509244,0.03508153624559802,0.1196808773311707,-0.042948147057406225,0.11099938905683612,0.18599096037524435,-0.15738700856938298,0.5109241492836819,0.14556514809039905,0.048197586481977445,-0.09966484437321077
355,0.14356035313509244,0.03508153624559802,0.1196808773311707,-0.042948147057406225,0.11099938905683612,0.18599096037524435,-0.15738700856938298,0.5109241492836819,0.14556514809039905,0.048197586481977445,-0.09966484437321077
356,0.14356035313509244,0.03508153624559802,0.1196808773311707,-0.042948147057406225,0.11099938905683612,0.18599096037524435,-0.15738700856938298,0.5109241492836819,0.14556514809039905,0.048197586481977445,-0.09966484437321077
357,0.14356035313509244,0.03508153624559802,0.1196808773311707,-0.042948147057406225,0.11099938905683612,0.18599096037524435,-0.15738700856938298,0.5109241492836819,0.14556514809039905,0.048197586481977445,-0.09966484437321077
358,0.14356035313509244,0.03508153624559802,0.1196808773311707,-0.042948147057406225,0.11099938905683612,0.18599096037524435,-0.15738700856938298,0.5109241492836819,0.14556514809039905,0.048197586481977445,-0.09966484437321077
359,0.14356035313509244,0.03508153624559802,0.1196808773311707,-0.042948147057406225,0.11099938905683612,0.18599096037524435,-0.15738700856938298,0.5109241492836819,0.14556514809039905,0.048197586481977445,-0.09966484437321077
360,0.14356035313509244,0.03508153624559802,0.1196808773311707,-0.042948147057406225,0.11099938905683612,0.18599096037524435,-0.15738700856938298,0.5109241492836819,0.14556514809039905,0.048197586481977445,-0.09966484437321077
361,0.14356035313509244,0.03508153624559802,0.1196808773311707,-0.042948147057406225,0.11099938905683612,0.18599096037524435,-0.15738700856938298,0.5109241492836819,0.14556514809039905,0.048197586481977445,-0.09966484437321077
362,0.14356035313509244,0.03508153624559802,0.1196808773311707,-0.042948147057406225,0.11099938905683612,0.18599096037524435,-0.15738700856938298,0.5109241492836819,0.14556514809039905,0.048197586481977445,-0.09966484437321077
363,0.14356035313509244,0.03508153624559802,0.1196808773311707,-0.042948147057406225,0.11099938905683612,0.18599096037524435,-0.15738700856938298,0.5109241492836819,0.14556514809039905,0.048197586481977445,-0.09966484437321077
364,0.14356035313509244,0.03508153624559802,0.1196808773311707,-0.042948147057406225,0.11099938905683612,0.18599096037524435,-0.15738700856938298,0.5109241492836819,0.14556514809039905,0.048197586481977445,-0.09966484437321077
365,0.10224800884554697,0.11386788273669858,0.09539880980499908,0.03752842309914131,0.10421164165004371,0.2846340606248141,0.12188472873136284,0.08164197898124466,-0.29999999999999993,0.09314712845473495,0.2654373370714137
366,0.10224800884554697,0.11386788273669858,0.09539880980499908,0.03752842309914131,0.10421164165004371,0.2846340606248141,0.12188472873136284,0.08164197898124466,-0.29999999999999993,0.09314712845473495,0.2654373370714137
367,0.10224800884554697,0.11386788273669858,0.09539880980499908,0.03752842309914131,0.10421164165004371,0.2846340606248141,0.12188472873136284,0.08164197898124466,-0.29999999999999993,0.09314712845473495,0.2654373370714137
368,0.10224800884554697,0.11386788273669858,0.09539880980499908,0.03752842309914131,0.10421164165004371,0.2846340606248141,0.12188472873136284,0.08164197898124466,-0.29999999999999993,0.09314712845473495,0.2654373370714137
369,0.10224800884554697,0.11386788273669858,0.09539880980499908,0.03752842309914131,0.10421164165004371,0.2846340606248141,0.12188472873136284,0.08164197898124466,-0.29999999999999993,0.09314712845473495,0.2654373370714137
370,0.10224800884554697,0.11386788273669858,0.09539880980499908,0.03752842309914131,0.10421164165004371,0.2846340606248141,0.12188472873136284,0.08164197898124466,-0.29999999999999993,0.09314712845473495,0.2654373370714137
371,0.10224800884554697,0.11386788273669858,0.09539880980499908,0.03752842309914131,0.10421164165004371,0.2846340606248141,0.12188472873136284,0.08164197898124466,-0.29999999999999993,0.09314712845473495,0.2654373370714137
372,0.10224800884554697,0.11386788273669858,0.09539880980499908,0.03752842309914131,0.10421164165004371,0.2846340606248141,0.12188472873136284,0.08164197898124466,-0.29999999999999993,0.09314712845473495,0.2654373370714137
373,0.10224800884554697,0.11386788273669858,0.09539880980499908,0.03752842309914131,0.10421164165004371,0.2846340606248141,0.12188472873136284,0.08164197898124466,-0.29999999999999993,0.09314712845473495,0.2654373370714137
374,0.10224800884554697,0.11386788273669858,0.09539880980499908,0.03752842309914131,0.10421164165004371,0.2846340606248141,0.12188472873136284,0.08164197898124466,-0.29999999999999993,0.09314712845473495,0.2654373370714137
375,0.10224800884554697,0.11386788273669858,0.09539880980499908,0.03752842309914131,0.10421164165004371,0.2846340606248141,0.12188472873136284,0.08164197898124466,-0.29999999999999993,0.09314712845473495,0.2654373370714137
376,0.10224800884554697,0.11386788273669858,0.09539880980499908,0.03752842309914131,0.10421164165004371,0.2846340606248141,0.12188472873136284,0.08164197898124466,-0.29999999999999993,0.09314712845473495,0.2654373370714137
377,0.10224800884554697,0.11386788273669858,0.09539880980499908,0.03752842309914131,0.10421164165004371,0.2846340606248141,0.12188472873136284,0.08164197898124466,-0.29999999999999993,0.09314712845473495,0.2654373370714137
378,0.10224800884554697,0.11386788273669858,0.09539880980499908,0.03752842309914131,0.10421164165004371,0.2846340606248141,0.12188472873136284,0.08164197898124466,-0.29999999999999993,0.09314712845473495,0.2654373370714137
379,0.10224800884554697,0.11386788273669858,0.09539880980499908,0.03752842309914131,0.10421164165004371,0.2846340606248141,0.12188472873136284,0.08164197898124466,-0.29999999999999993,0.09314712845473495,0.2654373370714137
380,0.10224800884554697,0.11386788273669858,0.09539880980499908,0.03752842309914131,0.10421164165004371,0.2846340606248141,0.12188472873136284,0.08164197898124466,-0.29999999999999993,0.09314712845473495,0.2654373370714137
381,0.10224800884554697,0.11386788273669858,0.09539880980499908,0.03752842309914131,0.10421164165004371,0.2846340606248141,0.12188472873136284,0.08164197898124466,-0.29999999999999993,0.09314712845473495,0.2654373370714137
382,0.10224800884554697,0.11386788273669858,0.09539880980499908,0.03752842309914131,0.10421164165004371,0.2846340606248141,0.12188472873136284,0.08164197898124466,-0.29999999999999993,0.09314712845473495,0.2654373370714137
383,0.10224800884554697,0.11386788273669858,0.09539880980499908,0.03752842309914131,0.10421164165004371,0.2846340606248141,0.12188472873136284,0.08164197898124466,-0.29999999999999993,0.09314712845473495,0.2654373370714137
384,0.10224800884554697,0.11386788273669858,0.09539880980499908,0.03752842309914131,0.10421164165004371,0.2846340606248141,0.12188472873136284,0.08164197898124466,-0.29999999999999993,0.09314712845473495,0.2654373370714137
385,0.10224800884554697,0.11386788273669858,0.09539880980499908,0.03752842309914131,0.10421164165004371,0.2846340606248141,0.12188472873136284,0.08164197898124466,-0.29999999999999993,0.09314712845473495,0.2654373370714137
386,0.10224800884554697,0.11386788273669858,0.09539880980499908,0.03752842309914131,0.10421164165004371,0.2846340606248141,0.12188472873136284,0.08164197898124466,-0.29999999999999993,0.09314712845473495,0.2654373370714137
387,0.10224800884554697,0.11386788273669858,0.09539880980499908,0.03752842309914131,0.10421164165004371,0.2846340606248141,0.12188472873136284,0.08164197898124466,-0.29999999999999993,0.09314712845473495,0.2654373370714137
388,0.10224800884554697,0.11386788273669858,0.09539880980499908,0.03752842309914131,0.10421164165004371,0.2846340606248141,0.12188472873136284,0.08164197898124466,-0.29999999999999993,0.09314712845473495,0.2654373370714137
389,0.10224800884554697,0.11386788273669858,0.09539880980499908,0.03752842309914131,0.10421164165004371,0.2846340606248141,0.12188472873136284,0.08164197898124466,-0.29999999999999993,0.09314712845473495,0.2654373370714137
390,0.10224800884554697,0.11386788273669858,0.09539880980499908,0.03752842309914131,0.10421164165004371,0.2846340606248141,0.12188472873136284,0.08164197898124466,-0.29999999999999993,0.09314712845473495,0.2654373370714137
391,0.10224800884554697,0.11386788273669858,0.09539880980499908,0.03752842309914131,0.10421164165004371,0.2846340606248141,0.12188472873136284,0.08164197898124466,-0.29999999999999993,0.09314712845473495,0.2654373370714137
392,0.10224800884554697,0.11386788273669858,0.09539880980499908,0.03752842309914131,0.10421164165004371,0.2846340606248141,0.12188472873136284,0.08164197898124466,-0.29999999999999993,0.09314712845473495,0.2654373370714137
393,0.10224800884554697,0.11386788273669858,0.09539880980499908,0.03752842309914131,0.10421164165004371,0.2846340606248141,0.12188472873136284,0.08164197898124466,-0.29999999999999993,0.09314712845473495,0.2654373370714137
394,0.10224800884554697,0.11386788273669858,0.09539880980499908,0.03752842309914131,0.10421164165004371,0.2846340606248141,0.12188472873136284,0.08164197898124466,-0.29999999999999993,0.09314712845473495,0.2654373370714137
395,0.10224800884554697,0.11386788273669858,0.09539880980499908,0.03752842309914131,0.10421164165004371,0.2846340606248141,0.12188472873136284,0.08164197898124466,-0.29999999999999993,0.09314712845473495,0.2654373370714137
396,0.04723407169217882,0.022414070413809314,0.07597249181886699,0.05431150160385221,0.039345091198268976,0.04308723618399631,0.06608037480547023,0.03361493114449437,0.6088097597066915,0.10060485391275126,-0.09147438248037999
397,0.04723407169217882,0.022414070413809314,0.07597249181886699,0.05431150160385221,0.039345091198268976,0.04308723618399631,0.06608037480547023,0.03361493114449437,0.6088097597066915,0.10060485391275126,-0.09147438248037999
398,0.04723407169217882,0.022414070413809314,0.07597249181886699,0.05431150160385221,0.039345091198268976,0.04308723618399631,0.06608037480547023,0.03361493114449437,0.6088097597066915,0.10060485391275126,-0.09147438248037999
399,0.04723407169217882,0.022414070413809314,0.07597249181886699,0.05431150160385221,0.039345091198268976,0.04308723618399631,0.06608037480547023,0.03361493114449437,0.6088097597066915,0.10060485391275126,-0.09147438248037999
400,0.04723407169217882,0.022414070413809314,0.07597249181886699,0.05431150160385221,0.039345091198268976,0.04308723618399631,0.06608037480547023,0.03361493114449437,0.6088097597066915,0.10060485391275126,-0.09147438248037999
401,0.04723407169217882,0.022414070413809314,0.07597249181886699,0.05431150160385221,0.039345091198268976,0.04308723618399631,0.06608037480547023,0.03361493114449437,0.6088097597066915,0.10060485391275126,-0.09147438248037999
402,0.04723407169217882,0.022414070413809314,0.07597249181886699,0.05431150160385221,0.039345091198268976,0.04308723618399631,0.06608037480547023,0.03361493114449437,0.6088097597066915,0.10060485391275126,-0.09147438248037999
403,0.04723407169217882,0.022414070413809314,0.07597249181886699,0.05431150160385221,0.039345091198268976,0.04308723618399631,0.06608037480547023,0.03361493114449437,0.6088097597066915,0.10060485391275126,-0.09147438248037999
404,0.04723407169217882,0.022414070413809314,0.07597249181886699,0.05431150160385221,0.039345091198268976,0.04308723618399631,0.06608037480547023,0.03361493114449437,0.6088097597066915,0.10060485391275126,-0.09147438248037999
405,0.04723407169217882,0.022414070413809314,0.07597249181886699,0.05431150160385221,0.039345091198268976,0.04308723618399631,0.06608037480547023,0.03361493114449437,0.6088097597066915,0.10060485391275126,-0.09147438248037999
406,0.04723407169217882,0.022414070413809314,0.07597249181886699,0.05431150160385221,0.039345091198268976,0.04308723618399631,0.06608037480547023,0.03361493114449437,0.6088097597066915,0.10060485391275126,-0.09147438248037999
407,0.04723407169217882,0.022414070413809314,0.07597249181886699,0.05431150160385221,0.039345091198268976,0.04308723618399631,0.06608037480547023,0.03361493114449437,0.6088097597066915,0.10060485391275126,-0.09147438248037999
408,0.04723407169217882,0.022414070413809314,0.07597249181886699,0.05431150160385221,0.039345091198268976,0.04308723618399631,0.06608037480547023,0.03361493114449437,0.6088097597066915,0.10060485391275126,-0.09147438248037999
409,0.04723407169217882,0.022414070413809314,0.07597249181886699,0.05431150160385221,0.039345091198268976,0.04308723618399631,0.06608037480547023,0.03361493114449437,0.6088097597066915,0.10060485391275126,-0.09147438248037999
410,0.04723407169217882,0.022414070413809314,0.07597249181886699,0.05431150160385221,0.039345091198268976,0.04308723618399631,0.06608037480547023,0.03361493114449437,0.6088097597066915,0.10060485391275126,-0.09147438248037999
411,0.04723407169217882,0.022414070413809314,0.07597249181886699,0.05431150160385221,0.039345091198268976,0.04308723618399631,0.06608037480547023,0.03361493114449437,0.6088097597066915,0.10060485391275126,-0.09147438248037999
412,0.04723407169217882,0.022414070413809314,0.07597249181886699,0.05431150160385221,0.039345091198268976,0.04308723618399631,0.06608037480547023,0.03361493114449437,0.6088097597066915,0.10060485391275126,-0.09147438248037999
413,0.04723407169217882,0.022414070413809314,0.07597249181886699,0.05431150160385221,0.039345091198268976,0.04308723618399631,0.06608037480547023,0.03361493114449437,0.6088097597066915,0.10060485391275126,-0.09147438248037999
414,0.04723407169217882,0.022414070413809314,0.07597249181886699,0.05431150160385221,0.039345091198268976,0.04308723618399631,0.06608037480547023,0.03361493114449437,0.6088097597066915,0.10060485391275126,-0.09147438248037999
415,0.04723407169217882,0.022414070413809314,0.07597249181886699,0.05431150160385221,0.039345091198268976,0.04308723618399631,0.06608037480547023,0.03361493114449437,0.6088097597066915,0.10060485391275126,-0.09147438248037999
416,0.04723407169217882,0.022414070413809314,0.07597249181886699,0.05431150160385221,0.039345091198268976,0.04308723618399631,0.06608037480547023,0.03361493114449437,0.6088097597066915,0.10060485391275126,-0.09147438248037999
417,0.04723407169217882,0.022414070413809314,0.07597249181886699,0.05431150160385221,0.039345091198268976,0.04308723618399631,0.06608037480547023,0.03361493114449437,0.6088097597066915,0.10060485391275126,-0.09147438248037999
418,0.04723407169217882,0.022414070413809314,0.07597249181886699,0.05431150160385221,0.039345091198268976,0.04308723618399631,0.06608037480547023,0.03361493114449437,0.6088097597066915,0.10060485391275126,-0.09147438248037999
419,0.04723407169217882,0.022414070413809314,0.07597249181886699,0.05431150160385221,0.039345091198268976,0.04308723618399631,0.06608037480547023,0.03361493114449437,0.6088097597066915,0.10060485391275126,-0.09147438248037999
420,0.04723407169217882,0.022414070413809314,0.07597249181886699,0.05431150160385221,0.039345091198268976,0.04308723618399631,0.06608037480547023,0.03361493114449437,0.6088097597066915,0.10060485391275126,-0.09147438248037999
421,0.04723407169217882,0.022414070413809314,0.07597249181886699,0.05431150160385221,0.039345091198268976,0.04308723618399631,0.06608037480547023,0.03361493114449437,0.6088097597066915,0.10060485391275126,-0.09147438248037999
422,0.04723407169217882,0.022414070413809314,0.07597249181886699,0.05431150160385221,0.039345091198268976,0.04308723618399631,0.06608037480547023,0.03361493114449437,0.6088097597066915,0.10060485391275126,-0.09147438248037999
423,0.04723407169217882,0.022414070413809314,0.07597249181886699,0.05431150160385221,0.039345091198268976,0.04308723618399631,0.06608037480547023,0.03361493114449437,0.6088097597066915,0.10060485391275126,-0.09147438248037999
424,0.03059387337232572,0.026462682157368085,0.10343546420176954,0.39536850734214146,0.03781611166566622,0.033374096571885815,0.03180787706204499,0.03119843682689823,0.21274805616179757,0.04391472928660935,0.053280165351493075
425,0.03059387337232572,0.026462682157368085,0.10343546420176954,0.39536850734214146,0.03781611166566622,0.033374096571885815,0.03180787706204499,0.03119843682689823,0.21274805616179757,0.04391472928660935,0.053280165351493075
426,0.03059387337232572,0.026462682157368085,0.10343546420176954,0.39536850734214146,0.03781611166566622,0.033374096571885815,0.03180787706204499,0.03119843682689823,0.21274805616179757,0.04391472928660935,0.053280165351493075
427,0.03059387337232572,0.026462682157368085,0.10343546420176954,0.39536850734214146,0.03781611166566622,0.033374096571885815,0.03180787706204499,0.03119843682689823,0.21274805616179757,0.04391472928660935,0.053280165351493075
428,0.03059387337232572,0.026462682157368085,0.10343546420176954,0.39536850734214146,0.03781611166566622,0.033374096571885815,0.03180787706204499,0.03119843682689823,0.21274805616179757,0.04391472928660935,0.053280165351493075
429,0.03059387337232572,0.026462682157368085,0.10343546420176954,0.39536850734214146,0.03781611166566622,0.033374096571885815,0.03180787706204499,0.03119843682689823,0.21274805616179757,0.04391472928660935,0.053280165351493075
430,0.03059387337232572,0.026462682157368085,0.10343546420176954,0.39536850734214146,0.03781611166566622,0.033374096571885815,0.03180787706204499,0.03119843682689823,0.21274805616179757,0.04391472928660935,0.053280165351493075
431,0.03059387337232572,0.026462682157368085,0.10343546420176954,0.39536850734214146,0.03781611166566622,0.033374096571885815,0.03180787706204499,0.03119843682689823,0.21274805616179757,0.04391472928660935,0.053280165351493075
432,0.03059387337232572,0.026462682157368085,0.10343546420176954,0.39536850734214146,0.03781611166566622,0.033374096571885815,0.03180787706204499,0.03119843682689823,0.21274805616179757,0.04391472928660935,0.053280165351493075
433,0.03059387337232572,0.026462682157368085,0.10343546420176954,0.39536850734214146,0.03781611166566622,0.033374096571885815,0.03180787706204499,0.03119843682689823,0.21274805616179757,0.04391472928660935,0.053280165351493075
434,0.03059387337232572,0.026462682157368085,0.10343546420176954,0.39536850734214146,0.03781611166566622,0.033374096571885815,0.03180787706204499,0.03119843682689823,0.21274805616179757,0.04391472928660935,0.053280165351493075
435,0.03059387337232572,0.026462682157368085,0.10343546420176954,0.39536850734214146,0.03781611166566622,0.033374096571885815,0.03180787706204499,0.03119843682689823,0.21274805616179757,0.04391472928660935,0.053280165351493075
436,0.03059387337232572,0.026462682157368085,0.10343546420176954,0.39536850734214146,0.03781611166566622,0.033374096571885815,0.03180787706204499,0.03119843682689823,0.21274805616179757,0.04391472928660935,0.053280165351493075
437,0.03059387337232572,0.026462682157368085,0.10343546420176954,0.39536850734214146,0.03781611166566622,0.033374096571885815,0.03180787706204499,0.03119843682689823,0.21274805616179757,0.04391472928660935,0.053280165351493075
438,0.03059387337232572,0.026462682157368085,0.10343546420176954,0.39536850734214146,0.03781611166566622,0.033374096571885815,0.03180787706204499,0.03119843682689823,0.21274805616179757,0.04391472928660935,0.053280165351493075
439,0.03059387337232572,0.026462682157368085,0.10343546420176954,0.39536850734214146,0.03781611166566622,0.033374096571885815,0.03180787706204499,0.03119843682689823,0.21274805616179757,0.04391472928660935,0.053280165351493075
440,0.03059387337232572,0.026462682157368085,0.10343546420176954,0.39536850734214146,0.03781611166566622,0.033374096571885815,0.03180787706204499,0.03119843682689823,0.21274805616179757,0.04391472928660935,0.053280165351493075
441,0.03059387337232572,0.026462682157368085,0.10343546420176954,0.39536850734214146,0.03781611166566622,0.033374096571885815,0.03180787706204499,0.03119843682689823,0.21274805616179757,0.04391472928660935,0.053280165351493075
