,0,1,2,3,4,5,6,7,8,9,10
0,0.02842857015543397,0.051078796193485106,0.20191489883935676,0.050608409659514235,0.20876394173873616,0.08602166147593651,0.09145722945581708,0.03568868744659328,0.35258495003992557,0.08482643634433228,-0.19137358134913102
1,0.02842857015543397,0.051078796193485106,0.20191489883935676,0.050608409659514235,0.20876394173873616,0.08602166147593651,0.09145722945581708,0.03568868744659328,0.35258495003992557,0.08482643634433228,-0.19137358134913102
2,0.02842857015543397,0.051078796193485106,0.20191489883935676,0.050608409659514235,0.20876394173873616,0.08602166147593651,0.09145722945581708,0.03568868744659328,0.35258495003992557,0.08482643634433228,-0.19137358134913102
3,0.02842857015543397,0.051078796193485106,0.20191489883935676,0.050608409659514235,0.20876394173873616,0.08602166147593651,0.09145722945581708,0.03568868744659328,0.35258495003992557,0.08482643634433228,-0.19137358134913102
4,0.02842857015543397,0.051078796193485106,0.20191489883935676,0.050608409659514235,0.20876394173873616,0.08602166147593651,0.09145722945581708,0.03568868744659328,0.35258495003992557,0.08482643634433228,-0.19137358134913102
5,0.02842857015543397,0.051078796193485106,0.20191489883935676,0.050608409659514235,0.20876394173873616,0.08602166147593651,0.09145722945581708,0.03568868744659328,0.35258495003992557,0.08482643634433228,-0.19137358134913102
6,0.02842857015543397,0.051078796193485106,0.20191489883935676,0.050608409659514235,0.20876394173873616,0.08602166147593651,0.09145722945581708,0.03568868744659328,0.35258495003992557,0.08482643634433228,-0.19137358134913102
7,0.02842857015543397,0.051078796193485106,0.20191489883935676,0.050608409659514235,0.20876394173873616,0.08602166147593651,0.09145722945581708,0.03568868744659328,0.35258495003992557,0.08482643634433228,-0.19137358134913102
8,0.02842857015543397,0.051078796193485106,0.20191489883935676,0.050608409659514235,0.20876394173873616,0.08602166147593651,0.09145722945581708,0.03568868744659328,0.35258495003992557,0.08482643634433228,-0.19137358134913102
9,0.02842857015543397,0.051078796193485106,0.20191489883935676,0.050608409659514235,0.20876394173873616,0.08602166147593651,0.09145722945581708,0.03568868744659328,0.35258495003992557,0.08482643634433228,-0.19137358134913102
10,0.02842857015543397,0.051078796193485106,0.20191489883935676,0.050608409659514235,0.20876394173873616,0.08602166147593651,0.09145722945581708,0.03568868744659328,0.35258495003992557,0.08482643634433228,-0.19137358134913102
11,0.02842857015543397,0.051078796193485106,0.20191489883935676,0.050608409659514235,0.20876394173873616,0.08602166147593651,0.09145722945581708,0.03568868744659328,0.35258495003992557,0.08482643634433228,-0.19137358134913102
12,0.02842857015543397,0.051078796193485106,0.20191489883935676,0.050608409659514235,0.20876394173873616,0.08602166147593651,0.09145722945581708,0.03568868744659328,0.35258495003992557,0.08482643634433228,-0.19137358134913102
13,0.02842857015543397,0.051078796193485106,0.20191489883935676,0.050608409659514235,0.20876394173873616,0.08602166147593651,0.09145722945581708,0.03568868744659328,0.35258495003992557,0.08482643634433228,-0.19137358134913102
14,0.02842857015543397,0.051078796193485106,0.20191489883935676,0.050608409659514235,0.20876394173873616,0.08602166147593651,0.09145722945581708,0.03568868744659328,0.35258495003992557,0.08482643634433228,-0.19137358134913102
15,0.02842857015543397,0.051078796193485106,0.20191489883935676,0.050608409659514235,0.20876394173873616,0.08602166147593651,0.09145722945581708,0.03568868744659328,0.35258495003992557,0.08482643634433228,-0.19137358134913102
16,0.02842857015543397,0.051078796193485106,0.20191489883935676,0.050608409659514235,0.20876394173873616,0.08602166147593651,0.09145722945581708,0.03568868744659328,0.35258495003992557,0.08482643634433228,-0.19137358134913102
17,0.02842857015543397,0.051078796193485106,0.20191489883935676,0.050608409659514235,0.20876394173873616,0.08602166147593651,0.09145722945581708,0.03568868744659328,0.35258495003992557,0.08482643634433228,-0.19137358134913102
18,0.02842857015543397,0.051078796193485106,0.20191489883935676,0.050608409659514235,0.20876394173873616,0.08602166147593651,0.09145722945581708,0.03568868744659328,0.35258495003992557,0.08482643634433228,-0.19137358134913102
19,0.02842857015543397,0.051078796193485106,0.20191489883935676,0.050608409659514235,0.20876394173873616,0.08602166147593651,0.09145722945581708,0.03568868744659328,0.35258495003992557,0.08482643634433228,-0.19137358134913102
20,0.02842857015543397,0.051078796193485106,0.20191489883935676,0.050608409659514235,0.20876394173873616,0.08602166147593651,0.09145722945581708,0.03568868744659328,0.35258495003992557,0.08482643634433228,-0.19137358134913102
21,0.02842857015543397,0.051078796193485106,0.20191489883935676,0.050608409659514235,0.20876394173873616,0.08602166147593651,0.09145722945581708,0.03568868744659328,0.35258495003992557,0.08482643634433228,-0.19137358134913102
22,0.02842857015543397,0.051078796193485106,0.20191489883935676,0.050608409659514235,0.20876394173873616,0.08602166147593651,0.09145722945581708,0.03568868744659328,0.35258495003992557,0.08482643634433228,-0.19137358134913102
23,0.02842857015543397,0.051078796193485106,0.20191489883935676,0.050608409659514235,0.20876394173873616,0.08602166147593651,0.09145722945581708,0.03568868744659328,0.35258495003992557,0.08482643634433228,-0.19137358134913102
24,0.02842857015543397,0.051078796193485106,0.20191489883935676,0.050608409659514235,0.20876394173873616,0.08602166147593651,0.09145722945581708,0.03568868744659328,0.35258495003992557,0.08482643634433228,-0.19137358134913102
25,0.02842857015543397,0.051078796193485106,0.20191489883935676,0.050608409659514235,0.20876394173873616,0.08602166147593651,0.09145722945581708,0.03568868744659328,0.35258495003992557,0.08482643634433228,-0.19137358134913102
26,0.02842857015543397,0.051078796193485106,0.20191489883935676,0.050608409659514235,0.20876394173873616,0.08602166147593651,0.09145722945581708,0.03568868744659328,0.35258495003992557,0.08482643634433228,-0.19137358134913102
27,0.02842857015543397,0.051078796193485106,0.20191489883935676,0.050608409659514235,0.20876394173873616,0.08602166147593651,0.09145722945581708,0.03568868744659328,0.35258495003992557,0.08482643634433228,-0.19137358134913102
28,0.02842857015543397,0.051078796193485106,0.20191489883935676,0.050608409659514235,0.20876394173873616,0.08602166147593651,0.09145722945581708,0.03568868744659328,0.35258495003992557,0.08482643634433228,-0.19137358134913102
29,0.02842857015543397,0.051078796193485106,0.20191489883935676,0.050608409659514235,0.20876394173873616,0.08602166147593651,0.09145722945581708,0.03568868744659328,0.35258495003992557,0.08482643634433228,-0.19137358134913102
30,0.02842857015543397,0.051078796193485106,0.20191489883935676,0.050608409659514235,0.20876394173873616,0.08602166147593651,0.09145722945581708,0.03568868744659328,0.35258495003992557,0.08482643634433228,-0.19137358134913102
31,0.07906695007563334,0.0971957686471176,-0.04703699151180025,0.028323386665509383,0.09972718582560382,0.11151557492437311,0.3131844841129844,0.07321146515445928,0.14263330669371818,0.0698612966336684,0.03231757277873279
32,0.07906695007563334,0.0971957686471176,-0.04703699151180025,0.028323386665509383,0.09972718582560382,0.11151557492437311,0.3131844841129844,0.07321146515445928,0.14263330669371818,0.0698612966336684,0.03231757277873279
33,0.07906695007563334,0.0971957686471176,-0.04703699151180025,0.028323386665509383,0.09972718582560382,0.11151557492437311,0.3131844841129844,0.07321146515445928,0.14263330669371818,0.0698612966336684,0.03231757277873279
34,0.07906695007563334,0.0971957686471176,-0.04703699151180025,0.028323386665509383,0.09972718582560382,0.11151557492437311,0.3131844841129844,0.07321146515445928,0.14263330669371818,0.0698612966336684,0.03231757277873279
35,0.07906695007563334,0.0971957686471176,-0.04703699151180025,0.028323386665509383,0.09972718582560382,0.11151557492437311,0.3131844841129844,0.07321146515445928,0.14263330669371818,0.0698612966336684,0.03231757277873279
36,0.07906695007563334,0.0971957686471176,-0.04703699151180025,0.028323386665509383,0.09972718582560382,0.11151557492437311,0.3131844841129844,0.07321146515445928,0.14263330669371818,0.0698612966336684,0.03231757277873279
37,0.07906695007563334,0.0971957686471176,-0.04703699151180025,0.028323386665509383,0.09972718582560382,0.11151557492437311,0.3131844841129844,0.07321146515445928,0.14263330669371818,0.0698612966336684,0.03231757277873279
38,0.07906695007563334,0.0971957686471176,-0.04703699151180025,0.028323386665509383,0.09972718582560382,0.11151557492437311,0.3131844841129844,0.07321146515445928,0.14263330669371818,0.0698612966336684,0.03231757277873279
39,0.07906695007563334,0.0971957686471176,-0.04703699151180025,0.028323386665509383,0.09972718582560382,0.11151557492437311,0.3131844841129844,0.07321146515445928,0.14263330669371818,0.0698612966336684,0.03231757277873279
40,0.07906695007563334,0.0971957686471176,-0.04703699151180025,0.028323386665509383,0.09972718582560382,0.11151557492437311,0.3131844841129844,0.07321146515445928,0.14263330669371818,0.0698612966336684,0.03231757277873279
41,0.07906695007563334,0.0971957686471176,-0.04703699151180025,0.028323386665509383,0.09972718582560382,0.11151557492437311,0.3131844841129844,0.07321146515445928,0.14263330669371818,0.0698612966336684,0.03231757277873279
42,0.07906695007563334,0.0971957686471176,-0.04703699151180025,0.028323386665509383,0.09972718582560382,0.11151557492437311,0.3131844841129844,0.07321146515445928,0.14263330669371818,0.0698612966336684,0.03231757277873279
43,0.07906695007563334,0.0971957686471176,-0.04703699151180025,0.028323386665509383,0.09972718582560382,0.11151557492437311,0.3131844841129844,0.07321146515445928,0.14263330669371818,0.0698612966336684,0.03231757277873279
44,0.07906695007563334,0.0971957686471176,-0.04703699151180025,0.028323386665509383,0.09972718582560382,0.11151557492437311,0.3131844841129844,0.07321146515445928,0.14263330669371818,0.0698612966336684,0.03231757277873279
45,0.07906695007563334,0.0971957686471176,-0.04703699151180025,0.028323386665509383,0.09972718582560382,0.11151557492437311,0.3131844841129844,0.07321146515445928,0.14263330669371818,0.0698612966336684,0.03231757277873279
46,0.07906695007563334,0.0971957686471176,-0.04703699151180025,0.028323386665509383,0.09972718582560382,0.11151557492437311,0.3131844841129844,0.07321146515445928,0.14263330669371818,0.0698612966336684,0.03231757277873279
47,0.07906695007563334,0.0971957686471176,-0.04703699151180025,0.028323386665509383,0.09972718582560382,0.11151557492437311,0.3131844841129844,0.07321146515445928,0.14263330669371818,0.0698612966336684,0.03231757277873279
48,0.07906695007563334,0.0971957686471176,-0.04703699151180025,0.028323386665509383,0.09972718582560382,0.11151557492437311,0.3131844841129844,0.07321146515445928,0.14263330669371818,0.0698612966336684,0.03231757277873279
49,0.07906695007563334,0.0971957686471176,-0.04703699151180025,0.028323386665509383,0.09972718582560382,0.11151557492437311,0.3131844841129844,0.07321146515445928,0.14263330669371818,0.0698612966336684,0.03231757277873279
50,0.07906695007563334,0.0971957686471176,-0.04703699151180025,0.028323386665509383,0.09972718582560382,0.11151557492437311,0.3131844841129844,0.07321146515445928,0.14263330669371818,0.0698612966336684,0.03231757277873279
51,0.07906695007563334,0.0971957686471176,-0.04703699151180025,0.028323386665509383,0.09972718582560382,0.11151557492437311,0.3131844841129844,0.07321146515445928,0.14263330669371818,0.0698612966336684,0.03231757277873279
52,0.07906695007563334,0.0971957686471176,-0.04703699151180025,0.028323386665509383,0.09972718582560382,0.11151557492437311,0.3131844841129844,0.07321146515445928,0.14263330669371818,0.0698612966336684,0.03231757277873279
53,0.07906695007563334,0.0971957686471176,-0.04703699151180025,0.028323386665509383,0.09972718582560382,0.11151557492437311,0.3131844841129844,0.07321146515445928,0.14263330669371818,0.0698612966336684,0.03231757277873279
54,0.07906695007563334,0.0971957686471176,-0.04703699151180025,0.028323386665509383,0.09972718582560382,0.11151557492437311,0.3131844841129844,0.07321146515445928,0.14263330669371818,0.0698612966336684,0.03231757277873279
55,0.07906695007563334,0.0971957686471176,-0.04703699151180025,0.028323386665509383,0.09972718582560382,0.11151557492437311,0.3131844841129844,0.07321146515445928,0.14263330669371818,0.0698612966336684,0.03231757277873279
56,0.07906695007563334,0.0971957686471176,-0.04703699151180025,0.028323386665509383,0.09972718582560382,0.11151557492437311,0.3131844841129844,0.07321146515445928,0.14263330669371818,0.0698612966336684,0.03231757277873279
57,0.07906695007563334,0.0971957686471176,-0.04703699151180025,0.028323386665509383,0.09972718582560382,0.11151557492437311,0.3131844841129844,0.07321146515445928,0.14263330669371818,0.0698612966336684,0.03231757277873279
58,0.07906695007563334,0.0971957686471176,-0.04703699151180025,0.028323386665509383,0.09972718582560382,0.11151557492437311,0.3131844841129844,0.07321146515445928,0.14263330669371818,0.0698612966336684,0.03231757277873279
59,-0.13698763190858795,-0.06758020130124401,0.21651025802010418,0.7322145813427022,0.045995190804340655,-0.055023756409451126,0.1090954751795486,-0.04040841038071689,0.05282707653911183,0.05053906389591575,0.09281835421827679
60,-0.13698763190858795,-0.06758020130124401,0.21651025802010418,0.7322145813427022,0.045995190804340655,-0.055023756409451126,0.1090954751795486,-0.04040841038071689,0.05282707653911183,0.05053906389591575,0.09281835421827679
61,-0.13698763190858795,-0.06758020130124401,0.21651025802010418,0.7322145813427022,0.045995190804340655,-0.055023756409451126,0.1090954751795486,-0.04040841038071689,0.05282707653911183,0.05053906389591575,0.09281835421827679
62,-0.13698763190858795,-0.06758020130124401,0.21651025802010418,0.7322145813427022,0.045995190804340655,-0.055023756409451126,0.1090954751795486,-0.04040841038071689,0.05282707653911183,0.05053906389591575,0.09281835421827679
63,-0.13698763190858795,-0.06758020130124401,0.21651025802010418,0.7322145813427022,0.045995190804340655,-0.055023756409451126,0.1090954751795486,-0.04040841038071689,0.05282707653911183,0.05053906389591575,0.09281835421827679
64,-0.13698763190858795,-0.06758020130124401,0.21651025802010418,0.7322145813427022,0.045995190804340655,-0.055023756409451126,0.1090954751795486,-0.04040841038071689,0.05282707653911183,0.05053906389591575,0.09281835421827679
65,-0.13698763190858795,-0.06758020130124401,0.21651025802010418,0.7322145813427022,0.045995190804340655,-0.055023756409451126,0.1090954751795486,-0.04040841038071689,0.05282707653911183,0.05053906389591575,0.09281835421827679
66,-0.13698763190858795,-0.06758020130124401,0.21651025802010418,0.7322145813427022,0.045995190804340655,-0.055023756409451126,0.1090954751795486,-0.04040841038071689,0.05282707653911183,0.05053906389591575,0.09281835421827679
67,-0.13698763190858795,-0.06758020130124401,0.21651025802010418,0.7322145813427022,0.045995190804340655,-0.055023756409451126,0.1090954751795486,-0.04040841038071689,0.05282707653911183,0.05053906389591575,0.09281835421827679
68,-0.13698763190858795,-0.06758020130124401,0.21651025802010418,0.7322145813427022,0.045995190804340655,-0.055023756409451126,0.1090954751795486,-0.04040841038071689,0.05282707653911183,0.05053906389591575,0.09281835421827679
69,-0.13698763190858795,-0.06758020130124401,0.21651025802010418,0.7322145813427022,0.045995190804340655,-0.055023756409451126,0.1090954751795486,-0.04040841038071689,0.05282707653911183,0.05053906389591575,0.09281835421827679
70,-0.13698763190858795,-0.06758020130124401,0.21651025802010418,0.7322145813427022,0.045995190804340655,-0.055023756409451126,0.1090954751795486,-0.04040841038071689,0.05282707653911183,0.05053906389591575,0.09281835421827679
71,-0.13698763190858795,-0.06758020130124401,0.21651025802010418,0.7322145813427022,0.045995190804340655,-0.055023756409451126,0.1090954751795486,-0.04040841038071689,0.05282707653911183,0.05053906389591575,0.09281835421827679
72,-0.13698763190858795,-0.06758020130124401,0.21651025802010418,0.7322145813427022,0.045995190804340655,-0.055023756409451126,0.1090954751795486,-0.04040841038071689,0.05282707653911183,0.05053906389591575,0.09281835421827679
73,-0.13698763190858795,-0.06758020130124401,0.21651025802010418,0.7322145813427022,0.045995190804340655,-0.055023756409451126,0.1090954751795486,-0.04040841038071689,0.05282707653911183,0.05053906389591575,0.09281835421827679
74,-0.13698763190858795,-0.06758020130124401,0.21651025802010418,0.7322145813427022,0.045995190804340655,-0.055023756409451126,0.1090954751795486,-0.04040841038071689,0.05282707653911183,0.05053906389591575,0.09281835421827679
75,-0.13698763190858795,-0.06758020130124401,0.21651025802010418,0.7322145813427022,0.045995190804340655,-0.055023756409451126,0.1090954751795486,-0.04040841038071689,0.05282707653911183,0.05053906389591575,0.09281835421827679
76,-0.13698763190858795,-0.06758020130124401,0.21651025802010418,0.7322145813427022,0.045995190804340655,-0.055023756409451126,0.1090954751795486,-0.04040841038071689,0.05282707653911183,0.05053906389591575,0.09281835421827679
77,-0.13698763190858795,-0.06758020130124401,0.21651025802010418,0.7322145813427022,0.045995190804340655,-0.055023756409451126,0.1090954751795486,-0.04040841038071689,0.05282707653911183,0.05053906389591575,0.09281835421827679
78,-0.13698763190858795,-0.06758020130124401,0.21651025802010418,0.7322145813427022,0.045995190804340655,-0.055023756409451126,0.1090954751795486,-0.04040841038071689,0.05282707653911183,0.05053906389591575,0.09281835421827679
79,-0.13698763190858795,-0.06758020130124401,0.21651025802010418,0.7322145813427022,0.045995190804340655,-0.055023756409451126,0.1090954751795486,-0.04040841038071689,0.05282707653911183,0.05053906389591575,0.09281835421827679
80,-0.13698763190858795,-0.06758020130124401,0.21651025802010418,0.7322145813427022,0.045995190804340655,-0.055023756409451126,0.1090954751795486,-0.04040841038071689,0.05282707653911183,0.05053906389591575,0.09281835421827679
81,-0.13698763190858795,-0.06758020130124401,0.21651025802010418,0.7322145813427022,0.045995190804340655,-0.055023756409451126,0.1090954751795486,-0.04040841038071689,0.05282707653911183,0.05053906389591575,0.09281835421827679
82,-0.13698763190858795,-0.06758020130124401,0.21651025802010418,0.7322145813427022,0.045995190804340655,-0.055023756409451126,0.1090954751795486,-0.04040841038071689,0.05282707653911183,0.05053906389591575,0.09281835421827679
83,-0.13698763190858795,-0.06758020130124401,0.21651025802010418,0.7322145813427022,0.045995190804340655,-0.055023756409451126,0.1090954751795486,-0.04040841038071689,0.05282707653911183,0.05053906389591575,0.09281835421827679
84,-0.13698763190858795,-0.06758020130124401,0.21651025802010418,0.7322145813427022,0.045995190804340655,-0.055023756409451126,0.1090954751795486,-0.04040841038071689,0.05282707653911183,0.05053906389591575,0.09281835421827679
85,-0.13698763190858795,-0.06758020130124401,0.21651025802010418,0.7322145813427022,0.045995190804340655,-0.055023756409451126,0.1090954751795486,-0.04040841038071689,0.05282707653911183,0.05053906389591575,0.09281835421827679
86,-0.13698763190858795,-0.06758020130124401,0.21651025802010418,0.7322145813427022,0.045995190804340655,-0.055023756409451126,0.1090954751795486,-0.04040841038071689,0.05282707653911183,0.05053906389591575,0.09281835421827679
87,-0.13698763190858795,-0.06758020130124401,0.21651025802010418,0.7322145813427022,0.045995190804340655,-0.055023756409451126,0.1090954751795486,-0.04040841038071689,0.05282707653911183,0.05053906389591575,0.09281835421827679
88,-0.13698763190858795,-0.06758020130124401,0.21651025802010418,0.7322145813427022,0.045995190804340655,-0.055023756409451126,0.1090954751795486,-0.04040841038071689,0.05282707653911183,0.05053906389591575,0.09281835421827679
89,-0.13698763190858795,-0.06758020130124401,0.21651025802010418,0.7322145813427022,0.045995190804340655,-0.055023756409451126,0.1090954751795486,-0.04040841038071689,0.05282707653911183,0.05053906389591575,0.09281835421827679
90,0.11234694707958061,0.07618815786907704,0.11552484248025452,0.10377957335788104,0.06427770932837094,0.17416268279622674,0.07942459217508106,0.11370537924873596,0.058923199554887416,0.20333595254606815,-0.10166903643616323
91,0.11234694707958061,0.07618815786907704,0.11552484248025452,0.10377957335788104,0.06427770932837094,0.17416268279622674,0.07942459217508106,0.11370537924873596,0.058923199554887416,0.20333595254606815,-0.10166903643616323
92,0.11234694707958061,0.07618815786907704,0.11552484248025452,0.10377957335788104,0.06427770932837094,0.17416268279622674,0.07942459217508106,0.11370537924873596,0.058923199554887416,0.20333595254606815,-0.10166903643616323
93,0.11234694707958061,0.07618815786907704,0.11552484248025452,0.10377957335788104,0.06427770932837094,0.17416268279622674,0.07942459217508106,0.11370537924873596,0.058923199554887416,0.20333595254606815,-0.10166903643616323
94,0.11234694707958061,0.07618815786907704,0.11552484248025452,0.10377957335788104,0.06427770932837094,0.17416268279622674,0.07942459217508106,0.11370537924873596,0.058923199554887416,0.20333595254606815,-0.10166903643616323
95,0.11234694707958061,0.07618815786907704,0.11552484248025452,0.10377957335788104,0.06427770932837094,0.17416268279622674,0.07942459217508106,0.11370537924873596,0.058923199554887416,0.20333595254606815,-0.10166903643616323
96,0.11234694707958061,0.07618815786907704,0.11552484248025452,0.10377957335788104,0.06427770932837094,0.17416268279622674,0.07942459217508106,0.11370537924873596,0.058923199554887416,0.20333595254606815,-0.10166903643616323
97,0.11234694707958061,0.07618815786907704,0.11552484248025452,0.10377957335788104,0.06427770932837094,0.17416268279622674,0.07942459217508106,0.11370537924873596,0.058923199554887416,0.20333595254606815,-0.10166903643616323
98,0.11234694707958061,0.07618815786907704,0.11552484248025452,0.10377957335788104,0.06427770932837094,0.17416268279622674,0.07942459217508106,0.11370537924873596,0.058923199554887416,0.20333595254606815,-0.10166903643616323
99,0.11234694707958061,0.07618815786907704,0.11552484248025452,0.10377957335788104,0.06427770932837094,0.17416268279622674,0.07942459217508106,0.11370537924873596,0.058923199554887416,0.20333595254606815,-0.10166903643616323
100,0.11234694707958061,0.07618815786907704,0.11552484248025452,0.10377957335788104,0.06427770932837094,0.17416268279622674,0.07942459217508106,0.11370537924873596,0.058923199554887416,0.20333595254606815,-0.10166903643616323
101,0.11234694707958061,0.07618815786907704,0.11552484248025452,0.10377957335788104,0.06427770932837094,0.17416268279622674,0.07942459217508106,0.11370537924873596,0.058923199554887416,0.20333595254606815,-0.10166903643616323
102,0.11234694707958061,0.07618815786907704,0.11552484248025452,0.10377957335788104,0.06427770932837094,0.17416268279622674,0.07942459217508106,0.11370537924873596,0.058923199554887416,0.20333595254606815,-0.10166903643616323
103,0.11234694707958061,0.07618815786907704,0.11552484248025452,0.10377957335788104,0.06427770932837094,0.17416268279622674,0.07942459217508106,0.11370537924873596,0.058923199554887416,0.20333595254606815,-0.10166903643616323
104,0.11234694707958061,0.07618815786907704,0.11552484248025452,0.10377957335788104,0.06427770932837094,0.17416268279622674,0.07942459217508106,0.11370537924873596,0.058923199554887416,0.20333595254606815,-0.10166903643616323
105,0.11234694707958061,0.07618815786907704,0.11552484248025452,0.10377957335788104,0.06427770932837094,0.17416268279622674,0.07942459217508106,0.11370537924873596,0.058923199554887416,0.20333595254606815,-0.10166903643616323
106,0.11234694707958061,0.07618815786907704,0.11552484248025452,0.10377957335788104,0.06427770932837094,0.17416268279622674,0.07942459217508106,0.11370537924873596,0.058923199554887416,0.20333595254606815,-0.10166903643616323
107,0.11234694707958061,0.07618815786907704,0.11552484248025452,0.10377957335788104,0.06427770932837094,0.17416268279622674,0.07942459217508106,0.11370537924873596,0.058923199554887416,0.20333595254606815,-0.10166903643616323
108,0.11234694707958061,0.07618815786907704,0.11552484248025452,0.10377957335788104,0.06427770932837094,0.17416268279622674,0.07942459217508106,0.11370537924873596,0.058923199554887416,0.20333595254606815,-0.10166903643616323
109,0.11234694707958061,0.07618815786907704,0.11552484248025452,0.10377957335788104,0.06427770932837094,0.17416268279622674,0.07942459217508106,0.11370537924873596,0.058923199554887416,0.20333595254606815,-0.10166903643616323
110,0.11234694707958061,0.07618815786907704,0.11552484248025452,0.10377957335788104,0.06427770932837094,0.17416268279622674,0.07942459217508106,0.11370537924873596,0.058923199554887416,0.20333595254606815,-0.10166903643616323
111,0.11234694707958061,0.07618815786907704,0.11552484248025452,0.10377957335788104,0.06427770932837094,0.17416268279622674,0.07942459217508106,0.11370537924873596,0.058923199554887416,0.20333595254606815,-0.10166903643616323
112,0.11234694707958061,0.07618815786907704,0.11552484248025452,0.10377957335788104,0.06427770932837094,0.17416268279622674,0.07942459217508106,0.11370537924873596,0.058923199554887416,0.20333595254606815,-0.10166903643616323
113,0.11234694707958061,0.07618815786907704,0.11552484248025452,0.10377957335788104,0.06427770932837094,0.17416268279622674,0.07942459217508106,0.11370537924873596,0.058923199554887416,0.20333595254606815,-0.10166903643616323
114,0.11234694707958061,0.07618815786907704,0.11552484248025452,0.10377957335788104,0.06427770932837094,0.17416268279622674,0.07942459217508106,0.11370537924873596,0.058923199554887416,0.20333595254606815,-0.10166903643616323
115,0.11234694707958061,0.07618815786907704,0.11552484248025452,0.10377957335788104,0.06427770932837094,0.17416268279622674,0.07942459217508106,0.11370537924873596,0.058923199554887416,0.20333595254606815,-0.10166903643616323
116,0.11234694707958061,0.07618815786907704,0.11552484248025452,0.10377957335788104,0.06427770932837094,0.17416268279622674,0.07942459217508106,0.11370537924873596,0.058923199554887416,0.20333595254606815,-0.10166903643616323
117,0.11234694707958061,0.07618815786907704,0.11552484248025452,0.10377957335788104,0.06427770932837094,0.17416268279622674,0.07942459217508106,0.11370537924873596,0.058923199554887416,0.20333595254606815,-0.10166903643616323
118,0.11234694707958061,0.07618815786907704,0.11552484248025452,0.10377957335788104,0.06427770932837094,0.17416268279622674,0.07942459217508106,0.11370537924873596,0.058923199554887416,0.20333595254606815,-0.10166903643616323
119,0.11234694707958061,0.07618815786907704,0.11552484248025452,0.10377957335788104,0.06427770932837094,0.17416268279622674,0.07942459217508106,0.11370537924873596,0.058923199554887416,0.20333595254606815,-0.10166903643616323
120,0.1105891472978419,0.030505693055201687,-0.15037226059684916,0.03457733428435428,0.1481398738521316,0.4785725134575406,0.0964263869769048,0.056163169972592124,0.040761828354153956,0.09545210504226453,0.05918420830386372
121,0.1105891472978419,0.030505693055201687,-0.15037226059684916,0.03457733428435428,0.1481398738521316,0.4785725134575406,0.0964263869769048,0.056163169972592124,0.040761828354153956,0.09545210504226453,0.05918420830386372
122,0.1105891472978419,0.030505693055201687,-0.15037226059684916,0.03457733428435428,0.1481398738521316,0.4785725134575406,0.0964263869769048,0.056163169972592124,0.040761828354153956,0.09545210504226453,0.05918420830386372
123,0.1105891472978419,0.030505693055201687,-0.15037226059684916,0.03457733428435428,0.1481398738521316,0.4785725134575406,0.0964263869769048,0.056163169972592124,0.040761828354153956,0.09545210504226453,0.05918420830386372
124,0.1105891472978419,0.030505693055201687,-0.15037226059684916,0.03457733428435428,0.1481398738521316,0.4785725134575406,0.0964263869769048,0.056163169972592124,0.040761828354153956,0.09545210504226453,0.05918420830386372
125,0.1105891472978419,0.030505693055201687,-0.15037226059684916,0.03457733428435428,0.1481398738521316,0.4785725134575406,0.0964263869769048,0.056163169972592124,0.040761828354153956,0.09545210504226453,0.05918420830386372
126,0.1105891472978419,0.030505693055201687,-0.15037226059684916,0.03457733428435428,0.1481398738521316,0.4785725134575406,0.0964263869769048,0.056163169972592124,0.040761828354153956,0.09545210504226453,0.05918420830386372
127,0.1105891472978419,0.030505693055201687,-0.15037226059684916,0.03457733428435428,0.1481398738521316,0.4785725134575406,0.0964263869769048,0.056163169972592124,0.040761828354153956,0.09545210504226453,0.05918420830386372
128,0.1105891472978419,0.030505693055201687,-0.15037226059684916,0.03457733428435428,0.1481398738521316,0.4785725134575406,0.0964263869769048,0.056163169972592124,0.040761828354153956,0.09545210504226453,0.05918420830386372
129,0.1105891472978419,0.030505693055201687,-0.15037226059684916,0.03457733428435428,0.1481398738521316,0.4785725134575406,0.0964263869769048,0.056163169972592124,0.040761828354153956,0.09545210504226453,0.05918420830386372
130,0.1105891472978419,0.030505693055201687,-0.15037226059684916,0.03457733428435428,0.1481398738521316,0.4785725134575406,0.0964263869769048,0.056163169972592124,0.040761828354153956,0.09545210504226453,0.05918420830386372
131,0.1105891472978419,0.030505693055201687,-0.15037226059684916,0.03457733428435428,0.1481398738521316,0.4785725134575406,0.0964263869769048,0.056163169972592124,0.040761828354153956,0.09545210504226453,0.05918420830386372
132,0.1105891472978419,0.030505693055201687,-0.15037226059684916,0.03457733428435428,0.1481398738521316,0.4785725134575406,0.0964263869769048,0.056163169972592124,0.040761828354153956,0.09545210504226453,0.05918420830386372
133,0.1105891472978419,0.030505693055201687,-0.15037226059684916,0.03457733428435428,0.1481398738521316,0.4785725134575406,0.0964263869769048,0.056163169972592124,0.040761828354153956,0.09545210504226453,0.05918420830386372
134,0.1105891472978419,0.030505693055201687,-0.15037226059684916,0.03457733428435428,0.1481398738521316,0.4785725134575406,0.0964263869769048,0.056163169972592124,0.040761828354153956,0.09545210504226453,0.05918420830386372
135,0.1105891472978419,0.030505693055201687,-0.15037226059684916,0.03457733428435428,0.1481398738521316,0.4785725134575406,0.0964263869769048,0.056163169972592124,0.040761828354153956,0.09545210504226453,0.05918420830386372
136,0.1105891472978419,0.030505693055201687,-0.15037226059684916,0.03457733428435428,0.1481398738521316,0.4785725134575406,0.0964263869769048,0.056163169972592124,0.040761828354153956,0.09545210504226453,0.05918420830386372
137,0.1105891472978419,0.030505693055201687,-0.15037226059684916,0.03457733428435428,0.1481398738521316,0.4785725134575406,0.0964263869769048,0.056163169972592124,0.040761828354153956,0.09545210504226453,0.05918420830386372
138,0.1105891472978419,0.030505693055201687,-0.15037226059684916,0.03457733428435428,0.1481398738521316,0.4785725134575406,0.0964263869769048,0.056163169972592124,0.040761828354153956,0.09545210504226453,0.05918420830386372
139,0.1105891472978419,0.030505693055201687,-0.15037226059684916,0.03457733428435428,0.1481398738521316,0.4785725134575406,0.0964263869769048,0.056163169972592124,0.040761828354153956,0.09545210504226453,0.05918420830386372
140,0.1105891472978419,0.030505693055201687,-0.15037226059684916,0.03457733428435428,0.1481398738521316,0.4785725134575406,0.0964263869769048,0.056163169972592124,0.040761828354153956,0.09545210504226453,0.05918420830386372
141,0.1105891472978419,0.030505693055201687,-0.15037226059684916,0.03457733428435428,0.1481398738521316,0.4785725134575406,0.0964263869769048,0.056163169972592124,0.040761828354153956,0.09545210504226453,0.05918420830386372
142,0.1105891472978419,0.030505693055201687,-0.15037226059684916,0.03457733428435428,0.1481398738521316,0.4785725134575406,0.0964263869769048,0.056163169972592124,0.040761828354153956,0.09545210504226453,0.05918420830386372
143,0.1105891472978419,0.030505693055201687,-0.15037226059684916,0.03457733428435428,0.1481398738521316,0.4785725134575406,0.0964263869769048,0.056163169972592124,0.040761828354153956,0.09545210504226453,0.05918420830386372
144,0.1105891472978419,0.030505693055201687,-0.15037226059684916,0.03457733428435428,0.1481398738521316,0.4785725134575406,0.0964263869769048,0.056163169972592124,0.040761828354153956,0.09545210504226453,0.05918420830386372
145,0.1105891472978419,0.030505693055201687,-0.15037226059684916,0.03457733428435428,0.1481398738521316,0.4785725134575406,0.0964263869769048,0.056163169972592124,0.040761828354153956,0.09545210504226453,0.05918420830386372
146,0.1105891472978419,0.030505693055201687,-0.15037226059684916,0.03457733428435428,0.1481398738521316,0.4785725134575406,0.0964263869769048,0.056163169972592124,0.040761828354153956,0.09545210504226453,0.05918420830386372
147,0.1105891472978419,0.030505693055201687,-0.15037226059684916,0.03457733428435428,0.1481398738521316,0.4785725134575406,0.0964263869769048,0.056163169972592124,0.040761828354153956,0.09545210504226453,0.05918420830386372
148,0.1105891472978419,0.030505693055201687,-0.15037226059684916,0.03457733428435428,0.1481398738521316,0.4785725134575406,0.0964263869769048,0.056163169972592124,0.040761828354153956,0.09545210504226453,0.05918420830386372
149,0.1105891472978419,0.030505693055201687,-0.15037226059684916,0.03457733428435428,0.1481398738521316,0.4785725134575406,0.0964263869769048,0.056163169972592124,0.040761828354153956,0.09545210504226453,0.05918420830386372
150,0.1105891472978419,0.030505693055201687,-0.15037226059684916,0.03457733428435428,0.1481398738521316,0.4785725134575406,0.0964263869769048,0.056163169972592124,0.040761828354153956,0.09545210504226453,0.05918420830386372
151,0.03436410446377431,0.026078798242312157,0.19323406200332066,0.16287183434885938,0.057240725531289297,0.06392170246538321,0.09863182431046366,0.02082191264219988,0.035642131416771416,0.10578539207709745,0.20140751249852842
152,0.03436410446377431,0.026078798242312157,0.19323406200332066,0.16287183434885938,0.057240725531289297,0.06392170246538321,0.09863182431046366,0.02082191264219988,0.035642131416771416,0.10578539207709745,0.20140751249852842
153,0.03436410446377431,0.026078798242312157,0.19323406200332066,0.16287183434885938,0.057240725531289297,0.06392170246538321,0.09863182431046366,0.02082191264219988,0.035642131416771416,0.10578539207709745,0.20140751249852842
154,0.03436410446377431,0.026078798242312157,0.19323406200332066,0.16287183434885938,0.057240725531289297,0.06392170246538321,0.09863182431046366,0.02082191264219988,0.035642131416771416,0.10578539207709745,0.20140751249852842
155,0.03436410446377431,0.026078798242312157,0.19323406200332066,0.16287183434885938,0.057240725531289297,0.06392170246538321,0.09863182431046366,0.02082191264219988,0.035642131416771416,0.10578539207709745,0.20140751249852842
156,0.03436410446377431,0.026078798242312157,0.19323406200332066,0.16287183434885938,0.057240725531289297,0.06392170246538321,0.09863182431046366,0.02082191264219988,0.035642131416771416,0.10578539207709745,0.20140751249852842
157,0.03436410446377431,0.026078798242312157,0.19323406200332066,0.16287183434885938,0.057240725531289297,0.06392170246538321,0.09863182431046366,0.02082191264219988,0.035642131416771416,0.10578539207709745,0.20140751249852842
158,0.03436410446377431,0.026078798242312157,0.19323406200332066,0.16287183434885938,0.057240725531289297,0.06392170246538321,0.09863182431046366,0.02082191264219988,0.035642131416771416,0.10578539207709745,0.20140751249852842
159,0.03436410446377431,0.026078798242312157,0.19323406200332066,0.16287183434885938,0.057240725531289297,0.06392170246538321,0.09863182431046366,0.02082191264219988,0.035642131416771416,0.10578539207709745,0.20140751249852842
160,0.03436410446377431,0.026078798242312157,0.19323406200332066,0.16287183434885938,0.057240725531289297,0.06392170246538321,0.09863182431046366,0.02082191264219988,0.035642131416771416,0.10578539207709745,0.20140751249852842
161,0.03436410446377431,0.026078798242312157,0.19323406200332066,0.16287183434885938,0.057240725531289297,0.06392170246538321,0.09863182431046366,0.02082191264219988,0.035642131416771416,0.10578539207709745,0.20140751249852842
162,0.03436410446377431,0.026078798242312157,0.19323406200332066,0.16287183434885938,0.057240725531289297,0.06392170246538321,0.09863182431046366,0.02082191264219988,0.035642131416771416,0.10578539207709745,0.20140751249852842
163,0.03436410446377431,0.026078798242312157,0.19323406200332066,0.16287183434885938,0.057240725531289297,0.06392170246538321,0.09863182431046366,0.02082191264219988,0.035642131416771416,0.10578539207709745,0.20140751249852842
164,0.03436410446377431,0.026078798242312157,0.19323406200332066,0.16287183434885938,0.057240725531289297,0.06392170246538321,0.09863182431046366,0.02082191264219988,0.035642131416771416,0.10578539207709745,0.20140751249852842
165,0.03436410446377431,0.026078798242312157,0.19323406200332066,0.16287183434885938,0.057240725531289297,0.06392170246538321,0.09863182431046366,0.02082191264219988,0.035642131416771416,0.10578539207709745,0.20140751249852842
166,0.03436410446377431,0.026078798242312157,0.19323406200332066,0.16287183434885938,0.057240725531289297,0.06392170246538321,0.09863182431046366,0.02082191264219988,0.035642131416771416,0.10578539207709745,0.20140751249852842
167,0.03436410446377431,0.026078798242312157,0.19323406200332066,0.16287183434885938,0.057240725531289297,0.06392170246538321,0.09863182431046366,0.02082191264219988,0.035642131416771416,0.10578539207709745,0.20140751249852842
168,0.03436410446377431,0.026078798242312157,0.19323406200332066,0.16287183434885938,0.057240725531289297,0.06392170246538321,0.09863182431046366,0.02082191264219988,0.035642131416771416,0.10578539207709745,0.20140751249852842
169,0.03436410446377431,0.026078798242312157,0.19323406200332066,0.16287183434885938,0.057240725531289297,0.06392170246538321,0.09863182431046366,0.02082191264219988,0.035642131416771416,0.10578539207709745,0.20140751249852842
170,0.03436410446377431,0.026078798242312157,0.19323406200332066,0.16287183434885938,0.057240725531289297,0.06392170246538321,0.09863182431046366,0.02082191264219988,0.035642131416771416,0.10578539207709745,0.20140751249852842
171,0.03436410446377431,0.026078798242312157,0.19323406200332066,0.16287183434885938,0.057240725531289297,0.06392170246538321,0.09863182431046366,0.02082191264219988,0.035642131416771416,0.10578539207709745,0.20140751249852842
172,0.03436410446377431,0.026078798242312157,0.19323406200332066,0.16287183434885938,0.057240725531289297,0.06392170246538321,0.09863182431046366,0.02082191264219988,0.035642131416771416,0.10578539207709745,0.20140751249852842
173,0.03436410446377431,0.026078798242312157,0.19323406200332066,0.16287183434885938,0.057240725531289297,0.06392170246538321,0.09863182431046366,0.02082191264219988,0.035642131416771416,0.10578539207709745,0.20140751249852842
174,0.03436410446377431,0.026078798242312157,0.19323406200332066,0.16287183434885938,0.057240725531289297,0.06392170246538321,0.09863182431046366,0.02082191264219988,0.035642131416771416,0.10578539207709745,0.20140751249852842
175,0.03436410446377431,0.026078798242312157,0.19323406200332066,0.16287183434885938,0.057240725531289297,0.06392170246538321,0.09863182431046366,0.02082191264219988,0.035642131416771416,0.10578539207709745,0.20140751249852842
176,0.03436410446377431,0.026078798242312157,0.19323406200332066,0.16287183434885938,0.057240725531289297,0.06392170246538321,0.09863182431046366,0.02082191264219988,0.035642131416771416,0.10578539207709745,0.20140751249852842
177,0.03436410446377431,0.026078798242312157,0.19323406200332066,0.16287183434885938,0.057240725531289297,0.06392170246538321,0.09863182431046366,0.02082191264219988,0.035642131416771416,0.10578539207709745,0.20140751249852842
178,0.03436410446377431,0.026078798242312157,0.19323406200332066,0.16287183434885938,0.057240725531289297,0.06392170246538321,0.09863182431046366,0.02082191264219988,0.035642131416771416,0.10578539207709745,0.20140751249852842
179,0.03436410446377431,0.026078798242312157,0.19323406200332066,0.16287183434885938,0.057240725531289297,0.06392170246538321,0.09863182431046366,0.02082191264219988,0.035642131416771416,0.10578539207709745,0.20140751249852842
180,0.03436410446377431,0.026078798242312157,0.19323406200332066,0.16287183434885938,0.057240725531289297,0.06392170246538321,0.09863182431046366,0.02082191264219988,0.035642131416771416,0.10578539207709745,0.20140751249852842
181,0.04772905605240421,0.5086409125615299,-0.20070659313047226,0.08902060349159145,-0.03451165628880625,0.11172475703560468,0.13442699484885215,0.18293011603378825,-0.04394124905551716,0.203785115453338,0.0009019429976870785
182,0.04772905605240421,0.5086409125615299,-0.20070659313047226,0.08902060349159145,-0.03451165628880625,0.11172475703560468,0.13442699484885215,0.18293011603378825,-0.04394124905551716,0.203785115453338,0.0009019429976870785
183,0.04772905605240421,0.5086409125615299,-0.20070659313047226,0.08902060349159145,-0.03451165628880625,0.11172475703560468,0.13442699484885215,0.18293011603378825,-0.04394124905551716,0.203785115453338,0.0009019429976870785
184,0.04772905605240421,0.5086409125615299,-0.20070659313047226,0.08902060349159145,-0.03451165628880625,0.11172475703560468,0.13442699484885215,0.18293011603378825,-0.04394124905551716,0.203785115453338,0.0009019429976870785
185,0.04772905605240421,0.5086409125615299,-0.20070659313047226,0.08902060349159145,-0.03451165628880625,0.11172475703560468,0.13442699484885215,0.18293011603378825,-0.04394124905551716,0.203785115453338,0.0009019429976870785
186,0.04772905605240421,0.5086409125615299,-0.20070659313047226,0.08902060349159145,-0.03451165628880625,0.11172475703560468,0.13442699484885215,0.18293011603378825,-0.04394124905551716,0.203785115453338,0.0009019429976870785
187,0.04772905605240421,0.5086409125615299,-0.20070659313047226,0.08902060349159145,-0.03451165628880625,0.11172475703560468,0.13442699484885215,0.18293011603378825,-0.04394124905551716,0.203785115453338,0.0009019429976870785
188,0.04772905605240421,0.5086409125615299,-0.20070659313047226,0.08902060349159145,-0.03451165628880625,0.11172475703560468,0.13442699484885215,0.18293011603378825,-0.04394124905551716,0.203785115453338,0.0009019429976870785
189,0.04772905605240421,0.5086409125615299,-0.20070659313047226,0.08902060349159145,-0.03451165628880625,0.11172475703560468,0.13442699484885215,0.18293011603378825,-0.04394124905551716,0.203785115453338,0.0009019429976870785
190,0.04772905605240421,0.5086409125615299,-0.20070659313047226,0.08902060349159145,-0.03451165628880625,0.11172475703560468,0.13442699484885215,0.18293011603378825,-0.04394124905551716,0.203785115453338,0.0009019429976870785
191,0.04772905605240421,0.5086409125615299,-0.20070659313047226,0.08902060349159145,-0.03451165628880625,0.11172475703560468,0.13442699484885215,0.18293011603378825,-0.04394124905551716,0.203785115453338,0.0009019429976870785
192,0.04772905605240421,0.5086409125615299,-0.20070659313047226,0.08902060349159145,-0.03451165628880625,0.11172475703560468,0.13442699484885215,0.18293011603378825,-0.04394124905551716,0.203785115453338,0.0009019429976870785
193,0.04772905605240421,0.5086409125615299,-0.20070659313047226,0.08902060349159145,-0.03451165628880625,0.11172475703560468,0.13442699484885215,0.18293011603378825,-0.04394124905551716,0.203785115453338,0.0009019429976870785
194,0.04772905605240421,0.5086409125615299,-0.20070659313047226,0.08902060349159145,-0.03451165628880625,0.11172475703560468,0.13442699484885215,0.18293011603378825,-0.04394124905551716,0.203785115453338,0.0009019429976870785
195,0.04772905605240421,0.5086409125615299,-0.20070659313047226,0.08902060349159145,-0.03451165628880625,0.11172475703560468,0.13442699484885215,0.18293011603378825,-0.04394124905551716,0.203785115453338,0.0009019429976870785
196,0.04772905605240421,0.5086409125615299,-0.20070659313047226,0.08902060349159145,-0.03451165628880625,0.11172475703560468,0.13442699484885215,0.18293011603378825,-0.04394124905551716,0.203785115453338,0.0009019429976870785
197,0.04772905605240421,0.5086409125615299,-0.20070659313047226,0.08902060349159145,-0.03451165628880625,0.11172475703560468,0.13442699484885215,0.18293011603378825,-0.04394124905551716,0.203785115453338,0.0009019429976870785
198,0.04772905605240421,0.5086409125615299,-0.20070659313047226,0.08902060349159145,-0.03451165628880625,0.11172475703560468,0.13442699484885215,0.18293011603378825,-0.04394124905551716,0.203785115453338,0.0009019429976870785
199,0.04772905605240421,0.5086409125615299,-0.20070659313047226,0.08902060349159145,-0.03451165628880625,0.11172475703560468,0.13442699484885215,0.18293011603378825,-0.04394124905551716,0.203785115453338,0.0009019429976870785
200,0.04772905605240421,0.5086409125615299,-0.20070659313047226,0.08902060349159145,-0.03451165628880625,0.11172475703560468,0.13442699484885215,0.18293011603378825,-0.04394124905551716,0.203785115453338,0.0009019429976870785
201,0.04772905605240421,0.5086409125615299,-0.20070659313047226,0.08902060349159145,-0.03451165628880625,0.11172475703560468,0.13442699484885215,0.18293011603378825,-0.04394124905551716,0.203785115453338,0.0009019429976870785
202,0.04772905605240421,0.5086409125615299,-0.20070659313047226,0.08902060349159145,-0.03451165628880625,0.11172475703560468,0.13442699484885215,0.18293011603378825,-0.04394124905551716,0.203785115453338,0.0009019429976870785
203,0.04772905605240421,0.5086409125615299,-0.20070659313047226,0.08902060349159145,-0.03451165628880625,0.11172475703560468,0.13442699484885215,0.18293011603378825,-0.04394124905551716,0.203785115453338,0.0009019429976870785
204,0.04772905605240421,0.5086409125615299,-0.20070659313047226,0.08902060349159145,-0.03451165628880625,0.11172475703560468,0.13442699484885215,0.18293011603378825,-0.04394124905551716,0.203785115453338,0.0009019429976870785
205,0.04772905605240421,0.5086409125615299,-0.20070659313047226,0.08902060349159145,-0.03451165628880625,0.11172475703560468,0.13442699484885215,0.18293011603378825,-0.04394124905551716,0.203785115453338,0.0009019429976870785
206,0.04772905605240421,0.5086409125615299,-0.20070659313047226,0.08902060349159145,-0.03451165628880625,0.11172475703560468,0.13442699484885215,0.18293011603378825,-0.04394124905551716,0.203785115453338,0.0009019429976870785
207,0.04772905605240421,0.5086409125615299,-0.20070659313047226,0.08902060349159145,-0.03451165628880625,0.11172475703560468,0.13442699484885215,0.18293011603378825,-0.04394124905551716,0.203785115453338,0.0009019429976870785
208,0.04772905605240421,0.5086409125615299,-0.20070659313047226,0.08902060349159145,-0.03451165628880625,0.11172475703560468,0.13442699484885215,0.18293011603378825,-0.04394124905551716,0.203785115453338,0.0009019429976870785
209,0.04772905605240421,0.5086409125615299,-0.20070659313047226,0.08902060349159145,-0.03451165628880625,0.11172475703560468,0.13442699484885215,0.18293011603378825,-0.04394124905551716,0.203785115453338,0.0009019429976870785
210,0.04772905605240421,0.5086409125615299,-0.20070659313047226,0.08902060349159145,-0.03451165628880625,0.11172475703560468,0.13442699484885215,0.18293011603378825,-0.04394124905551716,0.203785115453338,0.0009019429976870785
211,0.04772905605240421,0.5086409125615299,-0.20070659313047226,0.08902060349159145,-0.03451165628880625,0.11172475703560468,0.13442699484885215,0.18293011603378825,-0.04394124905551716,0.203785115453338,0.0009019429976870785
212,0.0873998437450823,0.04474003441923942,0.14201709439421129,0.15061745731593984,0.0815319856599792,0.139305422488641,0.06777685985397752,0.05749156567126115,0.06641331091943528,0.05608984923319992,0.10661657629903316
213,0.0873998437450823,0.04474003441923942,0.14201709439421129,0.15061745731593984,0.0815319856599792,0.139305422488641,0.06777685985397752,0.05749156567126115,0.06641331091943528,0.05608984923319992,0.10661657629903316
214,0.0873998437450823,0.04474003441923942,0.14201709439421129,0.15061745731593984,0.0815319856599792,0.139305422488641,0.06777685985397752,0.05749156567126115,0.06641331091943528,0.05608984923319992,0.10661657629903316
215,0.0873998437450823,0.04474003441923942,0.14201709439421129,0.15061745731593984,0.0815319856599792,0.139305422488641,0.06777685985397752,0.05749156567126115,0.06641331091943528,0.05608984923319992,0.10661657629903316
216,0.0873998437450823,0.04474003441923942,0.14201709439421129,0.15061745731593984,0.0815319856599792,0.139305422488641,0.06777685985397752,0.05749156567126115,0.06641331091943528,0.05608984923319992,0.10661657629903316
217,0.0873998437450823,0.04474003441923942,0.14201709439421129,0.15061745731593984,0.0815319856599792,0.139305422488641,0.06777685985397752,0.05749156567126115,0.06641331091943528,0.05608984923319992,0.10661657629903316
218,0.0873998437450823,0.04474003441923942,0.14201709439421129,0.15061745731593984,0.0815319856599792,0.139305422488641,0.06777685985397752,0.05749156567126115,0.06641331091943528,0.05608984923319992,0.10661657629903316
219,0.0873998437450823,0.04474003441923942,0.14201709439421129,0.15061745731593984,0.0815319856599792,0.139305422488641,0.06777685985397752,0.05749156567126115,0.06641331091943528,0.05608984923319992,0.10661657629903316
220,0.0873998437450823,0.04474003441923942,0.14201709439421129,0.15061745731593984,0.0815319856599792,0.139305422488641,0.06777685985397752,0.05749156567126115,0.06641331091943528,0.05608984923319992,0.10661657629903316
221,0.0873998437450823,0.04474003441923942,0.14201709439421129,0.15061745731593984,0.0815319856599792,0.139305422488641,0.06777685985397752,0.05749156567126115,0.06641331091943528,0.05608984923319992,0.10661657629903316
222,0.0873998437450823,0.04474003441923942,0.14201709439421129,0.15061745731593984,0.0815319856599792,0.139305422488641,0.06777685985397752,0.05749156567126115,0.06641331091943528,0.05608984923319992,0.10661657629903316
223,0.0873998437450823,0.04474003441923942,0.14201709439421129,0.15061745731593984,0.0815319856599792,0.139305422488641,0.06777685985397752,0.05749156567126115,0.06641331091943528,0.05608984923319992,0.10661657629903316
224,0.0873998437450823,0.04474003441923942,0.14201709439421129,0.15061745731593984,0.0815319856599792,0.139305422488641,0.06777685985397752,0.05749156567126115,0.06641331091943528,0.05608984923319992,0.10661657629903316
225,0.0873998437450823,0.04474003441923942,0.14201709439421129,0.15061745731593984,0.0815319856599792,0.139305422488641,0.06777685985397752,0.05749156567126115,0.06641331091943528,0.05608984923319992,0.10661657629903316
226,0.0873998437450823,0.04474003441923942,0.14201709439421129,0.15061745731593984,0.0815319856599792,0.139305422488641,0.06777685985397752,0.05749156567126115,0.06641331091943528,0.05608984923319992,0.10661657629903316
227,0.0873998437450823,0.04474003441923942,0.14201709439421129,0.15061745731593984,0.0815319856599792,0.139305422488641,0.06777685985397752,0.05749156567126115,0.06641331091943528,0.05608984923319992,0.10661657629903316
228,0.0873998437450823,0.04474003441923942,0.14201709439421129,0.15061745731593984,0.0815319856599792,0.139305422488641,0.06777685985397752,0.05749156567126115,0.06641331091943528,0.05608984923319992,0.10661657629903316
229,0.0873998437450823,0.04474003441923942,0.14201709439421129,0.15061745731593984,0.0815319856599792,0.139305422488641,0.06777685985397752,0.05749156567126115,0.06641331091943528,0.05608984923319992,0.10661657629903316
230,0.0873998437450823,0.04474003441923942,0.14201709439421129,0.15061745731593984,0.0815319856599792,0.139305422488641,0.06777685985397752,0.05749156567126115,0.06641331091943528,0.05608984923319992,0.10661657629903316
231,0.0873998437450823,0.04474003441923942,0.14201709439421129,0.15061745731593984,0.0815319856599792,0.139305422488641,0.06777685985397752,0.05749156567126115,0.06641331091943528,0.05608984923319992,0.10661657629903316
232,0.0873998437450823,0.04474003441923942,0.14201709439421129,0.15061745731593984,0.0815319856599792,0.139305422488641,0.06777685985397752,0.05749156567126115,0.06641331091943528,0.05608984923319992,0.10661657629903316
233,0.0873998437450823,0.04474003441923942,0.14201709439421129,0.15061745731593984,0.0815319856599792,0.139305422488641,0.06777685985397752,0.05749156567126115,0.06641331091943528,0.05608984923319992,0.10661657629903316
234,0.0873998437450823,0.04474003441923942,0.14201709439421129,0.15061745731593984,0.0815319856599792,0.139305422488641,0.06777685985397752,0.05749156567126115,0.06641331091943528,0.05608984923319992,0.10661657629903316
235,0.0873998437450823,0.04474003441923942,0.14201709439421129,0.15061745731593984,0.0815319856599792,0.139305422488641,0.06777685985397752,0.05749156567126115,0.06641331091943528,0.05608984923319992,0.10661657629903316
236,0.0873998437450823,0.04474003441923942,0.14201709439421129,0.15061745731593984,0.0815319856599792,0.139305422488641,0.06777685985397752,0.05749156567126115,0.06641331091943528,0.05608984923319992,0.10661657629903316
237,0.0873998437450823,0.04474003441923942,0.14201709439421129,0.15061745731593984,0.0815319856599792,0.139305422488641,0.06777685985397752,0.05749156567126115,0.06641331091943528,0.05608984923319992,0.10661657629903316
238,0.0873998437450823,0.04474003441923942,0.14201709439421129,0.15061745731593984,0.0815319856599792,0.139305422488641,0.06777685985397752,0.05749156567126115,0.06641331091943528,0.05608984923319992,0.10661657629903316
239,0.0873998437450823,0.04474003441923942,0.14201709439421129,0.15061745731593984,0.0815319856599792,0.139305422488641,0.06777685985397752,0.05749156567126115,0.06641331091943528,0.05608984923319992,0.10661657629903316
240,0.0873998437450823,0.04474003441923942,0.14201709439421129,0.15061745731593984,0.0815319856599792,0.139305422488641,0.06777685985397752,0.05749156567126115,0.06641331091943528,0.05608984923319992,0.10661657629903316
241,0.0873998437450823,0.04474003441923942,0.14201709439421129,0.15061745731593984,0.0815319856599792,0.139305422488641,0.06777685985397752,0.05749156567126115,0.06641331091943528,0.05608984923319992,0.10661657629903316
242,0.0873998437450823,0.04474003441923942,0.14201709439421129,0.15061745731593984,0.0815319856599792,0.139305422488641,0.06777685985397752,0.05749156567126115,0.06641331091943528,0.05608984923319992,0.10661657629903316
243,0.06002973711040677,0.07181276919968921,0.09503700222874996,0.1220145651000398,0.10484092109930059,0.1227116812885946,0.09887273277169817,0.07013302192946674,0.11326255817616385,0.07851570018097616,0.06276931091491422
244,0.06002973711040677,0.07181276919968921,0.09503700222874996,0.1220145651000398,0.10484092109930059,0.1227116812885946,0.09887273277169817,0.07013302192946674,0.11326255817616385,0.07851570018097616,0.06276931091491422
245,0.06002973711040677,0.07181276919968921,0.09503700222874996,0.1220145651000398,0.10484092109930059,0.1227116812885946,0.09887273277169817,0.07013302192946674,0.11326255817616385,0.07851570018097616,0.06276931091491422
246,0.06002973711040677,0.07181276919968921,0.09503700222874996,0.1220145651000398,0.10484092109930059,0.1227116812885946,0.09887273277169817,0.07013302192946674,0.11326255817616385,0.07851570018097616,0.06276931091491422
247,0.06002973711040677,0.07181276919968921,0.09503700222874996,0.1220145651000398,0.10484092109930059,0.1227116812885946,0.09887273277169817,0.07013302192946674,0.11326255817616385,0.07851570018097616,0.06276931091491422
248,0.06002973711040677,0.07181276919968921,0.09503700222874996,0.1220145651000398,0.10484092109930059,0.1227116812885946,0.09887273277169817,0.07013302192946674,0.11326255817616385,0.07851570018097616,0.06276931091491422
249,0.06002973711040677,0.07181276919968921,0.09503700222874996,0.1220145651000398,0.10484092109930059,0.1227116812885946,0.09887273277169817,0.07013302192946674,0.11326255817616385,0.07851570018097616,0.06276931091491422
250,0.06002973711040677,0.07181276919968921,0.09503700222874996,0.1220145651000398,0.10484092109930059,0.1227116812885946,0.09887273277169817,0.07013302192946674,0.11326255817616385,0.07851570018097616,0.06276931091491422
251,0.06002973711040677,0.07181276919968921,0.09503700222874996,0.1220145651000398,0.10484092109930059,0.1227116812885946,0.09887273277169817,0.07013302192946674,0.11326255817616385,0.07851570018097616,0.06276931091491422
252,0.06002973711040677,0.07181276919968921,0.09503700222874996,0.1220145651000398,0.10484092109930059,0.1227116812885946,0.09887273277169817,0.07013302192946674,0.11326255817616385,0.07851570018097616,0.06276931091491422
253,0.06002973711040677,0.07181276919968921,0.09503700222874996,0.1220145651000398,0.10484092109930059,0.1227116812885946,0.09887273277169817,0.07013302192946674,0.11326255817616385,0.07851570018097616,0.06276931091491422
254,0.06002973711040677,0.07181276919968921,0.09503700222874996,0.1220145651000398,0.10484092109930059,0.1227116812885946,0.09887273277169817,0.07013302192946674,0.11326255817616385,0.07851570018097616,0.06276931091491422
255,0.06002973711040677,0.07181276919968921,0.09503700222874996,0.1220145651000398,0.10484092109930059,0.1227116812885946,0.09887273277169817,0.07013302192946674,0.11326255817616385,0.07851570018097616,0.06276931091491422
256,0.06002973711040677,0.07181276919968921,0.09503700222874996,0.1220145651000398,0.10484092109930059,0.1227116812885946,0.09887273277169817,0.07013302192946674,0.11326255817616385,0.07851570018097616,0.06276931091491422
257,0.06002973711040677,0.07181276919968921,0.09503700222874996,0.1220145651000398,0.10484092109930059,0.1227116812885946,0.09887273277169817,0.07013302192946674,0.11326255817616385,0.07851570018097616,0.06276931091491422
258,0.06002973711040677,0.07181276919968921,0.09503700222874996,0.1220145651000398,0.10484092109930059,0.1227116812885946,0.09887273277169817,0.07013302192946674,0.11326255817616385,0.07851570018097616,0.06276931091491422
259,0.06002973711040677,0.07181276919968921,0.09503700222874996,0.1220145651000398,0.10484092109930059,0.1227116812885946,0.09887273277169817,0.07013302192946674,0.11326255817616385,0.07851570018097616,0.06276931091491422
260,0.06002973711040677,0.07181276919968921,0.09503700222874996,0.1220145651000398,0.10484092109930059,0.1227116812885946,0.09887273277169817,0.07013302192946674,0.11326255817616385,0.07851570018097616,0.06276931091491422
261,0.06002973711040677,0.07181276919968921,0.09503700222874996,0.1220145651000398,0.10484092109930059,0.1227116812885946,0.09887273277169817,0.07013302192946674,0.11326255817616385,0.07851570018097616,0.06276931091491422
262,0.06002973711040677,0.07181276919968921,0.09503700222874996,0.1220145651000398,0.10484092109930059,0.1227116812885946,0.09887273277169817,0.07013302192946674,0.11326255817616385,0.07851570018097616,0.06276931091491422
263,0.06002973711040677,0.07181276919968921,0.09503700222874996,0.1220145651000398,0.10484092109930059,0.1227116812885946,0.09887273277169817,0.07013302192946674,0.11326255817616385,0.07851570018097616,0.06276931091491422
264,0.06002973711040677,0.07181276919968921,0.09503700222874996,0.1220145651000398,0.10484092109930059,0.1227116812885946,0.09887273277169817,0.07013302192946674,0.11326255817616385,0.07851570018097616,0.06276931091491422
265,0.06002973711040677,0.07181276919968921,0.09503700222874996,0.1220145651000398,0.10484092109930059,0.1227116812885946,0.09887273277169817,0.07013302192946674,0.11326255817616385,0.07851570018097616,0.06276931091491422
266,0.06002973711040677,0.07181276919968921,0.09503700222874996,0.1220145651000398,0.10484092109930059,0.1227116812885946,0.09887273277169817,0.07013302192946674,0.11326255817616385,0.07851570018097616,0.06276931091491422
267,0.06002973711040677,0.07181276919968921,0.09503700222874996,0.1220145651000398,0.10484092109930059,0.1227116812885946,0.09887273277169817,0.07013302192946674,0.11326255817616385,0.07851570018097616,0.06276931091491422
268,0.06002973711040677,0.07181276919968921,0.09503700222874996,0.1220145651000398,0.10484092109930059,0.1227116812885946,0.09887273277169817,0.07013302192946674,0.11326255817616385,0.07851570018097616,0.06276931091491422
269,0.06002973711040677,0.07181276919968921,0.09503700222874996,0.1220145651000398,0.10484092109930059,0.1227116812885946,0.09887273277169817,0.07013302192946674,0.11326255817616385,0.07851570018097616,0.06276931091491422
270,0.06002973711040677,0.07181276919968921,0.09503700222874996,0.1220145651000398,0.10484092109930059,0.1227116812885946,0.09887273277169817,0.07013302192946674,0.11326255817616385,0.07851570018097616,0.06276931091491422
271,0.06002973711040677,0.07181276919968921,0.09503700222874996,0.1220145651000398,0.10484092109930059,0.1227116812885946,0.09887273277169817,0.07013302192946674,0.11326255817616385,0.07851570018097616,0.06276931091491422
272,0.06002973711040677,0.07181276919968921,0.09503700222874996,0.1220145651000398,0.10484092109930059,0.1227116812885946,0.09887273277169817,0.07013302192946674,0.11326255817616385,0.07851570018097616,0.06276931091491422
273,0.062107190420658556,0.04981900583573552,0.07470238186710303,0.09140693895918668,0.05378691994011926,0.0654246327920453,0.10818269239532143,0.11365408234530916,0.09048444850181958,0.14578783748858334,0.14464386945411825
274,0.062107190420658556,0.04981900583573552,0.07470238186710303,0.09140693895918668,0.05378691994011926,0.0654246327920453,0.10818269239532143,0.11365408234530916,0.09048444850181958,0.14578783748858334,0.14464386945411825
275,0.062107190420658556,0.04981900583573552,0.07470238186710303,0.09140693895918668,0.05378691994011926,0.0654246327920453,0.10818269239532143,0.11365408234530916,0.09048444850181958,0.14578783748858334,0.14464386945411825
276,0.062107190420658556,0.04981900583573552,0.07470238186710303,0.09140693895918668,0.05378691994011926,0.0654246327920453,0.10818269239532143,0.11365408234530916,0.09048444850181958,0.14578783748858334,0.14464386945411825
277,0.062107190420658556,0.04981900583573552,0.07470238186710303,0.09140693895918668,0.05378691994011926,0.0654246327920453,0.10818269239532143,0.11365408234530916,0.09048444850181958,0.14578783748858334,0.14464386945411825
278,0.062107190420658556,0.04981900583573552,0.07470238186710303,0.09140693895918668,0.05378691994011926,0.0654246327920453,0.10818269239532143,0.11365408234530916,0.09048444850181958,0.14578783748858334,0.14464386945411825
279,0.062107190420658556,0.04981900583573552,0.07470238186710303,0.09140693895918668,0.05378691994011926,0.0654246327920453,0.10818269239532143,0.11365408234530916,0.09048444850181958,0.14578783748858334,0.14464386945411825
280,0.062107190420658556,0.04981900583573552,0.07470238186710303,0.09140693895918668,0.05378691994011926,0.0654246327920453,0.10818269239532143,0.11365408234530916,0.09048444850181958,0.14578783748858334,0.14464386945411825
281,0.062107190420658556,0.04981900583573552,0.07470238186710303,0.09140693895918668,0.05378691994011926,0.0654246327920453,0.10818269239532143,0.11365408234530916,0.09048444850181958,0.14578783748858334,0.14464386945411825
282,0.062107190420658556,0.04981900583573552,0.07470238186710303,0.09140693895918668,0.05378691994011926,0.0654246327920453,0.10818269239532143,0.11365408234530916,0.09048444850181958,0.14578783748858334,0.14464386945411825
283,0.062107190420658556,0.04981900583573552,0.07470238186710303,0.09140693895918668,0.05378691994011926,0.0654246327920453,0.10818269239532143,0.11365408234530916,0.09048444850181958,0.14578783748858334,0.14464386945411825
284,0.062107190420658556,0.04981900583573552,0.07470238186710303,0.09140693895918668,0.05378691994011926,0.0654246327920453,0.10818269239532143,0.11365408234530916,0.09048444850181958,0.14578783748858334,0.14464386945411825
285,0.062107190420658556,0.04981900583573552,0.07470238186710303,0.09140693895918668,0.05378691994011926,0.0654246327920453,0.10818269239532143,0.11365408234530916,0.09048444850181958,0.14578783748858334,0.14464386945411825
286,0.062107190420658556,0.04981900583573552,0.07470238186710303,0.09140693895918668,0.05378691994011926,0.0654246327920453,0.10818269239532143,0.11365408234530916,0.09048444850181958,0.14578783748858334,0.14464386945411825
287,0.062107190420658556,0.04981900583573552,0.07470238186710303,0.09140693895918668,0.05378691994011926,0.0654246327920453,0.10818269239532143,0.11365408234530916,0.09048444850181958,0.14578783748858334,0.14464386945411825
288,0.062107190420658556,0.04981900583573552,0.07470238186710303,0.09140693895918668,0.05378691994011926,0.0654246327920453,0.10818269239532143,0.11365408234530916,0.09048444850181958,0.14578783748858334,0.14464386945411825
289,0.062107190420658556,0.04981900583573552,0.07470238186710303,0.09140693895918668,0.05378691994011926,0.0654246327920453,0.10818269239532143,0.11365408234530916,0.09048444850181958,0.14578783748858334,0.14464386945411825
290,0.062107190420658556,0.04981900583573552,0.07470238186710303,0.09140693895918668,0.05378691994011926,0.0654246327920453,0.10818269239532143,0.11365408234530916,0.09048444850181958,0.14578783748858334,0.14464386945411825
291,0.062107190420658556,0.04981900583573552,0.07470238186710303,0.09140693895918668,0.05378691994011926,0.0654246327920453,0.10818269239532143,0.11365408234530916,0.09048444850181958,0.14578783748858334,0.14464386945411825
292,0.062107190420658556,0.04981900583573552,0.07470238186710303,0.09140693895918668,0.05378691994011926,0.0654246327920453,0.10818269239532143,0.11365408234530916,0.09048444850181958,0.14578783748858334,0.14464386945411825
293,0.062107190420658556,0.04981900583573552,0.07470238186710303,0.09140693895918668,0.05378691994011926,0.0654246327920453,0.10818269239532143,0.11365408234530916,0.09048444850181958,0.14578783748858334,0.14464386945411825
294,0.062107190420658556,0.04981900583573552,0.07470238186710303,0.09140693895918668,0.05378691994011926,0.0654246327920453,0.10818269239532143,0.11365408234530916,0.09048444850181958,0.14578783748858334,0.14464386945411825
295,0.062107190420658556,0.04981900583573552,0.07470238186710303,0.09140693895918668,0.05378691994011926,0.0654246327920453,0.10818269239532143,0.11365408234530916,0.09048444850181958,0.14578783748858334,0.14464386945411825
296,0.062107190420658556,0.04981900583573552,0.07470238186710303,0.09140693895918668,0.05378691994011926,0.0654246327920453,0.10818269239532143,0.11365408234530916,0.09048444850181958,0.14578783748858334,0.14464386945411825
297,0.062107190420658556,0.04981900583573552,0.07470238186710303,0.09140693895918668,0.05378691994011926,0.0654246327920453,0.10818269239532143,0.11365408234530916,0.09048444850181958,0.14578783748858334,0.14464386945411825
298,0.062107190420658556,0.04981900583573552,0.07470238186710303,0.09140693895918668,0.05378691994011926,0.0654246327920453,0.10818269239532143,0.11365408234530916,0.09048444850181958,0.14578783748858334,0.14464386945411825
299,0.062107190420658556,0.04981900583573552,0.07470238186710303,0.09140693895918668,0.05378691994011926,0.0654246327920453,0.10818269239532143,0.11365408234530916,0.09048444850181958,0.14578783748858334,0.14464386945411825
300,0.062107190420658556,0.04981900583573552,0.07470238186710303,0.09140693895918668,0.05378691994011926,0.0654246327920453,0.10818269239532143,0.11365408234530916,0.09048444850181958,0.14578783748858334,0.14464386945411825
301,0.062107190420658556,0.04981900583573552,0.07470238186710303,0.09140693895918668,0.05378691994011926,0.0654246327920453,0.10818269239532143,0.11365408234530916,0.09048444850181958,0.14578783748858334,0.14464386945411825
302,0.062107190420658556,0.04981900583573552,0.07470238186710303,0.09140693895918668,0.05378691994011926,0.0654246327920453,0.10818269239532143,0.11365408234530916,0.09048444850181958,0.14578783748858334,0.14464386945411825
303,0.062107190420658556,0.04981900583573552,0.07470238186710303,0.09140693895918668,0.05378691994011926,0.0654246327920453,0.10818269239532143,0.11365408234530916,0.09048444850181958,0.14578783748858334,0.14464386945411825
304,0.08172264585194422,0.0716079335979198,0.15699119087298619,0.07179007822277833,0.08294711960249289,0.11793263261681639,0.09187091172137686,0.0821472653724097,0.06441245976566948,0.08134148708929366,0.09723627528631243
305,0.08172264585194422,0.0716079335979198,0.15699119087298619,0.07179007822277833,0.08294711960249289,0.11793263261681639,0.09187091172137686,0.0821472653724097,0.06441245976566948,0.08134148708929366,0.09723627528631243
306,0.08172264585194422,0.0716079335979198,0.15699119087298619,0.07179007822277833,0.08294711960249289,0.11793263261681639,0.09187091172137686,0.0821472653724097,0.06441245976566948,0.08134148708929366,0.09723627528631243
307,0.08172264585194422,0.0716079335979198,0.15699119087298619,0.07179007822277833,0.08294711960249289,0.11793263261681639,0.09187091172137686,0.0821472653724097,0.06441245976566948,0.08134148708929366,0.09723627528631243
308,0.08172264585194422,0.0716079335979198,0.15699119087298619,0.07179007822277833,0.08294711960249289,0.11793263261681639,0.09187091172137686,0.0821472653724097,0.06441245976566948,0.08134148708929366,0.09723627528631243
309,0.08172264585194422,0.0716079335979198,0.15699119087298619,0.07179007822277833,0.08294711960249289,0.11793263261681639,0.09187091172137686,0.0821472653724097,0.06441245976566948,0.08134148708929366,0.09723627528631243
310,0.08172264585194422,0.0716079335979198,0.15699119087298619,0.07179007822277833,0.08294711960249289,0.11793263261681639,0.09187091172137686,0.0821472653724097,0.06441245976566948,0.08134148708929366,0.09723627528631243
311,0.08172264585194422,0.0716079335979198,0.15699119087298619,0.07179007822277833,0.08294711960249289,0.11793263261681639,0.09187091172137686,0.0821472653724097,0.06441245976566948,0.08134148708929366,0.09723627528631243
312,0.08172264585194422,0.0716079335979198,0.15699119087298619,0.07179007822277833,0.08294711960249289,0.11793263261681639,0.09187091172137686,0.0821472653724097,0.06441245976566948,0.08134148708929366,0.09723627528631243
313,0.08172264585194422,0.0716079335979198,0.15699119087298619,0.07179007822277833,0.08294711960249289,0.11793263261681639,0.09187091172137686,0.0821472653724097,0.06441245976566948,0.08134148708929366,0.09723627528631243
314,0.08172264585194422,0.0716079335979198,0.15699119087298619,0.07179007822277833,0.08294711960249289,0.11793263261681639,0.09187091172137686,0.0821472653724097,0.06441245976566948,0.08134148708929366,0.09723627528631243
315,0.08172264585194422,0.0716079335979198,0.15699119087298619,0.07179007822277833,0.08294711960249289,0.11793263261681639,0.09187091172137686,0.0821472653724097,0.06441245976566948,0.08134148708929366,0.09723627528631243
316,0.08172264585194422,0.0716079335979198,0.15699119087298619,0.07179007822277833,0.08294711960249289,0.11793263261681639,0.09187091172137686,0.0821472653724097,0.06441245976566948,0.08134148708929366,0.09723627528631243
317,0.08172264585194422,0.0716079335979198,0.15699119087298619,0.07179007822277833,0.08294711960249289,0.11793263261681639,0.09187091172137686,0.0821472653724097,0.06441245976566948,0.08134148708929366,0.09723627528631243
318,0.08172264585194422,0.0716079335979198,0.15699119087298619,0.07179007822277833,0.08294711960249289,0.11793263261681639,0.09187091172137686,0.0821472653724097,0.06441245976566948,0.08134148708929366,0.09723627528631243
319,0.08172264585194422,0.0716079335979198,0.15699119087298619,0.07179007822277833,0.08294711960249289,0.11793263261681639,0.09187091172137686,0.0821472653724097,0.06441245976566948,0.08134148708929366,0.09723627528631243
320,0.08172264585194422,0.0716079335979198,0.15699119087298619,0.07179007822277833,0.08294711960249289,0.11793263261681639,0.09187091172137686,0.0821472653724097,0.06441245976566948,0.08134148708929366,0.09723627528631243
321,0.08172264585194422,0.0716079335979198,0.15699119087298619,0.07179007822277833,0.08294711960249289,0.11793263261681639,0.09187091172137686,0.0821472653724097,0.06441245976566948,0.08134148708929366,0.09723627528631243
322,0.08172264585194422,0.0716079335979198,0.15699119087298619,0.07179007822277833,0.08294711960249289,0.11793263261681639,0.09187091172137686,0.0821472653724097,0.06441245976566948,0.08134148708929366,0.09723627528631243
323,0.08172264585194422,0.0716079335979198,0.15699119087298619,0.07179007822277833,0.08294711960249289,0.11793263261681639,0.09187091172137686,0.0821472653724097,0.06441245976566948,0.08134148708929366,0.09723627528631243
324,0.08172264585194422,0.0716079335979198,0.15699119087298619,0.07179007822277833,0.08294711960249289,0.11793263261681639,0.09187091172137686,0.0821472653724097,0.06441245976566948,0.08134148708929366,0.09723627528631243
325,0.08172264585194422,0.0716079335979198,0.15699119087298619,0.07179007822277833,0.08294711960249289,0.11793263261681639,0.09187091172137686,0.0821472653724097,0.06441245976566948,0.08134148708929366,0.09723627528631243
326,0.08172264585194422,0.0716079335979198,0.15699119087298619,0.07179007822277833,0.08294711960249289,0.11793263261681639,0.09187091172137686,0.0821472653724097,0.06441245976566948,0.08134148708929366,0.09723627528631243
327,0.08172264585194422,0.0716079335979198,0.15699119087298619,0.07179007822277833,0.08294711960249289,0.11793263261681639,0.09187091172137686,0.0821472653724097,0.06441245976566948,0.08134148708929366,0.09723627528631243
328,0.08172264585194422,0.0716079335979198,0.15699119087298619,0.07179007822277833,0.08294711960249289,0.11793263261681639,0.09187091172137686,0.0821472653724097,0.06441245976566948,0.08134148708929366,0.09723627528631243
329,0.08172264585194422,0.0716079335979198,0.15699119087298619,0.07179007822277833,0.08294711960249289,0.11793263261681639,0.09187091172137686,0.0821472653724097,0.06441245976566948,0.08134148708929366,0.09723627528631243
330,0.08172264585194422,0.0716079335979198,0.15699119087298619,0.07179007822277833,0.08294711960249289,0.11793263261681639,0.09187091172137686,0.0821472653724097,0.06441245976566948,0.08134148708929366,0.09723627528631243
331,0.08172264585194422,0.0716079335979198,0.15699119087298619,0.07179007822277833,0.08294711960249289,0.11793263261681639,0.09187091172137686,0.0821472653724097,0.06441245976566948,0.08134148708929366,0.09723627528631243
332,0.08172264585194422,0.0716079335979198,0.15699119087298619,0.07179007822277833,0.08294711960249289,0.11793263261681639,0.09187091172137686,0.0821472653724097,0.06441245976566948,0.08134148708929366,0.09723627528631243
333,0.08172264585194422,0.0716079335979198,0.15699119087298619,0.07179007822277833,0.08294711960249289,0.11793263261681639,0.09187091172137686,0.0821472653724097,0.06441245976566948,0.08134148708929366,0.09723627528631243
334,0.04220252423741923,0.1505985679762515,0.14737505987669708,0.09680771677381997,0.0645481387672138,0.07300998219106308,0.09965669062253096,0.05857169100040249,0.13168077168719788,0.059121562217123474,0.07642729465028045
335,0.04220252423741923,0.1505985679762515,0.14737505987669708,0.09680771677381997,0.0645481387672138,0.07300998219106308,0.09965669062253096,0.05857169100040249,0.13168077168719788,0.059121562217123474,0.07642729465028045
336,0.04220252423741923,0.1505985679762515,0.14737505987669708,0.09680771677381997,0.0645481387672138,0.07300998219106308,0.09965669062253096,0.05857169100040249,0.13168077168719788,0.059121562217123474,0.07642729465028045
337,0.04220252423741923,0.1505985679762515,0.14737505987669708,0.09680771677381997,0.0645481387672138,0.07300998219106308,0.09965669062253096,0.05857169100040249,0.13168077168719788,0.059121562217123474,0.07642729465028045
338,0.04220252423741923,0.1505985679762515,0.14737505987669708,0.09680771677381997,0.0645481387672138,0.07300998219106308,0.09965669062253096,0.05857169100040249,0.13168077168719788,0.059121562217123474,0.07642729465028045
339,0.04220252423741923,0.1505985679762515,0.14737505987669708,0.09680771677381997,0.0645481387672138,0.07300998219106308,0.09965669062253096,0.05857169100040249,0.13168077168719788,0.059121562217123474,0.07642729465028045
340,0.04220252423741923,0.1505985679762515,0.14737505987669708,0.09680771677381997,0.0645481387672138,0.07300998219106308,0.09965669062253096,0.05857169100040249,0.13168077168719788,0.059121562217123474,0.07642729465028045
341,0.04220252423741923,0.1505985679762515,0.14737505987669708,0.09680771677381997,0.0645481387672138,0.07300998219106308,0.09965669062253096,0.05857169100040249,0.13168077168719788,0.059121562217123474,0.07642729465028045
342,0.04220252423741923,0.1505985679762515,0.14737505987669708,0.09680771677381997,0.0645481387672138,0.07300998219106308,0.09965669062253096,0.05857169100040249,0.13168077168719788,0.059121562217123474,0.07642729465028045
343,0.04220252423741923,0.1505985679762515,0.14737505987669708,0.09680771677381997,0.0645481387672138,0.07300998219106308,0.09965669062253096,0.05857169100040249,0.13168077168719788,0.059121562217123474,0.07642729465028045
344,0.04220252423741923,0.1505985679762515,0.14737505987669708,0.09680771677381997,0.0645481387672138,0.07300998219106308,0.09965669062253096,0.05857169100040249,0.13168077168719788,0.059121562217123474,0.07642729465028045
345,0.04220252423741923,0.1505985679762515,0.14737505987669708,0.09680771677381997,0.0645481387672138,0.07300998219106308,0.09965669062253096,0.05857169100040249,0.13168077168719788,0.059121562217123474,0.07642729465028045
346,0.04220252423741923,0.1505985679762515,0.14737505987669708,0.09680771677381997,0.0645481387672138,0.07300998219106308,0.09965669062253096,0.05857169100040249,0.13168077168719788,0.059121562217123474,0.07642729465028045
347,0.04220252423741923,0.1505985679762515,0.14737505987669708,0.09680771677381997,0.0645481387672138,0.07300998219106308,0.09965669062253096,0.05857169100040249,0.13168077168719788,0.059121562217123474,0.07642729465028045
348,0.04220252423741923,0.1505985679762515,0.14737505987669708,0.09680771677381997,0.0645481387672138,0.07300998219106308,0.09965669062253096,0.05857169100040249,0.13168077168719788,0.059121562217123474,0.07642729465028045
349,0.04220252423741923,0.1505985679762515,0.14737505987669708,0.09680771677381997,0.0645481387672138,0.07300998219106308,0.09965669062253096,0.05857169100040249,0.13168077168719788,0.059121562217123474,0.07642729465028045
350,0.04220252423741923,0.1505985679762515,0.14737505987669708,0.09680771677381997,0.0645481387672138,0.07300998219106308,0.09965669062253096,0.05857169100040249,0.13168077168719788,0.059121562217123474,0.07642729465028045
351,0.04220252423741923,0.1505985679762515,0.14737505987669708,0.09680771677381997,0.0645481387672138,0.07300998219106308,0.09965669062253096,0.05857169100040249,0.13168077168719788,0.059121562217123474,0.07642729465028045
352,0.04220252423741923,0.1505985679762515,0.14737505987669708,0.09680771677381997,0.0645481387672138,0.07300998219106308,0.09965669062253096,0.05857169100040249,0.13168077168719788,0.059121562217123474,0.07642729465028045
353,0.04220252423741923,0.1505985679762515,0.14737505987669708,0.09680771677381997,0.0645481387672138,0.07300998219106308,0.09965669062253096,0.05857169100040249,0.13168077168719788,0.059121562217123474,0.07642729465028045
354,0.04220252423741923,0.1505985679762515,0.14737505987669708,0.09680771677381997,0.0645481387672138,0.07300998219106308,0.09965669062253096,0.05857169100040249,0.13168077168719788,0.059121562217123474,0.07642729465028045
355,0.04220252423741923,0.1505985679762515,0.14737505987669708,0.09680771677381997,0.0645481387672138,0.07300998219106308,0.09965669062253096,0.05857169100040249,0.13168077168719788,0.059121562217123474,0.07642729465028045
356,0.04220252423741923,0.1505985679762515,0.14737505987669708,0.09680771677381997,0.0645481387672138,0.07300998219106308,0.09965669062253096,0.05857169100040249,0.13168077168719788,0.059121562217123474,0.07642729465028045
357,0.04220252423741923,0.1505985679762515,0.14737505987669708,0.09680771677381997,0.0645481387672138,0.07300998219106308,0.09965669062253096,0.05857169100040249,0.13168077168719788,0.059121562217123474,0.07642729465028045
358,0.04220252423741923,0.1505985679762515,0.14737505987669708,0.09680771677381997,0.0645481387672138,0.07300998219106308,0.09965669062253096,0.05857169100040249,0.13168077168719788,0.059121562217123474,0.07642729465028045
359,0.04220252423741923,0.1505985679762515,0.14737505987669708,0.09680771677381997,0.0645481387672138,0.07300998219106308,0.09965669062253096,0.05857169100040249,0.13168077168719788,0.059121562217123474,0.07642729465028045
360,0.04220252423741923,0.1505985679762515,0.14737505987669708,0.09680771677381997,0.0645481387672138,0.07300998219106308,0.09965669062253096,0.05857169100040249,0.13168077168719788,0.059121562217123474,0.07642729465028045
361,0.04220252423741923,0.1505985679762515,0.14737505987669708,0.09680771677381997,0.0645481387672138,0.07300998219106308,0.09965669062253096,0.05857169100040249,0.13168077168719788,0.059121562217123474,0.07642729465028045
362,0.04220252423741923,0.1505985679762515,0.14737505987669708,0.09680771677381997,0.0645481387672138,0.07300998219106308,0.09965669062253096,0.05857169100040249,0.13168077168719788,0.059121562217123474,0.07642729465028045
363,0.04220252423741923,0.1505985679762515,0.14737505987669708,0.09680771677381997,0.0645481387672138,0.07300998219106308,0.09965669062253096,0.05857169100040249,0.13168077168719788,0.059121562217123474,0.07642729465028045
364,0.04220252423741923,0.1505985679762515,0.14737505987669708,0.09680771677381997,0.0645481387672138,0.07300998219106308,0.09965669062253096,0.05857169100040249,0.13168077168719788,0.059121562217123474,0.07642729465028045
365,0.05476988714043551,0.05389898893044882,0.10452006640648866,0.112389806089142,0.07974858980935394,0.09853300826311341,0.05670159353662765,0.0382825851819093,0.05736476163709323,0.204318156561974,0.1394725564434133
366,0.05476988714043551,0.05389898893044882,0.10452006640648866,0.112389806089142,0.07974858980935394,0.09853300826311341,0.05670159353662765,0.0382825851819093,0.05736476163709323,0.204318156561974,0.1394725564434133
367,0.05476988714043551,0.05389898893044882,0.10452006640648866,0.112389806089142,0.07974858980935394,0.09853300826311341,0.05670159353662765,0.0382825851819093,0.05736476163709323,0.204318156561974,0.1394725564434133
368,0.05476988714043551,0.05389898893044882,0.10452006640648866,0.112389806089142,0.07974858980935394,0.09853300826311341,0.05670159353662765,0.0382825851819093,0.05736476163709323,0.204318156561974,0.1394725564434133
369,0.05476988714043551,0.05389898893044882,0.10452006640648866,0.112389806089142,0.07974858980935394,0.09853300826311341,0.05670159353662765,0.0382825851819093,0.05736476163709323,0.204318156561974,0.1394725564434133
370,0.05476988714043551,0.05389898893044882,0.10452006640648866,0.112389806089142,0.07974858980935394,0.09853300826311341,0.05670159353662765,0.0382825851819093,0.05736476163709323,0.204318156561974,0.1394725564434133
371,0.05476988714043551,0.05389898893044882,0.10452006640648866,0.112389806089142,0.07974858980935394,0.09853300826311341,0.05670159353662765,0.0382825851819093,0.05736476163709323,0.204318156561974,0.1394725564434133
372,0.05476988714043551,0.05389898893044882,0.10452006640648866,0.112389806089142,0.07974858980935394,0.09853300826311341,0.05670159353662765,0.0382825851819093,0.05736476163709323,0.204318156561974,0.1394725564434133
373,0.05476988714043551,0.05389898893044882,0.10452006640648866,0.112389806089142,0.07974858980935394,0.09853300826311341,0.05670159353662765,0.0382825851819093,0.05736476163709323,0.204318156561974,0.1394725564434133
374,0.05476988714043551,0.05389898893044882,0.10452006640648866,0.112389806089142,0.07974858980935394,0.09853300826311341,0.05670159353662765,0.0382825851819093,0.05736476163709323,0.204318156561974,0.1394725564434133
375,0.05476988714043551,0.05389898893044882,0.10452006640648866,0.112389806089142,0.07974858980935394,0.09853300826311341,0.05670159353662765,0.0382825851819093,0.05736476163709323,0.204318156561974,0.1394725564434133
376,0.05476988714043551,0.05389898893044882,0.10452006640648866,0.112389806089142,0.07974858980935394,0.09853300826311341,0.05670159353662765,0.0382825851819093,0.05736476163709323,0.204318156561974,0.1394725564434133
377,0.05476988714043551,0.05389898893044882,0.10452006640648866,0.112389806089142,0.07974858980935394,0.09853300826311341,0.05670159353662765,0.0382825851819093,0.05736476163709323,0.204318156561974,0.1394725564434133
378,0.05476988714043551,0.05389898893044882,0.10452006640648866,0.112389806089142,0.07974858980935394,0.09853300826311341,0.05670159353662765,0.0382825851819093,0.05736476163709323,0.204318156561974,0.1394725564434133
379,0.05476988714043551,0.05389898893044882,0.10452006640648866,0.112389806089142,0.07974858980935394,0.09853300826311341,0.05670159353662765,0.0382825851819093,0.05736476163709323,0.204318156561974,0.1394725564434133
380,0.05476988714043551,0.05389898893044882,0.10452006640648866,0.112389806089142,0.07974858980935394,0.09853300826311341,0.05670159353662765,0.0382825851819093,0.05736476163709323,0.204318156561974,0.1394725564434133
381,0.05476988714043551,0.05389898893044882,0.10452006640648866,0.112389806089142,0.07974858980935394,0.09853300826311341,0.05670159353662765,0.0382825851819093,0.05736476163709323,0.204318156561974,0.1394725564434133
382,0.05476988714043551,0.05389898893044882,0.10452006640648866,0.112389806089142,0.07974858980935394,0.09853300826311341,0.05670159353662765,0.0382825851819093,0.05736476163709323,0.204318156561974,0.1394725564434133
383,0.05476988714043551,0.05389898893044882,0.10452006640648866,0.112389806089142,0.07974858980935394,0.09853300826311341,0.05670159353662765,0.0382825851819093,0.05736476163709323,0.204318156561974,0.1394725564434133
384,0.05476988714043551,0.05389898893044882,0.10452006640648866,0.112389806089142,0.07974858980935394,0.09853300826311341,0.05670159353662765,0.0382825851819093,0.05736476163709323,0.204318156561974,0.1394725564434133
385,0.05476988714043551,0.05389898893044882,0.10452006640648866,0.112389806089142,0.07974858980935394,0.09853300826311341,0.05670159353662765,0.0382825851819093,0.05736476163709323,0.204318156561974,0.1394725564434133
386,0.05476988714043551,0.05389898893044882,0.10452006640648866,0.112389806089142,0.07974858980935394,0.09853300826311341,0.05670159353662765,0.0382825851819093,0.05736476163709323,0.204318156561974,0.1394725564434133
387,0.05476988714043551,0.05389898893044882,0.10452006640648866,0.112389806089142,0.07974858980935394,0.09853300826311341,0.05670159353662765,0.0382825851819093,0.05736476163709323,0.204318156561974,0.1394725564434133
388,0.05476988714043551,0.05389898893044882,0.10452006640648866,0.112389806089142,0.07974858980935394,0.09853300826311341,0.05670159353662765,0.0382825851819093,0.05736476163709323,0.204318156561974,0.1394725564434133
389,0.05476988714043551,0.05389898893044882,0.10452006640648866,0.112389806089142,0.07974858980935394,0.09853300826311341,0.05670159353662765,0.0382825851819093,0.05736476163709323,0.204318156561974,0.1394725564434133
390,0.05476988714043551,0.05389898893044882,0.10452006640648866,0.112389806089142,0.07974858980935394,0.09853300826311341,0.05670159353662765,0.0382825851819093,0.05736476163709323,0.204318156561974,0.1394725564434133
391,0.05476988714043551,0.05389898893044882,0.10452006640648866,0.112389806089142,0.07974858980935394,0.09853300826311341,0.05670159353662765,0.0382825851819093,0.05736476163709323,0.204318156561974,0.1394725564434133
392,0.05476988714043551,0.05389898893044882,0.10452006640648866,0.112389806089142,0.07974858980935394,0.09853300826311341,0.05670159353662765,0.0382825851819093,0.05736476163709323,0.204318156561974,0.1394725564434133
393,0.05476988714043551,0.05389898893044882,0.10452006640648866,0.112389806089142,0.07974858980935394,0.09853300826311341,0.05670159353662765,0.0382825851819093,0.05736476163709323,0.204318156561974,0.1394725564434133
394,0.05476988714043551,0.05389898893044882,0.10452006640648866,0.112389806089142,0.07974858980935394,0.09853300826311341,0.05670159353662765,0.0382825851819093,0.05736476163709323,0.204318156561974,0.1394725564434133
395,0.05476988714043551,0.05389898893044882,0.10452006640648866,0.112389806089142,0.07974858980935394,0.09853300826311341,0.05670159353662765,0.0382825851819093,0.05736476163709323,0.204318156561974,0.1394725564434133
396,0.0986552919485489,0.08517100676766498,0.07616919525133786,0.08298882758123555,0.1799147247767702,0.0639766946395348,0.07207103837881514,0.07982498928270994,0.05743910378899298,0.07320520085148594,0.13058392673290384
397,0.0986552919485489,0.08517100676766498,0.07616919525133786,0.08298882758123555,0.1799147247767702,0.0639766946395348,0.07207103837881514,0.07982498928270994,0.05743910378899298,0.07320520085148594,0.13058392673290384
398,0.0986552919485489,0.08517100676766498,0.07616919525133786,0.08298882758123555,0.1799147247767702,0.0639766946395348,0.07207103837881514,0.07982498928270994,0.05743910378899298,0.07320520085148594,0.13058392673290384
399,0.0986552919485489,0.08517100676766498,0.07616919525133786,0.08298882758123555,0.1799147247767702,0.0639766946395348,0.07207103837881514,0.07982498928270994,0.05743910378899298,0.07320520085148594,0.13058392673290384
400,0.0986552919485489,0.08517100676766498,0.07616919525133786,0.08298882758123555,0.1799147247767702,0.0639766946395348,0.07207103837881514,0.07982498928270994,0.05743910378899298,0.07320520085148594,0.13058392673290384
401,0.0986552919485489,0.08517100676766498,0.07616919525133786,0.08298882758123555,0.1799147247767702,0.0639766946395348,0.07207103837881514,0.07982498928270994,0.05743910378899298,0.07320520085148594,0.13058392673290384
402,0.0986552919485489,0.08517100676766498,0.07616919525133786,0.08298882758123555,0.1799147247767702,0.0639766946395348,0.07207103837881514,0.07982498928270994,0.05743910378899298,0.07320520085148594,0.13058392673290384
403,0.0986552919485489,0.08517100676766498,0.07616919525133786,0.08298882758123555,0.1799147247767702,0.0639766946395348,0.07207103837881514,0.07982498928270994,0.05743910378899298,0.07320520085148594,0.13058392673290384
404,0.0986552919485489,0.08517100676766498,0.07616919525133786,0.08298882758123555,0.1799147247767702,0.0639766946395348,0.07207103837881514,0.07982498928270994,0.05743910378899298,0.07320520085148594,0.13058392673290384
405,0.0986552919485489,0.08517100676766498,0.07616919525133786,0.08298882758123555,0.1799147247767702,0.0639766946395348,0.07207103837881514,0.07982498928270994,0.05743910378899298,0.07320520085148594,0.13058392673290384
406,0.0986552919485489,0.08517100676766498,0.07616919525133786,0.08298882758123555,0.1799147247767702,0.0639766946395348,0.07207103837881514,0.07982498928270994,0.05743910378899298,0.07320520085148594,0.13058392673290384
407,0.0986552919485489,0.08517100676766498,0.07616919525133786,0.08298882758123555,0.1799147247767702,0.0639766946395348,0.07207103837881514,0.07982498928270994,0.05743910378899298,0.07320520085148594,0.13058392673290384
408,0.0986552919485489,0.08517100676766498,0.07616919525133786,0.08298882758123555,0.1799147247767702,0.0639766946395348,0.07207103837881514,0.07982498928270994,0.05743910378899298,0.07320520085148594,0.13058392673290384
409,0.0986552919485489,0.08517100676766498,0.07616919525133786,0.08298882758123555,0.1799147247767702,0.0639766946395348,0.07207103837881514,0.07982498928270994,0.05743910378899298,0.07320520085148594,0.13058392673290384
410,0.0986552919485489,0.08517100676766498,0.07616919525133786,0.08298882758123555,0.1799147247767702,0.0639766946395348,0.07207103837881514,0.07982498928270994,0.05743910378899298,0.07320520085148594,0.13058392673290384
411,0.0986552919485489,0.08517100676766498,0.07616919525133786,0.08298882758123555,0.1799147247767702,0.0639766946395348,0.07207103837881514,0.07982498928270994,0.05743910378899298,0.07320520085148594,0.13058392673290384
412,0.0986552919485489,0.08517100676766498,0.07616919525133786,0.08298882758123555,0.1799147247767702,0.0639766946395348,0.07207103837881514,0.07982498928270994,0.05743910378899298,0.07320520085148594,0.13058392673290384
413,0.0986552919485489,0.08517100676766498,0.07616919525133786,0.08298882758123555,0.1799147247767702,0.0639766946395348,0.07207103837881514,0.07982498928270994,0.05743910378899298,0.07320520085148594,0.13058392673290384
414,0.0986552919485489,0.08517100676766498,0.07616919525133786,0.08298882758123555,0.1799147247767702,0.0639766946395348,0.07207103837881514,0.07982498928270994,0.05743910378899298,0.07320520085148594,0.13058392673290384
415,0.0986552919485489,0.08517100676766498,0.07616919525133786,0.08298882758123555,0.1799147247767702,0.0639766946395348,0.07207103837881514,0.07982498928270994,0.05743910378899298,0.07320520085148594,0.13058392673290384
416,0.0986552919485489,0.08517100676766498,0.07616919525133786,0.08298882758123555,0.1799147247767702,0.0639766946395348,0.07207103837881514,0.07982498928270994,0.05743910378899298,0.07320520085148594,0.13058392673290384
417,0.0986552919485489,0.08517100676766498,0.07616919525133786,0.08298882758123555,0.1799147247767702,0.0639766946395348,0.07207103837881514,0.07982498928270994,0.05743910378899298,0.07320520085148594,0.13058392673290384
418,0.0986552919485489,0.08517100676766498,0.07616919525133786,0.08298882758123555,0.1799147247767702,0.0639766946395348,0.07207103837881514,0.07982498928270994,0.05743910378899298,0.07320520085148594,0.13058392673290384
419,0.0986552919485489,0.08517100676766498,0.07616919525133786,0.08298882758123555,0.1799147247767702,0.0639766946395348,0.07207103837881514,0.07982498928270994,0.05743910378899298,0.07320520085148594,0.13058392673290384
420,0.0986552919485489,0.08517100676766498,0.07616919525133786,0.08298882758123555,0.1799147247767702,0.0639766946395348,0.07207103837881514,0.07982498928270994,0.05743910378899298,0.07320520085148594,0.13058392673290384
421,0.0986552919485489,0.08517100676766498,0.07616919525133786,0.08298882758123555,0.1799147247767702,0.0639766946395348,0.07207103837881514,0.07982498928270994,0.05743910378899298,0.07320520085148594,0.13058392673290384
422,0.0986552919485489,0.08517100676766498,0.07616919525133786,0.08298882758123555,0.1799147247767702,0.0639766946395348,0.07207103837881514,0.07982498928270994,0.05743910378899298,0.07320520085148594,0.13058392673290384
423,0.0986552919485489,0.08517100676766498,0.07616919525133786,0.08298882758123555,0.1799147247767702,0.0639766946395348,0.07207103837881514,0.07982498928270994,0.05743910378899298,0.07320520085148594,0.13058392673290384
424,0.031029128156107234,0.04213917025767647,-0.1130235881924951,0.6526972621436007,0.13570654717611672,0.09814041903483436,0.0745323109476029,0.03073726761134084,0.23501789467272066,-0.10587168610385778,-0.08110472570364693
425,0.031029128156107234,0.04213917025767647,-0.1130235881924951,0.6526972621436007,0.13570654717611672,0.09814041903483436,0.0745323109476029,0.03073726761134084,0.23501789467272066,-0.10587168610385778,-0.08110472570364693
426,0.031029128156107234,0.04213917025767647,-0.1130235881924951,0.6526972621436007,0.13570654717611672,0.09814041903483436,0.0745323109476029,0.03073726761134084,0.23501789467272066,-0.10587168610385778,-0.08110472570364693
427,0.031029128156107234,0.04213917025767647,-0.1130235881924951,0.6526972621436007,0.13570654717611672,0.09814041903483436,0.0745323109476029,0.03073726761134084,0.23501789467272066,-0.10587168610385778,-0.08110472570364693
428,0.031029128156107234,0.04213917025767647,-0.1130235881924951,0.6526972621436007,0.13570654717611672,0.09814041903483436,0.0745323109476029,0.03073726761134084,0.23501789467272066,-0.10587168610385778,-0.08110472570364693
429,0.031029128156107234,0.04213917025767647,-0.1130235881924951,0.6526972621436007,0.13570654717611672,0.09814041903483436,0.0745323109476029,0.03073726761134084,0.23501789467272066,-0.10587168610385778,-0.08110472570364693
430,0.031029128156107234,0.04213917025767647,-0.1130235881924951,0.6526972621436007,0.13570654717611672,0.09814041903483436,0.0745323109476029,0.03073726761134084,0.23501789467272066,-0.10587168610385778,-0.08110472570364693
431,0.031029128156107234,0.04213917025767647,-0.1130235881924951,0.6526972621436007,0.13570654717611672,0.09814041903483436,0.0745323109476029,0.03073726761134084,0.23501789467272066,-0.10587168610385778,-0.08110472570364693
432,0.031029128156107234,0.04213917025767647,-0.1130235881924951,0.6526972621436007,0.13570654717611672,0.09814041903483436,0.0745323109476029,0.03073726761134084,0.23501789467272066,-0.10587168610385778,-0.08110472570364693
433,0.031029128156107234,0.04213917025767647,-0.1130235881924951,0.6526972621436007,0.13570654717611672,0.09814041903483436,0.0745323109476029,0.03073726761134084,0.23501789467272066,-0.10587168610385778,-0.08110472570364693
434,0.031029128156107234,0.04213917025767647,-0.1130235881924951,0.6526972621436007,0.13570654717611672,0.09814041903483436,0.0745323109476029,0.03073726761134084,0.23501789467272066,-0.10587168610385778,-0.08110472570364693
435,0.031029128156107234,0.04213917025767647,-0.1130235881924951,0.6526972621436007,0.13570654717611672,0.09814041903483436,0.0745323109476029,0.03073726761134084,0.23501789467272066,-0.10587168610385778,-0.08110472570364693
436,0.031029128156107234,0.04213917025767647,-0.1130235881924951,0.6526972621436007,0.13570654717611672,0.09814041903483436,0.0745323109476029,0.03073726761134084,0.23501789467272066,-0.10587168610385778,-0.08110472570364693
437,0.031029128156107234,0.04213917025767647,-0.1130235881924951,0.6526972621436007,0.13570654717611672,0.09814041903483436,0.0745323109476029,0.03073726761134084,0.23501789467272066,-0.10587168610385778,-0.08110472570364693
438,0.031029128156107234,0.04213917025767647,-0.1130235881924951,0.6526972621436007,0.13570654717611672,0.09814041903483436,0.0745323109476029,0.03073726761134084,0.23501789467272066,-0.10587168610385778,-0.08110472570364693
439,0.031029128156107234,0.04213917025767647,-0.1130235881924951,0.6526972621436007,0.13570654717611672,0.09814041903483436,0.0745323109476029,0.03073726761134084,0.23501789467272066,-0.10587168610385778,-0.08110472570364693
440,0.031029128156107234,0.04213917025767647,-0.1130235881924951,0.6526972621436007,0.13570654717611672,0.09814041903483436,0.0745323109476029,0.03073726761134084,0.23501789467272066,-0.10587168610385778,-0.08110472570364693
441,0.031029128156107234,0.04213917025767647,-0.1130235881924951,0.6526972621436007,0.13570654717611672,0.09814041903483436,0.0745323109476029,0.03073726761134084,0.23501789467272066,-0.10587168610385778,-0.08110472570364693
442,0.031029128156107234,0.04213917025767647,-0.1130235881924951,0.6526972621436007,0.13570654717611672,0.09814041903483436,0.0745323109476029,0.03073726761134084,0.23501789467272066,-0.10587168610385778,-0.08110472570364693
443,0.031029128156107234,0.04213917025767647,-0.1130235881924951,0.6526972621436007,0.13570654717611672,0.09814041903483436,0.0745323109476029,0.03073726761134084,0.23501789467272066,-0.10587168610385778,-0.08110472570364693
444,0.031029128156107234,0.04213917025767647,-0.1130235881924951,0.6526972621436007,0.13570654717611672,0.09814041903483436,0.0745323109476029,0.03073726761134084,0.23501789467272066,-0.10587168610385778,-0.08110472570364693
445,0.031029128156107234,0.04213917025767647,-0.1130235881924951,0.6526972621436007,0.13570654717611672,0.09814041903483436,0.0745323109476029,0.03073726761134084,0.23501789467272066,-0.10587168610385778,-0.08110472570364693
446,0.031029128156107234,0.04213917025767647,-0.1130235881924951,0.6526972621436007,0.13570654717611672,0.09814041903483436,0.0745323109476029,0.03073726761134084,0.23501789467272066,-0.10587168610385778,-0.08110472570364693
