,0,1,2,3,4,5,6,7,8,9,10
0,0.05390179601334472,0.2851694908230264,0.2306488699708856,-0.07299429052554528,0.14831675027383565,0.13985506848700466,0.08437910495444771,-0.12476931064882059,0.19848966358457829,-0.10223639882563408,0.1592392558928769
1,0.05390179601334472,0.2851694908230264,0.2306488699708856,-0.07299429052554528,0.14831675027383565,0.13985506848700466,0.08437910495444771,-0.12476931064882059,0.19848966358457829,-0.10223639882563408,0.1592392558928769
2,0.05390179601334472,0.2851694908230264,0.2306488699708856,-0.07299429052554528,0.14831675027383565,0.13985506848700466,0.08437910495444771,-0.12476931064882059,0.19848966358457829,-0.10223639882563408,0.1592392558928769
3,0.05390179601334472,0.2851694908230264,0.2306488699708856,-0.07299429052554528,0.14831675027383565,0.13985506848700466,0.08437910495444771,-0.12476931064882059,0.19848966358457829,-0.10223639882563408,0.1592392558928769
4,0.05390179601334472,0.2851694908230264,0.2306488699708856,-0.07299429052554528,0.14831675027383565,0.13985506848700466,0.08437910495444771,-0.12476931064882059,0.19848966358457829,-0.10223639882563408,0.1592392558928769
5,0.05390179601334472,0.2851694908230264,0.2306488699708856,-0.07299429052554528,0.14831675027383565,0.13985506848700466,0.08437910495444771,-0.12476931064882059,0.19848966358457829,-0.10223639882563408,0.1592392558928769
6,0.05390179601334472,0.2851694908230264,0.2306488699708856,-0.07299429052554528,0.14831675027383565,0.13985506848700466,0.08437910495444771,-0.12476931064882059,0.19848966358457829,-0.10223639882563408,0.1592392558928769
7,0.05390179601334472,0.2851694908230264,0.2306488699708856,-0.07299429052554528,0.14831675027383565,0.13985506848700466,0.08437910495444771,-0.12476931064882059,0.19848966358457829,-0.10223639882563408,0.1592392558928769
8,0.05390179601334472,0.2851694908230264,0.2306488699708856,-0.07299429052554528,0.14831675027383565,0.13985506848700466,0.08437910495444771,-0.12476931064882059,0.19848966358457829,-0.10223639882563408,0.1592392558928769
9,0.05390179601334472,0.2851694908230264,0.2306488699708856,-0.07299429052554528,0.14831675027383565,0.13985506848700466,0.08437910495444771,-0.12476931064882059,0.19848966358457829,-0.10223639882563408,0.1592392558928769
10,0.05390179601334472,0.2851694908230264,0.2306488699708856,-0.07299429052554528,0.14831675027383565,0.13985506848700466,0.08437910495444771,-0.12476931064882059,0.19848966358457829,-0.10223639882563408,0.1592392558928769
11,0.05390179601334472,0.2851694908230264,0.2306488699708856,-0.07299429052554528,0.14831675027383565,0.13985506848700466,0.08437910495444771,-0.12476931064882059,0.19848966358457829,-0.10223639882563408,0.1592392558928769
12,0.05390179601334472,0.2851694908230264,0.2306488699708856,-0.07299429052554528,0.14831675027383565,0.13985506848700466,0.08437910495444771,-0.12476931064882059,0.19848966358457829,-0.10223639882563408,0.1592392558928769
13,0.05390179601334472,0.2851694908230264,0.2306488699708856,-0.07299429052554528,0.14831675027383565,0.13985506848700466,0.08437910495444771,-0.12476931064882059,0.19848966358457829,-0.10223639882563408,0.1592392558928769
14,0.05390179601334472,0.2851694908230264,0.2306488699708856,-0.07299429052554528,0.14831675027383565,0.13985506848700466,0.08437910495444771,-0.12476931064882059,0.19848966358457829,-0.10223639882563408,0.1592392558928769
15,0.05390179601334472,0.2851694908230264,0.2306488699708856,-0.07299429052554528,0.14831675027383565,0.13985506848700466,0.08437910495444771,-0.12476931064882059,0.19848966358457829,-0.10223639882563408,0.1592392558928769
16,0.05390179601334472,0.2851694908230264,0.2306488699708856,-0.07299429052554528,0.14831675027383565,0.13985506848700466,0.08437910495444771,-0.12476931064882059,0.19848966358457829,-0.10223639882563408,0.1592392558928769
17,0.05390179601334472,0.2851694908230264,0.2306488699708856,-0.07299429052554528,0.14831675027383565,0.13985506848700466,0.08437910495444771,-0.12476931064882059,0.19848966358457829,-0.10223639882563408,0.1592392558928769
18,0.05390179601334472,0.2851694908230264,0.2306488699708856,-0.07299429052554528,0.14831675027383565,0.13985506848700466,0.08437910495444771,-0.12476931064882059,0.19848966358457829,-0.10223639882563408,0.1592392558928769
19,0.05390179601334472,0.2851694908230264,0.2306488699708856,-0.07299429052554528,0.14831675027383565,0.13985506848700466,0.08437910495444771,-0.12476931064882059,0.19848966358457829,-0.10223639882563408,0.1592392558928769
20,0.05390179601334472,0.2851694908230264,0.2306488699708856,-0.07299429052554528,0.14831675027383565,0.13985506848700466,0.08437910495444771,-0.12476931064882059,0.19848966358457829,-0.10223639882563408,0.1592392558928769
21,0.05390179601334472,0.2851694908230264,0.2306488699708856,-0.07299429052554528,0.14831675027383565,0.13985506848700466,0.08437910495444771,-0.12476931064882059,0.19848966358457829,-0.10223639882563408,0.1592392558928769
22,0.05390179601334472,0.2851694908230264,0.2306488699708856,-0.07299429052554528,0.14831675027383565,0.13985506848700466,0.08437910495444771,-0.12476931064882059,0.19848966358457829,-0.10223639882563408,0.1592392558928769
23,0.05390179601334472,0.2851694908230264,0.2306488699708856,-0.07299429052554528,0.14831675027383565,0.13985506848700466,0.08437910495444771,-0.12476931064882059,0.19848966358457829,-0.10223639882563408,0.1592392558928769
24,0.05390179601334472,0.2851694908230264,0.2306488699708856,-0.07299429052554528,0.14831675027383565,0.13985506848700466,0.08437910495444771,-0.12476931064882059,0.19848966358457829,-0.10223639882563408,0.1592392558928769
25,0.05390179601334472,0.2851694908230264,0.2306488699708856,-0.07299429052554528,0.14831675027383565,0.13985506848700466,0.08437910495444771,-0.12476931064882059,0.19848966358457829,-0.10223639882563408,0.1592392558928769
26,0.05390179601334472,0.2851694908230264,0.2306488699708856,-0.07299429052554528,0.14831675027383565,0.13985506848700466,0.08437910495444771,-0.12476931064882059,0.19848966358457829,-0.10223639882563408,0.1592392558928769
27,0.05390179601334472,0.2851694908230264,0.2306488699708856,-0.07299429052554528,0.14831675027383565,0.13985506848700466,0.08437910495444771,-0.12476931064882059,0.19848966358457829,-0.10223639882563408,0.1592392558928769
28,0.05390179601334472,0.2851694908230264,0.2306488699708856,-0.07299429052554528,0.14831675027383565,0.13985506848700466,0.08437910495444771,-0.12476931064882059,0.19848966358457829,-0.10223639882563408,0.1592392558928769
29,0.05390179601334472,0.2851694908230264,0.2306488699708856,-0.07299429052554528,0.14831675027383565,0.13985506848700466,0.08437910495444771,-0.12476931064882059,0.19848966358457829,-0.10223639882563408,0.1592392558928769
30,0.05390179601334472,0.2851694908230264,0.2306488699708856,-0.07299429052554528,0.14831675027383565,0.13985506848700466,0.08437910495444771,-0.12476931064882059,0.19848966358457829,-0.10223639882563408,0.1592392558928769
31,0.14467497239947844,-4.961737623167913e-10,-9.92486378958451e-09,0.06569594948420064,0.6332462317964732,-0.16494822478132712,0.09702128159059244,-0.13505176524846824,0.21730482216298683,0.08085173609350892,0.06120500692359238
32,0.14467497239947844,-4.961737623167913e-10,-9.92486378958451e-09,0.06569594948420064,0.6332462317964732,-0.16494822478132712,0.09702128159059244,-0.13505176524846824,0.21730482216298683,0.08085173609350892,0.06120500692359238
33,0.14467497239947844,-4.961737623167913e-10,-9.92486378958451e-09,0.06569594948420064,0.6332462317964732,-0.16494822478132712,0.09702128159059244,-0.13505176524846824,0.21730482216298683,0.08085173609350892,0.06120500692359238
34,0.14467497239947844,-4.961737623167913e-10,-9.92486378958451e-09,0.06569594948420064,0.6332462317964732,-0.16494822478132712,0.09702128159059244,-0.13505176524846824,0.21730482216298683,0.08085173609350892,0.06120500692359238
35,0.14467497239947844,-4.961737623167913e-10,-9.92486378958451e-09,0.06569594948420064,0.6332462317964732,-0.16494822478132712,0.09702128159059244,-0.13505176524846824,0.21730482216298683,0.08085173609350892,0.06120500692359238
36,0.14467497239947844,-4.961737623167913e-10,-9.92486378958451e-09,0.06569594948420064,0.6332462317964732,-0.16494822478132712,0.09702128159059244,-0.13505176524846824,0.21730482216298683,0.08085173609350892,0.06120500692359238
37,0.14467497239947844,-4.961737623167913e-10,-9.92486378958451e-09,0.06569594948420064,0.6332462317964732,-0.16494822478132712,0.09702128159059244,-0.13505176524846824,0.21730482216298683,0.08085173609350892,0.06120500692359238
38,0.14467497239947844,-4.961737623167913e-10,-9.92486378958451e-09,0.06569594948420064,0.6332462317964732,-0.16494822478132712,0.09702128159059244,-0.13505176524846824,0.21730482216298683,0.08085173609350892,0.06120500692359238
39,0.14467497239947844,-4.961737623167913e-10,-9.92486378958451e-09,0.06569594948420064,0.6332462317964732,-0.16494822478132712,0.09702128159059244,-0.13505176524846824,0.21730482216298683,0.08085173609350892,0.06120500692359238
40,0.14467497239947844,-4.961737623167913e-10,-9.92486378958451e-09,0.06569594948420064,0.6332462317964732,-0.16494822478132712,0.09702128159059244,-0.13505176524846824,0.21730482216298683,0.08085173609350892,0.06120500692359238
41,0.14467497239947844,-4.961737623167913e-10,-9.92486378958451e-09,0.06569594948420064,0.6332462317964732,-0.16494822478132712,0.09702128159059244,-0.13505176524846824,0.21730482216298683,0.08085173609350892,0.06120500692359238
42,0.14467497239947844,-4.961737623167913e-10,-9.92486378958451e-09,0.06569594948420064,0.6332462317964732,-0.16494822478132712,0.09702128159059244,-0.13505176524846824,0.21730482216298683,0.08085173609350892,0.06120500692359238
43,0.14467497239947844,-4.961737623167913e-10,-9.92486378958451e-09,0.06569594948420064,0.6332462317964732,-0.16494822478132712,0.09702128159059244,-0.13505176524846824,0.21730482216298683,0.08085173609350892,0.06120500692359238
44,0.14467497239947844,-4.961737623167913e-10,-9.92486378958451e-09,0.06569594948420064,0.6332462317964732,-0.16494822478132712,0.09702128159059244,-0.13505176524846824,0.21730482216298683,0.08085173609350892,0.06120500692359238
45,0.14467497239947844,-4.961737623167913e-10,-9.92486378958451e-09,0.06569594948420064,0.6332462317964732,-0.16494822478132712,0.09702128159059244,-0.13505176524846824,0.21730482216298683,0.08085173609350892,0.06120500692359238
46,0.14467497239947844,-4.961737623167913e-10,-9.92486378958451e-09,0.06569594948420064,0.6332462317964732,-0.16494822478132712,0.09702128159059244,-0.13505176524846824,0.21730482216298683,0.08085173609350892,0.06120500692359238
47,0.14467497239947844,-4.961737623167913e-10,-9.92486378958451e-09,0.06569594948420064,0.6332462317964732,-0.16494822478132712,0.09702128159059244,-0.13505176524846824,0.21730482216298683,0.08085173609350892,0.06120500692359238
48,0.14467497239947844,-4.961737623167913e-10,-9.92486378958451e-09,0.06569594948420064,0.6332462317964732,-0.16494822478132712,0.09702128159059244,-0.13505176524846824,0.21730482216298683,0.08085173609350892,0.06120500692359238
49,0.14467497239947844,-4.961737623167913e-10,-9.92486378958451e-09,0.06569594948420064,0.6332462317964732,-0.16494822478132712,0.09702128159059244,-0.13505176524846824,0.21730482216298683,0.08085173609350892,0.06120500692359238
50,0.14467497239947844,-4.961737623167913e-10,-9.92486378958451e-09,0.06569594948420064,0.6332462317964732,-0.16494822478132712,0.09702128159059244,-0.13505176524846824,0.21730482216298683,0.08085173609350892,0.06120500692359238
51,0.14467497239947844,-4.961737623167913e-10,-9.92486378958451e-09,0.06569594948420064,0.6332462317964732,-0.16494822478132712,0.09702128159059244,-0.13505176524846824,0.21730482216298683,0.08085173609350892,0.06120500692359238
52,0.14467497239947844,-4.961737623167913e-10,-9.92486378958451e-09,0.06569594948420064,0.6332462317964732,-0.16494822478132712,0.09702128159059244,-0.13505176524846824,0.21730482216298683,0.08085173609350892,0.06120500692359238
53,0.14467497239947844,-4.961737623167913e-10,-9.92486378958451e-09,0.06569594948420064,0.6332462317964732,-0.16494822478132712,0.09702128159059244,-0.13505176524846824,0.21730482216298683,0.08085173609350892,0.06120500692359238
54,0.14467497239947844,-4.961737623167913e-10,-9.92486378958451e-09,0.06569594948420064,0.6332462317964732,-0.16494822478132712,0.09702128159059244,-0.13505176524846824,0.21730482216298683,0.08085173609350892,0.06120500692359238
55,0.14467497239947844,-4.961737623167913e-10,-9.92486378958451e-09,0.06569594948420064,0.6332462317964732,-0.16494822478132712,0.09702128159059244,-0.13505176524846824,0.21730482216298683,0.08085173609350892,0.06120500692359238
56,0.14467497239947844,-4.961737623167913e-10,-9.92486378958451e-09,0.06569594948420064,0.6332462317964732,-0.16494822478132712,0.09702128159059244,-0.13505176524846824,0.21730482216298683,0.08085173609350892,0.06120500692359238
57,0.14467497239947844,-4.961737623167913e-10,-9.92486378958451e-09,0.06569594948420064,0.6332462317964732,-0.16494822478132712,0.09702128159059244,-0.13505176524846824,0.21730482216298683,0.08085173609350892,0.06120500692359238
58,0.14467497239947844,-4.961737623167913e-10,-9.92486378958451e-09,0.06569594948420064,0.6332462317964732,-0.16494822478132712,0.09702128159059244,-0.13505176524846824,0.21730482216298683,0.08085173609350892,0.06120500692359238
59,0.10315083369549358,0.3420806819230753,0.32648632784449744,0.12059549383354815,0.09532016814076386,0.061552395361700867,0.08379256131946217,0.09872346073047761,0.06829807715098092,-0.15669125016536098,-0.14330874983463895
60,0.10315083369549358,0.3420806819230753,0.32648632784449744,0.12059549383354815,0.09532016814076386,0.061552395361700867,0.08379256131946217,0.09872346073047761,0.06829807715098092,-0.15669125016536098,-0.14330874983463895
61,0.10315083369549358,0.3420806819230753,0.32648632784449744,0.12059549383354815,0.09532016814076386,0.061552395361700867,0.08379256131946217,0.09872346073047761,0.06829807715098092,-0.15669125016536098,-0.14330874983463895
62,0.10315083369549358,0.3420806819230753,0.32648632784449744,0.12059549383354815,0.09532016814076386,0.061552395361700867,0.08379256131946217,0.09872346073047761,0.06829807715098092,-0.15669125016536098,-0.14330874983463895
63,0.10315083369549358,0.3420806819230753,0.32648632784449744,0.12059549383354815,0.09532016814076386,0.061552395361700867,0.08379256131946217,0.09872346073047761,0.06829807715098092,-0.15669125016536098,-0.14330874983463895
64,0.10315083369549358,0.3420806819230753,0.32648632784449744,0.12059549383354815,0.09532016814076386,0.061552395361700867,0.08379256131946217,0.09872346073047761,0.06829807715098092,-0.15669125016536098,-0.14330874983463895
65,0.10315083369549358,0.3420806819230753,0.32648632784449744,0.12059549383354815,0.09532016814076386,0.061552395361700867,0.08379256131946217,0.09872346073047761,0.06829807715098092,-0.15669125016536098,-0.14330874983463895
66,0.10315083369549358,0.3420806819230753,0.32648632784449744,0.12059549383354815,0.09532016814076386,0.061552395361700867,0.08379256131946217,0.09872346073047761,0.06829807715098092,-0.15669125016536098,-0.14330874983463895
67,0.10315083369549358,0.3420806819230753,0.32648632784449744,0.12059549383354815,0.09532016814076386,0.061552395361700867,0.08379256131946217,0.09872346073047761,0.06829807715098092,-0.15669125016536098,-0.14330874983463895
68,0.10315083369549358,0.3420806819230753,0.32648632784449744,0.12059549383354815,0.09532016814076386,0.061552395361700867,0.08379256131946217,0.09872346073047761,0.06829807715098092,-0.15669125016536098,-0.14330874983463895
69,0.10315083369549358,0.3420806819230753,0.32648632784449744,0.12059549383354815,0.09532016814076386,0.061552395361700867,0.08379256131946217,0.09872346073047761,0.06829807715098092,-0.15669125016536098,-0.14330874983463895
70,0.10315083369549358,0.3420806819230753,0.32648632784449744,0.12059549383354815,0.09532016814076386,0.061552395361700867,0.08379256131946217,0.09872346073047761,0.06829807715098092,-0.15669125016536098,-0.14330874983463895
71,0.10315083369549358,0.3420806819230753,0.32648632784449744,0.12059549383354815,0.09532016814076386,0.061552395361700867,0.08379256131946217,0.09872346073047761,0.06829807715098092,-0.15669125016536098,-0.14330874983463895
72,0.10315083369549358,0.3420806819230753,0.32648632784449744,0.12059549383354815,0.09532016814076386,0.061552395361700867,0.08379256131946217,0.09872346073047761,0.06829807715098092,-0.15669125016536098,-0.14330874983463895
73,0.10315083369549358,0.3420806819230753,0.32648632784449744,0.12059549383354815,0.09532016814076386,0.061552395361700867,0.08379256131946217,0.09872346073047761,0.06829807715098092,-0.15669125016536098,-0.14330874983463895
74,0.10315083369549358,0.3420806819230753,0.32648632784449744,0.12059549383354815,0.09532016814076386,0.061552395361700867,0.08379256131946217,0.09872346073047761,0.06829807715098092,-0.15669125016536098,-0.14330874983463895
75,0.10315083369549358,0.3420806819230753,0.32648632784449744,0.12059549383354815,0.09532016814076386,0.061552395361700867,0.08379256131946217,0.09872346073047761,0.06829807715098092,-0.15669125016536098,-0.14330874983463895
76,0.10315083369549358,0.3420806819230753,0.32648632784449744,0.12059549383354815,0.09532016814076386,0.061552395361700867,0.08379256131946217,0.09872346073047761,0.06829807715098092,-0.15669125016536098,-0.14330874983463895
77,0.10315083369549358,0.3420806819230753,0.32648632784449744,0.12059549383354815,0.09532016814076386,0.061552395361700867,0.08379256131946217,0.09872346073047761,0.06829807715098092,-0.15669125016536098,-0.14330874983463895
78,0.10315083369549358,0.3420806819230753,0.32648632784449744,0.12059549383354815,0.09532016814076386,0.061552395361700867,0.08379256131946217,0.09872346073047761,0.06829807715098092,-0.15669125016536098,-0.14330874983463895
79,0.10315083369549358,0.3420806819230753,0.32648632784449744,0.12059549383354815,0.09532016814076386,0.061552395361700867,0.08379256131946217,0.09872346073047761,0.06829807715098092,-0.15669125016536098,-0.14330874983463895
80,0.10315083369549358,0.3420806819230753,0.32648632784449744,0.12059549383354815,0.09532016814076386,0.061552395361700867,0.08379256131946217,0.09872346073047761,0.06829807715098092,-0.15669125016536098,-0.14330874983463895
81,0.10315083369549358,0.3420806819230753,0.32648632784449744,0.12059549383354815,0.09532016814076386,0.061552395361700867,0.08379256131946217,0.09872346073047761,0.06829807715098092,-0.15669125016536098,-0.14330874983463895
82,0.10315083369549358,0.3420806819230753,0.32648632784449744,0.12059549383354815,0.09532016814076386,0.061552395361700867,0.08379256131946217,0.09872346073047761,0.06829807715098092,-0.15669125016536098,-0.14330874983463895
83,0.10315083369549358,0.3420806819230753,0.32648632784449744,0.12059549383354815,0.09532016814076386,0.061552395361700867,0.08379256131946217,0.09872346073047761,0.06829807715098092,-0.15669125016536098,-0.14330874983463895
84,0.10315083369549358,0.3420806819230753,0.32648632784449744,0.12059549383354815,0.09532016814076386,0.061552395361700867,0.08379256131946217,0.09872346073047761,0.06829807715098092,-0.15669125016536098,-0.14330874983463895
85,0.10315083369549358,0.3420806819230753,0.32648632784449744,0.12059549383354815,0.09532016814076386,0.061552395361700867,0.08379256131946217,0.09872346073047761,0.06829807715098092,-0.15669125016536098,-0.14330874983463895
86,0.10315083369549358,0.3420806819230753,0.32648632784449744,0.12059549383354815,0.09532016814076386,0.061552395361700867,0.08379256131946217,0.09872346073047761,0.06829807715098092,-0.15669125016536098,-0.14330874983463895
87,0.10315083369549358,0.3420806819230753,0.32648632784449744,0.12059549383354815,0.09532016814076386,0.061552395361700867,0.08379256131946217,0.09872346073047761,0.06829807715098092,-0.15669125016536098,-0.14330874983463895
88,0.10315083369549358,0.3420806819230753,0.32648632784449744,0.12059549383354815,0.09532016814076386,0.061552395361700867,0.08379256131946217,0.09872346073047761,0.06829807715098092,-0.15669125016536098,-0.14330874983463895
89,0.10315083369549358,0.3420806819230753,0.32648632784449744,0.12059549383354815,0.09532016814076386,0.061552395361700867,0.08379256131946217,0.09872346073047761,0.06829807715098092,-0.15669125016536098,-0.14330874983463895
90,0.02531572033869719,-0.020866690692917838,0.012552960657462076,0.025148131744958745,-0.020879679834003788,0.9839937373042396,0.21260484168378407,0.0403846082708584,-0.12494740697958544,-0.049306944647758415,-0.08399927784573451
91,0.02531572033869719,-0.020866690692917838,0.012552960657462076,0.025148131744958745,-0.020879679834003788,0.9839937373042396,0.21260484168378407,0.0403846082708584,-0.12494740697958544,-0.049306944647758415,-0.08399927784573451
92,0.02531572033869719,-0.020866690692917838,0.012552960657462076,0.025148131744958745,-0.020879679834003788,0.9839937373042396,0.21260484168378407,0.0403846082708584,-0.12494740697958544,-0.049306944647758415,-0.08399927784573451
93,0.02531572033869719,-0.020866690692917838,0.012552960657462076,0.025148131744958745,-0.020879679834003788,0.9839937373042396,0.21260484168378407,0.0403846082708584,-0.12494740697958544,-0.049306944647758415,-0.08399927784573451
94,0.02531572033869719,-0.020866690692917838,0.012552960657462076,0.025148131744958745,-0.020879679834003788,0.9839937373042396,0.21260484168378407,0.0403846082708584,-0.12494740697958544,-0.049306944647758415,-0.08399927784573451
95,0.02531572033869719,-0.020866690692917838,0.012552960657462076,0.025148131744958745,-0.020879679834003788,0.9839937373042396,0.21260484168378407,0.0403846082708584,-0.12494740697958544,-0.049306944647758415,-0.08399927784573451
96,0.02531572033869719,-0.020866690692917838,0.012552960657462076,0.025148131744958745,-0.020879679834003788,0.9839937373042396,0.21260484168378407,0.0403846082708584,-0.12494740697958544,-0.049306944647758415,-0.08399927784573451
97,0.02531572033869719,-0.020866690692917838,0.012552960657462076,0.025148131744958745,-0.020879679834003788,0.9839937373042396,0.21260484168378407,0.0403846082708584,-0.12494740697958544,-0.049306944647758415,-0.08399927784573451
98,0.02531572033869719,-0.020866690692917838,0.012552960657462076,0.025148131744958745,-0.020879679834003788,0.9839937373042396,0.21260484168378407,0.0403846082708584,-0.12494740697958544,-0.049306944647758415,-0.08399927784573451
99,0.02531572033869719,-0.020866690692917838,0.012552960657462076,0.025148131744958745,-0.020879679834003788,0.9839937373042396,0.21260484168378407,0.0403846082708584,-0.12494740697958544,-0.049306944647758415,-0.08399927784573451
100,0.02531572033869719,-0.020866690692917838,0.012552960657462076,0.025148131744958745,-0.020879679834003788,0.9839937373042396,0.21260484168378407,0.0403846082708584,-0.12494740697958544,-0.049306944647758415,-0.08399927784573451
101,0.02531572033869719,-0.020866690692917838,0.012552960657462076,0.025148131744958745,-0.020879679834003788,0.9839937373042396,0.21260484168378407,0.0403846082708584,-0.12494740697958544,-0.049306944647758415,-0.08399927784573451
102,0.02531572033869719,-0.020866690692917838,0.012552960657462076,0.025148131744958745,-0.020879679834003788,0.9839937373042396,0.21260484168378407,0.0403846082708584,-0.12494740697958544,-0.049306944647758415,-0.08399927784573451
103,0.02531572033869719,-0.020866690692917838,0.012552960657462076,0.025148131744958745,-0.020879679834003788,0.9839937373042396,0.21260484168378407,0.0403846082708584,-0.12494740697958544,-0.049306944647758415,-0.08399927784573451
104,0.02531572033869719,-0.020866690692917838,0.012552960657462076,0.025148131744958745,-0.020879679834003788,0.9839937373042396,0.21260484168378407,0.0403846082708584,-0.12494740697958544,-0.049306944647758415,-0.08399927784573451
105,0.02531572033869719,-0.020866690692917838,0.012552960657462076,0.025148131744958745,-0.020879679834003788,0.9839937373042396,0.21260484168378407,0.0403846082708584,-0.12494740697958544,-0.049306944647758415,-0.08399927784573451
106,0.02531572033869719,-0.020866690692917838,0.012552960657462076,0.025148131744958745,-0.020879679834003788,0.9839937373042396,0.21260484168378407,0.0403846082708584,-0.12494740697958544,-0.049306944647758415,-0.08399927784573451
107,0.02531572033869719,-0.020866690692917838,0.012552960657462076,0.025148131744958745,-0.020879679834003788,0.9839937373042396,0.21260484168378407,0.0403846082708584,-0.12494740697958544,-0.049306944647758415,-0.08399927784573451
108,0.02531572033869719,-0.020866690692917838,0.012552960657462076,0.025148131744958745,-0.020879679834003788,0.9839937373042396,0.21260484168378407,0.0403846082708584,-0.12494740697958544,-0.049306944647758415,-0.08399927784573451
109,0.02531572033869719,-0.020866690692917838,0.012552960657462076,0.025148131744958745,-0.020879679834003788,0.9839937373042396,0.21260484168378407,0.0403846082708584,-0.12494740697958544,-0.049306944647758415,-0.08399927784573451
110,0.02531572033869719,-0.020866690692917838,0.012552960657462076,0.025148131744958745,-0.020879679834003788,0.9839937373042396,0.21260484168378407,0.0403846082708584,-0.12494740697958544,-0.049306944647758415,-0.08399927784573451
111,0.02531572033869719,-0.020866690692917838,0.012552960657462076,0.025148131744958745,-0.020879679834003788,0.9839937373042396,0.21260484168378407,0.0403846082708584,-0.12494740697958544,-0.049306944647758415,-0.08399927784573451
112,0.02531572033869719,-0.020866690692917838,0.012552960657462076,0.025148131744958745,-0.020879679834003788,0.9839937373042396,0.21260484168378407,0.0403846082708584,-0.12494740697958544,-0.049306944647758415,-0.08399927784573451
113,0.02531572033869719,-0.020866690692917838,0.012552960657462076,0.025148131744958745,-0.020879679834003788,0.9839937373042396,0.21260484168378407,0.0403846082708584,-0.12494740697958544,-0.049306944647758415,-0.08399927784573451
114,0.02531572033869719,-0.020866690692917838,0.012552960657462076,0.025148131744958745,-0.020879679834003788,0.9839937373042396,0.21260484168378407,0.0403846082708584,-0.12494740697958544,-0.049306944647758415,-0.08399927784573451
115,0.02531572033869719,-0.020866690692917838,0.012552960657462076,0.025148131744958745,-0.020879679834003788,0.9839937373042396,0.21260484168378407,0.0403846082708584,-0.12494740697958544,-0.049306944647758415,-0.08399927784573451
116,0.02531572033869719,-0.020866690692917838,0.012552960657462076,0.025148131744958745,-0.020879679834003788,0.9839937373042396,0.21260484168378407,0.0403846082708584,-0.12494740697958544,-0.049306944647758415,-0.08399927784573451
117,0.02531572033869719,-0.020866690692917838,0.012552960657462076,0.025148131744958745,-0.020879679834003788,0.9839937373042396,0.21260484168378407,0.0403846082708584,-0.12494740697958544,-0.049306944647758415,-0.08399927784573451
118,0.02531572033869719,-0.020866690692917838,0.012552960657462076,0.025148131744958745,-0.020879679834003788,0.9839937373042396,0.21260484168378407,0.0403846082708584,-0.12494740697958544,-0.049306944647758415,-0.08399927784573451
119,0.02531572033869719,-0.020866690692917838,0.012552960657462076,0.025148131744958745,-0.020879679834003788,0.9839937373042396,0.21260484168378407,0.0403846082708584,-0.12494740697958544,-0.049306944647758415,-0.08399927784573451
120,0.06472685947483847,0.10061406193156956,0.3239958301984509,0.047648047911072626,-0.14746229055054652,0.21545267096476944,0.08337711141254397,0.12056033281549519,0.05666232067923869,0.052107615027215407,0.0823174401353522
121,0.06472685947483847,0.10061406193156956,0.3239958301984509,0.047648047911072626,-0.14746229055054652,0.21545267096476944,0.08337711141254397,0.12056033281549519,0.05666232067923869,0.052107615027215407,0.0823174401353522
122,0.06472685947483847,0.10061406193156956,0.3239958301984509,0.047648047911072626,-0.14746229055054652,0.21545267096476944,0.08337711141254397,0.12056033281549519,0.05666232067923869,0.052107615027215407,0.0823174401353522
123,0.06472685947483847,0.10061406193156956,0.3239958301984509,0.047648047911072626,-0.14746229055054652,0.21545267096476944,0.08337711141254397,0.12056033281549519,0.05666232067923869,0.052107615027215407,0.0823174401353522
124,0.06472685947483847,0.10061406193156956,0.3239958301984509,0.047648047911072626,-0.14746229055054652,0.21545267096476944,0.08337711141254397,0.12056033281549519,0.05666232067923869,0.052107615027215407,0.0823174401353522
125,0.06472685947483847,0.10061406193156956,0.3239958301984509,0.047648047911072626,-0.14746229055054652,0.21545267096476944,0.08337711141254397,0.12056033281549519,0.05666232067923869,0.052107615027215407,0.0823174401353522
126,0.06472685947483847,0.10061406193156956,0.3239958301984509,0.047648047911072626,-0.14746229055054652,0.21545267096476944,0.08337711141254397,0.12056033281549519,0.05666232067923869,0.052107615027215407,0.0823174401353522
127,0.06472685947483847,0.10061406193156956,0.3239958301984509,0.047648047911072626,-0.14746229055054652,0.21545267096476944,0.08337711141254397,0.12056033281549519,0.05666232067923869,0.052107615027215407,0.0823174401353522
128,0.06472685947483847,0.10061406193156956,0.3239958301984509,0.047648047911072626,-0.14746229055054652,0.21545267096476944,0.08337711141254397,0.12056033281549519,0.05666232067923869,0.052107615027215407,0.0823174401353522
129,0.06472685947483847,0.10061406193156956,0.3239958301984509,0.047648047911072626,-0.14746229055054652,0.21545267096476944,0.08337711141254397,0.12056033281549519,0.05666232067923869,0.052107615027215407,0.0823174401353522
130,0.06472685947483847,0.10061406193156956,0.3239958301984509,0.047648047911072626,-0.14746229055054652,0.21545267096476944,0.08337711141254397,0.12056033281549519,0.05666232067923869,0.052107615027215407,0.0823174401353522
131,0.06472685947483847,0.10061406193156956,0.3239958301984509,0.047648047911072626,-0.14746229055054652,0.21545267096476944,0.08337711141254397,0.12056033281549519,0.05666232067923869,0.052107615027215407,0.0823174401353522
132,0.06472685947483847,0.10061406193156956,0.3239958301984509,0.047648047911072626,-0.14746229055054652,0.21545267096476944,0.08337711141254397,0.12056033281549519,0.05666232067923869,0.052107615027215407,0.0823174401353522
133,0.06472685947483847,0.10061406193156956,0.3239958301984509,0.047648047911072626,-0.14746229055054652,0.21545267096476944,0.08337711141254397,0.12056033281549519,0.05666232067923869,0.052107615027215407,0.0823174401353522
134,0.06472685947483847,0.10061406193156956,0.3239958301984509,0.047648047911072626,-0.14746229055054652,0.21545267096476944,0.08337711141254397,0.12056033281549519,0.05666232067923869,0.052107615027215407,0.0823174401353522
135,0.06472685947483847,0.10061406193156956,0.3239958301984509,0.047648047911072626,-0.14746229055054652,0.21545267096476944,0.08337711141254397,0.12056033281549519,0.05666232067923869,0.052107615027215407,0.0823174401353522
136,0.06472685947483847,0.10061406193156956,0.3239958301984509,0.047648047911072626,-0.14746229055054652,0.21545267096476944,0.08337711141254397,0.12056033281549519,0.05666232067923869,0.052107615027215407,0.0823174401353522
137,0.06472685947483847,0.10061406193156956,0.3239958301984509,0.047648047911072626,-0.14746229055054652,0.21545267096476944,0.08337711141254397,0.12056033281549519,0.05666232067923869,0.052107615027215407,0.0823174401353522
138,0.06472685947483847,0.10061406193156956,0.3239958301984509,0.047648047911072626,-0.14746229055054652,0.21545267096476944,0.08337711141254397,0.12056033281549519,0.05666232067923869,0.052107615027215407,0.0823174401353522
139,0.06472685947483847,0.10061406193156956,0.3239958301984509,0.047648047911072626,-0.14746229055054652,0.21545267096476944,0.08337711141254397,0.12056033281549519,0.05666232067923869,0.052107615027215407,0.0823174401353522
140,0.06472685947483847,0.10061406193156956,0.3239958301984509,0.047648047911072626,-0.14746229055054652,0.21545267096476944,0.08337711141254397,0.12056033281549519,0.05666232067923869,0.052107615027215407,0.0823174401353522
141,0.06472685947483847,0.10061406193156956,0.3239958301984509,0.047648047911072626,-0.14746229055054652,0.21545267096476944,0.08337711141254397,0.12056033281549519,0.05666232067923869,0.052107615027215407,0.0823174401353522
142,0.06472685947483847,0.10061406193156956,0.3239958301984509,0.047648047911072626,-0.14746229055054652,0.21545267096476944,0.08337711141254397,0.12056033281549519,0.05666232067923869,0.052107615027215407,0.0823174401353522
143,0.06472685947483847,0.10061406193156956,0.3239958301984509,0.047648047911072626,-0.14746229055054652,0.21545267096476944,0.08337711141254397,0.12056033281549519,0.05666232067923869,0.052107615027215407,0.0823174401353522
144,0.06472685947483847,0.10061406193156956,0.3239958301984509,0.047648047911072626,-0.14746229055054652,0.21545267096476944,0.08337711141254397,0.12056033281549519,0.05666232067923869,0.052107615027215407,0.0823174401353522
145,0.06472685947483847,0.10061406193156956,0.3239958301984509,0.047648047911072626,-0.14746229055054652,0.21545267096476944,0.08337711141254397,0.12056033281549519,0.05666232067923869,0.052107615027215407,0.0823174401353522
146,0.06472685947483847,0.10061406193156956,0.3239958301984509,0.047648047911072626,-0.14746229055054652,0.21545267096476944,0.08337711141254397,0.12056033281549519,0.05666232067923869,0.052107615027215407,0.0823174401353522
147,0.06472685947483847,0.10061406193156956,0.3239958301984509,0.047648047911072626,-0.14746229055054652,0.21545267096476944,0.08337711141254397,0.12056033281549519,0.05666232067923869,0.052107615027215407,0.0823174401353522
148,0.06472685947483847,0.10061406193156956,0.3239958301984509,0.047648047911072626,-0.14746229055054652,0.21545267096476944,0.08337711141254397,0.12056033281549519,0.05666232067923869,0.052107615027215407,0.0823174401353522
149,0.06472685947483847,0.10061406193156956,0.3239958301984509,0.047648047911072626,-0.14746229055054652,0.21545267096476944,0.08337711141254397,0.12056033281549519,0.05666232067923869,0.052107615027215407,0.0823174401353522
150,0.06472685947483847,0.10061406193156956,0.3239958301984509,0.047648047911072626,-0.14746229055054652,0.21545267096476944,0.08337711141254397,0.12056033281549519,0.05666232067923869,0.052107615027215407,0.0823174401353522
151,-0.13278985376405664,0.6007940470022416,0.03847421031087999,0.043717190003032334,1.9309809394052784e-08,0.3461392923326948,0.19092372550671577,0.03140538517474127,0.048546130359884684,-0.12982328725001277,-0.03738685898593059
152,-0.13278985376405664,0.6007940470022416,0.03847421031087999,0.043717190003032334,1.9309809394052784e-08,0.3461392923326948,0.19092372550671577,0.03140538517474127,0.048546130359884684,-0.12982328725001277,-0.03738685898593059
153,-0.13278985376405664,0.6007940470022416,0.03847421031087999,0.043717190003032334,1.9309809394052784e-08,0.3461392923326948,0.19092372550671577,0.03140538517474127,0.048546130359884684,-0.12982328725001277,-0.03738685898593059
154,-0.13278985376405664,0.6007940470022416,0.03847421031087999,0.043717190003032334,1.9309809394052784e-08,0.3461392923326948,0.19092372550671577,0.03140538517474127,0.048546130359884684,-0.12982328725001277,-0.03738685898593059
155,-0.13278985376405664,0.6007940470022416,0.03847421031087999,0.043717190003032334,1.9309809394052784e-08,0.3461392923326948,0.19092372550671577,0.03140538517474127,0.048546130359884684,-0.12982328725001277,-0.03738685898593059
156,-0.13278985376405664,0.6007940470022416,0.03847421031087999,0.043717190003032334,1.9309809394052784e-08,0.3461392923326948,0.19092372550671577,0.03140538517474127,0.048546130359884684,-0.12982328725001277,-0.03738685898593059
157,-0.13278985376405664,0.6007940470022416,0.03847421031087999,0.043717190003032334,1.9309809394052784e-08,0.3461392923326948,0.19092372550671577,0.03140538517474127,0.048546130359884684,-0.12982328725001277,-0.03738685898593059
158,-0.13278985376405664,0.6007940470022416,0.03847421031087999,0.043717190003032334,1.9309809394052784e-08,0.3461392923326948,0.19092372550671577,0.03140538517474127,0.048546130359884684,-0.12982328725001277,-0.03738685898593059
159,-0.13278985376405664,0.6007940470022416,0.03847421031087999,0.043717190003032334,1.9309809394052784e-08,0.3461392923326948,0.19092372550671577,0.03140538517474127,0.048546130359884684,-0.12982328725001277,-0.03738685898593059
160,-0.13278985376405664,0.6007940470022416,0.03847421031087999,0.043717190003032334,1.9309809394052784e-08,0.3461392923326948,0.19092372550671577,0.03140538517474127,0.048546130359884684,-0.12982328725001277,-0.03738685898593059
161,-0.13278985376405664,0.6007940470022416,0.03847421031087999,0.043717190003032334,1.9309809394052784e-08,0.3461392923326948,0.19092372550671577,0.03140538517474127,0.048546130359884684,-0.12982328725001277,-0.03738685898593059
162,-0.13278985376405664,0.6007940470022416,0.03847421031087999,0.043717190003032334,1.9309809394052784e-08,0.3461392923326948,0.19092372550671577,0.03140538517474127,0.048546130359884684,-0.12982328725001277,-0.03738685898593059
163,-0.13278985376405664,0.6007940470022416,0.03847421031087999,0.043717190003032334,1.9309809394052784e-08,0.3461392923326948,0.19092372550671577,0.03140538517474127,0.048546130359884684,-0.12982328725001277,-0.03738685898593059
164,-0.13278985376405664,0.6007940470022416,0.03847421031087999,0.043717190003032334,1.9309809394052784e-08,0.3461392923326948,0.19092372550671577,0.03140538517474127,0.048546130359884684,-0.12982328725001277,-0.03738685898593059
165,-0.13278985376405664,0.6007940470022416,0.03847421031087999,0.043717190003032334,1.9309809394052784e-08,0.3461392923326948,0.19092372550671577,0.03140538517474127,0.048546130359884684,-0.12982328725001277,-0.03738685898593059
166,-0.13278985376405664,0.6007940470022416,0.03847421031087999,0.043717190003032334,1.9309809394052784e-08,0.3461392923326948,0.19092372550671577,0.03140538517474127,0.048546130359884684,-0.12982328725001277,-0.03738685898593059
167,-0.13278985376405664,0.6007940470022416,0.03847421031087999,0.043717190003032334,1.9309809394052784e-08,0.3461392923326948,0.19092372550671577,0.03140538517474127,0.048546130359884684,-0.12982328725001277,-0.03738685898593059
168,-0.13278985376405664,0.6007940470022416,0.03847421031087999,0.043717190003032334,1.9309809394052784e-08,0.3461392923326948,0.19092372550671577,0.03140538517474127,0.048546130359884684,-0.12982328725001277,-0.03738685898593059
169,-0.13278985376405664,0.6007940470022416,0.03847421031087999,0.043717190003032334,1.9309809394052784e-08,0.3461392923326948,0.19092372550671577,0.03140538517474127,0.048546130359884684,-0.12982328725001277,-0.03738685898593059
170,-0.13278985376405664,0.6007940470022416,0.03847421031087999,0.043717190003032334,1.9309809394052784e-08,0.3461392923326948,0.19092372550671577,0.03140538517474127,0.048546130359884684,-0.12982328725001277,-0.03738685898593059
171,-0.13278985376405664,0.6007940470022416,0.03847421031087999,0.043717190003032334,1.9309809394052784e-08,0.3461392923326948,0.19092372550671577,0.03140538517474127,0.048546130359884684,-0.12982328725001277,-0.03738685898593059
172,-0.13278985376405664,0.6007940470022416,0.03847421031087999,0.043717190003032334,1.9309809394052784e-08,0.3461392923326948,0.19092372550671577,0.03140538517474127,0.048546130359884684,-0.12982328725001277,-0.03738685898593059
173,-0.13278985376405664,0.6007940470022416,0.03847421031087999,0.043717190003032334,1.9309809394052784e-08,0.3461392923326948,0.19092372550671577,0.03140538517474127,0.048546130359884684,-0.12982328725001277,-0.03738685898593059
174,-0.13278985376405664,0.6007940470022416,0.03847421031087999,0.043717190003032334,1.9309809394052784e-08,0.3461392923326948,0.19092372550671577,0.03140538517474127,0.048546130359884684,-0.12982328725001277,-0.03738685898593059
175,-0.13278985376405664,0.6007940470022416,0.03847421031087999,0.043717190003032334,1.9309809394052784e-08,0.3461392923326948,0.19092372550671577,0.03140538517474127,0.048546130359884684,-0.12982328725001277,-0.03738685898593059
176,-0.13278985376405664,0.6007940470022416,0.03847421031087999,0.043717190003032334,1.9309809394052784e-08,0.3461392923326948,0.19092372550671577,0.03140538517474127,0.048546130359884684,-0.12982328725001277,-0.03738685898593059
177,-0.13278985376405664,0.6007940470022416,0.03847421031087999,0.043717190003032334,1.9309809394052784e-08,0.3461392923326948,0.19092372550671577,0.03140538517474127,0.048546130359884684,-0.12982328725001277,-0.03738685898593059
178,-0.13278985376405664,0.6007940470022416,0.03847421031087999,0.043717190003032334,1.9309809394052784e-08,0.3461392923326948,0.19092372550671577,0.03140538517474127,0.048546130359884684,-0.12982328725001277,-0.03738685898593059
179,-0.13278985376405664,0.6007940470022416,0.03847421031087999,0.043717190003032334,1.9309809394052784e-08,0.3461392923326948,0.19092372550671577,0.03140538517474127,0.048546130359884684,-0.12982328725001277,-0.03738685898593059
180,-0.13278985376405664,0.6007940470022416,0.03847421031087999,0.043717190003032334,1.9309809394052784e-08,0.3461392923326948,0.19092372550671577,0.03140538517474127,0.048546130359884684,-0.12982328725001277,-0.03738685898593059
181,0.09620118945177271,0.048576057676909326,-0.08396685560063419,0.35800387297548125,-0.07396017281823986,0.09421202864840864,0.1651727836990069,0.08287467931071124,0.25155546801516704,0.02989858651176213,0.031432362129654605
182,0.09620118945177271,0.048576057676909326,-0.08396685560063419,0.35800387297548125,-0.07396017281823986,0.09421202864840864,0.1651727836990069,0.08287467931071124,0.25155546801516704,0.02989858651176213,0.031432362129654605
183,0.09620118945177271,0.048576057676909326,-0.08396685560063419,0.35800387297548125,-0.07396017281823986,0.09421202864840864,0.1651727836990069,0.08287467931071124,0.25155546801516704,0.02989858651176213,0.031432362129654605
184,0.09620118945177271,0.048576057676909326,-0.08396685560063419,0.35800387297548125,-0.07396017281823986,0.09421202864840864,0.1651727836990069,0.08287467931071124,0.25155546801516704,0.02989858651176213,0.031432362129654605
185,0.09620118945177271,0.048576057676909326,-0.08396685560063419,0.35800387297548125,-0.07396017281823986,0.09421202864840864,0.1651727836990069,0.08287467931071124,0.25155546801516704,0.02989858651176213,0.031432362129654605
186,0.09620118945177271,0.048576057676909326,-0.08396685560063419,0.35800387297548125,-0.07396017281823986,0.09421202864840864,0.1651727836990069,0.08287467931071124,0.25155546801516704,0.02989858651176213,0.031432362129654605
187,0.09620118945177271,0.048576057676909326,-0.08396685560063419,0.35800387297548125,-0.07396017281823986,0.09421202864840864,0.1651727836990069,0.08287467931071124,0.25155546801516704,0.02989858651176213,0.031432362129654605
188,0.09620118945177271,0.048576057676909326,-0.08396685560063419,0.35800387297548125,-0.07396017281823986,0.09421202864840864,0.1651727836990069,0.08287467931071124,0.25155546801516704,0.02989858651176213,0.031432362129654605
189,0.09620118945177271,0.048576057676909326,-0.08396685560063419,0.35800387297548125,-0.07396017281823986,0.09421202864840864,0.1651727836990069,0.08287467931071124,0.25155546801516704,0.02989858651176213,0.031432362129654605
190,0.09620118945177271,0.048576057676909326,-0.08396685560063419,0.35800387297548125,-0.07396017281823986,0.09421202864840864,0.1651727836990069,0.08287467931071124,0.25155546801516704,0.02989858651176213,0.031432362129654605
191,0.09620118945177271,0.048576057676909326,-0.08396685560063419,0.35800387297548125,-0.07396017281823986,0.09421202864840864,0.1651727836990069,0.08287467931071124,0.25155546801516704,0.02989858651176213,0.031432362129654605
192,0.09620118945177271,0.048576057676909326,-0.08396685560063419,0.35800387297548125,-0.07396017281823986,0.09421202864840864,0.1651727836990069,0.08287467931071124,0.25155546801516704,0.02989858651176213,0.031432362129654605
193,0.09620118945177271,0.048576057676909326,-0.08396685560063419,0.35800387297548125,-0.07396017281823986,0.09421202864840864,0.1651727836990069,0.08287467931071124,0.25155546801516704,0.02989858651176213,0.031432362129654605
194,0.09620118945177271,0.048576057676909326,-0.08396685560063419,0.35800387297548125,-0.07396017281823986,0.09421202864840864,0.1651727836990069,0.08287467931071124,0.25155546801516704,0.02989858651176213,0.031432362129654605
195,0.09620118945177271,0.048576057676909326,-0.08396685560063419,0.35800387297548125,-0.07396017281823986,0.09421202864840864,0.1651727836990069,0.08287467931071124,0.25155546801516704,0.02989858651176213,0.031432362129654605
196,0.09620118945177271,0.048576057676909326,-0.08396685560063419,0.35800387297548125,-0.07396017281823986,0.09421202864840864,0.1651727836990069,0.08287467931071124,0.25155546801516704,0.02989858651176213,0.031432362129654605
197,0.09620118945177271,0.048576057676909326,-0.08396685560063419,0.35800387297548125,-0.07396017281823986,0.09421202864840864,0.1651727836990069,0.08287467931071124,0.25155546801516704,0.02989858651176213,0.031432362129654605
198,0.09620118945177271,0.048576057676909326,-0.08396685560063419,0.35800387297548125,-0.07396017281823986,0.09421202864840864,0.1651727836990069,0.08287467931071124,0.25155546801516704,0.02989858651176213,0.031432362129654605
199,0.09620118945177271,0.048576057676909326,-0.08396685560063419,0.35800387297548125,-0.07396017281823986,0.09421202864840864,0.1651727836990069,0.08287467931071124,0.25155546801516704,0.02989858651176213,0.031432362129654605
200,0.09620118945177271,0.048576057676909326,-0.08396685560063419,0.35800387297548125,-0.07396017281823986,0.09421202864840864,0.1651727836990069,0.08287467931071124,0.25155546801516704,0.02989858651176213,0.031432362129654605
201,0.09620118945177271,0.048576057676909326,-0.08396685560063419,0.35800387297548125,-0.07396017281823986,0.09421202864840864,0.1651727836990069,0.08287467931071124,0.25155546801516704,0.02989858651176213,0.031432362129654605
202,0.09620118945177271,0.048576057676909326,-0.08396685560063419,0.35800387297548125,-0.07396017281823986,0.09421202864840864,0.1651727836990069,0.08287467931071124,0.25155546801516704,0.02989858651176213,0.031432362129654605
203,0.09620118945177271,0.048576057676909326,-0.08396685560063419,0.35800387297548125,-0.07396017281823986,0.09421202864840864,0.1651727836990069,0.08287467931071124,0.25155546801516704,0.02989858651176213,0.031432362129654605
204,0.09620118945177271,0.048576057676909326,-0.08396685560063419,0.35800387297548125,-0.07396017281823986,0.09421202864840864,0.1651727836990069,0.08287467931071124,0.25155546801516704,0.02989858651176213,0.031432362129654605
205,0.09620118945177271,0.048576057676909326,-0.08396685560063419,0.35800387297548125,-0.07396017281823986,0.09421202864840864,0.1651727836990069,0.08287467931071124,0.25155546801516704,0.02989858651176213,0.031432362129654605
206,0.09620118945177271,0.048576057676909326,-0.08396685560063419,0.35800387297548125,-0.07396017281823986,0.09421202864840864,0.1651727836990069,0.08287467931071124,0.25155546801516704,0.02989858651176213,0.031432362129654605
207,0.09620118945177271,0.048576057676909326,-0.08396685560063419,0.35800387297548125,-0.07396017281823986,0.09421202864840864,0.1651727836990069,0.08287467931071124,0.25155546801516704,0.02989858651176213,0.031432362129654605
208,0.09620118945177271,0.048576057676909326,-0.08396685560063419,0.35800387297548125,-0.07396017281823986,0.09421202864840864,0.1651727836990069,0.08287467931071124,0.25155546801516704,0.02989858651176213,0.031432362129654605
209,0.09620118945177271,0.048576057676909326,-0.08396685560063419,0.35800387297548125,-0.07396017281823986,0.09421202864840864,0.1651727836990069,0.08287467931071124,0.25155546801516704,0.02989858651176213,0.031432362129654605
210,0.09620118945177271,0.048576057676909326,-0.08396685560063419,0.35800387297548125,-0.07396017281823986,0.09421202864840864,0.1651727836990069,0.08287467931071124,0.25155546801516704,0.02989858651176213,0.031432362129654605
211,0.09620118945177271,0.048576057676909326,-0.08396685560063419,0.35800387297548125,-0.07396017281823986,0.09421202864840864,0.1651727836990069,0.08287467931071124,0.25155546801516704,0.02989858651176213,0.031432362129654605
212,0.05400733566291806,0.03541469084581836,0.20390442815959567,0.2026799546584702,0.05699768990052959,0.05598644862981987,0.0580837455354189,0.040328223956522594,0.0488826569580218,0.3690123903884552,-0.12529756469557016
213,0.05400733566291806,0.03541469084581836,0.20390442815959567,0.2026799546584702,0.05699768990052959,0.05598644862981987,0.0580837455354189,0.040328223956522594,0.0488826569580218,0.3690123903884552,-0.12529756469557016
214,0.05400733566291806,0.03541469084581836,0.20390442815959567,0.2026799546584702,0.05699768990052959,0.05598644862981987,0.0580837455354189,0.040328223956522594,0.0488826569580218,0.3690123903884552,-0.12529756469557016
215,0.05400733566291806,0.03541469084581836,0.20390442815959567,0.2026799546584702,0.05699768990052959,0.05598644862981987,0.0580837455354189,0.040328223956522594,0.0488826569580218,0.3690123903884552,-0.12529756469557016
216,0.05400733566291806,0.03541469084581836,0.20390442815959567,0.2026799546584702,0.05699768990052959,0.05598644862981987,0.0580837455354189,0.040328223956522594,0.0488826569580218,0.3690123903884552,-0.12529756469557016
217,0.05400733566291806,0.03541469084581836,0.20390442815959567,0.2026799546584702,0.05699768990052959,0.05598644862981987,0.0580837455354189,0.040328223956522594,0.0488826569580218,0.3690123903884552,-0.12529756469557016
218,0.05400733566291806,0.03541469084581836,0.20390442815959567,0.2026799546584702,0.05699768990052959,0.05598644862981987,0.0580837455354189,0.040328223956522594,0.0488826569580218,0.3690123903884552,-0.12529756469557016
219,0.05400733566291806,0.03541469084581836,0.20390442815959567,0.2026799546584702,0.05699768990052959,0.05598644862981987,0.0580837455354189,0.040328223956522594,0.0488826569580218,0.3690123903884552,-0.12529756469557016
220,0.05400733566291806,0.03541469084581836,0.20390442815959567,0.2026799546584702,0.05699768990052959,0.05598644862981987,0.0580837455354189,0.040328223956522594,0.0488826569580218,0.3690123903884552,-0.12529756469557016
221,0.05400733566291806,0.03541469084581836,0.20390442815959567,0.2026799546584702,0.05699768990052959,0.05598644862981987,0.0580837455354189,0.040328223956522594,0.0488826569580218,0.3690123903884552,-0.12529756469557016
222,0.05400733566291806,0.03541469084581836,0.20390442815959567,0.2026799546584702,0.05699768990052959,0.05598644862981987,0.0580837455354189,0.040328223956522594,0.0488826569580218,0.3690123903884552,-0.12529756469557016
223,0.05400733566291806,0.03541469084581836,0.20390442815959567,0.2026799546584702,0.05699768990052959,0.05598644862981987,0.0580837455354189,0.040328223956522594,0.0488826569580218,0.3690123903884552,-0.12529756469557016
224,0.05400733566291806,0.03541469084581836,0.20390442815959567,0.2026799546584702,0.05699768990052959,0.05598644862981987,0.0580837455354189,0.040328223956522594,0.0488826569580218,0.3690123903884552,-0.12529756469557016
225,0.05400733566291806,0.03541469084581836,0.20390442815959567,0.2026799546584702,0.05699768990052959,0.05598644862981987,0.0580837455354189,0.040328223956522594,0.0488826569580218,0.3690123903884552,-0.12529756469557016
226,0.05400733566291806,0.03541469084581836,0.20390442815959567,0.2026799546584702,0.05699768990052959,0.05598644862981987,0.0580837455354189,0.040328223956522594,0.0488826569580218,0.3690123903884552,-0.12529756469557016
227,0.05400733566291806,0.03541469084581836,0.20390442815959567,0.2026799546584702,0.05699768990052959,0.05598644862981987,0.0580837455354189,0.040328223956522594,0.0488826569580218,0.3690123903884552,-0.12529756469557016
228,0.05400733566291806,0.03541469084581836,0.20390442815959567,0.2026799546584702,0.05699768990052959,0.05598644862981987,0.0580837455354189,0.040328223956522594,0.0488826569580218,0.3690123903884552,-0.12529756469557016
229,0.05400733566291806,0.03541469084581836,0.20390442815959567,0.2026799546584702,0.05699768990052959,0.05598644862981987,0.0580837455354189,0.040328223956522594,0.0488826569580218,0.3690123903884552,-0.12529756469557016
230,0.05400733566291806,0.03541469084581836,0.20390442815959567,0.2026799546584702,0.05699768990052959,0.05598644862981987,0.0580837455354189,0.040328223956522594,0.0488826569580218,0.3690123903884552,-0.12529756469557016
231,0.05400733566291806,0.03541469084581836,0.20390442815959567,0.2026799546584702,0.05699768990052959,0.05598644862981987,0.0580837455354189,0.040328223956522594,0.0488826569580218,0.3690123903884552,-0.12529756469557016
232,0.05400733566291806,0.03541469084581836,0.20390442815959567,0.2026799546584702,0.05699768990052959,0.05598644862981987,0.0580837455354189,0.040328223956522594,0.0488826569580218,0.3690123903884552,-0.12529756469557016
233,0.05400733566291806,0.03541469084581836,0.20390442815959567,0.2026799546584702,0.05699768990052959,0.05598644862981987,0.0580837455354189,0.040328223956522594,0.0488826569580218,0.3690123903884552,-0.12529756469557016
234,0.05400733566291806,0.03541469084581836,0.20390442815959567,0.2026799546584702,0.05699768990052959,0.05598644862981987,0.0580837455354189,0.040328223956522594,0.0488826569580218,0.3690123903884552,-0.12529756469557016
235,0.05400733566291806,0.03541469084581836,0.20390442815959567,0.2026799546584702,0.05699768990052959,0.05598644862981987,0.0580837455354189,0.040328223956522594,0.0488826569580218,0.3690123903884552,-0.12529756469557016
236,0.05400733566291806,0.03541469084581836,0.20390442815959567,0.2026799546584702,0.05699768990052959,0.05598644862981987,0.0580837455354189,0.040328223956522594,0.0488826569580218,0.3690123903884552,-0.12529756469557016
237,0.05400733566291806,0.03541469084581836,0.20390442815959567,0.2026799546584702,0.05699768990052959,0.05598644862981987,0.0580837455354189,0.040328223956522594,0.0488826569580218,0.3690123903884552,-0.12529756469557016
238,0.05400733566291806,0.03541469084581836,0.20390442815959567,0.2026799546584702,0.05699768990052959,0.05598644862981987,0.0580837455354189,0.040328223956522594,0.0488826569580218,0.3690123903884552,-0.12529756469557016
239,0.05400733566291806,0.03541469084581836,0.20390442815959567,0.2026799546584702,0.05699768990052959,0.05598644862981987,0.0580837455354189,0.040328223956522594,0.0488826569580218,0.3690123903884552,-0.12529756469557016
240,0.05400733566291806,0.03541469084581836,0.20390442815959567,0.2026799546584702,0.05699768990052959,0.05598644862981987,0.0580837455354189,0.040328223956522594,0.0488826569580218,0.3690123903884552,-0.12529756469557016
241,0.05400733566291806,0.03541469084581836,0.20390442815959567,0.2026799546584702,0.05699768990052959,0.05598644862981987,0.0580837455354189,0.040328223956522594,0.0488826569580218,0.3690123903884552,-0.12529756469557016
242,0.05400733566291806,0.03541469084581836,0.20390442815959567,0.2026799546584702,0.05699768990052959,0.05598644862981987,0.0580837455354189,0.040328223956522594,0.0488826569580218,0.3690123903884552,-0.12529756469557016
243,0.6386535121554109,-0.13355195218008703,-0.08850374675541034,0.04932261620229352,-0.07794430106450267,0.07003298809757509,0.27440198488590484,0.035778097961282285,0.14563174318640026,0.03072882655604125,0.055450230955092085
244,0.6386535121554109,-0.13355195218008703,-0.08850374675541034,0.04932261620229352,-0.07794430106450267,0.07003298809757509,0.27440198488590484,0.035778097961282285,0.14563174318640026,0.03072882655604125,0.055450230955092085
245,0.6386535121554109,-0.13355195218008703,-0.08850374675541034,0.04932261620229352,-0.07794430106450267,0.07003298809757509,0.27440198488590484,0.035778097961282285,0.14563174318640026,0.03072882655604125,0.055450230955092085
246,0.6386535121554109,-0.13355195218008703,-0.08850374675541034,0.04932261620229352,-0.07794430106450267,0.07003298809757509,0.27440198488590484,0.035778097961282285,0.14563174318640026,0.03072882655604125,0.055450230955092085
247,0.6386535121554109,-0.13355195218008703,-0.08850374675541034,0.04932261620229352,-0.07794430106450267,0.07003298809757509,0.27440198488590484,0.035778097961282285,0.14563174318640026,0.03072882655604125,0.055450230955092085
248,0.6386535121554109,-0.13355195218008703,-0.08850374675541034,0.04932261620229352,-0.07794430106450267,0.07003298809757509,0.27440198488590484,0.035778097961282285,0.14563174318640026,0.03072882655604125,0.055450230955092085
249,0.6386535121554109,-0.13355195218008703,-0.08850374675541034,0.04932261620229352,-0.07794430106450267,0.07003298809757509,0.27440198488590484,0.035778097961282285,0.14563174318640026,0.03072882655604125,0.055450230955092085
250,0.6386535121554109,-0.13355195218008703,-0.08850374675541034,0.04932261620229352,-0.07794430106450267,0.07003298809757509,0.27440198488590484,0.035778097961282285,0.14563174318640026,0.03072882655604125,0.055450230955092085
251,0.6386535121554109,-0.13355195218008703,-0.08850374675541034,0.04932261620229352,-0.07794430106450267,0.07003298809757509,0.27440198488590484,0.035778097961282285,0.14563174318640026,0.03072882655604125,0.055450230955092085
252,0.6386535121554109,-0.13355195218008703,-0.08850374675541034,0.04932261620229352,-0.07794430106450267,0.07003298809757509,0.27440198488590484,0.035778097961282285,0.14563174318640026,0.03072882655604125,0.055450230955092085
253,0.6386535121554109,-0.13355195218008703,-0.08850374675541034,0.04932261620229352,-0.07794430106450267,0.07003298809757509,0.27440198488590484,0.035778097961282285,0.14563174318640026,0.03072882655604125,0.055450230955092085
254,0.6386535121554109,-0.13355195218008703,-0.08850374675541034,0.04932261620229352,-0.07794430106450267,0.07003298809757509,0.27440198488590484,0.035778097961282285,0.14563174318640026,0.03072882655604125,0.055450230955092085
255,0.6386535121554109,-0.13355195218008703,-0.08850374675541034,0.04932261620229352,-0.07794430106450267,0.07003298809757509,0.27440198488590484,0.035778097961282285,0.14563174318640026,0.03072882655604125,0.055450230955092085
256,0.6386535121554109,-0.13355195218008703,-0.08850374675541034,0.04932261620229352,-0.07794430106450267,0.07003298809757509,0.27440198488590484,0.035778097961282285,0.14563174318640026,0.03072882655604125,0.055450230955092085
257,0.6386535121554109,-0.13355195218008703,-0.08850374675541034,0.04932261620229352,-0.07794430106450267,0.07003298809757509,0.27440198488590484,0.035778097961282285,0.14563174318640026,0.03072882655604125,0.055450230955092085
258,0.6386535121554109,-0.13355195218008703,-0.08850374675541034,0.04932261620229352,-0.07794430106450267,0.07003298809757509,0.27440198488590484,0.035778097961282285,0.14563174318640026,0.03072882655604125,0.055450230955092085
259,0.6386535121554109,-0.13355195218008703,-0.08850374675541034,0.04932261620229352,-0.07794430106450267,0.07003298809757509,0.27440198488590484,0.035778097961282285,0.14563174318640026,0.03072882655604125,0.055450230955092085
260,0.6386535121554109,-0.13355195218008703,-0.08850374675541034,0.04932261620229352,-0.07794430106450267,0.07003298809757509,0.27440198488590484,0.035778097961282285,0.14563174318640026,0.03072882655604125,0.055450230955092085
261,0.6386535121554109,-0.13355195218008703,-0.08850374675541034,0.04932261620229352,-0.07794430106450267,0.07003298809757509,0.27440198488590484,0.035778097961282285,0.14563174318640026,0.03072882655604125,0.055450230955092085
262,0.6386535121554109,-0.13355195218008703,-0.08850374675541034,0.04932261620229352,-0.07794430106450267,0.07003298809757509,0.27440198488590484,0.035778097961282285,0.14563174318640026,0.03072882655604125,0.055450230955092085
263,0.6386535121554109,-0.13355195218008703,-0.08850374675541034,0.04932261620229352,-0.07794430106450267,0.07003298809757509,0.27440198488590484,0.035778097961282285,0.14563174318640026,0.03072882655604125,0.055450230955092085
264,0.6386535121554109,-0.13355195218008703,-0.08850374675541034,0.04932261620229352,-0.07794430106450267,0.07003298809757509,0.27440198488590484,0.035778097961282285,0.14563174318640026,0.03072882655604125,0.055450230955092085
265,0.6386535121554109,-0.13355195218008703,-0.08850374675541034,0.04932261620229352,-0.07794430106450267,0.07003298809757509,0.27440198488590484,0.035778097961282285,0.14563174318640026,0.03072882655604125,0.055450230955092085
266,0.6386535121554109,-0.13355195218008703,-0.08850374675541034,0.04932261620229352,-0.07794430106450267,0.07003298809757509,0.27440198488590484,0.035778097961282285,0.14563174318640026,0.03072882655604125,0.055450230955092085
267,0.6386535121554109,-0.13355195218008703,-0.08850374675541034,0.04932261620229352,-0.07794430106450267,0.07003298809757509,0.27440198488590484,0.035778097961282285,0.14563174318640026,0.03072882655604125,0.055450230955092085
268,0.6386535121554109,-0.13355195218008703,-0.08850374675541034,0.04932261620229352,-0.07794430106450267,0.07003298809757509,0.27440198488590484,0.035778097961282285,0.14563174318640026,0.03072882655604125,0.055450230955092085
269,0.6386535121554109,-0.13355195218008703,-0.08850374675541034,0.04932261620229352,-0.07794430106450267,0.07003298809757509,0.27440198488590484,0.035778097961282285,0.14563174318640026,0.03072882655604125,0.055450230955092085
270,0.6386535121554109,-0.13355195218008703,-0.08850374675541034,0.04932261620229352,-0.07794430106450267,0.07003298809757509,0.27440198488590484,0.035778097961282285,0.14563174318640026,0.03072882655604125,0.055450230955092085
271,0.6386535121554109,-0.13355195218008703,-0.08850374675541034,0.04932261620229352,-0.07794430106450267,0.07003298809757509,0.27440198488590484,0.035778097961282285,0.14563174318640026,0.03072882655604125,0.055450230955092085
272,0.6386535121554109,-0.13355195218008703,-0.08850374675541034,0.04932261620229352,-0.07794430106450267,0.07003298809757509,0.27440198488590484,0.035778097961282285,0.14563174318640026,0.03072882655604125,0.055450230955092085
273,0.11983803605821228,0.068217711465011,0.10114692819880831,0.11329050555316919,8.163019536132492e-07,-0.2677852821352337,0.6790606950934422,0.06727989433019871,0.08040378496404374,-0.03221471786476635,0.07076162803516105
274,0.11983803605821228,0.068217711465011,0.10114692819880831,0.11329050555316919,8.163019536132492e-07,-0.2677852821352337,0.6790606950934422,0.06727989433019871,0.08040378496404374,-0.03221471786476635,0.07076162803516105
275,0.11983803605821228,0.068217711465011,0.10114692819880831,0.11329050555316919,8.163019536132492e-07,-0.2677852821352337,0.6790606950934422,0.06727989433019871,0.08040378496404374,-0.03221471786476635,0.07076162803516105
276,0.11983803605821228,0.068217711465011,0.10114692819880831,0.11329050555316919,8.163019536132492e-07,-0.2677852821352337,0.6790606950934422,0.06727989433019871,0.08040378496404374,-0.03221471786476635,0.07076162803516105
277,0.11983803605821228,0.068217711465011,0.10114692819880831,0.11329050555316919,8.163019536132492e-07,-0.2677852821352337,0.6790606950934422,0.06727989433019871,0.08040378496404374,-0.03221471786476635,0.07076162803516105
278,0.11983803605821228,0.068217711465011,0.10114692819880831,0.11329050555316919,8.163019536132492e-07,-0.2677852821352337,0.6790606950934422,0.06727989433019871,0.08040378496404374,-0.03221471786476635,0.07076162803516105
279,0.11983803605821228,0.068217711465011,0.10114692819880831,0.11329050555316919,8.163019536132492e-07,-0.2677852821352337,0.6790606950934422,0.06727989433019871,0.08040378496404374,-0.03221471786476635,0.07076162803516105
280,0.11983803605821228,0.068217711465011,0.10114692819880831,0.11329050555316919,8.163019536132492e-07,-0.2677852821352337,0.6790606950934422,0.06727989433019871,0.08040378496404374,-0.03221471786476635,0.07076162803516105
281,0.11983803605821228,0.068217711465011,0.10114692819880831,0.11329050555316919,8.163019536132492e-07,-0.2677852821352337,0.6790606950934422,0.06727989433019871,0.08040378496404374,-0.03221471786476635,0.07076162803516105
282,0.11983803605821228,0.068217711465011,0.10114692819880831,0.11329050555316919,8.163019536132492e-07,-0.2677852821352337,0.6790606950934422,0.06727989433019871,0.08040378496404374,-0.03221471786476635,0.07076162803516105
283,0.11983803605821228,0.068217711465011,0.10114692819880831,0.11329050555316919,8.163019536132492e-07,-0.2677852821352337,0.6790606950934422,0.06727989433019871,0.08040378496404374,-0.03221471786476635,0.07076162803516105
284,0.11983803605821228,0.068217711465011,0.10114692819880831,0.11329050555316919,8.163019536132492e-07,-0.2677852821352337,0.6790606950934422,0.06727989433019871,0.08040378496404374,-0.03221471786476635,0.07076162803516105
285,0.11983803605821228,0.068217711465011,0.10114692819880831,0.11329050555316919,8.163019536132492e-07,-0.2677852821352337,0.6790606950934422,0.06727989433019871,0.08040378496404374,-0.03221471786476635,0.07076162803516105
286,0.11983803605821228,0.068217711465011,0.10114692819880831,0.11329050555316919,8.163019536132492e-07,-0.2677852821352337,0.6790606950934422,0.06727989433019871,0.08040378496404374,-0.03221471786476635,0.07076162803516105
287,0.11983803605821228,0.068217711465011,0.10114692819880831,0.11329050555316919,8.163019536132492e-07,-0.2677852821352337,0.6790606950934422,0.06727989433019871,0.08040378496404374,-0.03221471786476635,0.07076162803516105
288,0.11983803605821228,0.068217711465011,0.10114692819880831,0.11329050555316919,8.163019536132492e-07,-0.2677852821352337,0.6790606950934422,0.06727989433019871,0.08040378496404374,-0.03221471786476635,0.07076162803516105
289,0.11983803605821228,0.068217711465011,0.10114692819880831,0.11329050555316919,8.163019536132492e-07,-0.2677852821352337,0.6790606950934422,0.06727989433019871,0.08040378496404374,-0.03221471786476635,0.07076162803516105
290,0.11983803605821228,0.068217711465011,0.10114692819880831,0.11329050555316919,8.163019536132492e-07,-0.2677852821352337,0.6790606950934422,0.06727989433019871,0.08040378496404374,-0.03221471786476635,0.07076162803516105
291,0.11983803605821228,0.068217711465011,0.10114692819880831,0.11329050555316919,8.163019536132492e-07,-0.2677852821352337,0.6790606950934422,0.06727989433019871,0.08040378496404374,-0.03221471786476635,0.07076162803516105
292,0.11983803605821228,0.068217711465011,0.10114692819880831,0.11329050555316919,8.163019536132492e-07,-0.2677852821352337,0.6790606950934422,0.06727989433019871,0.08040378496404374,-0.03221471786476635,0.07076162803516105
293,0.11983803605821228,0.068217711465011,0.10114692819880831,0.11329050555316919,8.163019536132492e-07,-0.2677852821352337,0.6790606950934422,0.06727989433019871,0.08040378496404374,-0.03221471786476635,0.07076162803516105
294,0.11983803605821228,0.068217711465011,0.10114692819880831,0.11329050555316919,8.163019536132492e-07,-0.2677852821352337,0.6790606950934422,0.06727989433019871,0.08040378496404374,-0.03221471786476635,0.07076162803516105
295,0.11983803605821228,0.068217711465011,0.10114692819880831,0.11329050555316919,8.163019536132492e-07,-0.2677852821352337,0.6790606950934422,0.06727989433019871,0.08040378496404374,-0.03221471786476635,0.07076162803516105
296,0.11983803605821228,0.068217711465011,0.10114692819880831,0.11329050555316919,8.163019536132492e-07,-0.2677852821352337,0.6790606950934422,0.06727989433019871,0.08040378496404374,-0.03221471786476635,0.07076162803516105
297,0.11983803605821228,0.068217711465011,0.10114692819880831,0.11329050555316919,8.163019536132492e-07,-0.2677852821352337,0.6790606950934422,0.06727989433019871,0.08040378496404374,-0.03221471786476635,0.07076162803516105
298,0.11983803605821228,0.068217711465011,0.10114692819880831,0.11329050555316919,8.163019536132492e-07,-0.2677852821352337,0.6790606950934422,0.06727989433019871,0.08040378496404374,-0.03221471786476635,0.07076162803516105
299,0.11983803605821228,0.068217711465011,0.10114692819880831,0.11329050555316919,8.163019536132492e-07,-0.2677852821352337,0.6790606950934422,0.06727989433019871,0.08040378496404374,-0.03221471786476635,0.07076162803516105
300,0.11983803605821228,0.068217711465011,0.10114692819880831,0.11329050555316919,8.163019536132492e-07,-0.2677852821352337,0.6790606950934422,0.06727989433019871,0.08040378496404374,-0.03221471786476635,0.07076162803516105
301,0.11983803605821228,0.068217711465011,0.10114692819880831,0.11329050555316919,8.163019536132492e-07,-0.2677852821352337,0.6790606950934422,0.06727989433019871,0.08040378496404374,-0.03221471786476635,0.07076162803516105
302,0.11983803605821228,0.068217711465011,0.10114692819880831,0.11329050555316919,8.163019536132492e-07,-0.2677852821352337,0.6790606950934422,0.06727989433019871,0.08040378496404374,-0.03221471786476635,0.07076162803516105
303,0.11983803605821228,0.068217711465011,0.10114692819880831,0.11329050555316919,8.163019536132492e-07,-0.2677852821352337,0.6790606950934422,0.06727989433019871,0.08040378496404374,-0.03221471786476635,0.07076162803516105
304,0.04695787256366272,0.6898682093627938,0.046285172022114525,0.02304644082755376,-0.06833926036404722,0.15861869064682738,0.01542467522471916,0.010791642157609464,0.032625971228675346,0.03134524977045664,0.013375336559634375
305,0.04695787256366272,0.6898682093627938,0.046285172022114525,0.02304644082755376,-0.06833926036404722,0.15861869064682738,0.01542467522471916,0.010791642157609464,0.032625971228675346,0.03134524977045664,0.013375336559634375
306,0.04695787256366272,0.6898682093627938,0.046285172022114525,0.02304644082755376,-0.06833926036404722,0.15861869064682738,0.01542467522471916,0.010791642157609464,0.032625971228675346,0.03134524977045664,0.013375336559634375
307,0.04695787256366272,0.6898682093627938,0.046285172022114525,0.02304644082755376,-0.06833926036404722,0.15861869064682738,0.01542467522471916,0.010791642157609464,0.032625971228675346,0.03134524977045664,0.013375336559634375
308,0.04695787256366272,0.6898682093627938,0.046285172022114525,0.02304644082755376,-0.06833926036404722,0.15861869064682738,0.01542467522471916,0.010791642157609464,0.032625971228675346,0.03134524977045664,0.013375336559634375
309,0.04695787256366272,0.6898682093627938,0.046285172022114525,0.02304644082755376,-0.06833926036404722,0.15861869064682738,0.01542467522471916,0.010791642157609464,0.032625971228675346,0.03134524977045664,0.013375336559634375
310,0.04695787256366272,0.6898682093627938,0.046285172022114525,0.02304644082755376,-0.06833926036404722,0.15861869064682738,0.01542467522471916,0.010791642157609464,0.032625971228675346,0.03134524977045664,0.013375336559634375
311,0.04695787256366272,0.6898682093627938,0.046285172022114525,0.02304644082755376,-0.06833926036404722,0.15861869064682738,0.01542467522471916,0.010791642157609464,0.032625971228675346,0.03134524977045664,0.013375336559634375
312,0.04695787256366272,0.6898682093627938,0.046285172022114525,0.02304644082755376,-0.06833926036404722,0.15861869064682738,0.01542467522471916,0.010791642157609464,0.032625971228675346,0.03134524977045664,0.013375336559634375
313,0.04695787256366272,0.6898682093627938,0.046285172022114525,0.02304644082755376,-0.06833926036404722,0.15861869064682738,0.01542467522471916,0.010791642157609464,0.032625971228675346,0.03134524977045664,0.013375336559634375
314,0.04695787256366272,0.6898682093627938,0.046285172022114525,0.02304644082755376,-0.06833926036404722,0.15861869064682738,0.01542467522471916,0.010791642157609464,0.032625971228675346,0.03134524977045664,0.013375336559634375
315,0.04695787256366272,0.6898682093627938,0.046285172022114525,0.02304644082755376,-0.06833926036404722,0.15861869064682738,0.01542467522471916,0.010791642157609464,0.032625971228675346,0.03134524977045664,0.013375336559634375
316,0.04695787256366272,0.6898682093627938,0.046285172022114525,0.02304644082755376,-0.06833926036404722,0.15861869064682738,0.01542467522471916,0.010791642157609464,0.032625971228675346,0.03134524977045664,0.013375336559634375
317,0.04695787256366272,0.6898682093627938,0.046285172022114525,0.02304644082755376,-0.06833926036404722,0.15861869064682738,0.01542467522471916,0.010791642157609464,0.032625971228675346,0.03134524977045664,0.013375336559634375
318,0.04695787256366272,0.6898682093627938,0.046285172022114525,0.02304644082755376,-0.06833926036404722,0.15861869064682738,0.01542467522471916,0.010791642157609464,0.032625971228675346,0.03134524977045664,0.013375336559634375
319,0.04695787256366272,0.6898682093627938,0.046285172022114525,0.02304644082755376,-0.06833926036404722,0.15861869064682738,0.01542467522471916,0.010791642157609464,0.032625971228675346,0.03134524977045664,0.013375336559634375
320,0.04695787256366272,0.6898682093627938,0.046285172022114525,0.02304644082755376,-0.06833926036404722,0.15861869064682738,0.01542467522471916,0.010791642157609464,0.032625971228675346,0.03134524977045664,0.013375336559634375
321,0.04695787256366272,0.6898682093627938,0.046285172022114525,0.02304644082755376,-0.06833926036404722,0.15861869064682738,0.01542467522471916,0.010791642157609464,0.032625971228675346,0.03134524977045664,0.013375336559634375
322,0.04695787256366272,0.6898682093627938,0.046285172022114525,0.02304644082755376,-0.06833926036404722,0.15861869064682738,0.01542467522471916,0.010791642157609464,0.032625971228675346,0.03134524977045664,0.013375336559634375
323,0.04695787256366272,0.6898682093627938,0.046285172022114525,0.02304644082755376,-0.06833926036404722,0.15861869064682738,0.01542467522471916,0.010791642157609464,0.032625971228675346,0.03134524977045664,0.013375336559634375
324,0.04695787256366272,0.6898682093627938,0.046285172022114525,0.02304644082755376,-0.06833926036404722,0.15861869064682738,0.01542467522471916,0.010791642157609464,0.032625971228675346,0.03134524977045664,0.013375336559634375
325,0.04695787256366272,0.6898682093627938,0.046285172022114525,0.02304644082755376,-0.06833926036404722,0.15861869064682738,0.01542467522471916,0.010791642157609464,0.032625971228675346,0.03134524977045664,0.013375336559634375
326,0.04695787256366272,0.6898682093627938,0.046285172022114525,0.02304644082755376,-0.06833926036404722,0.15861869064682738,0.01542467522471916,0.010791642157609464,0.032625971228675346,0.03134524977045664,0.013375336559634375
327,0.04695787256366272,0.6898682093627938,0.046285172022114525,0.02304644082755376,-0.06833926036404722,0.15861869064682738,0.01542467522471916,0.010791642157609464,0.032625971228675346,0.03134524977045664,0.013375336559634375
328,0.04695787256366272,0.6898682093627938,0.046285172022114525,0.02304644082755376,-0.06833926036404722,0.15861869064682738,0.01542467522471916,0.010791642157609464,0.032625971228675346,0.03134524977045664,0.013375336559634375
329,0.04695787256366272,0.6898682093627938,0.046285172022114525,0.02304644082755376,-0.06833926036404722,0.15861869064682738,0.01542467522471916,0.010791642157609464,0.032625971228675346,0.03134524977045664,0.013375336559634375
330,0.04695787256366272,0.6898682093627938,0.046285172022114525,0.02304644082755376,-0.06833926036404722,0.15861869064682738,0.01542467522471916,0.010791642157609464,0.032625971228675346,0.03134524977045664,0.013375336559634375
331,0.04695787256366272,0.6898682093627938,0.046285172022114525,0.02304644082755376,-0.06833926036404722,0.15861869064682738,0.01542467522471916,0.010791642157609464,0.032625971228675346,0.03134524977045664,0.013375336559634375
332,0.04695787256366272,0.6898682093627938,0.046285172022114525,0.02304644082755376,-0.06833926036404722,0.15861869064682738,0.01542467522471916,0.010791642157609464,0.032625971228675346,0.03134524977045664,0.013375336559634375
333,0.04695787256366272,0.6898682093627938,0.046285172022114525,0.02304644082755376,-0.06833926036404722,0.15861869064682738,0.01542467522471916,0.010791642157609464,0.032625971228675346,0.03134524977045664,0.013375336559634375
334,0.07596293388991764,0.03966782231388002,-0.3,0.07660474703909254,0.07111423813987748,0.09294675629629258,0.049929117515842635,0.06341265142623549,0.04796490444530525,0.20282086311527975,0.5795759658182768
335,0.07596293388991764,0.03966782231388002,-0.3,0.07660474703909254,0.07111423813987748,0.09294675629629258,0.049929117515842635,0.06341265142623549,0.04796490444530525,0.20282086311527975,0.5795759658182768
336,0.07596293388991764,0.03966782231388002,-0.3,0.07660474703909254,0.07111423813987748,0.09294675629629258,0.049929117515842635,0.06341265142623549,0.04796490444530525,0.20282086311527975,0.5795759658182768
337,0.07596293388991764,0.03966782231388002,-0.3,0.07660474703909254,0.07111423813987748,0.09294675629629258,0.049929117515842635,0.06341265142623549,0.04796490444530525,0.20282086311527975,0.5795759658182768
338,0.07596293388991764,0.03966782231388002,-0.3,0.07660474703909254,0.07111423813987748,0.09294675629629258,0.049929117515842635,0.06341265142623549,0.04796490444530525,0.20282086311527975,0.5795759658182768
339,0.07596293388991764,0.03966782231388002,-0.3,0.07660474703909254,0.07111423813987748,0.09294675629629258,0.049929117515842635,0.06341265142623549,0.04796490444530525,0.20282086311527975,0.5795759658182768
340,0.07596293388991764,0.03966782231388002,-0.3,0.07660474703909254,0.07111423813987748,0.09294675629629258,0.049929117515842635,0.06341265142623549,0.04796490444530525,0.20282086311527975,0.5795759658182768
341,0.07596293388991764,0.03966782231388002,-0.3,0.07660474703909254,0.07111423813987748,0.09294675629629258,0.049929117515842635,0.06341265142623549,0.04796490444530525,0.20282086311527975,0.5795759658182768
342,0.07596293388991764,0.03966782231388002,-0.3,0.07660474703909254,0.07111423813987748,0.09294675629629258,0.049929117515842635,0.06341265142623549,0.04796490444530525,0.20282086311527975,0.5795759658182768
343,0.07596293388991764,0.03966782231388002,-0.3,0.07660474703909254,0.07111423813987748,0.09294675629629258,0.049929117515842635,0.06341265142623549,0.04796490444530525,0.20282086311527975,0.5795759658182768
344,0.07596293388991764,0.03966782231388002,-0.3,0.07660474703909254,0.07111423813987748,0.09294675629629258,0.049929117515842635,0.06341265142623549,0.04796490444530525,0.20282086311527975,0.5795759658182768
345,0.07596293388991764,0.03966782231388002,-0.3,0.07660474703909254,0.07111423813987748,0.09294675629629258,0.049929117515842635,0.06341265142623549,0.04796490444530525,0.20282086311527975,0.5795759658182768
346,0.07596293388991764,0.03966782231388002,-0.3,0.07660474703909254,0.07111423813987748,0.09294675629629258,0.049929117515842635,0.06341265142623549,0.04796490444530525,0.20282086311527975,0.5795759658182768
347,0.07596293388991764,0.03966782231388002,-0.3,0.07660474703909254,0.07111423813987748,0.09294675629629258,0.049929117515842635,0.06341265142623549,0.04796490444530525,0.20282086311527975,0.5795759658182768
348,0.07596293388991764,0.03966782231388002,-0.3,0.07660474703909254,0.07111423813987748,0.09294675629629258,0.049929117515842635,0.06341265142623549,0.04796490444530525,0.20282086311527975,0.5795759658182768
349,0.07596293388991764,0.03966782231388002,-0.3,0.07660474703909254,0.07111423813987748,0.09294675629629258,0.049929117515842635,0.06341265142623549,0.04796490444530525,0.20282086311527975,0.5795759658182768
350,0.07596293388991764,0.03966782231388002,-0.3,0.07660474703909254,0.07111423813987748,0.09294675629629258,0.049929117515842635,0.06341265142623549,0.04796490444530525,0.20282086311527975,0.5795759658182768
351,0.07596293388991764,0.03966782231388002,-0.3,0.07660474703909254,0.07111423813987748,0.09294675629629258,0.049929117515842635,0.06341265142623549,0.04796490444530525,0.20282086311527975,0.5795759658182768
352,0.07596293388991764,0.03966782231388002,-0.3,0.07660474703909254,0.07111423813987748,0.09294675629629258,0.049929117515842635,0.06341265142623549,0.04796490444530525,0.20282086311527975,0.5795759658182768
353,0.07596293388991764,0.03966782231388002,-0.3,0.07660474703909254,0.07111423813987748,0.09294675629629258,0.049929117515842635,0.06341265142623549,0.04796490444530525,0.20282086311527975,0.5795759658182768
354,0.07596293388991764,0.03966782231388002,-0.3,0.07660474703909254,0.07111423813987748,0.09294675629629258,0.049929117515842635,0.06341265142623549,0.04796490444530525,0.20282086311527975,0.5795759658182768
355,0.07596293388991764,0.03966782231388002,-0.3,0.07660474703909254,0.07111423813987748,0.09294675629629258,0.049929117515842635,0.06341265142623549,0.04796490444530525,0.20282086311527975,0.5795759658182768
356,0.07596293388991764,0.03966782231388002,-0.3,0.07660474703909254,0.07111423813987748,0.09294675629629258,0.049929117515842635,0.06341265142623549,0.04796490444530525,0.20282086311527975,0.5795759658182768
357,0.07596293388991764,0.03966782231388002,-0.3,0.07660474703909254,0.07111423813987748,0.09294675629629258,0.049929117515842635,0.06341265142623549,0.04796490444530525,0.20282086311527975,0.5795759658182768
358,0.07596293388991764,0.03966782231388002,-0.3,0.07660474703909254,0.07111423813987748,0.09294675629629258,0.049929117515842635,0.06341265142623549,0.04796490444530525,0.20282086311527975,0.5795759658182768
359,0.07596293388991764,0.03966782231388002,-0.3,0.07660474703909254,0.07111423813987748,0.09294675629629258,0.049929117515842635,0.06341265142623549,0.04796490444530525,0.20282086311527975,0.5795759658182768
360,0.07596293388991764,0.03966782231388002,-0.3,0.07660474703909254,0.07111423813987748,0.09294675629629258,0.049929117515842635,0.06341265142623549,0.04796490444530525,0.20282086311527975,0.5795759658182768
361,0.07596293388991764,0.03966782231388002,-0.3,0.07660474703909254,0.07111423813987748,0.09294675629629258,0.049929117515842635,0.06341265142623549,0.04796490444530525,0.20282086311527975,0.5795759658182768
362,0.07596293388991764,0.03966782231388002,-0.3,0.07660474703909254,0.07111423813987748,0.09294675629629258,0.049929117515842635,0.06341265142623549,0.04796490444530525,0.20282086311527975,0.5795759658182768
363,0.07596293388991764,0.03966782231388002,-0.3,0.07660474703909254,0.07111423813987748,0.09294675629629258,0.049929117515842635,0.06341265142623549,0.04796490444530525,0.20282086311527975,0.5795759658182768
364,0.07596293388991764,0.03966782231388002,-0.3,0.07660474703909254,0.07111423813987748,0.09294675629629258,0.049929117515842635,0.06341265142623549,0.04796490444530525,0.20282086311527975,0.5795759658182768
365,-0.030630079539383275,0.02726129162054573,0.27985377791084953,-0.008371850669097142,-0.015898397909880246,0.0321654184422555,0.7166125575668029,0.015074686101118522,-0.03636386173550595,0.012122778694122194,0.008173679518172283
366,-0.030630079539383275,0.02726129162054573,0.27985377791084953,-0.008371850669097142,-0.015898397909880246,0.0321654184422555,0.7166125575668029,0.015074686101118522,-0.03636386173550595,0.012122778694122194,0.008173679518172283
367,-0.030630079539383275,0.02726129162054573,0.27985377791084953,-0.008371850669097142,-0.015898397909880246,0.0321654184422555,0.7166125575668029,0.015074686101118522,-0.03636386173550595,0.012122778694122194,0.008173679518172283
368,-0.030630079539383275,0.02726129162054573,0.27985377791084953,-0.008371850669097142,-0.015898397909880246,0.0321654184422555,0.7166125575668029,0.015074686101118522,-0.03636386173550595,0.012122778694122194,0.008173679518172283
369,-0.030630079539383275,0.02726129162054573,0.27985377791084953,-0.008371850669097142,-0.015898397909880246,0.0321654184422555,0.7166125575668029,0.015074686101118522,-0.03636386173550595,0.012122778694122194,0.008173679518172283
370,-0.030630079539383275,0.02726129162054573,0.27985377791084953,-0.008371850669097142,-0.015898397909880246,0.0321654184422555,0.7166125575668029,0.015074686101118522,-0.03636386173550595,0.012122778694122194,0.008173679518172283
371,-0.030630079539383275,0.02726129162054573,0.27985377791084953,-0.008371850669097142,-0.015898397909880246,0.0321654184422555,0.7166125575668029,0.015074686101118522,-0.03636386173550595,0.012122778694122194,0.008173679518172283
372,-0.030630079539383275,0.02726129162054573,0.27985377791084953,-0.008371850669097142,-0.015898397909880246,0.0321654184422555,0.7166125575668029,0.015074686101118522,-0.03636386173550595,0.012122778694122194,0.008173679518172283
373,-0.030630079539383275,0.02726129162054573,0.27985377791084953,-0.008371850669097142,-0.015898397909880246,0.0321654184422555,0.7166125575668029,0.015074686101118522,-0.03636386173550595,0.012122778694122194,0.008173679518172283
374,-0.030630079539383275,0.02726129162054573,0.27985377791084953,-0.008371850669097142,-0.015898397909880246,0.0321654184422555,0.7166125575668029,0.015074686101118522,-0.03636386173550595,0.012122778694122194,0.008173679518172283
375,-0.030630079539383275,0.02726129162054573,0.27985377791084953,-0.008371850669097142,-0.015898397909880246,0.0321654184422555,0.7166125575668029,0.015074686101118522,-0.03636386173550595,0.012122778694122194,0.008173679518172283
376,-0.030630079539383275,0.02726129162054573,0.27985377791084953,-0.008371850669097142,-0.015898397909880246,0.0321654184422555,0.7166125575668029,0.015074686101118522,-0.03636386173550595,0.012122778694122194,0.008173679518172283
377,-0.030630079539383275,0.02726129162054573,0.27985377791084953,-0.008371850669097142,-0.015898397909880246,0.0321654184422555,0.7166125575668029,0.015074686101118522,-0.03636386173550595,0.012122778694122194,0.008173679518172283
378,-0.030630079539383275,0.02726129162054573,0.27985377791084953,-0.008371850669097142,-0.015898397909880246,0.0321654184422555,0.7166125575668029,0.015074686101118522,-0.03636386173550595,0.012122778694122194,0.008173679518172283
379,-0.030630079539383275,0.02726129162054573,0.27985377791084953,-0.008371850669097142,-0.015898397909880246,0.0321654184422555,0.7166125575668029,0.015074686101118522,-0.03636386173550595,0.012122778694122194,0.008173679518172283
380,-0.030630079539383275,0.02726129162054573,0.27985377791084953,-0.008371850669097142,-0.015898397909880246,0.0321654184422555,0.7166125575668029,0.015074686101118522,-0.03636386173550595,0.012122778694122194,0.008173679518172283
381,-0.030630079539383275,0.02726129162054573,0.27985377791084953,-0.008371850669097142,-0.015898397909880246,0.0321654184422555,0.7166125575668029,0.015074686101118522,-0.03636386173550595,0.012122778694122194,0.008173679518172283
382,-0.030630079539383275,0.02726129162054573,0.27985377791084953,-0.008371850669097142,-0.015898397909880246,0.0321654184422555,0.7166125575668029,0.015074686101118522,-0.03636386173550595,0.012122778694122194,0.008173679518172283
383,-0.030630079539383275,0.02726129162054573,0.27985377791084953,-0.008371850669097142,-0.015898397909880246,0.0321654184422555,0.7166125575668029,0.015074686101118522,-0.03636386173550595,0.012122778694122194,0.008173679518172283
384,-0.030630079539383275,0.02726129162054573,0.27985377791084953,-0.008371850669097142,-0.015898397909880246,0.0321654184422555,0.7166125575668029,0.015074686101118522,-0.03636386173550595,0.012122778694122194,0.008173679518172283
385,-0.030630079539383275,0.02726129162054573,0.27985377791084953,-0.008371850669097142,-0.015898397909880246,0.0321654184422555,0.7166125575668029,0.015074686101118522,-0.03636386173550595,0.012122778694122194,0.008173679518172283
386,-0.030630079539383275,0.02726129162054573,0.27985377791084953,-0.008371850669097142,-0.015898397909880246,0.0321654184422555,0.7166125575668029,0.015074686101118522,-0.03636386173550595,0.012122778694122194,0.008173679518172283
387,-0.030630079539383275,0.02726129162054573,0.27985377791084953,-0.008371850669097142,-0.015898397909880246,0.0321654184422555,0.7166125575668029,0.015074686101118522,-0.03636386173550595,0.012122778694122194,0.008173679518172283
388,-0.030630079539383275,0.02726129162054573,0.27985377791084953,-0.008371850669097142,-0.015898397909880246,0.0321654184422555,0.7166125575668029,0.015074686101118522,-0.03636386173550595,0.012122778694122194,0.008173679518172283
389,-0.030630079539383275,0.02726129162054573,0.27985377791084953,-0.008371850669097142,-0.015898397909880246,0.0321654184422555,0.7166125575668029,0.015074686101118522,-0.03636386173550595,0.012122778694122194,0.008173679518172283
390,-0.030630079539383275,0.02726129162054573,0.27985377791084953,-0.008371850669097142,-0.015898397909880246,0.0321654184422555,0.7166125575668029,0.015074686101118522,-0.03636386173550595,0.012122778694122194,0.008173679518172283
391,-0.030630079539383275,0.02726129162054573,0.27985377791084953,-0.008371850669097142,-0.015898397909880246,0.0321654184422555,0.7166125575668029,0.015074686101118522,-0.03636386173550595,0.012122778694122194,0.008173679518172283
392,-0.030630079539383275,0.02726129162054573,0.27985377791084953,-0.008371850669097142,-0.015898397909880246,0.0321654184422555,0.7166125575668029,0.015074686101118522,-0.03636386173550595,0.012122778694122194,0.008173679518172283
393,-0.030630079539383275,0.02726129162054573,0.27985377791084953,-0.008371850669097142,-0.015898397909880246,0.0321654184422555,0.7166125575668029,0.015074686101118522,-0.03636386173550595,0.012122778694122194,0.008173679518172283
394,-0.030630079539383275,0.02726129162054573,0.27985377791084953,-0.008371850669097142,-0.015898397909880246,0.0321654184422555,0.7166125575668029,0.015074686101118522,-0.03636386173550595,0.012122778694122194,0.008173679518172283
395,-0.030630079539383275,0.02726129162054573,0.27985377791084953,-0.008371850669097142,-0.015898397909880246,0.0321654184422555,0.7166125575668029,0.015074686101118522,-0.03636386173550595,0.012122778694122194,0.008173679518172283
396,0.1148785339786808,0.039680229720591265,0.07155677163895068,0.061496871513384926,0.10104998379274212,0.26526851404278756,0.07744482047988224,0.06452460893950608,0.056115779261713,0.19147287220175857,-0.043488985569997154
397,0.1148785339786808,0.039680229720591265,0.07155677163895068,0.061496871513384926,0.10104998379274212,0.26526851404278756,0.07744482047988224,0.06452460893950608,0.056115779261713,0.19147287220175857,-0.043488985569997154
398,0.1148785339786808,0.039680229720591265,0.07155677163895068,0.061496871513384926,0.10104998379274212,0.26526851404278756,0.07744482047988224,0.06452460893950608,0.056115779261713,0.19147287220175857,-0.043488985569997154
399,0.1148785339786808,0.039680229720591265,0.07155677163895068,0.061496871513384926,0.10104998379274212,0.26526851404278756,0.07744482047988224,0.06452460893950608,0.056115779261713,0.19147287220175857,-0.043488985569997154
400,0.1148785339786808,0.039680229720591265,0.07155677163895068,0.061496871513384926,0.10104998379274212,0.26526851404278756,0.07744482047988224,0.06452460893950608,0.056115779261713,0.19147287220175857,-0.043488985569997154
401,0.1148785339786808,0.039680229720591265,0.07155677163895068,0.061496871513384926,0.10104998379274212,0.26526851404278756,0.07744482047988224,0.06452460893950608,0.056115779261713,0.19147287220175857,-0.043488985569997154
402,0.1148785339786808,0.039680229720591265,0.07155677163895068,0.061496871513384926,0.10104998379274212,0.26526851404278756,0.07744482047988224,0.06452460893950608,0.056115779261713,0.19147287220175857,-0.043488985569997154
403,0.1148785339786808,0.039680229720591265,0.07155677163895068,0.061496871513384926,0.10104998379274212,0.26526851404278756,0.07744482047988224,0.06452460893950608,0.056115779261713,0.19147287220175857,-0.043488985569997154
404,0.1148785339786808,0.039680229720591265,0.07155677163895068,0.061496871513384926,0.10104998379274212,0.26526851404278756,0.07744482047988224,0.06452460893950608,0.056115779261713,0.19147287220175857,-0.043488985569997154
405,0.1148785339786808,0.039680229720591265,0.07155677163895068,0.061496871513384926,0.10104998379274212,0.26526851404278756,0.07744482047988224,0.06452460893950608,0.056115779261713,0.19147287220175857,-0.043488985569997154
406,0.1148785339786808,0.039680229720591265,0.07155677163895068,0.061496871513384926,0.10104998379274212,0.26526851404278756,0.07744482047988224,0.06452460893950608,0.056115779261713,0.19147287220175857,-0.043488985569997154
407,0.1148785339786808,0.039680229720591265,0.07155677163895068,0.061496871513384926,0.10104998379274212,0.26526851404278756,0.07744482047988224,0.06452460893950608,0.056115779261713,0.19147287220175857,-0.043488985569997154
408,0.1148785339786808,0.039680229720591265,0.07155677163895068,0.061496871513384926,0.10104998379274212,0.26526851404278756,0.07744482047988224,0.06452460893950608,0.056115779261713,0.19147287220175857,-0.043488985569997154
409,0.1148785339786808,0.039680229720591265,0.07155677163895068,0.061496871513384926,0.10104998379274212,0.26526851404278756,0.07744482047988224,0.06452460893950608,0.056115779261713,0.19147287220175857,-0.043488985569997154
410,0.1148785339786808,0.039680229720591265,0.07155677163895068,0.061496871513384926,0.10104998379274212,0.26526851404278756,0.07744482047988224,0.06452460893950608,0.056115779261713,0.19147287220175857,-0.043488985569997154
411,0.1148785339786808,0.039680229720591265,0.07155677163895068,0.061496871513384926,0.10104998379274212,0.26526851404278756,0.07744482047988224,0.06452460893950608,0.056115779261713,0.19147287220175857,-0.043488985569997154
412,0.1148785339786808,0.039680229720591265,0.07155677163895068,0.061496871513384926,0.10104998379274212,0.26526851404278756,0.07744482047988224,0.06452460893950608,0.056115779261713,0.19147287220175857,-0.043488985569997154
413,0.1148785339786808,0.039680229720591265,0.07155677163895068,0.061496871513384926,0.10104998379274212,0.26526851404278756,0.07744482047988224,0.06452460893950608,0.056115779261713,0.19147287220175857,-0.043488985569997154
414,0.1148785339786808,0.039680229720591265,0.07155677163895068,0.061496871513384926,0.10104998379274212,0.26526851404278756,0.07744482047988224,0.06452460893950608,0.056115779261713,0.19147287220175857,-0.043488985569997154
415,0.1148785339786808,0.039680229720591265,0.07155677163895068,0.061496871513384926,0.10104998379274212,0.26526851404278756,0.07744482047988224,0.06452460893950608,0.056115779261713,0.19147287220175857,-0.043488985569997154
416,0.1148785339786808,0.039680229720591265,0.07155677163895068,0.061496871513384926,0.10104998379274212,0.26526851404278756,0.07744482047988224,0.06452460893950608,0.056115779261713,0.19147287220175857,-0.043488985569997154
417,0.1148785339786808,0.039680229720591265,0.07155677163895068,0.061496871513384926,0.10104998379274212,0.26526851404278756,0.07744482047988224,0.06452460893950608,0.056115779261713,0.19147287220175857,-0.043488985569997154
418,0.1148785339786808,0.039680229720591265,0.07155677163895068,0.061496871513384926,0.10104998379274212,0.26526851404278756,0.07744482047988224,0.06452460893950608,0.056115779261713,0.19147287220175857,-0.043488985569997154
419,0.1148785339786808,0.039680229720591265,0.07155677163895068,0.061496871513384926,0.10104998379274212,0.26526851404278756,0.07744482047988224,0.06452460893950608,0.056115779261713,0.19147287220175857,-0.043488985569997154
420,0.1148785339786808,0.039680229720591265,0.07155677163895068,0.061496871513384926,0.10104998379274212,0.26526851404278756,0.07744482047988224,0.06452460893950608,0.056115779261713,0.19147287220175857,-0.043488985569997154
421,0.1148785339786808,0.039680229720591265,0.07155677163895068,0.061496871513384926,0.10104998379274212,0.26526851404278756,0.07744482047988224,0.06452460893950608,0.056115779261713,0.19147287220175857,-0.043488985569997154
422,0.1148785339786808,0.039680229720591265,0.07155677163895068,0.061496871513384926,0.10104998379274212,0.26526851404278756,0.07744482047988224,0.06452460893950608,0.056115779261713,0.19147287220175857,-0.043488985569997154
423,0.1148785339786808,0.039680229720591265,0.07155677163895068,0.061496871513384926,0.10104998379274212,0.26526851404278756,0.07744482047988224,0.06452460893950608,0.056115779261713,0.19147287220175857,-0.043488985569997154
424,0.0808496104319182,0.9935554626286397,-0.06017035787795412,0.02008530466183355,0.04593367269949368,0.05825632640388273,0.032664199332402465,0.04209980461410914,0.026555619227720404,-0.2012253326256818,-0.03860430949636406
425,0.0808496104319182,0.9935554626286397,-0.06017035787795412,0.02008530466183355,0.04593367269949368,0.05825632640388273,0.032664199332402465,0.04209980461410914,0.026555619227720404,-0.2012253326256818,-0.03860430949636406
426,0.0808496104319182,0.9935554626286397,-0.06017035787795412,0.02008530466183355,0.04593367269949368,0.05825632640388273,0.032664199332402465,0.04209980461410914,0.026555619227720404,-0.2012253326256818,-0.03860430949636406
427,0.0808496104319182,0.9935554626286397,-0.06017035787795412,0.02008530466183355,0.04593367269949368,0.05825632640388273,0.032664199332402465,0.04209980461410914,0.026555619227720404,-0.2012253326256818,-0.03860430949636406
428,0.0808496104319182,0.9935554626286397,-0.06017035787795412,0.02008530466183355,0.04593367269949368,0.05825632640388273,0.032664199332402465,0.04209980461410914,0.026555619227720404,-0.2012253326256818,-0.03860430949636406
429,0.0808496104319182,0.9935554626286397,-0.06017035787795412,0.02008530466183355,0.04593367269949368,0.05825632640388273,0.032664199332402465,0.04209980461410914,0.026555619227720404,-0.2012253326256818,-0.03860430949636406
430,0.0808496104319182,0.9935554626286397,-0.06017035787795412,0.02008530466183355,0.04593367269949368,0.05825632640388273,0.032664199332402465,0.04209980461410914,0.026555619227720404,-0.2012253326256818,-0.03860430949636406
431,0.0808496104319182,0.9935554626286397,-0.06017035787795412,0.02008530466183355,0.04593367269949368,0.05825632640388273,0.032664199332402465,0.04209980461410914,0.026555619227720404,-0.2012253326256818,-0.03860430949636406
432,0.0808496104319182,0.9935554626286397,-0.06017035787795412,0.02008530466183355,0.04593367269949368,0.05825632640388273,0.032664199332402465,0.04209980461410914,0.026555619227720404,-0.2012253326256818,-0.03860430949636406
433,0.0808496104319182,0.9935554626286397,-0.06017035787795412,0.02008530466183355,0.04593367269949368,0.05825632640388273,0.032664199332402465,0.04209980461410914,0.026555619227720404,-0.2012253326256818,-0.03860430949636406
434,0.0808496104319182,0.9935554626286397,-0.06017035787795412,0.02008530466183355,0.04593367269949368,0.05825632640388273,0.032664199332402465,0.04209980461410914,0.026555619227720404,-0.2012253326256818,-0.03860430949636406
435,0.0808496104319182,0.9935554626286397,-0.06017035787795412,0.02008530466183355,0.04593367269949368,0.05825632640388273,0.032664199332402465,0.04209980461410914,0.026555619227720404,-0.2012253326256818,-0.03860430949636406
436,0.0808496104319182,0.9935554626286397,-0.06017035787795412,0.02008530466183355,0.04593367269949368,0.05825632640388273,0.032664199332402465,0.04209980461410914,0.026555619227720404,-0.2012253326256818,-0.03860430949636406
437,0.0808496104319182,0.9935554626286397,-0.06017035787795412,0.02008530466183355,0.04593367269949368,0.05825632640388273,0.032664199332402465,0.04209980461410914,0.026555619227720404,-0.2012253326256818,-0.03860430949636406
438,0.0808496104319182,0.9935554626286397,-0.06017035787795412,0.02008530466183355,0.04593367269949368,0.05825632640388273,0.032664199332402465,0.04209980461410914,0.026555619227720404,-0.2012253326256818,-0.03860430949636406
439,0.0808496104319182,0.9935554626286397,-0.06017035787795412,0.02008530466183355,0.04593367269949368,0.05825632640388273,0.032664199332402465,0.04209980461410914,0.026555619227720404,-0.2012253326256818,-0.03860430949636406
440,0.0808496104319182,0.9935554626286397,-0.06017035787795412,0.02008530466183355,0.04593367269949368,0.05825632640388273,0.032664199332402465,0.04209980461410914,0.026555619227720404,-0.2012253326256818,-0.03860430949636406
441,0.0808496104319182,0.9935554626286397,-0.06017035787795412,0.02008530466183355,0.04593367269949368,0.05825632640388273,0.032664199332402465,0.04209980461410914,0.026555619227720404,-0.2012253326256818,-0.03860430949636406
442,0.0808496104319182,0.9935554626286397,-0.06017035787795412,0.02008530466183355,0.04593367269949368,0.05825632640388273,0.032664199332402465,0.04209980461410914,0.026555619227720404,-0.2012253326256818,-0.03860430949636406
