,0,1,2,3,4,5,6,7,8,9,10
0,0.1135209974758588,0.11298990711897505,0.3091770328475696,-0.17259564548658418,0.14333958780512931,0.11827099137068924,0.06071151229063491,0.1424008407059615,0.07338475163436071,-0.08376006975247882,0.18256009398988382
1,0.1135209974758588,0.11298990711897505,0.3091770328475696,-0.17259564548658418,0.14333958780512931,0.11827099137068924,0.06071151229063491,0.1424008407059615,0.07338475163436071,-0.08376006975247882,0.18256009398988382
2,0.1135209974758588,0.11298990711897505,0.3091770328475696,-0.17259564548658418,0.14333958780512931,0.11827099137068924,0.06071151229063491,0.1424008407059615,0.07338475163436071,-0.08376006975247882,0.18256009398988382
3,0.1135209974758588,0.11298990711897505,0.3091770328475696,-0.17259564548658418,0.14333958780512931,0.11827099137068924,0.06071151229063491,0.1424008407059615,0.07338475163436071,-0.08376006975247882,0.18256009398988382
4,0.1135209974758588,0.11298990711897505,0.3091770328475696,-0.17259564548658418,0.14333958780512931,0.11827099137068924,0.06071151229063491,0.1424008407059615,0.07338475163436071,-0.08376006975247882,0.18256009398988382
5,0.1135209974758588,0.11298990711897505,0.3091770328475696,-0.17259564548658418,0.14333958780512931,0.11827099137068924,0.06071151229063491,0.1424008407059615,0.07338475163436071,-0.08376006975247882,0.18256009398988382
6,0.1135209974758588,0.11298990711897505,0.3091770328475696,-0.17259564548658418,0.14333958780512931,0.11827099137068924,0.06071151229063491,0.1424008407059615,0.07338475163436071,-0.08376006975247882,0.18256009398988382
7,0.1135209974758588,0.11298990711897505,0.3091770328475696,-0.17259564548658418,0.14333958780512931,0.11827099137068924,0.06071151229063491,0.1424008407059615,0.07338475163436071,-0.08376006975247882,0.18256009398988382
8,0.1135209974758588,0.11298990711897505,0.3091770328475696,-0.17259564548658418,0.14333958780512931,0.11827099137068924,0.06071151229063491,0.1424008407059615,0.07338475163436071,-0.08376006975247882,0.18256009398988382
9,0.1135209974758588,0.11298990711897505,0.3091770328475696,-0.17259564548658418,0.14333958780512931,0.11827099137068924,0.06071151229063491,0.1424008407059615,0.07338475163436071,-0.08376006975247882,0.18256009398988382
10,0.1135209974758588,0.11298990711897505,0.3091770328475696,-0.17259564548658418,0.14333958780512931,0.11827099137068924,0.06071151229063491,0.1424008407059615,0.07338475163436071,-0.08376006975247882,0.18256009398988382
11,0.1135209974758588,0.11298990711897505,0.3091770328475696,-0.17259564548658418,0.14333958780512931,0.11827099137068924,0.06071151229063491,0.1424008407059615,0.07338475163436071,-0.08376006975247882,0.18256009398988382
12,0.1135209974758588,0.11298990711897505,0.3091770328475696,-0.17259564548658418,0.14333958780512931,0.11827099137068924,0.06071151229063491,0.1424008407059615,0.07338475163436071,-0.08376006975247882,0.18256009398988382
13,0.1135209974758588,0.11298990711897505,0.3091770328475696,-0.17259564548658418,0.14333958780512931,0.11827099137068924,0.06071151229063491,0.1424008407059615,0.07338475163436071,-0.08376006975247882,0.18256009398988382
14,0.1135209974758588,0.11298990711897505,0.3091770328475696,-0.17259564548658418,0.14333958780512931,0.11827099137068924,0.06071151229063491,0.1424008407059615,0.07338475163436071,-0.08376006975247882,0.18256009398988382
15,0.1135209974758588,0.11298990711897505,0.3091770328475696,-0.17259564548658418,0.14333958780512931,0.11827099137068924,0.06071151229063491,0.1424008407059615,0.07338475163436071,-0.08376006975247882,0.18256009398988382
16,0.1135209974758588,0.11298990711897505,0.3091770328475696,-0.17259564548658418,0.14333958780512931,0.11827099137068924,0.06071151229063491,0.1424008407059615,0.07338475163436071,-0.08376006975247882,0.18256009398988382
17,0.1135209974758588,0.11298990711897505,0.3091770328475696,-0.17259564548658418,0.14333958780512931,0.11827099137068924,0.06071151229063491,0.1424008407059615,0.07338475163436071,-0.08376006975247882,0.18256009398988382
18,0.1135209974758588,0.11298990711897505,0.3091770328475696,-0.17259564548658418,0.14333958780512931,0.11827099137068924,0.06071151229063491,0.1424008407059615,0.07338475163436071,-0.08376006975247882,0.18256009398988382
19,0.1135209974758588,0.11298990711897505,0.3091770328475696,-0.17259564548658418,0.14333958780512931,0.11827099137068924,0.06071151229063491,0.1424008407059615,0.07338475163436071,-0.08376006975247882,0.18256009398988382
20,0.1135209974758588,0.11298990711897505,0.3091770328475696,-0.17259564548658418,0.14333958780512931,0.11827099137068924,0.06071151229063491,0.1424008407059615,0.07338475163436071,-0.08376006975247882,0.18256009398988382
21,0.1135209974758588,0.11298990711897505,0.3091770328475696,-0.17259564548658418,0.14333958780512931,0.11827099137068924,0.06071151229063491,0.1424008407059615,0.07338475163436071,-0.08376006975247882,0.18256009398988382
22,0.1135209974758588,0.11298990711897505,0.3091770328475696,-0.17259564548658418,0.14333958780512931,0.11827099137068924,0.06071151229063491,0.1424008407059615,0.07338475163436071,-0.08376006975247882,0.18256009398988382
23,0.1135209974758588,0.11298990711897505,0.3091770328475696,-0.17259564548658418,0.14333958780512931,0.11827099137068924,0.06071151229063491,0.1424008407059615,0.07338475163436071,-0.08376006975247882,0.18256009398988382
24,0.1135209974758588,0.11298990711897505,0.3091770328475696,-0.17259564548658418,0.14333958780512931,0.11827099137068924,0.06071151229063491,0.1424008407059615,0.07338475163436071,-0.08376006975247882,0.18256009398988382
25,0.1135209974758588,0.11298990711897505,0.3091770328475696,-0.17259564548658418,0.14333958780512931,0.11827099137068924,0.06071151229063491,0.1424008407059615,0.07338475163436071,-0.08376006975247882,0.18256009398988382
26,0.1135209974758588,0.11298990711897505,0.3091770328475696,-0.17259564548658418,0.14333958780512931,0.11827099137068924,0.06071151229063491,0.1424008407059615,0.07338475163436071,-0.08376006975247882,0.18256009398988382
27,0.1135209974758588,0.11298990711897505,0.3091770328475696,-0.17259564548658418,0.14333958780512931,0.11827099137068924,0.06071151229063491,0.1424008407059615,0.07338475163436071,-0.08376006975247882,0.18256009398988382
28,0.1135209974758588,0.11298990711897505,0.3091770328475696,-0.17259564548658418,0.14333958780512931,0.11827099137068924,0.06071151229063491,0.1424008407059615,0.07338475163436071,-0.08376006975247882,0.18256009398988382
29,0.1135209974758588,0.11298990711897505,0.3091770328475696,-0.17259564548658418,0.14333958780512931,0.11827099137068924,0.06071151229063491,0.1424008407059615,0.07338475163436071,-0.08376006975247882,0.18256009398988382
30,0.1135209974758588,0.11298990711897505,0.3091770328475696,-0.17259564548658418,0.14333958780512931,0.11827099137068924,0.06071151229063491,0.1424008407059615,0.07338475163436071,-0.08376006975247882,0.18256009398988382
31,0.38165440883527546,0.3295161103667112,0.05651229078125796,0.4101315312990294,-0.04621354245381981,-0.07157321493979732,-0.06493370693066935,-0.04239395793934134,-0.07488557773637214,0.05678865834880961,0.06539700036891623
32,0.38165440883527546,0.3295161103667112,0.05651229078125796,0.4101315312990294,-0.04621354245381981,-0.07157321493979732,-0.06493370693066935,-0.04239395793934134,-0.07488557773637214,0.05678865834880961,0.06539700036891623
33,0.38165440883527546,0.3295161103667112,0.05651229078125796,0.4101315312990294,-0.04621354245381981,-0.07157321493979732,-0.06493370693066935,-0.04239395793934134,-0.07488557773637214,0.05678865834880961,0.06539700036891623
34,0.38165440883527546,0.3295161103667112,0.05651229078125796,0.4101315312990294,-0.04621354245381981,-0.07157321493979732,-0.06493370693066935,-0.04239395793934134,-0.07488557773637214,0.05678865834880961,0.06539700036891623
35,0.38165440883527546,0.3295161103667112,0.05651229078125796,0.4101315312990294,-0.04621354245381981,-0.07157321493979732,-0.06493370693066935,-0.04239395793934134,-0.07488557773637214,0.05678865834880961,0.06539700036891623
36,0.38165440883527546,0.3295161103667112,0.05651229078125796,0.4101315312990294,-0.04621354245381981,-0.07157321493979732,-0.06493370693066935,-0.04239395793934134,-0.07488557773637214,0.05678865834880961,0.06539700036891623
37,0.38165440883527546,0.3295161103667112,0.05651229078125796,0.4101315312990294,-0.04621354245381981,-0.07157321493979732,-0.06493370693066935,-0.04239395793934134,-0.07488557773637214,0.05678865834880961,0.06539700036891623
38,0.38165440883527546,0.3295161103667112,0.05651229078125796,0.4101315312990294,-0.04621354245381981,-0.07157321493979732,-0.06493370693066935,-0.04239395793934134,-0.07488557773637214,0.05678865834880961,0.06539700036891623
39,0.38165440883527546,0.3295161103667112,0.05651229078125796,0.4101315312990294,-0.04621354245381981,-0.07157321493979732,-0.06493370693066935,-0.04239395793934134,-0.07488557773637214,0.05678865834880961,0.06539700036891623
40,0.38165440883527546,0.3295161103667112,0.05651229078125796,0.4101315312990294,-0.04621354245381981,-0.07157321493979732,-0.06493370693066935,-0.04239395793934134,-0.07488557773637214,0.05678865834880961,0.06539700036891623
41,0.38165440883527546,0.3295161103667112,0.05651229078125796,0.4101315312990294,-0.04621354245381981,-0.07157321493979732,-0.06493370693066935,-0.04239395793934134,-0.07488557773637214,0.05678865834880961,0.06539700036891623
42,0.38165440883527546,0.3295161103667112,0.05651229078125796,0.4101315312990294,-0.04621354245381981,-0.07157321493979732,-0.06493370693066935,-0.04239395793934134,-0.07488557773637214,0.05678865834880961,0.06539700036891623
43,0.38165440883527546,0.3295161103667112,0.05651229078125796,0.4101315312990294,-0.04621354245381981,-0.07157321493979732,-0.06493370693066935,-0.04239395793934134,-0.07488557773637214,0.05678865834880961,0.06539700036891623
44,0.38165440883527546,0.3295161103667112,0.05651229078125796,0.4101315312990294,-0.04621354245381981,-0.07157321493979732,-0.06493370693066935,-0.04239395793934134,-0.07488557773637214,0.05678865834880961,0.06539700036891623
45,0.38165440883527546,0.3295161103667112,0.05651229078125796,0.4101315312990294,-0.04621354245381981,-0.07157321493979732,-0.06493370693066935,-0.04239395793934134,-0.07488557773637214,0.05678865834880961,0.06539700036891623
46,0.38165440883527546,0.3295161103667112,0.05651229078125796,0.4101315312990294,-0.04621354245381981,-0.07157321493979732,-0.06493370693066935,-0.04239395793934134,-0.07488557773637214,0.05678865834880961,0.06539700036891623
47,0.38165440883527546,0.3295161103667112,0.05651229078125796,0.4101315312990294,-0.04621354245381981,-0.07157321493979732,-0.06493370693066935,-0.04239395793934134,-0.07488557773637214,0.05678865834880961,0.06539700036891623
48,0.38165440883527546,0.3295161103667112,0.05651229078125796,0.4101315312990294,-0.04621354245381981,-0.07157321493979732,-0.06493370693066935,-0.04239395793934134,-0.07488557773637214,0.05678865834880961,0.06539700036891623
49,0.38165440883527546,0.3295161103667112,0.05651229078125796,0.4101315312990294,-0.04621354245381981,-0.07157321493979732,-0.06493370693066935,-0.04239395793934134,-0.07488557773637214,0.05678865834880961,0.06539700036891623
50,0.38165440883527546,0.3295161103667112,0.05651229078125796,0.4101315312990294,-0.04621354245381981,-0.07157321493979732,-0.06493370693066935,-0.04239395793934134,-0.07488557773637214,0.05678865834880961,0.06539700036891623
51,0.38165440883527546,0.3295161103667112,0.05651229078125796,0.4101315312990294,-0.04621354245381981,-0.07157321493979732,-0.06493370693066935,-0.04239395793934134,-0.07488557773637214,0.05678865834880961,0.06539700036891623
52,0.38165440883527546,0.3295161103667112,0.05651229078125796,0.4101315312990294,-0.04621354245381981,-0.07157321493979732,-0.06493370693066935,-0.04239395793934134,-0.07488557773637214,0.05678865834880961,0.06539700036891623
53,0.38165440883527546,0.3295161103667112,0.05651229078125796,0.4101315312990294,-0.04621354245381981,-0.07157321493979732,-0.06493370693066935,-0.04239395793934134,-0.07488557773637214,0.05678865834880961,0.06539700036891623
54,0.38165440883527546,0.3295161103667112,0.05651229078125796,0.4101315312990294,-0.04621354245381981,-0.07157321493979732,-0.06493370693066935,-0.04239395793934134,-0.07488557773637214,0.05678865834880961,0.06539700036891623
55,0.38165440883527546,0.3295161103667112,0.05651229078125796,0.4101315312990294,-0.04621354245381981,-0.07157321493979732,-0.06493370693066935,-0.04239395793934134,-0.07488557773637214,0.05678865834880961,0.06539700036891623
56,0.38165440883527546,0.3295161103667112,0.05651229078125796,0.4101315312990294,-0.04621354245381981,-0.07157321493979732,-0.06493370693066935,-0.04239395793934134,-0.07488557773637214,0.05678865834880961,0.06539700036891623
57,0.38165440883527546,0.3295161103667112,0.05651229078125796,0.4101315312990294,-0.04621354245381981,-0.07157321493979732,-0.06493370693066935,-0.04239395793934134,-0.07488557773637214,0.05678865834880961,0.06539700036891623
58,0.38165440883527546,0.3295161103667112,0.05651229078125796,0.4101315312990294,-0.04621354245381981,-0.07157321493979732,-0.06493370693066935,-0.04239395793934134,-0.07488557773637214,0.05678865834880961,0.06539700036891623
59,0.08159939862944178,0.05483693324692473,0.07653641162473165,-0.17527826796602763,0.048971300289976025,0.14297482363133246,0.07526602000553226,0.05659868394185,0.6325361768375022,0.13068025179270898,-0.12472173203397235
60,0.08159939862944178,0.05483693324692473,0.07653641162473165,-0.17527826796602763,0.048971300289976025,0.14297482363133246,0.07526602000553226,0.05659868394185,0.6325361768375022,0.13068025179270898,-0.12472173203397235
61,0.08159939862944178,0.05483693324692473,0.07653641162473165,-0.17527826796602763,0.048971300289976025,0.14297482363133246,0.07526602000553226,0.05659868394185,0.6325361768375022,0.13068025179270898,-0.12472173203397235
62,0.08159939862944178,0.05483693324692473,0.07653641162473165,-0.17527826796602763,0.048971300289976025,0.14297482363133246,0.07526602000553226,0.05659868394185,0.6325361768375022,0.13068025179270898,-0.12472173203397235
63,0.08159939862944178,0.05483693324692473,0.07653641162473165,-0.17527826796602763,0.048971300289976025,0.14297482363133246,0.07526602000553226,0.05659868394185,0.6325361768375022,0.13068025179270898,-0.12472173203397235
64,0.08159939862944178,0.05483693324692473,0.07653641162473165,-0.17527826796602763,0.048971300289976025,0.14297482363133246,0.07526602000553226,0.05659868394185,0.6325361768375022,0.13068025179270898,-0.12472173203397235
65,0.08159939862944178,0.05483693324692473,0.07653641162473165,-0.17527826796602763,0.048971300289976025,0.14297482363133246,0.07526602000553226,0.05659868394185,0.6325361768375022,0.13068025179270898,-0.12472173203397235
66,0.08159939862944178,0.05483693324692473,0.07653641162473165,-0.17527826796602763,0.048971300289976025,0.14297482363133246,0.07526602000553226,0.05659868394185,0.6325361768375022,0.13068025179270898,-0.12472173203397235
67,0.08159939862944178,0.05483693324692473,0.07653641162473165,-0.17527826796602763,0.048971300289976025,0.14297482363133246,0.07526602000553226,0.05659868394185,0.6325361768375022,0.13068025179270898,-0.12472173203397235
68,0.08159939862944178,0.05483693324692473,0.07653641162473165,-0.17527826796602763,0.048971300289976025,0.14297482363133246,0.07526602000553226,0.05659868394185,0.6325361768375022,0.13068025179270898,-0.12472173203397235
69,0.08159939862944178,0.05483693324692473,0.07653641162473165,-0.17527826796602763,0.048971300289976025,0.14297482363133246,0.07526602000553226,0.05659868394185,0.6325361768375022,0.13068025179270898,-0.12472173203397235
70,0.08159939862944178,0.05483693324692473,0.07653641162473165,-0.17527826796602763,0.048971300289976025,0.14297482363133246,0.07526602000553226,0.05659868394185,0.6325361768375022,0.13068025179270898,-0.12472173203397235
71,0.08159939862944178,0.05483693324692473,0.07653641162473165,-0.17527826796602763,0.048971300289976025,0.14297482363133246,0.07526602000553226,0.05659868394185,0.6325361768375022,0.13068025179270898,-0.12472173203397235
72,0.08159939862944178,0.05483693324692473,0.07653641162473165,-0.17527826796602763,0.048971300289976025,0.14297482363133246,0.07526602000553226,0.05659868394185,0.6325361768375022,0.13068025179270898,-0.12472173203397235
73,0.08159939862944178,0.05483693324692473,0.07653641162473165,-0.17527826796602763,0.048971300289976025,0.14297482363133246,0.07526602000553226,0.05659868394185,0.6325361768375022,0.13068025179270898,-0.12472173203397235
74,0.08159939862944178,0.05483693324692473,0.07653641162473165,-0.17527826796602763,0.048971300289976025,0.14297482363133246,0.07526602000553226,0.05659868394185,0.6325361768375022,0.13068025179270898,-0.12472173203397235
75,0.08159939862944178,0.05483693324692473,0.07653641162473165,-0.17527826796602763,0.048971300289976025,0.14297482363133246,0.07526602000553226,0.05659868394185,0.6325361768375022,0.13068025179270898,-0.12472173203397235
76,0.08159939862944178,0.05483693324692473,0.07653641162473165,-0.17527826796602763,0.048971300289976025,0.14297482363133246,0.07526602000553226,0.05659868394185,0.6325361768375022,0.13068025179270898,-0.12472173203397235
77,0.08159939862944178,0.05483693324692473,0.07653641162473165,-0.17527826796602763,0.048971300289976025,0.14297482363133246,0.07526602000553226,0.05659868394185,0.6325361768375022,0.13068025179270898,-0.12472173203397235
78,0.08159939862944178,0.05483693324692473,0.07653641162473165,-0.17527826796602763,0.048971300289976025,0.14297482363133246,0.07526602000553226,0.05659868394185,0.6325361768375022,0.13068025179270898,-0.12472173203397235
79,0.08159939862944178,0.05483693324692473,0.07653641162473165,-0.17527826796602763,0.048971300289976025,0.14297482363133246,0.07526602000553226,0.05659868394185,0.6325361768375022,0.13068025179270898,-0.12472173203397235
80,0.08159939862944178,0.05483693324692473,0.07653641162473165,-0.17527826796602763,0.048971300289976025,0.14297482363133246,0.07526602000553226,0.05659868394185,0.6325361768375022,0.13068025179270898,-0.12472173203397235
81,0.08159939862944178,0.05483693324692473,0.07653641162473165,-0.17527826796602763,0.048971300289976025,0.14297482363133246,0.07526602000553226,0.05659868394185,0.6325361768375022,0.13068025179270898,-0.12472173203397235
82,0.08159939862944178,0.05483693324692473,0.07653641162473165,-0.17527826796602763,0.048971300289976025,0.14297482363133246,0.07526602000553226,0.05659868394185,0.6325361768375022,0.13068025179270898,-0.12472173203397235
83,0.08159939862944178,0.05483693324692473,0.07653641162473165,-0.17527826796602763,0.048971300289976025,0.14297482363133246,0.07526602000553226,0.05659868394185,0.6325361768375022,0.13068025179270898,-0.12472173203397235
84,0.08159939862944178,0.05483693324692473,0.07653641162473165,-0.17527826796602763,0.048971300289976025,0.14297482363133246,0.07526602000553226,0.05659868394185,0.6325361768375022,0.13068025179270898,-0.12472173203397235
85,0.08159939862944178,0.05483693324692473,0.07653641162473165,-0.17527826796602763,0.048971300289976025,0.14297482363133246,0.07526602000553226,0.05659868394185,0.6325361768375022,0.13068025179270898,-0.12472173203397235
86,0.08159939862944178,0.05483693324692473,0.07653641162473165,-0.17527826796602763,0.048971300289976025,0.14297482363133246,0.07526602000553226,0.05659868394185,0.6325361768375022,0.13068025179270898,-0.12472173203397235
87,0.08159939862944178,0.05483693324692473,0.07653641162473165,-0.17527826796602763,0.048971300289976025,0.14297482363133246,0.07526602000553226,0.05659868394185,0.6325361768375022,0.13068025179270898,-0.12472173203397235
88,0.08159939862944178,0.05483693324692473,0.07653641162473165,-0.17527826796602763,0.048971300289976025,0.14297482363133246,0.07526602000553226,0.05659868394185,0.6325361768375022,0.13068025179270898,-0.12472173203397235
89,0.08159939862944178,0.05483693324692473,0.07653641162473165,-0.17527826796602763,0.048971300289976025,0.14297482363133246,0.07526602000553226,0.05659868394185,0.6325361768375022,0.13068025179270898,-0.12472173203397235
90,0.07003493951342592,0.08108220047822005,0.047180439730770254,0.0973658725216614,0.1358177158514673,0.12684869389639525,0.20053679880833153,0.10642196724428059,0.17086178979697572,-0.13086650951808312,0.09471609167655523
91,0.07003493951342592,0.08108220047822005,0.047180439730770254,0.0973658725216614,0.1358177158514673,0.12684869389639525,0.20053679880833153,0.10642196724428059,0.17086178979697572,-0.13086650951808312,0.09471609167655523
92,0.07003493951342592,0.08108220047822005,0.047180439730770254,0.0973658725216614,0.1358177158514673,0.12684869389639525,0.20053679880833153,0.10642196724428059,0.17086178979697572,-0.13086650951808312,0.09471609167655523
93,0.07003493951342592,0.08108220047822005,0.047180439730770254,0.0973658725216614,0.1358177158514673,0.12684869389639525,0.20053679880833153,0.10642196724428059,0.17086178979697572,-0.13086650951808312,0.09471609167655523
94,0.07003493951342592,0.08108220047822005,0.047180439730770254,0.0973658725216614,0.1358177158514673,0.12684869389639525,0.20053679880833153,0.10642196724428059,0.17086178979697572,-0.13086650951808312,0.09471609167655523
95,0.07003493951342592,0.08108220047822005,0.047180439730770254,0.0973658725216614,0.1358177158514673,0.12684869389639525,0.20053679880833153,0.10642196724428059,0.17086178979697572,-0.13086650951808312,0.09471609167655523
96,0.07003493951342592,0.08108220047822005,0.047180439730770254,0.0973658725216614,0.1358177158514673,0.12684869389639525,0.20053679880833153,0.10642196724428059,0.17086178979697572,-0.13086650951808312,0.09471609167655523
97,0.07003493951342592,0.08108220047822005,0.047180439730770254,0.0973658725216614,0.1358177158514673,0.12684869389639525,0.20053679880833153,0.10642196724428059,0.17086178979697572,-0.13086650951808312,0.09471609167655523
98,0.07003493951342592,0.08108220047822005,0.047180439730770254,0.0973658725216614,0.1358177158514673,0.12684869389639525,0.20053679880833153,0.10642196724428059,0.17086178979697572,-0.13086650951808312,0.09471609167655523
99,0.07003493951342592,0.08108220047822005,0.047180439730770254,0.0973658725216614,0.1358177158514673,0.12684869389639525,0.20053679880833153,0.10642196724428059,0.17086178979697572,-0.13086650951808312,0.09471609167655523
100,0.07003493951342592,0.08108220047822005,0.047180439730770254,0.0973658725216614,0.1358177158514673,0.12684869389639525,0.20053679880833153,0.10642196724428059,0.17086178979697572,-0.13086650951808312,0.09471609167655523
101,0.07003493951342592,0.08108220047822005,0.047180439730770254,0.0973658725216614,0.1358177158514673,0.12684869389639525,0.20053679880833153,0.10642196724428059,0.17086178979697572,-0.13086650951808312,0.09471609167655523
102,0.07003493951342592,0.08108220047822005,0.047180439730770254,0.0973658725216614,0.1358177158514673,0.12684869389639525,0.20053679880833153,0.10642196724428059,0.17086178979697572,-0.13086650951808312,0.09471609167655523
103,0.07003493951342592,0.08108220047822005,0.047180439730770254,0.0973658725216614,0.1358177158514673,0.12684869389639525,0.20053679880833153,0.10642196724428059,0.17086178979697572,-0.13086650951808312,0.09471609167655523
104,0.07003493951342592,0.08108220047822005,0.047180439730770254,0.0973658725216614,0.1358177158514673,0.12684869389639525,0.20053679880833153,0.10642196724428059,0.17086178979697572,-0.13086650951808312,0.09471609167655523
105,0.07003493951342592,0.08108220047822005,0.047180439730770254,0.0973658725216614,0.1358177158514673,0.12684869389639525,0.20053679880833153,0.10642196724428059,0.17086178979697572,-0.13086650951808312,0.09471609167655523
106,0.07003493951342592,0.08108220047822005,0.047180439730770254,0.0973658725216614,0.1358177158514673,0.12684869389639525,0.20053679880833153,0.10642196724428059,0.17086178979697572,-0.13086650951808312,0.09471609167655523
107,0.07003493951342592,0.08108220047822005,0.047180439730770254,0.0973658725216614,0.1358177158514673,0.12684869389639525,0.20053679880833153,0.10642196724428059,0.17086178979697572,-0.13086650951808312,0.09471609167655523
108,0.07003493951342592,0.08108220047822005,0.047180439730770254,0.0973658725216614,0.1358177158514673,0.12684869389639525,0.20053679880833153,0.10642196724428059,0.17086178979697572,-0.13086650951808312,0.09471609167655523
109,0.07003493951342592,0.08108220047822005,0.047180439730770254,0.0973658725216614,0.1358177158514673,0.12684869389639525,0.20053679880833153,0.10642196724428059,0.17086178979697572,-0.13086650951808312,0.09471609167655523
110,0.07003493951342592,0.08108220047822005,0.047180439730770254,0.0973658725216614,0.1358177158514673,0.12684869389639525,0.20053679880833153,0.10642196724428059,0.17086178979697572,-0.13086650951808312,0.09471609167655523
111,0.07003493951342592,0.08108220047822005,0.047180439730770254,0.0973658725216614,0.1358177158514673,0.12684869389639525,0.20053679880833153,0.10642196724428059,0.17086178979697572,-0.13086650951808312,0.09471609167655523
112,0.07003493951342592,0.08108220047822005,0.047180439730770254,0.0973658725216614,0.1358177158514673,0.12684869389639525,0.20053679880833153,0.10642196724428059,0.17086178979697572,-0.13086650951808312,0.09471609167655523
113,0.07003493951342592,0.08108220047822005,0.047180439730770254,0.0973658725216614,0.1358177158514673,0.12684869389639525,0.20053679880833153,0.10642196724428059,0.17086178979697572,-0.13086650951808312,0.09471609167655523
114,0.07003493951342592,0.08108220047822005,0.047180439730770254,0.0973658725216614,0.1358177158514673,0.12684869389639525,0.20053679880833153,0.10642196724428059,0.17086178979697572,-0.13086650951808312,0.09471609167655523
115,0.07003493951342592,0.08108220047822005,0.047180439730770254,0.0973658725216614,0.1358177158514673,0.12684869389639525,0.20053679880833153,0.10642196724428059,0.17086178979697572,-0.13086650951808312,0.09471609167655523
116,0.07003493951342592,0.08108220047822005,0.047180439730770254,0.0973658725216614,0.1358177158514673,0.12684869389639525,0.20053679880833153,0.10642196724428059,0.17086178979697572,-0.13086650951808312,0.09471609167655523
117,0.07003493951342592,0.08108220047822005,0.047180439730770254,0.0973658725216614,0.1358177158514673,0.12684869389639525,0.20053679880833153,0.10642196724428059,0.17086178979697572,-0.13086650951808312,0.09471609167655523
118,0.07003493951342592,0.08108220047822005,0.047180439730770254,0.0973658725216614,0.1358177158514673,0.12684869389639525,0.20053679880833153,0.10642196724428059,0.17086178979697572,-0.13086650951808312,0.09471609167655523
119,0.07003493951342592,0.08108220047822005,0.047180439730770254,0.0973658725216614,0.1358177158514673,0.12684869389639525,0.20053679880833153,0.10642196724428059,0.17086178979697572,-0.13086650951808312,0.09471609167655523
120,0.11212325184998168,0.20149413034254707,0.07990016324292282,0.04212654828622954,0.06806767793499942,0.14070394203515096,0.05385078375855098,0.09940589694456545,0.059895757562086316,0.06924044808219725,0.0731913999607687
121,0.11212325184998168,0.20149413034254707,0.07990016324292282,0.04212654828622954,0.06806767793499942,0.14070394203515096,0.05385078375855098,0.09940589694456545,0.059895757562086316,0.06924044808219725,0.0731913999607687
122,0.11212325184998168,0.20149413034254707,0.07990016324292282,0.04212654828622954,0.06806767793499942,0.14070394203515096,0.05385078375855098,0.09940589694456545,0.059895757562086316,0.06924044808219725,0.0731913999607687
123,0.11212325184998168,0.20149413034254707,0.07990016324292282,0.04212654828622954,0.06806767793499942,0.14070394203515096,0.05385078375855098,0.09940589694456545,0.059895757562086316,0.06924044808219725,0.0731913999607687
124,0.11212325184998168,0.20149413034254707,0.07990016324292282,0.04212654828622954,0.06806767793499942,0.14070394203515096,0.05385078375855098,0.09940589694456545,0.059895757562086316,0.06924044808219725,0.0731913999607687
125,0.11212325184998168,0.20149413034254707,0.07990016324292282,0.04212654828622954,0.06806767793499942,0.14070394203515096,0.05385078375855098,0.09940589694456545,0.059895757562086316,0.06924044808219725,0.0731913999607687
126,0.11212325184998168,0.20149413034254707,0.07990016324292282,0.04212654828622954,0.06806767793499942,0.14070394203515096,0.05385078375855098,0.09940589694456545,0.059895757562086316,0.06924044808219725,0.0731913999607687
127,0.11212325184998168,0.20149413034254707,0.07990016324292282,0.04212654828622954,0.06806767793499942,0.14070394203515096,0.05385078375855098,0.09940589694456545,0.059895757562086316,0.06924044808219725,0.0731913999607687
128,0.11212325184998168,0.20149413034254707,0.07990016324292282,0.04212654828622954,0.06806767793499942,0.14070394203515096,0.05385078375855098,0.09940589694456545,0.059895757562086316,0.06924044808219725,0.0731913999607687
129,0.11212325184998168,0.20149413034254707,0.07990016324292282,0.04212654828622954,0.06806767793499942,0.14070394203515096,0.05385078375855098,0.09940589694456545,0.059895757562086316,0.06924044808219725,0.0731913999607687
130,0.11212325184998168,0.20149413034254707,0.07990016324292282,0.04212654828622954,0.06806767793499942,0.14070394203515096,0.05385078375855098,0.09940589694456545,0.059895757562086316,0.06924044808219725,0.0731913999607687
131,0.11212325184998168,0.20149413034254707,0.07990016324292282,0.04212654828622954,0.06806767793499942,0.14070394203515096,0.05385078375855098,0.09940589694456545,0.059895757562086316,0.06924044808219725,0.0731913999607687
132,0.11212325184998168,0.20149413034254707,0.07990016324292282,0.04212654828622954,0.06806767793499942,0.14070394203515096,0.05385078375855098,0.09940589694456545,0.059895757562086316,0.06924044808219725,0.0731913999607687
133,0.11212325184998168,0.20149413034254707,0.07990016324292282,0.04212654828622954,0.06806767793499942,0.14070394203515096,0.05385078375855098,0.09940589694456545,0.059895757562086316,0.06924044808219725,0.0731913999607687
134,0.11212325184998168,0.20149413034254707,0.07990016324292282,0.04212654828622954,0.06806767793499942,0.14070394203515096,0.05385078375855098,0.09940589694456545,0.059895757562086316,0.06924044808219725,0.0731913999607687
135,0.11212325184998168,0.20149413034254707,0.07990016324292282,0.04212654828622954,0.06806767793499942,0.14070394203515096,0.05385078375855098,0.09940589694456545,0.059895757562086316,0.06924044808219725,0.0731913999607687
136,0.11212325184998168,0.20149413034254707,0.07990016324292282,0.04212654828622954,0.06806767793499942,0.14070394203515096,0.05385078375855098,0.09940589694456545,0.059895757562086316,0.06924044808219725,0.0731913999607687
137,0.11212325184998168,0.20149413034254707,0.07990016324292282,0.04212654828622954,0.06806767793499942,0.14070394203515096,0.05385078375855098,0.09940589694456545,0.059895757562086316,0.06924044808219725,0.0731913999607687
138,0.11212325184998168,0.20149413034254707,0.07990016324292282,0.04212654828622954,0.06806767793499942,0.14070394203515096,0.05385078375855098,0.09940589694456545,0.059895757562086316,0.06924044808219725,0.0731913999607687
139,0.11212325184998168,0.20149413034254707,0.07990016324292282,0.04212654828622954,0.06806767793499942,0.14070394203515096,0.05385078375855098,0.09940589694456545,0.059895757562086316,0.06924044808219725,0.0731913999607687
140,0.11212325184998168,0.20149413034254707,0.07990016324292282,0.04212654828622954,0.06806767793499942,0.14070394203515096,0.05385078375855098,0.09940589694456545,0.059895757562086316,0.06924044808219725,0.0731913999607687
141,0.11212325184998168,0.20149413034254707,0.07990016324292282,0.04212654828622954,0.06806767793499942,0.14070394203515096,0.05385078375855098,0.09940589694456545,0.059895757562086316,0.06924044808219725,0.0731913999607687
142,0.11212325184998168,0.20149413034254707,0.07990016324292282,0.04212654828622954,0.06806767793499942,0.14070394203515096,0.05385078375855098,0.09940589694456545,0.059895757562086316,0.06924044808219725,0.0731913999607687
143,0.11212325184998168,0.20149413034254707,0.07990016324292282,0.04212654828622954,0.06806767793499942,0.14070394203515096,0.05385078375855098,0.09940589694456545,0.059895757562086316,0.06924044808219725,0.0731913999607687
144,0.11212325184998168,0.20149413034254707,0.07990016324292282,0.04212654828622954,0.06806767793499942,0.14070394203515096,0.05385078375855098,0.09940589694456545,0.059895757562086316,0.06924044808219725,0.0731913999607687
145,0.11212325184998168,0.20149413034254707,0.07990016324292282,0.04212654828622954,0.06806767793499942,0.14070394203515096,0.05385078375855098,0.09940589694456545,0.059895757562086316,0.06924044808219725,0.0731913999607687
146,0.11212325184998168,0.20149413034254707,0.07990016324292282,0.04212654828622954,0.06806767793499942,0.14070394203515096,0.05385078375855098,0.09940589694456545,0.059895757562086316,0.06924044808219725,0.0731913999607687
147,0.11212325184998168,0.20149413034254707,0.07990016324292282,0.04212654828622954,0.06806767793499942,0.14070394203515096,0.05385078375855098,0.09940589694456545,0.059895757562086316,0.06924044808219725,0.0731913999607687
148,0.11212325184998168,0.20149413034254707,0.07990016324292282,0.04212654828622954,0.06806767793499942,0.14070394203515096,0.05385078375855098,0.09940589694456545,0.059895757562086316,0.06924044808219725,0.0731913999607687
149,0.11212325184998168,0.20149413034254707,0.07990016324292282,0.04212654828622954,0.06806767793499942,0.14070394203515096,0.05385078375855098,0.09940589694456545,0.059895757562086316,0.06924044808219725,0.0731913999607687
150,0.11212325184998168,0.20149413034254707,0.07990016324292282,0.04212654828622954,0.06806767793499942,0.14070394203515096,0.05385078375855098,0.09940589694456545,0.059895757562086316,0.06924044808219725,0.0731913999607687
151,0.1250330876220324,0.07140301690449292,0.18918761966566078,0.034728927264401556,-0.08239922520334918,-0.09741735584883468,-0.12018341894781616,0.046733188218367874,0.22879282932934814,0.4428115420082857,0.16130978898741044
152,0.1250330876220324,0.07140301690449292,0.18918761966566078,0.034728927264401556,-0.08239922520334918,-0.09741735584883468,-0.12018341894781616,0.046733188218367874,0.22879282932934814,0.4428115420082857,0.16130978898741044
153,0.1250330876220324,0.07140301690449292,0.18918761966566078,0.034728927264401556,-0.08239922520334918,-0.09741735584883468,-0.12018341894781616,0.046733188218367874,0.22879282932934814,0.4428115420082857,0.16130978898741044
154,0.1250330876220324,0.07140301690449292,0.18918761966566078,0.034728927264401556,-0.08239922520334918,-0.09741735584883468,-0.12018341894781616,0.046733188218367874,0.22879282932934814,0.4428115420082857,0.16130978898741044
155,0.1250330876220324,0.07140301690449292,0.18918761966566078,0.034728927264401556,-0.08239922520334918,-0.09741735584883468,-0.12018341894781616,0.046733188218367874,0.22879282932934814,0.4428115420082857,0.16130978898741044
156,0.1250330876220324,0.07140301690449292,0.18918761966566078,0.034728927264401556,-0.08239922520334918,-0.09741735584883468,-0.12018341894781616,0.046733188218367874,0.22879282932934814,0.4428115420082857,0.16130978898741044
157,0.1250330876220324,0.07140301690449292,0.18918761966566078,0.034728927264401556,-0.08239922520334918,-0.09741735584883468,-0.12018341894781616,0.046733188218367874,0.22879282932934814,0.4428115420082857,0.16130978898741044
158,0.1250330876220324,0.07140301690449292,0.18918761966566078,0.034728927264401556,-0.08239922520334918,-0.09741735584883468,-0.12018341894781616,0.046733188218367874,0.22879282932934814,0.4428115420082857,0.16130978898741044
159,0.1250330876220324,0.07140301690449292,0.18918761966566078,0.034728927264401556,-0.08239922520334918,-0.09741735584883468,-0.12018341894781616,0.046733188218367874,0.22879282932934814,0.4428115420082857,0.16130978898741044
160,0.1250330876220324,0.07140301690449292,0.18918761966566078,0.034728927264401556,-0.08239922520334918,-0.09741735584883468,-0.12018341894781616,0.046733188218367874,0.22879282932934814,0.4428115420082857,0.16130978898741044
161,0.1250330876220324,0.07140301690449292,0.18918761966566078,0.034728927264401556,-0.08239922520334918,-0.09741735584883468,-0.12018341894781616,0.046733188218367874,0.22879282932934814,0.4428115420082857,0.16130978898741044
162,0.1250330876220324,0.07140301690449292,0.18918761966566078,0.034728927264401556,-0.08239922520334918,-0.09741735584883468,-0.12018341894781616,0.046733188218367874,0.22879282932934814,0.4428115420082857,0.16130978898741044
163,0.1250330876220324,0.07140301690449292,0.18918761966566078,0.034728927264401556,-0.08239922520334918,-0.09741735584883468,-0.12018341894781616,0.046733188218367874,0.22879282932934814,0.4428115420082857,0.16130978898741044
164,0.1250330876220324,0.07140301690449292,0.18918761966566078,0.034728927264401556,-0.08239922520334918,-0.09741735584883468,-0.12018341894781616,0.046733188218367874,0.22879282932934814,0.4428115420082857,0.16130978898741044
165,0.1250330876220324,0.07140301690449292,0.18918761966566078,0.034728927264401556,-0.08239922520334918,-0.09741735584883468,-0.12018341894781616,0.046733188218367874,0.22879282932934814,0.4428115420082857,0.16130978898741044
166,0.1250330876220324,0.07140301690449292,0.18918761966566078,0.034728927264401556,-0.08239922520334918,-0.09741735584883468,-0.12018341894781616,0.046733188218367874,0.22879282932934814,0.4428115420082857,0.16130978898741044
167,0.1250330876220324,0.07140301690449292,0.18918761966566078,0.034728927264401556,-0.08239922520334918,-0.09741735584883468,-0.12018341894781616,0.046733188218367874,0.22879282932934814,0.4428115420082857,0.16130978898741044
168,0.1250330876220324,0.07140301690449292,0.18918761966566078,0.034728927264401556,-0.08239922520334918,-0.09741735584883468,-0.12018341894781616,0.046733188218367874,0.22879282932934814,0.4428115420082857,0.16130978898741044
169,0.1250330876220324,0.07140301690449292,0.18918761966566078,0.034728927264401556,-0.08239922520334918,-0.09741735584883468,-0.12018341894781616,0.046733188218367874,0.22879282932934814,0.4428115420082857,0.16130978898741044
170,0.1250330876220324,0.07140301690449292,0.18918761966566078,0.034728927264401556,-0.08239922520334918,-0.09741735584883468,-0.12018341894781616,0.046733188218367874,0.22879282932934814,0.4428115420082857,0.16130978898741044
171,0.1250330876220324,0.07140301690449292,0.18918761966566078,0.034728927264401556,-0.08239922520334918,-0.09741735584883468,-0.12018341894781616,0.046733188218367874,0.22879282932934814,0.4428115420082857,0.16130978898741044
172,0.1250330876220324,0.07140301690449292,0.18918761966566078,0.034728927264401556,-0.08239922520334918,-0.09741735584883468,-0.12018341894781616,0.046733188218367874,0.22879282932934814,0.4428115420082857,0.16130978898741044
173,0.1250330876220324,0.07140301690449292,0.18918761966566078,0.034728927264401556,-0.08239922520334918,-0.09741735584883468,-0.12018341894781616,0.046733188218367874,0.22879282932934814,0.4428115420082857,0.16130978898741044
174,0.1250330876220324,0.07140301690449292,0.18918761966566078,0.034728927264401556,-0.08239922520334918,-0.09741735584883468,-0.12018341894781616,0.046733188218367874,0.22879282932934814,0.4428115420082857,0.16130978898741044
175,0.1250330876220324,0.07140301690449292,0.18918761966566078,0.034728927264401556,-0.08239922520334918,-0.09741735584883468,-0.12018341894781616,0.046733188218367874,0.22879282932934814,0.4428115420082857,0.16130978898741044
176,0.1250330876220324,0.07140301690449292,0.18918761966566078,0.034728927264401556,-0.08239922520334918,-0.09741735584883468,-0.12018341894781616,0.046733188218367874,0.22879282932934814,0.4428115420082857,0.16130978898741044
177,0.1250330876220324,0.07140301690449292,0.18918761966566078,0.034728927264401556,-0.08239922520334918,-0.09741735584883468,-0.12018341894781616,0.046733188218367874,0.22879282932934814,0.4428115420082857,0.16130978898741044
178,0.1250330876220324,0.07140301690449292,0.18918761966566078,0.034728927264401556,-0.08239922520334918,-0.09741735584883468,-0.12018341894781616,0.046733188218367874,0.22879282932934814,0.4428115420082857,0.16130978898741044
179,0.1250330876220324,0.07140301690449292,0.18918761966566078,0.034728927264401556,-0.08239922520334918,-0.09741735584883468,-0.12018341894781616,0.046733188218367874,0.22879282932934814,0.4428115420082857,0.16130978898741044
180,0.1250330876220324,0.07140301690449292,0.18918761966566078,0.034728927264401556,-0.08239922520334918,-0.09741735584883468,-0.12018341894781616,0.046733188218367874,0.22879282932934814,0.4428115420082857,0.16130978898741044
181,0.02370625217757321,0.029265506290906962,0.6201645475055175,0.10975785685290153,0.02773843453190628,0.03423904061264023,0.040118871232801716,0.020723576801507212,0.08522476479129623,-0.3,0.3090611492029491
182,0.02370625217757321,0.029265506290906962,0.6201645475055175,0.10975785685290153,0.02773843453190628,0.03423904061264023,0.040118871232801716,0.020723576801507212,0.08522476479129623,-0.3,0.3090611492029491
183,0.02370625217757321,0.029265506290906962,0.6201645475055175,0.10975785685290153,0.02773843453190628,0.03423904061264023,0.040118871232801716,0.020723576801507212,0.08522476479129623,-0.3,0.3090611492029491
184,0.02370625217757321,0.029265506290906962,0.6201645475055175,0.10975785685290153,0.02773843453190628,0.03423904061264023,0.040118871232801716,0.020723576801507212,0.08522476479129623,-0.3,0.3090611492029491
185,0.02370625217757321,0.029265506290906962,0.6201645475055175,0.10975785685290153,0.02773843453190628,0.03423904061264023,0.040118871232801716,0.020723576801507212,0.08522476479129623,-0.3,0.3090611492029491
186,0.02370625217757321,0.029265506290906962,0.6201645475055175,0.10975785685290153,0.02773843453190628,0.03423904061264023,0.040118871232801716,0.020723576801507212,0.08522476479129623,-0.3,0.3090611492029491
187,0.02370625217757321,0.029265506290906962,0.6201645475055175,0.10975785685290153,0.02773843453190628,0.03423904061264023,0.040118871232801716,0.020723576801507212,0.08522476479129623,-0.3,0.3090611492029491
188,0.02370625217757321,0.029265506290906962,0.6201645475055175,0.10975785685290153,0.02773843453190628,0.03423904061264023,0.040118871232801716,0.020723576801507212,0.08522476479129623,-0.3,0.3090611492029491
189,0.02370625217757321,0.029265506290906962,0.6201645475055175,0.10975785685290153,0.02773843453190628,0.03423904061264023,0.040118871232801716,0.020723576801507212,0.08522476479129623,-0.3,0.3090611492029491
190,0.02370625217757321,0.029265506290906962,0.6201645475055175,0.10975785685290153,0.02773843453190628,0.03423904061264023,0.040118871232801716,0.020723576801507212,0.08522476479129623,-0.3,0.3090611492029491
191,0.02370625217757321,0.029265506290906962,0.6201645475055175,0.10975785685290153,0.02773843453190628,0.03423904061264023,0.040118871232801716,0.020723576801507212,0.08522476479129623,-0.3,0.3090611492029491
192,0.02370625217757321,0.029265506290906962,0.6201645475055175,0.10975785685290153,0.02773843453190628,0.03423904061264023,0.040118871232801716,0.020723576801507212,0.08522476479129623,-0.3,0.3090611492029491
193,0.02370625217757321,0.029265506290906962,0.6201645475055175,0.10975785685290153,0.02773843453190628,0.03423904061264023,0.040118871232801716,0.020723576801507212,0.08522476479129623,-0.3,0.3090611492029491
194,0.02370625217757321,0.029265506290906962,0.6201645475055175,0.10975785685290153,0.02773843453190628,0.03423904061264023,0.040118871232801716,0.020723576801507212,0.08522476479129623,-0.3,0.3090611492029491
195,0.02370625217757321,0.029265506290906962,0.6201645475055175,0.10975785685290153,0.02773843453190628,0.03423904061264023,0.040118871232801716,0.020723576801507212,0.08522476479129623,-0.3,0.3090611492029491
196,0.02370625217757321,0.029265506290906962,0.6201645475055175,0.10975785685290153,0.02773843453190628,0.03423904061264023,0.040118871232801716,0.020723576801507212,0.08522476479129623,-0.3,0.3090611492029491
197,0.02370625217757321,0.029265506290906962,0.6201645475055175,0.10975785685290153,0.02773843453190628,0.03423904061264023,0.040118871232801716,0.020723576801507212,0.08522476479129623,-0.3,0.3090611492029491
198,0.02370625217757321,0.029265506290906962,0.6201645475055175,0.10975785685290153,0.02773843453190628,0.03423904061264023,0.040118871232801716,0.020723576801507212,0.08522476479129623,-0.3,0.3090611492029491
199,0.02370625217757321,0.029265506290906962,0.6201645475055175,0.10975785685290153,0.02773843453190628,0.03423904061264023,0.040118871232801716,0.020723576801507212,0.08522476479129623,-0.3,0.3090611492029491
200,0.02370625217757321,0.029265506290906962,0.6201645475055175,0.10975785685290153,0.02773843453190628,0.03423904061264023,0.040118871232801716,0.020723576801507212,0.08522476479129623,-0.3,0.3090611492029491
201,0.02370625217757321,0.029265506290906962,0.6201645475055175,0.10975785685290153,0.02773843453190628,0.03423904061264023,0.040118871232801716,0.020723576801507212,0.08522476479129623,-0.3,0.3090611492029491
202,0.02370625217757321,0.029265506290906962,0.6201645475055175,0.10975785685290153,0.02773843453190628,0.03423904061264023,0.040118871232801716,0.020723576801507212,0.08522476479129623,-0.3,0.3090611492029491
203,0.02370625217757321,0.029265506290906962,0.6201645475055175,0.10975785685290153,0.02773843453190628,0.03423904061264023,0.040118871232801716,0.020723576801507212,0.08522476479129623,-0.3,0.3090611492029491
204,0.02370625217757321,0.029265506290906962,0.6201645475055175,0.10975785685290153,0.02773843453190628,0.03423904061264023,0.040118871232801716,0.020723576801507212,0.08522476479129623,-0.3,0.3090611492029491
205,0.02370625217757321,0.029265506290906962,0.6201645475055175,0.10975785685290153,0.02773843453190628,0.03423904061264023,0.040118871232801716,0.020723576801507212,0.08522476479129623,-0.3,0.3090611492029491
206,0.02370625217757321,0.029265506290906962,0.6201645475055175,0.10975785685290153,0.02773843453190628,0.03423904061264023,0.040118871232801716,0.020723576801507212,0.08522476479129623,-0.3,0.3090611492029491
207,0.02370625217757321,0.029265506290906962,0.6201645475055175,0.10975785685290153,0.02773843453190628,0.03423904061264023,0.040118871232801716,0.020723576801507212,0.08522476479129623,-0.3,0.3090611492029491
208,0.02370625217757321,0.029265506290906962,0.6201645475055175,0.10975785685290153,0.02773843453190628,0.03423904061264023,0.040118871232801716,0.020723576801507212,0.08522476479129623,-0.3,0.3090611492029491
209,0.02370625217757321,0.029265506290906962,0.6201645475055175,0.10975785685290153,0.02773843453190628,0.03423904061264023,0.040118871232801716,0.020723576801507212,0.08522476479129623,-0.3,0.3090611492029491
210,0.02370625217757321,0.029265506290906962,0.6201645475055175,0.10975785685290153,0.02773843453190628,0.03423904061264023,0.040118871232801716,0.020723576801507212,0.08522476479129623,-0.3,0.3090611492029491
211,0.02370625217757321,0.029265506290906962,0.6201645475055175,0.10975785685290153,0.02773843453190628,0.03423904061264023,0.040118871232801716,0.020723576801507212,0.08522476479129623,-0.3,0.3090611492029491
212,0.04913394173302775,0.047662926367697686,0.23354625797589365,0.0904136393446125,0.06918726196121316,0.04550822361626315,0.058663229624997267,0.030117336929155285,0.15804051253995852,0.10327173728143264,0.11445493262574842
213,0.04913394173302775,0.047662926367697686,0.23354625797589365,0.0904136393446125,0.06918726196121316,0.04550822361626315,0.058663229624997267,0.030117336929155285,0.15804051253995852,0.10327173728143264,0.11445493262574842
214,0.04913394173302775,0.047662926367697686,0.23354625797589365,0.0904136393446125,0.06918726196121316,0.04550822361626315,0.058663229624997267,0.030117336929155285,0.15804051253995852,0.10327173728143264,0.11445493262574842
215,0.04913394173302775,0.047662926367697686,0.23354625797589365,0.0904136393446125,0.06918726196121316,0.04550822361626315,0.058663229624997267,0.030117336929155285,0.15804051253995852,0.10327173728143264,0.11445493262574842
216,0.04913394173302775,0.047662926367697686,0.23354625797589365,0.0904136393446125,0.06918726196121316,0.04550822361626315,0.058663229624997267,0.030117336929155285,0.15804051253995852,0.10327173728143264,0.11445493262574842
217,0.04913394173302775,0.047662926367697686,0.23354625797589365,0.0904136393446125,0.06918726196121316,0.04550822361626315,0.058663229624997267,0.030117336929155285,0.15804051253995852,0.10327173728143264,0.11445493262574842
218,0.04913394173302775,0.047662926367697686,0.23354625797589365,0.0904136393446125,0.06918726196121316,0.04550822361626315,0.058663229624997267,0.030117336929155285,0.15804051253995852,0.10327173728143264,0.11445493262574842
219,0.04913394173302775,0.047662926367697686,0.23354625797589365,0.0904136393446125,0.06918726196121316,0.04550822361626315,0.058663229624997267,0.030117336929155285,0.15804051253995852,0.10327173728143264,0.11445493262574842
220,0.04913394173302775,0.047662926367697686,0.23354625797589365,0.0904136393446125,0.06918726196121316,0.04550822361626315,0.058663229624997267,0.030117336929155285,0.15804051253995852,0.10327173728143264,0.11445493262574842
221,0.04913394173302775,0.047662926367697686,0.23354625797589365,0.0904136393446125,0.06918726196121316,0.04550822361626315,0.058663229624997267,0.030117336929155285,0.15804051253995852,0.10327173728143264,0.11445493262574842
222,0.04913394173302775,0.047662926367697686,0.23354625797589365,0.0904136393446125,0.06918726196121316,0.04550822361626315,0.058663229624997267,0.030117336929155285,0.15804051253995852,0.10327173728143264,0.11445493262574842
223,0.04913394173302775,0.047662926367697686,0.23354625797589365,0.0904136393446125,0.06918726196121316,0.04550822361626315,0.058663229624997267,0.030117336929155285,0.15804051253995852,0.10327173728143264,0.11445493262574842
224,0.04913394173302775,0.047662926367697686,0.23354625797589365,0.0904136393446125,0.06918726196121316,0.04550822361626315,0.058663229624997267,0.030117336929155285,0.15804051253995852,0.10327173728143264,0.11445493262574842
225,0.04913394173302775,0.047662926367697686,0.23354625797589365,0.0904136393446125,0.06918726196121316,0.04550822361626315,0.058663229624997267,0.030117336929155285,0.15804051253995852,0.10327173728143264,0.11445493262574842
226,0.04913394173302775,0.047662926367697686,0.23354625797589365,0.0904136393446125,0.06918726196121316,0.04550822361626315,0.058663229624997267,0.030117336929155285,0.15804051253995852,0.10327173728143264,0.11445493262574842
227,0.04913394173302775,0.047662926367697686,0.23354625797589365,0.0904136393446125,0.06918726196121316,0.04550822361626315,0.058663229624997267,0.030117336929155285,0.15804051253995852,0.10327173728143264,0.11445493262574842
228,0.04913394173302775,0.047662926367697686,0.23354625797589365,0.0904136393446125,0.06918726196121316,0.04550822361626315,0.058663229624997267,0.030117336929155285,0.15804051253995852,0.10327173728143264,0.11445493262574842
229,0.04913394173302775,0.047662926367697686,0.23354625797589365,0.0904136393446125,0.06918726196121316,0.04550822361626315,0.058663229624997267,0.030117336929155285,0.15804051253995852,0.10327173728143264,0.11445493262574842
230,0.04913394173302775,0.047662926367697686,0.23354625797589365,0.0904136393446125,0.06918726196121316,0.04550822361626315,0.058663229624997267,0.030117336929155285,0.15804051253995852,0.10327173728143264,0.11445493262574842
231,0.04913394173302775,0.047662926367697686,0.23354625797589365,0.0904136393446125,0.06918726196121316,0.04550822361626315,0.058663229624997267,0.030117336929155285,0.15804051253995852,0.10327173728143264,0.11445493262574842
232,0.04913394173302775,0.047662926367697686,0.23354625797589365,0.0904136393446125,0.06918726196121316,0.04550822361626315,0.058663229624997267,0.030117336929155285,0.15804051253995852,0.10327173728143264,0.11445493262574842
233,0.04913394173302775,0.047662926367697686,0.23354625797589365,0.0904136393446125,0.06918726196121316,0.04550822361626315,0.058663229624997267,0.030117336929155285,0.15804051253995852,0.10327173728143264,0.11445493262574842
234,0.04913394173302775,0.047662926367697686,0.23354625797589365,0.0904136393446125,0.06918726196121316,0.04550822361626315,0.058663229624997267,0.030117336929155285,0.15804051253995852,0.10327173728143264,0.11445493262574842
235,0.04913394173302775,0.047662926367697686,0.23354625797589365,0.0904136393446125,0.06918726196121316,0.04550822361626315,0.058663229624997267,0.030117336929155285,0.15804051253995852,0.10327173728143264,0.11445493262574842
236,0.04913394173302775,0.047662926367697686,0.23354625797589365,0.0904136393446125,0.06918726196121316,0.04550822361626315,0.058663229624997267,0.030117336929155285,0.15804051253995852,0.10327173728143264,0.11445493262574842
237,0.04913394173302775,0.047662926367697686,0.23354625797589365,0.0904136393446125,0.06918726196121316,0.04550822361626315,0.058663229624997267,0.030117336929155285,0.15804051253995852,0.10327173728143264,0.11445493262574842
238,0.04913394173302775,0.047662926367697686,0.23354625797589365,0.0904136393446125,0.06918726196121316,0.04550822361626315,0.058663229624997267,0.030117336929155285,0.15804051253995852,0.10327173728143264,0.11445493262574842
239,0.04913394173302775,0.047662926367697686,0.23354625797589365,0.0904136393446125,0.06918726196121316,0.04550822361626315,0.058663229624997267,0.030117336929155285,0.15804051253995852,0.10327173728143264,0.11445493262574842
240,0.04913394173302775,0.047662926367697686,0.23354625797589365,0.0904136393446125,0.06918726196121316,0.04550822361626315,0.058663229624997267,0.030117336929155285,0.15804051253995852,0.10327173728143264,0.11445493262574842
241,0.04913394173302775,0.047662926367697686,0.23354625797589365,0.0904136393446125,0.06918726196121316,0.04550822361626315,0.058663229624997267,0.030117336929155285,0.15804051253995852,0.10327173728143264,0.11445493262574842
242,0.04913394173302775,0.047662926367697686,0.23354625797589365,0.0904136393446125,0.06918726196121316,0.04550822361626315,0.058663229624997267,0.030117336929155285,0.15804051253995852,0.10327173728143264,0.11445493262574842
243,0.08338415317157644,0.05270098622906926,0.08440557402288061,0.20962276923545647,0.07726147703917001,0.09056702200544141,0.05490469959212067,0.08979701507411829,0.08860284874252115,0.10750297607677213,0.0612504788108736
244,0.08338415317157644,0.05270098622906926,0.08440557402288061,0.20962276923545647,0.07726147703917001,0.09056702200544141,0.05490469959212067,0.08979701507411829,0.08860284874252115,0.10750297607677213,0.0612504788108736
245,0.08338415317157644,0.05270098622906926,0.08440557402288061,0.20962276923545647,0.07726147703917001,0.09056702200544141,0.05490469959212067,0.08979701507411829,0.08860284874252115,0.10750297607677213,0.0612504788108736
246,0.08338415317157644,0.05270098622906926,0.08440557402288061,0.20962276923545647,0.07726147703917001,0.09056702200544141,0.05490469959212067,0.08979701507411829,0.08860284874252115,0.10750297607677213,0.0612504788108736
247,0.08338415317157644,0.05270098622906926,0.08440557402288061,0.20962276923545647,0.07726147703917001,0.09056702200544141,0.05490469959212067,0.08979701507411829,0.08860284874252115,0.10750297607677213,0.0612504788108736
248,0.08338415317157644,0.05270098622906926,0.08440557402288061,0.20962276923545647,0.07726147703917001,0.09056702200544141,0.05490469959212067,0.08979701507411829,0.08860284874252115,0.10750297607677213,0.0612504788108736
249,0.08338415317157644,0.05270098622906926,0.08440557402288061,0.20962276923545647,0.07726147703917001,0.09056702200544141,0.05490469959212067,0.08979701507411829,0.08860284874252115,0.10750297607677213,0.0612504788108736
250,0.08338415317157644,0.05270098622906926,0.08440557402288061,0.20962276923545647,0.07726147703917001,0.09056702200544141,0.05490469959212067,0.08979701507411829,0.08860284874252115,0.10750297607677213,0.0612504788108736
251,0.08338415317157644,0.05270098622906926,0.08440557402288061,0.20962276923545647,0.07726147703917001,0.09056702200544141,0.05490469959212067,0.08979701507411829,0.08860284874252115,0.10750297607677213,0.0612504788108736
252,0.08338415317157644,0.05270098622906926,0.08440557402288061,0.20962276923545647,0.07726147703917001,0.09056702200544141,0.05490469959212067,0.08979701507411829,0.08860284874252115,0.10750297607677213,0.0612504788108736
253,0.08338415317157644,0.05270098622906926,0.08440557402288061,0.20962276923545647,0.07726147703917001,0.09056702200544141,0.05490469959212067,0.08979701507411829,0.08860284874252115,0.10750297607677213,0.0612504788108736
254,0.08338415317157644,0.05270098622906926,0.08440557402288061,0.20962276923545647,0.07726147703917001,0.09056702200544141,0.05490469959212067,0.08979701507411829,0.08860284874252115,0.10750297607677213,0.0612504788108736
255,0.08338415317157644,0.05270098622906926,0.08440557402288061,0.20962276923545647,0.07726147703917001,0.09056702200544141,0.05490469959212067,0.08979701507411829,0.08860284874252115,0.10750297607677213,0.0612504788108736
256,0.08338415317157644,0.05270098622906926,0.08440557402288061,0.20962276923545647,0.07726147703917001,0.09056702200544141,0.05490469959212067,0.08979701507411829,0.08860284874252115,0.10750297607677213,0.0612504788108736
257,0.08338415317157644,0.05270098622906926,0.08440557402288061,0.20962276923545647,0.07726147703917001,0.09056702200544141,0.05490469959212067,0.08979701507411829,0.08860284874252115,0.10750297607677213,0.0612504788108736
258,0.08338415317157644,0.05270098622906926,0.08440557402288061,0.20962276923545647,0.07726147703917001,0.09056702200544141,0.05490469959212067,0.08979701507411829,0.08860284874252115,0.10750297607677213,0.0612504788108736
259,0.08338415317157644,0.05270098622906926,0.08440557402288061,0.20962276923545647,0.07726147703917001,0.09056702200544141,0.05490469959212067,0.08979701507411829,0.08860284874252115,0.10750297607677213,0.0612504788108736
260,0.08338415317157644,0.05270098622906926,0.08440557402288061,0.20962276923545647,0.07726147703917001,0.09056702200544141,0.05490469959212067,0.08979701507411829,0.08860284874252115,0.10750297607677213,0.0612504788108736
261,0.08338415317157644,0.05270098622906926,0.08440557402288061,0.20962276923545647,0.07726147703917001,0.09056702200544141,0.05490469959212067,0.08979701507411829,0.08860284874252115,0.10750297607677213,0.0612504788108736
262,0.08338415317157644,0.05270098622906926,0.08440557402288061,0.20962276923545647,0.07726147703917001,0.09056702200544141,0.05490469959212067,0.08979701507411829,0.08860284874252115,0.10750297607677213,0.0612504788108736
263,0.08338415317157644,0.05270098622906926,0.08440557402288061,0.20962276923545647,0.07726147703917001,0.09056702200544141,0.05490469959212067,0.08979701507411829,0.08860284874252115,0.10750297607677213,0.0612504788108736
264,0.08338415317157644,0.05270098622906926,0.08440557402288061,0.20962276923545647,0.07726147703917001,0.09056702200544141,0.05490469959212067,0.08979701507411829,0.08860284874252115,0.10750297607677213,0.0612504788108736
265,0.08338415317157644,0.05270098622906926,0.08440557402288061,0.20962276923545647,0.07726147703917001,0.09056702200544141,0.05490469959212067,0.08979701507411829,0.08860284874252115,0.10750297607677213,0.0612504788108736
266,0.08338415317157644,0.05270098622906926,0.08440557402288061,0.20962276923545647,0.07726147703917001,0.09056702200544141,0.05490469959212067,0.08979701507411829,0.08860284874252115,0.10750297607677213,0.0612504788108736
267,0.08338415317157644,0.05270098622906926,0.08440557402288061,0.20962276923545647,0.07726147703917001,0.09056702200544141,0.05490469959212067,0.08979701507411829,0.08860284874252115,0.10750297607677213,0.0612504788108736
268,0.08338415317157644,0.05270098622906926,0.08440557402288061,0.20962276923545647,0.07726147703917001,0.09056702200544141,0.05490469959212067,0.08979701507411829,0.08860284874252115,0.10750297607677213,0.0612504788108736
269,0.08338415317157644,0.05270098622906926,0.08440557402288061,0.20962276923545647,0.07726147703917001,0.09056702200544141,0.05490469959212067,0.08979701507411829,0.08860284874252115,0.10750297607677213,0.0612504788108736
270,0.08338415317157644,0.05270098622906926,0.08440557402288061,0.20962276923545647,0.07726147703917001,0.09056702200544141,0.05490469959212067,0.08979701507411829,0.08860284874252115,0.10750297607677213,0.0612504788108736
271,0.08338415317157644,0.05270098622906926,0.08440557402288061,0.20962276923545647,0.07726147703917001,0.09056702200544141,0.05490469959212067,0.08979701507411829,0.08860284874252115,0.10750297607677213,0.0612504788108736
272,0.08338415317157644,0.05270098622906926,0.08440557402288061,0.20962276923545647,0.07726147703917001,0.09056702200544141,0.05490469959212067,0.08979701507411829,0.08860284874252115,0.10750297607677213,0.0612504788108736
273,0.05569141660751762,0.07620592335262766,0.05198463643726685,0.07534076352697565,0.09129100996526131,0.05090347708946027,0.059075234284185416,0.07421993849447514,0.12575895260468392,0.06846307839654593,0.2710655692410002
274,0.05569141660751762,0.07620592335262766,0.05198463643726685,0.07534076352697565,0.09129100996526131,0.05090347708946027,0.059075234284185416,0.07421993849447514,0.12575895260468392,0.06846307839654593,0.2710655692410002
275,0.05569141660751762,0.07620592335262766,0.05198463643726685,0.07534076352697565,0.09129100996526131,0.05090347708946027,0.059075234284185416,0.07421993849447514,0.12575895260468392,0.06846307839654593,0.2710655692410002
276,0.05569141660751762,0.07620592335262766,0.05198463643726685,0.07534076352697565,0.09129100996526131,0.05090347708946027,0.059075234284185416,0.07421993849447514,0.12575895260468392,0.06846307839654593,0.2710655692410002
277,0.05569141660751762,0.07620592335262766,0.05198463643726685,0.07534076352697565,0.09129100996526131,0.05090347708946027,0.059075234284185416,0.07421993849447514,0.12575895260468392,0.06846307839654593,0.2710655692410002
278,0.05569141660751762,0.07620592335262766,0.05198463643726685,0.07534076352697565,0.09129100996526131,0.05090347708946027,0.059075234284185416,0.07421993849447514,0.12575895260468392,0.06846307839654593,0.2710655692410002
279,0.05569141660751762,0.07620592335262766,0.05198463643726685,0.07534076352697565,0.09129100996526131,0.05090347708946027,0.059075234284185416,0.07421993849447514,0.12575895260468392,0.06846307839654593,0.2710655692410002
280,0.05569141660751762,0.07620592335262766,0.05198463643726685,0.07534076352697565,0.09129100996526131,0.05090347708946027,0.059075234284185416,0.07421993849447514,0.12575895260468392,0.06846307839654593,0.2710655692410002
281,0.05569141660751762,0.07620592335262766,0.05198463643726685,0.07534076352697565,0.09129100996526131,0.05090347708946027,0.059075234284185416,0.07421993849447514,0.12575895260468392,0.06846307839654593,0.2710655692410002
282,0.05569141660751762,0.07620592335262766,0.05198463643726685,0.07534076352697565,0.09129100996526131,0.05090347708946027,0.059075234284185416,0.07421993849447514,0.12575895260468392,0.06846307839654593,0.2710655692410002
283,0.05569141660751762,0.07620592335262766,0.05198463643726685,0.07534076352697565,0.09129100996526131,0.05090347708946027,0.059075234284185416,0.07421993849447514,0.12575895260468392,0.06846307839654593,0.2710655692410002
284,0.05569141660751762,0.07620592335262766,0.05198463643726685,0.07534076352697565,0.09129100996526131,0.05090347708946027,0.059075234284185416,0.07421993849447514,0.12575895260468392,0.06846307839654593,0.2710655692410002
285,0.05569141660751762,0.07620592335262766,0.05198463643726685,0.07534076352697565,0.09129100996526131,0.05090347708946027,0.059075234284185416,0.07421993849447514,0.12575895260468392,0.06846307839654593,0.2710655692410002
286,0.05569141660751762,0.07620592335262766,0.05198463643726685,0.07534076352697565,0.09129100996526131,0.05090347708946027,0.059075234284185416,0.07421993849447514,0.12575895260468392,0.06846307839654593,0.2710655692410002
287,0.05569141660751762,0.07620592335262766,0.05198463643726685,0.07534076352697565,0.09129100996526131,0.05090347708946027,0.059075234284185416,0.07421993849447514,0.12575895260468392,0.06846307839654593,0.2710655692410002
288,0.05569141660751762,0.07620592335262766,0.05198463643726685,0.07534076352697565,0.09129100996526131,0.05090347708946027,0.059075234284185416,0.07421993849447514,0.12575895260468392,0.06846307839654593,0.2710655692410002
289,0.05569141660751762,0.07620592335262766,0.05198463643726685,0.07534076352697565,0.09129100996526131,0.05090347708946027,0.059075234284185416,0.07421993849447514,0.12575895260468392,0.06846307839654593,0.2710655692410002
290,0.05569141660751762,0.07620592335262766,0.05198463643726685,0.07534076352697565,0.09129100996526131,0.05090347708946027,0.059075234284185416,0.07421993849447514,0.12575895260468392,0.06846307839654593,0.2710655692410002
291,0.05569141660751762,0.07620592335262766,0.05198463643726685,0.07534076352697565,0.09129100996526131,0.05090347708946027,0.059075234284185416,0.07421993849447514,0.12575895260468392,0.06846307839654593,0.2710655692410002
292,0.05569141660751762,0.07620592335262766,0.05198463643726685,0.07534076352697565,0.09129100996526131,0.05090347708946027,0.059075234284185416,0.07421993849447514,0.12575895260468392,0.06846307839654593,0.2710655692410002
293,0.05569141660751762,0.07620592335262766,0.05198463643726685,0.07534076352697565,0.09129100996526131,0.05090347708946027,0.059075234284185416,0.07421993849447514,0.12575895260468392,0.06846307839654593,0.2710655692410002
294,0.05569141660751762,0.07620592335262766,0.05198463643726685,0.07534076352697565,0.09129100996526131,0.05090347708946027,0.059075234284185416,0.07421993849447514,0.12575895260468392,0.06846307839654593,0.2710655692410002
295,0.05569141660751762,0.07620592335262766,0.05198463643726685,0.07534076352697565,0.09129100996526131,0.05090347708946027,0.059075234284185416,0.07421993849447514,0.12575895260468392,0.06846307839654593,0.2710655692410002
296,0.05569141660751762,0.07620592335262766,0.05198463643726685,0.07534076352697565,0.09129100996526131,0.05090347708946027,0.059075234284185416,0.07421993849447514,0.12575895260468392,0.06846307839654593,0.2710655692410002
297,0.05569141660751762,0.07620592335262766,0.05198463643726685,0.07534076352697565,0.09129100996526131,0.05090347708946027,0.059075234284185416,0.07421993849447514,0.12575895260468392,0.06846307839654593,0.2710655692410002
298,0.05569141660751762,0.07620592335262766,0.05198463643726685,0.07534076352697565,0.09129100996526131,0.05090347708946027,0.059075234284185416,0.07421993849447514,0.12575895260468392,0.06846307839654593,0.2710655692410002
299,0.05569141660751762,0.07620592335262766,0.05198463643726685,0.07534076352697565,0.09129100996526131,0.05090347708946027,0.059075234284185416,0.07421993849447514,0.12575895260468392,0.06846307839654593,0.2710655692410002
300,0.05569141660751762,0.07620592335262766,0.05198463643726685,0.07534076352697565,0.09129100996526131,0.05090347708946027,0.059075234284185416,0.07421993849447514,0.12575895260468392,0.06846307839654593,0.2710655692410002
301,0.05569141660751762,0.07620592335262766,0.05198463643726685,0.07534076352697565,0.09129100996526131,0.05090347708946027,0.059075234284185416,0.07421993849447514,0.12575895260468392,0.06846307839654593,0.2710655692410002
302,0.05569141660751762,0.07620592335262766,0.05198463643726685,0.07534076352697565,0.09129100996526131,0.05090347708946027,0.059075234284185416,0.07421993849447514,0.12575895260468392,0.06846307839654593,0.2710655692410002
303,0.05569141660751762,0.07620592335262766,0.05198463643726685,0.07534076352697565,0.09129100996526131,0.05090347708946027,0.059075234284185416,0.07421993849447514,0.12575895260468392,0.06846307839654593,0.2710655692410002
304,0.05047637736008694,0.06374244549393077,0.059661456475968384,0.08683845904975149,0.35559938507826677,0.05983954681040679,0.020717442340978717,0.1454196810458456,0.03588004906571867,0.03740393889643643,0.0844212183826095
305,0.05047637736008694,0.06374244549393077,0.059661456475968384,0.08683845904975149,0.35559938507826677,0.05983954681040679,0.020717442340978717,0.1454196810458456,0.03588004906571867,0.03740393889643643,0.0844212183826095
306,0.05047637736008694,0.06374244549393077,0.059661456475968384,0.08683845904975149,0.35559938507826677,0.05983954681040679,0.020717442340978717,0.1454196810458456,0.03588004906571867,0.03740393889643643,0.0844212183826095
307,0.05047637736008694,0.06374244549393077,0.059661456475968384,0.08683845904975149,0.35559938507826677,0.05983954681040679,0.020717442340978717,0.1454196810458456,0.03588004906571867,0.03740393889643643,0.0844212183826095
308,0.05047637736008694,0.06374244549393077,0.059661456475968384,0.08683845904975149,0.35559938507826677,0.05983954681040679,0.020717442340978717,0.1454196810458456,0.03588004906571867,0.03740393889643643,0.0844212183826095
309,0.05047637736008694,0.06374244549393077,0.059661456475968384,0.08683845904975149,0.35559938507826677,0.05983954681040679,0.020717442340978717,0.1454196810458456,0.03588004906571867,0.03740393889643643,0.0844212183826095
310,0.05047637736008694,0.06374244549393077,0.059661456475968384,0.08683845904975149,0.35559938507826677,0.05983954681040679,0.020717442340978717,0.1454196810458456,0.03588004906571867,0.03740393889643643,0.0844212183826095
311,0.05047637736008694,0.06374244549393077,0.059661456475968384,0.08683845904975149,0.35559938507826677,0.05983954681040679,0.020717442340978717,0.1454196810458456,0.03588004906571867,0.03740393889643643,0.0844212183826095
312,0.05047637736008694,0.06374244549393077,0.059661456475968384,0.08683845904975149,0.35559938507826677,0.05983954681040679,0.020717442340978717,0.1454196810458456,0.03588004906571867,0.03740393889643643,0.0844212183826095
313,0.05047637736008694,0.06374244549393077,0.059661456475968384,0.08683845904975149,0.35559938507826677,0.05983954681040679,0.020717442340978717,0.1454196810458456,0.03588004906571867,0.03740393889643643,0.0844212183826095
314,0.05047637736008694,0.06374244549393077,0.059661456475968384,0.08683845904975149,0.35559938507826677,0.05983954681040679,0.020717442340978717,0.1454196810458456,0.03588004906571867,0.03740393889643643,0.0844212183826095
315,0.05047637736008694,0.06374244549393077,0.059661456475968384,0.08683845904975149,0.35559938507826677,0.05983954681040679,0.020717442340978717,0.1454196810458456,0.03588004906571867,0.03740393889643643,0.0844212183826095
316,0.05047637736008694,0.06374244549393077,0.059661456475968384,0.08683845904975149,0.35559938507826677,0.05983954681040679,0.020717442340978717,0.1454196810458456,0.03588004906571867,0.03740393889643643,0.0844212183826095
317,0.05047637736008694,0.06374244549393077,0.059661456475968384,0.08683845904975149,0.35559938507826677,0.05983954681040679,0.020717442340978717,0.1454196810458456,0.03588004906571867,0.03740393889643643,0.0844212183826095
318,0.05047637736008694,0.06374244549393077,0.059661456475968384,0.08683845904975149,0.35559938507826677,0.05983954681040679,0.020717442340978717,0.1454196810458456,0.03588004906571867,0.03740393889643643,0.0844212183826095
319,0.05047637736008694,0.06374244549393077,0.059661456475968384,0.08683845904975149,0.35559938507826677,0.05983954681040679,0.020717442340978717,0.1454196810458456,0.03588004906571867,0.03740393889643643,0.0844212183826095
320,0.05047637736008694,0.06374244549393077,0.059661456475968384,0.08683845904975149,0.35559938507826677,0.05983954681040679,0.020717442340978717,0.1454196810458456,0.03588004906571867,0.03740393889643643,0.0844212183826095
321,0.05047637736008694,0.06374244549393077,0.059661456475968384,0.08683845904975149,0.35559938507826677,0.05983954681040679,0.020717442340978717,0.1454196810458456,0.03588004906571867,0.03740393889643643,0.0844212183826095
322,0.05047637736008694,0.06374244549393077,0.059661456475968384,0.08683845904975149,0.35559938507826677,0.05983954681040679,0.020717442340978717,0.1454196810458456,0.03588004906571867,0.03740393889643643,0.0844212183826095
323,0.05047637736008694,0.06374244549393077,0.059661456475968384,0.08683845904975149,0.35559938507826677,0.05983954681040679,0.020717442340978717,0.1454196810458456,0.03588004906571867,0.03740393889643643,0.0844212183826095
324,0.05047637736008694,0.06374244549393077,0.059661456475968384,0.08683845904975149,0.35559938507826677,0.05983954681040679,0.020717442340978717,0.1454196810458456,0.03588004906571867,0.03740393889643643,0.0844212183826095
325,0.05047637736008694,0.06374244549393077,0.059661456475968384,0.08683845904975149,0.35559938507826677,0.05983954681040679,0.020717442340978717,0.1454196810458456,0.03588004906571867,0.03740393889643643,0.0844212183826095
326,0.05047637736008694,0.06374244549393077,0.059661456475968384,0.08683845904975149,0.35559938507826677,0.05983954681040679,0.020717442340978717,0.1454196810458456,0.03588004906571867,0.03740393889643643,0.0844212183826095
327,0.05047637736008694,0.06374244549393077,0.059661456475968384,0.08683845904975149,0.35559938507826677,0.05983954681040679,0.020717442340978717,0.1454196810458456,0.03588004906571867,0.03740393889643643,0.0844212183826095
328,0.05047637736008694,0.06374244549393077,0.059661456475968384,0.08683845904975149,0.35559938507826677,0.05983954681040679,0.020717442340978717,0.1454196810458456,0.03588004906571867,0.03740393889643643,0.0844212183826095
329,0.05047637736008694,0.06374244549393077,0.059661456475968384,0.08683845904975149,0.35559938507826677,0.05983954681040679,0.020717442340978717,0.1454196810458456,0.03588004906571867,0.03740393889643643,0.0844212183826095
330,0.05047637736008694,0.06374244549393077,0.059661456475968384,0.08683845904975149,0.35559938507826677,0.05983954681040679,0.020717442340978717,0.1454196810458456,0.03588004906571867,0.03740393889643643,0.0844212183826095
331,0.05047637736008694,0.06374244549393077,0.059661456475968384,0.08683845904975149,0.35559938507826677,0.05983954681040679,0.020717442340978717,0.1454196810458456,0.03588004906571867,0.03740393889643643,0.0844212183826095
332,0.05047637736008694,0.06374244549393077,0.059661456475968384,0.08683845904975149,0.35559938507826677,0.05983954681040679,0.020717442340978717,0.1454196810458456,0.03588004906571867,0.03740393889643643,0.0844212183826095
333,0.05047637736008694,0.06374244549393077,0.059661456475968384,0.08683845904975149,0.35559938507826677,0.05983954681040679,0.020717442340978717,0.1454196810458456,0.03588004906571867,0.03740393889643643,0.0844212183826095
334,0.10028899236051081,0.06810425085497332,0.09563952531100915,0.0674373499429725,0.07677085368418052,0.0676568851637851,0.051530497899484905,0.07799312757139903,0.10652418526753472,0.1531397770172558,0.1349145549268942
335,0.10028899236051081,0.06810425085497332,0.09563952531100915,0.0674373499429725,0.07677085368418052,0.0676568851637851,0.051530497899484905,0.07799312757139903,0.10652418526753472,0.1531397770172558,0.1349145549268942
336,0.10028899236051081,0.06810425085497332,0.09563952531100915,0.0674373499429725,0.07677085368418052,0.0676568851637851,0.051530497899484905,0.07799312757139903,0.10652418526753472,0.1531397770172558,0.1349145549268942
337,0.10028899236051081,0.06810425085497332,0.09563952531100915,0.0674373499429725,0.07677085368418052,0.0676568851637851,0.051530497899484905,0.07799312757139903,0.10652418526753472,0.1531397770172558,0.1349145549268942
338,0.10028899236051081,0.06810425085497332,0.09563952531100915,0.0674373499429725,0.07677085368418052,0.0676568851637851,0.051530497899484905,0.07799312757139903,0.10652418526753472,0.1531397770172558,0.1349145549268942
339,0.10028899236051081,0.06810425085497332,0.09563952531100915,0.0674373499429725,0.07677085368418052,0.0676568851637851,0.051530497899484905,0.07799312757139903,0.10652418526753472,0.1531397770172558,0.1349145549268942
340,0.10028899236051081,0.06810425085497332,0.09563952531100915,0.0674373499429725,0.07677085368418052,0.0676568851637851,0.051530497899484905,0.07799312757139903,0.10652418526753472,0.1531397770172558,0.1349145549268942
341,0.10028899236051081,0.06810425085497332,0.09563952531100915,0.0674373499429725,0.07677085368418052,0.0676568851637851,0.051530497899484905,0.07799312757139903,0.10652418526753472,0.1531397770172558,0.1349145549268942
342,0.10028899236051081,0.06810425085497332,0.09563952531100915,0.0674373499429725,0.07677085368418052,0.0676568851637851,0.051530497899484905,0.07799312757139903,0.10652418526753472,0.1531397770172558,0.1349145549268942
343,0.10028899236051081,0.06810425085497332,0.09563952531100915,0.0674373499429725,0.07677085368418052,0.0676568851637851,0.051530497899484905,0.07799312757139903,0.10652418526753472,0.1531397770172558,0.1349145549268942
344,0.10028899236051081,0.06810425085497332,0.09563952531100915,0.0674373499429725,0.07677085368418052,0.0676568851637851,0.051530497899484905,0.07799312757139903,0.10652418526753472,0.1531397770172558,0.1349145549268942
345,0.10028899236051081,0.06810425085497332,0.09563952531100915,0.0674373499429725,0.07677085368418052,0.0676568851637851,0.051530497899484905,0.07799312757139903,0.10652418526753472,0.1531397770172558,0.1349145549268942
346,0.10028899236051081,0.06810425085497332,0.09563952531100915,0.0674373499429725,0.07677085368418052,0.0676568851637851,0.051530497899484905,0.07799312757139903,0.10652418526753472,0.1531397770172558,0.1349145549268942
347,0.10028899236051081,0.06810425085497332,0.09563952531100915,0.0674373499429725,0.07677085368418052,0.0676568851637851,0.051530497899484905,0.07799312757139903,0.10652418526753472,0.1531397770172558,0.1349145549268942
348,0.10028899236051081,0.06810425085497332,0.09563952531100915,0.0674373499429725,0.07677085368418052,0.0676568851637851,0.051530497899484905,0.07799312757139903,0.10652418526753472,0.1531397770172558,0.1349145549268942
349,0.10028899236051081,0.06810425085497332,0.09563952531100915,0.0674373499429725,0.07677085368418052,0.0676568851637851,0.051530497899484905,0.07799312757139903,0.10652418526753472,0.1531397770172558,0.1349145549268942
350,0.10028899236051081,0.06810425085497332,0.09563952531100915,0.0674373499429725,0.07677085368418052,0.0676568851637851,0.051530497899484905,0.07799312757139903,0.10652418526753472,0.1531397770172558,0.1349145549268942
351,0.10028899236051081,0.06810425085497332,0.09563952531100915,0.0674373499429725,0.07677085368418052,0.0676568851637851,0.051530497899484905,0.07799312757139903,0.10652418526753472,0.1531397770172558,0.1349145549268942
352,0.10028899236051081,0.06810425085497332,0.09563952531100915,0.0674373499429725,0.07677085368418052,0.0676568851637851,0.051530497899484905,0.07799312757139903,0.10652418526753472,0.1531397770172558,0.1349145549268942
353,0.10028899236051081,0.06810425085497332,0.09563952531100915,0.0674373499429725,0.07677085368418052,0.0676568851637851,0.051530497899484905,0.07799312757139903,0.10652418526753472,0.1531397770172558,0.1349145549268942
354,0.10028899236051081,0.06810425085497332,0.09563952531100915,0.0674373499429725,0.07677085368418052,0.0676568851637851,0.051530497899484905,0.07799312757139903,0.10652418526753472,0.1531397770172558,0.1349145549268942
355,0.10028899236051081,0.06810425085497332,0.09563952531100915,0.0674373499429725,0.07677085368418052,0.0676568851637851,0.051530497899484905,0.07799312757139903,0.10652418526753472,0.1531397770172558,0.1349145549268942
356,0.10028899236051081,0.06810425085497332,0.09563952531100915,0.0674373499429725,0.07677085368418052,0.0676568851637851,0.051530497899484905,0.07799312757139903,0.10652418526753472,0.1531397770172558,0.1349145549268942
357,0.10028899236051081,0.06810425085497332,0.09563952531100915,0.0674373499429725,0.07677085368418052,0.0676568851637851,0.051530497899484905,0.07799312757139903,0.10652418526753472,0.1531397770172558,0.1349145549268942
358,0.10028899236051081,0.06810425085497332,0.09563952531100915,0.0674373499429725,0.07677085368418052,0.0676568851637851,0.051530497899484905,0.07799312757139903,0.10652418526753472,0.1531397770172558,0.1349145549268942
359,0.10028899236051081,0.06810425085497332,0.09563952531100915,0.0674373499429725,0.07677085368418052,0.0676568851637851,0.051530497899484905,0.07799312757139903,0.10652418526753472,0.1531397770172558,0.1349145549268942
360,0.10028899236051081,0.06810425085497332,0.09563952531100915,0.0674373499429725,0.07677085368418052,0.0676568851637851,0.051530497899484905,0.07799312757139903,0.10652418526753472,0.1531397770172558,0.1349145549268942
361,0.10028899236051081,0.06810425085497332,0.09563952531100915,0.0674373499429725,0.07677085368418052,0.0676568851637851,0.051530497899484905,0.07799312757139903,0.10652418526753472,0.1531397770172558,0.1349145549268942
362,0.10028899236051081,0.06810425085497332,0.09563952531100915,0.0674373499429725,0.07677085368418052,0.0676568851637851,0.051530497899484905,0.07799312757139903,0.10652418526753472,0.1531397770172558,0.1349145549268942
363,0.10028899236051081,0.06810425085497332,0.09563952531100915,0.0674373499429725,0.07677085368418052,0.0676568851637851,0.051530497899484905,0.07799312757139903,0.10652418526753472,0.1531397770172558,0.1349145549268942
364,0.10028899236051081,0.06810425085497332,0.09563952531100915,0.0674373499429725,0.07677085368418052,0.0676568851637851,0.051530497899484905,0.07799312757139903,0.10652418526753472,0.1531397770172558,0.1349145549268942
365,0.06635533084028347,0.05234319844279817,0.10738790648663483,0.10011593363842063,0.1278861386084646,0.03904133946481828,0.1366751067591165,0.046274947428718564,0.10044424277876172,0.13723506072735084,0.08624079482463241
366,0.06635533084028347,0.05234319844279817,0.10738790648663483,0.10011593363842063,0.1278861386084646,0.03904133946481828,0.1366751067591165,0.046274947428718564,0.10044424277876172,0.13723506072735084,0.08624079482463241
367,0.06635533084028347,0.05234319844279817,0.10738790648663483,0.10011593363842063,0.1278861386084646,0.03904133946481828,0.1366751067591165,0.046274947428718564,0.10044424277876172,0.13723506072735084,0.08624079482463241
368,0.06635533084028347,0.05234319844279817,0.10738790648663483,0.10011593363842063,0.1278861386084646,0.03904133946481828,0.1366751067591165,0.046274947428718564,0.10044424277876172,0.13723506072735084,0.08624079482463241
369,0.06635533084028347,0.05234319844279817,0.10738790648663483,0.10011593363842063,0.1278861386084646,0.03904133946481828,0.1366751067591165,0.046274947428718564,0.10044424277876172,0.13723506072735084,0.08624079482463241
370,0.06635533084028347,0.05234319844279817,0.10738790648663483,0.10011593363842063,0.1278861386084646,0.03904133946481828,0.1366751067591165,0.046274947428718564,0.10044424277876172,0.13723506072735084,0.08624079482463241
371,0.06635533084028347,0.05234319844279817,0.10738790648663483,0.10011593363842063,0.1278861386084646,0.03904133946481828,0.1366751067591165,0.046274947428718564,0.10044424277876172,0.13723506072735084,0.08624079482463241
372,0.06635533084028347,0.05234319844279817,0.10738790648663483,0.10011593363842063,0.1278861386084646,0.03904133946481828,0.1366751067591165,0.046274947428718564,0.10044424277876172,0.13723506072735084,0.08624079482463241
373,0.06635533084028347,0.05234319844279817,0.10738790648663483,0.10011593363842063,0.1278861386084646,0.03904133946481828,0.1366751067591165,0.046274947428718564,0.10044424277876172,0.13723506072735084,0.08624079482463241
374,0.06635533084028347,0.05234319844279817,0.10738790648663483,0.10011593363842063,0.1278861386084646,0.03904133946481828,0.1366751067591165,0.046274947428718564,0.10044424277876172,0.13723506072735084,0.08624079482463241
375,0.06635533084028347,0.05234319844279817,0.10738790648663483,0.10011593363842063,0.1278861386084646,0.03904133946481828,0.1366751067591165,0.046274947428718564,0.10044424277876172,0.13723506072735084,0.08624079482463241
376,0.06635533084028347,0.05234319844279817,0.10738790648663483,0.10011593363842063,0.1278861386084646,0.03904133946481828,0.1366751067591165,0.046274947428718564,0.10044424277876172,0.13723506072735084,0.08624079482463241
377,0.06635533084028347,0.05234319844279817,0.10738790648663483,0.10011593363842063,0.1278861386084646,0.03904133946481828,0.1366751067591165,0.046274947428718564,0.10044424277876172,0.13723506072735084,0.08624079482463241
378,0.06635533084028347,0.05234319844279817,0.10738790648663483,0.10011593363842063,0.1278861386084646,0.03904133946481828,0.1366751067591165,0.046274947428718564,0.10044424277876172,0.13723506072735084,0.08624079482463241
379,0.06635533084028347,0.05234319844279817,0.10738790648663483,0.10011593363842063,0.1278861386084646,0.03904133946481828,0.1366751067591165,0.046274947428718564,0.10044424277876172,0.13723506072735084,0.08624079482463241
380,0.06635533084028347,0.05234319844279817,0.10738790648663483,0.10011593363842063,0.1278861386084646,0.03904133946481828,0.1366751067591165,0.046274947428718564,0.10044424277876172,0.13723506072735084,0.08624079482463241
381,0.06635533084028347,0.05234319844279817,0.10738790648663483,0.10011593363842063,0.1278861386084646,0.03904133946481828,0.1366751067591165,0.046274947428718564,0.10044424277876172,0.13723506072735084,0.08624079482463241
382,0.06635533084028347,0.05234319844279817,0.10738790648663483,0.10011593363842063,0.1278861386084646,0.03904133946481828,0.1366751067591165,0.046274947428718564,0.10044424277876172,0.13723506072735084,0.08624079482463241
383,0.06635533084028347,0.05234319844279817,0.10738790648663483,0.10011593363842063,0.1278861386084646,0.03904133946481828,0.1366751067591165,0.046274947428718564,0.10044424277876172,0.13723506072735084,0.08624079482463241
384,0.06635533084028347,0.05234319844279817,0.10738790648663483,0.10011593363842063,0.1278861386084646,0.03904133946481828,0.1366751067591165,0.046274947428718564,0.10044424277876172,0.13723506072735084,0.08624079482463241
385,0.06635533084028347,0.05234319844279817,0.10738790648663483,0.10011593363842063,0.1278861386084646,0.03904133946481828,0.1366751067591165,0.046274947428718564,0.10044424277876172,0.13723506072735084,0.08624079482463241
386,0.06635533084028347,0.05234319844279817,0.10738790648663483,0.10011593363842063,0.1278861386084646,0.03904133946481828,0.1366751067591165,0.046274947428718564,0.10044424277876172,0.13723506072735084,0.08624079482463241
387,0.06635533084028347,0.05234319844279817,0.10738790648663483,0.10011593363842063,0.1278861386084646,0.03904133946481828,0.1366751067591165,0.046274947428718564,0.10044424277876172,0.13723506072735084,0.08624079482463241
388,0.06635533084028347,0.05234319844279817,0.10738790648663483,0.10011593363842063,0.1278861386084646,0.03904133946481828,0.1366751067591165,0.046274947428718564,0.10044424277876172,0.13723506072735084,0.08624079482463241
389,0.06635533084028347,0.05234319844279817,0.10738790648663483,0.10011593363842063,0.1278861386084646,0.03904133946481828,0.1366751067591165,0.046274947428718564,0.10044424277876172,0.13723506072735084,0.08624079482463241
390,0.06635533084028347,0.05234319844279817,0.10738790648663483,0.10011593363842063,0.1278861386084646,0.03904133946481828,0.1366751067591165,0.046274947428718564,0.10044424277876172,0.13723506072735084,0.08624079482463241
391,0.06635533084028347,0.05234319844279817,0.10738790648663483,0.10011593363842063,0.1278861386084646,0.03904133946481828,0.1366751067591165,0.046274947428718564,0.10044424277876172,0.13723506072735084,0.08624079482463241
392,0.06635533084028347,0.05234319844279817,0.10738790648663483,0.10011593363842063,0.1278861386084646,0.03904133946481828,0.1366751067591165,0.046274947428718564,0.10044424277876172,0.13723506072735084,0.08624079482463241
393,0.06635533084028347,0.05234319844279817,0.10738790648663483,0.10011593363842063,0.1278861386084646,0.03904133946481828,0.1366751067591165,0.046274947428718564,0.10044424277876172,0.13723506072735084,0.08624079482463241
394,0.06635533084028347,0.05234319844279817,0.10738790648663483,0.10011593363842063,0.1278861386084646,0.03904133946481828,0.1366751067591165,0.046274947428718564,0.10044424277876172,0.13723506072735084,0.08624079482463241
395,0.06635533084028347,0.05234319844279817,0.10738790648663483,0.10011593363842063,0.1278861386084646,0.03904133946481828,0.1366751067591165,0.046274947428718564,0.10044424277876172,0.13723506072735084,0.08624079482463241
396,0.047746988553669524,0.03139451441118887,0.08191467610375003,0.025520263584230162,0.03182874323411877,0.0415224066360575,0.024926887427679404,0.10194422172150816,0.021853937724400897,0.0460277538411967,0.5453196067621999
397,0.047746988553669524,0.03139451441118887,0.08191467610375003,0.025520263584230162,0.03182874323411877,0.0415224066360575,0.024926887427679404,0.10194422172150816,0.021853937724400897,0.0460277538411967,0.5453196067621999
398,0.047746988553669524,0.03139451441118887,0.08191467610375003,0.025520263584230162,0.03182874323411877,0.0415224066360575,0.024926887427679404,0.10194422172150816,0.021853937724400897,0.0460277538411967,0.5453196067621999
399,0.047746988553669524,0.03139451441118887,0.08191467610375003,0.025520263584230162,0.03182874323411877,0.0415224066360575,0.024926887427679404,0.10194422172150816,0.021853937724400897,0.0460277538411967,0.5453196067621999
400,0.047746988553669524,0.03139451441118887,0.08191467610375003,0.025520263584230162,0.03182874323411877,0.0415224066360575,0.024926887427679404,0.10194422172150816,0.021853937724400897,0.0460277538411967,0.5453196067621999
401,0.047746988553669524,0.03139451441118887,0.08191467610375003,0.025520263584230162,0.03182874323411877,0.0415224066360575,0.024926887427679404,0.10194422172150816,0.021853937724400897,0.0460277538411967,0.5453196067621999
402,0.047746988553669524,0.03139451441118887,0.08191467610375003,0.025520263584230162,0.03182874323411877,0.0415224066360575,0.024926887427679404,0.10194422172150816,0.021853937724400897,0.0460277538411967,0.5453196067621999
403,0.047746988553669524,0.03139451441118887,0.08191467610375003,0.025520263584230162,0.03182874323411877,0.0415224066360575,0.024926887427679404,0.10194422172150816,0.021853937724400897,0.0460277538411967,0.5453196067621999
404,0.047746988553669524,0.03139451441118887,0.08191467610375003,0.025520263584230162,0.03182874323411877,0.0415224066360575,0.024926887427679404,0.10194422172150816,0.021853937724400897,0.0460277538411967,0.5453196067621999
405,0.047746988553669524,0.03139451441118887,0.08191467610375003,0.025520263584230162,0.03182874323411877,0.0415224066360575,0.024926887427679404,0.10194422172150816,0.021853937724400897,0.0460277538411967,0.5453196067621999
406,0.047746988553669524,0.03139451441118887,0.08191467610375003,0.025520263584230162,0.03182874323411877,0.0415224066360575,0.024926887427679404,0.10194422172150816,0.021853937724400897,0.0460277538411967,0.5453196067621999
407,0.047746988553669524,0.03139451441118887,0.08191467610375003,0.025520263584230162,0.03182874323411877,0.0415224066360575,0.024926887427679404,0.10194422172150816,0.021853937724400897,0.0460277538411967,0.5453196067621999
408,0.047746988553669524,0.03139451441118887,0.08191467610375003,0.025520263584230162,0.03182874323411877,0.0415224066360575,0.024926887427679404,0.10194422172150816,0.021853937724400897,0.0460277538411967,0.5453196067621999
409,0.047746988553669524,0.03139451441118887,0.08191467610375003,0.025520263584230162,0.03182874323411877,0.0415224066360575,0.024926887427679404,0.10194422172150816,0.021853937724400897,0.0460277538411967,0.5453196067621999
410,0.047746988553669524,0.03139451441118887,0.08191467610375003,0.025520263584230162,0.03182874323411877,0.0415224066360575,0.024926887427679404,0.10194422172150816,0.021853937724400897,0.0460277538411967,0.5453196067621999
411,0.047746988553669524,0.03139451441118887,0.08191467610375003,0.025520263584230162,0.03182874323411877,0.0415224066360575,0.024926887427679404,0.10194422172150816,0.021853937724400897,0.0460277538411967,0.5453196067621999
412,0.047746988553669524,0.03139451441118887,0.08191467610375003,0.025520263584230162,0.03182874323411877,0.0415224066360575,0.024926887427679404,0.10194422172150816,0.021853937724400897,0.0460277538411967,0.5453196067621999
413,0.047746988553669524,0.03139451441118887,0.08191467610375003,0.025520263584230162,0.03182874323411877,0.0415224066360575,0.024926887427679404,0.10194422172150816,0.021853937724400897,0.0460277538411967,0.5453196067621999
414,0.047746988553669524,0.03139451441118887,0.08191467610375003,0.025520263584230162,0.03182874323411877,0.0415224066360575,0.024926887427679404,0.10194422172150816,0.021853937724400897,0.0460277538411967,0.5453196067621999
415,0.047746988553669524,0.03139451441118887,0.08191467610375003,0.025520263584230162,0.03182874323411877,0.0415224066360575,0.024926887427679404,0.10194422172150816,0.021853937724400897,0.0460277538411967,0.5453196067621999
416,0.047746988553669524,0.03139451441118887,0.08191467610375003,0.025520263584230162,0.03182874323411877,0.0415224066360575,0.024926887427679404,0.10194422172150816,0.021853937724400897,0.0460277538411967,0.5453196067621999
417,0.047746988553669524,0.03139451441118887,0.08191467610375003,0.025520263584230162,0.03182874323411877,0.0415224066360575,0.024926887427679404,0.10194422172150816,0.021853937724400897,0.0460277538411967,0.5453196067621999
418,0.047746988553669524,0.03139451441118887,0.08191467610375003,0.025520263584230162,0.03182874323411877,0.0415224066360575,0.024926887427679404,0.10194422172150816,0.021853937724400897,0.0460277538411967,0.5453196067621999
419,0.047746988553669524,0.03139451441118887,0.08191467610375003,0.025520263584230162,0.03182874323411877,0.0415224066360575,0.024926887427679404,0.10194422172150816,0.021853937724400897,0.0460277538411967,0.5453196067621999
420,0.047746988553669524,0.03139451441118887,0.08191467610375003,0.025520263584230162,0.03182874323411877,0.0415224066360575,0.024926887427679404,0.10194422172150816,0.021853937724400897,0.0460277538411967,0.5453196067621999
421,0.047746988553669524,0.03139451441118887,0.08191467610375003,0.025520263584230162,0.03182874323411877,0.0415224066360575,0.024926887427679404,0.10194422172150816,0.021853937724400897,0.0460277538411967,0.5453196067621999
422,0.047746988553669524,0.03139451441118887,0.08191467610375003,0.025520263584230162,0.03182874323411877,0.0415224066360575,0.024926887427679404,0.10194422172150816,0.021853937724400897,0.0460277538411967,0.5453196067621999
423,0.047746988553669524,0.03139451441118887,0.08191467610375003,0.025520263584230162,0.03182874323411877,0.0415224066360575,0.024926887427679404,0.10194422172150816,0.021853937724400897,0.0460277538411967,0.5453196067621999
424,0.09745324277087644,0.09395387778900337,0.10015762423813944,0.1273229274873955,0.11552451521983068,0.12261702215780663,0.0354717242645318,0.10554694357176421,0.05737937756228882,0.04035657966166988,0.10421616527669308
425,0.09745324277087644,0.09395387778900337,0.10015762423813944,0.1273229274873955,0.11552451521983068,0.12261702215780663,0.0354717242645318,0.10554694357176421,0.05737937756228882,0.04035657966166988,0.10421616527669308
426,0.09745324277087644,0.09395387778900337,0.10015762423813944,0.1273229274873955,0.11552451521983068,0.12261702215780663,0.0354717242645318,0.10554694357176421,0.05737937756228882,0.04035657966166988,0.10421616527669308
427,0.09745324277087644,0.09395387778900337,0.10015762423813944,0.1273229274873955,0.11552451521983068,0.12261702215780663,0.0354717242645318,0.10554694357176421,0.05737937756228882,0.04035657966166988,0.10421616527669308
428,0.09745324277087644,0.09395387778900337,0.10015762423813944,0.1273229274873955,0.11552451521983068,0.12261702215780663,0.0354717242645318,0.10554694357176421,0.05737937756228882,0.04035657966166988,0.10421616527669308
429,0.09745324277087644,0.09395387778900337,0.10015762423813944,0.1273229274873955,0.11552451521983068,0.12261702215780663,0.0354717242645318,0.10554694357176421,0.05737937756228882,0.04035657966166988,0.10421616527669308
430,0.09745324277087644,0.09395387778900337,0.10015762423813944,0.1273229274873955,0.11552451521983068,0.12261702215780663,0.0354717242645318,0.10554694357176421,0.05737937756228882,0.04035657966166988,0.10421616527669308
431,0.09745324277087644,0.09395387778900337,0.10015762423813944,0.1273229274873955,0.11552451521983068,0.12261702215780663,0.0354717242645318,0.10554694357176421,0.05737937756228882,0.04035657966166988,0.10421616527669308
432,0.09745324277087644,0.09395387778900337,0.10015762423813944,0.1273229274873955,0.11552451521983068,0.12261702215780663,0.0354717242645318,0.10554694357176421,0.05737937756228882,0.04035657966166988,0.10421616527669308
433,0.09745324277087644,0.09395387778900337,0.10015762423813944,0.1273229274873955,0.11552451521983068,0.12261702215780663,0.0354717242645318,0.10554694357176421,0.05737937756228882,0.04035657966166988,0.10421616527669308
434,0.09745324277087644,0.09395387778900337,0.10015762423813944,0.1273229274873955,0.11552451521983068,0.12261702215780663,0.0354717242645318,0.10554694357176421,0.05737937756228882,0.04035657966166988,0.10421616527669308
435,0.09745324277087644,0.09395387778900337,0.10015762423813944,0.1273229274873955,0.11552451521983068,0.12261702215780663,0.0354717242645318,0.10554694357176421,0.05737937756228882,0.04035657966166988,0.10421616527669308
436,0.09745324277087644,0.09395387778900337,0.10015762423813944,0.1273229274873955,0.11552451521983068,0.12261702215780663,0.0354717242645318,0.10554694357176421,0.05737937756228882,0.04035657966166988,0.10421616527669308
437,0.09745324277087644,0.09395387778900337,0.10015762423813944,0.1273229274873955,0.11552451521983068,0.12261702215780663,0.0354717242645318,0.10554694357176421,0.05737937756228882,0.04035657966166988,0.10421616527669308
438,0.09745324277087644,0.09395387778900337,0.10015762423813944,0.1273229274873955,0.11552451521983068,0.12261702215780663,0.0354717242645318,0.10554694357176421,0.05737937756228882,0.04035657966166988,0.10421616527669308
439,0.09745324277087644,0.09395387778900337,0.10015762423813944,0.1273229274873955,0.11552451521983068,0.12261702215780663,0.0354717242645318,0.10554694357176421,0.05737937756228882,0.04035657966166988,0.10421616527669308
440,0.09745324277087644,0.09395387778900337,0.10015762423813944,0.1273229274873955,0.11552451521983068,0.12261702215780663,0.0354717242645318,0.10554694357176421,0.05737937756228882,0.04035657966166988,0.10421616527669308
441,0.09745324277087644,0.09395387778900337,0.10015762423813944,0.1273229274873955,0.11552451521983068,0.12261702215780663,0.0354717242645318,0.10554694357176421,0.05737937756228882,0.04035657966166988,0.10421616527669308
442,0.09745324277087644,0.09395387778900337,0.10015762423813944,0.1273229274873955,0.11552451521983068,0.12261702215780663,0.0354717242645318,0.10554694357176421,0.05737937756228882,0.04035657966166988,0.10421616527669308
443,0.09745324277087644,0.09395387778900337,0.10015762423813944,0.1273229274873955,0.11552451521983068,0.12261702215780663,0.0354717242645318,0.10554694357176421,0.05737937756228882,0.04035657966166988,0.10421616527669308
444,0.09745324277087644,0.09395387778900337,0.10015762423813944,0.1273229274873955,0.11552451521983068,0.12261702215780663,0.0354717242645318,0.10554694357176421,0.05737937756228882,0.04035657966166988,0.10421616527669308
445,0.09745324277087644,0.09395387778900337,0.10015762423813944,0.1273229274873955,0.11552451521983068,0.12261702215780663,0.0354717242645318,0.10554694357176421,0.05737937756228882,0.04035657966166988,0.10421616527669308
446,0.09745324277087644,0.09395387778900337,0.10015762423813944,0.1273229274873955,0.11552451521983068,0.12261702215780663,0.0354717242645318,0.10554694357176421,0.05737937756228882,0.04035657966166988,0.10421616527669308
447,0.09745324277087644,0.09395387778900337,0.10015762423813944,0.1273229274873955,0.11552451521983068,0.12261702215780663,0.0354717242645318,0.10554694357176421,0.05737937756228882,0.04035657966166988,0.10421616527669308
